~o
<STREAMINFO> 1 39
<VECSIZE> 39<NULLD><MFCC_D_A_0><DIAGC>
~s "silst"
<NUMMIXES> 5
<MIXTURE> 1 2.420849e-001
<MEAN> 39
 -2.843088e+000 1.091769e+000 8.569843e-001 -6.734162e+000 -3.356419e+000 -6.187706e+000 -1.056083e+000 -3.071965e+000 7.883699e-001 -1.736546e+000 9.941334e-001 -2.813894e+000 5.097537e+001 -1.355854e-001 -5.108753e-002 9.465175e-002 5.091543e-001 3.062027e-002 1.297533e-001 5.522548e-002 2.304733e-002 -4.405208e-002 -6.071070e-002 5.209726e-002 2.487100e-002 -1.020362e+000 -1.153976e-001 -8.850542e-002 -1.037415e-001 1.129055e-004 8.005127e-002 4.505340e-002 1.344306e-002 -2.051887e-002 5.260350e-003 -1.066981e-002 -2.575285e-002 -1.795979e-002 1.347262e-001
<VARIANCE> 39
 5.434682e+001 7.054451e+001 6.356430e+001 9.296771e+001 7.526139e+001 6.213408e+001 5.748290e+001 4.321433e+001 5.076722e+001 4.053733e+001 3.056822e+001 3.778275e+001 9.918040e+001 8.348759e-001 7.265381e-001 1.015383e+000 1.356940e+000 1.447738e+000 1.481270e+000 1.656530e+000 1.334278e+000 1.370744e+000 1.373003e+000 1.032797e+000 9.981992e-001 1.247049e+000 1.028502e-001 9.882962e-002 1.437576e-001 1.708318e-001 1.913008e-001 2.260425e-001 2.584441e-001 2.159399e-001 2.176023e-001 1.957782e-001 1.361226e-001 1.523556e-001 9.936918e-002
<GCONST> 1.027566e+002
<MIXTURE> 2 2.855409e-001
<MEAN> 39
 -2.898475e+000 -5.163738e+000 -2.499094e+000 -9.494714e+000 -7.558747e+000 -7.131899e+000 9.627264e-001 -5.190283e+000 5.742412e-001 -2.300053e+000 -4.134105e-001 -4.875285e+000 5.685980e+001 -7.282274e-001 1.143801e+000 6.904178e-001 1.129252e+000 9.623347e-001 1.496623e-001 -3.180419e-001 -1.068817e-002 -9.004820e-002 -1.458326e-001 1.170757e-001 2.934395e-001 -3.365433e+000 -3.567266e-001 -1.107680e-001 -2.426900e-001 1.676796e-001 4.451852e-001 1.273739e-001 -1.891497e-002 1.221749e-001 -5.733395e-002 -1.314397e-001 4.338034e-002 5.786600e-002 9.120212e-002
<VARIANCE> 39
 3.294186e+001 5.129583e+001 7.138164e+001 8.118139e+001 8.247006e+001 9.647437e+001 8.814217e+001 1.053419e+002 8.178862e+001 7.603184e+001 6.634644e+001 5.309777e+001 7.863757e+001 2.498970e+000 3.840477e+000 3.418713e+000 3.584521e+000 4.453557e+000 3.651821e+000 3.797930e+000 3.740845e+000 3.806428e+000 3.214457e+000 2.750975e+000 2.308897e+000 7.174809e+000 2.623523e-001 2.774393e-001 4.277971e-001 4.591409e-001 5.751926e-001 5.875458e-001 5.673992e-001 6.832410e-001 6.047426e-001 5.064604e-001 5.121712e-001 4.066483e-001 5.207290e-001
<GCONST> 1.340082e+002
<MIXTURE> 3 1.417893e-001
<MEAN> 39
 -2.878217e+000 3.258533e+000 1.282696e+000 -1.211317e+001 -1.649628e+000 -7.989380e+000 -4.133765e+000 -6.163705e+000 9.777216e-001 -2.363704e+000 -2.690074e-003 -2.807338e+000 5.467549e+001 -6.580111e-001 7.311022e-001 9.769934e-001 2.931047e+000 6.656670e-001 5.536810e-001 1.505493e-001 1.434239e-001 -6.037842e-001 -2.488822e-001 1.177277e-001 1.334261e-001 -4.472793e+000 -5.264793e-001 -6.465479e-001 -5.019336e-001 2.089073e-001 1.019931e-003 2.985492e-001 3.945660e-001 2.000484e-001 5.343820e-002 -8.629226e-002 3.294885e-002 -8.433133e-002 2.364060e-001
<VARIANCE> 39
 2.063345e+001 2.895858e+001 3.588891e+001 6.400069e+001 4.566100e+001 5.373958e+001 4.193877e+001 3.671997e+001 4.428705e+001 4.532140e+001 3.416513e+001 2.882379e+001 4.971716e+001 1.840965e+000 2.513241e+000 2.287573e+000 2.306706e+000 2.522421e+000 2.640389e+000 2.375729e+000 1.904989e+000 1.999687e+000 1.927149e+000 1.893844e+000 1.475863e+000 3.473348e+000 1.645425e-001 2.415895e-001 2.203519e-001 3.936686e-001 3.256419e-001 4.062468e-001 3.470262e-001 3.137140e-001 3.385177e-001 2.989005e-001 2.671708e-001 2.174351e-001 4.055659e-001
<GCONST> 1.136313e+002
<MIXTURE> 4 1.928884e-001
<MEAN> 39
 -1.053339e+001 -3.752109e+000 -4.037673e+000 -3.245869e+000 -1.836495e+000 -2.984766e+000 1.327565e+000 -4.257699e+000 4.544891e-001 -3.235343e+000 -1.571948e-001 -3.626838e+000 4.888260e+001 1.554573e-001 -3.650814e-002 3.201397e-001 2.470005e-001 2.635214e-001 -1.387898e-001 -6.140326e-002 1.512391e-001 -1.459266e-001 -1.198008e-001 -3.551291e-002 -1.226514e-002 -1.521910e+000 1.639535e-001 9.796246e-004 -4.974024e-003 -1.413536e-001 8.979416e-003 -1.100126e-001 -8.726986e-002 6.587547e-004 -2.414657e-002 -1.091527e-002 -9.970102e-003 7.879513e-004 1.930370e-001
<VARIANCE> 39
 6.087069e+001 6.020105e+001 4.946855e+001 5.382345e+001 5.879863e+001 4.228764e+001 4.867456e+001 6.669022e+001 5.165052e+001 5.526354e+001 4.695017e+001 3.974462e+001 1.022516e+002 1.445555e+000 1.385846e+000 1.602227e+000 1.563649e+000 2.132098e+000 1.504176e+000 1.628969e+000 1.680371e+000 1.637745e+000 1.616659e+000 1.469646e+000 9.793052e-001 5.416539e+000 1.725161e-001 2.012452e-001 2.228304e-001 2.335205e-001 2.601048e-001 2.502847e-001 2.614364e-001 2.876436e-001 3.080948e-001 2.702071e-001 2.709139e-001 2.277610e-001 3.954907e-001
<GCONST> 1.127682e+002
<MIXTURE> 5 1.376985e-001
<MEAN> 39
 -3.850746e+000 2.821158e+000 2.211473e+000 -1.300368e+001 -1.637042e+000 -6.614810e+000 -6.797933e+000 -4.659423e+000 -1.306081e+000 -3.039300e+000 6.811805e-001 -3.664260e+000 5.503860e+001 -9.562445e-001 5.857029e-001 6.169086e-001 2.753885e+000 7.536772e-001 2.374027e-001 4.906667e-002 -5.907800e-002 -6.340048e-001 -5.385298e-001 5.031850e-003 -5.406329e-003 -4.674272e+000 -5.474398e-001 -7.721278e-001 -6.637779e-001 2.905374e-001 -7.254830e-002 2.181936e-001 6.915755e-001 6.008409e-002 2.325880e-001 -8.164955e-003 -6.135568e-002 -3.181050e-002 2.879958e-001
<VARIANCE> 39
 1.916692e+001 3.157959e+001 3.244635e+001 6.109228e+001 4.575114e+001 5.940366e+001 5.852379e+001 4.694189e+001 4.882579e+001 4.683768e+001 3.485901e+001 2.662270e+001 5.111341e+001 1.735937e+000 2.842165e+000 2.285216e+000 2.244845e+000 2.767022e+000 2.761780e+000 2.344543e+000 2.326676e+000 1.976057e+000 1.782246e+000 1.803890e+000 1.252345e+000 3.911138e+000 1.748565e-001 2.253931e-001 2.326531e-001 4.360948e-001 3.538115e-001 4.313891e-001 5.218487e-001 3.990212e-001 4.196417e-001 3.533605e-001 3.050604e-001 2.169921e-001 4.932298e-001
<GCONST> 1.161008e+002
~h "zh"
<BEGINHMM>
<NUMSTATES> 5
<STATE> 2
<NUMMIXES> 5
<MIXTURE> 1 1.282635e-001
<MEAN> 39
 -2.987921e+000 4.365184e-001 -2.095168e+000 -1.201812e+001 -1.092360e+001 -3.655900e+000 -5.840206e-001 -8.981728e+000 2.131367e+000 4.469251e+000 -3.523156e+000 -4.360151e-001 6.728907e+001 -1.367836e+000 2.653543e+000 7.046891e-001 -1.112419e+000 1.355343e+000 2.244509e-001 -9.666770e-001 -3.414315e-001 1.359478e+000 -4.589126e-001 6.862202e-001 1.083761e+000 -5.204161e-001 -2.257871e-001 -9.491089e-002 -8.970500e-001 6.665401e-001 3.509951e-001 -3.180032e-001 7.810767e-001 5.534689e-001 7.467615e-003 -7.272584e-001 1.656763e-001 8.656614e-003 -1.273657e-002
<VARIANCE> 39
 3.129061e+001 1.915627e+000 2.439977e+001 1.113079e+001 7.360981e-001 5.171673e+000 4.429165e+000 5.237818e+000 3.092645e+001 4.144776e+001 1.643760e+001 3.070958e+001 6.786861e+001 1.479965e-001 7.697439e-001 8.698997e-001 3.106283e+000 1.432844e+000 7.614440e-001 1.869932e+000 8.227453e-001 1.801347e+000 2.450923e+000 5.057817e-002 3.214967e+000 2.169997e+000 1.911418e-001 1.084289e-001 2.524494e-001 1.367071e-001 1.804279e-001 1.082039e-001 3.758880e-001 2.196478e-001 6.732503e-002 9.992510e-002 1.242711e-001 2.405839e-001 9.316089e-002
<GCONST> 7.867838e+001
<MIXTURE> 2 2.307601e-001
<MEAN> 39
 -7.768099e+000 6.324443e+000 -3.720694e+000 -1.301946e+001 -7.399117e+000 -9.211030e+000 -5.401421e+000 -8.636423e+000 -3.004630e+000 -3.870824e+000 -6.713812e+000 -6.928494e+000 6.738407e+001 -7.560213e-001 4.258048e-001 -3.336103e-001 1.206259e+000 4.760089e-001 -6.688809e-001 8.037110e-001 -9.634729e-001 6.424837e-001 7.226754e-001 1.294189e+000 1.154849e+000 -6.448275e-001 -4.254082e-001 -2.000568e-001 -7.325262e-002 1.171721e-001 1.371597e-001 3.212057e-001 3.160675e-001 1.590718e-001 3.893369e-001 -2.045699e-001 3.290838e-001 3.466664e-001 -4.459066e-002
<VARIANCE> 39
 4.439510e+000 3.469537e+000 5.228305e+000 4.199974e+001 2.937542e+001 9.651846e+000 1.132255e+001 3.065057e+001 7.737763e+000 8.826438e+001 1.510362e+001 1.338303e+002 4.359451e+000 6.752669e-001 3.986185e-001 3.795222e-001 6.583709e-001 9.409581e-002 8.412962e-001 1.309942e+000 7.479270e-001 6.895881e-001 2.053051e-001 7.647738e-001 2.374568e+000 6.779101e-002 4.300187e-002 2.971698e-002 4.641524e-002 6.787501e-002 6.462771e-002 3.243901e-001 3.527483e-001 1.452153e-001 7.757582e-002 1.451776e-001 4.091907e-002 8.060165e-002 3.360864e-002
<GCONST> 6.475214e+001
<MIXTURE> 3 2.308696e-001
<MEAN> 39
 -6.807323e+000 5.275453e+000 -1.321424e-001 -2.180598e+001 -3.449729e+000 -4.745208e+000 -3.994662e+000 -6.397535e+000 3.934658e+000 -3.307480e+000 3.734918e+000 2.064955e+000 6.573663e+001 -1.291806e+000 1.571385e+000 -8.249452e-003 2.345808e+000 5.753134e-001 -2.923704e-001 5.046183e-001 -6.748000e-001 -2.201771e-001 5.440354e-001 1.942899e-001 4.248061e-001 -1.539817e+000 -6.816648e-001 -1.283998e-001 -2.949660e-001 4.874307e-001 2.899226e-001 4.809309e-002 5.483868e-001 1.062333e-001 2.309219e-001 2.131837e-001 -1.751094e-001 -6.766528e-002 -7.747956e-002
<VARIANCE> 39
 2.095049e+001 8.442666e+000 2.668990e+000 8.901207e+000 6.605662e+000 5.517529e+000 4.713950e+000 8.090869e+000 1.888729e+000 1.891359e+000 2.445031e+000 2.734479e+000 6.639706e+000 1.415011e+000 3.646708e-001 3.296119e-001 7.860816e-001 1.124294e+000 5.808172e-001 1.191078e+000 2.638052e-001 2.233525e-001 5.032068e-001 3.424280e-001 1.401271e-001 4.596555e-001 5.364112e-002 1.273240e-001 8.180559e-002 7.860786e-002 1.396966e-001 1.227470e-001 4.046376e-002 3.304788e-002 3.329831e-002 4.744186e-002 3.825735e-002 3.834798e-002 7.121430e-002
<GCONST> 4.639475e+001
<MIXTURE> 4 2.308469e-001
<MEAN> 39
 -6.051999e+000 1.825763e+000 -4.380837e+000 -1.789174e+001 -1.674123e+000 -5.424379e+000 -3.347373e+000 -4.448839e+000 9.351912e+000 -4.281523e+000 -1.375943e+000 -1.111680e+000 6.446440e+001 -1.799367e+000 1.900084e+000 3.966813e-001 2.020706e+000 -5.284538e-001 3.397219e-001 -4.095207e-001 7.337254e-002 -2.812054e-001 -3.696294e-001 3.232999e-001 9.629201e-001 -1.185799e+000 -5.469193e-001 -4.606997e-002 -4.364635e-001 7.249342e-001 2.232011e-001 8.454999e-002 3.966084e-001 2.771948e-001 -7.576687e-001 -3.786046e-002 -2.142161e-001 -2.465598e-001 -1.851195e-001
<VARIANCE> 39
 2.347314e+001 7.157529e+000 2.562378e+000 2.247176e+001 3.466169e+001 3.594611e+000 1.396158e+000 6.130476e+000 5.420115e+000 8.498337e+000 3.470876e+000 3.203610e+000 3.045973e+001 2.263000e+000 6.708793e-002 6.005152e-001 2.026483e+000 6.041644e+000 6.336995e-001 9.342499e-001 1.305537e+000 1.549836e+000 2.205351e+000 8.062579e-001 2.998991e-001 4.692045e-001 1.255116e-001 9.469387e-002 1.117857e-001 2.125223e-001 1.520222e-001 2.308949e-002 2.296517e-002 3.586495e-002 1.877580e-001 1.459680e-001 5.363452e-002 3.863870e-002 3.054574e-002
<GCONST> 6.219582e+001
<MIXTURE> 5 1.792598e-001
<MEAN> 39
 -8.464102e+000 6.201603e+000 -8.763946e+000 -1.053973e+001 -3.815281e-001 -1.009346e+001 -3.878614e+000 -1.438214e+001 -1.953333e+000 -9.885538e+000 -9.346863e+000 -1.280558e+001 6.275008e+001 -1.688436e+000 2.831533e+000 -2.843485e+000 8.235021e-001 7.405226e-001 -3.353610e-001 4.813077e-001 -1.051031e+000 1.722404e+000 -3.443349e-001 -8.737137e-002 2.537120e-001 -1.935224e-001 5.049771e-002 -3.951907e-001 1.439177e-001 -9.302340e-002 -2.422868e-001 7.619298e-002 1.711168e-001 3.240013e-001 -4.206354e-001 4.199984e-002 1.014745e-001 -1.611350e-001 -3.040225e-001
<VARIANCE> 39
 2.950789e+000 1.115536e+001 4.859143e+001 4.000650e+001 4.290278e+001 2.594385e+001 1.330500e+001 2.346108e+001 1.730527e+001 7.672824e+001 4.471294e+001 6.249858e+001 5.051872e+000 1.969550e+000 8.845312e-001 9.825621e-001 2.650147e+000 1.683420e+000 2.489360e+000 3.130766e+000 1.265278e+000 3.456082e+000 6.591830e-001 5.231010e-001 2.303730e+000 1.615943e+000 3.835246e-001 1.176649e-001 2.130980e-001 5.581446e-001 6.118122e-001 4.050839e-001 6.775146e-002 3.451387e-001 1.125933e-001 1.432111e-001 9.217202e-002 4.025745e-001 1.399039e-001
<GCONST> 9.829359e+001
<STATE> 3
<NUMMIXES> 5
<MIXTURE> 1 2.425991e-001
<MEAN> 39
 -1.204489e+001 7.674928e+000 -4.760674e+000 -6.974515e+000 -5.675301e+000 -6.992836e+000 4.370209e-002 -1.210802e+001 1.068484e+000 4.350765e+000 -2.076041e+000 1.497748e+000 6.583516e+001 -2.029524e+000 6.871465e-001 -1.221554e+000 4.029690e-001 1.998236e+000 6.815664e-001 8.851649e-001 1.151462e+000 5.517893e-001 -8.822309e-001 1.082426e+000 3.222893e-001 -9.048121e-001 2.534539e-001 -8.284712e-001 9.829605e-002 -3.027873e-001 1.309597e-001 6.265755e-003 1.356912e-001 6.886625e-001 -8.890238e-002 -2.405857e-001 2.548169e-002 -5.650130e-001 6.218432e-002
<VARIANCE> 39
 1.260511e+001 6.775469e+000 2.649582e+001 4.126377e+001 2.294342e+001 2.349537e+001 1.127792e+001 1.912254e+001 1.754602e+001 6.227066e+001 1.457311e+001 5.923009e+001 7.167442e+000 1.247496e+000 2.154632e+000 1.060203e+000 1.132353e+000 1.347058e+000 1.417740e+000 3.171971e+000 1.569997e+000 1.246925e+000 2.198809e+000 8.033606e-001 1.625707e+000 1.457919e+000 7.300690e-002 1.973560e-001 3.664539e-001 6.003469e-001 1.452064e-001 2.470074e-001 3.418334e-001 3.976575e-001 1.558507e-001 2.805678e-001 2.677763e-001 5.898931e-001 1.320776e-001
<GCONST> 9.751095e+001
<MIXTURE> 2 3.129656e-001
<MEAN> 39
 -7.805911e+000 1.546520e+001 -2.057957e+001 -9.975658e+000 -4.977611e+000 -1.257927e+001 -1.550148e+000 -1.639635e+001 1.594734e+000 -1.478488e+001 -1.269491e+001 -1.784267e+001 5.890941e+001 1.812488e-001 4.349325e-001 -2.377326e-001 2.464729e-001 -6.492137e-001 1.461059e-001 3.168755e-001 -2.281394e-001 2.840857e-001 -3.415176e-001 3.567722e-001 -2.815551e-001 -4.763804e-001 7.767686e-003 -1.436120e-001 1.302121e-001 -8.589979e-002 1.222591e-001 7.498109e-003 -3.593415e-002 -2.342536e-002 -1.423608e-001 -6.619259e-002 -3.708918e-002 -1.152722e-001 -2.209311e-002
<VARIANCE> 39
 6.091472e-001 2.302571e+000 1.786381e+000 1.197939e+000 8.781095e+000 2.069722e+000 3.068211e+000 4.730011e+000 2.397639e+000 5.798259e+000 5.357469e+000 3.938464e+000 2.720675e+000 3.294473e-002 1.047526e-001 1.412713e-001 2.106607e-001 4.939323e-001 1.457445e-001 8.477467e-002 3.623079e-001 3.592592e-001 5.720611e-001 9.466860e-002 2.481150e-001 5.280227e-002 8.921691e-003 1.869811e-002 4.554458e-002 2.108891e-002 4.718697e-002 6.583533e-002 2.042529e-002 5.268607e-002 2.240901e-002 7.078056e-002 3.474014e-002 3.798377e-003 8.898916e-003
<GCONST> 1.310436e+001
<MIXTURE> 3 1.454058e-001
<MEAN> 39
 -5.510376e+000 1.480299e+001 -1.934430e+001 -1.111429e+001 -2.367234e+000 -1.428903e+001 6.158997e-001 -2.024327e+001 6.924339e-001 -2.152460e+001 -1.481086e+001 -2.375090e+001 5.287307e+001 -1.622228e-001 -7.283134e-001 1.530278e+000 -3.164385e-001 1.761568e+000 -1.106372e+000 -5.348310e-001 5.478111e-001 -4.197096e-001 -2.564332e-001 -1.501178e+000 -6.517515e-001 -9.169696e-001 -3.372596e-001 -1.094391e-001 4.844947e-001 3.460123e-002 2.600746e-001 -9.925345e-002 -1.763757e-001 3.992286e-001 -1.819702e-001 2.012832e-001 4.121622e-002 2.399060e-001 -4.745925e-002
<VARIANCE> 39
 1.765208e+000 6.359695e+000 7.621501e+000 3.632947e+000 8.296243e+000 5.279956e+000 4.712305e+000 2.593544e+000 2.294453e+000 1.222383e+001 2.034417e+001 5.254206e+000 2.880389e+000 6.793271e-001 7.883401e-002 1.337708e+000 4.403261e-002 3.376909e-001 2.606576e-001 2.964356e-001 1.021871e+000 4.909291e-002 1.121406e-001 1.989991e-001 2.671085e-001 4.901518e-002 9.120096e-002 2.837270e-002 3.475306e-002 1.276273e-002 2.439804e-002 1.302644e-001 4.303766e-002 4.823038e-002 5.034395e-002 3.281951e-002 2.696784e-001 5.188847e-002 6.152933e-003
<GCONST> 3.085517e+001
<MIXTURE> 4 1.530076e-001
<MEAN> 39
 -1.886036e+001 1.029528e+001 -4.712041e+000 -5.494143e+000 3.286698e+000 -3.869718e+000 -5.576193e-001 -3.333889e+000 5.629799e+000 -1.155473e+000 2.127445e-001 1.751431e+000 5.889077e+001 -3.743746e+000 -2.518992e-002 -1.756321e+000 2.774984e+000 1.118543e+000 6.974885e-001 8.456355e-001 2.296466e-001 -6.160092e-001 3.038545e-001 -1.857912e-001 1.768730e-002 -7.867770e-001 3.574730e-001 -5.595815e-001 -9.407130e-002 -6.350467e-001 -6.213582e-001 1.061291e-001 -4.156610e-002 -1.402936e-001 -1.770363e-001 -1.089517e-001 1.532312e-001 -1.473628e-001 3.201845e-001
<VARIANCE> 39
 2.199370e+001 1.589112e+001 3.287999e+001 4.262050e+001 6.540670e+000 4.351433e+001 2.129858e+001 4.288966e+001 7.489305e+000 3.250915e+001 3.033341e+001 1.834846e+001 2.433983e+000 3.070658e-001 7.492719e-001 5.305064e-001 2.518982e-001 6.115089e-001 2.939108e-001 1.781621e+000 1.032946e+000 2.844156e+000 2.146682e-001 2.740455e-001 7.643341e-001 1.275218e-001 3.335488e-001 3.499896e-002 1.875321e-001 6.742579e-002 7.423941e-002 6.864906e-002 6.939288e-002 2.745881e-002 7.517560e-002 2.341863e-001 2.300007e-002 1.906472e-001 1.017017e-002
<GCONST> 6.682857e+001
<MIXTURE> 5 1.460218e-001
<MEAN> 39
 -1.306647e+001 8.071534e+000 -4.126011e+000 -4.842458e+000 -1.400679e+000 -3.022638e+000 -1.132755e-002 -7.280962e+000 4.923421e+000 -3.998986e+000 -2.060665e-001 -1.655749e+000 6.003722e+001 -3.668637e+000 5.803347e-001 -2.083286e+000 2.412123e+000 1.103405e-001 8.254275e-001 1.092180e+000 -4.860237e-002 -7.976834e-001 -4.471732e-001 -3.610466e-001 -7.480434e-001 -1.311142e+000 2.154988e-001 -6.902670e-001 -1.422848e-001 -8.660775e-001 1.139871e-001 -1.924654e-001 -2.930527e-001 1.407281e-001 -7.237641e-002 -3.259490e-002 -5.450881e-002 -5.674256e-002 2.766203e-001
<VARIANCE> 39
 1.364795e+001 1.079816e+001 4.799864e+000 6.677189e+000 5.043879e+001 1.063247e+001 1.307234e+001 2.241888e+001 1.587685e+001 3.925241e+001 2.369783e+001 3.548832e+001 5.382259e+000 1.300751e+000 2.358333e+000 1.171844e+000 1.209548e+000 1.316471e+000 4.398059e-002 1.446255e+000 1.258494e+000 1.462043e+000 2.348394e-001 3.732524e-001 5.735753e-001 4.288311e-001 2.672807e-001 5.189782e-002 1.796779e-001 3.011671e-001 7.032951e-001 2.217759e-001 3.927962e-002 5.011253e-001 4.389491e-001 2.447131e-001 9.401058e-002 3.247980e-001 1.334364e-001
<GCONST> 8.200288e+001
<STATE> 4
<NUMMIXES> 5
<MIXTURE> 1 1.874178e-001
<MEAN> 39
 -2.204100e+001 4.026294e+000 -7.614505e+000 -6.444743e+000 1.706466e+000 -3.828320e+000 7.960183e+000 -6.985572e+000 2.717053e+000 -3.383406e+000 3.748568e+000 -3.777111e+000 6.123184e+001 4.169900e-001 -7.535273e-001 1.316250e-001 -2.981763e-001 4.165848e-001 -3.457200e-001 7.293404e-001 3.390377e-001 1.541203e-001 4.180319e-001 7.796050e-001 -1.006527e-001 -1.164575e-001 1.013386e+000 -1.273052e-001 5.743547e-001 -2.244958e-001 -4.890531e-001 -1.155422e-001 -6.270829e-001 -2.116801e-001 -7.099169e-002 2.522837e-001 -3.665830e-001 2.657575e-002 3.553662e-001
<VARIANCE> 39
 3.986493e+001 3.455417e+001 1.136518e+001 1.630702e+001 3.083503e+001 1.263107e+001 3.617897e+001 4.681643e+001 9.862310e+000 2.742422e+001 1.133516e+001 4.680143e+001 2.750823e+001 5.980990e+000 5.218504e-001 1.578124e+000 2.552071e+000 1.398180e+000 1.205804e+000 1.289649e+000 2.096861e+000 4.101369e-001 1.126510e+000 4.959396e-001 2.298768e+000 1.233857e+000 2.295500e-001 3.160187e-001 8.396570e-002 1.516033e-001 4.334973e-001 8.338671e-002 2.150560e-001 8.639477e-001 2.807238e-002 1.143108e-001 1.603200e-001 3.657107e-001 1.649070e-001
<GCONST> 9.396159e+001
<MIXTURE> 2 2.077618e-001
<MEAN> 39
 -1.351526e+001 4.650764e+000 -3.532670e+000 -1.194541e+001 -2.795642e+000 -7.171565e+000 -1.061362e-001 -8.968671e+000 2.399199e+000 -9.293649e-001 -1.738751e+000 -2.951336e+000 6.448268e+001 2.098785e+000 -8.245909e-001 8.753861e-001 -1.363458e+000 -1.482111e+000 -3.245012e-001 -6.436920e-001 -9.195423e-001 -2.238685e-002 -1.457941e-001 -2.678041e-001 -9.352248e-001 1.364118e+000 3.983355e-002 -4.280293e-001 -9.640880e-002 1.850592e-001 -7.840598e-002 2.425027e-001 1.751271e-001 3.419123e-001 -4.685548e-002 -1.101917e-001 1.973508e-001 1.378775e-001 5.767839e-002
<VARIANCE> 39
 5.707678e+001 1.682627e+001 3.252468e+001 3.270538e+001 3.811784e+001 9.442460e+000 2.069247e+001 3.981610e+001 6.458953e+000 3.152530e+001 2.287868e+001 1.676150e+001 3.252452e+001 1.820983e+000 2.038874e+000 1.912191e+000 2.389266e+000 2.681545e+000 8.504525e-001 1.667416e+000 3.063137e+000 7.010375e-001 1.333716e+000 1.158860e+000 1.051610e+000 2.979988e+000 2.594647e-001 1.395482e-001 1.365622e-001 5.257348e-001 1.693645e-001 2.276735e-001 2.578629e-001 4.165576e-001 1.563796e-001 3.076256e-001 1.082145e-001 1.670376e-001 3.802561e-001
<GCONST> 9.991670e+001
<MIXTURE> 3 2.351803e-001
<MEAN> 39
 -2.275632e+001 2.605427e+000 -1.460163e+001 -4.362033e+000 7.365745e-001 -3.035963e+000 -3.628057e+000 -2.691487e+000 1.036292e-001 -3.873889e+000 -1.703784e+000 1.676456e+000 5.964114e+001 -1.797060e-002 2.486919e-001 -1.054686e-001 -2.435909e-001 2.231027e-002 -5.361351e-001 3.050655e-001 2.660539e-001 2.006849e-002 3.384118e-001 1.506283e-001 1.831257e-001 2.070773e-001 3.681658e-001 1.167358e-001 3.256401e-001 -1.896036e-001 -1.292401e-001 -1.952455e-001 1.195665e-001 -1.597316e-001 2.811063e-001 1.321751e-002 5.557394e-002 -2.592994e-001 6.809688e-002
<VARIANCE> 39
 6.588682e+000 1.896719e+001 1.463560e+001 1.984249e+001 5.872195e+000 1.898429e+001 1.325673e+001 3.318153e+001 1.923313e+001 1.062014e+001 2.949165e+001 4.318663e+001 9.920637e+000 5.160696e-001 5.142878e-001 5.616953e-001 5.053092e-001 4.300900e-001 5.072592e-001 5.858401e-001 3.491700e-001 9.606922e-001 5.102209e-001 1.376275e+000 6.961185e-001 4.901518e-002 2.104181e-001 1.577613e-001 6.202137e-002 1.344108e-001 9.760258e-002 7.488482e-002 1.042447e-001 3.376050e-002 1.805649e-001 1.375344e-001 1.529377e-001 1.377530e-001 2.782358e-002
<GCONST> 6.837575e+001
<MIXTURE> 4 2.070986e-001
<MEAN> 39
 -2.334987e+001 4.701244e+000 -1.145121e+001 -5.762848e+000 -5.433213e-001 -4.303158e+000 -1.066257e-001 -3.623439e+000 4.482923e+000 -3.322367e+000 2.113739e+000 -1.818527e+000 5.972042e+001 -1.222997e+000 -9.218080e-001 -6.159431e-001 -3.581386e-001 -1.508714e-001 3.733919e-001 7.623138e-002 1.665538e-001 -3.624931e-001 -6.220011e-001 -1.687133e-001 -5.962157e-001 -3.815149e-001 6.073298e-001 -7.833664e-002 2.255869e-001 -3.990247e-001 7.074380e-002 -1.795474e-001 -1.857519e-001 -5.940702e-002 -1.780534e-001 2.085416e-002 -2.301420e-001 1.649528e-002 7.561541e-002
<VARIANCE> 39
 1.842732e+001 2.889919e+001 1.797892e+001 7.599580e+000 1.128434e+001 1.715758e+001 1.533713e+001 2.514046e+001 1.573525e+001 8.016612e+000 3.973240e+001 3.093092e+001 7.899157e+000 1.754855e+000 3.390221e-001 1.280498e+000 7.566617e-001 1.078114e+000 5.732505e-001 2.531652e-001 8.810909e-001 5.950527e-001 4.704004e-001 3.230327e-001 7.776532e-001 1.527357e-001 1.290795e-001 7.823103e-002 9.979185e-002 1.315949e-001 1.563433e-001 3.831243e-002 6.793790e-002 7.532674e-002 1.181441e-001 1.779053e-001 2.249424e-001 7.433968e-002 5.006866e-002
<GCONST> 7.077602e+001
<MIXTURE> 5 1.625413e-001
<MEAN> 39
 -1.878046e+001 5.220602e+000 -7.483719e+000 -8.691603e+000 2.931144e+000 -6.771322e+000 -1.297597e+000 -4.080217e+000 2.596628e-001 -6.483728e+000 -1.773858e+000 -5.767971e+000 5.906994e+001 1.993388e+000 -9.439303e-001 1.183171e+000 -1.845354e+000 -6.531023e-001 -4.686866e-001 -5.273019e-001 -8.933464e-001 5.428769e-002 -3.302604e-002 -9.417065e-001 -7.036735e-001 8.070981e-001 5.391785e-001 -2.852817e-001 -1.171433e-001 -3.006395e-001 -4.207782e-001 -1.154939e-001 -1.056031e-001 -1.596061e-001 -3.296445e-002 1.535828e-001 -5.478934e-002 1.557837e-001 4.366201e-001
<VARIANCE> 39
 3.354937e+001 1.896955e+001 4.773487e+001 3.206997e+001 1.303510e+001 4.656423e+001 1.391884e+001 3.684265e+001 9.293983e+000 4.051440e+001 6.818781e+001 7.816829e+001 3.934075e+001 2.746098e+000 1.270751e+000 1.140361e+000 1.599435e+000 1.627480e+000 5.078603e-001 1.026242e+000 2.034220e+000 1.090208e+000 1.632563e+000 6.851904e-001 6.373029e-001 1.262798e+000 3.338723e-001 2.130714e-001 2.633664e-001 4.489000e-001 1.323124e-001 4.136814e-001 1.089692e-001 1.933217e-001 1.316960e-001 2.082199e-001 3.481651e-001 1.376944e-001 2.935203e-001
<GCONST> 9.927335e+001
<TRANSP> 5
 0.000000e+000 1.000000e+000 0.000000e+000 0.000000e+000 0.000000e+000
 0.000000e+000 6.921565e-001 3.078435e-001 0.000000e+000 0.000000e+000
 0.000000e+000 0.000000e+000 7.091919e-001 2.908081e-001 0.000000e+000
 0.000000e+000 0.000000e+000 0.000000e+000 8.511868e-001 1.488133e-001
 0.000000e+000 0.000000e+000 0.000000e+000 0.000000e+000 0.000000e+000
<ENDHMM>
~h "b"
<BEGINHMM>
<NUMSTATES> 5
<STATE> 2
<NUMMIXES> 5
<MIXTURE> 1 1.483872e-001
<MEAN> 39
 2.998509e+000 4.760285e+000 6.019945e+000 5.444128e-001 1.735635e+000 -3.132341e+000 8.969977e-002 -2.914068e+000 5.221000e-001 -2.963458e+000 1.485814e+000 -2.471043e+000 4.790040e+001 -7.468482e-001 -1.325897e-001 2.027356e-002 3.414716e-001 1.654120e-001 3.118920e-001 4.017522e-001 1.376147e-001 2.690987e-001 2.811036e-003 -1.793094e-002 6.905439e-002 -7.604418e-001 -1.260455e-001 -3.717281e-001 -2.475799e-001 -1.277665e-001 -1.974487e-001 -2.705399e-001 -2.031324e-001 -2.225076e-002 1.627713e-001 3.638054e-002 3.466426e-002 -3.105409e-002 5.087421e-001
<VARIANCE> 39
 1.843715e+001 1.455016e+001 2.563693e+001 2.470219e+001 3.536293e+001 3.847489e+001 4.083462e+001 4.658140e+001 4.586947e+001 3.278698e+001 4.501115e+001 2.100684e+001 8.531101e+001 8.339316e-001 9.106456e-001 1.157495e+000 1.153618e+000 8.400205e-001 9.465649e-001 1.675625e+000 1.579104e+000 1.218349e+000 1.258345e+000 1.536044e+000 9.578407e-001 6.203794e-001 1.503706e-001 1.168161e-001 2.000082e-001 2.367668e-001 1.508456e-001 2.726664e-001 3.402597e-001 3.362945e-001 3.416137e-001 2.450829e-001 3.295163e-001 1.913458e-001 1.615807e-001
<GCONST> 9.867667e+001
<MIXTURE> 2 2.733802e-001
<MEAN> 39
 -1.554134e+000 4.995259e+000 3.562226e+000 3.014666e+000 4.535218e+000 -3.996645e+000 -3.470264e+000 -6.369032e+000 -1.684635e-001 -4.386430e+000 1.270232e+000 -4.048806e+000 4.065703e+001 -1.522201e+000 -7.985023e-001 -7.221593e-001 -7.763639e-001 -4.961005e-001 5.656070e-001 6.446100e-001 2.651325e-001 1.881891e-001 4.068116e-001 6.526361e-002 1.899511e-001 1.153257e+000 9.651421e-002 -9.136494e-001 -8.852768e-001 -8.435572e-001 -6.681400e-001 -4.227898e-001 1.920808e-001 2.863344e-001 1.181056e-001 1.352730e-001 3.076269e-002 -1.530763e-002 1.787020e+000
<VARIANCE> 39
 1.654385e+001 7.105739e+000 2.177218e+001 1.107509e+001 1.707755e+001 1.890596e+001 2.060573e+001 2.695280e+001 2.252441e+001 2.233878e+001 1.915600e+001 1.666562e+001 1.461391e+001 1.261988e+000 1.598352e+000 2.222737e+000 1.097644e+000 1.220564e+000 1.447254e+000 1.140085e+000 1.880397e+000 1.148731e+000 1.062384e+000 1.183520e+000 8.334916e-001 4.133633e+000 2.412715e-001 2.858312e-001 3.574334e-001 2.326415e-001 2.929303e-001 2.792664e-001 2.971181e-001 3.022787e-001 3.136019e-001 3.022151e-001 2.275283e-001 1.903376e-001 3.164876e-001
<GCONST> 9.650420e+001
<MIXTURE> 3 2.307759e-001
<MEAN> 39
 -1.109322e+001 -3.558841e+000 -2.012447e+000 -2.774834e+000 2.138141e-001 -3.486976e+000 9.407115e-001 -2.221104e+000 9.509655e-001 -3.659265e+000 1.152603e+000 -3.220771e+000 4.074509e+001 -4.189358e-001 -4.261240e-001 -1.737362e-001 -2.384745e-001 -3.789866e-002 9.543188e-002 2.662324e-002 5.042310e-002 2.268756e-001 9.979982e-002 6.775520e-002 -7.348084e-002 1.943725e-002 2.675476e-001 8.535507e-002 6.805054e-003 -4.017503e-002 -7.000193e-002 -1.421055e-001 -1.156635e-001 -3.758764e-002 3.646198e-002 -1.007027e-002 -3.814965e-002 6.533021e-002 8.933557e-001
<VARIANCE> 39
 1.783662e+001 6.458330e+000 8.067175e+000 8.449598e+000 1.289014e+001 2.207204e+001 2.285629e+001 2.151606e+001 1.785332e+001 2.131228e+001 2.243492e+001 2.264290e+001 5.821135e+001 7.527624e-001 5.154185e-001 6.735993e-001 7.500822e-001 7.484493e-001 8.498378e-001 8.129155e-001 8.712391e-001 7.253729e-001 8.659603e-001 6.903130e-001 8.656923e-001 9.427130e-001 1.347987e-001 1.005815e-001 1.263176e-001 1.755943e-001 1.501047e-001 1.764928e-001 2.079644e-001 1.670457e-001 1.826615e-001 2.045663e-001 1.711450e-001 1.317764e-001 7.817460e-001
<GCONST> 8.283968e+001
<MIXTURE> 4 2.018997e-001
<MEAN> 39
 -3.364399e-001 2.159688e+000 7.351352e-001 2.625412e-001 3.499016e+000 -5.675859e+000 -4.196090e+000 -5.873924e+000 -1.182275e+000 -7.250111e+000 -2.023689e+000 -5.631817e+000 4.495935e+001 -1.221392e+000 -1.214169e+000 -9.430847e-001 -1.333833e+000 -1.204251e+000 -8.861849e-002 1.086601e+000 1.263773e-001 5.480859e-001 6.539689e-001 2.122497e-001 3.552743e-001 2.352297e+000 5.989787e-002 -6.270501e-001 -5.026412e-001 -6.936707e-001 -5.347896e-001 -3.785335e-001 4.853882e-002 7.556380e-002 2.791263e-001 2.790107e-001 1.660506e-001 -4.559578e-002 1.515180e+000
<VARIANCE> 39
 3.195042e+001 2.608157e+001 3.551799e+001 3.921085e+001 4.440940e+001 3.897377e+001 4.245562e+001 4.576706e+001 2.808101e+001 5.115602e+001 3.771082e+001 3.407070e+001 5.202948e+001 1.531447e+000 1.951166e+000 2.808296e+000 2.940934e+000 1.862499e+000 1.891508e+000 2.743361e+000 2.955896e+000 2.036467e+000 2.507040e+000 2.043931e+000 1.452698e+000 2.945136e+000 3.201787e-001 3.421642e-001 4.695019e-001 5.300527e-001 4.342236e-001 3.478802e-001 6.130648e-001 6.605902e-001 3.081609e-001 4.216958e-001 3.717316e-001 2.726759e-001 4.178661e-001
<GCONST> 1.178087e+002
<MIXTURE> 5 1.455567e-001
<MEAN> 39
 1.781289e+000 4.848801e+000 4.473305e+000 -2.091848e-001 -3.559154e-002 -5.368138e+000 -3.013384e+000 -4.549722e+000 1.179643e-001 -2.933318e+000 8.865558e-001 -3.681898e+000 4.439274e+001 -1.075658e+000 -4.088764e-001 -2.405977e-001 1.334182e-001 -7.425314e-002 8.916153e-002 2.394395e-001 3.144742e-002 6.393678e-002 -1.238032e-001 -1.733546e-001 -1.280400e-001 -7.877903e-001 -6.848278e-002 -4.096659e-001 -2.590857e-001 -2.498982e-001 -6.338088e-002 -2.252364e-001 -1.036802e-001 1.386629e-001 9.111231e-002 -1.962757e-002 -2.475515e-002 -4.570186e-002 5.930949e-001
<VARIANCE> 39
 1.800055e+001 1.738675e+001 2.956890e+001 1.871275e+001 3.418049e+001 5.425854e+001 6.419377e+001 4.094895e+001 3.536483e+001 3.151171e+001 3.624950e+001 2.433739e+001 7.114835e+001 7.309772e-001 1.029272e+000 8.690467e-001 1.209837e+000 6.849558e-001 1.385817e+000 1.300876e+000 1.608533e+000 1.074784e+000 1.097040e+000 1.331242e+000 9.519219e-001 5.114411e-001 9.934423e-002 1.437736e-001 2.215095e-001 2.250651e-001 2.514715e-001 3.240058e-001 3.450768e-001 2.804497e-001 2.112558e-001 2.636147e-001 2.512762e-001 2.135447e-001 1.701079e-001
<GCONST> 9.771059e+001
<STATE> 3
<NUMMIXES> 5
<MIXTURE> 1 2.015508e-001
<MEAN> 39
 -7.253494e+000 -2.953673e+000 1.068406e+000 -2.419049e+000 1.145423e+000 -4.520414e+000 8.010249e-001 -7.603902e-001 2.253046e+000 -3.398880e+000 6.804509e-001 -4.574136e+000 5.056921e+001 7.493089e-001 -1.401228e+000 -9.296373e-001 -9.599149e-002 -8.537516e-001 -1.353537e+000 -1.023716e+000 1.173427e-001 9.704257e-001 2.229072e-001 -4.256435e-002 -1.093253e-001 2.206586e+000 8.538781e-001 -6.233685e-002 -1.684091e-001 9.541985e-002 -2.877857e-001 -3.725216e-001 -3.728701e-001 -2.009279e-001 1.684468e-001 1.520155e-001 -1.541927e-001 1.179140e-001 3.461728e-001
<VARIANCE> 39
 1.576796e+001 2.075782e+001 2.134769e+001 2.636918e+001 1.746183e+001 2.372927e+001 2.895283e+001 2.089896e+001 1.987099e+001 2.220734e+001 1.480967e+001 2.561307e+001 6.283539e+001 3.003336e+000 1.080205e+000 1.261690e+000 1.856490e+000 1.448661e+000 1.250789e+000 1.799725e+000 1.811417e+000 1.434128e+000 2.685163e+000 1.146935e+000 9.124885e-001 2.144755e+000 2.128223e-001 1.996310e-001 2.360711e-001 3.127131e-001 1.960084e-001 2.328744e-001 2.812693e-001 3.154095e-001 1.958311e-001 2.698849e-001 2.235663e-001 1.635753e-001 2.304708e-001
<GCONST> 9.937266e+001
<MIXTURE> 2 2.484724e-001
<MEAN> 39
 -4.431973e-001 2.406026e+000 1.957325e+000 -9.680868e-001 9.812604e-001 -5.475850e+000 -2.368055e+000 -4.349709e+000 6.412387e-001 -1.855440e+000 2.106978e+000 -1.814050e+000 4.799749e+001 9.916937e-002 -1.612763e+000 -2.422151e+000 -9.758329e-001 -2.357185e-001 -9.509177e-001 -4.266708e-002 2.103511e-001 9.428281e-001 1.340403e-001 -5.489900e-001 5.217859e-002 3.052714e+000 4.266662e-001 -3.773242e-001 -5.510898e-001 -1.593444e-001 -8.337932e-002 -1.942362e-001 -1.909648e-001 1.036713e-001 1.710854e-001 -1.264965e-002 -1.421374e-001 -9.295840e-002 8.998194e-001
<VARIANCE> 39
 2.111714e+001 2.482648e+001 5.585308e+001 4.799738e+001 5.652022e+001 6.106751e+001 7.294753e+001 4.196114e+001 5.164207e+001 3.982701e+001 3.305294e+001 2.793000e+001 1.114350e+002 1.516484e+000 1.654705e+000 4.728911e+000 3.126938e+000 3.125832e+000 2.265043e+000 3.666288e+000 4.391329e+000 3.030399e+000 1.977173e+000 2.632265e+000 1.599360e+000 3.282847e+000 2.518672e-001 2.200025e-001 6.154627e-001 2.935349e-001 4.568094e-001 4.165761e-001 3.643567e-001 5.090954e-001 5.105062e-001 2.370610e-001 3.625588e-001 2.074149e-001 2.152248e-001
<GCONST> 1.197592e+002
<MIXTURE> 3 1.696996e-001
<MEAN> 39
 -1.350218e+001 -3.034945e+000 -2.150270e+000 -1.694375e+000 4.875915e-001 -2.352372e+000 1.396402e+000 -1.547571e+000 1.614719e+000 -2.618230e+000 1.517560e+000 -2.300930e+000 3.611420e+001 5.000035e-001 -6.398002e-001 -3.741208e-001 -1.306671e+000 -7.151329e-001 -3.181083e-001 -5.317941e-002 8.514236e-002 3.664027e-001 3.825336e-001 -5.237340e-002 2.238117e-001 4.454898e+000 7.497560e-001 9.115684e-002 -3.360095e-001 -4.898718e-001 -1.208612e-001 -3.426883e-001 -2.305821e-001 -1.723215e-001 -3.018066e-002 -4.151274e-002 -1.328056e-001 -1.755380e-001 1.603673e+000
<VARIANCE> 39
 4.643712e+000 7.641680e+000 9.350945e+000 1.318702e+001 1.540687e+001 1.825671e+001 1.996845e+001 1.637966e+001 1.429671e+001 2.434405e+001 1.293044e+001 1.062057e+001 2.161823e+001 1.297516e+000 1.613180e+000 2.328527e+000 1.790058e+000 1.338854e+000 1.228740e+000 1.345600e+000 1.267304e+000 1.659046e+000 1.328973e+000 8.142517e-001 8.861333e-001 2.711111e+000 2.000121e-001 3.068288e-001 3.183765e-001 2.203415e-001 2.327350e-001 1.995733e-001 2.486591e-001 2.974855e-001 1.857738e-001 2.387919e-001 1.637089e-001 2.014010e-001 4.528718e-001
<GCONST> 9.155704e+001
<MIXTURE> 4 2.214898e-001
<MEAN> 39
 -6.307671e+000 -2.774352e+000 -2.245884e+000 -4.285498e+000 -9.075595e-002 -5.659944e+000 -7.595726e-001 -5.166436e+000 -9.198743e-001 -4.590056e+000 -2.593255e-001 -4.811057e+000 5.468354e+001 -3.184775e-001 -2.045056e+000 -1.902489e+000 -2.301198e+000 -1.792995e+000 -6.743501e-001 9.248960e-001 3.444705e-001 9.817225e-001 1.013656e+000 2.640757e-001 -2.464004e-001 4.614810e+000 4.192015e-001 -1.830275e-001 -2.051540e-001 -2.286293e-001 -1.225058e-001 -1.927092e-001 -9.208597e-002 6.024676e-002 1.662319e-001 -1.329564e-001 -1.703060e-002 -1.545430e-001 4.792648e-001
<VARIANCE> 39
 2.806973e+001 2.368410e+001 3.230711e+001 3.001918e+001 3.855185e+001 3.381405e+001 3.794359e+001 4.307338e+001 2.527402e+001 3.943274e+001 3.414529e+001 2.261133e+001 4.645193e+001 2.036860e+000 2.736431e+000 4.160028e+000 3.197163e+000 2.801936e+000 2.151388e+000 4.429393e+000 3.158876e+000 2.947447e+000 2.764196e+000 2.504648e+000 2.660177e+000 4.050460e+000 2.748978e-001 2.317041e-001 2.034952e-001 3.334608e-001 2.832998e-001 2.730905e-001 3.623496e-001 5.460145e-001 3.052084e-001 2.588032e-001 2.344891e-001 2.452976e-001 2.343192e-001
<GCONST> 1.146828e+002
<MIXTURE> 5 1.587868e-001
<MEAN> 39
 -1.399330e+001 -4.390966e+000 -2.934475e+000 -3.574727e+000 -4.180290e-001 -3.541496e+000 1.329967e+000 -2.872336e+000 1.313302e+000 -2.619127e+000 1.530420e+000 -3.100693e+000 3.940137e+001 7.614129e-001 -1.353159e+000 -1.110998e+000 -1.543177e+000 -1.198516e+000 -3.710058e-001 1.130140e-001 3.011460e-002 1.591147e-001 4.295212e-002 -3.582143e-001 -2.920710e-001 4.534505e+000 9.202589e-001 -1.154586e-001 -3.220313e-001 -2.686948e-001 -1.834965e-001 -3.570286e-001 -6.227858e-002 3.145175e-002 -1.658442e-001 -1.487949e-001 -1.983273e-001 -1.801028e-001 1.450082e+000
<VARIANCE> 39
 4.915919e+000 7.457723e+000 6.464983e+000 1.522960e+001 1.275681e+001 1.718478e+001 1.180195e+001 1.702598e+001 1.385399e+001 1.690296e+001 2.046425e+001 1.515355e+001 4.597749e+001 2.080535e+000 1.841768e+000 1.894587e+000 1.484722e+000 1.075469e+000 1.474354e+000 1.317277e+000 1.224143e+000 1.373352e+000 1.117814e+000 1.060311e+000 7.053721e-001 3.187905e+000 2.401748e-001 2.988398e-001 3.439371e-001 2.536355e-001 3.086306e-001 2.044032e-001 2.361545e-001 3.035609e-001 2.785310e-001 1.949234e-001 2.251621e-001 2.343912e-001 4.318198e-001
<GCONST> 9.302976e+001
<STATE> 4
<NUMMIXES> 5
<MIXTURE> 1 2.795270e-001
<MEAN> 39
 1.898554e+000 -4.176347e+000 -6.625877e+000 -3.477699e+000 -1.357231e+000 -1.063460e+001 -4.835888e+000 -2.836663e+000 6.295593e+000 -7.443112e-001 -7.593545e-001 -3.541185e+000 6.089855e+001 1.797357e+000 -1.666522e+000 -1.872567e+000 -9.670400e-002 -1.333010e+000 -1.412604e+000 -4.173999e-001 -1.807635e-002 1.352337e+000 3.528741e-001 -6.857079e-001 4.193973e-001 2.833413e+000 -1.374281e-002 2.926266e-002 3.313490e-001 7.960889e-002 -5.514428e-002 3.151094e-001 2.241334e-001 -1.139055e-001 -2.343535e-001 -1.729667e-001 1.308767e-001 2.555951e-002 -4.395301e-001
<VARIANCE> 39
 2.206523e+001 2.674686e+001 8.843539e+001 2.421552e+001 3.314151e+001 2.625164e+001 3.608548e+001 2.936924e+001 2.372260e+001 3.171999e+001 2.617279e+001 2.219245e+001 4.676453e+001 2.209527e+000 1.870594e+000 4.553427e+000 2.223424e+000 2.781760e+000 1.649176e+000 3.129619e+000 2.394291e+000 2.545756e+000 2.361969e+000 2.517752e+000 1.407212e+000 2.953453e+000 1.536367e-001 1.376181e-001 2.110673e-001 2.346087e-001 2.528255e-001 2.259818e-001 2.414173e-001 2.286816e-001 2.035802e-001 2.364652e-001 2.662649e-001 1.601347e-001 3.826717e-001
<GCONST> 1.079373e+002
<MIXTURE> 2 1.627990e-001
<MEAN> 39
 -9.340581e+000 -5.785776e+000 -2.832171e+000 -8.109301e+000 -3.654531e+000 -4.296252e+000 2.624652e+000 -4.752693e+000 3.885643e+000 -2.781929e+000 1.370420e+000 -1.336678e+000 5.941121e+001 1.484597e+000 -7.222040e-001 -1.938269e+000 -2.224899e+000 -4.221525e-001 -1.051052e+000 -3.628730e-001 -3.546233e-001 4.080532e-001 1.673882e-001 3.238067e-002 1.999324e-001 5.302015e+000 5.478641e-001 4.168804e-001 -1.183478e-001 2.733146e-001 4.287874e-001 -1.855040e-001 -2.943639e-001 -7.554427e-002 -1.817361e-001 -6.761917e-002 5.455425e-002 -3.962239e-002 -5.228771e-001
<VARIANCE> 39
 2.516835e+001 2.333563e+001 4.426991e+001 4.240561e+001 2.779806e+001 2.108830e+001 3.741525e+001 3.522479e+001 3.331550e+001 2.859226e+001 2.815851e+001 2.399934e+001 4.072853e+001 2.481436e+000 4.229195e+000 4.909644e+000 3.363765e+000 2.613752e+000 2.230344e+000 2.538160e+000 2.533572e+000 1.503995e+000 1.437534e+000 1.927294e+000 1.177974e+000 2.501379e+000 4.047370e-001 2.364104e-001 2.452778e-001 3.672276e-001 2.348595e-001 2.994795e-001 3.975778e-001 2.454121e-001 2.561463e-001 2.728045e-001 2.803336e-001 2.661349e-001 4.072423e-001
<GCONST> 1.116264e+002
<MIXTURE> 3 1.720470e-001
<MEAN> 39
 -4.402882e+000 -7.813004e+000 -5.044534e+000 -1.277525e+001 -8.956676e+000 -7.910875e+000 2.949313e+000 -2.737707e+000 2.146620e+000 -2.833328e+000 3.249819e+000 -8.532365e+000 7.008818e+001 8.943496e-002 -1.944101e+000 -1.717479e+000 -2.817842e+000 -1.513266e+000 8.265056e-002 1.359402e+000 2.865880e-001 -1.608407e-001 1.628935e-001 7.377081e-002 -7.997987e-001 5.155642e+000 4.726507e-002 2.530535e-001 2.132294e-001 6.039949e-001 7.088821e-001 3.477820e-001 -1.772014e-001 -6.061436e-002 -1.818940e-001 -1.761383e-001 -3.248577e-001 3.402708e-001 -1.148166e+000
<VARIANCE> 39
 1.022947e+001 1.361089e+001 6.043833e+001 3.830532e+001 4.193594e+001 2.063914e+001 3.753978e+001 4.467977e+001 2.956618e+001 2.755226e+001 3.812857e+001 2.307261e+001 3.331369e+001 1.625712e+000 1.336350e+000 2.723298e+000 2.219762e+000 2.629493e+000 1.497201e+000 2.004723e+000 3.730083e+000 2.232196e+000 1.915784e+000 1.820172e+000 1.851606e+000 2.944535e+000 1.581898e-001 1.179428e-001 1.976993e-001 2.377205e-001 1.948740e-001 1.342793e-001 2.057864e-001 2.587012e-001 2.510574e-001 2.192607e-001 2.894572e-001 2.596114e-001 2.804008e-001
<GCONST> 1.048678e+002
<MIXTURE> 4 2.187539e-001
<MEAN> 39
 3.592517e+000 -5.486930e+000 -1.652598e+001 -1.073574e+001 3.574648e+000 -1.072576e+001 -5.756207e+000 -2.361317e+000 3.973455e+000 2.756984e-001 -4.002466e-001 -7.612486e+000 6.292221e+001 1.423164e+000 -1.571389e+000 -3.299907e+000 -8.789648e-001 4.492075e-001 -4.750311e-001 -3.857169e-001 8.395682e-001 6.813638e-001 1.037140e-001 -6.543075e-001 -6.130051e-001 3.232425e+000 -2.792695e-001 1.778655e-001 6.980826e-001 6.121503e-001 -8.961936e-002 3.361682e-001 2.159186e-001 -4.068640e-002 -3.168027e-001 -4.791088e-001 -2.499856e-002 2.447930e-001 -8.110807e-001
<VARIANCE> 39
 2.683730e+001 3.826535e+001 8.224713e+001 5.011486e+001 4.199838e+001 5.376775e+001 7.265888e+001 1.180997e+002 3.449522e+001 4.864227e+001 5.121918e+001 3.984978e+001 7.897794e+001 2.108874e+000 2.499989e+000 2.756230e+000 2.311059e+000 3.368618e+000 3.215723e+000 3.378321e+000 4.151726e+000 3.787007e+000 2.980061e+000 1.999018e+000 2.093201e+000 3.185286e+000 2.713521e-001 1.799351e-001 4.040129e-001 2.787846e-001 2.750964e-001 2.621144e-001 4.085016e-001 6.515837e-001 3.550903e-001 4.080683e-001 3.568571e-001 2.989730e-001 3.595557e-001
<GCONST> 1.223330e+002
<MIXTURE> 5 1.668729e-001
<MEAN> 39
 -1.139671e+001 -6.548917e+000 -2.360374e+000 -7.546624e+000 -4.468281e+000 -6.135605e+000 1.545149e+000 -3.502662e+000 1.580953e+000 -4.700315e+000 1.291966e+000 -3.268777e+000 5.906051e+001 1.416350e+000 -5.391759e-001 -1.589301e+000 -1.829807e+000 -7.735401e-001 -1.201657e+000 -6.081973e-001 -2.250288e-001 2.804431e-001 -1.448605e-001 -2.630651e-001 -4.328496e-001 5.062684e+000 6.133119e-001 2.957714e-001 -2.275882e-001 1.443280e-001 2.260461e-001 -1.939701e-001 -1.599881e-001 -1.080147e-001 4.863076e-003 -4.520023e-002 -4.734801e-002 -8.989780e-002 -3.569441e-001
<VARIANCE> 39
 1.958419e+001 2.897613e+001 3.867919e+001 2.277493e+001 2.627128e+001 2.241988e+001 3.234896e+001 2.500925e+001 3.431527e+001 3.344861e+001 2.300000e+001 2.130308e+001 3.254165e+001 3.638082e+000 4.445059e+000 4.347843e+000 3.011415e+000 2.212859e+000 2.401125e+000 2.102566e+000 2.625306e+000 1.580217e+000 1.677802e+000 1.368875e+000 1.342092e+000 3.677238e+000 3.556450e-001 2.626573e-001 2.911304e-001 2.568472e-001 2.747619e-001 2.636783e-001 3.420216e-001 2.559600e-001 2.782155e-001 2.470634e-001 2.387224e-001 1.967476e-001 3.118799e-001
<GCONST> 1.092901e+002
<TRANSP> 5
 0.000000e+000 1.000000e+000 0.000000e+000 0.000000e+000 0.000000e+000
 0.000000e+000 6.154491e-001 3.845509e-001 0.000000e+000 0.000000e+000
 0.000000e+000 0.000000e+000 4.717008e-001 5.282992e-001 0.000000e+000
 0.000000e+000 0.000000e+000 0.000000e+000 5.064334e-001 4.935665e-001
 0.000000e+000 0.000000e+000 0.000000e+000 0.000000e+000 0.000000e+000
<ENDHMM>
~h "d"
<BEGINHMM>
<NUMSTATES> 5
<STATE> 2
<NUMMIXES> 5
<MIXTURE> 1 1.275253e-001
<MEAN> 39
 9.785222e-001 1.798624e+000 4.558746e+000 -3.757132e+000 -5.339777e+000 -5.244857e+000 2.013813e+000 -1.281415e+000 2.429516e-001 -5.062139e-001 7.390723e-001 -2.164707e+000 5.290593e+001 -4.031524e-001 5.245664e-001 -5.663386e-003 3.190311e-001 9.285125e-001 3.087142e-001 2.590992e-002 -4.091505e-002 -1.187247e-001 -2.158018e-001 1.398031e-001 9.873316e-002 -9.434415e-001 -3.156434e-001 -2.091190e-001 -3.124701e-001 -3.236853e-001 -4.925925e-002 -1.290209e-002 -5.735631e-002 -5.346885e-002 2.442845e-001 -2.386599e-003 -1.198191e-001 2.416415e-002 6.083655e-001
<VARIANCE> 39
 3.227312e+001 3.059689e+001 3.449743e+001 4.180776e+001 5.006522e+001 5.317175e+001 5.142360e+001 4.836049e+001 2.954000e+001 4.224450e+001 3.597266e+001 2.789152e+001 9.440939e+001 1.162399e+000 1.705434e+000 1.423155e+000 2.110569e+000 1.820007e+000 1.957352e+000 1.785362e+000 1.283746e+000 1.741684e+000 1.791705e+000 1.539634e+000 1.383826e+000 1.888543e+000 1.268259e-001 1.382332e-001 2.174959e-001 2.924556e-001 3.883549e-001 3.047045e-001 3.270344e-001 2.554965e-001 3.159416e-001 3.901633e-001 2.430181e-001 2.220939e-001 3.022478e-001
<GCONST> 1.089297e+002
<MIXTURE> 2 2.708883e-001
<MEAN> 39
 -1.262024e+001 -1.941396e+000 -2.625937e+000 -1.202164e+000 1.770949e-001 -1.589493e+000 -3.672532e-003 -2.610432e+000 -2.607745e-002 -3.914357e+000 1.500477e-001 -2.837815e+000 4.112193e+001 -3.970195e-001 -6.721414e-001 -1.061646e+000 -1.227072e+000 -8.184137e-001 2.980980e-002 1.692093e-001 -5.307395e-002 6.171595e-001 3.250147e-001 2.518051e-002 3.899283e-001 3.512472e+000 4.670161e-001 1.152151e-001 1.027021e-001 -6.082845e-001 -4.978970e-001 -3.239605e-001 9.284800e-002 -1.631907e-001 7.554836e-002 2.188766e-001 -1.386058e-001 -9.995274e-002 1.243390e+000
<VARIANCE> 39
 1.457276e+001 1.915955e+001 1.906627e+001 1.957228e+001 1.457525e+001 1.601452e+001 1.735383e+001 2.200424e+001 1.896509e+001 1.933664e+001 1.913560e+001 1.535758e+001 7.195993e+001 1.730078e+000 1.409256e+000 1.460928e+000 1.660510e+000 1.281436e+000 1.540163e+000 2.074990e+000 1.343837e+000 1.612709e+000 1.623543e+000 1.304660e+000 1.298785e+000 5.912261e+000 1.651641e-001 2.118033e-001 2.482089e-001 2.902743e-001 2.446412e-001 2.589174e-001 2.529620e-001 2.909395e-001 2.314796e-001 2.861250e-001 2.983760e-001 2.119292e-001 4.086683e-001
<GCONST> 9.952061e+001
<MIXTURE> 3 2.654747e-001
<MEAN> 39
 8.657333e-001 3.987332e+000 2.648138e+000 -1.912069e+000 -1.121112e+000 -7.469374e+000 -4.348449e-001 -4.030405e+000 -2.590903e+000 -3.301932e+000 -2.466148e+000 -5.087734e+000 4.952571e+001 -1.572056e+000 -2.740917e-001 -5.378845e-001 -7.078018e-001 -7.463043e-001 8.412436e-001 2.175594e-001 -3.051794e-001 7.668700e-001 3.436540e-001 1.259272e-001 1.687292e-001 1.048838e+000 -1.976821e-001 -3.689908e-001 -4.054171e-001 -7.061759e-001 -3.409212e-001 -1.815729e-001 1.619074e-001 -2.544095e-002 2.205870e-001 1.466994e-001 -9.093060e-003 4.345180e-002 1.010493e+000
<VARIANCE> 39
 5.129090e+001 4.114926e+001 5.625767e+001 5.773743e+001 8.293224e+001 9.935011e+001 7.058869e+001 6.151471e+001 5.395769e+001 5.262145e+001 4.409317e+001 4.242710e+001 6.708959e+001 1.260529e+000 2.587849e+000 3.478824e+000 3.663907e+000 5.179219e+000 3.867985e+000 3.320914e+000 2.790649e+000 2.808572e+000 2.634870e+000 2.219454e+000 2.107349e+000 3.428280e+000 2.688748e-001 3.000488e-001 3.254298e-001 4.744444e-001 6.350158e-001 6.235254e-001 5.970665e-001 4.460338e-001 5.259693e-001 5.156475e-001 4.125774e-001 4.927295e-001 3.695125e-001
<GCONST> 1.277011e+002
<MIXTURE> 4 2.075336e-001
<MEAN> 39
 -8.954806e+000 1.760261e+000 1.724687e+000 2.629997e-001 4.576298e-001 -2.794930e+000 1.297242e-001 -4.548337e+000 -2.238259e+000 -4.408854e+000 -1.178849e+000 -3.229930e+000 3.884901e+001 -1.510674e+000 -1.508758e+000 -2.263824e+000 -8.553639e-001 -3.210371e-001 -1.811396e-002 -1.113422e-001 6.452632e-001 5.760920e-001 1.594333e-002 7.977812e-001 1.919525e-001 3.158603e+000 1.745979e-001 -1.654175e-001 -3.427824e-001 -1.184006e+000 -4.546119e-001 -2.384084e-001 -5.943656e-002 -1.629011e-001 4.191708e-001 1.089883e-001 5.514109e-002 -7.678079e-002 1.863578e+000
<VARIANCE> 39
 2.517304e+001 3.211069e+001 2.278885e+001 1.971211e+001 2.083082e+001 2.139842e+001 2.502347e+001 2.116739e+001 2.596866e+001 2.819799e+001 2.975179e+001 1.969467e+001 3.052160e+001 1.570240e+000 1.842149e+000 1.567333e+000 1.777050e+000 1.420511e+000 1.561848e+000 1.153599e+000 1.321311e+000 1.541341e+000 1.312456e+000 1.415017e+000 1.438648e+000 3.896235e+000 2.389523e-001 2.856772e-001 2.628531e-001 4.318602e-001 3.093051e-001 2.408808e-001 2.890103e-001 2.184751e-001 2.965578e-001 4.642784e-001 2.845559e-001 2.276737e-001 5.296598e-001
<GCONST> 1.037454e+002
<MIXTURE> 5 1.285776e-001
<MEAN> 39
 -2.511668e+000 3.201888e+000 3.553293e+000 -2.926791e+000 -5.207388e+000 -5.832296e+000 4.153857e-001 -3.033789e+000 2.741733e-001 -1.317265e+000 -2.509769e-001 -4.166064e+000 4.730304e+001 -2.750097e-001 1.120206e-002 -1.555375e-001 -4.130296e-002 4.748164e-001 2.129217e-002 -3.027620e-001 -1.019889e-002 -1.794974e-001 -2.160357e-001 -3.402366e-002 -6.081031e-002 -3.965307e-001 -3.255723e-001 -2.999780e-001 -2.772380e-001 -3.547202e-001 3.934054e-003 3.813447e-002 -1.834896e-002 -7.218885e-002 1.565684e-001 -3.524696e-002 -2.427486e-002 9.030700e-002 7.792075e-001
<VARIANCE> 39
 2.760669e+001 3.304631e+001 2.637749e+001 2.936565e+001 3.994790e+001 2.700898e+001 4.082064e+001 4.429388e+001 3.255663e+001 3.767399e+001 3.491590e+001 3.203089e+001 5.577006e+001 1.488662e+000 1.317659e+000 1.293158e+000 1.392420e+000 1.427506e+000 1.564349e+000 1.524242e+000 1.668851e+000 1.963656e+000 1.710141e+000 1.199018e+000 9.008201e-001 1.652033e+000 1.216143e-001 1.750602e-001 2.310647e-001 2.797371e-001 2.199093e-001 2.739130e-001 3.259267e-001 3.404479e-001 3.004400e-001 3.128047e-001 2.587710e-001 1.925534e-001 3.430033e-001
<GCONST> 1.045410e+002
<STATE> 3
<NUMMIXES> 5
<MIXTURE> 1 2.587864e-001
<MEAN> 39
 -5.998723e+000 1.262327e+000 1.222501e+000 -5.126795e+000 -2.134211e+000 -4.104713e+000 -7.983010e-001 -2.885922e+000 2.729492e+000 -1.848078e+000 -4.664520e-001 -1.597668e+000 5.636696e+001 -5.879053e-001 -6.942973e-002 -2.486499e-001 -1.669316e+000 -1.103520e+000 -3.504890e-001 4.356647e-001 -2.813630e-001 4.930621e-001 6.539128e-001 -3.824777e-001 -4.275274e-002 2.271609e+000 2.784066e-001 7.157046e-002 4.053915e-002 -3.834682e-001 -2.684515e-001 -2.267534e-001 1.211661e-001 1.089777e-001 -6.013523e-002 1.736219e-001 -2.387069e-002 -1.780744e-003 3.979552e-001
<VARIANCE> 39
 3.769310e+001 1.922390e+001 2.024187e+001 3.679076e+001 5.203852e+001 3.488009e+001 4.110469e+001 3.642915e+001 3.368573e+001 3.465684e+001 3.268428e+001 2.476052e+001 5.897010e+001 1.760857e+000 1.378038e+000 1.825415e+000 2.268845e+000 2.697838e+000 1.946387e+000 4.559831e+000 1.761128e+000 2.149003e+000 2.383892e+000 1.981928e+000 1.835621e+000 2.242995e+000 1.472822e-001 1.623198e-001 1.792578e-001 2.498806e-001 2.373477e-001 3.218417e-001 2.624127e-001 2.732793e-001 2.473664e-001 2.121540e-001 1.963150e-001 1.856159e-001 1.753833e-001
<GCONST> 1.072626e+002
<MIXTURE> 2 1.451726e-001
<MEAN> 39
 -1.496166e+001 -5.420916e+000 -7.410682e+000 -7.410440e+000 -1.431068e+000 -3.331647e+000 2.128567e+000 -5.156745e+000 3.897816e+000 -2.356323e+000 1.676862e-001 6.403182e-002 6.121099e+001 6.890796e-001 -7.896890e-001 -6.383069e-001 -2.220479e+000 -2.006201e+000 -8.380247e-001 7.234947e-001 2.347444e-002 4.323731e-001 1.275618e+000 4.652473e-002 4.655327e-002 5.919730e+000 7.695718e-001 5.957267e-002 4.140372e-001 -1.591801e-001 -3.116373e-001 -2.829603e-001 1.145101e-001 1.712542e-001 -3.242644e-001 -5.049106e-002 -5.472216e-002 -4.705191e-001 -1.628088e-001
<VARIANCE> 39
 1.529563e+001 2.494952e+001 1.958526e+001 3.114173e+001 2.773040e+001 2.943538e+001 4.558563e+001 3.585250e+001 2.976479e+001 3.392458e+001 3.432418e+001 2.350536e+001 3.831574e+001 1.874117e+000 1.275744e+000 1.674297e+000 1.836310e+000 1.122831e+000 1.715106e+000 1.927293e+000 1.841334e+000 1.881092e+000 1.296988e+000 2.259578e+000 1.976261e+000 3.097908e+000 1.664782e-001 2.829745e-001 2.736385e-001 3.323914e-001 3.298692e-001 3.001699e-001 3.904630e-001 2.691662e-001 2.415829e-001 5.456725e-001 3.696984e-001 2.919354e-001 4.593823e-001
<GCONST> 1.077824e+002
<MIXTURE> 3 2.374354e-001
<MEAN> 39
 -1.402945e+001 -5.762699e+000 -1.002142e+001 -8.516684e+000 -1.968678e+000 -5.356133e+000 -9.778825e-001 -2.032857e+000 1.756294e+000 -5.611601e+000 3.525844e+000 -5.206389e+000 6.039201e+001 1.860933e-001 -6.294883e-001 -1.305971e+000 -2.734557e+000 -6.245502e-001 1.959137e-002 -1.820953e-002 -6.630611e-001 1.300012e+000 -8.970772e-001 -1.649407e-001 -4.524827e-001 4.664410e+000 5.606495e-001 1.795964e-001 5.689129e-001 -1.880084e-001 9.354563e-002 4.412876e-002 1.961547e-001 -5.743835e-001 1.245301e-001 -5.393457e-002 -3.510760e-001 3.599897e-002 -3.354587e-001
<VARIANCE> 39
 1.597680e+001 2.335130e+001 1.448113e+001 1.795003e+001 1.644684e+001 2.132025e+001 2.467530e+001 2.095745e+001 2.318928e+001 2.217356e+001 2.287682e+001 2.418254e+001 3.401525e+001 2.618197e+000 2.360685e+000 1.771705e+000 2.434206e+000 1.568816e+000 2.056728e+000 1.996499e+000 1.616517e+000 1.359968e+000 1.790213e+000 1.841672e+000 1.579908e+000 4.693056e+000 2.048943e-001 3.914942e-001 2.304079e-001 3.976015e-001 1.976902e-001 2.968082e-001 3.441680e-001 3.114309e-001 3.334867e-001 3.536779e-001 2.714259e-001 2.760621e-001 4.833651e-001
<GCONST> 1.050448e+002
<MIXTURE> 4 2.087337e-001
<MEAN> 39
 -5.612394e+000 -6.474537e-002 -1.994232e+000 -7.631617e+000 -5.073874e+000 -8.045345e+000 8.613150e-002 -5.867196e+000 -3.759371e-001 -1.301548e+000 -1.535847e+000 -3.882391e+000 5.804298e+001 -1.000034e+000 -2.911009e-001 -1.052295e+000 -1.626211e+000 -8.761384e-001 -4.172202e-001 4.857962e-001 1.581561e-002 5.890875e-001 6.826645e-001 1.223213e-002 1.891149e-001 1.994398e+000 3.845240e-001 -6.792618e-002 6.861262e-002 -2.825956e-001 2.874065e-002 -2.118663e-001 4.261828e-002 1.800605e-001 7.619370e-002 -3.679936e-002 -2.592668e-002 -1.037175e-001 1.366296e-001
<VARIANCE> 39
 3.950126e+001 4.205866e+001 6.538845e+001 6.346466e+001 7.655186e+001 9.629175e+001 6.464755e+001 7.729703e+001 6.185534e+001 8.432277e+001 4.438433e+001 5.332262e+001 5.766213e+001 1.505157e+000 3.429816e+000 2.259570e+000 4.312626e+000 5.812705e+000 4.964933e+000 4.318544e+000 2.969783e+000 3.717098e+000 3.114601e+000 2.309983e+000 3.109848e+000 4.890905e+000 1.731774e-001 2.984088e-001 4.508421e-001 4.556872e-001 4.863180e-001 6.304972e-001 5.654026e-001 4.570887e-001 4.228142e-001 5.677036e-001 3.258489e-001 3.158109e-001 1.876993e-001
<GCONST> 1.286145e+002
<MIXTURE> 5 1.498718e-001
<MEAN> 39
 -1.491873e+001 -5.344341e+000 -7.950085e+000 -8.594448e+000 -2.700377e+000 -4.951138e+000 -7.836803e-001 -6.000726e+000 4.847294e+000 -3.730089e+000 6.959152e-001 -5.495599e-001 6.205355e+001 2.110976e-001 -1.372198e+000 -1.253907e+000 -2.527516e+000 -2.235318e+000 -6.293051e-001 7.655097e-001 2.594256e-001 5.259582e-001 1.014068e+000 9.171670e-002 -2.768027e-001 5.812542e+000 7.527601e-001 -1.273069e-002 3.936639e-001 -1.770927e-001 -1.131929e-001 -1.646098e-001 3.930720e-001 1.768980e-001 -6.115996e-001 -2.591583e-002 -1.575677e-001 -4.987241e-001 -1.601069e-001
<VARIANCE> 39
 1.394017e+001 2.494022e+001 2.727662e+001 2.271570e+001 2.624131e+001 2.029173e+001 2.059986e+001 1.884197e+001 3.085528e+001 2.786440e+001 2.071060e+001 1.737166e+001 3.176288e+001 2.488067e+000 1.569907e+000 2.137555e+000 1.561208e+000 1.099090e+000 2.096301e+000 1.860249e+000 2.480431e+000 2.618519e+000 2.076366e+000 2.297993e+000 1.758217e+000 3.355043e+000 1.776879e-001 3.251057e-001 3.372890e-001 5.065672e-001 3.589280e-001 2.949485e-001 3.379967e-001 2.813153e-001 2.015034e-001 3.534018e-001 2.615474e-001 2.408278e-001 4.793925e-001
<GCONST> 1.061694e+002
<STATE> 4
<NUMMIXES> 5
<MIXTURE> 1 2.914135e-001
<MEAN> 39
 -2.961292e+000 -1.014684e-001 9.405480e-001 -1.134750e+001 -1.278665e+001 -8.510500e+000 5.165785e+000 -2.960502e+000 -2.794515e-001 7.328318e+000 -5.873912e+000 -2.626993e+000 6.578449e+001 1.787567e-001 -1.118083e-001 -5.194362e-002 -1.785717e+000 -1.040453e+000 -1.052442e-001 9.355336e-001 3.728342e-001 3.902069e-001 5.315450e-001 -7.853895e-001 7.340149e-002 1.830718e+000 1.036095e-002 1.433077e-001 6.456491e-002 2.385527e-001 6.508706e-001 1.862959e-001 -3.783095e-001 1.703740e-001 3.030087e-002 -7.131082e-001 2.925798e-001 -2.564724e-002 -6.912450e-001
<VARIANCE> 39
 2.006222e+001 2.696337e+001 4.622178e+001 8.914463e+001 4.943227e+001 6.784478e+001 6.202018e+001 5.210424e+001 7.536620e+001 4.897701e+001 3.314169e+001 5.922542e+001 5.361147e+001 1.383004e+000 1.513457e+000 1.579519e+000 3.365502e+000 2.852618e+000 2.314281e+000 3.397233e+000 1.784249e+000 2.304573e+000 2.683394e+000 1.551104e+000 2.074799e+000 2.553974e+000 1.523370e-001 1.514498e-001 2.403344e-001 3.049600e-001 2.884510e-001 2.963004e-001 3.573841e-001 3.274228e-001 3.802363e-001 3.002347e-001 2.924115e-001 3.119919e-001 1.869505e-001
<GCONST> 1.150685e+002
<MIXTURE> 2 1.904205e-001
<MEAN> 39
 -6.709399e+000 -4.323866e+000 -4.880163e+000 -1.595645e+001 -9.406355e+000 -4.663568e+000 4.390775e+000 -7.067871e+000 4.154039e+000 5.663831e-001 -3.692951e+000 -2.640078e+000 7.031777e+001 1.301950e+000 -1.864410e+000 -7.629722e-001 -1.788387e+000 -1.102474e+000 2.432699e-002 1.848189e+000 3.575304e-001 -7.220423e-001 3.560748e-001 -3.400487e-001 -7.958686e-001 4.012123e+000 7.729490e-002 -1.141708e-001 1.496203e-001 9.242384e-001 6.841905e-001 8.990993e-002 -5.086061e-002 3.570365e-001 -7.124367e-001 -4.325830e-001 2.062191e-001 -1.806802e-001 -1.342445e+000
<VARIANCE> 39
 8.166617e+000 1.701379e+001 1.355719e+001 3.322685e+001 2.057678e+001 2.096105e+001 3.281700e+001 2.909837e+001 3.256136e+001 5.146704e+001 2.554032e+001 2.094812e+001 2.859522e+001 1.247602e+000 1.382607e+000 1.656385e+000 2.384925e+000 1.926304e+000 2.498788e+000 1.457641e+000 3.034807e+000 2.350709e+000 1.988803e+000 2.325142e+000 2.343861e+000 4.694589e+000 1.923557e-001 1.412468e-001 1.756878e-001 2.403783e-001 2.066298e-001 2.403270e-001 2.904605e-001 2.506758e-001 2.833145e-001 6.046256e-001 2.996364e-001 2.215087e-001 1.751071e-001
<GCONST> 1.038594e+002
<MIXTURE> 3 2.003685e-001
<MEAN> 39
 -8.730490e+000 1.042683e+000 -5.400203e-001 -1.221583e+001 -3.096155e+000 -6.604046e+000 -5.312965e-002 -4.337668e+000 6.016292e+000 -3.447700e+000 2.378463e+000 -2.678890e+000 6.110329e+001 1.151349e-001 4.451636e-001 1.169339e-001 -1.655029e+000 -5.536920e-001 -6.499653e-001 -1.052539e-001 -1.665149e-001 5.922315e-001 3.371167e-001 4.205045e-001 -2.062925e-002 1.904469e+000 5.034486e-001 7.158133e-002 2.172823e-001 3.919451e-001 3.532469e-002 -9.639608e-003 -3.042058e-002 1.001038e-001 -3.096282e-001 1.176812e-001 -1.426716e-001 -2.482548e-002 -5.768836e-001
<VARIANCE> 39
 4.736337e+001 4.292041e+001 5.021228e+001 5.621292e+001 7.086656e+001 5.857334e+001 5.328975e+001 5.347873e+001 6.511419e+001 3.864679e+001 4.841788e+001 4.090943e+001 5.604144e+001 3.281281e+000 1.979821e+000 2.653023e+000 3.234260e+000 2.515630e+000 3.059170e+000 2.245261e+000 2.551316e+000 2.015169e+000 1.910388e+000 2.157418e+000 1.465995e+000 2.934440e+000 3.132817e-001 2.437866e-001 4.107585e-001 3.258846e-001 3.646432e-001 3.730237e-001 4.155630e-001 3.521505e-001 3.928608e-001 2.406585e-001 3.434024e-001 2.818180e-001 3.252993e-001
<GCONST> 1.200398e+002
<MIXTURE> 4 1.401366e-001
<MEAN> 39
 -5.309810e+000 -7.772040e+000 -8.344846e+000 -1.828197e+001 -8.771960e+000 -3.039283e+000 4.970447e+000 -5.705609e+000 1.815376e+000 -5.617633e+000 -2.372186e+000 -9.321779e+000 7.324953e+001 1.182387e+000 -2.253288e+000 -7.744679e-001 -4.008562e-001 3.297121e-001 7.931916e-001 1.238817e+000 -3.966092e-001 -7.720383e-001 -1.005072e+000 -1.622418e-001 -6.945095e-001 2.423598e+000 -3.498859e-001 -1.553931e-001 8.946937e-002 1.210507e+000 8.085210e-001 5.903381e-002 -2.959136e-001 7.327385e-002 -2.461470e-001 -4.301571e-002 2.473895e-001 4.749838e-001 -1.270721e+000
<VARIANCE> 39
 7.868720e+000 1.771618e+001 1.638354e+001 1.916169e+001 4.062117e+001 2.959297e+001 3.931372e+001 4.798125e+001 3.088625e+001 8.252005e+001 4.169228e+001 3.241484e+001 2.197254e+001 1.191301e+000 1.034012e+000 1.242809e+000 2.623829e+000 2.204352e+000 1.930221e+000 1.972130e+000 5.729438e+000 3.395807e+000 3.495035e+000 2.851296e+000 2.430354e+000 2.281675e+000 9.245852e-002 2.282865e-001 2.319885e-001 2.323906e-001 3.358465e-001 3.245748e-001 3.266656e-001 3.940276e-001 3.521861e-001 9.920938e-001 4.394863e-001 2.797348e-001 1.845967e-001
<GCONST> 1.097557e+002
<MIXTURE> 5 1.776598e-001
<MEAN> 39
 -1.018283e+001 -2.756784e+000 -5.273216e+000 -1.109934e+001 -3.588133e+000 -6.436433e+000 -1.626550e+000 -6.401136e+000 3.498477e+000 -6.489273e+000 1.498705e-001 -5.996676e+000 5.907970e+001 2.293715e-001 -1.494922e-001 5.129145e-002 -1.027205e+000 -5.200609e-001 -2.922537e-001 -7.482095e-002 -3.789818e-001 2.696204e-001 -1.612988e-001 -2.937826e-001 -4.607045e-001 1.204332e+000 3.977070e-001 1.239056e-001 3.398397e-001 3.448654e-001 2.359027e-002 2.569870e-002 7.787371e-002 6.733436e-002 -3.081285e-001 1.474530e-001 -1.239259e-001 1.291591e-002 -5.564193e-001
<VARIANCE> 39
 4.699765e+001 5.631627e+001 3.116729e+001 4.971876e+001 4.762697e+001 4.170477e+001 3.861494e+001 5.868504e+001 4.602096e+001 4.681960e+001 3.360292e+001 4.675264e+001 7.411397e+001 2.532981e+000 1.815027e+000 2.040402e+000 4.584719e+000 2.741441e+000 2.463171e+000 1.947464e+000 2.282163e+000 2.605618e+000 2.072267e+000 1.757382e+000 1.651954e+000 4.981844e+000 3.443967e-001 2.774723e-001 2.999587e-001 4.324158e-001 4.072435e-001 3.706234e-001 3.815283e-001 3.570642e-001 3.841040e-001 3.126514e-001 2.341904e-001 2.738811e-001 4.413754e-001
<GCONST> 1.191264e+002
<TRANSP> 5
 0.000000e+000 1.000000e+000 0.000000e+000 0.000000e+000 0.000000e+000
 0.000000e+000 5.727609e-001 4.272391e-001 0.000000e+000 0.000000e+000
 0.000000e+000 0.000000e+000 3.722023e-001 6.277977e-001 0.000000e+000
 0.000000e+000 0.000000e+000 0.000000e+000 5.072221e-001 4.927779e-001
 0.000000e+000 0.000000e+000 0.000000e+000 0.000000e+000 0.000000e+000
<ENDHMM>
~h "f"
<BEGINHMM>
<NUMSTATES> 5
<STATE> 2
<NUMMIXES> 5
<MIXTURE> 1 1.419836e-001
<MEAN> 39
 -7.460852e+000 -1.535305e+000 1.557060e+000 -9.033841e-001 1.702762e-001 -2.427875e+000 1.377617e+000 -1.835743e+000 1.589505e+000 -6.057883e-001 5.768534e-001 -2.104825e+000 5.092220e+001 -7.723983e-002 5.369863e-002 1.212705e-001 1.227175e-001 2.342025e-001 3.543098e-001 2.559861e-001 2.980099e-001 3.915220e-001 9.701774e-002 2.751516e-001 7.899590e-002 -1.189542e-001 8.754825e-003 -2.572591e-004 -1.145633e-002 -8.961554e-003 -1.428151e-003 -2.562736e-002 3.598430e-002 4.544367e-002 4.207995e-002 2.834972e-002 4.573851e-002 7.279219e-002 3.401976e-002
<VARIANCE> 39
 1.656785e+001 9.699981e+000 9.692610e+000 1.496707e+001 1.806395e+001 2.007215e+001 1.919269e+001 2.028586e+001 2.553626e+001 3.308729e+001 2.897019e+001 1.790859e+001 5.475890e+001 2.468246e-001 3.295897e-001 3.097975e-001 5.198010e-001 6.539624e-001 7.005166e-001 8.475577e-001 7.823757e-001 1.025198e+000 8.553885e-001 8.976725e-001 7.841529e-001 2.019982e-001 3.576582e-002 4.959799e-002 6.235110e-002 9.164014e-002 1.260280e-001 1.344345e-001 1.357228e-001 1.453801e-001 2.005075e-001 1.702667e-001 1.734939e-001 1.413573e-001 1.949759e-002
<GCONST> 7.245122e+001
<MIXTURE> 2 1.890818e-001
<MEAN> 39
 -8.681731e+000 7.486052e-001 3.294675e+000 -3.950992e+000 6.411910e-001 -6.211947e+000 -4.066076e-001 -3.355496e+000 1.254507e-001 -1.714400e+000 2.124859e+000 -3.535771e+000 5.075557e+001 -1.173164e+000 -6.604419e-001 -3.743983e-001 2.579589e-001 -8.455066e-002 -5.537411e-003 5.863780e-001 -1.265477e-002 1.122784e-001 -2.883044e-001 4.780979e-002 2.800876e-001 -3.933123e-001 1.234628e-001 -8.556873e-002 -1.615579e-001 -1.947429e-001 -4.229097e-002 1.161094e-002 -6.435537e-002 4.951379e-002 3.567207e-002 -5.962178e-002 -6.918067e-002 -4.041351e-002 1.340764e-001
<VARIANCE> 39
 4.366582e+001 4.279039e+001 5.640069e+001 6.250541e+001 8.371055e+001 5.420886e+001 6.231279e+001 8.287495e+001 5.380839e+001 6.097989e+001 5.117524e+001 4.199556e+001 8.209478e+001 1.803073e+000 1.640312e+000 1.794017e+000 2.296792e+000 1.793067e+000 2.693737e+000 2.336414e+000 2.291307e+000 2.572144e+000 2.109534e+000 2.029122e+000 1.848718e+000 1.489648e+000 3.615354e-001 1.796503e-001 1.895514e-001 2.506414e-001 2.746756e-001 3.457087e-001 3.613470e-001 3.966046e-001 3.769966e-001 3.159907e-001 3.802460e-001 2.805115e-001 1.691192e-001
<GCONST> 1.174682e+002
<MIXTURE> 3 3.176670e-001
<MEAN> 39
 -1.117410e+001 -2.809658e+000 -1.823921e-001 -2.299285e+000 -7.340777e-001 -4.603427e+000 -8.655555e-001 -2.672724e+000 2.268853e+000 -2.662991e+000 2.886723e+000 -1.998185e+000 4.820701e+001 -5.068024e-001 -4.421282e-001 -2.082648e-001 -2.089525e-001 -2.536337e-001 -1.959492e-001 -2.707526e-002 -1.169640e-002 7.303741e-002 -1.153354e-001 5.418094e-002 9.054265e-003 -1.743158e-002 2.269651e-001 4.889188e-002 4.184202e-002 1.936158e-002 3.148743e-003 7.187073e-003 2.324620e-002 4.420145e-002 9.600165e-003 -9.545024e-003 -8.168582e-002 -5.925784e-002 1.297011e-001
<VARIANCE> 39
 2.032084e+001 1.773247e+001 2.572867e+001 3.234906e+001 4.143193e+001 4.202962e+001 3.675585e+001 4.035662e+001 3.317419e+001 3.196715e+001 3.063646e+001 2.443503e+001 1.271050e+002 6.173072e-001 6.218262e-001 5.375574e-001 6.936616e-001 1.016882e+000 1.116787e+000 9.760823e-001 1.198696e+000 1.191270e+000 1.259038e+000 1.147342e+000 7.480026e-001 7.047833e-001 1.237184e-001 9.326045e-002 8.866863e-002 1.394363e-001 2.160999e-001 2.127958e-001 2.234519e-001 1.974457e-001 2.350075e-001 1.929536e-001 1.977555e-001 1.539915e-001 1.117715e-001
<GCONST> 9.189376e+001
<MIXTURE> 4 1.969041e-001
<MEAN> 39
 -1.063817e+001 -5.113263e+000 -2.688135e+000 -4.355696e+000 3.523628e-001 -3.411140e+000 1.203223e+000 -3.918499e+000 1.034092e+000 -3.155889e+000 2.132974e+000 -3.580879e+000 5.724487e+001 -3.051507e+000 -1.830039e-001 5.759593e-002 6.050602e-001 -1.207672e-001 5.250542e-001 6.535057e-002 1.055281e-001 3.181137e-001 -4.313232e-002 1.525268e-001 3.111352e-001 -1.504430e+000 -6.150741e-003 -2.431434e-001 -3.171880e-001 -3.271871e-001 -1.707198e-001 -2.336035e-001 1.791124e-002 2.604849e-002 -6.052989e-002 -5.598908e-002 -1.008729e-001 -1.052664e-001 3.147680e-001
<VARIANCE> 39
 3.681473e+001 1.865972e+001 2.245552e+001 2.118509e+001 2.099508e+001 2.024131e+001 2.504542e+001 2.721963e+001 2.798157e+001 2.167382e+001 1.955703e+001 1.758759e+001 3.851362e+001 1.936895e+000 2.771634e+000 2.392334e+000 1.976061e+000 2.515982e+000 2.289075e+000 1.981995e+000 2.358066e+000 2.292066e+000 2.288292e+000 1.480433e+000 1.684099e+000 2.718707e+000 2.737131e-001 2.114987e-001 1.811306e-001 1.667404e-001 1.929771e-001 2.312461e-001 2.403423e-001 1.721548e-001 2.347256e-001 2.434763e-001 1.853298e-001 2.036219e-001 1.781467e-001
<GCONST> 1.024399e+002
<MIXTURE> 5 1.543641e-001
<MEAN> 39
 -9.082001e+000 -1.966672e+000 6.595841e-001 -1.853456e+000 4.579351e-001 -2.114480e+000 9.220889e-001 -2.435284e+000 1.392258e+000 -2.085744e+000 1.207313e+000 -2.529669e+000 4.775722e+001 -9.294730e-002 -1.407861e-002 -5.007941e-002 -1.088171e-001 -1.013279e-001 -1.665364e-001 -9.433016e-002 -6.195924e-002 -2.031805e-001 -2.483788e-001 -1.760879e-001 -4.862283e-002 -1.056979e-001 -9.909259e-003 -4.445113e-002 8.894944e-003 -1.713265e-002 -5.481578e-002 -1.146906e-001 -3.041752e-002 -2.516839e-002 -6.868536e-002 -5.755019e-002 -4.045756e-002 -8.460210e-003 6.833845e-002
<VARIANCE> 39
 1.401068e+001 7.188313e+000 8.553493e+000 1.181121e+001 1.441031e+001 1.753005e+001 2.023115e+001 2.342041e+001 2.466251e+001 2.464048e+001 2.174203e+001 1.889954e+001 8.119741e+001 1.635365e-001 2.931904e-001 2.795401e-001 4.209504e-001 5.370554e-001 6.157084e-001 8.582956e-001 8.593432e-001 8.192844e-001 8.419272e-001 7.797289e-001 7.665088e-001 1.295511e-001 3.026360e-002 4.698610e-002 4.804462e-002 8.254835e-002 1.037310e-001 8.870779e-002 1.501806e-001 1.973410e-001 1.560688e-001 1.572923e-001 1.421290e-001 1.057493e-001 1.523905e-002
<GCONST> 6.752267e+001
<STATE> 3
<NUMMIXES> 5
<MIXTURE> 1 2.355241e-001
<MEAN> 39
 -1.604801e+001 -7.144043e+000 -1.818829e+000 -7.300848e+000 -3.200273e+000 -6.084472e+000 8.355314e-001 -1.861605e+000 1.539975e+000 -3.121771e+000 1.764280e+000 -2.790527e+000 5.332007e+001 8.878821e-001 -2.235442e-001 -6.245204e-002 1.929092e-001 2.565301e-002 -2.349494e-001 1.005496e-001 3.850954e-001 5.208199e-001 -1.293041e-002 -2.551070e-001 6.263019e-002 5.142583e-001 8.763710e-001 1.340696e-001 -1.344406e-001 9.313054e-002 7.361414e-002 -4.972966e-002 -2.187420e-001 -9.461142e-002 2.087227e-001 8.475598e-002 -1.577730e-001 -6.138010e-002 2.509831e-001
<VARIANCE> 39
 3.058001e+001 3.300435e+001 4.050246e+001 5.996995e+001 4.659516e+001 5.563099e+001 4.671465e+001 3.790104e+001 5.115071e+001 4.680831e+001 3.664021e+001 3.213271e+001 7.243967e+001 2.781947e+000 1.216877e+000 1.252291e+000 1.613592e+000 1.442588e+000 1.663252e+000 1.577862e+000 1.336905e+000 1.623632e+000 1.281359e+000 1.257734e+000 1.107692e+000 9.079221e-001 2.595772e-001 1.848717e-001 2.640260e-001 2.542173e-001 3.183705e-001 3.760671e-001 3.217256e-001 3.060401e-001 3.708297e-001 3.765305e-001 2.695705e-001 2.498666e-001 1.894576e-001
<GCONST> 1.088666e+002
<MIXTURE> 2 1.973536e-001
<MEAN> 39
 -1.927651e+001 -9.697029e+000 -6.358707e+000 -6.711139e+000 -1.967423e+000 -4.180063e+000 1.637000e+000 -3.614849e+000 1.713776e+000 -3.065032e+000 1.765563e+000 -3.483557e+000 5.697361e+001 1.428728e-001 -1.154493e-002 1.254581e-001 9.811154e-002 9.168036e-002 9.802260e-002 1.481539e-001 1.366104e-001 6.490657e-002 1.054185e-001 1.238575e-001 1.167855e-001 1.636320e-001 5.983570e-001 1.741384e-001 1.025495e-001 5.468863e-002 6.257281e-003 1.215455e-003 -8.255154e-003 -1.672176e-004 -1.219030e-002 2.508142e-002 2.037275e-002 4.200805e-003 1.647617e-001
<VARIANCE> 39
 1.217594e+001 8.322996e+000 1.238345e+001 1.430278e+001 1.428511e+001 1.594543e+001 1.712583e+001 2.117588e+001 2.120554e+001 2.332131e+001 1.810523e+001 1.392435e+001 3.088799e+001 6.042575e-001 4.399370e-001 4.770139e-001 5.431391e-001 5.705610e-001 7.622899e-001 7.543234e-001 8.859867e-001 9.272684e-001 1.010277e+000 7.295543e-001 7.149032e-001 6.188872e-001 1.848294e-001 1.161136e-001 1.282409e-001 1.304065e-001 1.286402e-001 1.356321e-001 1.493022e-001 1.679960e-001 1.800587e-001 1.977854e-001 1.563112e-001 1.312745e-001 1.162828e-001
<GCONST> 7.781136e+001
<MIXTURE> 3 7.494666e-002
<MEAN> 39
 -1.479329e+001 -1.367923e+001 -1.151004e+001 -1.792770e+001 -1.181563e+001 -1.257491e+001 -3.919828e+000 -4.447922e+000 4.130601e+000 -1.383277e-001 3.936196e+000 -2.236036e+000 4.534582e+001 -2.411968e-003 -9.195879e-003 -1.531866e-002 -5.007282e-002 -1.204155e-002 9.468162e-002 2.342528e-002 -1.042884e-001 -1.046326e-004 -3.731424e-002 8.473035e-002 5.655764e-002 -3.731142e-002 8.948554e-003 1.788659e-002 1.064354e-001 5.323043e-002 7.683554e-002 4.489401e-002 2.285592e-002 2.895392e-002 -1.546154e-002 -4.263762e-002 -6.151330e-002 -7.943466e-004 2.847199e-002
<VARIANCE> 39
 2.886652e+000 7.769273e+000 8.895469e+000 1.866507e+001 1.567407e+001 1.441632e+001 1.524432e+001 2.485504e+001 1.758118e+001 2.131911e+001 1.760779e+001 1.641410e+001 1.722594e+001 1.106685e-001 2.840860e-001 3.763552e-001 5.449157e-001 4.315961e-001 5.753286e-001 6.277656e-001 9.571629e-001 8.907023e-001 1.024406e+000 5.972017e-001 8.728576e-001 1.838286e-001 3.091940e-002 4.075170e-002 9.753115e-002 1.184957e-001 1.005503e-001 9.411792e-002 1.116237e-001 1.495780e-001 1.529046e-001 1.907121e-001 1.092955e-001 1.644011e-001 4.782324e-002
<GCONST> 6.582901e+001
<MIXTURE> 4 2.926040e-001
<MEAN> 39
 -1.859048e+001 -8.227209e+000 -5.220615e+000 -5.257577e+000 -1.780806e+000 -4.057938e+000 1.573281e+000 -3.529577e+000 1.599585e+000 -3.204341e+000 1.826842e+000 -3.126795e+000 5.435169e+001 -6.204148e-001 -3.981661e-001 -2.862824e-001 2.263945e-003 -1.704584e-001 -8.506189e-002 4.723131e-002 3.120099e-002 -1.058894e-002 -8.713785e-002 -1.290434e-001 -4.404709e-002 -4.591120e-002 9.034789e-001 6.697836e-003 -1.532617e-001 -2.148874e-001 -5.547116e-002 -1.637850e-001 -8.394130e-002 -8.225992e-002 -8.874766e-003 -2.477113e-002 -9.681839e-002 -1.237364e-001 4.808210e-001
<VARIANCE> 39
 1.142238e+001 1.298013e+001 1.254049e+001 1.473565e+001 1.823767e+001 2.064668e+001 1.625510e+001 1.963358e+001 2.172405e+001 1.874975e+001 1.480650e+001 1.547289e+001 5.400715e+001 5.338917e+000 9.809263e-001 1.230549e+000 8.550550e-001 1.065565e+000 1.062815e+000 1.116851e+000 1.251959e+000 1.045973e+000 1.177439e+000 9.360096e-001 8.703311e-001 2.081225e+000 1.820459e-001 2.375705e-001 2.414104e-001 2.275425e-001 2.633007e-001 2.295295e-001 2.167950e-001 2.995129e-001 2.512718e-001 2.610565e-001 1.801127e-001 1.857929e-001 3.836837e-001
<GCONST> 9.326500e+001
<MIXTURE> 5 1.995723e-001
<MEAN> 39
 -2.027145e+001 -9.924860e+000 -6.567267e+000 -7.402664e+000 -2.472962e+000 -4.880243e+000 1.086618e+000 -3.712321e+000 2.241837e+000 -2.914985e+000 1.944942e+000 -4.437578e+000 5.636189e+001 -9.314913e-002 -2.780788e-001 -2.300164e-001 -1.461941e-001 -1.983926e-001 -3.065509e-001 -1.687228e-001 -1.200584e-001 -9.793306e-003 -1.409897e-001 -8.421560e-002 5.290499e-002 4.817253e-002 5.945200e-001 1.315834e-001 1.085443e-001 6.439825e-002 -4.361054e-003 -2.346913e-002 -3.775518e-002 -8.475012e-002 -1.142100e-001 -5.061918e-002 -2.428730e-002 2.565181e-002 1.408891e-001
<VARIANCE> 39
 8.664866e+000 6.813438e+000 1.028603e+001 1.123687e+001 1.321314e+001 1.708032e+001 1.770534e+001 1.994419e+001 2.251961e+001 2.266303e+001 1.840364e+001 1.661399e+001 3.153823e+001 8.058960e-001 4.507462e-001 4.867742e-001 6.430373e-001 6.389760e-001 5.779235e-001 6.598973e-001 7.907478e-001 9.863462e-001 8.414558e-001 6.880822e-001 6.615370e-001 5.033178e-001 1.831565e-001 8.285250e-002 1.152251e-001 1.272753e-001 1.327520e-001 1.417631e-001 1.644482e-001 1.732538e-001 1.969925e-001 1.983707e-001 1.520769e-001 1.518996e-001 9.541748e-002
<GCONST> 7.641866e+001
<STATE> 4
<NUMMIXES> 5
<MIXTURE> 1 3.039325e-001
<MEAN> 39
 -1.004579e+001 -4.908772e+000 9.500954e-002 -3.191138e+000 -5.092344e-001 -5.377216e+000 6.044692e-001 -5.110283e-001 2.906604e+000 -3.897638e+000 9.454576e-001 -2.548694e+000 5.362430e+001 3.891416e+000 -7.417844e-001 -7.871957e-001 1.081103e-001 -9.609506e-001 -6.807955e-001 -8.070238e-001 -3.533068e-001 1.233434e+000 -2.137344e-001 -7.214832e-001 -3.180121e-001 2.045063e+000 4.015118e-001 -3.175851e-001 -2.848708e-001 -1.360981e-001 -3.760077e-001 7.171912e-002 -5.913423e-002 -1.444185e-001 2.367926e-001 -5.891998e-002 -4.897765e-002 -1.235906e-001 4.502355e-001
<VARIANCE> 39
 5.351888e+001 2.848564e+001 3.040516e+001 3.385361e+001 4.494593e+001 3.275109e+001 3.618364e+001 4.348310e+001 4.274387e+001 4.145497e+001 2.814524e+001 2.475230e+001 6.816300e+001 1.676104e+000 1.656714e+000 2.133114e+000 2.294422e+000 2.759421e+000 3.132247e+000 2.593623e+000 2.629036e+000 2.824956e+000 3.122137e+000 1.903990e+000 1.246349e+000 1.303472e+000 4.659780e-001 1.583231e-001 2.114301e-001 1.853811e-001 2.671169e-001 3.247877e-001 3.322032e-001 3.616738e-001 3.475055e-001 3.158077e-001 2.941083e-001 1.851673e-001 1.314469e-001
<GCONST> 1.112801e+002
<MIXTURE> 2 2.107760e-001
<MEAN> 39
 5.207428e+000 -5.504601e+000 -1.389672e+001 -1.053844e+001 4.934846e+000 -4.948880e+000 -6.910579e+000 -8.185795e-001 5.094458e+000 -2.189171e+000 -1.727496e-001 -8.973579e+000 6.119296e+001 1.371656e+000 -4.991064e-001 -6.382938e-001 -2.568566e-001 -3.313048e-001 8.267679e-002 -4.707721e-001 4.694449e-001 5.237647e-001 -2.423851e-001 -1.404176e-001 -3.002349e-001 1.077784e+000 -5.284738e-001 -1.208822e-001 3.472224e-001 2.059909e-001 -2.885321e-001 -3.391098e-002 3.380646e-001 1.621970e-002 -1.730549e-001 -1.567807e-001 -5.820535e-002 1.765461e-001 -2.175331e-001
<VARIANCE> 39
 2.038552e+001 2.963284e+001 5.809002e+001 5.210833e+001 6.236010e+001 5.707343e+001 5.244170e+001 5.440487e+001 7.366949e+001 3.969977e+001 5.644194e+001 2.990538e+001 5.335462e+001 3.745548e+000 9.653542e-001 3.026739e+000 1.691289e+000 2.526837e+000 2.040770e+000 2.197071e+000 2.937757e+000 3.231862e+000 2.725924e+000 2.741251e+000 1.191949e+000 2.188279e+000 2.824323e-001 9.940331e-002 1.622056e-001 1.356015e-001 2.143379e-001 2.139668e-001 3.692051e-001 3.771822e-001 3.922676e-001 2.952035e-001 3.386191e-001 1.314269e-001 9.482878e-002
<GCONST> 1.121180e+002
<MIXTURE> 3 1.974793e-001
<MEAN> 39
 -1.341514e+001 -7.877376e+000 -5.650032e+000 -5.701573e+000 -1.420157e+000 -4.041585e+000 2.177129e+000 -3.899243e+000 1.170162e+000 -2.343987e+000 1.634584e+000 -4.032008e+000 5.699277e+001 3.257353e+000 3.959585e-001 -8.055666e-001 -7.854090e-001 2.322587e-001 -4.547291e-001 -7.333236e-002 1.626792e-001 1.915040e-001 3.523459e-001 -1.791969e-001 -3.989103e-001 1.805758e+000 3.484350e-001 -1.819630e-002 -3.042519e-001 -3.146089e-001 -6.348702e-003 -2.365497e-001 -4.285094e-002 8.789336e-002 1.096030e-001 -3.514500e-002 -6.018492e-002 -3.353005e-002 3.963549e-001
<VARIANCE> 39
 3.287391e+001 1.830919e+001 1.925006e+001 1.769174e+001 1.707987e+001 2.253350e+001 1.656035e+001 1.898961e+001 1.915734e+001 2.252169e+001 2.286575e+001 1.691172e+001 3.863437e+001 1.542575e+000 1.995095e+000 3.469101e+000 1.925628e+000 2.902789e+000 1.359110e+000 1.678542e+000 2.027495e+000 1.676714e+000 2.193339e+000 1.716783e+000 1.143410e+000 2.505532e+000 2.811864e-001 1.873505e-001 2.806872e-001 1.894250e-001 2.618989e-001 1.701171e-001 1.812885e-001 1.937618e-001 1.945970e-001 1.931798e-001 2.326978e-001 2.097261e-001 2.118200e-001
<GCONST> 9.961582e+001
<MIXTURE> 4 1.200026e-001
<MEAN> 39
 1.956431e+000 -5.254546e+000 -1.547087e+001 -1.226985e+001 9.626768e-001 -1.197967e+001 -2.013748e+000 -3.048722e+000 2.408182e+000 -6.267260e+000 -5.798540e+000 -6.895388e+000 6.237004e+001 2.454326e+000 -4.804532e-001 -2.253805e+000 -8.312434e-001 7.559937e-001 -1.042244e+000 2.000117e-002 3.472784e-001 4.775526e-001 -5.711706e-001 -1.130959e+000 -8.560919e-001 2.332202e+000 -8.430997e-001 -2.540005e-001 4.731677e-001 3.627161e-001 -6.375718e-002 4.148683e-001 2.013627e-001 -1.609639e-002 -2.777288e-002 1.043599e-001 3.234395e-001 1.472121e-001 -3.325887e-001
<VARIANCE> 39
 3.948326e+001 3.357060e+001 1.278611e+002 6.123706e+001 8.762312e+001 6.268411e+001 5.517869e+001 5.516730e+001 9.763328e+001 1.145825e+002 7.445654e+001 4.870496e+001 7.393823e+001 3.461128e+000 2.935534e+000 3.477036e+000 2.080835e+000 3.025208e+000 2.600033e+000 3.060835e+000 2.184571e+000 3.841047e+000 3.152990e+000 3.226585e+000 2.094541e+000 2.669055e+000 2.553768e-001 2.052428e-001 3.534436e-001 2.554276e-001 4.106829e-001 3.367439e-001 3.986544e-001 4.748548e-001 4.292354e-001 5.186776e-001 3.296202e-001 3.817066e-001 2.484899e-001
<GCONST> 1.259692e+002
<MIXTURE> 5 1.678083e-001
<MEAN> 39
 -1.508476e+001 -7.603544e+000 -6.371252e+000 -6.189322e+000 -2.160302e+000 -4.465769e+000 -3.758196e-002 -5.178087e+000 2.038890e+000 -4.400172e+000 1.055017e+000 -3.465061e+000 5.488799e+001 2.939336e+000 -9.972385e-002 -1.166827e+000 -9.135324e-001 1.558155e-001 -6.026322e-001 -3.197212e-001 -5.139228e-001 -2.834311e-001 -5.785751e-001 -8.033997e-001 -5.566411e-001 1.756004e+000 4.527418e-001 -1.689545e-001 -3.780995e-001 -2.320748e-001 1.627971e-001 -1.391709e-001 5.495146e-002 6.515033e-002 1.718438e-002 -6.791951e-002 -1.366590e-001 -1.981753e-001 4.992490e-001
<VARIANCE> 39
 2.525045e+001 1.956795e+001 1.398106e+001 1.996073e+001 1.417954e+001 2.153768e+001 1.830242e+001 1.734092e+001 2.941667e+001 2.057658e+001 1.855647e+001 1.614246e+001 5.057923e+001 3.310628e+000 2.057843e+000 2.723998e+000 2.347809e+000 2.106532e+000 1.435698e+000 1.098486e+000 2.093566e+000 1.791764e+000 2.039497e+000 1.542586e+000 1.282571e+000 4.736012e+000 2.613991e-001 2.622944e-001 2.414502e-001 2.486559e-001 2.540340e-001 2.045289e-001 1.632317e-001 2.251300e-001 2.911168e-001 1.884888e-001 1.963013e-001 1.944667e-001 3.058717e-001
<GCONST> 1.011652e+002
<TRANSP> 5
 0.000000e+000 1.000000e+000 0.000000e+000 0.000000e+000 0.000000e+000
 0.000000e+000 7.946536e-001 2.053464e-001 0.000000e+000 0.000000e+000
 0.000000e+000 0.000000e+000 7.898971e-001 2.101029e-001 0.000000e+000
 0.000000e+000 0.000000e+000 0.000000e+000 6.770549e-001 3.229451e-001
 0.000000e+000 0.000000e+000 0.000000e+000 0.000000e+000 0.000000e+000
<ENDHMM>
~h "g"
<BEGINHMM>
<NUMSTATES> 5
<STATE> 2
<NUMMIXES> 5
<MIXTURE> 1 2.292302e-001
<MEAN> 39
 -6.504730e+000 -5.588002e-001 5.664207e+000 -3.985336e-001 -3.656939e+000 -4.226207e+000 -2.091579e+000 -8.375121e+000 -5.490623e+000 -4.571365e+000 -5.416232e-001 -4.094433e+000 4.611974e+001 -5.990443e-001 -2.457626e+000 -3.214981e+000 1.730079e+000 8.917742e-001 -1.875522e+000 2.006717e+000 1.425713e+000 8.602540e-002 6.402169e-001 2.913618e-001 2.510223e-001 1.215698e+000 2.882125e-001 -2.332640e-001 -6.537576e-001 -1.015499e+000 -1.764433e-001 4.580641e-002 -3.833831e-001 3.569106e-001 7.930706e-001 1.262138e-001 2.285278e-001 7.468650e-002 1.537011e+000
<VARIANCE> 39
 2.927504e+001 5.452348e+001 4.536963e+001 2.747449e+001 2.868793e+001 5.311412e+001 3.408497e+001 4.736993e+001 3.369805e+001 2.820806e+001 3.354918e+001 1.531920e+001 4.133607e+001 1.450318e+000 1.914344e+000 2.137990e+000 4.209665e+000 2.115496e+000 2.459386e+000 2.019310e+000 2.125683e+000 1.563753e+000 3.244550e+000 2.228793e+000 8.758373e-001 1.954299e+000 2.544852e-001 3.836072e-001 3.935495e-001 2.941566e-001 5.663728e-001 4.288525e-001 3.336681e-001 4.549542e-001 1.978469e-001 4.050431e-001 3.145405e-001 1.730958e-001 3.126179e-001
<GCONST> 1.126243e+002
<MIXTURE> 2 2.654547e-001
<MEAN> 39
 -5.957456e+000 -2.664450e+000 -1.083012e+000 -3.429940e+000 -7.966509e-001 -5.508604e+000 -4.062326e+000 -4.000411e+000 -1.406021e+000 -4.703825e+000 2.437364e-001 -2.829319e+000 4.803159e+001 -1.255074e+000 -2.107669e+000 -5.277689e-001 7.224808e-002 -1.613077e+000 8.328643e-001 7.322852e-001 -2.238697e-002 7.243811e-001 -2.167187e-001 8.100994e-002 7.868355e-002 2.363314e+000 1.432517e-001 -3.075516e-002 -4.450323e-002 -6.299958e-001 -2.333730e-001 -8.036803e-002 1.556450e-001 1.276500e-002 1.692465e-001 1.535048e-001 5.099085e-002 -1.461867e-001 1.020055e+000
<VARIANCE> 39
 4.489085e+001 5.040879e+001 3.583308e+001 4.471899e+001 3.342910e+001 2.289993e+001 4.352423e+001 2.298583e+001 4.217772e+001 2.714185e+001 2.308680e+001 2.724171e+001 5.832714e+001 1.629079e+000 3.295305e+000 2.824301e+000 2.679441e+000 2.360584e+000 2.795528e+000 2.029255e+000 2.704088e+000 2.223133e+000 2.263057e+000 1.821558e+000 1.184563e+000 2.355742e+000 1.459142e-001 3.749152e-001 3.077593e-001 3.056050e-001 3.667672e-001 2.274940e-001 4.252547e-001 1.097926e-001 3.283581e-001 2.048162e-001 2.846417e-001 2.096107e-001 4.137881e-001
<GCONST> 1.111997e+002
<MIXTURE> 3 1.781927e-001
<MEAN> 39
 -1.068448e+001 1.823048e+000 2.643582e+000 -1.022802e-001 1.668271e+000 -1.715476e+000 1.186112e-001 -3.211667e+000 6.062193e-001 -3.430316e+000 1.390153e+000 -3.628877e+000 3.641768e+001 -2.041259e+000 -3.116566e+000 -1.247997e+000 -2.806957e-002 -1.695086e-001 4.369220e-001 7.585188e-001 -9.525658e-002 3.823662e-001 -7.273921e-002 3.708646e-002 1.609669e-001 1.746826e+000 4.367918e-001 -5.602698e-001 -3.064471e-001 -1.073111e+000 -5.803568e-001 -4.776855e-001 -1.584799e-002 -1.535606e-002 7.910955e-002 2.253901e-001 -3.594357e-002 2.480793e-002 2.192517e+000
<VARIANCE> 39
 2.316731e+001 1.577945e+001 9.323298e+000 1.370050e+001 1.855739e+001 1.969268e+001 1.625480e+001 1.698312e+001 2.040705e+001 2.194895e+001 1.318129e+001 2.340044e+001 4.704187e+000 1.553190e+000 1.601788e+000 1.365092e+000 3.018240e+000 2.786484e+000 2.177789e+000 2.680789e+000 2.009383e+000 1.539124e+000 1.835850e+000 1.114539e+000 1.178689e+000 3.700772e+000 2.010494e-001 5.243683e-001 3.593161e-001 3.370604e-001 5.059162e-001 3.440735e-001 4.079593e-001 2.655086e-001 1.710197e-001 1.740597e-001 1.627882e-001 2.056846e-001 2.674236e-001
<GCONST> 9.920763e+001
<MIXTURE> 4 1.434937e-001
<MEAN> 39
 -2.153092e+000 2.130955e+000 5.596738e+000 -7.488923e+000 -3.493556e+000 -3.702272e+000 -1.061466e+001 -6.685501e+000 -5.374385e+000 -6.358088e+000 5.527261e+000 -3.891606e+000 4.750401e+001 -2.155166e+000 -3.131202e+000 -1.171689e+000 1.960510e+000 -1.610103e+000 2.714687e-001 3.320634e+000 -1.308523e+000 1.236657e+000 4.789998e-001 -9.357458e-001 8.007822e-001 1.240475e+000 -2.455175e-001 -3.529499e-001 -3.947750e-001 -4.768404e-002 -1.750951e-001 -3.665906e-001 5.315765e-001 4.705791e-001 2.050719e-001 3.362294e-001 -1.633663e-001 -6.539444e-002 1.101025e+000
<VARIANCE> 39
 7.742471e+000 2.153006e+001 2.034882e+001 5.225653e+001 2.570854e+001 4.123963e+001 3.777393e+001 3.408662e+001 2.790979e+001 4.872169e+001 7.117932e+001 4.484370e+001 2.996432e+001 4.056018e-001 1.434251e+000 1.461287e+000 3.138097e+000 2.183472e+000 4.889301e+000 2.171266e+000 2.017754e+000 2.251526e+000 2.536811e+000 2.843331e+000 2.322672e+000 8.965518e-001 1.923961e-001 2.409688e-001 4.792344e-001 4.297049e-001 2.579142e-001 2.741036e-001 3.260044e-001 1.699320e-001 1.980448e-001 2.701378e-001 4.210861e-001 3.400971e-001 3.804843e-001
<GCONST> 1.088884e+002
<MIXTURE> 5 1.836290e-001
<MEAN> 39
 -1.315601e+001 -1.579562e+000 3.603920e-001 -1.060371e+000 -3.112060e-001 -3.544307e+000 -1.051833e+000 -3.222922e+000 1.218463e+000 -3.881193e+000 9.831450e-001 -3.383078e+000 3.497893e+001 -1.161320e+000 -3.796071e+000 -1.366963e+000 3.132516e-001 -6.985787e-001 2.932682e-001 6.639367e-001 5.064878e-001 -1.296210e-001 -3.196230e-001 2.125719e-001 -4.994414e-001 2.251349e+000 6.582187e-001 -2.658694e-001 -2.395590e-001 -8.320968e-001 -4.237265e-001 -4.280406e-001 1.801736e-001 -1.150026e-001 -5.334448e-002 1.793411e-001 -1.425899e-001 -6.653047e-002 2.120570e+000
<VARIANCE> 39
 1.142348e+001 1.229914e+001 9.736802e+000 1.131757e+001 1.702235e+001 1.714001e+001 1.978598e+001 1.632636e+001 1.460988e+001 1.199805e+001 1.294272e+001 2.634288e+001 2.917822e+000 2.686225e+000 1.999142e+000 1.413602e+000 3.102178e+000 2.384174e+000 3.329225e+000 1.989918e+000 2.303419e+000 1.100035e+000 1.074529e+000 1.070268e+000 1.125853e+000 3.690852e+000 2.401986e-001 4.495475e-001 3.370402e-001 3.997401e-001 4.749501e-001 2.820207e-001 2.027094e-001 3.127955e-001 2.195105e-001 3.188070e-001 1.547161e-001 2.887459e-001 2.984895e-001
<GCONST> 9.728437e+001
<STATE> 3
<NUMMIXES> 5
<MIXTURE> 1 1.854728e-001
<MEAN> 39
 -1.206641e+001 -1.337551e+001 -2.299414e+000 -2.835724e+000 -2.246103e+000 -6.109207e+000 4.062469e+000 -2.660016e+000 -3.150293e+000 -1.360501e+000 8.855804e-001 -5.270429e+000 5.565583e+001 -4.183744e-001 -1.886739e+000 -2.228714e+000 -1.168347e-001 -3.052415e-001 -1.331861e+000 1.728249e+000 1.228068e+000 1.167174e+000 1.211676e+000 5.563447e-001 6.922428e-001 3.237867e+000 6.827308e-001 8.959779e-001 2.622566e-001 -7.035853e-001 -3.222779e-001 1.721426e-001 -8.728333e-001 -7.791682e-002 4.802745e-001 -2.117737e-001 6.696220e-002 1.111787e-001 5.722480e-001
<VARIANCE> 39
 2.650990e+001 3.164284e+001 5.975370e+001 4.130710e+001 5.399869e+001 4.697171e+001 2.396780e+001 5.913981e+001 2.843519e+001 1.872780e+001 1.743186e+001 1.872370e+001 5.483395e+001 2.300483e+000 1.680657e+000 3.252492e+000 4.421497e+000 2.637772e+000 2.850245e+000 2.159208e+000 3.416552e+000 1.380196e+000 1.607381e+000 1.502831e+000 1.519793e+000 3.396603e+000 2.769726e-001 1.991734e-001 4.290568e-001 2.597171e-001 6.254762e-001 6.113549e-001 2.461903e-001 5.180441e-001 2.270101e-001 2.295437e-001 2.506030e-001 2.348015e-001 3.488740e-001
<GCONST> 1.133123e+002
<MIXTURE> 2 1.353774e-001
<MEAN> 39
 -1.396977e+001 -7.635938e+000 -1.902508e+000 -6.167375e+000 -2.774487e+000 -1.717644e+000 1.617956e+000 -2.582244e+000 1.674252e+000 -2.316833e+000 1.739591e+000 -1.887042e+000 4.563467e+001 2.731867e-001 -1.976773e+000 -7.774227e-001 -1.376990e+000 -1.057562e+000 -4.481102e-001 7.162408e-001 5.616557e-002 6.531141e-001 9.088175e-001 1.678355e-001 1.483001e-001 4.670501e+000 7.730504e-001 5.668242e-001 -5.004582e-003 -3.376078e-001 -2.157333e-002 -3.740960e-001 -2.219132e-001 -9.294070e-002 -1.795671e-002 1.059043e-001 1.910514e-002 -7.753838e-002 7.607318e-001
<VARIANCE> 39
 2.367670e+001 2.839838e+001 1.303775e+001 4.638517e+001 2.243785e+001 4.147381e+001 1.627909e+001 1.479292e+001 1.316616e+001 1.712756e+001 2.089116e+001 1.775605e+001 1.179170e+002 1.509815e+000 3.218593e+000 1.683810e+000 1.593607e+000 1.746369e+000 2.081997e+000 1.495157e+000 1.680181e+000 1.418564e+000 1.061744e+000 6.997529e-001 1.346472e+000 2.094824e+000 2.215239e-001 2.660596e-001 3.150645e-001 4.670684e-001 2.638710e-001 5.643248e-001 2.735235e-001 3.599624e-001 1.426964e-001 2.934176e-001 1.404243e-001 3.113305e-001 3.749648e-001
<GCONST> 1.026324e+002
<MIXTURE> 3 2.487716e-001
<MEAN> 39
 -1.213324e+001 -1.420818e+001 -1.413966e+000 -6.605707e+000 -2.769086e+000 -2.134358e+000 -4.144050e+000 -4.960711e+000 3.038958e+000 -6.209103e+000 1.415333e+000 -1.522270e+000 5.836439e+001 -1.105708e+000 -2.589033e+000 -8.592920e-001 -7.068504e-001 -1.522240e+000 8.173089e-001 1.150789e+000 -7.859688e-002 1.012784e+000 -4.260103e-001 -3.699986e-001 -2.315089e-001 3.257152e+000 8.135931e-001 7.314404e-001 -6.577463e-002 -4.471963e-001 -8.635835e-002 -4.817885e-001 3.098837e-001 -6.192366e-002 -2.128914e-001 3.576465e-001 -2.194802e-001 -2.363624e-001 2.230765e-001
<VARIANCE> 39
 5.445263e+001 2.310384e+001 6.792927e+001 4.153679e+001 3.960779e+001 3.811299e+001 3.514714e+001 3.696019e+001 1.549744e+001 2.602805e+001 2.461437e+001 1.463561e+001 4.202493e+001 2.128550e+000 1.466801e+000 2.314159e+000 3.926251e+000 2.515374e+000 2.308657e+000 3.053454e+000 1.643711e+000 1.969866e+000 1.727819e+000 2.265851e+000 1.634236e+000 3.032937e+000 4.577602e-001 4.409366e-001 7.527180e-001 4.103687e-001 3.789055e-001 2.998102e-001 3.880906e-001 5.358712e-001 2.375110e-001 3.097145e-001 3.696820e-001 1.498347e-001 2.749245e-001
<GCONST> 1.139198e+002
<MIXTURE> 4 2.868844e-001
<MEAN> 39
 -8.153608e+000 -1.575661e+001 -5.308019e+000 -1.604657e+000 -4.861601e+000 -8.018858e+000 2.495119e+000 -5.407929e+000 -1.368097e+000 -2.995900e+000 6.409042e-001 -3.766683e+000 5.716365e+001 9.155298e-002 -1.784824e+000 -2.143552e+000 9.909509e-001 -4.993045e-001 -1.466551e+000 1.251118e+000 6.490495e-001 5.064065e-001 -1.992411e-001 -1.841145e-002 9.415127e-002 2.316847e+000 5.991917e-001 9.890329e-001 2.679854e-001 -8.212594e-001 1.210126e-001 3.224355e-002 -6.265997e-001 2.299990e-001 2.753591e-001 -1.894063e-001 1.529972e-001 -1.325296e-001 2.989705e-001
<VARIANCE> 39
 2.004100e+001 5.699753e+001 3.017104e+001 2.872736e+001 3.510968e+001 2.438063e+001 2.524199e+001 1.528586e+001 2.507494e+001 2.561094e+001 1.532868e+001 1.710661e+001 2.522161e+001 3.827556e+000 2.268324e+000 2.950811e+000 2.098725e+000 2.881962e+000 3.344113e+000 2.546846e+000 1.796428e+000 2.101793e+000 2.541272e+000 1.815911e+000 8.900188e-001 2.392088e+000 1.801862e-001 5.232757e-001 2.761894e-001 3.992380e-001 5.142249e-001 3.650251e-001 3.960364e-001 2.243477e-001 3.360439e-001 5.068864e-001 3.747648e-001 1.590823e-001 3.692698e-001
<GCONST> 1.100049e+002
<MIXTURE> 5 1.434941e-001
<MEAN> 39
 -1.458129e+001 -7.913568e+000 -5.173844e+000 -3.450186e+000 -1.418465e+000 -5.311846e+000 1.821325e+000 -3.472652e+000 -1.905461e-001 -4.150150e+000 1.525167e+000 -3.856219e+000 4.942859e+001 -1.251874e-001 -1.541264e+000 -1.319868e+000 -1.635311e+000 -1.172151e+000 -4.966069e-001 2.639797e-001 -4.611763e-001 4.076106e-001 6.332440e-001 2.626923e-001 -3.412598e-001 4.832792e+000 7.778797e-001 6.686327e-001 2.181929e-001 -8.621451e-001 -2.056488e-001 -3.556586e-001 -1.752550e-001 -4.182756e-002 -3.448579e-002 1.424370e-001 -4.142543e-002 -9.212453e-002 7.369405e-001
<VARIANCE> 39
 2.315521e+001 4.314271e+001 2.634725e+001 5.328681e+001 1.951442e+001 2.265713e+001 1.996834e+001 1.440284e+001 2.688935e+001 1.077871e+001 1.225473e+001 1.293608e+001 1.200972e+002 1.711566e+000 3.201194e+000 1.613505e+000 1.908976e+000 2.089434e+000 1.290618e+000 1.732785e+000 1.296926e+000 1.538163e+000 9.849485e-001 1.218906e+000 2.270150e+000 1.698626e+000 1.650262e-001 3.424153e-001 3.266856e-001 3.833134e-001 2.183061e-001 3.536032e-001 2.487374e-001 3.725763e-001 1.238461e-001 2.681152e-001 1.605750e-001 1.798770e-001 4.199572e-001
<GCONST> 1.019901e+002
<STATE> 4
<NUMMIXES> 5
<MIXTURE> 1 2.234448e-001
<MEAN> 39
 -9.596094e+000 -1.454940e+001 -5.250415e+000 -1.372137e+000 -6.534451e+000 -1.059135e+001 3.550272e+000 9.030926e-001 -5.987242e-001 -1.721233e+000 5.091927e+000 -1.849631e+000 5.889935e+001 1.348061e+000 3.572845e-002 -2.777807e-001 -2.370908e-001 -1.144538e+000 -9.580057e-001 -1.784113e-001 2.649155e-001 1.406354e+000 -3.167498e-001 4.654831e-001 5.456425e-001 2.834681e+000 5.743226e-001 1.035233e+000 5.800246e-001 -3.381012e-001 -1.017857e-001 4.395858e-001 -7.788238e-001 -8.096245e-001 1.663886e-001 -3.840982e-001 -1.061823e-001 -2.086419e-001 -2.747088e-001
<VARIANCE> 39
 2.465088e+001 3.562388e+001 5.375475e+001 3.182186e+001 3.129607e+001 2.154077e+001 2.148192e+001 1.915022e+001 2.658541e+001 2.847676e+001 2.080301e+001 1.523097e+001 2.205206e+001 1.468287e+000 3.410755e+000 3.827836e+000 1.408885e+000 2.773725e+000 1.771963e+000 2.240377e+000 2.473947e+000 1.789436e+000 1.064734e+000 9.874024e-001 8.303519e-001 2.618788e+000 2.401726e-001 3.759375e-001 3.854367e-001 4.721421e-001 4.298487e-001 3.336422e-001 2.974826e-001 2.539616e-001 2.975947e-001 3.588863e-001 3.758346e-001 2.347291e-001 3.031864e-001
<GCONST> 1.074318e+002
<MIXTURE> 2 2.579581e-001
<MEAN> 39
 -7.952923e+000 -1.515625e+000 -1.721317e+000 -1.573760e+001 -4.643195e+000 -7.037679e+000 -1.063272e+000 -5.657547e+000 2.901889e+000 -2.720490e+000 1.431860e+000 -3.699858e+000 6.621951e+001 1.552584e+000 4.108568e-002 -4.139838e-001 -2.206671e+000 -1.217164e+000 4.798067e-002 3.147433e-001 1.415948e-001 5.491509e-001 3.510444e-001 -1.092939e-001 -2.606006e-001 3.059212e+000 6.161118e-002 -2.155193e-001 -3.040023e-002 4.796252e-001 1.923242e-001 3.684947e-001 1.148583e-001 2.178281e-001 -2.307003e-001 -6.293522e-002 -1.907524e-001 -4.454916e-002 -8.270493e-001
<VARIANCE> 39
 2.433567e+001 4.641411e+001 3.350115e+001 5.353535e+001 4.472839e+001 5.777327e+001 3.719495e+001 4.228157e+001 1.947488e+001 2.473375e+001 2.136573e+001 1.911045e+001 2.074195e+001 1.503834e+000 2.686915e+000 1.482504e+000 2.525152e+000 2.442587e+000 3.701332e+000 2.479615e+000 2.470257e+000 1.530165e+000 1.561931e+000 2.604289e+000 1.347285e+000 3.166959e+000 2.701953e-001 3.209006e-001 3.075389e-001 3.829370e-001 3.370660e-001 5.116011e-001 3.443571e-001 3.957484e-001 2.392997e-001 3.019530e-001 2.598409e-001 1.894019e-001 1.970666e-001
<GCONST> 1.110494e+002
<MIXTURE> 3 1.389210e-001
<MEAN> 39
 -5.759174e+000 -8.393956e+000 -5.566556e+000 -1.450168e+000 -1.194578e+000 -1.098512e+001 -2.368448e-001 7.311033e-001 3.961355e+000 -2.957098e+000 2.193629e+000 -3.098654e+000 5.525329e+001 2.226399e+000 1.703861e+000 -1.213257e+000 -5.791356e-001 4.629276e-001 -7.373134e-001 -9.276370e-001 1.517894e-001 1.036585e+000 -6.561825e-002 -2.693282e-001 -1.622101e-001 1.463154e+000 1.935552e-001 1.969985e-001 1.627434e-001 -2.874381e-001 -3.155633e-001 3.724976e-001 -8.037540e-002 -3.758780e-001 -1.162510e-001 -3.110529e-002 -2.621940e-002 -1.850666e-002 1.848071e-003
<VARIANCE> 39
 3.024843e+001 5.093489e+001 3.298231e+001 4.304937e+001 3.494212e+001 3.010235e+001 4.694455e+001 3.206762e+001 2.307138e+001 2.000799e+001 1.926620e+001 2.019785e+001 3.674757e+001 1.424402e+000 1.732765e+000 3.837213e+000 1.764574e+000 2.418539e+000 1.977656e+000 2.163702e+000 2.237297e+000 1.495755e+000 2.017212e+000 1.038539e+000 8.661132e-001 1.747740e+000 3.107333e-001 6.464635e-001 2.520666e-001 4.625834e-001 4.747433e-001 3.027017e-001 4.251550e-001 2.955047e-001 1.740658e-001 2.006176e-001 1.883959e-001 1.991864e-001 4.016272e-001
<GCONST> 1.084503e+002
<MIXTURE> 4 2.399748e-001
<MEAN> 39
 -1.242110e+001 -1.392102e+001 -7.703887e-001 -7.980218e+000 -8.351566e+000 -6.598035e-001 2.243073e+000 -7.026488e+000 3.153889e+000 -2.666659e+000 -4.987353e-001 -3.750494e+000 6.191500e+001 4.244988e-001 -4.501498e-001 -1.837281e-001 -9.644191e-001 -1.347176e+000 -1.185908e-001 8.644555e-001 -5.450727e-001 -1.075291e-001 5.950532e-002 -3.678291e-001 -7.676012e-001 2.822258e+000 7.684436e-001 1.074380e+000 1.096909e-001 -4.354571e-002 3.402589e-001 -5.587759e-001 -3.731978e-001 1.888094e-001 -2.163032e-001 -9.032748e-003 1.143938e-001 -8.366472e-002 -6.647938e-001
<VARIANCE> 39
 2.095454e+001 3.502658e+001 1.700467e+001 3.747215e+001 3.350609e+001 1.822895e+001 2.596644e+001 3.020235e+001 2.256575e+001 3.883411e+001 2.487601e+001 2.834281e+001 2.182433e+001 3.493229e+000 1.972793e+000 2.305089e+000 1.987334e+000 1.977346e+000 1.772300e+000 2.116396e+000 2.073179e+000 1.639514e+000 2.078017e+000 2.200158e+000 1.238084e+000 3.435530e+000 2.647431e-001 3.289394e-001 2.992616e-001 4.071651e-001 3.043684e-001 2.758252e-001 4.499279e-001 4.363635e-001 2.751934e-001 4.257265e-001 3.107508e-001 2.856615e-001 2.251417e-001
<GCONST> 1.091681e+002
<MIXTURE> 5 1.397014e-001
<MEAN> 39
 -7.785894e+000 -8.570146e+000 -1.022339e+001 -3.061252e+000 -1.120654e+000 -9.877198e+000 -1.706250e+000 -3.229327e+000 5.105329e+000 -3.182675e+000 1.662914e+000 -4.465563e+000 5.764148e+001 1.526766e+000 1.209129e+000 -7.106161e-001 -9.917786e-001 -3.038846e-001 -8.059419e-001 -9.313123e-001 -5.854653e-001 5.029844e-001 1.442049e-001 -1.770106e-001 -7.163323e-001 2.177970e+000 2.873672e-001 2.644626e-001 5.284561e-001 -3.472307e-001 -2.512917e-001 1.907728e-001 -1.471829e-001 -2.190963e-002 -4.065986e-001 -1.075596e-001 -1.080763e-001 -3.930871e-002 -2.711738e-001
<VARIANCE> 39
 4.076921e+001 8.823499e+001 3.653736e+001 2.422166e+001 2.505145e+001 3.313942e+001 4.762213e+001 2.462915e+001 1.565083e+001 2.548726e+001 2.330490e+001 1.895969e+001 3.163589e+001 2.021523e+000 1.588905e+000 3.195400e+000 2.181021e+000 1.847698e+000 2.654139e+000 2.138299e+000 2.190788e+000 9.711730e-001 1.041733e+000 1.438297e+000 1.100499e+000 2.978959e+000 3.757455e-001 7.981647e-001 3.441162e-001 2.163759e-001 2.305575e-001 3.182943e-001 4.330566e-001 3.838735e-001 1.727702e-001 1.959058e-001 2.365144e-001 2.690389e-001 4.062040e-001
<GCONST> 1.085291e+002
<TRANSP> 5
 0.000000e+000 1.000000e+000 0.000000e+000 0.000000e+000 0.000000e+000
 0.000000e+000 2.736748e-001 7.263252e-001 0.000000e+000 0.000000e+000
 0.000000e+000 0.000000e+000 3.114866e-001 6.885134e-001 0.000000e+000
 0.000000e+000 0.000000e+000 0.000000e+000 5.884759e-001 4.115241e-001
 0.000000e+000 0.000000e+000 0.000000e+000 0.000000e+000 0.000000e+000
<ENDHMM>
~h "k"
<BEGINHMM>
<NUMSTATES> 5
<STATE> 2
<NUMMIXES> 5
<MIXTURE> 1 2.280742e-001
<MEAN> 39
 -4.504073e+000 -1.117105e+000 2.437645e+000 -4.141680e+000 -1.552934e+000 -5.770833e+000 -1.713063e+000 -2.812035e+000 -1.399185e+000 -2.151744e+000 6.696338e-001 -2.745072e+000 4.880444e+001 -1.348064e+000 -1.494323e+000 -9.661086e-001 2.734496e-001 -3.275742e-001 -3.040847e-001 1.135636e+000 4.445566e-001 2.970301e-001 5.317540e-001 4.810413e-001 4.633010e-001 6.607832e-001 -2.217821e-001 -5.039807e-002 -3.805763e-001 -3.792925e-001 -5.422968e-002 -1.407731e-002 1.285588e-001 1.481706e-001 1.975691e-001 -9.930669e-003 -1.022403e-001 -1.372624e-001 8.431242e-001
<VARIANCE> 39
 3.947272e+001 6.697820e+001 4.406556e+001 6.002259e+001 7.086329e+001 7.356335e+001 6.986497e+001 7.155941e+001 5.240261e+001 4.329623e+001 3.420397e+001 4.207418e+001 8.441824e+001 2.189923e+000 3.801001e+000 2.965800e+000 3.847061e+000 3.962933e+000 3.282118e+000 3.115111e+000 3.194095e+000 3.277851e+000 2.183284e+000 2.103754e+000 2.252970e+000 7.473305e+000 2.295939e-001 3.120900e-001 2.347900e-001 3.717639e-001 4.223204e-001 4.583555e-001 3.751451e-001 3.701634e-001 3.720081e-001 3.445099e-001 2.394003e-001 3.404211e-001 3.436932e-001
<GCONST> 1.245796e+002
<MIXTURE> 2 2.599716e-001
<MEAN> 39
 -1.444504e+001 -3.371538e+000 -1.362626e+000 -1.496724e+000 5.513120e-001 -2.360454e+000 1.292806e+000 -2.351133e+000 8.344665e-001 -2.593951e+000 1.132717e+000 -2.642095e+000 3.454225e+001 -1.138942e+000 -1.683002e+000 -1.526112e+000 -1.389223e-004 4.036443e-001 -4.292848e-001 8.256229e-001 5.173774e-001 4.715114e-001 4.423870e-001 2.000514e-001 4.145656e-001 1.776147e+000 4.651968e-001 -1.740712e-001 -2.230648e-001 -9.490818e-001 -4.610278e-001 -1.888606e-001 -2.534502e-001 -1.614812e-001 7.236053e-002 -3.258784e-002 -5.258452e-003 -1.802485e-001 2.499593e+000
<VARIANCE> 39
