~o
<STREAMINFO> 1 39
<VECSIZE> 39<NULLD><MFCC_D_A_0><DIAGC>
~s "silst"
<NUMMIXES> 4
<MIXTURE> 1 2.124781e-001
<MEAN> 39
 -5.682553e+000 -9.620689e-002 1.832508e-001 -5.801104e+000 -2.221096e+000 -4.338100e+000 6.163671e-001 -3.162626e+000 1.222379e+000 -1.997152e+000 1.289820e+000 -2.675683e+000 5.179954e+001 -1.058813e-002 6.227738e-002 2.946236e-001 5.068992e-001 2.439148e-001 1.299005e-001 1.474497e-001 1.984765e-001 5.696846e-003 -1.772684e-002 9.315723e-002 7.871753e-002 -1.238840e+000 -1.931039e-002 -6.008835e-002 -7.231833e-002 -4.310948e-003 7.814883e-002 -1.600586e-002 -3.412288e-002 7.457530e-003 1.517318e-002 3.174081e-003 -2.669372e-002 -9.120801e-003 1.172796e-001
<VARIANCE> 39
 8.043118e+001 6.433380e+001 6.859123e+001 8.516225e+001 7.103696e+001 5.940162e+001 5.825678e+001 5.153836e+001 5.126773e+001 4.283042e+001 3.443845e+001 3.559755e+001 1.117758e+002 1.180873e+000 9.577535e-001 1.226454e+000 1.588110e+000 1.688526e+000 1.603447e+000 1.756091e+000 1.451436e+000 1.392858e+000 1.477226e+000 1.227802e+000 9.810832e-001 2.764904e+000 1.538653e-001 1.313538e-001 1.683975e-001 2.048201e-001 2.305775e-001 2.409739e-001 2.672749e-001 2.538916e-001 2.365451e-001 2.153250e-001 1.824436e-001 1.760186e-001 2.037358e-001
<GCONST> 1.085687e+002
<MIXTURE> 2 2.844930e-001
<MEAN> 39
 -2.547289e+000 -4.357956e+000 -2.734368e+000 -1.027892e+001 -7.382330e+000 -7.672481e+000 1.369138e+000 -5.498201e+000 1.440040e+000 -2.193043e+000 -9.786828e-001 -5.058460e+000 5.717091e+001 -7.505252e-001 1.263145e+000 9.312955e-001 1.362230e+000 8.944812e-001 1.418781e-001 -3.822831e-001 4.202335e-002 -1.602473e-001 -6.313778e-002 1.897677e-001 3.356499e-001 -3.707440e+000 -4.180467e-001 -1.872710e-001 -2.433697e-001 2.103408e-001 4.595013e-001 1.952681e-001 -2.762027e-002 1.526747e-001 -1.083168e-001 -1.618737e-001 8.803602e-002 6.982490e-002 5.344924e-002
<VARIANCE> 39
 2.809247e+001 5.187240e+001 6.732558e+001 7.851730e+001 8.038522e+001 8.716830e+001 7.600483e+001 1.004696e+002 7.243894e+001 7.224765e+001 6.267937e+001 5.248734e+001 7.031655e+001 2.427282e+000 3.561036e+000 3.181897e+000 3.756132e+000 3.980850e+000 3.363314e+000 3.448063e+000 3.704203e+000 3.645821e+000 3.092289e+000 2.719880e+000 2.284432e+000 6.812075e+000 2.467885e-001 2.850881e-001 3.873015e-001 4.648322e-001 5.537046e-001 5.425818e-001 5.058410e-001 6.438051e-001 5.492435e-001 4.829553e-001 4.726877e-001 3.947431e-001 5.210074e-001
<GCONST> 1.318403e+002
<MIXTURE> 3 2.870809e-001
<MEAN> 39
 -3.436294e+000 2.742565e+000 1.976868e+000 -1.267363e+001 -1.886351e+000 -7.489596e+000 -6.267280e+000 -5.334329e+000 -9.535416e-001 -2.774579e+000 7.570633e-001 -3.198008e+000 5.526640e+001 -7.677794e-001 6.752968e-001 7.021912e-001 2.659342e+000 7.660617e-001 3.829689e-001 1.323404e-001 -5.223157e-002 -5.759847e-001 -4.607722e-001 1.126433e-002 6.617687e-002 -4.416124e+000 -5.177867e-001 -6.755024e-001 -5.845872e-001 2.755415e-001 -4.441535e-002 2.554736e-001 5.908831e-001 1.284880e-001 1.885476e-001 -3.145826e-002 -4.796120e-002 -6.705658e-002 2.323402e-001
<VARIANCE> 39
 2.072375e+001 3.313901e+001 3.773053e+001 6.522298e+001 4.940876e+001 6.194644e+001 5.199729e+001 4.510173e+001 5.178870e+001 5.108226e+001 3.760826e+001 2.984846e+001 5.105549e+001 1.805384e+000 2.733953e+000 2.430200e+000 2.497157e+000 2.783820e+000 2.808615e+000 2.434604e+000 2.238872e+000 2.102274e+000 1.900647e+000 1.860400e+000 1.429107e+000 4.011158e+000 1.803261e-001 2.489223e-001 2.578351e-001 4.280281e-001 3.511430e-001 4.375193e-001 4.591521e-001 3.888822e-001 4.219817e-001 3.570164e-001 3.186209e-001 2.338032e-001 4.815249e-001
<GCONST> 1.174207e+002
<MIXTURE> 4 2.159467e-001
<MEAN> 39
 -7.138328e+000 -9.950585e-001 -1.808042e+000 -4.785245e+000 -2.686818e+000 -4.918641e+000 3.604183e-002 -4.292650e+000 1.248187e-001 -2.757156e+000 2.444821e-001 -3.552813e+000 4.962191e+001 2.285058e-002 -1.603475e-001 1.621987e-001 3.086290e-001 2.802785e-002 -8.844700e-002 -6.087210e-002 -6.950599e-003 -1.967349e-001 -2.050203e-001 -1.549222e-001 -8.699154e-002 -1.266715e+000 2.714243e-002 -6.780649e-002 -8.038022e-002 -9.991616e-002 5.424983e-002 -6.186843e-002 -4.860914e-002 -2.322489e-002 -2.534606e-002 -1.566089e-002 -3.215263e-002 -2.166393e-002 1.724535e-001
<VARIANCE> 39
 7.813374e+001 6.751916e+001 5.825294e+001 7.887257e+001 6.770335e+001 5.279471e+001 5.542787e+001 6.526563e+001 5.577545e+001 5.604205e+001 4.050722e+001 3.875904e+001 1.079004e+002 1.243898e+000 1.125339e+000 1.417899e+000 1.481447e+000 1.958101e+000 1.528618e+000 1.555445e+000 1.528648e+000 1.569777e+000 1.577698e+000 1.304381e+000 9.318888e-001 3.600067e+000 1.575485e-001 1.517745e-001 1.864763e-001 2.166050e-001 2.457187e-001 2.553444e-001 2.524276e-001 2.568528e-001 2.790937e-001 2.423408e-001 2.060924e-001 1.866259e-001 2.387663e-001
<GCONST> 1.107362e+002
~h "zh"
<BEGINHMM>
<NUMSTATES> 5
<STATE> 2
<NUMMIXES> 4
<MIXTURE> 1 1.281513e-001
<MEAN> 39
 -2.988068e+000 4.365153e-001 -2.095084e+000 -1.201804e+001 -1.092361e+001 -3.655884e+000 -5.840615e-001 -8.981790e+000 2.131216e+000 4.469403e+000 -3.523183e+000 -4.358574e-001 6.728932e+001 -1.367845e+000 2.653561e+000 7.046866e-001 -1.112381e+000 1.355370e+000 2.244487e-001 -9.666538e-001 -3.414557e-001 1.359438e+000 -4.589052e-001 6.862156e-001 1.083791e+000 -5.204420e-001 -2.257813e-001 -9.491868e-002 -8.970642e-001 6.665374e-001 3.509956e-001 -3.180015e-001 7.810944e-001 5.534785e-001 7.473199e-003 -7.272609e-001 1.656776e-001 8.642864e-003 -1.274304e-002
<VARIANCE> 39
 3.129027e+001 1.915670e+000 2.439937e+001 1.113091e+001 7.361087e-001 5.171562e+000 4.429260e+000 5.237812e+000 3.092686e+001 4.144813e+001 1.643757e+001 3.070964e+001 6.786900e+001 1.479952e-001 7.697322e-001 8.699051e-001 3.106326e+000 1.432863e+000 7.614373e-001 1.869920e+000 8.227554e-001 1.801356e+000 2.450894e+000 5.057744e-002 3.214997e+000 2.170020e+000 1.911386e-001 1.084301e-001 2.524476e-001 1.367060e-001 1.804271e-001 1.082037e-001 3.758910e-001 2.196516e-001 6.732487e-002 9.992548e-002 1.242705e-001 2.405853e-001 9.316233e-002
<GCONST> 7.867844e+001
<MIXTURE> 2 4.038942e-001
<MEAN> 39
 -8.056515e+000 6.254688e+000 -5.827433e+000 -1.178499e+001 -4.474917e+000 -9.616272e+000 -4.827285e+000 -1.130730e+001 -2.561244e+000 -6.287906e+000 -7.849670e+000 -9.162069e+000 6.533186e+001 -1.183881e+000 1.481046e+000 -1.456417e+000 1.020667e+000 6.127785e-001 -5.086668e-001 6.906670e-001 -9.868798e-001 1.113921e+000 2.374750e-001 6.729933e-001 7.381352e-001 -4.283541e-001 -2.211652e-001 -2.842055e-001 2.057623e-002 1.645192e-002 -1.760566e-002 2.172206e-001 2.498714e-001 2.424165e-001 2.857452e-002 -9.808496e-002 2.265033e-001 1.171506e-001 -1.640489e-001
<VARIANCE> 39
 3.883627e+000 6.709699e+000 3.043842e+001 4.204000e+001 4.844233e+001 1.695073e+001 1.308946e+001 3.420192e+001 1.230568e+001 9.276440e+001 2.995741e+001 1.102233e+002 9.743777e+000 1.447021e+000 2.064345e+000 2.165923e+000 1.589111e+000 7.859545e-001 1.601425e+000 2.085544e+000 9.859492e-001 2.241821e+000 6.721969e-001 1.138570e+000 2.596097e+000 8.109540e-001 2.500705e-001 7.970884e-002 1.296693e-001 2.959199e-001 3.468752e-001 3.754778e-001 2.336906e-001 2.314865e-001 2.534132e-001 1.609546e-001 7.633787e-002 2.835077e-001 1.011840e-001
<GCONST> 9.543681e+001
<MIXTURE> 3 2.307817e-001
<MEAN> 39
 -5.048068e+000 3.879153e+000 -7.846888e-001 -2.181501e+001 -3.406179e+000 -4.485563e+000 -4.265976e+000 -5.484184e+000 4.795627e+000 -3.235218e+000 2.541125e+000 1.259670e+000 6.541760e+001 -1.258504e+000 1.601011e+000 1.759192e-001 1.919310e+000 4.137575e-001 -1.864230e-001 1.474990e-001 -5.503288e-001 2.775572e-002 2.013801e-001 2.980231e-001 6.191926e-001 -1.315882e+000 -7.152230e-001 -4.637391e-002 -2.924041e-001 6.352621e-001 3.348558e-001 -1.012163e-002 5.681013e-001 1.511366e-001 3.658024e-002 1.928748e-001 -1.692358e-001 -5.409309e-002 -1.234702e-001
<VARIANCE> 39
 2.417365e+001 1.002170e+001 5.764195e+000 8.093786e+000 1.239824e+001 4.692258e+000 3.755414e+000 1.161925e+001 4.265087e+000 2.461820e+000 8.668447e+000 5.735586e+000 8.712603e+000 1.343064e+000 3.543049e-001 2.471013e-001 1.055848e+000 1.535978e+000 6.041772e-001 1.579376e+000 5.589099e-001 6.727500e-001 1.414260e+000 4.275818e-001 2.772978e-001 5.713580e-001 6.974147e-002 1.192741e-001 8.392306e-002 1.403317e-001 1.488684e-001 9.639574e-002 3.458606e-002 3.784540e-002 1.879778e-001 4.980556e-002 3.752998e-002 3.450185e-002 4.561805e-002
<GCONST> 5.772303e+001
<MIXTURE> 4 2.371728e-001
<MEAN> 39
 -7.734284e+000 3.034792e+000 -3.820560e+000 -1.799045e+001 -1.380373e+000 -5.742481e+000 -3.058598e+000 -5.387485e+000 8.436029e+000 -4.461082e+000 -1.730486e-001 -4.945020e-001 6.488575e+001 -1.767192e+000 1.845306e+000 2.363637e-001 2.407951e+000 -4.286133e-001 2.595942e-001 -8.717877e-002 -8.967111e-002 -4.615323e-001 -4.749255e-003 1.910335e-001 7.888501e-001 -1.415223e+000 -5.142552e-001 -1.085147e-001 -4.345141e-001 5.846548e-001 1.620290e-001 1.257820e-001 3.813731e-001 2.341628e-001 -5.604848e-001 -9.547736e-003 -2.140438e-001 -2.497859e-001 -1.418548e-001
<VARIANCE> 39
 1.642749e+001 1.208277e+001 4.426240e+000 2.306751e+001 3.205199e+001 3.924993e+000 1.806491e+000 4.406034e+000 1.067190e+001 7.891541e+000 6.465503e+000 5.043436e+000 2.849099e+001 2.367156e+000 1.142501e-001 7.645406e-001 1.672414e+000 5.874042e+000 7.189525e-001 9.447912e-001 1.186000e+000 1.083078e+000 1.656209e+000 7.308471e-001 3.042645e-001 4.075559e-001 9.523365e-002 1.113093e-001 1.064941e-001 1.736478e-001 1.390815e-001 4.883267e-002 2.242659e-002 4.133655e-002 3.322555e-001 1.504057e-001 5.365710e-002 3.961381e-002 6.069604e-002
<GCONST> 6.598172e+001
<STATE> 3
<NUMMIXES> 4
<MIXTURE> 1 1.966031e-001
<MEAN> 39
 -1.178686e+001 7.613509e+000 -3.529837e+000 -8.671005e+000 -3.960691e+000 -5.861433e+000 7.484799e-001 -1.059051e+001 1.584459e+000 3.043253e+000 -1.328204e+000 1.033578e+000 6.617492e+001 -2.196774e+000 7.135803e-001 -1.275814e+000 6.428719e-001 1.983849e+000 3.172353e-001 1.672550e+000 9.900508e-001 7.985888e-001 -7.132196e-001 1.141329e+000 3.809268e-001 -8.295807e-001 1.996090e-001 -7.999154e-001 -2.304861e-002 -2.197667e-001 -2.094208e-004 -1.134761e-002 1.294300e-002 5.459912e-001 -4.400409e-002 -1.512678e-001 -2.322795e-002 -4.222319e-001 1.724705e-001
<VARIANCE> 39
 1.559397e+001 8.507755e+000 2.947916e+001 4.788087e+001 2.254267e+001 2.131430e+001 1.214072e+001 1.847742e+001 1.952910e+001 6.478176e+001 1.787695e+001 6.226939e+001 9.009675e+000 1.431508e+000 1.819231e+000 1.138654e+000 1.717592e+000 1.544659e+000 1.268447e+000 1.853142e+000 2.069442e+000 7.838766e-001 2.503545e+000 8.840190e-001 1.772261e+000 1.706754e+000 8.205628e-002 1.383715e-001 4.197883e-001 7.167858e-001 1.917142e-001 2.654729e-001 2.968957e-001 4.143201e-001 1.395620e-001 2.209718e-001 1.817209e-001 4.513167e-001 1.100346e-001
<GCONST> 9.812460e+001
<MIXTURE> 2 3.236493e-001
<MEAN> 39
 -7.809345e+000 1.544440e+001 -2.056105e+001 -9.977972e+000 -4.938364e+000 -1.258115e+001 -1.547458e+000 -1.638177e+001 1.580539e+000 -1.477645e+001 -1.269431e+001 -1.783490e+001 5.892622e+001 1.835757e-001 4.401270e-001 -2.442922e-001 2.543305e-001 -6.564540e-001 1.476076e-001 3.207312e-001 -2.305121e-001 2.917291e-001 -3.357063e-001 3.540620e-001 -2.746827e-001 -4.773882e-001 8.967140e-003 -1.457938e-001 1.340089e-001 -8.468425e-002 1.178361e-001 1.164894e-002 -3.685420e-002 -2.084656e-002 -1.430179e-001 -6.530609e-002 -3.525293e-002 -1.150580e-001 -2.273717e-002
<VARIANCE> 39
 6.091472e-001 2.354746e+000 1.827969e+000 1.191076e+000 8.963053e+000 2.056979e+000 3.049629e+000 4.732540e+000 2.413425e+000 5.772016e+000 5.323117e+000 3.922516e+000 2.746924e+000 3.357106e-002 1.082552e-001 1.470224e-001 2.188620e-001 4.988722e-001 1.451576e-001 8.653054e-002 3.608526e-001 3.659926e-001 5.736142e-001 9.519719e-002 2.538303e-001 5.262041e-002 9.087017e-003 1.931468e-002 4.748288e-002 2.118208e-002 4.991106e-002 6.807861e-002 2.042513e-002 5.337686e-002 2.233194e-002 7.044766e-002 3.503881e-002 3.781085e-003 8.905953e-003
<GCONST> 1.354851e+001
<MIXTURE> 3 1.494040e-001
<MEAN> 39
 -5.510376e+000 1.480299e+001 -1.934430e+001 -1.111429e+001 -2.367234e+000 -1.428903e+001 6.158990e-001 -2.024327e+001 6.924349e-001 -2.152460e+001 -1.481086e+001 -2.375090e+001 5.287307e+001 -1.622232e-001 -7.283131e-001 1.530279e+000 -3.164383e-001 1.761568e+000 -1.106372e+000 -5.348311e-001 5.478113e-001 -4.197098e-001 -2.564328e-001 -1.501178e+000 -6.517516e-001 -9.169696e-001 -3.372597e-001 -1.094391e-001 4.844946e-001 3.460123e-002 2.600746e-001 -9.925326e-002 -1.763756e-001 3.992284e-001 -1.819703e-001 2.012833e-001 4.121635e-002 2.399061e-001 -4.745921e-002
<VARIANCE> 39
 1.765209e+000 6.359700e+000 7.621505e+000 3.632946e+000 8.296249e+000 5.279959e+000 4.712307e+000 2.593546e+000 2.294453e+000 1.222382e+001 2.034418e+001 5.254205e+000 2.880391e+000 6.793273e-001 7.883392e-002 1.337709e+000 4.403260e-002 3.376912e-001 2.606578e-001 2.964358e-001 1.021872e+000 4.909284e-002 1.121404e-001 1.989991e-001 2.671087e-001 4.901518e-002 9.120101e-002 2.837273e-002 3.475306e-002 1.276274e-002 2.439805e-002 1.302644e-001 4.303768e-002 4.823038e-002 5.034396e-002 3.281951e-002 2.696786e-001 5.188849e-002 6.152933e-003
<GCONST> 3.085518e+001
<MIXTURE> 4 3.303437e-001
<MEAN> 39
 -1.476655e+001 9.151789e+000 -4.327025e+000 -5.211061e+000 -1.459737e+000 -5.538346e+000 -1.961442e-001 -7.871743e+000 4.479425e+000 -4.605725e-001 -4.924036e-001 9.186267e-001 6.045551e+001 -3.369934e+000 3.638233e-001 -1.753324e+000 2.112094e+000 8.322856e-001 9.281291e-001 6.369018e-001 2.736375e-001 -4.886310e-001 -3.570247e-001 -7.583489e-002 -4.209224e-001 -1.133519e+000 2.385913e-001 -7.020019e-001 -6.321120e-002 -7.012181e-001 -7.471025e-002 -4.635563e-003 -8.392890e-002 2.051143e-001 -1.704311e-001 -1.848114e-001 4.156034e-002 -2.938457e-001 1.949893e-001
<VARIANCE> 39
 1.795522e+001 1.273598e+001 1.089651e+001 1.411900e+001 4.617603e+001 2.470304e+001 1.305496e+001 4.192201e+001 1.657179e+001 5.612160e+001 2.644628e+001 3.433204e+001 6.322439e+000 1.471123e+000 2.043725e+000 9.979991e-001 1.666197e+000 1.479916e+000 3.202686e-001 2.135001e+000 1.250543e+000 1.915310e+000 5.801827e-001 5.454813e-001 7.104609e-001 3.306507e-001 2.187800e-001 1.075865e-001 1.949236e-001 1.831020e-001 4.912661e-001 1.783800e-001 1.629515e-001 4.456511e-001 2.501494e-001 2.834813e-001 1.426911e-001 4.702250e-001 1.220925e-001
<GCONST> 9.128596e+001
<STATE> 4
<NUMMIXES> 4
<MIXTURE> 1 1.794739e-001
<MEAN> 39
 -2.261779e+001 4.378069e+000 -7.965773e+000 -5.738359e+000 1.617390e+000 -3.628038e+000 7.398223e+000 -6.751775e+000 2.755839e+000 -3.698462e+000 3.248210e+000 -4.552766e+000 6.062493e+001 1.667692e-001 -7.851385e-001 -8.515773e-002 -8.435316e-002 5.886158e-001 -2.104819e-001 8.472747e-001 6.148925e-001 -3.399938e-002 4.694542e-001 7.485067e-001 9.449575e-002 -1.766586e-001 1.050130e+000 -1.581877e-001 5.728890e-001 -2.805216e-001 -4.422066e-001 -1.217456e-001 -5.591870e-001 -1.179834e-001 -4.252774e-002 2.429386e-001 -3.244124e-001 5.118003e-002 3.662034e-001
<VARIANCE> 39
 3.604349e+001 3.460420e+001 1.432555e+001 2.124553e+001 3.085107e+001 1.631592e+001 4.677017e+001 5.266432e+001 1.007841e+001 2.742921e+001 1.383351e+001 3.862259e+001 2.582045e+001 6.689411e+000 5.004364e-001 1.742952e+000 2.857485e+000 1.163784e+000 1.286545e+000 8.998289e-001 1.348692e+000 8.092448e-001 1.151068e+000 5.657026e-001 2.182504e+000 1.213660e+000 2.160781e-001 3.164594e-001 8.604638e-002 1.713510e-001 3.916242e-001 8.589021e-002 2.637266e-001 7.492403e-001 3.237724e-002 1.113112e-001 1.959237e-001 3.752737e-001 1.655742e-001
<GCONST> 9.550571e+001
<MIXTURE> 2 3.915618e-001
<MEAN> 39
 -1.601943e+001 4.842586e+000 -5.553299e+000 -1.026761e+001 7.156581e-002 -6.725142e+000 -5.586763e-001 -6.660739e+000 1.455981e+000 -3.391822e+000 -1.753014e+000 -3.482992e+000 6.238977e+001 1.940590e+000 -7.820060e-001 1.021801e+000 -1.547925e+000 -1.086821e+000 -4.264975e-001 -5.718490e-001 -9.701755e-001 2.727711e-002 -9.948990e-002 -5.607847e-001 -8.998173e-001 1.081328e+000 2.371128e-001 -3.564073e-001 -9.705088e-002 -2.671504e-002 -2.578308e-001 8.712056e-002 1.964883e-002 5.385143e-002 -4.159027e-002 2.999238e-002 7.787461e-002 1.235263e-001 1.979261e-001
<VARIANCE> 39
 4.817257e+001 1.750356e+001 4.423995e+001 3.527485e+001 3.255703e+001 2.583529e+001 1.917364e+001 4.178008e+001 7.925446e+000 4.020578e+001 4.363229e+001 4.995065e+001 4.075438e+001 2.353472e+000 1.647561e+000 1.516509e+000 1.962774e+000 2.231238e+000 6.966848e-001 1.614312e+000 2.501704e+000 8.489907e-001 1.415584e+000 9.520849e-001 8.901126e-001 2.192425e+000 3.652230e-001 1.741723e-001 1.961455e-001 5.168508e-001 2.155495e-001 3.200640e-001 2.294071e-001 4.391038e-001 1.386520e-001 2.717101e-001 2.221626e-001 1.497330e-001 3.636889e-001
<GCONST> 1.037262e+002
<MIXTURE> 3 2.256906e-001
<MEAN> 39
 -2.318490e+001 2.600067e+000 -1.433900e+001 -4.662460e+000 7.399111e-001 -2.556259e+000 -3.464317e+000 -1.973705e+000 2.040313e-001 -4.012148e+000 -1.326876e+000 1.208262e+000 5.931202e+001 -3.385227e-002 1.589049e-001 -1.619454e-001 -2.192528e-001 1.050738e-001 -4.514129e-001 1.769502e-001 3.287071e-001 -6.860964e-002 3.160236e-001 1.416921e-001 2.913551e-001 1.841537e-001 4.435725e-001 1.714294e-001 3.481311e-001 -1.892107e-001 -1.342236e-001 -2.461130e-001 9.673911e-002 -1.619513e-001 3.076150e-001 3.200188e-002 7.108282e-002 -2.275666e-001 1.010218e-001
<VARIANCE> 39
 6.473847e+000 2.235195e+001 1.733419e+001 2.186387e+001 6.073975e+000 1.899210e+001 1.409535e+001 3.108826e+001 2.206523e+001 1.014753e+001 2.413985e+001 4.452594e+001 9.209130e+000 7.435154e-001 5.982329e-001 6.351677e-001 6.081950e-001 4.290040e-001 5.556284e-001 5.353438e-001 3.467397e-001 1.098072e+000 5.930326e-001 1.327560e+000 5.604994e-001 4.901518e-002 1.747122e-001 1.331962e-001 5.760356e-002 1.463885e-001 1.189330e-001 4.735940e-002 1.070490e-001 3.641479e-002 1.647240e-001 1.489605e-001 1.393307e-001 1.415912e-001 2.578518e-002
<GCONST> 6.885822e+001
<MIXTURE> 4 2.032740e-001
<MEAN> 39
 -2.328075e+001 4.888209e+000 -1.162472e+001 -5.471992e+000 -3.612772e-001 -4.348343e+000 -3.988796e-001 -4.038510e+000 4.332281e+000 -3.143046e+000 2.328315e+000 -1.698370e+000 5.965572e+001 -1.235205e+000 -8.205455e-001 -6.260526e-001 -2.777839e-001 -1.879315e-001 3.149713e-001 9.060454e-002 1.402857e-001 -3.351262e-001 -5.746837e-001 -1.205334e-001 -5.864344e-001 -3.480432e-001 6.061589e-001 -1.041830e-001 2.460281e-001 -4.287568e-001 3.245451e-002 -1.673674e-001 -1.647068e-001 -6.693372e-002 -2.106539e-001 -1.487100e-002 -2.562670e-001 -1.922819e-002 7.926017e-002
<VARIANCE> 39
 1.822013e+001 2.712691e+001 1.720151e+001 8.672009e+000 1.193633e+001 1.847282e+001 1.695087e+001 2.632029e+001 1.547086e+001 8.504100e+000 4.192582e+001 3.075935e+001 7.360702e+000 1.856880e+000 4.699007e-001 1.305827e+000 8.788561e-001 1.068376e+000 6.457303e-001 2.534087e-001 8.976161e-001 6.417198e-001 5.048518e-001 3.929440e-001 8.084962e-001 1.718134e-001 1.411460e-001 7.658125e-002 9.086850e-002 1.316949e-001 1.503382e-001 3.708141e-002 7.584993e-002 7.559222e-002 1.170950e-001 1.797332e-001 2.296299e-001 9.484899e-002 4.487528e-002
<GCONST> 7.243837e+001
<TRANSP> 5
 0.000000e+000 1.000000e+000 0.000000e+000 0.000000e+000 0.000000e+000
 0.000000e+000 6.924220e-001 3.075780e-001 0.000000e+000 0.000000e+000
 0.000000e+000 0.000000e+000 7.012109e-001 2.987892e-001 0.000000e+000
 0.000000e+000 0.000000e+000 0.000000e+000 8.533149e-001 1.466851e-001
 0.000000e+000 0.000000e+000 0.000000e+000 0.000000e+000 0.000000e+000
<ENDHMM>
~h "b"
<BEGINHMM>
<NUMSTATES> 5
<STATE> 2
<NUMMIXES> 4
<MIXTURE> 1 2.964260e-001
<MEAN> 39
 2.405949e+000 4.660292e+000 5.493783e+000 3.744318e-001 1.078610e+000 -3.934453e+000 -8.306019e-001 -3.784626e+000 2.873895e-001 -3.066576e+000 1.265161e+000 -3.141311e+000 4.694836e+001 -8.533520e-001 -2.443868e-001 -1.325938e-001 3.039789e-001 4.875115e-002 1.906935e-001 3.072984e-001 1.002210e-001 2.257948e-001 -4.161071e-002 -9.471200e-002 4.330196e-002 -6.930652e-001 -9.389848e-002 -3.987035e-001 -2.654104e-001 -2.106171e-001 -1.884677e-001 -2.620466e-001 -1.885228e-001 7.744817e-002 1.324761e-001 3.842305e-002 1.607694e-002 -2.985179e-002 5.856568e-001
<VARIANCE> 39
 1.785464e+001 1.656258e+001 2.953670e+001 2.268892e+001 3.562690e+001 4.438896e+001 5.351506e+001 4.694054e+001 4.357678e+001 3.329225e+001 4.212729e+001 2.198956e+001 8.364232e+001 8.922046e-001 9.817595e-001 1.008951e+000 1.193058e+000 8.197451e-001 1.177517e+000 1.613829e+000 1.629718e+000 1.224893e+000 1.182401e+000 1.522039e+000 9.582461e-001 7.234629e-001 1.386357e-001 1.304764e-001 2.006239e-001 2.321285e-001 2.059869e-001 2.848143e-001 3.417440e-001 3.396893e-001 3.008934e-001 2.621761e-001 2.936404e-001 1.885881e-001 1.767450e-001
<GCONST> 9.978053e+001
<MIXTURE> 2 2.377535e-001
<MEAN> 39
 -7.951040e-001 4.451872e+000 2.766246e+000 2.383553e+000 4.482846e+000 -4.211275e+000 -3.793903e+000 -5.942211e+000 -3.024417e-002 -4.494252e+000 1.204757e+000 -4.102573e+000 4.208715e+001 -1.352789e+000 -8.255062e-001 -7.948818e-001 -8.445847e-001 -6.297526e-001 3.136458e-001 7.332001e-001 2.614329e-001 3.412532e-001 4.421905e-001 3.031822e-002 2.827916e-001 1.484153e+000 6.847874e-002 -7.907991e-001 -8.086541e-001 -7.872643e-001 -6.249840e-001 -4.005418e-001 1.538651e-001 2.266195e-001 1.502395e-001 1.401481e-001 2.325832e-002 -1.718620e-002 1.717041e+000
<VARIANCE> 39
 2.194726e+001 1.172593e+001 3.147430e+001 1.932085e+001 2.478783e+001 2.583869e+001 2.735532e+001 3.146860e+001 2.374147e+001 3.262188e+001 2.299222e+001 1.951608e+001 2.879680e+001 1.165249e+000 1.562267e+000 2.530262e+000 1.463611e+000 1.375330e+000 1.556773e+000 1.496150e+000 2.101379e+000 1.386316e+000 1.263384e+000 1.312793e+000 9.300569e-001 3.704044e+000 2.533595e-001 2.777511e-001 4.268365e-001 3.644845e-001 3.454947e-001 2.661995e-001 3.476821e-001 3.661526e-001 3.325065e-001 3.190135e-001 2.789527e-001 2.004870e-001 3.502081e-001
<GCONST> 1.037230e+002
<MIXTURE> 3 2.434828e-001
<MEAN> 39
 -9.941159e+000 -3.093292e+000 -1.787305e+000 -2.576839e+000 2.849269e-002 -3.905275e+000 5.994534e-001 -2.253499e+000 9.740149e-001 -3.413773e+000 1.069872e+000 -3.043998e+000 4.152092e+001 -4.823669e-001 -4.521905e-001 -2.003525e-001 -2.172753e-001 -2.568182e-002 9.400497e-002 -1.536624e-002 2.875568e-003 1.694726e-001 2.519502e-002 5.606455e-002 -1.425604e-001 -9.978136e-002 2.198634e-001 7.584067e-002 6.286530e-004 -3.111603e-002 -2.937261e-002 -1.187584e-001 -9.979731e-002 -3.347315e-002 2.929253e-002 -2.033998e-002 -3.592960e-002 4.396285e-002 8.054549e-001
<VARIANCE> 39
 2.636206e+001 8.590171e+000 9.001016e+000 9.944777e+000 1.382074e+001 2.738820e+001 2.424233e+001 2.128332e+001 1.862628e+001 2.164030e+001 2.194286e+001 2.357068e+001 6.398637e+001 7.592221e-001 5.280935e-001 6.028997e-001 7.363762e-001 7.172628e-001 8.322664e-001 8.166347e-001 8.904799e-001 7.696387e-001 8.297009e-001 7.021742e-001 8.329284e-001 8.300117e-001 1.231444e-001 9.939373e-002 1.314356e-001 1.760570e-001 1.519296e-001 1.845342e-001 2.022627e-001 1.644417e-001 1.814360e-001 1.863201e-001 1.764504e-001 1.377692e-001 7.289408e-001
<GCONST> 8.388394e+001
<MIXTURE> 4 2.223371e-001
<MEAN> 39
 -1.662070e+000 3.359678e+000 2.202900e+000 1.258104e+000 3.314390e+000 -5.262354e+000 -4.045806e+000 -6.289793e+000 -9.624889e-001 -6.125061e+000 -1.091621e+000 -5.160997e+000 4.199295e+001 -1.470666e+000 -1.227326e+000 -9.676631e-001 -1.296463e+000 -9.237670e-001 2.025733e-001 8.875567e-001 1.873755e-001 3.658328e-001 5.456548e-001 1.410292e-001 1.993568e-001 1.991940e+000 1.387862e-001 -7.886157e-001 -7.041975e-001 -7.921236e-001 -5.541415e-001 -4.175764e-001 1.451667e-001 1.891142e-001 2.020115e-001 2.221109e-001 1.044366e-001 -4.725019e-002 1.702539e+000
<VARIANCE> 39
 2.765186e+001 1.889911e+001 2.682069e+001 2.865459e+001 3.667486e+001 3.211578e+001 3.195760e+001 3.466834e+001 2.506259e+001 3.362471e+001 3.130421e+001 3.082088e+001 3.768225e+001 1.444784e+000 1.749992e+000 2.493085e+000 1.811003e+000 1.636739e+000 1.852668e+000 1.909829e+000 2.548699e+000 1.688119e+000 2.015909e+000 1.659682e+000 1.269357e+000 3.719893e+000 2.966681e-001 3.774666e-001 4.652461e-001 3.933806e-001 4.048254e-001 3.552678e-001 5.133280e-001 4.958567e-001 2.890368e-001 3.619936e-001 3.012597e-001 2.445164e-001 3.746290e-001
<GCONST> 1.112679e+002
<STATE> 3
<NUMMIXES> 4
<MIXTURE> 1 2.036927e-001
<MEAN> 39
 -7.359715e+000 -2.884712e+000 1.086337e+000 -2.122809e+000 1.169872e+000 -4.165622e+000 7.747880e-001 -7.579445e-001 2.094329e+000 -3.388268e+000 5.762556e-001 -4.313705e+000 4.967382e+001 7.277372e-001 -1.371278e+000 -9.657527e-001 -1.666456e-001 -7.913257e-001 -1.418144e+000 -1.076995e+000 9.223058e-002 9.392399e-001 1.491447e-001 -1.945323e-002 -3.075155e-002 2.288360e+000 8.671355e-001 -3.163416e-002 -1.922776e-001 8.754251e-002 -2.751328e-001 -3.645524e-001 -3.730161e-001 -2.050789e-001 1.757827e-001 1.426343e-001 -1.051624e-001 1.259981e-001 3.947989e-001
<VARIANCE> 39
 1.774907e+001 2.008045e+001 1.941989e+001 2.511502e+001 1.683899e+001 2.424077e+001 2.962411e+001 2.023866e+001 1.998484e+001 2.265270e+001 1.483474e+001 2.258188e+001 7.434876e+001 3.032461e+000 9.787886e-001 1.267798e+000 1.799679e+000 1.672445e+000 1.259037e+000 1.595734e+000 1.784162e+000 1.492309e+000 2.493774e+000 1.102224e+000 9.711841e-001 2.396046e+000 2.209618e-001 1.799854e-001 2.488781e-001 3.282483e-001 1.800392e-001 2.379337e-001 2.728668e-001 3.242839e-001 2.039683e-001 2.649607e-001 2.021366e-001 1.594003e-001 2.882321e-001
<GCONST> 9.944711e+001
<MIXTURE> 2 2.281392e-001
<MEAN> 39
 -1.876716e+000 1.284269e+000 1.523843e+000 -1.377495e+000 6.464872e-001 -5.874560e+000 -1.482193e+000 -3.749067e+000 6.992546e-001 -2.828860e+000 1.599695e+000 -1.968960e+000 4.996834e+001 3.011452e-002 -1.670540e+000 -2.076307e+000 -1.248395e+000 -7.172573e-001 -8.618416e-001 1.276133e-001 1.991186e-001 1.082275e+000 2.891986e-001 -3.513173e-001 1.576819e-001 3.466271e+000 4.273034e-001 -3.088658e-001 -4.066692e-001 -2.199883e-001 -8.825762e-002 -1.721636e-001 -1.863290e-001 6.857799e-003 1.526600e-001 1.777944e-002 -9.176031e-002 -1.022977e-001 8.117309e-001
<VARIANCE> 39
 2.759461e+001 2.745160e+001 5.082072e+001 4.955879e+001 5.455879e+001 5.432746e+001 6.263603e+001 4.313654e+001 4.587762e+001 4.776139e+001 3.118019e+001 2.844137e+001 1.011687e+002 1.599132e+000 1.802862e+000 5.045328e+000 3.763516e+000 3.592755e+000 2.146553e+000 4.099312e+000 4.354684e+000 2.972755e+000 2.371691e+000 3.139620e+000 1.630113e+000 3.528772e+000 2.641207e-001 2.269872e-001 5.714064e-001 3.249205e-001 4.401849e-001 3.478633e-001 3.022218e-001 4.770567e-001 4.842192e-001 2.315950e-001 3.382161e-001 2.320977e-001 2.454103e-001
<GCONST> 1.204569e+002
<MIXTURE> 3 3.557500e-001
<MEAN> 39
 -1.355090e+001 -4.078958e+000 -2.752342e+000 -3.055819e+000 -2.579455e-001 -2.903147e+000 1.557358e+000 -2.304154e+000 1.533957e+000 -2.493187e+000 1.676303e+000 -2.645958e+000 3.954479e+001 6.853778e-001 -9.886215e-001 -7.631875e-001 -1.410104e+000 -9.654037e-001 -3.306783e-001 7.469811e-002 5.103035e-002 2.121027e-001 2.656793e-001 -1.969336e-001 -8.914768e-002 4.432878e+000 8.287408e-001 8.457700e-003 -2.984951e-001 -3.404364e-001 -1.392165e-001 -3.536791e-001 -1.623711e-001 -8.884151e-002 -9.660676e-002 -1.049512e-001 -1.825459e-001 -1.830314e-001 1.387388e+000
<VARIANCE> 39
 5.537081e+000 8.824102e+000 7.956726e+000 1.414088e+001 1.424775e+001 1.459652e+001 1.570372e+001 1.697813e+001 1.393255e+001 2.130396e+001 1.804065e+001 1.257473e+001 5.963579e+001 1.728989e+000 1.952618e+000 2.212753e+000 1.767951e+000 1.337770e+000 1.296917e+000 1.372241e+000 1.299195e+000 1.514181e+000 1.336414e+000 9.803439e-001 8.736016e-001 3.462384e+000 2.439158e-001 3.061149e-001 3.098058e-001 2.270084e-001 2.866042e-001 2.030366e-001 2.605783e-001 2.985919e-001 2.270923e-001 2.235300e-001 1.927599e-001 2.038543e-001 5.693360e-001
<GCONST> 9.449252e+001
<MIXTURE> 4 2.124179e-001
<MEAN> 39
 -4.878820e+000 -1.462551e+000 -1.802408e+000 -3.175599e+000 9.456393e-001 -5.770628e+000 -1.898443e+000 -5.530333e+000 -1.251131e+000 -5.140913e+000 -5.273890e-001 -4.685708e+000 5.207022e+001 -2.083481e-001 -2.025993e+000 -2.250219e+000 -1.835509e+000 -1.322360e+000 -7.710859e-001 7.049111e-001 3.577417e-001 9.784840e-001 8.347599e-001 5.155139e-002 -2.042832e-001 4.143438e+000 4.287529e-001 -2.895720e-001 -3.295807e-001 -2.077982e-001 -1.835874e-001 -2.675985e-001 -1.020233e-001 1.113720e-001 2.281772e-001 -7.433222e-002 -1.258102e-002 -1.394889e-001 6.401520e-001
<VARIANCE> 39
 3.397106e+001 3.097639e+001 3.278463e+001 3.786407e+001 3.895203e+001 4.223791e+001 4.655446e+001 4.786613e+001 3.288014e+001 4.506970e+001 4.004489e+001 2.905006e+001 7.158867e+001 2.196379e+000 2.727728e+000 3.861673e+000 3.398341e+000 3.011837e+000 2.526908e+000 4.697310e+000 3.465797e+000 2.887948e+000 2.806864e+000 2.477795e+000 2.460049e+000 3.502966e+000 2.938291e-001 2.689510e-001 2.531224e-001 3.524827e-001 3.235688e-001 3.541373e-001 4.442127e-001 6.468226e-001 3.342127e-001 3.332214e-001 3.015074e-001 2.460148e-001 2.637565e-001
<GCONST> 1.193464e+002
<STATE> 4
<NUMMIXES> 4
<MIXTURE> 1 2.576461e-001
<MEAN> 39
 2.126452e+000 -3.716699e+000 -9.448671e+000 -5.085809e+000 1.010260e+000 -1.041423e+001 -4.682570e+000 -2.296003e+000 5.983367e+000 -6.629914e-001 -3.337320e-001 -4.201594e+000 6.176590e+001 1.636817e+000 -1.490642e+000 -2.293662e+000 -2.553247e-001 -6.678283e-001 -1.227504e+000 -4.683736e-001 1.449903e-001 1.111915e+000 2.739856e-001 -6.292311e-001 2.518078e-001 2.884281e+000 -6.543214e-002 5.606914e-002 4.682312e-001 2.238395e-001 -7.032198e-002 3.402056e-001 2.233298e-001 -1.004420e-001 -3.071624e-001 -2.019673e-001 1.129606e-001 8.080279e-002 -5.372453e-001
<VARIANCE> 39
 2.171595e+001 2.493459e+001 1.225395e+002 3.637480e+001 4.789235e+001 3.238488e+001 3.803390e+001 4.974911e+001 2.689878e+001 3.247672e+001 3.479895e+001 2.590336e+001 5.005352e+001 2.161133e+000 1.781264e+000 5.220716e+000 2.400016e+000 3.886158e+000 1.840981e+000 2.928010e+000 2.781645e+000 3.106891e+000 2.233967e+000 2.372652e+000 1.556976e+000 2.731328e+000 1.711095e-001 1.429679e-001 3.441467e-001 3.009917e-001 2.423367e-001 2.439292e-001 2.540970e-001 3.226111e-001 2.445675e-001 2.502401e-001 2.895786e-001 1.876412e-001 4.035555e-001
<GCONST> 1.130245e+002
<MIXTURE> 2 3.119617e-001
<MEAN> 39
 -9.361083e+000 -5.894629e+000 -3.336849e+000 -8.793041e+000 -4.009035e+000 -4.942145e+000 1.864260e+000 -4.987473e+000 3.157329e+000 -3.990680e+000 9.551878e-001 -2.213608e+000 6.079185e+001 1.279258e+000 -5.855893e-001 -1.864404e+000 -2.269707e+000 -4.402568e-001 -1.081190e+000 -4.696932e-001 -3.335220e-001 4.051695e-001 -1.402850e-002 1.369594e-003 -1.234209e-001 5.287710e+000 4.862685e-001 3.904912e-001 -9.989766e-002 2.793362e-001 3.964419e-001 -2.074520e-001 -2.509418e-001 -2.455541e-002 -1.223552e-001 -4.496446e-002 5.868807e-002 -8.279265e-002 -5.729769e-001
<VARIANCE> 39
 2.735833e+001 2.809212e+001 5.288745e+001 3.910879e+001 2.876693e+001 2.112855e+001 3.710884e+001 3.254097e+001 3.097714e+001 2.956659e+001 2.322278e+001 2.170298e+001 3.936982e+001 2.985323e+000 4.578941e+000 5.030753e+000 3.349652e+000 2.386383e+000 2.363068e+000 2.320236e+000 2.440356e+000 1.652428e+000 1.669908e+000 1.737212e+000 1.500237e+000 2.732518e+000 3.711646e-001 2.419050e-001 3.166343e-001 3.383132e-001 2.222655e-001 2.544144e-001 3.702102e-001 2.396877e-001 2.580113e-001 2.467590e-001 2.684780e-001 2.192242e-001 3.968294e-001
<GCONST> 1.116093e+002
<MIXTURE> 3 1.994116e-001
<MEAN> 39
 -4.860613e+000 -8.027545e+000 -4.578008e+000 -1.097430e+001 -8.331021e+000 -8.369532e+000 3.549219e+000 -1.861485e+000 8.444765e-001 -2.678841e+000 3.084701e+000 -8.231116e+000 6.755370e+001 3.306884e-001 -2.045864e+000 -1.664327e+000 -2.584577e+000 -1.713473e+000 -9.870422e-002 1.352521e+000 3.995237e-001 -2.386011e-001 2.132668e-001 5.569916e-002 -7.854926e-001 5.092646e+000 9.677228e-002 2.512507e-001 1.715494e-001 4.569493e-001 6.073624e-001 3.851913e-001 -1.869767e-001 -1.510937e-001 -8.523136e-002 -1.668452e-001 -3.130471e-001 2.957610e-001 -9.725974e-001
<VARIANCE> 39
 1.572061e+001 1.451005e+001 5.147346e+001 3.754420e+001 3.160373e+001 2.158879e+001 3.909610e+001 4.025169e+001 3.179281e+001 2.452262e+001 3.504067e+001 2.225098e+001 5.928246e+001 2.251952e+000 1.364902e+000 2.416461e+000 2.309169e+000 2.756256e+000 2.001443e+000 2.430497e+000 3.579098e+000 2.209006e+000 1.711239e+000 1.979070e+000 1.800361e+000 3.598814e+000 1.579550e-001 1.267046e-001 1.964577e-001 2.854130e-001 1.989782e-001 1.271682e-001 2.419040e-001 2.789859e-001 2.840324e-001 2.047339e-001 2.489593e-001 2.712110e-001 4.032865e-001
<GCONST> 1.069410e+002
<MIXTURE> 4 2.309799e-001
<MEAN> 39
 2.513988e+000 -5.656681e+000 -1.275958e+001 -8.264304e+000 8.046625e-001 -1.112099e+001 -5.839853e+000 -3.639380e+000 4.572618e+000 2.333766e-001 -1.054435e+000 -6.565858e+000 6.138346e+001 1.654527e+000 -1.727082e+000 -2.842827e+000 -6.862711e-001 -3.566363e-001 -8.543596e-001 -4.372821e-001 5.532860e-001 1.137482e+000 3.457879e-001 -7.744700e-001 -4.289108e-001 3.212645e+000 -1.467950e-001 8.901194e-002 4.810011e-001 3.862159e-001 -9.828711e-002 3.022621e-001 2.186612e-001 9.666528e-003 -2.366387e-001 -4.367748e-001 -3.427120e-003 1.451350e-001 -6.412197e-001
<VARIANCE> 39
 3.842364e+001 3.677326e+001 9.349282e+001 5.484610e+001 3.752015e+001 4.434737e+001 6.682108e+001 8.306851e+001 3.235157e+001 5.420179e+001 4.030305e+001 3.737008e+001 7.637112e+001 2.642407e+000 2.575916e+000 2.882278e+000 2.126171e+000 3.684791e+000 3.070514e+000 3.526918e+000 4.061956e+000 3.094336e+000 3.208219e+000 2.121748e+000 2.111894e+000 3.363387e+000 3.236711e-001 1.689240e-001 3.949357e-001 2.992276e-001 2.642625e-001 2.384722e-001 3.441048e-001 5.021609e-001 3.098000e-001 4.276021e-001 3.257299e-001 2.552438e-001 4.126036e-001
<GCONST> 1.215052e+002
<TRANSP> 5
 0.000000e+000 1.000000e+000 0.000000e+000 0.000000e+000 0.000000e+000
 0.000000e+000 6.115190e-001 3.884810e-001 0.000000e+000 0.000000e+000
 0.000000e+000 0.000000e+000 4.817430e-001 5.182571e-001 0.000000e+000
 0.000000e+000 0.000000e+000 0.000000e+000 4.963352e-001 5.036648e-001
 0.000000e+000 0.000000e+000 0.000000e+000 0.000000e+000 0.000000e+000
<ENDHMM>
~h "d"
<BEGINHMM>
<NUMSTATES> 5
<STATE> 2
<NUMMIXES> 4
<MIXTURE> 1 2.786001e-001
<MEAN> 39
 -1.774867e-001 2.535177e+000 4.161390e+000 -3.076683e+000 -4.566284e+000 -5.061581e+000 1.502115e+000 -1.508332e+000 3.418159e-001 -1.161814e+000 5.191799e-001 -2.477565e+000 4.959078e+001 -5.715001e-001 2.300241e-001 -1.178296e-001 7.947185e-003 5.663671e-001 2.811638e-001 -1.206344e-001 -5.736284e-002 -5.072966e-002 -1.826202e-001 4.931870e-002 -2.060077e-003 -4.766670e-001 -3.086666e-001 -2.355663e-001 -2.851008e-001 -3.881717e-001 -1.112824e-001 -6.211619e-002 -4.051528e-002 -8.887128e-002 2.023614e-001 3.314251e-002 -1.036434e-001 1.056838e-002 7.713789e-001
<VARIANCE> 39
 3.420098e+001 3.079503e+001 2.756637e+001 3.562859e+001 5.034042e+001 4.224007e+001 4.343962e+001 4.239678e+001 2.954803e+001 3.842999e+001 3.443231e+001 2.917901e+001 8.051122e+001 1.398451e+000 1.519222e+000 1.418213e+000 1.980451e+000 1.945458e+000 1.924257e+000 1.561667e+000 1.561985e+000 1.969047e+000 1.737328e+000 1.434174e+000 1.097784e+000 2.029797e+000 1.366977e-001 1.560925e-001 2.302367e-001 3.197099e-001 3.952721e-001 3.154165e-001 3.272388e-001 2.887886e-001 3.564193e-001 3.491108e-001 2.706856e-001 2.491475e-001 3.254349e-001
<GCONST> 1.086321e+002
<MIXTURE> 2 2.338867e-001
<MEAN> 39
 -1.038300e+001 4.828698e-001 -1.408062e-001 2.540781e-001 1.470279e-001 -1.681728e+000 -3.760162e-001 -3.333860e+000 -1.661558e+000 -3.869093e+000 -1.146535e+000 -3.108376e+000 4.001697e+001 -9.516569e-001 -1.006922e+000 -1.506019e+000 -1.093794e+000 -6.055425e-001 1.107107e-001 1.673273e-001 1.776783e-001 8.307791e-001 3.734235e-001 3.477917e-001 5.129117e-001 3.503830e+000 3.307751e-001 -2.917180e-002 -5.775126e-002 -8.598194e-001 -5.275750e-001 -3.225800e-001 9.365533e-002 -1.406332e-001 1.940951e-001 2.891923e-001 2.010885e-003 -5.955090e-002 1.469087e+000
<VARIANCE> 39
 2.466153e+001 2.837452e+001 2.702634e+001 1.911251e+001 1.618916e+001 1.666805e+001 1.976537e+001 2.510853e+001 2.555090e+001 2.443060e+001 2.293365e+001 1.699265e+001 4.694645e+001 1.916355e+000 1.627650e+000 1.957402e+000 1.657089e+000 1.551286e+000 1.577692e+000 1.697686e+000 1.573927e+000 1.570213e+000 1.686026e+000 1.619664e+000 1.427548e+000 5.807172e+000 2.094843e-001 2.633109e-001 2.788570e-001 3.607734e-001 2.846562e-001 2.538809e-001 2.368273e-001 2.552349e-001 2.624057e-001 3.387840e-001 3.117451e-001 2.190813e-001 4.955393e-001
<GCONST> 1.038603e+002
<MIXTURE> 3 2.662749e-001
<MEAN> 39
 -2.512423e-001 3.042667e+000 1.334706e+000 -2.681732e+000 -1.389248e+000 -7.867378e+000 -6.334241e-001 -4.302511e+000 -2.302541e+000 -3.203384e+000 -2.448267e+000 -5.737882e+000 4.986661e+001 -1.334141e+000 -1.311294e-001 -4.281307e-001 -5.858837e-001 -6.332722e-001 7.862608e-001 1.717956e-001 -2.581658e-001 6.005396e-001 2.614512e-001 1.441881e-001 2.061289e-001 8.681666e-001 -1.507956e-001 -3.333577e-001 -3.589433e-001 -6.316631e-001 -2.588054e-001 -1.499960e-001 1.734478e-001 -3.809153e-002 1.871219e-001 1.218698e-001 -2.594761e-003 9.722900e-002 9.099212e-001
<VARIANCE> 39
 6.164038e+001 5.077748e+001 6.388573e+001 6.158495e+001 8.594097e+001 9.131545e+001 7.336240e+001 6.157554e+001 5.761169e+001 5.286980e+001 4.367272e+001 3.782891e+001 8.309566e+001 1.696652e+000 2.683988e+000 3.409609e+000 3.541013e+000 5.185695e+000 3.960894e+000 3.457805e+000 2.863456e+000 2.922853e+000 2.621110e+000 2.152398e+000 2.069647e+000 3.235771e+000 3.057368e-001 3.019333e-001 3.407506e-001 5.171379e-001 5.589654e-001 5.916458e-001 6.250867e-001 4.529428e-001 4.708616e-001 5.220347e-001 3.760556e-001 4.403001e-001 4.045535e-001
<GCONST> 1.286714e+002
<MIXTURE> 4 2.212390e-001
<MEAN> 39
 -1.055405e+001 8.810677e-002 -4.335882e-002 -3.878976e-001 5.637661e-001 -2.367841e+000 2.324934e-001 -3.842577e+000 -1.492725e+000 -4.481642e+000 -7.192181e-001 -3.480465e+000 3.908025e+001 -1.094440e+000 -1.174566e+000 -1.924302e+000 -1.147972e+000 -5.640086e-001 -1.460216e-001 -1.911381e-001 3.148321e-001 5.271610e-001 3.371543e-002 5.385827e-001 1.716959e-001 3.442260e+000 3.051896e-001 -7.887501e-002 -2.386049e-001 -1.008653e+000 -4.615065e-001 -2.520879e-001 -3.159999e-002 -1.834553e-001 3.342355e-001 5.203675e-002 -2.154459e-002 -1.088725e-001 1.661928e+000
<VARIANCE> 39
 2.457570e+001 2.994124e+001 2.603485e+001 1.708089e+001 1.942610e+001 2.136789e+001 2.181130e+001 2.297413e+001 2.526268e+001 2.514999e+001 2.929856e+001 1.863762e+001 4.251021e+001 1.924065e+000 1.749449e+000 1.680216e+000 1.935924e+000 1.266080e+000 1.394354e+000 1.289119e+000 1.447682e+000 1.695350e+000 1.355523e+000 1.375397e+000 1.323160e+000 4.687852e+000 2.347908e-001 2.854545e-001 3.046022e-001 4.612248e-001 3.008592e-001 2.593770e-001 3.086416e-001 2.914726e-001 3.251895e-001 3.960957e-001 3.018467e-001 2.252244e-001 5.774709e-001
<GCONST> 1.047775e+002
<STATE> 3
<NUMMIXES> 4
<MIXTURE> 1 2.288041e-001
<MEAN> 39
 -5.727097e+000 1.328549e+000 1.496390e+000 -5.350780e+000 -2.459423e+000 -3.724810e+000 -6.318403e-001 -2.797672e+000 2.754372e+000 -1.169732e+000 -2.684669e-001 -8.753472e-001 5.727195e+001 -5.832952e-001 5.136818e-002 -2.542216e-001 -1.550463e+000 -1.218499e+000 -3.601003e-001 5.156631e-001 -3.202506e-001 6.193753e-001 7.569848e-001 -3.169093e-001 7.011422e-002 2.183916e+000 3.177013e-001 8.376896e-002 1.206426e-002 -3.231959e-001 -2.230941e-001 -2.875353e-001 1.496778e-001 1.355688e-001 -3.020852e-002 1.409735e-001 -4.510647e-002 -3.924861e-002 3.709455e-001
<VARIANCE> 39
 3.763497e+001 2.363565e+001 3.133628e+001 4.483933e+001 7.038995e+001 5.513569e+001 5.083756e+001 4.136949e+001 4.254729e+001 3.711617e+001 3.898927e+001 2.541713e+001 5.831956e+001 1.733423e+000 1.621249e+000 2.017923e+000 2.521270e+000 3.056218e+000 2.259356e+000 4.576212e+000 1.919262e+000 2.649804e+000 2.443486e+000 2.263520e+000 1.864699e+000 2.812062e+000 1.556129e-001 1.892223e-001 2.467563e-001 2.804654e-001 2.964475e-001 4.069823e-001 3.195935e-001 3.264945e-001 3.310887e-001 2.568913e-001 2.208298e-001 1.907575e-001 1.747170e-001
<GCONST> 1.131202e+002
<MIXTURE> 2 3.314759e-001
<MEAN> 39
 -1.509397e+001 -5.405974e+000 -7.502494e+000 -7.606220e+000 -1.745551e+000 -3.848005e+000 8.785685e-001 -5.048565e+000 4.046319e+000 -3.252675e+000 6.347110e-001 -5.157773e-001 6.037346e+001 2.854194e-001 -1.047704e+000 -9.893907e-001 -2.250370e+000 -1.927264e+000 -6.240987e-001 6.739557e-001 1.503062e-001 5.154657e-001 1.044124e+000 1.478779e-001 -1.218672e-001 5.625741e+000 7.769811e-001 8.163174e-002 4.262686e-001 -2.044365e-001 -2.324755e-001 -2.420552e-001 1.929035e-001 1.117897e-001 -4.132930e-001 -1.733848e-002 -1.216691e-001 -4.394563e-001 -8.816923e-002
<VARIANCE> 39
 1.506772e+001 2.486021e+001 2.278917e+001 2.748906e+001 2.587580e+001 2.497218e+001 3.094157e+001 2.761999e+001 3.148063e+001 3.024443e+001 2.529125e+001 2.007189e+001 5.254769e+001 2.518423e+000 1.615041e+000 2.095293e+000 1.772754e+000 1.374469e+000 1.943325e+000 2.061327e+000 2.063132e+000 2.079172e+000 1.641948e+000 2.161720e+000 1.845454e+000 3.659775e+000 1.894794e-001 2.993300e-001 2.819822e-001 4.170408e-001 3.357449e-001 2.969904e-001 3.565638e-001 3.051729e-001 2.684773e-001 4.450582e-001 3.213983e-001 2.711588e-001 5.435619e-001
<GCONST> 1.086611e+002
<MIXTURE> 3 2.278312e-001
<MEAN> 39
 -1.399315e+001 -5.622518e+000 -1.024001e+001 -8.661722e+000 -1.937228e+000 -5.689173e+000 -1.240186e+000 -2.197831e+000 1.644379e+000 -5.595211e+000 3.588984e+000 -5.247498e+000 6.109096e+001 3.592433e-001 -5.699291e-001 -1.192163e+000 -2.798571e+000 -6.737365e-001 -4.282101e-002 -3.933554e-002 -7.311502e-001 1.273066e+000 -9.231601e-001 -2.695302e-001 -5.087461e-001 4.822636e+000 5.483424e-001 1.199033e-001 5.587705e-001 -1.760253e-001 9.139539e-002 9.170996e-002 2.422143e-001 -5.483908e-001 9.600918e-002 -5.856582e-002 -3.806609e-001 2.224304e-002 -3.719036e-001
<VARIANCE> 39
 1.544736e+001 2.361921e+001 1.499160e+001 1.843325e+001 1.658515e+001 1.955153e+001 2.577008e+001 2.055697e+001 2.532522e+001 2.368879e+001 2.374868e+001 2.452941e+001 3.131189e+001 2.380117e+000 2.451504e+000 1.874252e+000 2.434690e+000 1.775454e+000 2.042350e+000 1.999328e+000 1.637538e+000 1.505473e+000 1.913171e+000 1.870109e+000 1.603239e+000 4.753766e+000 1.964568e-001 3.888327e-001 2.410609e-001 4.076242e-001 2.064405e-001 2.976627e-001 3.797589e-001 3.216813e-001 3.634010e-001 3.723496e-001 2.512926e-001 2.710133e-001 5.081669e-001
<GCONST> 1.057836e+002
<MIXTURE> 4 2.118879e-001
<MEAN> 39
 -6.084508e+000 3.977071e-001 -1.384262e+000 -6.630208e+000 -3.466408e+000 -7.074500e+000 -1.113831e+000 -5.513930e+000 3.074712e-002 -2.547757e+000 -1.218360e+000 -4.153947e+000 5.606469e+001 -1.036378e+000 -3.829746e-001 -9.568179e-001 -1.636200e+000 -9.098023e-001 -2.421246e-001 4.379452e-001 -6.384684e-002 4.579192e-001 5.899935e-001 -6.966923e-002 1.453189e-001 2.030836e+000 3.265093e-001 -1.097451e-001 -2.756750e-003 -3.327537e-001 -1.424574e-001 -2.560426e-001 9.967318e-002 1.083781e-001 6.048776e-002 7.664277e-002 -6.397906e-002 -7.458201e-002 2.918365e-001
<VARIANCE> 39
 3.943034e+001 3.467507e+001 4.937532e+001 6.111891e+001 5.823903e+001 7.607431e+001 4.993720e+001 6.137474e+001 4.492115e+001 6.434943e+001 3.387637e+001 4.507570e+001 6.534704e+001 1.614297e+000 2.632052e+000 1.993639e+000 3.513263e+000 4.867896e+000 4.524504e+000 4.154652e+000 2.717340e+000 2.865595e+000 2.905595e+000 1.966861e+000 2.539730e+000 4.504031e+000 1.579165e-001 2.311855e-001 2.942182e-001 4.429847e-001 4.082074e-001 4.861768e-001 4.032559e-001 3.587815e-001 3.749089e-001 4.341560e-001 2.812559e-001 3.097108e-001 2.089729e-001
<GCONST> 1.222363e+002
<STATE> 4
<NUMMIXES> 4
<MIXTURE> 1 3.054103e-001
<MEAN> 39
 -3.154907e+000 4.704529e-001 2.042045e+000 -1.256872e+001 -1.185873e+001 -7.708487e+000 4.663127e+000 -2.661682e+000 1.273650e+000 6.509318e+000 -5.234536e+000 -2.244593e+000 6.543091e+001 8.653606e-002 1.320429e-001 8.476249e-002 -1.822554e+000 -9.118146e-001 -1.046585e-001 7.407081e-001 3.108990e-001 4.583966e-001 5.505802e-001 -7.500586e-001 7.272542e-002 1.722344e+000 5.027638e-004 1.249819e-001 4.603568e-003 2.534109e-001 5.876628e-001 1.498268e-001 -3.434441e-001 1.529037e-001 -1.837838e-002 -6.345694e-001 2.802848e-001 -3.425001e-002 -6.275297e-001
<VARIANCE> 39
 2.551113e+001 2.974825e+001 4.895699e+001 9.533208e+001 6.302069e+001 7.124789e+001 6.139684e+001 5.269856e+001 9.218037e+001 5.830064e+001 5.161211e+001 5.849458e+001 6.346439e+001 1.471852e+000 1.454815e+000 1.665725e+000 3.294846e+000 2.782789e+000 2.166957e+000 3.621788e+000 1.977773e+000 2.215147e+000 2.574207e+000 1.602431e+000 2.016460e+000 2.443076e+000 1.571056e-001 1.470773e-001 2.263919e-001 2.856278e-001 3.104094e-001 2.921319e-001 3.748159e-001 3.260063e-001 3.980031e-001 3.513307e-001 3.309048e-001 2.799258e-001 2.000110e-001
<GCONST> 1.170736e+002
<MIXTURE> 2 1.728508e-001
<MEAN> 39
 -5.773037e+000 -5.926956e+000 -6.003197e+000 -1.637597e+001 -8.663206e+000 -3.484986e+000 5.584158e+000 -6.213615e+000 3.757938e+000 -1.246282e+000 -2.983695e+000 -3.962492e+000 7.086330e+001 1.238070e+000 -2.031858e+000 -8.395324e-001 -1.241379e+000 -4.760844e-001 3.527460e-001 1.729019e+000 1.383085e-001 -7.806745e-001 1.433201e-001 -1.113415e-001 -4.807419e-001 3.462024e+000 -6.260089e-002 -3.728117e-002 1.586450e-001 1.022486e+000 7.193703e-001 2.310162e-002 -2.208415e-001 2.454026e-001 -5.850865e-001 -2.794380e-001 2.374505e-001 8.883456e-003 -1.311868e+000
<VARIANCE> 39
 8.924628e+000 2.077374e+001 1.702174e+001 3.187676e+001 2.960056e+001 2.732119e+001 3.165078e+001 3.131824e+001 4.006953e+001 6.124491e+001 2.970661e+001 2.509988e+001 3.056599e+001 1.301250e+000 1.354656e+000 1.554072e+000 2.700296e+000 2.653813e+000 2.646894e+000 1.436837e+000 3.776821e+000 2.869896e+000 2.510975e+000 2.118140e+000 2.102824e+000 4.625800e+000 2.017035e-001 1.627378e-001 1.986591e-001 2.642109e-001 2.558754e-001 2.814620e-001 2.852521e-001 2.826330e-001 3.360736e-001 7.746936e-001 3.214442e-001 2.449763e-001 1.829136e-001
<GCONST> 1.081738e+002
<MIXTURE> 3 3.676371e-001
<MEAN> 39
 -9.326453e+000 -8.421570e-001 -3.610108e+000 -1.069656e+001 -4.214850e+000 -6.725417e+000 -5.751960e-001 -5.972750e+000 3.061353e+000 -3.655921e+000 6.662338e-001 -4.103449e+000 6.034988e+001 2.591039e-001 -8.556244e-002 -1.010943e-001 -1.527312e+000 -8.108771e-001 -5.541204e-001 7.858214e-002 -1.685838e-001 4.019128e-001 2.128361e-001 -1.147549e-002 -2.320218e-001 1.887143e+000 4.918289e-001 8.960982e-002 3.382336e-001 3.059433e-001 5.931177e-002 1.585820e-002 2.206610e-002 1.359045e-001 -2.576427e-001 3.907151e-002 -1.390025e-001 -5.812192e-002 -5.912820e-001
<VARIANCE> 39
 4.107769e+001 4.924201e+001 3.674975e+001 5.034954e+001 5.961642e+001 5.347697e+001 5.034096e+001 5.750347e+001 5.247314e+001 5.623803e+001 3.976707e+001 4.980349e+001 5.749171e+001 2.751038e+000 2.162791e+000 2.428502e+000 4.145937e+000 2.808889e+000 3.202737e+000 2.532315e+000 2.368608e+000 2.554229e+000 2.322771e+000 2.184140e+000 1.853102e+000 4.410367e+000 2.481914e-001 2.684585e-001 3.600060e-001 3.891787e-001 4.107532e-001 3.797425e-001 4.551388e-001 3.740646e-001 4.017048e-001 3.309589e-001 2.868942e-001 3.127937e-001 3.558189e-001
<GCONST> 1.214622e+002
<MIXTURE> 4 1.541017e-001
<MEAN> 39
 -6.206622e+000 -5.901335e+000 -7.104234e+000 -1.794802e+001 -9.318170e+000 -3.944783e+000 3.846371e+000 -6.845509e+000 2.900685e+000 -3.662893e+000 -3.362406e+000 -7.208477e+000 7.180313e+001 1.227555e+000 -1.975464e+000 -6.993286e-001 -9.640477e-001 -3.400218e-001 3.620821e-001 1.441929e+000 -1.686980e-001 -6.432467e-001 -6.415244e-001 -4.319712e-001 -1.050666e+000 2.915370e+000 -1.854493e-001 -2.119853e-001 8.425570e-002 1.110223e+000 7.551138e-001 8.432374e-002 -1.462925e-001 2.221422e-001 -4.315813e-001 -1.969229e-001 2.280586e-001 2.168436e-001 -1.328640e+000
<VARIANCE> 39
 8.044497e+000 1.876083e+001 1.737360e+001 2.536349e+001 3.253116e+001 2.770798e+001 3.720856e+001 4.351830e+001 3.076133e+001 8.834489e+001 3.871531e+001 4.176559e+001 3.322451e+001 1.172424e+000 1.193148e+000 1.177938e+000 3.128344e+000 2.245373e+000 2.025391e+000 1.968884e+000 5.034013e+000 2.761995e+000 3.283185e+000 2.891248e+000 2.303272e+000 4.069107e+000 1.538198e-001 1.857716e-001 2.095101e-001 2.241460e-001 2.907709e-001 3.056748e-001 3.339324e-001 3.800384e-001 3.847587e-001 9.156212e-001 4.116986e-001 4.028034e-001 1.971305e-001
<GCONST> 1.111651e+002
<TRANSP> 5
 0.000000e+000 1.000000e+000 0.000000e+000 0.000000e+000 0.000000e+000
 0.000000e+000 5.409647e-001 4.590353e-001 0.000000e+000 0.000000e+000
 0.000000e+000 0.000000e+000 3.784612e-001 6.215388e-001 0.000000e+000
 0.000000e+000 0.000000e+000 0.000000e+000 5.100229e-001 4.899771e-001
 0.000000e+000 0.000000e+000 0.000000e+000 0.000000e+000 0.000000e+000
<ENDHMM>
~h "f"
<BEGINHMM>
<NUMSTATES> 5
<STATE> 2
<NUMMIXES> 4
<MIXTURE> 1 2.993276e-001
<MEAN> 39
 -8.261494e+000 -1.958984e+000 1.468721e+000 -1.518877e+000 -4.043768e-001 -2.321734e+000 1.139039e+000 -2.021455e+000 1.590473e+000 -1.389808e+000 7.494571e-001 -2.580499e+000 5.048102e+001 -8.118365e-002 5.028204e-002 8.321579e-002 6.112378e-002 1.079133e-001 1.602037e-001 9.718807e-002 1.321833e-001 1.298403e-001 -3.612603e-002 5.395581e-002 1.318144e-002 -1.317527e-001 1.056054e-002 -9.762883e-003 -8.482127e-003 -2.067277e-003 -3.915635e-003 -5.015911e-002 8.321543e-003 1.890154e-002 -4.427879e-003 -8.861121e-003 1.422232e-002 4.760022e-002 3.669922e-002
<VARIANCE> 39
 1.747161e+001 9.320640e+000 1.051391e+001 1.479294e+001 2.354292e+001 2.133612e+001 1.935152e+001 2.375980e+001 2.739031e+001 3.231396e+001 2.764073e+001 1.928184e+001 6.906953e+001 2.267758e-001 3.253534e-001 3.194238e-001 4.805218e-001 6.364004e-001 7.709542e-001 8.662224e-001 8.917188e-001 1.074678e+000 9.077136e-001 9.623480e-001 7.612112e-001 1.893297e-001 3.570597e-002 5.330847e-002 5.908685e-002 8.588407e-002 1.267968e-001 1.287372e-001 1.420171e-001 1.546126e-001 2.006853e-001 1.759107e-001 1.666638e-001 1.245192e-001 1.890675e-002
<GCONST> 7.334629e+001
<MIXTURE> 2 2.015849e-001
<MEAN> 39
 -8.638885e+000 -1.192338e+000 1.477698e+000 -3.456714e+000 8.255373e-001 -5.084032e+000 1.281547e+000 -2.668187e+000 7.568893e-001 -1.859402e+000 2.205645e+000 -3.436113e+000 5.385464e+001 -1.510283e+000 -2.856309e-001 -1.629885e-001 2.674232e-001 3.567144e-002 1.972829e-001 4.811033e-001 2.283878e-001 4.192684e-001 -8.207902e-002 2.458411e-001 4.063618e-001 -6.398697e-001 5.859630e-002 -1.163267e-001 -1.679823e-001 -1.857892e-001 -1.041930e-001 -2.257211e-002 -7.414113e-002 2.668107e-002 1.716298e-002 -5.247795e-002 -8.009271e-002 -5.885582e-002 1.487752e-001
<VARIANCE> 39
 4.343058e+001 4.221995e+001 4.784551e+001 5.031517e+001 6.658108e+001 4.916269e+001 4.783700e+001 6.573340e+001 4.760688e+001 4.589845e+001 3.921318e+001 3.254916e+001 7.638320e+001 2.344666e+000 2.042775e+000 1.596146e+000 1.987773e+000 1.769232e+000 2.441295e+000 2.233913e+000 2.065196e+000 2.656358e+000 2.125989e+000 1.818449e+000 1.680905e+000 2.182729e+000 3.954636e-001 2.142172e-001 1.958983e-001 2.367530e-001 2.513501e-001 3.444916e-001 3.245471e-001 3.094117e-001 3.786533e-001 2.708811e-001 3.272589e-001 2.442106e-001 2.019920e-001
<GCONST> 1.149558e+002
<MIXTURE> 3 2.943560e-001
<MEAN> 39
 -1.053198e+001 -2.292204e+000 -9.915239e-002 -1.592907e+000 -2.082023e-002 -3.990277e+000 -7.817307e-001 -2.457824e+000 2.213289e+000 -2.604692e+000 2.996087e+000 -1.659300e+000 4.659541e+001 -4.735037e-001 -4.057731e-001 -2.184098e-001 -2.515500e-001 -3.040453e-001 -3.058082e-001 -8.236731e-002 -6.616149e-002 1.795249e-002 -1.499540e-001 3.863585e-002 -3.669895e-002 -3.078440e-002 1.724348e-001 1.551544e-002 4.035429e-002 -6.925480e-003 -2.445637e-002 -4.284950e-002 -2.486611e-003 1.644113e-002 -2.551204e-002 -3.346609e-002 -8.784568e-002 -7.191695e-002 1.398168e-001
<VARIANCE> 39
 2.000006e+001 1.636241e+001 2.484795e+001 2.836317e+001 4.180864e+001 4.088615e+001 3.861473e+001 4.023024e+001 3.010307e+001 2.899639e+001 2.953910e+001 2.423208e+001 1.264964e+002 5.492643e-001 5.910740e-001 4.699442e-001 6.450157e-001 9.829991e-001 1.013711e+000 9.513976e-001 1.093902e+000 1.093598e+000 1.176006e+000 1.065930e+000 7.820460e-001 5.830820e-001 1.098457e-001 8.275575e-002 7.421701e-002 1.276498e-001 2.098882e-001 1.999431e-001 2.234812e-001 2.126520e-001 1.942728e-001 1.903044e-001 1.940188e-001 1.543583e-001 8.274620e-002
<GCONST> 8.937624e+001
<MIXTURE> 4 2.047323e-001
<MEAN> 39
 -1.114989e+001 -4.165133e+000 -1.664268e+000 -4.996527e+000 -2.239326e-001 -4.292020e+000 2.192840e-001 -4.450697e+000 6.870522e-001 -3.110229e+000 2.138667e+000 -3.487328e+000 5.454771e+001 -2.597517e+000 -5.065227e-001 -1.675136e-001 5.079768e-001 -2.202705e-001 3.804680e-001 1.830353e-001 -5.533553e-002 4.662211e-002 -2.660636e-001 -1.548455e-002 2.049416e-001 -1.146837e+000 7.473997e-002 -1.582792e-001 -2.645352e-001 -2.878739e-001 -1.094135e-001 -1.979557e-001 -2.370672e-002 4.483144e-002 -2.775680e-002 -6.048977e-002 -1.007946e-001 -9.850863e-002 2.692458e-001
<VARIANCE> 39
 3.621666e+001 2.765970e+001 3.593863e+001 2.951717e+001 2.746032e+001 2.771918e+001 3.085084e+001 3.740742e+001 3.511972e+001 3.061470e+001 2.460815e+001 2.402226e+001 6.464785e+001 2.714684e+000 2.164943e+000 2.510386e+000 2.182360e+000 2.461480e+000 2.427404e+000 2.008156e+000 2.507963e+000 2.154777e+000 2.285519e+000 1.507061e+000 1.735561e+000 2.573685e+000 2.661873e-001 2.018214e-001 1.867094e-001 1.957654e-001 2.143036e-001 2.369969e-001 2.443828e-001 2.319051e-001 2.583595e-001 2.840086e-001 2.047738e-001 2.303469e-001 2.031636e-001
<GCONST> 1.078045e+002
<STATE> 3
<NUMMIXES> 4
<MIXTURE> 1 2.377632e-001
<MEAN> 39
 -1.617801e+001 -7.331078e+000 -2.811353e+000 -5.634300e+000 -2.280287e+000 -5.013710e+000 1.388216e+000 -2.373253e+000 1.868734e+000 -3.272820e+000 2.156331e+000 -2.690475e+000 5.417718e+001 7.919559e-001 -1.238927e-001 1.933723e-002 2.006315e-001 1.284651e-001 -3.344464e-002 2.428424e-001 3.899014e-001 4.853675e-001 5.873777e-002 -1.630039e-001 1.006336e-001 5.086114e-001 9.369732e-001 1.357270e-001 -1.319063e-001 -9.122408e-005 2.265696e-002 -7.614534e-002 -1.872305e-001 -6.872088e-002 1.806373e-001 6.685632e-002 -1.310436e-001 -5.829355e-002 3.408582e-001
<VARIANCE> 39
 2.680157e+001 2.870580e+001 3.106476e+001 3.699631e+001 3.916653e+001 3.997053e+001 3.599334e+001 2.999144e+001 3.882740e+001 3.664853e+001 2.942854e+001 2.419696e+001 7.001004e+001 3.125510e+000 1.162251e+000 1.066572e+000 1.137510e+000 1.277995e+000 1.351990e+000 1.351534e+000 1.298798e+000 1.495342e+000 1.083772e+000 1.120529e+000 9.019468e-001 1.006832e+000 1.995723e-001 2.032810e-001 2.323368e-001 2.326585e-001 2.870366e-001 3.214300e-001 2.952111e-001 2.991730e-001 3.338244e-001 3.272130e-001 2.248513e-001 1.904291e-001 2.130564e-001
<GCONST> 1.030365e+002
<MIXTURE> 2 3.929984e-001
<MEAN> 39
 -1.987174e+001 -9.671638e+000 -6.346896e+000 -6.891783e+000 -2.041345e+000 -4.351993e+000 1.398006e+000 -3.633757e+000 1.963781e+000 -3.153212e+000 1.857866e+000 -3.877922e+000 5.662255e+001 -4.008435e-002 -1.513582e-001 -8.376008e-002 -4.018486e-002 -6.819276e-002 -1.129816e-001 -1.718063e-002 9.388767e-003 4.030477e-002 -1.023583e-002 1.802074e-002 6.998991e-002 8.742560e-002 6.218178e-001 1.451961e-001 9.477244e-002 5.000162e-002 -6.856544e-003 -2.207823e-002 -2.128374e-002 -4.708810e-002 -6.487945e-002 -2.894930e-003 -5.869754e-003 5.654323e-003 1.742968e-001
<VARIANCE> 39
 1.010105e+001 7.317211e+000 1.050737e+001 1.208336e+001 1.306362e+001 1.581037e+001 1.684997e+001 2.017296e+001 2.165386e+001 2.228746e+001 1.765836e+001 1.489739e+001 3.185430e+001 7.990419e-001 4.831535e-001 5.195342e-001 6.000558e-001 6.260722e-001 7.111452e-001 7.180244e-001 8.448216e-001 9.210305e-001 9.553042e-001 7.057372e-001 6.961072e-001 6.316645e-001 1.860730e-001 1.064189e-001 1.241029e-001 1.310270e-001 1.325844e-001 1.387226e-001 1.583435e-001 1.785708e-001 1.910810e-001 2.014723e-001 1.508535e-001 1.452133e-001 1.293501e-001
<GCONST> 7.774548e+001
<MIXTURE> 3 1.130243e-001
<MEAN> 39
 -1.506955e+001 -1.204228e+001 -9.711269e+000 -1.543888e+001 -9.541466e+000 -1.185066e+001 -3.426539e+000 -4.455321e+000 3.576041e+000 -5.019075e-001 3.294278e+000 -2.945662e+000 4.670221e+001 2.172367e-002 -9.948413e-002 1.946694e-002 8.010919e-002 1.513921e-002 -4.360289e-002 -4.387449e-002 -1.078756e-001 -3.732738e-002 -8.537086e-002 1.115852e-001 1.238403e-001 -1.100756e-002 6.284787e-002 4.753369e-002 1.568763e-001 1.118535e-001 9.909605e-002 1.326529e-001 9.402547e-002 2.757064e-002 -1.076223e-002 -2.373972e-002 -6.099702e-002 4.407182e-002 3.595983e-002
<VARIANCE> 39
 7.620128e+000 1.475829e+001 1.769762e+001 4.364733e+001 2.771489e+001 1.656927e+001 1.982119e+001 2.672938e+001 2.118338e+001 2.857166e+001 1.948249e+001 1.935802e+001 3.857169e+001 2.561283e-001 3.617874e-001 5.203744e-001 6.837006e-001 6.173937e-001 6.686556e-001 8.534878e-001 9.139478e-001 1.009213e+000 1.092203e+000 7.441016e-001 8.369831e-001 3.571452e-001 7.065568e-002 5.270657e-002 1.014336e-001 1.639535e-001 1.092096e-001 1.196261e-001 1.417924e-001 1.625151e-001 1.822926e-001 2.033980e-001 1.411771e-001 1.827077e-001 5.987369e-002
<GCONST> 7.792547e+001
<MIXTURE> 4 2.562173e-001
<MEAN> 39
 -1.831373e+001 -7.864882e+000 -4.185613e+000 -6.024721e+000 -2.375080e+000 -4.279527e+000 1.573234e+000 -3.311088e+000 1.340445e+000 -3.177393e+000 1.485170e+000 -3.375090e+000 5.396786e+001 -6.810131e-001 -5.024188e-001 -3.510032e-001 -6.824150e-003 -2.830406e-001 -2.723463e-001 -1.005907e-001 -1.182454e-002 -6.454653e-002 -2.480628e-001 -2.452866e-001 -7.920116e-002 -9.147587e-002 8.723576e-001 9.887482e-003 -1.809849e-001 -1.690187e-001 -1.733957e-002 -1.820818e-001 -1.421676e-001 -9.642814e-002 1.708883e-002 -2.035614e-002 -1.056029e-001 -1.315639e-001 4.043696e-001
<VARIANCE> 39
 1.668031e+001 1.736043e+001 2.476752e+001 2.800493e+001 2.293601e+001 2.907912e+001 2.156821e+001 2.559116e+001 2.970003e+001 2.357437e+001 2.015449e+001 2.087816e+001 5.778447e+001 5.228603e+000 1.106216e+000 1.377518e+000 1.148019e+000 1.138306e+000 1.380825e+000 1.231237e+000 1.319434e+000 1.188217e+000 1.306299e+000 1.067391e+000 1.019159e+000 1.917076e+000 2.041316e-001 2.342708e-001 2.758893e-001 2.640439e-001 2.859987e-001 2.665149e-001 2.323584e-001 2.883299e-001 2.821164e-001 2.913506e-001 2.218172e-001 2.206775e-001 3.797918e-001
<GCONST> 1.002588e+002
<STATE> 4
<NUMMIXES> 4
<MIXTURE> 1 2.616858e-001
<MEAN> 39
 -9.970348e+000 -5.069502e+000 6.109995e-001 -2.804938e+000 -7.065865e-001 -5.789320e+000 6.520239e-001 4.963377e-001 3.602578e+000 -4.091731e+000 9.940981e-001 -2.237864e+000 5.414661e+001 3.914722e+000 -7.117473e-001 -7.091351e-001 2.919482e-001 -9.737847e-001 -6.621461e-001 -7.608119e-001 -3.780378e-001 1.402815e+000 3.096290e-002 -6.712502e-001 -2.742787e-001 1.943054e+000 4.479593e-001 -2.803874e-001 -2.742104e-001 -1.297949e-001 -3.943426e-001 8.165320e-002 -9.974273e-002 -2.155022e-001 2.218603e-001 -2.314162e-002 -4.604909e-002 -1.231431e-001 4.351716e-001
<VARIANCE> 39
 4.729559e+001 2.974227e+001 2.923945e+001 2.975622e+001 5.058731e+001 3.578595e+001 3.565036e+001 4.012885e+001 4.037262e+001 4.039962e+001 2.911608e+001 2.484878e+001 6.793565e+001 1.763120e+000 1.548035e+000 2.154120e+000 2.076143e+000 2.942211e+000 2.996793e+000 2.495833e+000 2.374640e+000 2.307999e+000 2.983650e+000 1.975049e+000 1.069826e+000 1.233259e+000 4.773225e-001 1.507358e-001 2.131511e-001 1.738478e-001 2.676486e-001 3.303012e-001 3.075543e-001 3.341622e-001 3.569022e-001 3.183160e-001 2.949379e-001 1.907989e-001 1.191719e-001
<GCONST> 1.101990e+002
<MIXTURE> 2 1.909496e-001
<MEAN> 39
 3.841128e+000 -5.020620e+000 -1.241675e+001 -9.659236e+000 3.271286e+000 -6.139054e+000 -4.347869e+000 -9.946052e-001 4.971707e+000 -2.557739e+000 -1.078991e+000 -7.340589e+000 6.084809e+001 1.886354e+000 -4.592578e-001 -9.953305e-001 -3.805405e-001 -4.551368e-002 -2.149091e-001 -2.931765e-001 3.164527e-001 5.864750e-001 -1.501163e-001 -3.738559e-001 -2.396097e-001 1.397102e+000 -6.434032e-001 -1.631860e-001 3.693485e-001 2.311803e-001 -1.995488e-001 3.568016e-002 2.743032e-001 1.600834e-002 -1.277047e-001 -1.157633e-001 5.297519e-002 1.484757e-001 -2.372393e-001
<VARIANCE> 39
 4.152131e+001 3.292978e+001 7.663887e+001 5.871338e+001 7.211019e+001 5.992811e+001 7.162531e+001 6.621075e+001 6.994852e+001 4.957967e+001 4.944831e+001 3.634942e+001 7.187221e+001 4.343336e+000 1.736060e+000 3.548696e+000 2.065795e+000 2.868650e+000 2.449537e+000 2.928523e+000 2.777384e+000 3.446473e+000 2.595948e+000 2.730128e+000 1.329704e+000 3.338116e+000 3.264429e-001 1.735707e-001 2.395312e-001 1.865899e-001 2.705312e-001 2.939728e-001 4.338699e-001 4.443982e-001 4.117606e-001 3.275851e-001 3.311489e-001 1.837127e-001 1.435332e-001
<GCONST> 1.199093e+002
<MIXTURE> 3 3.839196e-001
<MEAN> 39
 -1.416347e+001 -7.629858e+000 -5.428333e+000 -5.600883e+000 -1.628922e+000 -4.243254e+000 1.072348e+000 -4.419319e+000 1.164769e+000 -3.357043e+000 1.373761e+000 -3.751903e+000 5.542380e+001 3.310020e+000 2.680724e-002 -1.025466e+000 -8.680778e-001 8.124485e-002 -5.133936e-001 -2.644916e-001 -1.388103e-001 -7.279351e-003 -1.804295e-001 -5.096351e-001 -4.875581e-001 1.986830e+000 4.007787e-001 -1.393234e-001 -3.677207e-001 -2.848966e-001 2.839412e-002 -1.570936e-001 8.514137e-003 8.987943e-002 1.007465e-001 -6.373923e-002 -1.056003e-001 -1.104327e-001 4.969305e-001
<VARIANCE> 39
 3.043009e+001 1.913726e+001 1.887062e+001 1.900860e+001 1.593208e+001 2.174640e+001 1.958033e+001 1.952218e+001 2.605317e+001 2.209254e+001 2.143218e+001 1.762009e+001 4.828371e+001 1.799516e+000 2.101763e+000 3.022718e+000 2.075074e+000 2.684865e+000 1.587513e+000 1.545599e+000 2.308501e+000 1.999048e+000 2.441370e+000 1.668237e+000 1.290810e+000 2.664125e+000 2.757392e-001 2.284106e-001 2.452669e-001 2.172790e-001 2.771861e-001 2.095360e-001 1.977683e-001 2.345471e-001 2.507935e-001 1.983767e-001 2.252374e-001 2.056273e-001 2.197141e-001
<GCONST> 1.019054e+002
<MIXTURE> 4 1.634448e-001
<MEAN> 39
 1.558891e+000 -5.902434e+000 -1.418360e+001 -1.195184e+001 2.275610e+000 -9.092812e+000 -4.995049e+000 -2.705977e+000 3.273130e+000 -5.169011e+000 -3.118027e+000 -7.689668e+000 6.108169e+001 2.122564e+000 -5.204126e-001 -1.595694e+000 -6.643197e-001 2.723157e-001 -5.907912e-001 -2.722969e-001 2.800925e-001 4.669696e-001 -6.142799e-001 -7.590556e-001 -7.021666e-001 1.841150e+000 -6.246555e-001 -2.003992e-001 3.475825e-001 2.679964e-001 -1.370387e-001 2.004250e-001 3.106227e-001 2.277589e-002 -5.472046e-002 2.001989e-002 1.439577e-001 1.353027e-001 -2.312996e-001
<VARIANCE> 39
 5.514347e+001 2.889894e+001 1.070688e+002 6.057874e+001 8.305389e+001 8.256105e+001 4.817168e+001 5.022621e+001 8.899362e+001 9.539015e+001 7.757270e+001 4.670129e+001 6.702366e+001 3.925915e+000 2.135606e+000 3.577366e+000 2.204680e+000 3.028295e+000 2.938699e+000 2.748509e+000 2.703806e+000 3.722688e+000 3.048298e+000 3.493152e+000 1.864438e+000 3.335254e+000 3.641355e-001 1.558720e-001 2.739047e-001 2.287933e-001 3.494716e-001 3.285100e-001 3.332628e-001 3.795923e-001 4.338957e-001 4.469587e-001 3.888078e-001 2.877792e-001 2.220659e-001
<GCONST> 1.245837e+002
<TRANSP> 5
 0.000000e+000 1.000000e+000 0.000000e+000 0.000000e+000 0.000000e+000
 0.000000e+000 7.928759e-001 2.071241e-001 0.000000e+000 0.000000e+000
 0.000000e+000 0.000000e+000 7.942989e-001 2.057011e-001 0.000000e+000
 0.000000e+000 0.000000e+000 0.000000e+000 6.781208e-001 3.218793e-001
 0.000000e+000 0.000000e+000 0.000000e+000 0.000000e+000 0.000000e+000
<ENDHMM>
~h "g"
<BEGINHMM>
<NUMSTATES> 5
<STATE> 2
<NUMMIXES> 4
<MIXTURE> 1 2.002786e-001
<MEAN> 39
 -5.732720e+000 1.435417e+000 6.227894e+000 -1.199655e+000 -3.672915e+000 -5.120288e+000 -3.590281e+000 -8.683448e+000 -6.165801e+000 -4.768700e+000 8.313850e-002 -4.382696e+000 4.575750e+001 -8.467137e-001 -2.523024e+000 -2.864705e+000 1.708980e+000 6.428198e-001 -1.488547e+000 2.278137e+000 1.148384e+000 1.572520e-001 7.638480e-001 2.090849e-001 4.738883e-001 1.173836e+000 1.863995e-001 -2.788703e-001 -6.111755e-001 -8.960755e-001 -1.723974e-001 2.822176e-002 -2.601912e-001 3.764116e-001 7.616867e-001 2.166764e-001 2.433484e-001 8.472329e-002 1.562173e+000
<VARIANCE> 39
 2.589746e+001 3.776807e+001 3.698219e+001 2.987183e+001 3.500974e+001 3.656081e+001 3.583092e+001 3.607677e+001 3.389047e+001 2.910815e+001 4.081072e+001 2.492651e+001 3.487403e+001 1.400243e+000 2.187283e+000 2.748374e+000 4.589466e+000 2.582298e+000 3.996233e+000 2.080361e+000 2.578117e+000 1.927126e+000 3.166247e+000 2.413805e+000 1.288091e+000 2.093438e+000 2.281638e-001 3.328842e-001 4.321939e-001 3.138206e-001 6.276075e-001 3.067913e-001 4.535027e-001 4.286455e-001 2.398970e-001 2.853537e-001 2.612282e-001 2.172140e-001 3.383795e-001
<GCONST> 1.141143e+002
<MIXTURE> 2 2.848433e-001
<MEAN> 39
 -7.057462e+000 -2.760439e+000 -1.071307e+000 -3.314536e+000 -3.438929e-001 -4.818230e+000 -2.524953e+000 -3.151945e+000 -1.110901e+000 -4.713618e+000 6.435236e-001 -2.792126e+000 4.631309e+001 -1.190915e+000 -2.022585e+000 -5.930638e-001 5.024614e-002 -1.313998e+000 3.897068e-001 6.982946e-001 5.280488e-002 6.728214e-001 -1.183886e-001 3.971741e-002 5.898643e-002 2.471428e+000 1.683602e-001 1.043048e-003 -4.574900e-002 -7.042472e-001 -2.849238e-001 -9.792235e-002 3.133763e-002 4.975274e-002 2.030733e-001 1.426509e-001 -5.517142e-003 -9.597837e-002 1.185448e+000
<VARIANCE> 39
 4.684214e+001 5.473477e+001 3.012549e+001 3.828058e+001 3.255450e+001 2.592293e+001 4.165924e+001 2.268695e+001 3.774368e+001 2.459367e+001 2.237969e+001 2.178296e+001 7.546913e+001 1.983329e+000 2.970081e+000 3.033542e+000 2.520905e+000 3.237883e+000 3.940944e+000 1.667883e+000 2.896889e+000 2.146930e+000 2.200934e+000 1.774918e+000 1.285957e+000 2.436224e+000 1.389723e-001 3.378891e-001 2.617337e-001 3.277571e-001 4.376222e-001 2.957042e-001 3.818214e-001 1.146759e-001 2.977006e-001 1.806415e-001 2.341608e-001 1.694317e-001 5.798712e-001
<GCONST> 1.113278e+002
<MIXTURE> 3 3.447506e-001
<MEAN> 39
 -1.132438e+001 3.110369e-001 1.730897e+000 -7.301039e-001 2.367137e-001 -2.928368e+000 -1.057426e+000 -3.704264e+000 1.634605e+000 -3.077977e+000 1.233202e+000 -3.324378e+000 3.640687e+001 -1.813514e+000 -3.643795e+000 -1.129576e+000 4.023864e-001 -5.386181e-001 6.793715e-001 6.503917e-001 3.058587e-001 7.141273e-002 -4.025510e-001 1.707126e-001 -2.415785e-001 1.740744e+000 5.604794e-001 -4.792280e-001 -3.694393e-001 -9.990341e-001 -4.458726e-001 -4.104185e-001 2.166518e-001 -1.134390e-001 1.177904e-002 1.388012e-001 -1.361658e-001 -7.060705e-002 2.116455e+000
<VARIANCE> 39
 2.312165e+001 1.829419e+001 1.045944e+001 1.394985e+001 2.025904e+001 2.190964e+001 2.132281e+001 1.607629e+001 1.537839e+001 1.600836e+001 1.251451e+001 2.719802e+001 9.068083e+000 1.943266e+000 1.543614e+000 1.203573e+000 3.549639e+000 2.554422e+000 2.205867e+000 2.482443e+000 2.485562e+000 1.230828e+000 1.467744e+000 1.146547e+000 1.158169e+000 3.255398e+000 2.280391e-001 4.585236e-001 3.787096e-001 3.887506e-001 4.715572e-001 3.001886e-001 2.933667e-001 2.894801e-001 1.928843e-001 2.856220e-001 1.774687e-001 2.347647e-001 3.256513e-001
<GCONST> 1.005420e+002
<MIXTURE> 4 1.701273e-001
<MEAN> 39
 -3.867748e+000 1.405411e+000 5.765357e+000 -4.644507e+000 -3.962929e+000 -3.251552e+000 -7.367978e+000 -7.509982e+000 -5.351178e+000 -6.078472e+000 3.665678e+000 -3.410342e+000 4.676291e+001 -1.611807e+000 -2.912560e+000 -1.941246e+000 1.940950e+000 -8.304698e-001 -5.054389e-001 2.737070e+000 -5.868727e-001 1.092499e+000 2.666992e-001 -4.649376e-001 3.749256e-001 1.222030e+000 -9.728236e-002 -3.901197e-001 -4.714248e-001 -3.483862e-001 -2.237484e-001 -3.220716e-001 1.951171e-001 5.126938e-001 3.288704e-001 3.056102e-001 2.442458e-002 -4.921242e-002 1.279849e+000
<VARIANCE> 39
 1.552308e+001 2.854532e+001 2.585146e+001 5.171942e+001 3.483736e+001 4.422993e+001 3.702240e+001 4.215753e+001 2.869738e+001 4.271231e+001 6.301416e+001 2.742532e+001 3.459620e+001 1.286684e+000 1.681188e+000 2.442697e+000 3.347118e+000 2.790400e+000 3.948868e+000 2.603967e+000 3.047425e+000 2.230831e+000 2.202987e+000 2.460970e+000 1.466584e+000 1.227114e+000 2.887930e-001 3.570711e-001 4.523457e-001 5.928119e-001 2.937011e-001 3.782908e-001 3.984410e-001 2.558360e-001 2.342865e-001 2.972199e-001 4.660127e-001 2.609063e-001 4.606854e-001
<GCONST> 1.145808e+002
<STATE> 3
<NUMMIXES> 4
<MIXTURE> 1 2.220170e-001
<MEAN> 39
 -1.091429e+001 -1.293571e+001 -2.214514e+000 -2.095281e+000 -2.972621e+000 -6.177339e+000 3.087620e+000 -3.305594e+000 -3.408182e+000 -1.490132e+000 1.199588e+000 -4.552495e+000 5.470907e+001 -3.131086e-001 -1.900109e+000 -2.321707e+000 3.891057e-001 -1.030665e-001 -1.578391e+000 1.696807e+000 1.270688e+000 1.085570e+000 9.603078e-001 4.091341e-001 6.313346e-001 2.871860e+000 6.705686e-001 8.288952e-001 2.180118e-001 -7.533975e-001 -1.783441e-001 9.044080e-002 -7.907074e-001 3.783180e-002 4.642975e-001 -2.050645e-001 8.199564e-002 3.277376e-002 5.869966e-001
<VARIANCE> 39
 2.899563e+001 3.958916e+001 5.634196e+001 4.216385e+001 4.249292e+001 4.498043e+001 2.289251e+001 4.307263e+001 3.178255e+001 2.199363e+001 1.473985e+001 1.761587e+001 5.923823e+001 2.665653e+000 1.706157e+000 2.963398e+000 4.382258e+000 2.793708e+000 3.159308e+000 2.456245e+000 2.563869e+000 1.673141e+000 2.284237e+000 2.035223e+000 1.734433e+000 3.146465e+000 2.295100e-001 2.949488e-001 4.052726e-001 3.838561e-001 5.560502e-001 5.419257e-001 2.671758e-001 4.126145e-001 3.064766e-001 3.287303e-001 2.668449e-001 2.014258e-001 4.081426e-001
<GCONST> 1.149078e+002
<MIXTURE> 2 2.999570e-001
<MEAN> 39
 -1.372339e+001 -8.611972e+000 -2.201424e+000 -4.593687e+000 -3.413247e+000 -2.538464e+000 1.733838e+000 -2.903310e+000 1.363179e+000 -3.429188e+000 1.374894e+000 -3.151265e+000 4.730915e+001 -1.100837e-001 -2.192545e+000 -8.859887e-001 -1.230348e+000 -1.387064e+000 -2.112482e-003 4.998589e-001 -2.964340e-001 3.462831e-001 6.514239e-001 7.842525e-002 -1.198183e-001 4.442947e+000 7.641515e-001 6.202418e-001 3.366938e-002 -5.683198e-001 -3.548770e-002 -4.233044e-001 -1.530099e-001 -4.961893e-002 -8.368354e-002 1.429812e-001 3.325697e-002 -7.491388e-002 7.902459e-001
<VARIANCE> 39
 2.773985e+001 3.824372e+001 1.699400e+001 4.642264e+001 2.527496e+001 2.850296e+001 2.335639e+001 1.484888e+001 1.671296e+001 1.372401e+001 1.482086e+001 1.649680e+001 1.231228e+002 1.658136e+000 2.928320e+000 2.102634e+000 1.810579e+000 1.693091e+000 1.877424e+000 1.777497e+000 1.651126e+000 1.311094e+000 1.092784e+000 1.117162e+000 1.635066e+000 2.744844e+000 2.083726e-001 3.202967e-001 3.193306e-001 4.448252e-001 3.188133e-001 4.168090e-001 2.572092e-001 3.752764e-001 1.580917e-001 2.724721e-001 1.528068e-001 2.465681e-001 4.133896e-001
<GCONST> 1.042913e+002
<MIXTURE> 3 2.383515e-001
<MEAN> 39
 -1.171344e+001 -1.388197e+001 -1.515132e+000 -5.936942e+000 -2.067667e+000 -2.759996e+000 -5.083444e+000 -4.831663e+000 2.321881e+000 -6.419129e+000 1.321066e+000 -1.638744e+000 5.765739e+001 -1.143841e+000 -2.672540e+000 -1.028565e+000 -5.219561e-001 -1.475350e+000 7.378968e-001 1.229807e+000 -1.389176e-001 1.137599e+000 -5.872879e-001 -2.281809e-001 -1.906239e-001 3.137445e+000 7.870273e-001 7.121177e-001 -6.301171e-002 -5.000223e-001 -1.164581e-001 -4.888121e-001 3.501731e-001 -1.070783e-001 -1.603057e-001 3.805358e-001 -2.640282e-001 -2.194592e-001 2.553126e-001
<VARIANCE> 39
 5.395749e+001 2.760258e+001 7.799261e+001 4.478396e+001 4.006083e+001 4.389891e+001 3.113143e+001 3.768831e+001 1.865442e+001 2.560540e+001 2.814569e+001 1.295886e+001 4.349060e+001 2.226046e+000 1.413572e+000 2.123396e+000 4.143550e+000 2.513588e+000 2.453980e+000 2.836186e+000 1.475973e+000 2.181769e+000 1.707565e+000 2.440199e+000 1.491271e+000 2.576010e+000 4.926200e-001 4.625306e-001 8.074595e-001 4.145996e-001 3.794054e-001 2.972097e-001 3.489014e-001 5.078176e-001 2.065131e-001 3.003550e-001 3.978752e-001 1.135297e-001 2.927068e-001
<GCONST> 1.140550e+002
<MIXTURE> 4 2.396753e-001
<MEAN> 39
 -9.657868e+000 -1.375991e+001 -4.095567e+000 -1.521340e+000 -3.649617e+000 -6.800070e+000 2.750671e+000 -5.335492e+000 -2.474290e+000 -3.008379e+000 -6.853224e-002 -4.124908e+000 5.622728e+001 1.507607e-002 -1.967840e+000 -2.225033e+000 7.608114e-001 -4.718827e-001 -1.529185e+000 1.463924e+000 6.723223e-001 4.515875e-001 5.016239e-002 -4.484989e-002 1.565754e-001 2.750934e+000 6.275417e-001 7.977437e-001 1.900887e-001 -8.300391e-001 -5.307632e-002 3.327245e-002 -7.174859e-001 1.799243e-001 3.861952e-001 -2.486799e-001 2.233624e-001 -1.053618e-001 5.066320e-001
<VARIANCE> 39
 2.750612e+001 5.691708e+001 3.056024e+001 3.712108e+001 3.604907e+001 2.968835e+001 2.253861e+001 2.663159e+001 2.719036e+001 2.534542e+001 1.823772e+001 1.920917e+001 3.956678e+001 3.399118e+000 2.379811e+000 2.603878e+000 2.838426e+000 2.904810e+000 2.749453e+000 2.684547e+000 2.217970e+000 1.934926e+000 2.739665e+000 1.554617e+000 1.208737e+000 2.799770e+000 2.196529e-001 4.146652e-001 3.520425e-001 3.679318e-001 5.194044e-001 3.669980e-001 3.884453e-001 2.788179e-001 2.810051e-001 5.152368e-001 3.722243e-001 2.020368e-001 3.685372e-001
<GCONST> 1.129549e+002
<STATE> 4
<NUMMIXES> 4
<MIXTURE> 1 2.354761e-001
<MEAN> 39
 -9.745748e+000 -1.400167e+001 -5.015658e+000 -1.477819e+000 -6.107727e+000 -1.030840e+001 3.907686e+000 6.696312e-001 -6.663791e-001 -1.966187e+000 5.234259e+000 -2.007204e+000 5.906715e+001 1.241174e+000 5.435847e-002 -3.422163e-001 -2.524508e-001 -1.116176e+000 -8.840954e-001 -5.866118e-002 2.181978e-001 1.438978e+000 -2.541656e-001 4.370823e-001 5.180212e-001 2.735317e+000 5.924591e-001 9.889689e-001 5.552282e-001 -3.680620e-001 -1.486650e-001 4.440106e-001 -7.751379e-001 -7.867289e-001 2.077892e-001 -3.475630e-001 -1.330825e-001 -1.791478e-001 -2.456229e-001
<VARIANCE> 39
 2.505898e+001 3.842874e+001 5.482824e+001 3.327097e+001 3.525020e+001 2.275014e+001 2.105321e+001 2.124302e+001 2.613246e+001 2.977093e+001 1.927935e+001 1.672310e+001 2.354579e+001 1.736198e+000 3.360511e+000 4.115094e+000 1.550924e+000 2.722188e+000 1.749559e+000 2.088490e+000 2.864846e+000 1.709074e+000 1.318447e+000 8.846858e-001 8.734513e-001 2.689758e+000 2.387823e-001 3.795521e-001 3.936619e-001 4.571748e-001 4.449980e-001 3.622991e-001 3.127766e-001 2.618462e-001 2.726210e-001 3.893366e-001 3.546710e-001 2.430459e-001 3.156384e-001
<GCONST> 1.086585e+002
<MIXTURE> 2 2.424417e-001
<MEAN> 39
 -9.995737e+000 -7.161457e+000 -1.282880e+000 -1.183547e+001 -6.077607e+000 -3.598829e+000 1.489728e+000 -6.923973e+000 3.285336e+000 -2.718412e+000 4.141643e-001 -3.546581e+000 6.415791e+001 1.000985e+000 -7.965577e-003 -4.318117e-001 -1.501818e+000 -1.110247e+000 -6.378176e-002 6.289064e-001 -3.279664e-002 2.603633e-001 4.215441e-001 2.940660e-002 -2.985591e-001 2.923976e+000 4.289638e-001 4.125160e-001 3.713535e-002 2.382882e-001 2.672922e-001 -1.059107e-001 -2.025801e-001 3.165084e-001 -2.254130e-001 -2.461166e-002 5.456990e-003 7.920105e-003 -7.650886e-001
<VARIANCE> 39
 3.022907e+001 6.448986e+001 2.844644e+001 5.550417e+001 4.810851e+001 4.794095e+001 3.781916e+001 4.301863e+001 2.204384e+001 3.056861e+001 2.198574e+001 2.156014e+001 2.677111e+001 2.611573e+000 2.551001e+000 1.943188e+000 2.801455e+000 2.133376e+000 3.065934e+000 2.394561e+000 2.428288e+000 1.723077e+000 1.499178e+000 2.371622e+000 1.284418e+000 3.990708e+000 3.534382e-001 6.130511e-001 3.718632e-001 4.136481e-001 3.919127e-001 5.928433e-001 4.794993e-001 4.611310e-001 2.141472e-001 3.651299e-001 2.685899e-001 2.191084e-001 2.170475e-001
<GCONST> 1.151137e+002
<MIXTURE> 3 3.133586e-001
<MEAN> 39
 -6.993051e+000 -8.829906e+000 -7.468220e+000 -2.835524e+000 -1.747630e+000 -1.100137e+001 -8.440607e-001 -1.342721e+000 3.591569e+000 -2.735296e+000 1.963338e+000 -3.500969e+000 5.696809e+001 1.884989e+000 1.207893e+000 -1.068266e+000 -8.292897e-001 -8.806701e-002 -8.637781e-001 -8.813165e-001 -1.793788e-002 7.606243e-001 1.839782e-002 -3.784740e-002 -3.697156e-001 2.071857e+000 2.606982e-001 3.170092e-001 3.258938e-001 -3.142640e-001 -2.216510e-001 3.518299e-001 -1.459001e-001 -1.646499e-001 -2.011983e-001 -8.517681e-002 -6.934717e-002 -6.351463e-002 -1.609969e-001
<VARIANCE> 39
 3.684902e+001 7.609560e+001 4.132609e+001 3.729519e+001 3.189408e+001 2.806995e+001 4.262601e+001 2.771186e+001 2.423048e+001 2.128152e+001 2.003290e+001 1.799365e+001 3.553830e+001 2.001307e+000 2.074644e+000 3.430647e+000 2.321599e+000 2.687403e+000 2.339043e+000 2.115276e+000 2.248690e+000 1.506773e+000 1.723387e+000 1.360017e+000 9.865824e-001 3.020679e+000 3.230893e-001 7.761240e-001 3.331601e-001 3.764460e-001 3.779106e-001 3.204456e-001 4.152576e-001 3.517884e-001 2.175519e-001 1.946962e-001 2.211138e-001 2.217383e-001 4.258913e-001
<GCONST> 1.112568e+002
<MIXTURE> 4 2.087238e-001
<MEAN> 39
 -1.070804e+001 -1.097067e+001 -2.118282e+000 -1.089083e+001 -7.049022e+000 -2.266335e+000 8.779483e-001 -6.555618e+000 3.526798e+000 -3.621161e+000 -2.199988e-001 -4.069464e+000 6.336481e+001 6.812266e-001 -5.046823e-001 -2.938470e-001 -1.296420e+000 -1.373350e+000 -8.131830e-002 8.109769e-001 -6.535148e-001 1.283680e-001 -4.193795e-002 -6.058705e-001 -7.760684e-001 2.843500e+000 4.897939e-001 6.852600e-001 1.146126e-001 1.609213e-001 2.646781e-001 -3.143348e-001 -1.523868e-001 9.962226e-002 -3.377614e-001 8.240687e-003 -3.451919e-002 -1.480530e-001 -6.858891e-001
<VARIANCE> 39
 2.983852e+001 6.765562e+001 2.659001e+001 6.191624e+001 3.842995e+001 3.350246e+001 2.870354e+001 3.525532e+001 1.762466e+001 3.415368e+001 2.644611e+001 2.712283e+001 2.743066e+001 2.857879e+000 2.664608e+000 1.884129e+000 2.435445e+000 2.161015e+000 2.610057e+000 2.144512e+000 1.864262e+000 1.646669e+000 1.935761e+000 2.344130e+000 1.479296e+000 3.209136e+000 4.050616e-001 7.144114e-001 2.580093e-001 5.683349e-001 2.747037e-001 4.690820e-001 3.941951e-001 4.040902e-001 2.873330e-001 3.305573e-001 3.750031e-001 2.896184e-001 2.058555e-001
<GCONST> 1.140988e+002
<TRANSP> 5
 0.000000e+000 1.000000e+000 0.000000e+000 0.000000e+000 0.000000e+000
 0.000000e+000 2.208798e-001 7.791202e-001 0.000000e+000 0.000000e+000
 0.000000e+000 0.000000e+000 2.838886e-001 7.161114e-001 0.000000e+000
 0.000000e+000 0.000000e+000 0.000000e+000 6.100356e-001 3.899644e-001
 0.000000e+000 0.000000e+000 0.000000e+000 0.000000e+000 0.000000e+000
<ENDHMM>
~h "k"
<BEGINHMM>
<NUMSTATES> 5
<STATE> 2
<NUMMIXES> 4
<MIXTURE> 1 2.203422e-001
<MEAN> 39
 -6.133398e+000 -2.344687e+000 6.052726e-001 -3.737038e+000 -1.077026e+000 -4.579758e+000 -9.840934e-001 -2.497020e+000 -1.273899e-002 -2.484885e+000 7.240870e-001 -3.039978e+000 4.958169e+001 -1.148136e+000 -1.215886e+000 -7.012498e-001 3.981681e-001 -2.824478e-001 -2.282948e-001 1.022016e+000 3.922443e-001 2.536184e-001 3.938429e-001 3.418103e-001 3.645828e-001 2.737418e-001 -1.166251e-001 -3.651682e-003 -2.882389e-001 -3.677509e-001 -1.097243e-001 -2.893116e-003 9.215938e-002 1.195386e-001 1.277938e-001 4.545007e-002 -6.195666e-002 -7.559500e-002 8.624698e-001
<VARIANCE> 39
 6.189853e+001 6.834878e+001 5.356245e+001 6.323621e+001 7.120200e+001 7.074165e+001 5.641341e+001 6.848827e+001 5.345054e+001 4.422784e+001 3.332552e+001 3.693177e+001 9.277524e+001 2.252069e+000 3.105088e+000 3.304510e+000 3.144501e+000 3.750659e+000 2.979314e+000 3.064461e+000 2.965616e+000 2.835840e+000 2.052369e+000 1.836550e+000 1.887039e+000 6.438502e+000 3.190419e-001 3.181041e-001 2.979269e-001 3.463962e-001 4.514778e-001 4.390347e-001 3.877158e-001 3.421552e-001 3.788587e-001 3.538063e-001 2.581623e-001 3.084002e-001 4.015568e-001
<GCONST> 1.244758e+002
<MIXTURE> 2 2.539249e-001
<MEAN> 39
 -1.440236e+001 -3.143204e+000 -1.357098e+000 -1.447331e+000 7.768870e-001 -2.136308e+000 1.542435e+000 -2.213698e+000 1.111093e+000 -2.459237e+000 1.424143e+000 -2.568376e+000 3.442159e+001 -1.035390e+000 -1.691489e+000 -1.481578e+000 -1.352856e-001 2.495996e-001 -4.089375e-001 7.777241e-001 4.902656e-001 5.337109e-001 4.657868e-001 2.307135e-001 4.446108e-001 2.040644e+000 4.491551e-001 -1.234131e-001 -1.738823e-001 -9.423470e-001 -4.450703e-001 -2.106647e-001 -2.934936e-001 -1.699193e-001 3.273769e-002 -2.365701e-002 -1.696059e-002 -1.699173e-001 2.369882e+000
<VARIANCE> 39
 3.952134e+000 7.590714e+000 9.336171e+000 1.007084e+001 1.600593e+001 1.674771e+001 2.048312e+001 2.251513e+001 2.025083e+001 2.401170e+001 1.948989e+001 1.853742e+001 2.368846e+000 1.467660e+000 2.032076e+000 1.747948e+000 3.029666e+000 2.433479e+000 2.150279e+000 2.591162e+000 2.020775e+000 2.104329e+000 1.401822e+000 1.805680e+000 1.070033e+000 6.698051e+000 2.230571e-001 4.709521e-001 2.089285e-001 3.300123e-001 4.054150e-001 3.379740e-001 3.359593e-001 3.533274e-001 2.565522e-001 3.061129e-001 2.707334e-001 1.760674e-001 6.129161e-001
<GCONST> 9.887437e+001
<MIXTURE> 3 3.066439e-001
<MEAN> 39
 -1.445518e+001 -3.936548e+000 -2.172312e+000 -2.663336e+000 -4.830947e-004 -2.914593e+000 1.273212e+000 -2.369562e+000 7.072387e-001 -3.952331e+000 1.277028e+000 -3.661582e+000 3.378624e+001 -6.219533e-001 -1.689041e+000 -8.243484e-001 -2.096379e-002 -4.844655e-001 -3.603945e-002 5.142403e-001 1.177577e-002 1.326711e-001 -4.291269e-002 -3.654318e-002 -3.417587e-002 2.105854e+000 3.330086e-001 -1.808652e-001 -2.154354e-001 -7.045287e-001 -1.998815e-001 -2.823166e-001 -1.530997e-002 -1.170505e-001 1.546137e-001 9.260669e-002 -6.149163e-002 -5.894032e-002 2.220632e+000
<VARIANCE> 39
 1.600184e+000 4.600126e+000 6.965482e+000 9.310316e+000 1.079412e+001 1.478889e+001 1.479521e+001 1.481987e+001 1.757378e+001 1.310013e+001 1.501879e+001 1.546911e+001 1.575711e+000 1.837908e+000 2.200939e+000 1.598933e+000 2.681730e+000 1.884981e+000 2.172116e+000 1.966616e+000 1.681263e+000 1.420750e+000 1.269360e+000 9.456872e-001 8.518826e-001 8.119333e+000 1.270465e-001 4.290053e-001 2.288269e-001 5.289097e-001 3.051325e-001 3.150400e-001 2.353736e-001 2.346090e-001 2.301288e-001 1.747597e-001 1.731698e-001 1.698254e-001 7.208017e-001
<GCONST> 9.025011e+001
<MIXTURE> 4 2.190898e-001
<MEAN> 39
 -7.232622e+000 -2.624910e+000 -2.020365e+000 -4.557190e+000 -1.302993e+000 -4.358399e+000 -2.302587e+000 -2.041268e+000 4.638019e-001 -1.892431e+000 -5.865985e-001 -4.114200e+000 4.687258e+001 -1.415796e+000 -1.109935e+000 -3.034808e-001 3.103170e-001 -4.912680e-001 -2.212310e-001 6.759672e-001 2.903381e-002 -3.975657e-002 -6.502294e-002 2.419823e-002 9.050065e-002 -2.424539e-002 -5.184120e-002 -8.123875e-003 -2.540152e-001 -3.684717e-001 -1.475656e-001 -1.567937e-001 3.972331e-002 1.740401e-002 5.961310e-002 -1.711586e-002 -1.817317e-002 -3.108085e-002 9.408866e-001
<VARIANCE> 39
 6.450659e+001 7.562510e+001 8.628103e+001 7.028426e+001 7.288316e+001 5.051957e+001 5.670519e+001 6.246684e+001 4.580274e+001 5.574608e+001 3.743341e+001 3.473279e+001 7.640140e+001 2.069755e+000 2.506075e+000 4.107735e+000 2.926384e+000 3.939550e+000 2.946510e+000 2.510819e+000 2.365324e+000 2.857889e+000 1.752028e+000 1.653806e+000 1.481379e+000 5.410739e+000 3.354274e-001 3.108634e-001 3.638876e-001 3.563071e-001 5.755084e-001 4.822179e-001 3.134834e-001 3.836029e-001 3.835573e-001 4.041663e-001 2.561678e-001 2.769555e-001 4.588950e-001
<GCONST> 1.241837e+002
<STATE> 3
<NUMMIXES> 4
<MIXTURE> 1 2.526689e-001
<MEAN> 39
 -1.060245e+001 -9.427987e+000 -3.714443e+000 -5.281532e+000 -1.570094e+000 -9.699987e+000 2.576869e+000 1.363325e+000 -2.058446e-002 -1.160306e+000 1.409141e+000 -2.923106e+000 5.858503e+001 -1.263448e+000 -2.379321e-001 -7.823241e-001 -5.412607e-001 2.678798e-001 3.803309e-002 6.524050e-001 3.137853e-001 4.988060e-001 6.107467e-001 8.060068e-003 1.678991e-001 1.646737e+000 3.291653e-001 4.989639e-001 1.785245e-001 -7.401983e-002 2.238093e-001 3.904791e-001 -2.999339e-001 -2.793122e-001 -1.151523e-002 -5.014923e-002 -1.514334e-001 -1.144333e-001 -2.589602e-001
<VARIANCE> 39
 3.755337e+001 6.383076e+001 7.233190e+001 1.205156e+002 1.008326e+002 1.039094e+002 1.048543e+002 1.127262e+002 5.300247e+001 6.780473e+001 4.742392e+001 3.977870e+001 6.378260e+001 2.378520e+000 3.027043e+000 3.090933e+000 3.733981e+000 4.109527e+000 4.126969e+000 3.908674e+000 3.299280e+000 4.150646e+000 3.456151e+000 2.091932e+000 1.778887e+000 5.095422e+000 2.666628e-001 3.407269e-001 2.992604e-001 3.630249e-001 6.985843e-001 5.768374e-001 6.680995e-001 5.749110e-001 4.768731e-001 5.804465e-001 3.040428e-001 2.930122e-001 4.678637e-001
<GCONST> 1.315192e+002
<MIXTURE> 2 2.002725e-001
<MEAN> 39
 -1.542251e+001 -6.795380e+000 -2.508230e+000 -4.793833e+000 -1.037611e+000 -2.104854e+000 9.545662e-003 -2.076646e+000 1.918871e+000 -1.803459e+000 1.132859e+000 -1.658236e+000 4.747750e+001 -3.086992e-001 -8.200595e-001 -1.305258e+000 -1.304922e+000 -2.001217e-001 -3.301373e-001 5.114959e-001 2.662847e-001 8.676038e-001 3.944956e-001 3.943489e-002 3.631597e-002 4.239716e+000 4.931643e-001 5.600992e-001 1.496314e-001 -2.912493e-001 -8.106538e-002 -6.117619e-002 -1.464990e-001 -8.450709e-002 -5.924629e-002 9.355189e-002 6.248793e-002 -1.367455e-001 7.201179e-001
<VARIANCE> 39
 2.436206e+001 4.406120e+001 3.065708e+001 4.373802e+001 2.705349e+001 2.946325e+001 2.296674e+001 2.106565e+001 1.926518e+001 1.749678e+001 1.530960e+001 1.169458e+001 7.372037e+001 1.209244e+000 1.701026e+000 1.890008e+000 2.424552e+000 1.461099e+000 1.998607e+000 1.775859e+000 1.522910e+000 1.579745e+000 1.279627e+000 9.692519e-001 8.111424e-001 4.383895e+000 2.287590e-001 2.624179e-001 2.347611e-001 3.311468e-001 3.978763e-001 2.978657e-001 3.229214e-001 2.913547e-001 2.536990e-001 2.096378e-001 2.335844e-001 1.140748e-001 5.193436e-001
<GCONST> 1.032011e+002
<MIXTURE> 3 3.642116e-001
<MEAN> 39
 -9.805727e+000 -1.775231e+001 -7.107269e+000 -5.081467e-001 -5.327698e+000 -7.779059e+000 3.556462e+000 -4.983992e-001 -1.254469e+000 -2.691337e+000 1.922374e+000 -3.909195e+000 5.796323e+001 6.326578e-001 -7.537276e-001 -7.581397e-001 -3.802737e-001 -3.531235e-001 -6.988792e-001 1.622599e-001 4.725704e-001 2.951635e-002 4.716989e-003 4.521229e-002 -2.555957e-001 2.941007e+000 1.904870e-001 9.338731e-001 2.266216e-001 -3.215675e-001 2.649732e-001 2.313396e-001 -4.266860e-001 -2.079611e-001 1.577729e-001 -8.481947e-002 -1.284723e-001 -8.130808e-002 -3.691531e-001
<VARIANCE> 39
 2.039602e+001 2.517603e+001 3.549088e+001 2.443710e+001 3.769733e+001 2.608977e+001 3.308790e+001 3.528673e+001 3.138751e+001 2.372015e+001 2.408542e+001 1.583830e+001 4.332513e+001 3.120781e+000 2.931522e+000 2.317466e+000 1.439221e+000 3.406810e+000 2.177797e+000 2.451730e+000 2.008427e+000 2.020210e+000 1.215397e+000 1.464003e+000 1.028531e+000 4.756779e+000 2.159005e-001 2.607465e-001 3.014657e-001 2.437850e-001 4.209850e-001 2.929089e-001 3.499052e-001 3.886220e-001 2.989442e-001 2.390588e-001 3.109225e-001 2.064066e-001 6.153399e-001
<GCONST> 1.094004e+002
<MIXTURE> 4 1.828469e-001
<MEAN> 39
 -1.751639e+001 -8.556128e+000 -1.989586e+000 -5.060401e+000 -1.578476e+000 -2.464047e+000 1.139511e+000 -4.008910e+000 1.340493e+000 -2.414242e+000 6.031430e-001 -2.232119e+000 4.947278e+001 -3.038896e-001 -9.762210e-001 -1.284499e+000 -1.387463e+000 -4.789101e-001 -4.973428e-001 2.339411e-001 -1.337933e-001 3.730702e-001 -2.654266e-002 -1.849896e-001 -2.316892e-001 4.301486e+000 6.123115e-001 5.392623e-001 -1.507039e-002 -3.018809e-001 -7.686067e-002 -1.316878e-001 -1.537859e-001 -4.076314e-002 -6.500404e-002 -7.529654e-002 -2.958009e-002 -2.303782e-001 6.127836e-001
<VARIANCE> 39
 2.572803e+001 5.753558e+001 4.430333e+001 4.876276e+001 4.961618e+001 3.440491e+001 1.944032e+001 2.743979e+001 2.156571e+001 2.082982e+001 1.794399e+001 1.624065e+001 7.097661e+001 1.283472e+000 2.146461e+000 1.455910e+000 2.058335e+000 1.942731e+000 1.927111e+000 1.603298e+000 1.495967e+000 1.430772e+000 1.349666e+000 1.012633e+000 1.046937e+000 3.545081e+000 2.427918e-001 2.720540e-001 3.435446e-001 3.487120e-001 4.400285e-001 3.337204e-001 2.879845e-001 3.208434e-001 2.523494e-001 2.513456e-001 2.661963e-001 2.122362e-001 5.375196e-001
<GCONST> 1.073181e+002
<STATE> 4
<NUMMIXES> 4
<MIXTURE> 1 2.334345e-001
<MEAN> 39
 -1.567100e+001 -2.127015e+000 -6.842712e+000 -1.218965e+001 3.713430e-001 -8.178110e+000 2.124194e+000 -1.606933e+000 4.879107e+000 -1.150649e-001 1.695186e+000 -2.112462e+000 6.115443e+001 6.548939e-001 8.661454e-001 3.456204e-001 -9.130869e-001 2.016187e-001 6.257648e-001 -3.623935e-001 -1.986880e-001 2.998031e-001 2.216347e-001 -3.323648e-002 -6.951130e-002 1.389899e+000 5.772446e-001 2.855597e-002 5.493475e-001 2.267199e-001 -1.134850e-001 4.332700e-001 -3.535146e-001 -2.155685e-001 -3.951617e-001 -2.159880e-001 -9.941782e-002 -1.019774e-001 -5.920085e-001
<VARIANCE> 39
 1.697929e+001 3.778873e+001 3.755115e+001 3.942292e+001 4.301295e+001 5.351360e+001 3.807368e+001 4.030283e+001 3.251354e+001 3.466019e+001 2.927761e+001 2.202691e+001 4.208694e+001 1.848040e+000 1.491665e+000 1.739716e+000 1.766474e+000 1.772105e+000 2.165338e+000 1.831310e+000 1.715624e+000 1.506074e+000 1.515486e+000 1.202718e+000 1.067569e+000 3.806047e+000 1.930607e-001 2.797534e-001 2.876026e-001 4.420998e-001 4.059967e-001 4.139015e-001 3.217095e-001 3.613205e-001 3.605756e-001 3.188899e-001 2.721511e-001 2.638775e-001 4.857584e-001
<GCONST> 1.103575e+002
<MIXTURE> 2 2.613335e-001
<MEAN> 39
 -9.353652e+000 -3.898157e+000 -2.032767e+000 -9.575085e+000 2.951369e+000 -2.314552e+000 4.048603e-001 -2.959859e+000 8.699735e-001 -7.298889e-001 7.302187e-001 -3.454560e+000 6.159114e+001 1.710448e+000 -2.743586e-001 4.206772e-001 -6.505551e-001 -9.944525e-002 8.868855e-001 -2.479224e-001 -1.697908e-001 -1.707023e-001 -1.667805e-001 -1.129407e-001 1.558621e-001 1.433362e+000 3.178842e-002 -3.210942e-001 -2.002686e-001 -5.649967e-002 -4.127853e-001 -1.657732e-001 1.394822e-001 3.520029e-002 1.097937e-001 -9.604338e-002 -4.087525e-002 2.255249e-002 2.164495e-001
<VARIANCE> 39
 2.981262e+001 6.737879e+001 3.809109e+001 8.871259e+001 5.371748e+001 5.482640e+001 3.868923e+001 4.908475e+001 3.882471e+001 3.558314e+001 3.121720e+001 2.917322e+001 4.313959e+001 1.198267e+000 1.754535e+000 1.721867e+000 2.877255e+000 3.094493e+000 2.292516e+000 1.899395e+000 1.524316e+000 1.732025e+000 1.684370e+000 1.268934e+000 1.306354e+000 1.472042e+000 2.637420e-001 1.589584e-001 1.765839e-001 2.869257e-001 2.463919e-001 2.814259e-001 2.101199e-001 2.501123e-001 2.257750e-001 2.442696e-001 2.085914e-001 2.206883e-001 2.381719e-001
<GCONST> 1.089030e+002
<MIXTURE> 3 3.201878e-001
<MEAN> 39
 -1.521704e+001 -9.813831e+000 -6.424306e+000 -8.498683e+000 -3.973369e+000 -4.092912e+000 2.283328e+000 -3.571244e+000 3.191390e+000 -3.447865e+000 8.454185e-001 -4.242601e+000 6.210508e+001 2.563328e-001 7.126072e-001 -6.922565e-001 -7.689007e-001 8.256529e-002 -1.937308e-001 8.439375e-003 -4.035265e-001 3.003824e-001 5.742042e-002 -1.213840e-001 -3.544425e-001 2.641894e+000 3.300572e-001 5.208310e-001 2.573255e-001 1.976174e-001 3.042530e-001 3.490394e-003 -1.981569e-001 -9.008716e-002 -2.340070e-001 -1.643335e-002 -3.288248e-002 -1.107003e-002 -1.047443e+000
<VARIANCE> 39
 2.397447e+001 4.468938e+001 3.833181e+001 3.928962e+001 3.998542e+001 3.629743e+001 3.099392e+001 3.228919e+001 2.681706e+001 3.194122e+001 1.749658e+001 2.114645e+001 2.911531e+001 1.918223e+000 1.715641e+000 1.636064e+000 2.002404e+000 1.552630e+000 1.582711e+000 1.374957e+000 1.438292e+000 1.365493e+000 1.383382e+000 1.299271e+000 1.171740e+000 5.157594e+000 1.799501e-001 2.808570e-001 3.114591e-001 3.406506e-001 3.452685e-001 3.117700e-001 2.886579e-001 3.359449e-001 2.703924e-001 3.026592e-001 2.123920e-001 2.125707e-001 4.194827e-001
<GCONST> 1.065931e+002
<MIXTURE> 4 1.850427e-001
<MEAN> 39
 -1.071481e+001 -3.959438e+000 -5.006330e+000 -8.783484e+000 2.758336e+000 -6.569661e+000 1.049078e+000 -6.790902e+000 4.096440e-001 -4.554841e+000 -2.591408e+000 -6.174827e+000 6.067727e+001 1.690319e+000 5.185306e-002 3.205289e-002 -8.869621e-001 3.325347e-001 -2.220438e-001 -7.784864e-001 -1.187512e+000 -9.994640e-001 -8.879650e-001 -1.097655e+000 -1.172281e+000 1.197056e+000 9.358582e-002 -3.906510e-001 -1.357019e-001 -9.559984e-002 -2.353128e-001 9.811689e-002 4.317953e-002 1.614990e-001 -3.400635e-002 -8.492357e-002 1.027507e-001 -1.614841e-002 1.524757e-001
<VARIANCE> 39
 2.686003e+001 8.615577e+001 4.803028e+001 7.342754e+001 6.195726e+001 6.272422e+001 4.753376e+001 5.420209e+001 5.578326e+001 4.721199e+001 4.558023e+001 4.313735e+001 4.974234e+001 1.198121e+000 2.482170e+000 1.564079e+000 3.685588e+000 2.779490e+000 3.137483e+000 2.251767e+000 2.266515e+000 1.984584e+000 2.672279e+000 2.120803e+000 1.791544e+000 1.706783e+000 2.558860e-001 1.960819e-001 2.048519e-001 3.850608e-001 2.905534e-001 4.344696e-001 2.446960e-001 3.125630e-001 3.894743e-001 3.857314e-001 3.809564e-001 3.838588e-001 3.239360e-001
<GCONST> 1.181357e+002
<TRANSP> 5
 0.000000e+000 1.000000e+000 0.000000e+000 0.000000e+000 0.000000e+000
 0.000000e+000 5.229156e-001 4.770844e-001 0.000000e+000 0.000000e+000
 0.000000e+000 0.000000e+000 4.661295e-001 5.338705e-001 0.000000e+000
 0.000000e+000 0.000000e+000 0.000000e+000 7.348848e-001 2.651152e-001
 0.000000e+000 0.000000e+000 0.000000e+000 0.000000e+000 0.000000e+000
<ENDHMM>
~h "l"
<BEGINHMM>
<NUMSTATES> 5
<STATE> 2
<NUMMIXES> 4
<MIXTURE> 1 3.015454e-001
<MEAN> 39
 3.957109e+000 -5.315451e+000 -2.212175e+001 -7.890372e+000 4.430968e+000 -9.986136e+000 -1.690114e+000 -2.621587e+000 5.277723e+000 9.353964e-001 -2.916006e+000 -5.418400e+000 6.580840e+001 3.256177e-001 5.769805e-001 -2.081331e-001 -1.029431e-001 -4.910403e-002 1.672788e-001 -3.026569e-001 -6.853886e-001 1.720970e-001 4.714489e-001 2.911790e-001 2.840799e-002 -5.912617e-001 -1.075721e-001 -1.827866e-002 3.723648e-001 4.239827e-002 -2.206333e-001 5.815311e-002 1.183279e-001 3.715436e-002 -2.593009e-001 -1.344272e-001 1.814653e-001 5.727013e-002 -7.660642e-002
<VARIANCE> 39
 1.759433e+001 3.698121e+001 6.729747e+001 4.133163e+001 3.704250e+001 3.958719e+001 4.044132e+001 4.135231e+001 3.352738e+001 4.274495e+001 3.019426e+001 3.763718e+001 3.324518e+001 2.894004e-001 5.375338e-001 9.303906e-001 7.650369e-001 1.119500e+000 1.078724e+000 1.400704e+000 1.440901e+000 1.327850e+000 1.200977e+000 1.039992e+000 8.834372e-001 3.670722e-001 4.824913e-002 5.956221e-002 1.501417e-001 1.040716e-001 1.288904e-001 1.295196e-001 2.177317e-001 1.575200e-001 1.856816e-001 1.542431e-001 1.372862e-001 9.858233e-002 5.307062e-002
<GCONST> 8.840765e+001
<MIXTURE> 2 2.236501e-001
<MEAN> 39
 1.710872e+000 -5.560231e+000 -1.434800e+001 -4.183849e+000 -2.181110e+000 -1.243256e+001 4.019614e-001 -2.073416e+000 1.921360e+000 -3.690789e+000 8.641803e-001 -3.508668e+000 6.456145e+001 1.338181e+000 2.439509e-001 -1.877768e+000 1.765682e-001 6.603242e-001 -5.971172e-001 -7.184576e-001 1.007787e-001 6.878621e-001 2.878788e-001 -2.844991e-001 1.618272e-001 3.906599e-001 -4.026319e-001 -1.095912e-001 3.460481e-001 -2.244061e-001 -5.877724e-002 4.242821e-001 6.051889e-002 -1.560805e-001 -6.918225e-002 1.093467e-001 -6.433708e-002 -2.865268e-002 -1.718389e-002
<VARIANCE> 39
 2.013642e+001 5.106206e+001 8.590498e+001 3.528019e+001 6.600916e+001 5.392198e+001 6.739999e+001 6.607280e+001 4.099579e+001 4.068174e+001 3.409138e+001 2.802500e+001 4.989483e+001 1.724554e+000 2.088145e+000 2.899622e+000 2.449421e+000 2.914936e+000 2.658864e+000 3.265101e+000 3.003318e+000 2.597256e+000 2.201027e+000 1.947948e+000 1.244597e+000 2.621907e+000 2.430303e-001 3.255460e-001 4.371395e-001 3.627126e-001 4.928203e-001 4.163223e-001 5.198449e-001 5.540912e-001 4.003569e-001 3.742122e-001 2.945207e-001 2.088237e-001 3.275865e-001
<GCONST> 1.195547e+002
<MIXTURE> 3 2.737179e-001
<MEAN> 39
 5.158177e+000 -2.764803e+000 -2.367194e+001 -8.904248e+000 1.519548e+000 -5.121146e+000 -4.405747e+000 -6.576238e+000 2.559403e+000 6.601841e-001 2.215171e+000 -6.327338e+000 6.310662e+001 1.174851e-001 2.390713e-001 2.443647e-001 -4.063550e-002 -1.512554e-001 4.269442e-002 -2.117265e-001 5.587087e-002 -2.367192e-001 6.696638e-002 -7.081122e-002 1.421697e-001 -3.938204e-001 -2.649479e-001 -2.366840e-001 3.994771e-001 2.018082e-001 -4.559907e-002 -2.210364e-001 1.952681e-001 3.410179e-001 -8.133432e-004 -1.970152e-001 -2.039843e-001 7.375533e-002 4.886186e-002
<VARIANCE> 39
 1.164843e+001 4.639817e+001 4.996590e+001 4.150609e+001 3.549302e+001 4.216628e+001 4.612800e+001 5.330614e+001 3.241839e+001 4.885702e+001 3.752395e+001 3.560312e+001 3.295474e+001 3.569748e-001 7.346191e-001 1.345886e+000 1.103834e+000 8.267424e-001 1.282885e+000 1.047858e+000 1.470637e+000 1.201158e+000 1.010888e+000 1.071892e+000 7.839229e-001 6.984839e-001 7.892286e-002 1.396204e-001 2.461369e-001 1.435938e-001 1.867429e-001 1.690829e-001 2.504265e-001 3.178434e-001 2.875999e-001 2.624669e-001 1.837668e-001 1.950333e-001 1.487198e-001
<GCONST> 9.634021e+001
<MIXTURE> 4 2.010883e-001
<MEAN> 39
 8.857840e-001 -8.057497e+000 -1.469211e+001 -4.531232e+000 -3.042496e+000 -1.148533e+001 1.584873e-001 -2.927811e+000 -1.822417e-001 -6.081925e+000 -5.579729e-001 -6.848922e+000 6.572051e+001 1.389078e+000 9.233800e-002 -1.759715e+000 2.275268e-001 5.571859e-001 -7.643163e-001 -6.933507e-001 4.263901e-001 5.039390e-001 -1.043895e-002 -4.399476e-001 -2.242024e-001 3.413093e-001 -4.166271e-001 -2.402283e-002 3.454375e-001 -2.164647e-001 -3.341847e-002 3.889971e-001 5.292317e-002 -1.307567e-001 9.961592e-002 1.328544e-001 -3.925572e-002 5.571409e-002 -7.908927e-002
<VARIANCE> 39
 2.034413e+001 5.156895e+001 6.050631e+001 4.098901e+001 6.585881e+001 4.878669e+001 7.766945e+001 7.570487e+001 4.669278e+001 6.023569e+001 4.346423e+001 4.267867e+001 4.268560e+001 1.608541e+000 2.049449e+000 2.339039e+000 2.386873e+000 3.008797e+000 2.302011e+000 3.324595e+000 3.084160e+000 2.616648e+000 2.369058e+000 1.978993e+000 1.790417e+000 3.038303e+000 2.576801e-001 2.902289e-001 3.617995e-001 3.826899e-001 4.583581e-001 3.448718e-001 5.461968e-001 6.048669e-001 4.557855e-001 4.287856e-001 3.209904e-001 2.585331e-001 2.798601e-001
<GCONST> 1.208833e+002
<STATE> 3
<NUMMIXES> 4
<MIXTURE> 1 2.957404e-001
<MEAN> 39
 3.015214e+000 -1.988316e+000 -1.586357e+001 -5.204397e+000 2.077325e-001 -1.359446e+001 -3.647799e+000 -2.442388e+000 3.566694e+000 -1.362329e-002 -1.484654e+000 -2.717317e+000 6.367780e+001 -5.529234e-001 -1.292092e+000 -4.193940e-001 2.658130e-001 -1.551696e-001 8.760751e-003 1.260287e+000 1.271053e+000 -3.168049e-001 -6.774661e-001 -6.748895e-001 2.604938e-001 1.229322e+000 -3.308330e-001 -2.712357e-001 3.775405e-001 -1.497840e-002 -1.310412e-001 3.271399e-001 4.779221e-001 2.111963e-002 -4.135395e-001 -2.368655e-001 1.568245e-001 -1.608334e-003 8.289425e-002
<VARIANCE> 39
 1.929467e+001 3.445642e+001 1.054442e+002 5.586985e+001 6.445718e+001 7.786963e+001 6.201688e+001 6.159193e+001 6.101456e+001 4.503922e+001 4.683215e+001 3.782879e+001 5.053572e+001 7.817256e-001 2.224314e+000 3.632538e+000 2.392610e+000 3.182551e+000 3.882812e+000 3.289639e+000 3.851879e+000 2.673289e+000 2.234059e+000 1.846803e+000 1.400221e+000 1.855643e+000 1.311648e-001 1.487117e-001 3.199781e-001 3.357341e-001 3.845816e-001 4.079485e-001 3.683535e-001 4.083733e-001 4.443511e-001 3.051779e-001 2.712999e-001 1.933260e-001 1.177346e-001
<GCONST> 1.170727e+002
<MIXTURE> 2 1.971924e-001
<MEAN> 39
 1.091510e+000 -1.044034e+001 -1.970527e+001 -4.521587e+000 7.686902e-001 -1.429950e+001 1.001356e+000 4.848151e+000 2.748476e+000 -5.318757e+000 -4.295543e+000 -2.783262e+000 6.983572e+001 -9.158104e-001 -5.561496e-001 1.769898e+000 3.136840e-001 -1.642352e+000 -1.664447e-001 1.917928e+000 6.708917e-001 -1.656681e+000 -4.464507e-001 5.381701e-001 5.596281e-001 5.838222e-001 -2.846400e-001 3.507657e-001 6.864828e-001 -3.731916e-001 -2.434175e-001 6.473328e-001 5.238790e-002 -7.867568e-001 -2.777681e-001 4.064583e-001 3.709633e-001 -1.797667e-001 -2.665354e-001
