~o
<STREAMINFO> 1 39
<VECSIZE> 39<NULLD><MFCC_D_A_0><DIAGC>
~s "silst"
<NUMMIXES> 7
<MIXTURE> 1 1.248011e-001
<MEAN> 39
 -2.222007e+000 9.848500e-001 1.847562e+000 -5.588883e+000 -2.834242e+000 -5.384671e+000 -2.687786e-001 -2.379356e+000 8.738136e-001 -1.604941e+000 1.068513e+000 -2.733939e+000 5.174015e+001 -7.047117e-002 -1.288640e-002 1.325893e-001 5.619893e-001 1.699280e-001 1.581774e-001 1.221026e-001 6.157793e-002 1.054718e-001 -1.922055e-002 1.164274e-001 7.158951e-002 -7.915698e-001 -6.980345e-002 -3.565944e-002 -7.232723e-002 -6.131383e-004 9.680478e-002 8.555905e-002 5.256536e-002 2.821589e-002 4.744967e-002 2.732330e-002 1.824604e-002 1.158382e-002 1.523699e-001
<VARIANCE> 39
 4.557211e+001 7.140618e+001 6.134074e+001 8.952522e+001 7.921769e+001 6.826462e+001 6.181230e+001 5.157993e+001 5.334468e+001 4.650697e+001 3.492061e+001 3.971838e+001 9.851053e+001 7.022646e-001 6.678228e-001 8.864036e-001 1.230364e+000 1.316888e+000 1.428706e+000 1.548504e+000 1.227945e+000 1.374739e+000 1.334153e+000 1.056932e+000 8.937291e-001 9.349780e-001 8.342157e-002 9.219218e-002 1.298769e-001 1.582912e-001 1.952564e-001 2.111390e-001 2.593766e-001 2.115818e-001 2.143486e-001 2.070996e-001 1.471527e-001 1.549494e-001 9.091052e-002
<GCONST> 1.016296e+002
<MIXTURE> 2 1.326458e-001
<MEAN> 39
 -1.700286e+000 -4.439961e+000 -1.312179e+000 -8.099004e+000 -4.742407e+000 -6.831426e+000 9.099264e-001 -2.710968e+000 -8.147475e-001 -3.162175e+000 -5.343571e-001 -6.421733e+000 5.780972e+001 -4.580455e-001 5.719515e-001 4.397494e-001 1.036444e+000 3.828623e-001 2.013216e-001 9.816401e-002 -6.116591e-002 -6.944908e-002 2.742352e-002 1.391056e-001 3.172526e-001 -2.393680e+000 -2.858261e-001 -1.710410e-002 -2.170800e-001 7.345368e-002 2.676002e-001 5.710069e-002 -9.676456e-002 -5.182701e-002 7.722601e-002 -1.767778e-002 3.340924e-002 1.933423e-001 5.220314e-002
<VARIANCE> 39
 3.989260e+001 7.126196e+001 8.719785e+001 8.185416e+001 1.041401e+002 1.078404e+002 9.509495e+001 1.087195e+002 7.916215e+001 6.405791e+001 6.350097e+001 4.421801e+001 7.544518e+001 2.659400e+000 3.868554e+000 3.975118e+000 2.801033e+000 4.982337e+000 3.974570e+000 4.380257e+000 3.929230e+000 4.004898e+000 2.981215e+000 2.832055e+000 2.278476e+000 6.862163e+000 2.460640e-001 3.066685e-001 4.499705e-001 4.047354e-001 6.516588e-001 5.765660e-001 5.272987e-001 6.385785e-001 5.458030e-001 3.491656e-001 4.925699e-001 3.276237e-001 3.846792e-001
<GCONST> 1.339189e+002
<MIXTURE> 3 2.304661e-001
<MEAN> 39
 -1.933686e+000 2.037364e+000 -5.026209e-001 -9.530996e+000 -2.386399e+000 -9.161710e+000 -1.106370e+000 -7.655410e+000 1.253171e+000 -1.833706e+000 -1.262732e+000 -3.056759e+000 5.337181e+001 -1.008875e+000 9.337759e-001 1.185207e+000 2.583236e+000 7.409585e-001 6.764112e-001 -3.071739e-001 3.180141e-001 -6.579452e-001 -4.134527e-001 2.013798e-001 1.025271e-001 -4.516305e+000 -6.078305e-001 -6.188151e-001 -4.286657e-001 3.901802e-002 7.706853e-002 3.800443e-001 1.928147e-001 2.914722e-001 4.269035e-002 -1.268196e-001 1.306996e-001 -7.173503e-002 2.882524e-001
<VARIANCE> 39
 1.757252e+001 3.337519e+001 3.366974e+001 5.871797e+001 4.628676e+001 4.878551e+001 3.346447e+001 3.845802e+001 4.031955e+001 4.632404e+001 3.300372e+001 3.246408e+001 4.611650e+001 1.973165e+000 2.749848e+000 2.362852e+000 2.661379e+000 2.869190e+000 2.711553e+000 2.188455e+000 2.072332e+000 1.915905e+000 2.122454e+000 1.932828e+000 1.519159e+000 3.838626e+000 1.450108e-001 2.412673e-001 2.139788e-001 3.403528e-001 3.185261e-001 3.562153e-001 2.500291e-001 3.056198e-001 2.838349e-001 2.814324e-001 2.421877e-001 2.245585e-001 3.725298e-001
<GCONST> 1.126352e+002
<MIXTURE> 4 1.565855e-001
<MEAN> 39
 -1.372421e+001 -4.368165e+000 -5.356927e+000 -3.579030e+000 -1.509596e+000 -2.244784e+000 1.980254e+000 -3.251243e+000 1.853198e+000 -2.263206e+000 9.465277e-001 -2.653473e+000 4.880503e+001 2.215789e-001 9.111208e-002 4.745784e-001 3.155149e-001 3.612994e-001 -1.940907e-001 -3.339527e-002 2.543131e-001 -2.066368e-001 -1.553257e-001 5.969744e-002 1.351332e-003 -1.852515e+000 2.768597e-001 -1.581259e-002 2.338169e-003 -1.074859e-001 9.139765e-003 -1.354326e-001 -1.144116e-001 -5.591554e-002 -6.545333e-002 -7.233994e-002 -7.898849e-002 -5.052380e-002 1.832858e-001
<VARIANCE> 39
 3.956794e+001 4.233531e+001 3.444234e+001 4.246497e+001 4.311958e+001 3.320015e+001 3.289353e+001 4.390850e+001 3.459265e+001 3.332150e+001 3.025836e+001 2.589566e+001 1.139497e+002 1.670107e+000 1.698169e+000 1.628209e+000 1.744370e+000 2.099659e+000 1.336939e+000 1.723860e+000 1.915058e+000 1.483389e+000 1.568869e+000 1.459220e+000 1.013473e+000 6.619130e+000 1.661733e-001 2.498037e-001 2.369605e-001 2.656254e-001 2.602803e-001 2.448130e-001 2.615788e-001 2.742669e-001 2.930080e-001 2.402728e-001 2.440661e-001 2.149839e-001 5.977592e-001
<GCONST> 1.093680e+002
<MIXTURE> 5 1.111364e-001
<MEAN> 39
 -5.405723e+000 2.348105e+000 4.796071e+000 -1.644462e+001 -2.602454e+000 -3.511489e+000 -1.126260e+001 -1.781702e+000 -1.937612e+000 -3.877803e+000 3.030039e+000 -4.219995e+000 5.816107e+001 -5.944389e-001 4.797797e-001 2.638684e-001 2.838987e+000 8.450475e-001 -2.209232e-001 4.374616e-001 -3.328848e-001 -5.074961e-001 -3.551483e-001 -4.887106e-002 3.263165e-002 -4.654488e+000 -3.999754e-001 -7.182180e-001 -7.558933e-001 5.836731e-001 -8.551525e-002 -2.465457e-002 1.065068e+000 -1.633693e-001 2.284648e-001 9.223785e-002 -2.528446e-001 1.992977e-002 1.229746e-001
<VARIANCE> 39
 1.819189e+001 3.522685e+001 2.217044e+001 4.707144e+001 5.522515e+001 5.382504e+001 3.708587e+001 3.480952e+001 4.693259e+001 3.945078e+001 2.531255e+001 1.899276e+001 4.994395e+001 1.752379e+000 3.126899e+000 1.824726e+000 1.988712e+000 2.483577e+000 2.301541e+000 2.564783e+000 2.189671e+000 2.078589e+000 1.607656e+000 1.540891e+000 1.303484e+000 3.794647e+000 1.830684e-001 2.605244e-001 2.283374e-001 3.946988e-001 4.250014e-001 4.175995e-001 3.924542e-001 3.580157e-001 4.975698e-001 3.624344e-001 2.752030e-001 2.119158e-001 5.665833e-001
<GCONST> 1.132932e+002
<MIXTURE> 6 1.209054e-001
<MEAN> 39
 -4.942954e+000 -5.488026e+000 -2.852007e+000 -1.041648e+001 -9.416264e+000 -6.952918e+000 4.650851e-001 -7.254619e+000 3.935269e-001 -1.617367e+000 1.787859e-001 -3.289805e+000 5.310474e+001 -8.831905e-001 1.059873e+000 3.993531e-001 7.081352e-001 1.080238e+000 1.599975e-001 -1.816553e-001 3.388043e-002 1.009340e-001 -2.212787e-001 1.573950e-002 2.002180e-001 -3.061755e+000 -2.581017e-001 -1.083085e-001 -2.470053e-001 2.361263e-001 5.453892e-001 1.243604e-001 4.849623e-002 2.032067e-001 -8.934744e-002 -1.777664e-001 1.006555e-002 -7.094349e-002 2.941175e-001
<VARIANCE> 39
 2.919166e+001 4.726717e+001 7.012930e+001 1.111292e+002 7.034990e+001 9.941259e+001 1.103657e+002 1.253428e+002 1.079489e+002 1.152164e+002 8.419708e+001 7.146327e+001 1.069640e+002 2.120435e+000 3.521215e+000 2.979432e+000 4.161760e+000 4.610904e+000 3.701477e+000 3.542125e+000 4.002242e+000 3.769087e+000 3.600926e+000 3.443201e+000 2.563042e+000 7.136705e+000 2.793253e-001 2.370752e-001 4.198012e-001 5.298059e-001 5.486549e-001 6.383265e-001 6.975091e-001 7.587080e-001 7.691590e-001 7.529280e-001 6.756960e-001 5.187055e-001 6.561850e-001
<GCONST> 1.379070e+002
<MIXTURE> 7 1.234588e-001
<MEAN> 39
 -3.302258e+000 -1.514353e-001 -4.600998e-001 -7.064443e+000 -4.371197e+000 -7.352450e+000 -2.106669e+000 -4.304832e+000 -3.400360e-001 -2.799969e+000 -6.998866e-002 -4.363159e+000 4.951896e+001 -2.195186e-001 -2.364824e-001 -7.944532e-002 2.595128e-001 -1.998355e-001 -4.163978e-002 -1.683224e-001 -1.791395e-001 -1.516525e-001 -2.136666e-001 -9.606193e-002 -6.603728e-002 -9.969522e-001 -1.096317e-001 -6.032221e-002 -9.505503e-002 -7.950918e-002 4.266476e-002 5.221717e-003 -1.514406e-002 -4.428769e-002 -2.561375e-002 -1.431337e-002 -4.504951e-002 -1.717164e-002 1.282522e-001
<VARIANCE> 39
 5.027845e+001 7.723010e+001 6.567764e+001 9.352212e+001 7.868523e+001 5.659174e+001 5.852570e+001 5.319083e+001 5.423142e+001 5.324368e+001 4.123336e+001 4.683440e+001 9.196513e+001 6.332055e-001 6.441954e-001 9.547132e-001 1.230196e+000 1.336754e+000 1.306031e+000 1.413195e+000 1.296108e+000 1.418537e+000 1.356167e+000 1.079048e+000 9.332554e-001 8.628799e-001 7.700293e-002 8.870161e-002 1.344920e-001 1.769174e-001 1.938827e-001 2.130051e-001 2.441082e-001 2.040840e-001 2.073958e-001 2.058092e-001 1.548508e-001 1.691902e-001 7.472930e-002
<GCONST> 1.018041e+002
~h "zh"
<BEGINHMM>
<NUMSTATES> 5
<STATE> 2
<NUMMIXES> 7
<MIXTURE> 1 1.283707e-001
<MEAN> 39
 -2.987726e+000 4.365143e-001 -2.095341e+000 -1.201814e+001 -1.092358e+001 -3.655948e+000 -5.840104e-001 -8.981664e+000 2.131438e+000 4.469209e+000 -3.523230e+000 -4.361720e-001 6.728887e+001 -1.367825e+000 2.653512e+000 7.047097e-001 -1.112422e+000 1.355337e+000 2.244745e-001 -9.667209e-001 -3.414137e-001 1.359511e+000 -4.589548e-001 6.862234e-001 1.083771e+000 -5.204237e-001 -2.258013e-001 -9.490287e-002 -8.970334e-001 6.665354e-001 3.510051e-001 -3.179967e-001 7.810643e-001 5.534677e-001 7.464367e-003 -7.272635e-001 1.656838e-001 8.669022e-003 -1.273568e-002
<VARIANCE> 39
 3.129106e+001 1.915608e+000 2.439980e+001 1.113059e+001 7.360978e-001 5.171718e+000 4.429071e+000 5.237880e+000 3.092607e+001 4.144719e+001 1.643707e+001 3.070993e+001 6.786901e+001 1.479989e-001 7.697511e-001 8.698800e-001 3.106198e+000 1.432811e+000 7.614236e-001 1.869927e+000 8.227442e-001 1.801360e+000 2.450874e+000 5.057933e-002 3.214860e+000 2.169922e+000 1.911404e-001 1.084291e-001 2.524534e-001 1.367062e-001 1.804224e-001 1.082001e-001 3.758887e-001 2.196423e-001 6.732568e-002 9.992184e-002 1.242677e-001 2.405858e-001 9.315858e-002
<GCONST> 7.867803e+001
<MIXTURE> 2 2.302123e-001
<MEAN> 39
 -7.767933e+000 6.311146e+000 -3.697523e+000 -1.306405e+001 -7.513786e+000 -9.153810e+000 -5.437215e+000 -8.657883e+000 -3.108170e+000 -3.829529e+000 -6.804296e+000 -6.871807e+000 6.746862e+001 -7.334649e-001 4.096746e-001 -3.137866e-001 1.184325e+000 4.780088e-001 -6.827230e-001 8.210198e-001 -9.730186e-001 6.487094e-001 7.232651e-001 1.289065e+000 1.162585e+000 -6.337844e-001 -4.216951e-001 -1.929157e-001 -6.972279e-002 1.263312e-001 1.413076e-001 3.170582e-001 3.179109e-001 1.520649e-001 3.936815e-001 -2.003518e-001 3.310024e-001 3.541483e-001 -5.172001e-002
<VARIANCE> 39
 4.448280e+000 3.506828e+000 5.319078e+000 4.178786e+001 2.896945e+001 9.956171e+000 1.123943e+001 3.028405e+001 6.936188e+000 8.817796e+001 1.486448e+001 1.354188e+002 3.730557e+000 6.578063e-001 3.601783e-001 3.303078e-001 6.441845e-001 9.533179e-002 8.192136e-001 1.249932e+000 7.316133e-001 6.808435e-001 2.052544e-001 7.688837e-001 2.305251e+000 6.039758e-002 4.158091e-002 2.685669e-002 4.473268e-002 5.731239e-002 6.223149e-002 3.278109e-001 3.538119e-001 1.414631e-001 7.564382e-002 1.454575e-001 3.834406e-002 6.611346e-002 3.357596e-002
<GCONST> 6.330212e+001
<MIXTURE> 3 7.702583e-002
<MEAN> 39
 -2.272475e+000 4.214540e+000 2.774136e-001 -2.269997e+001 -6.643268e+000 -2.373513e+000 -5.975819e+000 -4.745389e+000 4.962080e+000 -3.208119e+000 3.879118e+000 1.659416e+000 6.514211e+001 -1.316827e+000 1.386945e+000 3.778212e-002 2.038903e+000 1.042856e-001 -2.619106e-001 8.319694e-001 -1.167889e+000 -1.386468e-001 8.701794e-001 -2.465632e-001 7.783669e-001 -1.021006e+000 -8.652401e-001 -1.413607e-001 1.402397e-002 4.119643e-001 7.618771e-001 -3.581681e-001 8.087420e-001 7.009906e-002 2.374873e-001 2.973811e-001 -1.128205e-003 -3.498503e-002 -1.470229e-001
<VARIANCE> 39
 8.660417e-001 3.915127e+000 6.191332e-001 2.271869e+000 1.071383e+000 5.129025e-001 5.047036e-001 2.050754e+000 1.334857e+000 1.195472e+000 6.746426e-001 9.468367e-001 1.575711e+000 6.316186e-001 2.342663e-002 2.970150e-002 1.140253e-001 7.245377e-001 1.881901e-001 9.275777e-001 1.500330e-001 1.475647e-001 2.393815e-001 1.572490e-002 5.183396e-002 4.901518e-002 2.046091e-002 7.819607e-002 1.110743e-002 3.649025e-003 2.143642e-002 1.942488e-002 7.505944e-003 1.799155e-002 7.308533e-003 1.857842e-002 7.807123e-003 3.673420e-002 6.152933e-003
<GCONST> -9.584952e+000
<MIXTURE> 4 1.132232e-001
<MEAN> 39
 -4.535078e+000 1.003343e+000 -4.172130e+000 -1.837867e+001 -1.784225e+000 -5.152508e+000 -3.519493e+000 -4.113005e+000 9.653935e+000 -3.896560e+000 -2.105135e+000 -1.361356e+000 6.396088e+001 -1.791996e+000 1.991319e+000 4.979562e-001 1.717583e+000 -4.231204e-001 2.780443e-001 -5.812742e-001 1.760722e-001 1.166359e-001 -6.260217e-001 3.990540e-001 1.157346e+000 -1.045097e+000 -6.586519e-001 6.411084e-003 -4.655107e-001 8.760572e-001 2.166364e-001 9.215663e-002 4.401026e-001 2.984698e-001 -8.393370e-001 -3.677366e-002 -2.209249e-001 -2.125732e-001 -1.617761e-001
<VARIANCE> 39
 2.768275e+001 4.189959e+000 2.538059e+000 1.369724e+001 3.789308e+001 4.022983e+000 1.604012e+000 7.788366e+000 5.344876e+000 7.409316e+000 3.613911e+000 2.929232e+000 2.645616e+001 1.757228e+000 7.683889e-002 3.483501e-001 1.975565e+000 5.663341e+000 4.000007e-001 8.614008e-001 1.336603e+000 1.536981e+000 2.906306e+000 7.633832e-001 2.473203e-001 5.105930e-001 1.443964e-001 6.530195e-002 1.003041e-001 2.306179e-001 1.244279e-001 2.216125e-002 1.687190e-002 3.529055e-002 1.435663e-001 1.053570e-001 5.440472e-002 3.358389e-002 2.609261e-002
<GCONST> 5.869262e+001
<MIXTURE> 5 2.053957e-001
<MEAN> 39
 -8.428084e+000 6.883152e+000 -9.724297e+000 -1.044666e+001 -2.242977e-001 -1.040849e+001 -3.566414e+000 -1.428496e+001 -1.722254e+000 -1.020978e+001 -9.627390e+000 -1.313811e+001 6.257927e+001 -1.439556e+000 2.639351e+000 -2.654887e+000 9.190590e-001 4.510749e-001 -2.392068e-001 5.155473e-001 -9.865822e-001 1.664316e+000 -2.312513e-001 -7.540046e-002 3.029430e-001 -2.594813e-001 5.936890e-002 -4.094422e-001 2.033232e-001 -8.027108e-002 -2.789946e-001 1.432443e-001 1.327923e-001 3.339922e-001 -3.957763e-001 4.103205e-002 1.186773e-001 -1.553356e-001 -2.757660e-001
<VARIANCE> 39
 2.640166e+000 1.345713e+001 5.093281e+001 3.533729e+001 3.839629e+001 2.349372e+001 1.257926e+001 2.157080e+001 1.608207e+001 6.998635e+001 4.111886e+001 5.731502e+001 4.725356e+000 2.233710e+000 1.049050e+000 1.127328e+000 2.393797e+000 2.111795e+000 2.241995e+000 2.819832e+000 1.148068e+000 3.094853e+000 6.659184e-001 4.799947e-001 2.122996e+000 1.450004e+000 3.441303e-001 1.048442e-001 2.250542e-001 4.998064e-001 5.465343e-001 3.895263e-001 7.248132e-002 3.055128e-001 1.033708e-001 1.281685e-001 8.528118e-002 3.626395e-001 1.299634e-001
<GCONST> 9.647794e+001
<MIXTURE> 6 1.284179e-001
<MEAN> 39
 -1.057124e+001 6.838686e+000 -6.771654e-001 -2.042911e+001 -1.449442e+000 -6.175868e+000 -2.950816e+000 -8.181505e+000 2.960510e+000 -3.198167e+000 3.833447e+000 2.257957e+000 6.597662e+001 -1.583286e+000 1.812626e+000 8.629781e-003 2.726767e+000 1.249465e+000 -6.126742e-001 6.316571e-001 -3.797344e-001 -2.272342e-001 4.365138e-001 4.974910e-001 2.459742e-001 -2.038556e+000 -6.255185e-001 -2.300129e-001 -5.342620e-001 4.873227e-001 -1.255596e-002 2.971586e-001 4.165125e-001 1.851701e-001 3.049015e-001 1.682167e-001 -2.761999e-001 -1.211403e-001 2.735283e-002
<VARIANCE> 39
 5.230697e+000 5.416587e+000 3.663919e+000 8.734597e+000 1.088167e+000 4.449764e+000 4.821913e+000 5.356828e+000 4.431411e-001 2.526008e+000 3.801482e+000 4.204716e+000 1.149224e+001 1.610819e+000 4.781769e-001 5.643830e-001 9.500731e-001 2.333977e-001 3.725914e-001 9.818476e-001 1.517916e-001 3.006559e-001 6.477588e-001 3.985043e-001 1.085366e-001 2.180987e-001 4.630804e-002 1.117740e-001 1.140160e-002 1.275081e-001 1.152968e-002 4.801745e-002 7.294195e-003 2.524837e-002 1.959031e-002 6.781090e-002 3.572321e-002 3.772975e-002 9.276789e-002
<GCONST> 3.360566e+001
<MIXTURE> 7 1.173542e-001
<MEAN> 39
 -7.484998e+000 2.622731e+000 -4.575936e+000 -1.739723e+001 -1.538962e+000 -5.697218e+000 -3.185557e+000 -4.780379e+000 9.067921e+000 -4.674957e+000 -6.737684e-001 -8.867362e-001 6.490663e+001 -1.811283e+000 1.812108e+000 2.943791e-001 2.321855e+000 -6.377156e-001 4.048824e-001 -2.402603e-001 -2.025642e-002 -6.603677e-001 -1.218369e-001 2.424787e-001 7.782807e-001 -1.323387e+000 -4.414906e-001 -9.721649e-002 -4.107904e-001 5.804892e-001 2.289684e-001 7.649213e-002 3.554007e-001 2.583821e-001 -6.808669e-001 -3.699809e-002 -2.079901e-001 -2.794767e-001 -2.062019e-001
<VARIANCE> 39
 1.503163e+001 8.765012e+000 2.506190e+000 3.040116e+001 3.161868e+001 3.032930e+000 1.141610e+000 4.328518e+000 5.330960e+000 9.202963e+000 2.339774e+000 3.352951e+000 3.354776e+001 2.754537e+000 4.254759e-002 8.206015e-001 1.885754e+000 6.399845e+000 8.480062e-001 9.478435e-001 1.254405e+000 1.272105e+000 1.413721e+000 8.281118e-001 2.798913e-001 3.926042e-001 8.340462e-002 1.181808e-001 1.205152e-001 1.526334e-001 1.793847e-001 2.411034e-002 2.532353e-002 3.509906e-002 2.178087e-001 1.850739e-001 5.301772e-002 4.151229e-002 3.353177e-002
<GCONST> 6.105593e+001
<STATE> 3
<NUMMIXES> 7
<MIXTURE> 1 9.755517e-002
<MEAN> 39
 -1.103622e+001 7.769599e+000 -5.593007e+000 -7.647478e+000 -3.965184e+000 -3.659952e+000 1.751448e+000 -8.772796e+000 -8.507986e-001 2.522237e+000 -2.674678e+000 3.453933e+000 6.828645e+001 -1.719990e+000 4.228236e-001 -1.107602e+000 9.984989e-001 2.821002e+000 5.866007e-001 2.597306e+000 1.479527e+000 7.872871e-001 -1.350042e+000 1.688929e+000 1.068051e+000 -1.369458e+000 1.959040e-001 -7.247103e-001 1.379298e-002 -4.642459e-001 -1.346748e-001 -5.220015e-002 8.149613e-002 5.523670e-001 2.084949e-001 -6.384473e-002 -1.214804e-002 -7.904539e-001 3.737826e-001
<VARIANCE> 39
 9.053427e+000 1.774380e+000 1.729049e+001 1.228943e+001 2.015948e+001 1.788397e+001 1.730632e+001 1.235024e+001 1.488395e+001 9.117744e+001 9.593353e+000 5.958717e+001 1.701367e+000 2.185648e-002 6.940762e-001 1.690005e+000 4.120495e-001 7.465417e-001 3.408035e-001 1.326849e-001 2.864138e+000 2.837802e-001 2.139688e+000 4.752220e-001 1.345988e+000 4.065721e-001 3.429495e-002 1.006291e-001 4.150856e-001 4.720512e-002 1.511067e-001 1.552164e-001 4.006580e-001 3.814439e-001 7.682262e-002 8.947933e-002 9.475236e-002 2.403026e-002 4.846109e-002
<GCONST> 6.710108e+001
<MIXTURE> 2 2.926853e-001
<MEAN> 39
 -7.765162e+000 1.571200e+001 -2.079925e+001 -9.948204e+000 -5.443234e+000 -1.255693e+001 -1.582055e+000 -1.656935e+001 1.763152e+000 -1.488485e+001 -1.270193e+001 -1.793486e+001 5.870999e+001 1.536413e-001 3.733052e-001 -1.599091e-001 1.532499e-001 -5.633137e-001 1.282875e-001 2.711332e-001 -1.999911e-001 1.934018e-001 -4.104652e-001 3.889250e-001 -3.630909e-001 -4.644239e-001 -6.462428e-003 -1.177264e-001 8.516613e-002 -1.003201e-001 1.747330e-001 -4.174677e-002 -2.501734e-002 -5.402118e-002 -1.345648e-001 -7.671084e-002 -5.887449e-002 -1.178126e-001 -1.445246e-002
<VARIANCE> 39
 6.091472e-001 1.617527e+000 1.240669e+000 1.278551e+000 6.387243e+000 2.220347e+000 3.287564e+000 4.667519e+000 2.179587e+000 6.098764e+000 5.764902e+000 4.118434e+000 2.366129e+000 2.468735e-002 5.907963e-002 6.647407e-002 1.039389e-001 4.273193e-001 1.523621e-001 6.167448e-002 3.787154e-001 2.704540e-001 5.484846e-001 8.727611e-002 1.730996e-001 5.480523e-002 6.740730e-003 1.065664e-002 2.034886e-002 1.975787e-002 1.188310e-002 3.659220e-002 2.029769e-002 4.347549e-002 2.325754e-002 7.460968e-002 3.068196e-002 3.996563e-003 8.752119e-003
<GCONST> 4.888748e+000
<MIXTURE> 3 1.463426e-001
<MEAN> 39
 -5.510377e+000 1.480299e+001 -1.934430e+001 -1.111429e+001 -2.367237e+000 -1.428902e+001 6.159011e-001 -2.024327e+001 6.924348e-001 -2.152460e+001 -1.481085e+001 -2.375089e+001 5.287308e+001 -1.622225e-001 -7.283131e-001 1.530277e+000 -3.164383e-001 1.761567e+000 -1.106372e+000 -5.348305e-001 5.478101e-001 -4.197097e-001 -2.564329e-001 -1.501178e+000 -6.517519e-001 -9.169694e-001 -3.372592e-001 -1.094393e-001 4.844946e-001 3.460111e-002 2.600747e-001 -9.925361e-002 -1.763757e-001 3.992285e-001 -1.819700e-001 2.012832e-001 4.121580e-002 2.399059e-001 -4.745926e-002
<VARIANCE> 39
 1.765209e+000 6.359702e+000 7.621501e+000 3.632945e+000 8.296248e+000 5.279960e+000 4.712306e+000 2.593544e+000 2.294452e+000 1.222381e+001 2.034419e+001 5.254210e+000 2.880391e+000 6.793270e-001 7.883397e-002 1.337709e+000 4.403258e-002 3.376913e-001 2.606579e-001 2.964358e-001 1.021872e+000 4.909284e-002 1.121404e-001 1.989991e-001 2.671085e-001 4.901518e-002 9.120105e-002 2.837273e-002 3.475304e-002 1.276274e-002 2.439803e-002 1.302643e-001 4.303765e-002 4.823034e-002 5.034395e-002 3.281949e-002 2.696785e-001 5.188848e-002 6.152933e-003
<GCONST> 3.085518e+001
<MIXTURE> 4 9.793905e-002
<MEAN> 39
 -1.984789e+001 1.124775e+001 -6.207952e+000 -4.422455e+000 3.457579e+000 -3.720492e+000 -2.142585e+000 -3.530494e+000 4.512767e+000 -1.519344e+000 5.140385e-001 1.417539e+000 5.888661e+001 -3.569312e+000 2.501946e-001 -1.730803e+000 2.793098e+000 1.101339e+000 7.838439e-001 5.971050e-001 2.949705e-001 -5.977937e-001 3.926075e-001 -1.135096e-001 2.096661e-001 -8.048639e-001 3.289103e-001 -5.616564e-001 5.414768e-002 -6.808407e-001 -5.412301e-001 7.387599e-002 1.772289e-002 -9.940241e-002 -9.456199e-002 -1.137998e-001 1.797163e-001 -3.160628e-002 3.482426e-001
<VARIANCE> 39
 2.057482e+001 1.707654e+001 3.159328e+001 4.245294e+001 6.606365e+000 5.608876e+001 1.259694e+001 4.151326e+001 6.173244e+000 2.107374e+001 2.827528e+001 2.115735e+001 2.555583e+000 2.569551e-001 5.466937e-001 4.659021e-001 1.737948e-001 4.164524e-001 2.649246e-001 1.490318e+000 8.794862e-001 3.058574e+000 2.328617e-001 2.717310e-001 6.643202e-001 1.550502e-001 3.897093e-001 3.720293e-002 1.519105e-001 7.547923e-002 5.113919e-002 6.767208e-002 6.644876e-002 2.114707e-002 7.661691e-002 2.300124e-001 2.862609e-002 1.118481e-001 1.014429e-002
<GCONST> 6.348046e+001
<MIXTURE> 5 1.219480e-001
<MEAN> 39
 -1.155689e+001 8.723016e+000 -5.010087e+000 -4.418140e+000 -2.777792e+000 -2.560112e+000 -1.026629e+000 -6.826471e+000 4.520575e+000 -5.719785e+000 -1.449246e+000 -2.898449e+000 6.013650e+001 -3.702587e+000 1.069137e+000 -2.084790e+000 2.560544e+000 2.431442e-001 8.221807e-001 9.206334e-001 1.703956e-001 -9.379634e-001 -5.740519e-001 -4.340647e-001 -5.405132e-001 -1.504913e+000 7.181963e-002 -7.798277e-001 -7.292337e-002 -9.175303e-001 3.621061e-001 -2.679935e-001 -2.654128e-001 2.626328e-001 1.067856e-003 2.506301e-002 -9.765431e-002 7.871355e-002 2.842729e-001
<VARIANCE> 39
 1.852790e+000 1.045617e+001 6.191332e-001 5.884174e+000 4.901870e+001 1.150851e+001 8.676090e+000 2.189606e+001 1.790683e+001 2.927245e+001 1.780237e+001 3.307820e+001 6.447267e+000 1.541933e+000 1.458660e+000 1.387682e+000 1.306049e+000 1.399511e+000 3.535037e-002 1.567621e+000 1.231698e+000 1.653758e+000 1.863076e-001 4.189249e-001 3.827952e-001 2.850100e-001 1.826256e-001 1.056276e-002 1.858278e-001 3.484299e-001 4.903857e-001 2.334136e-001 4.276473e-002 5.199816e-001 4.975307e-001 2.778788e-001 1.016627e-001 2.838263e-001 1.599118e-001
<GCONST> 7.449496e+001
<MIXTURE> 6 1.463449e-001
<MEAN> 39
 -1.271206e+001 7.607423e+000 -4.208701e+000 -6.523125e+000 -6.823269e+000 -9.219827e+000 -1.097951e+000 -1.433281e+001 2.337273e+000 5.598326e+000 -1.676950e+000 2.128492e-001 6.420155e+001 -2.234869e+000 8.620107e-001 -1.300092e+000 5.430268e-003 1.451490e+000 7.429608e-001 -2.571624e-001 9.368594e-001 3.959393e-001 -5.721236e-001 6.776596e-001 -1.752633e-001 -5.946318e-001 2.917705e-001 -8.978916e-001 1.539279e-001 -1.942270e-001 3.075815e-001 4.618074e-002 1.729142e-001 7.788439e-001 -2.868446e-001 -3.589725e-001 5.132723e-002 -4.156794e-001 -1.449405e-001
<VARIANCE> 39
 1.385129e+001 1.010227e+001 3.191585e+001 6.010204e+001 2.152252e+001 1.487302e+001 4.036689e+000 1.129806e+001 1.523557e+001 3.893156e+001 1.748813e+001 5.475548e+001 4.143300e+000 1.955420e+000 3.049188e+000 6.144243e-001 1.219762e+000 9.984947e-001 2.125893e+000 1.942377e+000 5.817265e-001 1.829079e+000 1.996495e+000 6.127107e-001 1.190603e+000 1.919632e+000 9.485447e-002 2.500848e-001 3.265285e-001 9.399512e-001 6.253675e-002 3.036485e-001 2.988121e-001 3.881789e-001 1.104565e-001 3.733620e-001 3.805633e-001 9.106607e-001 8.015431e-002
<GCONST> 9.462890e+001
<MIXTURE> 7 9.718493e-002
<MEAN> 39
 -1.934435e+001 8.544535e+000 -2.628723e+000 -6.804686e+000 3.313808e+000 -3.394317e+000 3.050879e+000 -5.919110e+000 7.270330e+000 2.825914e-001 1.541876e+000 2.274140e+000 5.934446e+001 -3.752705e+000 -7.739425e-001 -1.710203e+000 2.355339e+000 4.892275e-001 6.265121e-001 1.305249e+000 -2.771067e-001 -4.250932e-001 -2.853812e-002 -1.836260e-001 -6.378583e-001 -6.150318e-001 5.689489e-001 -4.737311e-001 -2.371994e-001 -6.518874e-001 -8.013288e-001 1.328110e-001 -2.572658e-001 -1.971582e-001 -3.912382e-001 -2.181296e-001 1.194746e-001 -3.683351e-001 2.643956e-001
<VARIANCE> 39
 2.214961e+001 1.370846e+001 2.359876e+001 2.390192e+001 6.135859e+000 1.860570e+001 1.670173e+001 4.270363e+001 2.634434e+000 3.760462e+001 2.829011e+001 1.151476e+001 1.646984e+000 3.056925e-001 8.014600e-001 5.733544e-001 4.686346e-001 1.257062e+000 2.162358e-001 1.387940e+000 1.015792e+000 1.483238e+000 2.572255e-001 1.678298e-001 9.574571e-001 8.903626e-002 2.032781e-001 4.096321e-002 2.102427e-001 5.504445e-002 8.540244e-002 4.548539e-002 5.071843e-002 6.590500e-002 3.120255e-002 1.584337e-001 6.955721e-003 2.215202e-001 6.152933e-003
<GCONST> 5.965107e+001
<STATE> 4
<NUMMIXES> 7
<MIXTURE> 1 1.877111e-001
<MEAN> 39
 -2.099288e+001 3.851105e+000 -7.431168e+000 -5.958350e+000 1.530357e+000 -4.101427e+000 8.519198e+000 -7.019789e+000 2.659926e+000 -3.064320e+000 3.880429e+000 -4.008224e+000 6.073477e+001 6.534990e-001 -7.425928e-001 2.142206e-001 -2.655441e-001 3.204759e-001 -3.467521e-001 6.614592e-001 4.308774e-001 1.259617e-001 4.217244e-001 6.800514e-001 4.513066e-002 -5.163764e-002 8.968874e-001 -1.151432e-001 5.538453e-001 -2.775040e-001 -5.262197e-001 -9.158473e-002 -6.381702e-001 -2.456487e-001 -5.893558e-002 2.561568e-001 -3.923656e-001 3.577242e-002 3.908022e-001
<VARIANCE> 39
 5.697802e+001 3.352556e+001 1.116273e+001 1.979671e+001 3.077624e+001 1.272546e+001 4.242398e+001 4.384698e+001 9.470866e+000 2.773956e+001 1.073413e+001 4.413005e+001 3.208943e+001 6.438014e+000 4.903869e-001 1.431287e+000 2.514059e+000 1.501369e+000 1.142196e+000 1.341596e+000 2.024276e+000 4.034494e-001 1.062323e+000 6.186807e-001 2.238214e+000 1.246108e+000 3.990594e-001 3.023951e-001 8.707203e-002 1.840160e-001 4.058644e-001 8.600177e-002 1.967683e-001 8.188374e-001 3.050901e-002 1.131930e-001 1.499170e-001 3.506309e-001 1.571130e-001
<GCONST> 9.510203e+001
<MIXTURE> 2 1.048208e-001
<MEAN> 39
 -1.088034e+001 3.430252e+000 -1.865144e+000 -1.320862e+001 -5.102544e+000 -7.735326e+000 5.427317e-002 -1.068471e+001 2.845046e+000 8.411815e-001 -3.773364e-002 -2.979580e+000 6.790504e+001 2.013367e+000 -1.147385e+000 9.146885e-001 -8.557609e-001 -2.115809e+000 -1.326445e-001 -7.020716e-001 -7.566780e-001 -1.199565e-001 -1.379668e-001 1.087993e-001 -9.898516e-001 1.076857e+000 -1.127501e-001 -3.977268e-001 -2.188283e-001 4.593214e-001 2.465642e-003 3.346887e-001 3.047133e-001 4.855452e-001 -8.217415e-002 -1.841100e-001 1.219411e-001 1.316886e-001 -1.838599e-001
<VARIANCE> 39
 5.461241e+001 1.965356e+001 2.386826e+001 2.096704e+001 4.736339e+001 5.883448e+000 2.151353e+001 2.629537e+001 4.882688e+000 1.888929e+001 2.574562e+001 9.949969e+000 1.495125e+001 1.840588e+000 1.660246e+000 1.698861e+000 1.758207e+000 2.052301e+000 1.514384e+000 1.927158e+000 3.883368e+000 4.570466e-001 1.485512e+000 1.498347e+000 9.628979e-001 2.172844e+000 2.000216e-001 1.080406e-001 1.486706e-001 2.418813e-001 2.804405e-001 2.419265e-001 2.114361e-001 3.561058e-001 1.069055e-001 1.793911e-001 1.257028e-001 9.223887e-002 1.172242e-001
<GCONST> 9.273596e+001
<MIXTURE> 3 1.173225e-001
<MEAN> 39
 -2.368033e+001 2.742404e+000 -1.325427e+001 -4.896344e+000 3.748519e-001 -1.440374e+000 -3.235174e+000 -2.511683e+000 -1.078840e+000 -3.978168e+000 -1.341068e+000 1.346557e+000 5.908435e+001 1.865397e-001 1.609186e-001 -2.283970e-001 -3.024904e-001 2.005966e-001 -5.301672e-001 1.848620e-001 4.641935e-001 -1.292565e-001 4.596933e-001 -2.759425e-002 5.004395e-001 1.812139e-001 5.072437e-001 3.302969e-001 3.903332e-001 -9.109733e-002 -1.201701e-001 -2.986160e-001 5.440902e-002 -1.409449e-001 4.892302e-001 5.648780e-002 1.822785e-001 -1.332984e-001 1.420442e-001
<VARIANCE> 39
 6.726247e+000 2.397979e+001 1.576173e+001 2.619502e+001 6.096107e+000 1.758632e+001 1.801706e+001 3.291471e+001 1.136510e+001 7.337285e+000 1.003119e+001 6.628343e+001 6.965111e+000 3.158889e-001 3.390253e-001 2.707017e-001 5.569078e-001 5.255663e-001 2.943701e-001 6.275566e-001 3.794498e-001 3.997027e-001 5.871227e-001 9.792817e-001 1.772778e-001 4.901518e-002 8.453415e-002 8.917058e-002 5.508307e-002 1.284901e-001 7.639912e-002 2.478837e-002 7.181105e-002 1.488580e-002 9.584186e-002 1.178929e-001 8.428356e-002 1.485946e-001 2.023291e-002
<GCONST> 5.735180e+001
<MIXTURE> 4 1.877941e-001
<MEAN> 39
 -2.307809e+001 3.726756e+000 -1.134637e+001 -5.586669e+000 -7.364931e-001 -3.725409e+000 -5.691087e-002 -4.883952e+000 3.327245e+000 -3.458498e+000 -8.048829e-002 -8.147765e-001 6.027284e+001 -1.450658e+000 -1.047705e+000 -9.146626e-001 -2.016540e-001 -1.219739e-001 5.970640e-001 2.858818e-003 2.390337e-001 -4.036406e-001 -4.864533e-001 -5.619714e-002 -4.694292e-001 -5.027955e-001 5.818796e-001 1.176727e-002 2.083682e-001 -2.944694e-001 5.303015e-002 -2.807135e-001 -1.622228e-001 -5.328262e-002 -1.019670e-001 1.751123e-001 -4.466125e-002 1.138326e-001 2.849678e-002
<VARIANCE> 39
 1.933736e+001 2.835631e+001 1.980924e+001 5.900657e+000 1.243472e+001 5.701381e+000 2.304753e+001 1.870285e+001 1.948619e+001 7.819004e+000 3.235536e+001 2.666899e+001 9.493522e+000 9.496055e-001 1.388475e-001 1.150782e+000 5.013207e-001 1.350924e+000 3.998415e-001 3.292025e-001 9.313207e-001 9.163090e-001 5.159792e-001 3.659620e-001 8.623180e-001 1.851290e-001 1.760530e-001 9.093363e-002 1.122879e-001 1.432773e-001 1.995069e-001 5.161967e-002 8.215298e-002 5.505581e-002 1.302539e-001 1.367652e-001 1.533567e-001 5.692735e-002 4.715087e-002
<GCONST> 6.908473e+001
<MIXTURE> 5 1.838181e-001
<MEAN> 39
 -2.012546e+001 5.089072e+000 -8.434560e+000 -7.513328e+000 2.953702e+000 -6.121584e+000 -8.578976e-001 -3.142705e+000 3.332221e-001 -6.769072e+000 -2.129531e+000 -5.381182e+000 5.761998e+001 1.968690e+000 -8.932804e-001 9.805056e-001 -1.968002e+000 -3.250360e-001 -5.062657e-001 -4.467625e-001 -6.579102e-001 1.323335e-001 -9.644227e-002 -9.076709e-001 -7.033699e-001 1.008753e+000 6.242505e-001 -2.905366e-001 -3.144921e-002 -4.907033e-001 -3.473919e-001 -8.654237e-002 -1.538868e-001 -2.268716e-001 1.013903e-002 1.232244e-001 1.951383e-002 1.734845e-001 5.741347e-001
<VARIANCE> 39
 2.666443e+001 1.855788e+001 4.461159e+001 3.476298e+001 1.119104e+001 4.529276e+001 1.357684e+001 4.558992e+001 9.344215e+000 3.383488e+001 5.964110e+001 7.525061e+001 2.858088e+001 2.251530e+000 1.735535e+000 1.365968e+000 1.652229e+000 1.003947e+000 4.139400e-001 5.755562e-001 1.484368e+000 1.114287e+000 1.450587e+000 6.870996e-001 5.359953e-001 1.776083e+000 2.536261e-001 2.424985e-001 2.414961e-001 4.731834e-001 1.053608e-001 3.494475e-001 8.437102e-002 2.093060e-001 1.578864e-001 3.228420e-001 3.362849e-001 2.088600e-001 3.325121e-001
<GCONST> 9.757000e+001
<MIXTURE> 6 1.143301e-001
<MEAN> 39
 -2.220366e+001 2.814897e+000 -1.544008e+001 -4.553205e+000 7.026055e-001 -6.382870e+000 -3.332730e+000 -2.164580e+000 3.255677e+000 -3.693645e+000 1.575199e+000 -4.935962e-002 5.966579e+001 9.157362e-002 4.885445e-001 3.282129e-001 -3.973686e-001 -1.298233e-001 -8.182101e-001 4.223922e-001 -5.909587e-002 2.991657e-001 -6.840929e-003 2.295343e-001 -4.594727e-001 2.782273e-001 2.354020e-001 -1.773916e-001 2.473491e-001 -3.529901e-001 -1.657403e-002 -3.727895e-003 1.701695e-001 -1.265672e-001 -6.212504e-002 -1.842173e-001 -3.373992e-001 -4.526565e-001 2.764260e-002
<VARIANCE> 39
 4.945360e+000 1.098542e+001 7.734260e+000 1.563317e+001 6.659618e+000 2.461610e+001 6.484325e+000 2.876313e+001 2.267137e+001 1.452475e+001 7.185976e+001 3.357389e+001 9.812069e+000 5.836265e-001 4.039079e-001 4.889803e-001 4.426552e-001 2.537188e-001 2.631518e-001 4.711456e-001 1.789611e-001 1.037992e+000 5.701486e-001 1.787344e+000 1.071151e+000 4.901518e-002 2.791232e-001 6.285391e-002 4.547181e-002 6.950071e-002 7.292451e-002 6.209652e-002 1.020242e-001 5.216595e-002 1.652171e-001 9.342735e-002 3.033160e-001 5.143341e-002 3.993721e-002
<GCONST> 6.363299e+001
<MIXTURE> 7 1.042033e-001
<MEAN> 39
 -1.122972e+001 4.710314e+000 -1.691761e+000 -1.374811e+001 -4.188879e+000 -7.504205e+000 -1.437826e+000 -9.463189e+000 1.954864e+000 -5.316175e-001 -1.553375e+000 -2.559791e+000 6.681053e+001 2.148525e+000 -9.674942e-001 1.033924e+000 -1.179808e+000 -1.784800e+000 -2.007986e-001 -5.974272e-001 -9.080086e-001 -6.084364e-002 -3.517299e-001 -2.519099e-001 -1.101580e+000 1.134868e+000 -2.335439e-001 -3.869299e-001 -2.715087e-001 4.291784e-001 -8.104995e-003 2.407480e-001 2.360936e-001 3.815548e-001 -6.453050e-002 -9.033005e-002 1.351737e-001 4.342341e-002 -1.733104e-001
<VARIANCE> 39
 2.802992e+001 2.196713e+001 3.575116e+001 1.911443e+001 2.963292e+001 5.426615e+000 2.217101e+001 2.882138e+001 5.365822e+000 2.578870e+001 2.266355e+001 1.163723e+001 2.146466e+001 1.891522e+000 1.743948e+000 1.354322e+000 2.020596e+000 2.679925e+000 1.281106e+000 2.626485e+000 3.509458e+000 5.263612e-001 1.619997e+000 1.200761e+000 1.195957e+000 2.689873e+000 1.829001e-001 1.118327e-001 1.841246e-001 1.792457e-001 1.874921e-001 1.984727e-001 2.741063e-001 2.953061e-001 1.040617e-001 2.011331e-001 9.172176e-002 9.171965e-002 1.485527e-001
<GCONST> 9.292822e+001
<TRANSP> 5
 0.000000e+000 1.000000e+000 0.000000e+000 0.000000e+000 0.000000e+000
 0.000000e+000 6.919087e-001 3.080913e-001 0.000000e+000 0.000000e+000
 0.000000e+000 0.000000e+000 7.073219e-001 2.926781e-001 0.000000e+000
 0.000000e+000 0.000000e+000 0.000000e+000 8.584750e-001 1.415249e-001
 0.000000e+000 0.000000e+000 0.000000e+000 0.000000e+000 0.000000e+000
<ENDHMM>
~h "b"
<BEGINHMM>
<NUMSTATES> 5
<STATE> 2
<NUMMIXES> 7
<MIXTURE> 1 1.426620e-001
<MEAN> 39
 4.068424e+000 3.819522e+000 4.093039e+000 -1.151308e+000 2.512647e+000 -1.112648e+000 1.948544e+000 -2.412968e+000 -3.607295e-001 -3.551021e+000 2.436997e+000 -1.945229e+000 4.807552e+001 -7.179150e-001 1.956763e-001 2.368616e-002 3.245536e-001 1.276258e-001 1.111721e-001 2.875816e-001 -2.767202e-002 7.269464e-002 -1.271093e-002 5.386846e-002 1.030992e-001 -8.966228e-001 -2.323970e-001 -4.677716e-001 -1.955898e-001 -4.607028e-002 -2.451274e-001 -4.677898e-001 -3.525527e-001 -1.063705e-001 2.944982e-001 8.461826e-002 -3.019452e-002 -9.931491e-002 5.894716e-001
<VARIANCE> 39
 1.883588e+001 1.689802e+001 3.743075e+001 3.281581e+001 4.159422e+001 3.037878e+001 3.908994e+001 5.656185e+001 6.277793e+001 4.505729e+001 4.597697e+001 1.853779e+001 8.898602e+001 9.473810e-001 9.840264e-001 1.440422e+000 1.226917e+000 8.417868e-001 1.294985e+000 1.540170e+000 1.481755e+000 1.324932e+000 1.307188e+000 1.560050e+000 1.143727e+000 6.444504e-001 1.585014e-001 1.130769e-001 1.666061e-001 2.481237e-001 2.109059e-001 3.285741e-001 2.857567e-001 3.788994e-001 3.653105e-001 3.128701e-001 2.922248e-001 1.837897e-001 2.259738e-001
<GCONST> 1.019994e+002
<MIXTURE> 2 1.197277e-001
<MEAN> 39
 -6.732652e-001 5.452111e+000 4.675914e+000 3.399910e+000 3.717886e+000 -6.014836e+000 -3.650218e+000 -5.228839e+000 5.580716e-001 -5.272038e+000 1.613477e+000 -3.317285e+000 4.123136e+001 -1.480790e+000 -1.274102e-001 -6.803486e-002 -3.335050e-001 -1.534168e-001 9.781911e-001 4.904781e-001 -2.712959e-002 2.280549e-001 3.698787e-001 -1.124025e-001 1.846136e-001 2.280149e-001 -1.416934e-001 -9.972811e-001 -9.831707e-001 -9.906935e-001 -7.214115e-001 -1.839250e-001 3.093378e-001 2.714911e-001 -5.088192e-003 2.412303e-001 4.780581e-002 -6.428874e-002 1.900456e+000
<VARIANCE> 39
 8.191163e+000 7.039600e+000 1.521863e+001 6.267253e+000 1.740970e+001 2.386635e+001 1.740810e+001 2.304315e+001 2.501444e+001 2.013853e+001 2.150073e+001 1.296611e+001 9.165900e+000 1.025423e+000 1.216265e+000 2.019265e+000 1.154639e+000 1.202115e+000 9.765597e-001 8.280683e-001 1.493412e+000 8.817879e-001 9.510561e-001 1.205325e+000 7.008460e-001 3.527556e+000 1.767568e-001 2.822427e-001 3.594766e-001 2.413226e-001 2.985019e-001 2.395972e-001 2.781349e-001 2.834869e-001 3.173909e-001 2.459566e-001 2.411270e-001 1.653696e-001 2.527366e-001
<GCONST> 9.096922e+001
<MIXTURE> 3 1.037898e-001
<MEAN> 39
 -1.133775e+001 -3.210110e+000 -1.510264e+000 -2.297541e+000 6.287314e-001 -2.723653e+000 1.306381e+000 -1.623586e+000 9.400318e-001 -3.170528e+000 1.630145e+000 -2.906304e+000 4.153240e+001 -2.827466e-001 -3.258360e-001 -5.454392e-002 -1.184785e-001 8.931249e-002 9.678443e-002 2.457235e-001 2.113472e-001 3.214659e-001 2.108128e-001 2.867239e-001 1.684653e-001 1.641586e-001 2.956266e-001 1.049432e-001 5.208674e-002 1.256116e-002 -7.798415e-002 -1.367757e-001 -1.129119e-001 -1.618525e-002 8.553647e-002 3.440682e-002 -3.544387e-002 6.624945e-002 8.074629e-001
<VARIANCE> 39
 8.535557e+000 6.031792e+000 6.406367e+000 6.198849e+000 1.075701e+001 1.837934e+001 2.278238e+001 2.128798e+001 1.797388e+001 2.152634e+001 2.285856e+001 2.325208e+001 5.398677e+001 5.958628e-001 4.680195e-001 6.440088e-001 5.670634e-001 6.833601e-001 9.961557e-001 7.630054e-001 8.463396e-001 6.524354e-001 8.871119e-001 5.805485e-001 6.981399e-001 9.403766e-001 1.091338e-001 9.186989e-002 8.768003e-002 1.418248e-001 1.344461e-001 1.820575e-001 1.934843e-001 1.768509e-001 1.932305e-001 2.248508e-001 1.433084e-001 1.281658e-001 6.763766e-001
<GCONST> 7.877687e+001
<MIXTURE> 4 2.114614e-001
<MEAN> 39
 1.603806e+000 1.638229e+000 -1.496548e+000 -9.356453e-001 4.814939e+000 -5.198328e+000 -5.452018e+000 -7.245968e+000 -1.501544e+000 -6.107006e+000 -1.230690e+000 -6.208197e+000 4.719529e+001 -1.093348e+000 -7.777537e-001 -9.640352e-001 -1.003133e+000 -1.058490e+000 -1.000934e-001 9.974981e-001 1.070383e-002 4.625908e-001 6.954862e-001 2.057025e-001 4.109396e-001 2.023728e+000 -8.526525e-002 -6.534002e-001 -5.340987e-001 -6.003427e-001 -5.737290e-001 -4.310674e-001 9.496598e-002 2.903263e-001 3.151002e-001 1.701959e-001 1.129641e-001 1.614645e-002 1.481700e+000
<VARIANCE> 39
 2.460176e+001 2.649187e+001 3.405257e+001 3.711098e+001 4.583188e+001 3.639777e+001 3.831828e+001 5.340852e+001 3.333919e+001 5.970895e+001 4.369084e+001 3.062779e+001 2.614303e+001 1.401135e+000 1.643996e+000 3.238065e+000 2.598162e+000 2.034123e+000 2.084127e+000 3.328268e+000 2.766073e+000 2.377950e+000 2.367424e+000 1.987352e+000 1.434811e+000 2.891557e+000 2.774100e-001 3.281604e-001 5.473564e-001 4.985683e-001 4.750620e-001 3.660407e-001 6.509506e-001 6.857791e-001 3.749253e-001 4.629607e-001 3.426075e-001 2.754208e-001 3.491096e-001
<GCONST> 1.174519e+002
<MIXTURE> 5 1.643654e-001
<MEAN> 39
 4.135134e-001 5.489841e+000 5.441853e+000 5.715120e-001 6.257468e-002 -6.608206e+000 -4.677857e+000 -5.277221e+000 5.023265e-002 -2.249295e+000 6.595572e-001 -3.977125e+000 4.334877e+001 -1.018735e+000 -6.770537e-001 -2.867663e-001 1.508866e-001 -3.128691e-002 3.116613e-001 5.070361e-001 2.921316e-001 2.353361e-001 -2.160718e-001 -1.842625e-001 -1.687194e-001 -5.666541e-001 1.602240e-002 -3.134938e-001 -3.253080e-001 -2.867092e-001 -5.714254e-002 -1.062701e-001 1.310453e-002 1.691609e-001 3.714954e-002 -1.702001e-002 5.064995e-002 1.994232e-002 5.221878e-001
<VARIANCE> 39
 1.352177e+001 1.153384e+001 2.535662e+001 1.707642e+001 2.800302e+001 4.172911e+001 4.156052e+001 2.883049e+001 2.089439e+001 2.084842e+001 2.888253e+001 2.071656e+001 5.438469e+001 6.915857e-001 6.433703e-001 7.621890e-001 1.266117e+000 6.856456e-001 1.112236e+000 1.251661e+000 1.633924e+000 1.056647e+000 9.475315e-001 1.230865e+000 8.941195e-001 5.083985e-001 7.562834e-002 1.594232e-001 3.136933e-001 2.236549e-001 2.129370e-001 2.079487e-001 3.143327e-001 2.364174e-001 1.622151e-001 2.339288e-001 2.770407e-001 2.048426e-001 1.507589e-001
<GCONST> 9.161164e+001
<MIXTURE> 6 1.507095e-001
<MEAN> 39
 -5.001970e+000 4.688762e+000 4.990075e+000 3.882114e+000 3.641115e+000 -2.893239e+000 -1.283384e+000 -4.765048e+000 -1.562203e-001 -4.983644e+000 1.225727e-001 -3.838735e+000 3.774599e+001 -1.738190e+000 -1.881435e+000 -1.339508e+000 -1.562130e+000 -9.861038e-001 1.884346e-001 8.563573e-001 4.865304e-001 3.025295e-001 4.053577e-001 1.947163e-001 1.083819e-001 2.483585e+000 4.531505e-001 -7.689902e-001 -7.578954e-001 -8.489752e-001 -5.402849e-001 -5.566887e-001 2.730995e-002 5.536254e-002 1.232709e-001 1.210678e-001 7.993747e-002 -6.329444e-002 1.775381e+000
<VARIANCE> 39
 1.225584e+001 8.004940e+000 8.879436e+000 1.298833e+001 1.570090e+001 1.519211e+001 1.928199e+001 2.136198e+001 1.924311e+001 2.325635e+001 1.901099e+001 1.909203e+001 8.182956e+000 1.350460e+000 9.146655e-001 1.637489e+000 1.459659e+000 1.240110e+000 1.491117e+000 1.243848e+000 2.359806e+000 1.090660e+000 1.286091e+000 1.268645e+000 1.002271e+000 4.457088e+000 2.008051e-001 3.230155e-001 3.339445e-001 2.166693e-001 2.459064e-001 2.656437e-001 2.664555e-001 3.549278e-001 2.175577e-001 3.242686e-001 2.301848e-001 2.006619e-001 3.561540e-001
<GCONST> 9.424634e+001
<MIXTURE> 7 1.072847e-001
<MEAN> 39
 -1.284865e+001 -4.041991e+000 -2.347630e+000 -2.865556e+000 1.884064e-001 -3.620148e+000 1.156963e+000 -2.615843e+000 6.428730e-001 -4.371959e+000 8.663427e-001 -3.402797e+000 3.830700e+001 -5.035566e-001 -5.302470e-001 -2.374125e-001 -3.968361e-001 -1.776751e-001 -4.498619e-003 -1.601268e-001 -7.472286e-002 1.645134e-001 5.607263e-002 -1.256236e-001 -2.126453e-001 -2.662077e-001 2.592712e-001 3.521010e-002 -4.556140e-002 -1.412109e-001 -1.411586e-001 -1.190849e-001 -1.038003e-001 -8.199245e-002 4.122285e-002 -2.879331e-002 -6.085037e-002 8.044469e-002 1.101209e+000
<VARIANCE> 39
 6.496850e+000 6.307469e+000 5.749986e+000 8.684961e+000 1.086189e+001 1.674704e+001 2.203678e+001 2.089986e+001 1.782373e+001 1.960835e+001 2.411901e+001 2.120828e+001 5.409802e+001 9.137866e-001 5.954120e-001 7.946074e-001 8.316832e-001 7.618427e-001 7.404993e-001 7.142067e-001 8.717481e-001 6.270798e-001 7.906881e-001 7.508983e-001 8.650973e-001 9.749265e-001 1.170619e-001 1.137491e-001 1.020592e-001 1.709221e-001 1.543015e-001 1.308475e-001 2.274032e-001 1.469060e-001 1.523934e-001 1.831914e-001 1.853639e-001 1.404112e-001 9.299671e-001
<GCONST> 8.052532e+001
<STATE> 3
<NUMMIXES> 7
<MIXTURE> 1 1.774365e-001
<MEAN> 39
 -6.790676e+000 -2.265110e+000 1.579531e+000 -2.513784e+000 1.674622e+000 -5.176070e+000 5.594682e-001 -1.306943e+000 2.555526e+000 -3.582201e+000 8.485036e-001 -5.153434e+000 5.080976e+001 7.459067e-001 -1.333309e+000 -9.095352e-001 1.349136e-002 -7.783333e-001 -1.205641e+000 -1.037241e+000 1.559929e-001 8.494778e-001 2.456445e-001 -3.929609e-002 -9.261722e-002 1.921479e+000 7.957967e-001 -1.410867e-001 -1.757063e-001 1.402973e-001 -3.694214e-001 -3.706942e-001 -3.625047e-001 -1.123275e-001 9.080748e-002 1.725199e-001 -1.324749e-001 1.188097e-001 3.729613e-001
<VARIANCE> 39
 1.276357e+001 1.620550e+001 2.122631e+001 2.900528e+001 1.792023e+001 2.965449e+001 3.794462e+001 2.233429e+001 2.425331e+001 2.471301e+001 1.847877e+001 2.548772e+001 4.489882e+001 2.993209e+000 1.209395e+000 1.168445e+000 1.539777e+000 1.183010e+000 1.239233e+000 1.886703e+000 1.617457e+000 1.206607e+000 2.828310e+000 1.127831e+000 7.315719e-001 1.498650e+000 1.877302e-001 2.081138e-001 2.162070e-001 2.937346e-001 1.999211e-001 2.031873e-001 3.023332e-001 2.940135e-001 1.696798e-001 3.136238e-001 2.174509e-001 1.729595e-001 1.945966e-001
<GCONST> 9.814305e+001
<MIXTURE> 2 1.435222e-001
<MEAN> 39
 3.843399e-001 3.111528e+000 3.741552e+000 7.766047e-001 1.741350e+000 -2.678866e+000 -1.113597e+000 -2.728693e+000 1.782363e-002 -2.709516e+000 1.581812e+000 -2.606568e+000 4.771001e+001 -3.574280e-001 -1.654372e+000 -1.629645e+000 -7.758049e-001 -5.060260e-001 -1.555311e+000 -4.601058e-001 2.383853e-001 1.051261e+000 2.602392e-001 -4.471449e-001 3.361188e-001 2.385837e+000 4.980825e-001 -3.176522e-001 -4.010361e-001 -3.312012e-001 -1.723014e-001 -3.863338e-001 -3.406648e-001 2.642446e-002 2.453497e-001 1.436409e-001 -6.912503e-002 1.343666e-002 9.199970e-001
<VARIANCE> 39
 1.837148e+001 1.378174e+001 4.979398e+001 2.466739e+001 4.680198e+001 5.450849e+001 6.782927e+001 3.634785e+001 3.339138e+001 3.911999e+001 3.751271e+001 2.371638e+001 1.165535e+002 1.381207e+000 1.122525e+000 3.038328e+000 2.226365e+000 2.821615e+000 1.757915e+000 2.546446e+000 3.209571e+000 3.151370e+000 1.395690e+000 3.338233e+000 1.257182e+000 2.490072e+000 1.963638e-001 1.133311e-001 4.957553e-001 2.348495e-001 3.515261e-001 2.821620e-001 2.356966e-001 5.180855e-001 3.850922e-001 1.953257e-001 3.890266e-001 1.393328e-001 1.308755e-001
<GCONST> 1.106785e+002
<MIXTURE> 3 2.031450e-001
<MEAN> 39
 -1.366278e+001 -3.354656e+000 -2.424159e+000 -1.967468e+000 1.798295e-001 -3.258917e+000 1.149617e+000 -1.784860e+000 1.445426e+000 -3.450144e+000 1.361373e+000 -2.949043e+000 3.450312e+001 3.439576e-001 -5.295600e-001 -2.453490e-001 -1.368874e+000 -6.955492e-001 -1.204777e-001 -1.265455e-001 -5.812074e-002 4.526725e-001 3.283867e-001 -1.432742e-001 1.390183e-001 4.091694e+000 6.817954e-001 1.166051e-001 -2.891653e-001 -5.441986e-001 -1.387695e-001 -3.119626e-001 -1.616856e-001 -1.753653e-001 -4.880320e-002 -2.324494e-002 -1.341083e-001 -1.503345e-001 1.798360e+000
<VARIANCE> 39
 3.117597e+000 7.072644e+000 7.819022e+000 9.920238e+000 1.085412e+001 1.485290e+001 1.910498e+001 1.653599e+001 1.382081e+001 1.984779e+001 1.773656e+001 1.451725e+001 4.346835e+000 1.026054e+000 1.231855e+000 1.790999e+000 1.934583e+000 1.222269e+000 9.553593e-001 1.386470e+000 9.736430e-001 1.516632e+000 1.380407e+000 9.255360e-001 8.478126e-001 2.648429e+000 1.649216e-001 2.870406e-001 3.197780e-001 1.977746e-001 1.885442e-001 1.925168e-001 2.384973e-001 2.862459e-001 1.653188e-001 2.083470e-001 1.715887e-001 1.651680e-001 3.930828e-001
<GCONST> 8.631982e+001
<MIXTURE> 4 1.075166e-001
<MEAN> 39
 -6.392443e+000 -2.611364e+000 -2.403775e+000 -4.426624e+000 -1.316358e+000 -5.738503e+000 -7.479796e-001 -4.127856e+000 1.550539e+000 -2.887946e+000 5.420027e-001 -3.396794e+000 5.659566e+001 -2.337162e-001 -1.760293e+000 -1.946687e+000 -2.241726e+000 -1.488885e+000 -3.723264e-001 1.070272e+000 3.609730e-001 8.489974e-001 8.616813e-001 1.748867e-001 -7.400608e-002 5.032157e+000 2.821679e-001 -1.427641e-001 -1.124509e-001 -2.329696e-001 2.739979e-002 -1.229450e-001 4.639573e-003 6.149300e-003 -4.064713e-002 -9.576108e-002 2.147679e-002 -1.075321e-001 4.161812e-001
<VARIANCE> 39
 2.146037e+001 1.855187e+001 3.564388e+001 3.017341e+001 2.770033e+001 2.939873e+001 3.076638e+001 3.544032e+001 2.988308e+001 3.031717e+001 2.531758e+001 1.987649e+001 3.552148e+001 1.581652e+000 2.166176e+000 5.828440e+000 4.095955e+000 3.353082e+000 1.963301e+000 3.582938e+000 3.426214e+000 2.986939e+000 3.048922e+000 2.979129e+000 2.748695e+000 3.832803e+000 1.960432e-001 1.661301e-001 3.026358e-001 2.821698e-001 2.757233e-001 2.120802e-001 3.093870e-001 4.005211e-001 2.460024e-001 1.843562e-001 2.091070e-001 2.552679e-001 2.068281e-001
<GCONST> 1.109814e+002
<MIXTURE> 5 1.433272e-001
<MEAN> 39
 -1.375479e+001 -4.614579e+000 -2.788696e+000 -3.480643e+000 -2.988266e-001 -2.907979e+000 1.514198e+000 -2.582606e+000 1.102710e+000 -1.882826e+000 2.007377e+000 -2.377294e+000 4.336393e+001 9.032864e-001 -1.976299e+000 -1.701479e+000 -1.443731e+000 -1.379069e+000 -7.310595e-001 4.312135e-001 4.356606e-001 7.616992e-002 8.477946e-002 -3.366315e-001 -2.237427e-001 4.967290e+000 1.071614e+000 -2.530265e-001 -4.118099e-001 -1.142446e-001 -1.496117e-001 -3.941437e-001 -1.012826e-001 7.310423e-003 -7.516880e-002 -1.293422e-001 -2.542833e-001 -1.895554e-001 1.088236e+000
<VARIANCE> 39
 7.506470e+000 1.079466e+001 7.751068e+000 1.910907e+001 1.925205e+001 2.264445e+001 1.146219e+001 1.764233e+001 1.441210e+001 1.881288e+001 1.712786e+001 1.178436e+001 5.387458e+001 2.507570e+000 1.463061e+000 1.858563e+000 1.185538e+000 1.024740e+000 1.759035e+000 1.332888e+000 1.689272e+000 1.609367e+000 9.876964e-001 9.811737e-001 8.507751e-001 2.999147e+000 2.364187e-001 2.299402e-001 2.991655e-001 2.120294e-001 4.021963e-001 2.310482e-001 2.500573e-001 3.828473e-001 3.695716e-001 2.053518e-001 2.434106e-001 2.887522e-001 2.861435e-001
<GCONST> 9.534863e+001
<MIXTURE> 6 1.190029e-001
<MEAN> 39
 -8.680505e-001 2.167393e+000 6.587690e-001 -3.727617e+000 2.985703e-001 -8.977682e+000 -3.799365e+000 -6.703327e+000 -9.987058e-001 -2.316568e+000 6.817988e-001 -7.842669e-001 4.451495e+001 3.661879e-001 -2.039720e+000 -3.212856e+000 -1.463362e+000 2.163096e-001 -3.919805e-001 4.667434e-001 3.079852e-001 7.064233e-001 3.577702e-001 -3.175625e-001 -2.139467e-001 3.583689e+000 4.715993e-001 -3.759489e-001 -6.897445e-001 1.520284e-001 1.347529e-002 6.636199e-002 -1.797289e-001 1.165031e-001 2.477905e-001 -1.850172e-001 -1.592398e-001 -2.930299e-001 8.415317e-001
<VARIANCE> 39
 1.821170e+001 4.194367e+001 4.491841e+001 9.402046e+001 7.529369e+001 6.694159e+001 6.578864e+001 3.770905e+001 5.346436e+001 3.861354e+001 3.146860e+001 3.586642e+001 9.065685e+001 2.309753e+000 2.926369e+000 4.229319e+000 3.136209e+000 4.297992e+000 2.389821e+000 5.677679e+000 5.576433e+000 3.312292e+000 3.121428e+000 1.858879e+000 2.129646e+000 3.392888e+000 2.782423e-001 3.796064e-001 4.113702e-001 5.672336e-001 4.697041e-001 5.616885e-001 5.010342e-001 3.892102e-001 6.519508e-001 3.056494e-001 3.732946e-001 2.197344e-001 3.007206e-001
<GCONST> 1.254023e+002
<MIXTURE> 7 1.060489e-001
<MEAN> 39
 -6.409984e+000 -2.848680e+000 -3.514925e+000 -5.257628e+000 -1.237491e+000 -6.286608e+000 -1.236331e+000 -5.556818e+000 9.095666e-001 -3.865654e+000 -3.323690e-001 -5.753706e+000 5.611214e+001 -3.580854e-001 -1.846387e+000 -2.254187e+000 -2.524886e+000 -1.629507e+000 -6.081834e-001 9.178209e-001 3.743668e-001 7.745517e-001 5.487548e-001 2.151557e-001 -5.305157e-001 4.829127e+000 2.597192e-001 -2.137072e-001 -2.155348e-001 -2.271519e-001 -2.783086e-002 -1.512338e-001 4.668822e-002 1.183036e-001 -3.518151e-002 -2.275694e-001 9.589154e-003 -1.753217e-001 3.259876e-001
<VARIANCE> 39
 2.254467e+001 1.544073e+001 3.669307e+001 2.941780e+001 2.959372e+001 2.967416e+001 2.984427e+001 4.127928e+001 3.928791e+001 3.610766e+001 2.754455e+001 2.059462e+001 4.022366e+001 1.743049e+000 2.466267e+000 4.421112e+000 3.238654e+000 2.725491e+000 2.166879e+000 2.715306e+000 3.647399e+000 2.392816e+000 2.691252e+000 2.227327e+000 2.341590e+000 3.992597e+000 2.369973e-001 1.753066e-001 1.960361e-001 2.536486e-001 2.931672e-001 2.216933e-001 2.478254e-001 4.356391e-001 2.281006e-001 2.379601e-001 1.989893e-001 2.087015e-001 2.111461e-001
<GCONST> 1.099963e+002
<STATE> 4
<NUMMIXES> 7
<MIXTURE> 1 1.277912e-001
<MEAN> 39
 1.862689e+000 -2.660379e+000 -8.610518e-002 -1.409604e+000 -1.036559e+000 -1.023809e+001 -7.379021e+000 -1.167645e+000 7.254331e+000 -1.289977e+000 2.888531e-001 -2.407323e+000 5.920884e+001 1.728276e+000 -1.553786e+000 -1.477123e-001 4.300776e-001 -1.822846e+000 -1.393557e+000 -7.476727e-001 -3.839857e-001 1.306672e+000 1.723748e-001 -4.913490e-001 8.631640e-001 2.100240e+000 -7.362673e-002 -5.619756e-002 3.055238e-001 -1.317394e-001 -3.002950e-001 3.061300e-001 4.698038e-001 -1.885453e-001 -2.195818e-001 -5.938221e-002 2.446447e-001 -7.636254e-003 -1.046372e-001
<VARIANCE> 39
 2.611835e+001 1.580018e+001 2.543102e+001 2.730565e+001 2.622350e+001 2.567884e+001 3.901044e+001 2.689710e+001 2.351415e+001 3.033218e+001 2.358450e+001 2.029452e+001 4.610785e+001 1.232877e+000 1.238912e+000 2.154365e+000 2.987208e+000 1.472841e+000 1.291234e+000 2.443549e+000 2.531837e+000 3.101048e+000 2.037648e+000 2.827538e+000 1.075984e+000 2.229828e+000 1.648872e-001 9.964614e-002 1.263038e-001 3.285408e-001 1.533747e-001 2.848960e-001 2.118383e-001 2.409197e-001 2.464190e-001 2.439635e-001 2.889495e-001 1.646737e-001 2.250221e-001
<GCONST> 1.020467e+002
<MIXTURE> 2 1.370766e-001
<MEAN> 39
 -1.033360e+001 -3.863229e+000 1.232307e+000 -9.658388e+000 -5.222448e+000 -3.573368e+000 1.609340e+000 -6.373743e+000 2.849687e+000 -2.924993e+000 1.031442e+000 -7.563735e-001 5.856079e+001 6.423712e-001 8.859972e-001 -4.599225e-001 -3.105848e+000 -4.674332e-001 -7.484440e-001 -1.074916e+000 -6.938165e-001 2.832285e-001 1.280976e-001 3.937156e-001 2.657830e-001 5.016969e+000 4.676541e-001 6.302616e-001 -2.693771e-001 1.508781e-001 4.461613e-001 -2.691312e-001 -4.066975e-001 -1.407254e-002 -1.602760e-001 -1.216825e-001 1.537161e-001 -1.657015e-001 -4.926130e-001
<VARIANCE> 39
 3.195819e+001 2.361198e+001 4.771140e+001 4.885161e+001 3.885063e+001 2.503251e+001 4.610732e+001 3.293468e+001 4.222393e+001 3.400260e+001 3.544018e+001 1.979949e+001 5.753666e+001 2.385171e+000 3.415453e+000 3.552515e+000 2.368230e+000 1.634122e+000 1.803313e+000 2.232484e+000 2.181283e+000 1.098228e+000 1.066302e+000 1.485975e+000 8.258756e-001 2.408577e+000 3.896402e-001 1.568142e-001 2.665986e-001 4.818635e-001 2.544269e-001 3.600022e-001 4.370438e-001 2.375781e-001 3.380979e-001 3.105648e-001 2.533306e-001 1.796797e-001 5.638241e-001
<GCONST> 1.108518e+002
<MIXTURE> 3 1.315223e-001
<MEAN> 39
 -4.708210e+000 -7.199134e+000 -3.578760e+000 -1.372319e+001 -1.009529e+001 -7.924135e+000 2.151961e+000 -3.694005e+000 2.617516e+000 -2.413748e+000 3.725195e+000 -8.577398e+000 7.090378e+001 -4.702880e-002 -1.771525e+000 -1.475804e+000 -3.113419e+000 -1.708129e+000 8.624474e-002 1.279419e+000 1.275856e-001 -1.972630e-002 2.990851e-001 1.908195e-001 -9.333695e-001 5.235178e+000 9.663466e-002 2.498997e-001 1.529725e-001 6.468695e-001 7.208719e-001 3.045934e-001 -1.411468e-001 -4.951244e-003 -2.131649e-001 -2.604329e-001 -3.299993e-001 3.403127e-001 -1.223360e+000
<VARIANCE> 39
 8.214930e+000 1.182987e+001 5.068633e+001 3.952174e+001 3.770984e+001 2.109351e+001 4.163198e+001 4.705490e+001 2.779695e+001 2.854906e+001 4.225056e+001 2.306738e+001 2.444879e+001 1.354503e+000 1.340380e+000 2.351950e+000 1.897122e+000 2.506242e+000 1.466598e+000 2.069178e+000 3.584775e+000 2.288512e+000 2.156752e+000 1.919653e+000 1.738252e+000 2.664554e+000 1.550179e-001 1.062331e-001 1.583089e-001 2.446528e-001 2.004740e-001 1.567667e-001 1.921558e-001 2.471909e-001 1.875204e-001 2.160815e-001 3.338575e-001 2.783976e-001 2.254356e-001
<GCONST> 1.031136e+002
<MIXTURE> 4 1.252561e-001
<MEAN> 39
 2.553033e+000 -5.182160e+000 -1.873330e+001 -9.416164e+000 5.282701e+000 -1.019987e+001 -1.065803e+000 -3.512835e-001 3.507025e+000 -1.907718e+000 -1.402258e+000 -5.977146e+000 6.690723e+001 9.804023e-001 -1.518804e+000 -3.690560e+000 -6.152331e-001 9.404758e-001 -6.497949e-001 2.658937e-001 9.257101e-001 6.785415e-002 -1.485032e-001 -4.507110e-001 -8.068816e-002 3.338805e+000 -1.919329e-001 2.031033e-001 8.953089e-001 6.361478e-001 2.521361e-002 3.860382e-001 6.433535e-003 -1.648059e-001 -4.175493e-001 -1.626327e-001 1.641146e-001 2.180812e-001 -9.541275e-001
<VARIANCE> 39
 1.235662e+001 3.198176e+001 6.398605e+001 3.226032e+001 4.547887e+001 4.129499e+001 4.939447e+001 9.309653e+001 3.196665e+001 2.939101e+001 4.660022e+001 2.921981e+001 3.215434e+001 1.908777e+000 2.271509e+000 2.651224e+000 2.137730e+000 2.560387e+000 2.110876e+000 2.503924e+000 2.717304e+000 3.197424e+000 1.768558e+000 1.719388e+000 1.806650e+000 3.292041e+000 1.629695e-001 1.642387e-001 3.572221e-001 1.789166e-001 2.787437e-001 2.338375e-001 3.860246e-001 5.090420e-001 2.746761e-001 2.232732e-001 3.074769e-001 2.216080e-001 2.297931e-001
<GCONST> 1.119800e+002
<MIXTURE> 5 2.070088e-001
<MEAN> 39
 -1.089733e+001 -8.357634e+000 -4.580384e+000 -6.196763e+000 -3.020844e+000 -6.449539e+000 2.529035e+000 -1.960671e+000 1.971848e+000 -4.386380e+000 1.869075e+000 -3.530699e+000 5.914830e+001 1.969396e+000 -1.641955e+000 -2.206042e+000 -1.083731e+000 -9.144348e-001 -1.276246e+000 -2.231584e-001 -7.954778e-004 5.194263e-001 -4.238676e-002 -5.458823e-001 -3.124384e-001 4.883872e+000 7.250910e-001 2.194918e-001 -9.577493e-002 2.199938e-001 1.981731e-001 -7.791166e-002 -1.630403e-001 -2.173315e-001 6.433868e-002 -1.365089e-003 -1.884533e-001 1.953683e-002 -3.731766e-001
<VARIANCE> 39
 1.690447e+001 1.925698e+001 2.135498e+001 1.558531e+001 1.633101e+001 1.578568e+001 2.829811e+001 2.286627e+001 2.861115e+001 3.129237e+001 2.270675e+001 2.258514e+001 2.546823e+001 2.771121e+000 2.309102e+000 3.514858e+000 2.171466e+000 3.066217e+000 2.483561e+000 1.923839e+000 2.493505e+000 2.119934e+000 1.938506e+000 1.418386e+000 1.580620e+000 4.190001e+000 3.545862e-001 2.278180e-001 2.509347e-001 2.023983e-001 2.751202e-001 2.502058e-001 2.899651e-001 2.636875e-001 2.718932e-001 2.125229e-001 2.406712e-001 2.438304e-001 2.823894e-001
<GCONST> 1.050152e+002
<MIXTURE> 6 1.465517e-001
<MEAN> 39
 3.982625e+000 -6.437645e+000 -7.108338e+000 -4.074298e+000 -3.647798e+000 -1.033349e+001 -6.146928e+000 -6.234915e+000 5.545811e+000 2.121309e+000 -5.005177e-001 -5.076998e+000 5.751873e+001 2.291619e+000 -2.148557e+000 -2.245548e+000 -3.804261e-001 -1.724473e+000 -1.093327e+000 -6.679510e-001 -1.856456e-001 1.997981e+000 7.971240e-001 -8.700332e-001 -1.105184e-001 2.990392e+000 -5.219163e-002 1.354420e-001 2.751313e-001 9.783912e-002 3.135978e-002 3.144061e-001 1.221332e-001 1.635553e-001 -6.584453e-002 -6.011454e-001 -9.656084e-002 1.132096e-001 -4.427851e-001
<VARIANCE> 39
 3.446494e+001 3.482548e+001 4.667134e+001 2.090895e+001 3.686835e+001 3.062458e+001 5.677021e+001 3.183155e+001 3.433587e+001 4.851159e+001 2.511151e+001 3.354013e+001 7.926754e+001 2.166948e+000 2.243707e+000 1.968211e+000 1.735156e+000 2.486949e+000 3.234030e+000 4.748380e+000 2.268488e+000 1.926924e+000 3.747766e+000 2.909694e+000 1.781410e+000 2.615854e+000 2.989228e-001 1.681161e-001 2.069456e-001 1.598380e-001 2.486354e-001 1.794853e-001 3.352500e-001 3.077158e-001 2.066085e-001 4.136724e-001 3.496751e-001 2.467324e-001 3.294111e-001
<GCONST> 1.127611e+002
<MIXTURE> 7 1.247938e-001
<MEAN> 39
 2.156304e+000 -6.178477e+000 -2.022611e+001 -9.612931e+000 3.127423e+000 -1.081320e+001 -3.150081e+000 1.552149e-001 4.142270e+000 -2.003898e+000 -1.298714e+000 -7.581246e+000 6.674458e+001 1.048148e+000 -1.478127e+000 -3.788292e+000 -8.747981e-001 6.018046e-001 -6.423905e-001 1.785846e-001 1.096882e+000 1.249887e-001 -2.548778e-001 -6.169052e-001 -6.015017e-001 3.563834e+000 -2.895882e-001 2.039840e-001 8.725242e-001 5.641043e-001 3.253511e-002 3.641987e-001 7.159332e-002 -2.560547e-001 -4.177172e-001 -2.161119e-001 6.781000e-002 2.300704e-001 -1.074082e+000
<VARIANCE> 39
 1.333496e+001 3.064673e+001 4.682600e+001 3.398213e+001 3.194651e+001 3.759921e+001 5.057907e+001 8.862883e+001 2.591549e+001 3.592353e+001 4.211808e+001 3.452393e+001 2.852573e+001 2.166917e+000 2.202237e+000 2.540518e+000 1.940138e+000 2.191177e+000 2.071244e+000 2.512131e+000 3.193251e+000 3.012691e+000 2.069253e+000 1.793342e+000 2.036698e+000 3.079821e+000 1.978066e-001 1.714927e-001 3.417199e-001 1.662755e-001 2.703856e-001 2.220054e-001 3.608693e-001 4.798299e-001 2.523804e-001 2.401148e-001 2.837176e-001 2.651680e-001 2.671652e-001
<GCONST> 1.115050e+002
<TRANSP> 5
 0.000000e+000 1.000000e+000 0.000000e+000 0.000000e+000 0.000000e+000
 0.000000e+000 6.096783e-001 3.903216e-001 0.000000e+000 0.000000e+000
 0.000000e+000 0.000000e+000 4.759516e-001 5.240484e-001 0.000000e+000
 0.000000e+000 0.000000e+000 0.000000e+000 5.237982e-001 4.762018e-001
 0.000000e+000 0.000000e+000 0.000000e+000 0.000000e+000 0.000000e+000
<ENDHMM>
~h "d"
<BEGINHMM>
<NUMSTATES> 5
<STATE> 2
<NUMMIXES> 7
<MIXTURE> 1 1.286520e-001
<MEAN> 39
 2.884925e+000 -1.893579e+000 4.322562e+000 -4.996633e+000 -8.258110e+000 -8.088392e+000 2.920629e+000 -2.263696e+000 -7.709451e-001 1.773000e+000 1.529775e-001 -2.869599e+000 5.728080e+001 -4.971374e-001 1.183069e+000 8.492620e-002 4.814801e-001 8.607184e-001 1.695541e-001 -2.179520e-001 -1.331096e-001 -2.854982e-001 -3.972918e-002 2.254473e-001 2.406485e-001 -1.594272e+000 -3.281794e-001 -1.086728e-001 -4.579085e-001 -2.375018e-001 2.254868e-001 1.504939e-001 -1.497266e-001 -1.468204e-002 3.172436e-001 -3.341339e-001 -9.830502e-002 -2.698194e-003 3.326240e-001
<VARIANCE> 39
 2.558142e+001 3.559935e+001 7.289928e+001 7.173311e+001 7.446452e+001 1.039911e+002 6.846629e+001 7.465144e+001 4.933465e+001 5.850755e+001 4.144641e+001 2.846369e+001 6.484525e+001 1.165484e+000 1.483511e+000 1.970761e+000 2.328052e+000 1.946772e+000 2.070007e+000 2.526444e+000 1.958876e+000 2.077865e+000 2.352431e+000 1.413161e+000 1.697794e+000 1.445936e+000 1.431943e-001 1.355292e-001 2.798954e-001 4.524523e-001 4.571185e-001 4.780457e-001 4.367690e-001 3.007141e-001 4.607752e-001 4.682546e-001 2.752167e-001 2.487130e-001 3.182769e-001
<GCONST> 1.167352e+002
<MIXTURE> 2 1.460378e-001
<MEAN> 39
 -1.336034e+001 -3.200135e+000 -3.549368e+000 -1.783792e+000 7.848072e-002 -1.327734e+000 8.190019e-001 -1.137269e+000 3.110392e-001 -3.739235e+000 4.550381e-001 -2.019531e+000 3.919611e+001 -2.738281e-003 -3.077546e-001 -7.328257e-001 -1.028748e+000 -7.855892e-001 -5.644938e-002 1.077978e-001 -2.336102e-001 4.879717e-001 3.830465e-001 -1.967035e-001 4.247348e-001 3.562633e+000 4.456358e-001 2.293127e-001 2.148740e-001 -4.861115e-001 -4.715918e-001 -2.765824e-001 2.655134e-002 -2.291840e-001 8.556799e-002 2.186698e-001 -1.286950e-001 -1.298323e-001 1.261196e+000
<VARIANCE> 39
 1.071151e+001 8.423977e+000 1.305220e+001 1.659928e+001 1.644674e+001 1.429165e+001 1.906396e+001 1.806156e+001 2.050484e+001 1.894508e+001 1.798245e+001 1.254879e+001 6.020762e+001 1.026501e+000 1.041366e+000 1.188606e+000 1.645112e+000 1.065017e+000 1.240561e+000 1.622886e+000 1.109339e+000 1.108469e+000 1.375498e+000 1.275672e+000 1.141615e+000 6.907458e+000 1.680033e-001 1.750013e-001 2.009224e-001 2.216163e-001 1.879775e-001 2.646860e-001 2.543517e-001 2.697853e-001 2.658279e-001 2.208717e-001 3.181693e-001 2.100200e-001 3.749138e-001
<GCONST> 9.383241e+001
<MIXTURE> 3 1.121105e-001
<MEAN> 39
 1.789309e+000 4.817221e+000 2.565878e+000 -1.379138e+000 2.954771e-001 -5.300951e+000 -4.678538e-002 -2.148337e+000 -1.492694e+000 -3.532437e+000 -4.691810e-001 -3.454745e+000 5.062049e+001 -1.571408e+000 -3.149697e-001 -3.382181e-001 -7.993064e-001 -8.778754e-001 9.626517e-001 3.584645e-001 -4.458484e-001 8.263801e-001 5.296959e-001 -1.427966e-002 1.006684e-001 1.199018e+000 -2.149660e-001 -2.964158e-001 -2.540061e-001 -6.763942e-001 -5.402540e-001 -3.061861e-001 2.725122e-001 -2.721011e-002 2.265786e-001 2.683376e-001 -7.951032e-002 -1.700700e-002 1.081959e+000
<VARIANCE> 39
 4.456374e+001 3.413591e+001 3.482897e+001 4.605750e+001 8.044956e+001 8.109486e+001 6.081944e+001 5.967891e+001 4.830462e+001 4.441439e+001 4.002726e+001 4.335450e+001 6.053474e+001 1.170649e+000 1.801089e+000 2.610236e+000 3.468740e+000 5.158934e+000 3.782125e+000 3.186833e+000 2.151171e+000 2.675467e+000 2.376240e+000 2.131407e+000 1.858436e+000 2.224190e+000 2.680054e-001 3.126714e-001 2.778962e-001 4.651342e-001 6.086977e-001 5.332797e-001 5.334096e-001 4.241759e-001 5.012082e-001 4.392353e-001 3.306972e-001 5.068594e-001 2.677444e-001
<GCONST> 1.227153e+002
<MIXTURE> 4 1.903007e-001
<MEAN> 39
 -5.006913e+000 5.983719e+000 5.310407e+000 1.292793e+000 5.108850e-001 -3.687169e+000 -8.429627e-001 -6.154405e+000 -3.428646e+000 -4.604112e+000 -3.077763e+000 -4.146519e+000 4.009648e+001 -1.901177e+000 -1.809560e+000 -2.227216e+000 -2.873603e-001 -1.945762e-001 3.385715e-001 1.009183e-001 5.917388e-001 8.786151e-001 1.311712e-001 6.740222e-001 5.057904e-001 2.425875e+000 -9.020783e-002 -5.074812e-001 -5.860500e-001 -1.250480e+000 -6.449564e-001 -2.512973e-001 6.270021e-002 -9.971106e-003 3.707332e-001 3.580843e-001 1.815482e-001 4.678214e-002 1.955475e+000
<VARIANCE> 39
 1.047750e+001 1.023928e+001 1.028160e+001 1.772173e+001 1.912254e+001 2.288471e+001 2.571716e+001 1.888025e+001 2.557582e+001 3.027009e+001 3.589293e+001 2.169162e+001 1.480319e+001 8.970619e-001 1.092864e+000 1.602979e+000 2.383063e+000 2.024439e+000 1.617212e+000 1.262280e+000 1.472770e+000 1.739302e+000 1.827486e+000 1.592409e+000 1.431923e+000 4.826992e+000 2.295260e-001 2.140271e-001 3.065527e-001 3.250756e-001 2.877975e-001 2.741624e-001 2.726471e-001 2.106595e-001 3.290053e-001 3.110771e-001 3.613049e-001 2.458502e-001 5.193588e-001
<GCONST> 1.004382e+002
<MIXTURE> 5 1.438144e-001
<MEAN> 39
 -3.106786e+000 4.766401e+000 3.689283e+000 -2.261911e+000 -4.125658e+000 -5.212034e+000 2.193806e-001 -3.576359e+000 -3.909756e-001 -1.933532e+000 -9.707561e-001 -4.363470e+000 4.507146e+001 1.627189e-002 -9.421881e-002 8.963825e-002 4.389817e-002 2.836903e-001 2.584225e-002 -1.423762e-001 5.028253e-002 -1.279903e-002 -2.705429e-001 2.078428e-002 -9.186443e-002 -4.461886e-001 -3.330611e-001 -3.492694e-001 -3.167900e-001 -2.995130e-001 1.440376e-002 4.340783e-002 -3.587760e-003 -1.182491e-002 1.710045e-001 2.196233e-002 2.750789e-002 1.516892e-001 7.654780e-001
<VARIANCE> 39
 2.312717e+001 2.757850e+001 2.394037e+001 2.157465e+001 2.696150e+001 2.095911e+001 3.586733e+001 3.356255e+001 2.805639e+001 2.885447e+001 3.267159e+001 3.278760e+001 3.499364e+001 1.542637e+000 1.306797e+000 1.473721e+000 1.313933e+000 1.578670e+000 1.606727e+000 1.418613e+000 1.498607e+000 2.008675e+000 1.762450e+000 1.312409e+000 8.423036e-001 1.598339e+000 1.116659e-001 1.736819e-001 2.407414e-001 2.348887e-001 1.728217e-001 2.408322e-001 3.122572e-001 3.090904e-001 2.793607e-001 2.622321e-001 2.553926e-001 1.984020e-001 3.407248e-001
<GCONST> 1.009155e+002
<MIXTURE> 6 1.704655e-001
<MEAN> 39
 -1.400510e+001 -3.712468e+000 -3.551446e+000 -2.494977e+000 -1.880015e-002 -2.930578e+000 4.435534e-001 -3.105742e+000 2.687123e-001 -3.729083e+000 9.673937e-001 -2.969888e+000 4.203022e+001 -7.528546e-001 -8.908755e-001 -1.734644e+000 -1.495667e+000 -6.475491e-001 -5.188028e-002 -3.583274e-002 5.323237e-001 4.516963e-001 -3.261060e-002 6.311750e-001 -5.765799e-002 3.568712e+000 5.581421e-001 1.135989e-001 -4.479909e-002 -8.555781e-001 -2.819931e-001 -1.699297e-001 -3.566581e-002 -2.814431e-001 2.365652e-001 -1.327412e-001 -1.129837e-001 -1.859871e-001 1.403096e+000
<VARIANCE> 39
 7.305030e+000 1.683810e+001 1.961214e+001 2.369468e+001 2.034961e+001 2.369417e+001 1.933413e+001 2.482512e+001 1.908018e+001 2.069646e+001 2.019632e+001 1.780465e+001 9.966563e+001 2.107105e+000 1.994847e+000 1.887161e+000 1.553698e+000 1.098302e+000 1.606645e+000 1.586742e+000 1.567904e+000 1.828583e+000 1.340676e+000 1.263924e+000 1.298880e+000 4.782036e+000 1.749680e-001 2.722295e-001 2.838351e-001 4.429776e-001 2.896956e-001 2.448132e-001 3.028903e-001 2.907695e-001 2.805050e-001 4.233049e-001 2.657101e-001 2.174521e-001 5.923322e-001
<GCONST> 1.026972e+002
<MIXTURE> 7 1.086181e-001
<MEAN> 39
 4.280484e-001 4.027297e+000 1.928883e+000 -1.925424e+000 -1.056127e+000 -7.122297e+000 -1.142758e+000 -3.820843e+000 -2.713304e+000 -4.891291e+000 -2.569663e+000 -5.922025e+000 4.866140e+001 -1.709690e+000 -5.113236e-001 -6.905624e-001 -1.034377e+000 -7.784013e-001 7.228253e-001 5.457161e-002 -4.663802e-001 6.383403e-001 3.087429e-001 -9.002063e-002 -1.962704e-002 1.340615e+000 -1.760099e-001 -3.722828e-001 -3.261467e-001 -8.211548e-001 -3.489511e-001 -3.420063e-001 2.241785e-001 -9.255785e-002 1.499733e-001 2.462272e-001 -1.408844e-001 -1.814876e-003 1.085833e+000
<VARIANCE> 39
 4.810812e+001 3.558617e+001 5.159961e+001 5.408894e+001 7.137499e+001 8.447796e+001 7.617127e+001 5.444886e+001 4.923260e+001 4.618390e+001 3.929830e+001 4.318248e+001 6.201301e+001 9.809148e-001 1.919106e+000 2.809726e+000 3.890966e+000 5.354127e+000 4.205797e+000 3.694694e+000 2.650747e+000 2.751263e+000 2.707060e+000 2.267728e+000 2.210548e+000 2.264966e+000 2.185021e-001 2.652024e-001 3.106185e-001 4.303059e-001 5.274350e-001 6.496373e-001 5.426517e-001 4.765591e-001 4.704166e-001 5.015846e-001 3.840319e-001 4.594260e-001 2.718399e-001
<GCONST> 1.244768e+002
<STATE> 3
<NUMMIXES> 7
<MIXTURE> 1 1.187536e-001
<MEAN> 39
 -7.437173e+000 1.977967e+000 2.210805e+000 -4.366525e+000 -2.911731e+000 -3.223636e+000 -1.739052e+000 -2.425448e+000 2.311751e+000 -8.261381e-001 -1.915206e+000 -4.864557e-001 5.592403e+001 -3.219406e-001 3.346812e-002 2.236377e-002 -2.002456e+000 -1.200680e+000 -4.812783e-001 5.587971e-001 -5.575914e-001 5.253667e-001 9.772494e-001 -7.639405e-001 4.308302e-001 2.867141e+000 2.978826e-001 1.716789e-001 4.333027e-002 -4.985919e-001 -3.416263e-001 -2.072188e-001 9.717520e-002 8.512347e-002 3.865249e-002 2.331933e-001 4.936052e-002 7.499202e-002 4.600674e-001
<VARIANCE> 39
 2.583070e+001 1.335428e+001 1.988440e+001 3.109446e+001 3.522244e+001 2.539595e+001 3.272469e+001 2.388935e+001 3.093885e+001 3.227821e+001 2.498891e+001 2.479959e+001 5.313454e+001 1.952883e+000 1.521935e+000 1.568230e+000 2.311404e+000 2.345488e+000 1.581883e+000 3.944011e+000 1.930821e+000 2.087666e+000 2.221535e+000 1.946990e+000 1.351947e+000 2.038945e+000 1.468102e-001 1.487305e-001 1.525719e-001 1.590251e-001 2.037571e-001 2.975817e-001 2.431810e-001 2.415778e-001 2.609050e-001 1.964311e-001 1.661121e-001 1.608841e-001 1.692571e-001
<GCONST> 1.020968e+002
<MIXTURE> 2 1.585494e-001
<MEAN> 39
 -1.537630e+001 -5.969148e+000 -7.650708e+000 -7.316549e+000 -7.242646e-001 -2.842797e+000 2.488565e+000 -5.094780e+000 2.704182e+000 -3.538490e+000 5.872332e-001 -6.690118e-001 5.962943e+001 4.890972e-001 -5.027698e-001 -4.536414e-001 -2.209430e+000 -1.970825e+000 -9.271977e-001 3.066244e-001 -2.476720e-001 5.243294e-001 1.179292e+000 2.480621e-002 3.830734e-001 5.449996e+000 8.527230e-001 2.018987e-001 4.940181e-001 -2.168943e-001 -4.527668e-001 -3.458275e-001 -1.196047e-002 9.022862e-002 -2.057082e-001 1.050513e-001 -1.775765e-001 -3.905729e-001 -1.767624e-002
<VARIANCE> 39
 1.462215e+001 2.515210e+001 2.530246e+001 3.403067e+001 2.251412e+001 2.875933e+001 4.797731e+001 4.253244e+001 3.122390e+001 3.672675e+001 3.398687e+001 2.656001e+001 3.763358e+001 1.826679e+000 1.181499e+000 1.733212e+000 1.843630e+000 1.265165e+000 1.569566e+000 2.626807e+000 1.610021e+000 1.756243e+000 1.428036e+000 2.602361e+000 1.835975e+000 2.866273e+000 1.727380e-001 2.905735e-001 3.257054e-001 4.158323e-001 3.008422e-001 3.432788e-001 4.158433e-001 2.866158e-001 2.374679e-001 5.914932e-001 3.546193e-001 3.319012e-001 4.446056e-001
<GCONST> 1.092088e+002
<MIXTURE> 3 1.125482e-001
<MEAN> 39
 -1.394153e+001 -4.488341e+000 -9.534514e+000 -8.659865e+000 -2.184065e+000 -5.165655e+000 -8.784540e-001 -1.685867e+000 2.421772e+000 -5.335099e+000 3.857887e+000 -4.874702e+000 6.164058e+001 2.664511e-001 -6.657754e-001 -1.214420e+000 -2.829115e+000 -4.240695e-001 2.104550e-001 3.005395e-001 -6.578068e-001 1.469949e+000 -6.404430e-001 4.841488e-002 -1.278748e-001 4.798258e+000 6.254873e-001 1.380204e-001 6.089435e-001 -1.718698e-001 1.064702e-001 5.629560e-002 2.146689e-001 -5.623159e-001 1.188126e-001 1.384177e-002 -2.784124e-001 1.571171e-001 -3.493572e-001
<VARIANCE> 39
 1.844933e+001 2.109081e+001 1.485601e+001 1.876416e+001 1.763433e+001 2.244557e+001 2.536879e+001 1.918485e+001 2.159451e+001 2.150027e+001 2.506008e+001 2.527980e+001 2.769858e+001 2.377400e+000 2.928657e+000 2.066703e+000 2.427800e+000 1.284590e+000 2.288291e+000 2.077853e+000 1.652538e+000 1.304644e+000 1.600638e+000 1.804797e+000 1.413427e+000 4.242773e+000 1.768962e-001 4.277088e-001 2.150176e-001 3.456445e-001 2.447512e-001 3.326752e-001 3.279030e-001 2.835414e-001 3.111979e-001 3.107841e-001 2.774466e-001 2.504894e-001 4.578951e-001
<GCONST> 1.044886e+002
<MIXTURE> 4 2.112775e-001
<MEAN> 39
 -4.942682e+000 -1.040354e-002 -1.349386e+000 -7.800924e+000 -5.245493e+000 -7.159218e+000 6.675525e-001 -5.375762e+000 1.419099e+000 -1.412309e+000 -1.687627e+000 -3.111192e+000 5.883595e+001 -1.158336e+000 -5.481487e-002 -8.190255e-001 -1.544667e+000 -9.262646e-001 -3.583210e-001 4.833334e-001 -1.907253e-001 7.223239e-001 6.459851e-001 5.259642e-004 1.893397e-001 1.810023e+000 3.685943e-001 -2.781010e-002 5.342729e-002 -2.181963e-001 8.259964e-002 -2.672717e-001 2.930562e-002 1.951738e-001 7.121068e-003 -4.608926e-002 5.302290e-002 -1.135395e-001 1.089147e-001
<VARIANCE> 39
 4.150484e+001 4.032426e+001 6.503233e+001 6.609455e+001 1.126039e+002 1.098030e+002 7.367062e+001 8.390171e+001 7.267349e+001 7.475559e+001 5.319610e+001 4.957976e+001 5.583384e+001 1.579999e+000 3.868381e+000 2.542115e+000 4.314341e+000 6.387042e+000 4.544711e+000 4.745756e+000 2.857130e+000 3.860239e+000 3.035368e+000 2.388424e+000 3.347868e+000 4.634954e+000 1.985438e-001 2.813026e-001 4.924446e-001 4.491538e-001 5.183771e-001 6.397997e-001 6.386393e-001 5.125035e-001 4.297765e-001 4.383836e-001 3.333383e-001 2.890433e-001 1.780650e-001
<GCONST> 1.300232e+002
<MIXTURE> 5 1.393498e-001
<MEAN> 39
 -1.381699e+001 -4.644202e+000 -7.249164e+000 -9.143323e+000 -3.521226e+000 -5.269718e+000 -1.357936e+000 -6.354451e+000 5.912502e+000 -2.671030e+000 3.521298e-001 -2.446895e-001 6.405965e+001 6.252415e-001 -1.619126e+000 -1.394516e+000 -2.587809e+000 -2.391156e+000 -5.716394e-001 1.229304e+000 4.497134e-001 3.014229e-001 1.110672e+000 -7.275053e-002 -6.133914e-001 6.511127e+000 6.053445e-001 -1.798311e-001 2.661156e-001 -4.526836e-002 5.071955e-002 -8.814698e-002 5.478957e-001 2.930179e-001 -7.066625e-001 -1.608111e-001 -6.311505e-002 -4.938908e-001 -3.254472e-001
<VARIANCE> 39
 1.663428e+001 2.354804e+001 2.418030e+001 1.866556e+001 2.904094e+001 2.280016e+001 1.751587e+001 1.624521e+001 3.121162e+001 3.384943e+001 2.028236e+001 1.549026e+001 2.846598e+001 2.110090e+000 1.416124e+000 1.652490e+000 1.498718e+000 7.923593e-001 1.990808e+000 1.025833e+000 2.491226e+000 2.570343e+000 2.022326e+000 2.147781e+000 1.380411e+000 2.586798e+000 1.819355e-001 1.970459e-001 2.720459e-001 3.808200e-001 2.780544e-001 2.550928e-001 1.984793e-001 2.184863e-001 1.322898e-001 2.924900e-001 2.676213e-001 2.289267e-001 4.197956e-001
<GCONST> 1.007564e+002
<MIXTURE> 6 1.540690e-001
<MEAN> 39
 -6.284094e+000 1.917635e+000 1.059035e-001 -3.683610e+000 -1.847939e+000 -5.377000e+000 -9.631439e-001 -4.864194e+000 9.687392e-001 -3.031737e+000 -1.612707e-001 -3.795846e+000 5.318154e+001 -8.097960e-001 -5.547928e-001 -9.535175e-001 -1.292399e+000 -8.354123e-001 -1.750358e-001 6.477434e-001 1.779197e-001 4.408654e-001 1.571770e-001 8.946314e-002 -1.038453e-001 1.935871e+000 2.875169e-001 -7.386572e-002 1.759858e-002 -3.286637e-001 -3.347069e-001 -2.479997e-001 1.379786e-001 1.208945e-001 -8.124856e-002 1.645732e-001 -5.495711e-002 -1.611030e-002 4.429623e-001
<VARIANCE> 39
 3.256228e+001 1.778877e+001 1.560364e+001 3.446285e+001 3.123168e+001 3.215471e+001 2.090511e+001 2.763152e+001 2.706429e+001 3.236262e+001 2.165327e+001 2.080445e+001 7.591542e+001 1.745644e+000 1.290948e+000 1.355383e+000 1.757679e+000 2.876029e+000 3.003183e+000 3.988133e+000 1.731008e+000 2.143584e+000 2.380192e+000 1.280423e+000 1.810658e+000 2.389713e+000 1.061575e-001 1.609993e-001 1.620321e-001 3.386337e-001 2.628238e-001 2.548813e-001 2.456717e-001 2.074703e-001 1.683677e-001 2.762066e-001 1.785581e-001 2.084957e-001 2.299949e-001
<GCONST> 1.034425e+002
<MIXTURE> 7 1.054524e-001
<MEAN> 39
 -1.430472e+001 -6.422555e+000 -1.067659e+001 -8.844705e+000 -1.717531e+000 -5.913079e+000 -1.312407e+000 -2.455217e+000 9.992171e-001 -6.023244e+000 3.129655e+000 -5.714020e+000 6.060592e+001 8.187120e-002 -6.284854e-001 -1.405752e+000 -2.825335e+000 -7.177393e-001 -2.195483e-001 -3.199038e-001 -6.989719e-001 1.204351e+000 -1.174356e+000 -2.996143e-001 -8.640028e-001 4.598202e+000 5.446398e-001 1.473256e-001 5.530458e-001 -1.931328e-001 8.699777e-002 1.033523e-002 2.080035e-001 -5.711593e-001 8.364876e-002 -1.255567e-001 -4.238836e-001 -9.502467e-002 -3.879138e-001
<VARIANCE> 39
 1.546109e+001 2.436734e+001 1.446614e+001 2.095570e+001 1.536150e+001 2.019616e+001 2.486837e+001 2.167242e+001 2.408267e+001 2.194629e+001 2.285155e+001 2.693402e+001 2.883943e+001 3.075000e+000 2.220794e+000 1.633322e+000 2.207783e+000 1.780317e+000 2.346948e+000 1.903465e+000 1.580068e+000 1.525558e+000 2.007734e+000 1.997285e+000 1.669676e+000 4.595415e+000 2.189829e-001 3.369393e-001 2.194977e-001 4.093378e-001 1.825737e-001 2.988641e-001 3.712637e-001 3.507095e-001 3.603704e-001 3.813921e-001 2.474122e-001 2.707168e-001 3.930377e-001
<GCONST> 1.054029e+002
<STATE> 4
<NUMMIXES> 7
<MIXTURE> 1 1.553987e-001
<MEAN> 39
 -2.257457e+000 4.649102e-001 8.536870e-001 -9.404014e+000 -1.364329e+001 -7.414162e+000 6.718124e+000 -4.277591e+000 1.219445e+000 7.350586e+000 -5.323546e+000 -1.627864e+000 6.850163e+001 3.828343e-001 -1.383305e-001 -1.491246e-001 -1.677937e+000 -1.340543e+000 9.475073e-003 1.031797e+000 1.875580e-001 5.144973e-001 7.949380e-001 -8.695301e-001 1.056922e-001 2.014803e+000 -6.799580e-002 1.199679e-001 6.297089e-002 1.551350e-001 6.542319e-001 2.058678e-001 -5.225199e-001 2.532211e-001 -5.606074e-002 -6.561443e-001 2.868497e-001 8.164174e-003 -6.602557e-001
<VARIANCE> 39
 1.360264e+001 1.224619e+001 3.541396e+001 7.108196e+001 3.328304e+001 3.772610e+001 3.908841e+001 2.074919e+001 5.460698e+001 2.991883e+001 2.702839e+001 3.311938e+001 4.729485e+001 9.632329e-001 7.612118e-001 1.342604e+000 2.748916e+000 2.079884e+000 1.818141e+000 2.778865e+000 1.581894e+000 1.810116e+000 2.013542e+000 1.494089e+000 1.482237e+000 2.165004e+000 1.336498e-001 8.704232e-002 1.646708e-001 2.009860e-001 2.620166e-001 1.976337e-001 2.255200e-001 1.965685e-001 2.446481e-001 1.931584e-001 1.921303e-001 1.942651e-001 1.843538e-001
<GCONST> 1.012063e+002
<MIXTURE> 2 1.589888e-001
<MEAN> 39
 -6.658980e+000 -2.805317e+000 -3.927606e+000 -1.517710e+001 -1.104573e+001 -5.859017e+000 2.704047e+000 -5.690918e+000 2.779877e+000 2.440204e+000 -2.771253e+000 -3.525422e+000 7.048615e+001 1.530347e+000 -1.712923e+000 -7.495611e-001 -2.128343e+000 -1.604814e+000 -2.455843e-001 1.704962e+000 6.926992e-001 -6.099492e-001 2.030262e-001 -1.723066e-001 -1.167699e+000 4.468968e+000 1.221642e-001 -2.106799e-001 8.319794e-002 8.547346e-001 7.718518e-001 2.128463e-001 7.376622e-002 2.917061e-001 -5.894399e-001 -6.685609e-001 1.160328e-001 -1.242047e-001 -1.423166e+000
<VARIANCE> 39
 7.305156e+000 1.060829e+001 1.270874e+001 3.195102e+001 1.625812e+001 1.819830e+001 2.542076e+001 2.776169e+001 2.721847e+001 4.448262e+001 2.861982e+001 2.656761e+001 2.659795e+001 1.113826e+000 1.371159e+000 1.637105e+000 2.009458e+000 1.308694e+000 2.355646e+000 1.595740e+000 2.906850e+000 2.315953e+000 2.019148e+000 2.707855e+000 2.161323e+000 3.104350e+000 1.543657e-001 1.530174e-001 2.039870e-001 2.133926e-001 2.007156e-001 2.319287e-001 2.777579e-001 2.756350e-001 3.057360e-001 5.364906e-001 2.944849e-001 2.817540e-001 1.597154e-001
<GCONST> 1.013652e+002
<MIXTURE> 3 9.191041e-002
<MEAN> 39
 -5.303490e+000 4.534249e+000 3.350473e+000 -1.350332e+001 -2.590237e+000 -7.505226e+000 -3.405952e-001 -1.954690e+000 6.298946e+000 -1.967666e+000 1.113893e+000 -8.062566e-001 6.303165e+001 2.594394e-003 1.104841e+000 3.543012e-001 -2.006554e+000 -8.544055e-002 -8.532124e-001 -3.616454e-001 5.617534e-002 6.728582e-001 4.548111e-001 4.267960e-001 1.600659e-002 1.833962e+000 3.182429e-001 -4.768409e-002 3.930977e-002 2.651471e-001 4.949629e-002 1.094308e-001 9.057931e-002 1.319435e-001 -1.847538e-001 8.374390e-002 1.498901e-003 -5.394440e-002 -4.234769e-001
<VARIANCE> 39
 3.940704e+001 3.590633e+001 6.477654e+001 6.609617e+001 8.542497e+001 8.192975e+001 7.032738e+001 6.404979e+001 8.120712e+001 3.635040e+001 6.747823e+001 4.562254e+001 4.908983e+001 3.021285e+000 1.614323e+000 3.682687e+000 2.744488e+000 2.373727e+000 3.074345e+000 3.127274e+000 2.912116e+000 2.107069e+000 1.958143e+000 2.240125e+000 1.640483e+000 2.629023e+000 2.438043e-001 1.921928e-001 4.837751e-001 4.033161e-001 3.383533e-001 4.167274e-001 3.894613e-001 3.889787e-001 4.009798e-001 2.170365e-001 3.836411e-001 2.955041e-001 2.714034e-001
<GCONST> 1.217925e+002
<MIXTURE> 4 1.573906e-001
<MEAN> 39
 -5.562303e+000 -9.326461e+000 -8.883030e+000 -1.890946e+001 -6.788191e+000 -1.613062e+000 6.829208e+000 -8.085505e+000 2.965181e+000 -6.075593e+000 -3.931269e+000 -6.687449e+000 7.367962e+001 8.914948e-001 -2.434589e+000 -6.976510e-001 -8.263551e-002 7.472556e-001 8.740430e-001 1.439277e+000 -7.832233e-001 -1.045073e+000 -3.073351e-001 -2.811510e-001 -2.683545e-001 2.130581e+000 -3.509270e-001 -3.673163e-002 1.503143e-001 1.254257e+000 6.396002e-001 -1.055992e-001 -3.947020e-001 2.441931e-001 -4.090666e-001 1.294734e-001 3.652710e-001 2.568778e-001 -1.201451e+000
<VARIANCE> 39
 8.798373e+000 1.394694e+001 1.357222e+001 1.623508e+001 3.497029e+001 2.492244e+001 3.807748e+001 4.254752e+001 3.810814e+001 6.328485e+001 3.099356e+001 4.210948e+001 1.695704e+001 1.048053e+000 8.814030e-001 1.203863e+000 2.406574e+000 1.369969e+000 1.766771e+000 1.727328e+000 4.466629e+000 3.157234e+000 3.649805e+000 2.462691e+000 2.181040e+000 1.750230e+000 1.070012e-001 1.902267e-001 1.970644e-001 2.066035e-001 3.356818e-001 3.023230e-001 2.885883e-001 3.548737e-001 3.731571e-001 7.214538e-001 3.797309e-001 3.985772e-001 1.764987e-001
<GCONST> 1.058353e+002
<MIXTURE> 5 2.316188e-001
<MEAN> 39
 -1.024112e+001 -4.118103e+000 -5.328701e+000 -1.134367e+001 -4.386477e+000 -4.939982e+000 2.615354e-001 -5.517579e+000 5.276745e+000 -6.531288e+000 1.022197e+000 -5.943557e+000 5.828137e+001 2.758780e-001 -3.327247e-001 1.951452e-002 -8.347436e-001 -5.921336e-001 5.133298e-002 3.079191e-001 -2.697852e-001 3.966780e-001 -1.116852e-001 -3.017022e-001 -3.624591e-001 1.090348e+000 3.706340e-001 2.031913e-001 3.456318e-001 4.806927e-001 1.236129e-001 -4.567344e-002 5.022413e-003 2.910440e-002 -4.455081e-001 2.266296e-001 -1.580717e-001 5.468715e-002 -6.451519e-001
<VARIANCE> 39
 4.996620e+001 3.300869e+001 2.624364e+001 4.673658e+001 4.872945e+001 3.218167e+001 3.742288e+001 4.450338e+001 4.693104e+001 5.187630e+001 3.692424e+001 3.680571e+001 7.250399e+001 2.659623e+000 1.343971e+000 2.022681e+000 3.542412e+000 2.677658e+000 2.027674e+000 1.536364e+000 2.492447e+000 2.409346e+000 2.094889e+000 1.816420e+000 1.452762e+000 5.081323e+000 4.056457e-001 2.879476e-001 2.783986e-001 3.103546e-001 4.021070e-001 2.814390e-001 4.148864e-001 3.406976e-001 3.530864e-001 3.218248e-001 2.308443e-001 2.498269e-001 4.183114e-001
<GCONST> 1.161301e+002
<MIXTURE> 6 1.034073e-001
<MEAN> 39
 -3.969286e+000 -2.975312e+000 -1.007287e+000 -1.384828e+001 -1.182462e+001 -1.104626e+001 5.642367e+000 -5.632646e-001 -3.610409e+000 9.146013e+000 -7.523375e+000 -5.563678e+000 6.291778e+001 -1.430556e-001 -5.856972e-001 -5.658483e-002 -1.695714e+000 -6.541467e-001 -1.606931e-001 1.059377e+000 6.308926e-001 3.116802e-001 5.242960e-002 -5.686994e-001 -1.835495e-001 1.567818e+000 1.670432e-001 2.761670e-001 2.439719e-001 3.832904e-001 7.022251e-001 1.855690e-001 -3.806381e-001 -8.739817e-004 1.360909e-001 -9.173947e-001 3.342105e-001 3.454375e-002 -8.107838e-001
<VARIANCE> 39
 2.890543e+001 3.646831e+001 3.998099e+001 1.096764e+002 5.933276e+001 1.046483e+002 9.362425e+001 8.006765e+001 8.490396e+001 8.156892e+001 3.317492e+001 9.447539e+001 4.813741e+001 1.808076e+000 1.954093e+000 1.885097e+000 4.624055e+000 3.219199e+000 3.149364e+000 4.110136e+000 2.124669e+000 3.444228e+000 4.713595e+000 2.173903e+000 2.914930e+000 3.020245e+000 1.655031e-001 2.334189e-001 2.403582e-001 4.516122e-001 3.167739e-001 3.776699e-001 3.921569e-001 4.438092e-001 5.745950e-001 4.480582e-001 4.104246e-001 4.785546e-001 1.484637e-001
<GCONST> 1.248585e+002
<MIXTURE> 7 1.012860e-001
<MEAN> 39
 -7.379390e+000 4.532212e+000 -4.251793e-001 -1.338073e+001 -3.915171e+000 -9.490459e+000 -3.024189e+000 -5.554998e+000 2.890312e+000 -3.357258e+000 8.771752e-002 -2.057245e+000 6.106009e+001 5.952541e-002 7.630121e-001 -7.340489e-003 -2.287317e+000 -2.860174e-001 -1.131959e+000 -6.840812e-001 -1.407584e-001 3.754583e-001 1.188534e-001 3.054085e-001 6.203900e-003 1.932756e+000 4.094836e-001 -1.186542e-001 1.444237e-001 2.500016e-001 -6.012917e-002 1.469699e-001 5.674795e-002 8.505516e-002 -1.275511e-001 1.028403e-002 -4.273597e-002 -1.229115e-001 -5.064766e-001
<VARIANCE> 39
 3.453886e+001 3.379523e+001 5.089448e+001 5.259609e+001 5.179003e+001 6.674910e+001 4.648948e+001 6.329615e+001 5.482650e+001 3.484993e+001 4.493353e+001 5.871628e+001 4.093059e+001 2.427675e+000 1.916186e+000 2.612847e+000 3.227296e+000 2.635213e+000 2.799768e+000 2.825631e+000 2.115416e+000 1.649626e+000 1.893807e+000 1.937201e+000 1.492486e+000 3.082959e+000 2.340955e-001 1.812009e-001 4.063893e-001 4.162920e-001 3.831989e-001 4.666770e-001 3.978845e-001 3.758005e-001 3.764635e-001 2.147301e-001 3.340248e-001 3.266605e-001 3.299607e-001
<GCONST> 1.182967e+002
<TRANSP> 5
 0.000000e+000 1.000000e+000 0.000000e+000 0.000000e+000 0.000000e+000
 0.000000e+000 5.812418e-001 4.187582e-001 0.000000e+000 0.000000e+000
 0.000000e+000 0.000000e+000 3.864838e-001 6.135162e-001 0.000000e+000
 0.000000e+000 0.000000e+000 0.000000e+000 5.175183e-001 4.824817e-001
 0.000000e+000 0.000000e+000 0.000000e+000 0.000000e+000 0.000000e+000
<ENDHMM>
~h "f"
<BEGINHMM>
<NUMSTATES> 5
<STATE> 2
<NUMMIXES> 7
<MIXTURE> 1 1.574060e-001
<MEAN> 39
 -7.126736e+000 -9.046348e-001 2.455865e+000 -6.216200e-001 -2.891047e-001 -3.588620e+000 2.030512e-001 -2.470661e+000 2.078163e-001 -1.325059e+000 -1.236033e-001 -1.796661e+000 5.239577e+001 -9.306792e-002 8.345234e-002 7.161772e-002 1.178111e-001 2.246909e-001 2.686038e-001 9.587407e-002 1.359540e-002 2.816814e-001 -5.003865e-003 2.633101e-001 3.553176e-002 -2.377239e-001 -1.124742e-002 -5.087171e-002 -8.197144e-002 -1.047355e-001 -3.872352e-002 1.856799e-003 8.552521e-002 8.566723e-002 1.275178e-001 8.371630e-002 6.610527e-002 -2.040514e-003 5.240924e-002
<VARIANCE> 39
 1.762152e+001 9.653408e+000 8.421305e+000 2.014776e+001 2.470492e+001 2.234036e+001 2.351615e+001 2.325405e+001 2.230817e+001 3.440281e+001 2.875387e+001 1.933501e+001 3.390661e+001 3.506157e-001 3.737538e-001 3.474968e-001 6.150295e-001 8.148754e-001 8.943197e-001 1.061652e+000 9.401556e-001 1.235575e+000 8.960324e-001 8.884110e-001 7.971365e-001 2.825318e-001 4.464353e-002 5.415700e-002 5.384220e-002 9.680615e-002 1.768853e-001 1.567958e-001 1.388080e-001 1.723476e-001 2.110652e-001 1.773060e-001 1.674653e-001 1.303022e-001 2.550874e-002
<GCONST> 7.627289e+001
<MIXTURE> 2 7.989593e-002
<MEAN> 39
 -8.177834e+000 1.070966e+000 3.727321e+000 -1.368066e+000 3.259009e+000 -5.476554e+000 2.026457e+000 -2.563386e+000 7.099654e-001 -1.670611e+000 3.197220e+000 -3.487725e+000 5.239143e+001 -1.120901e+000 -4.679799e-001 -2.174093e-001 1.511136e-001 9.322140e-002 1.066146e-001 5.026467e-001 2.712015e-001 3.976953e-001 -3.517202e-001 2.144256e-001 3.708333e-001 -2.788548e-001 1.724495e-001 -1.247154e-001 -1.415134e-001 -2.212726e-001 -1.178928e-001 2.215497e-002 -9.569477e-002 1.225700e-001 1.214550e-001 3.773923e-002 -8.825202e-002 -1.768870e-002 1.819115e-001
<VARIANCE> 39
 4.069866e+001 4.092141e+001 5.042788e+001 6.155817e+001 8.372110e+001 7.057475e+001 5.646977e+001 6.965563e+001 5.741127e+001 4.827264e+001 6.131734e+001 4.441281e+001 7.781873e+001 1.822690e+000 1.664836e+000 1.738294e+000 1.634725e+000 1.725196e+000 2.954870e+000 2.446580e+000 2.327649e+000 2.543655e+000 1.872522e+000 2.048009e+000 1.878731e+000 1.365623e+000 3.776615e-001 1.674674e-001 1.877317e-001 2.552269e-001 3.099747e-001 4.475989e-001 3.853780e-001 3.806998e-001 3.637345e-001 2.957953e-001 4.504077e-001 3.048597e-001 1.784430e-001
<GCONST> 1.173989e+002
<MIXTURE> 3 1.584700e-001
<MEAN> 39
 -1.250510e+001 -4.002903e+000 -7.397368e-001 -3.980510e+000 -2.033742e+000 -4.862710e+000 -7.612270e-003 -1.186646e+000 2.892681e+000 -1.789586e+000 3.866501e+000 -2.379719e+000 5.100094e+001 -3.929418e-001 -2.798843e-001 -3.580138e-002 -3.474103e-002 3.719109e-002 1.214351e-002 1.628047e-001 4.923724e-001 3.086351e-001 -8.549523e-002 1.787437e-001 1.608189e-001 2.795058e-002 3.418439e-001 1.459671e-001 9.671374e-002 1.620843e-001 7.380714e-002 5.045836e-002 -2.182961e-002 -2.244948e-002 -2.225877e-002 -1.181158e-002 -1.862760e-001 -3.903410e-002 6.352368e-002
<VARIANCE> 39
 1.321472e+001 1.389389e+001 1.674170e+001 2.876377e+001 4.285092e+001 3.013294e+001 3.056546e+001 4.293182e+001 3.260889e+001 3.905079e+001 2.864728e+001 2.468150e+001 1.094164e+002 5.912004e-001 6.500814e-001 5.153444e-001 7.345679e-001 9.923567e-001 1.144496e+000 1.094156e+000 1.351932e+000 1.344265e+000 1.263121e+000 1.372845e+000 8.891761e-001 5.895665e-001 1.489548e-001 9.649667e-002 8.437428e-002 1.265874e-001 2.135893e-001 2.043367e-001 2.507455e-001 2.281543e-001 3.095501e-001 2.020078e-001 2.213763e-001 1.841401e-001 1.099179e-001
<GCONST> 9.165274e+001
<MIXTURE> 4 1.751860e-001
<MEAN> 39
 -1.014622e+001 -5.228832e+000 -2.796643e+000 -4.424225e+000 3.737715e-001 -3.381556e+000 1.193856e+000 -3.924825e+000 9.469095e-001 -3.190199e+000 2.088073e+000 -3.649853e+000 5.820501e+001 -3.318947e+000 -5.083362e-002 1.455833e-001 6.972148e-001 -5.820991e-002 5.467171e-001 5.824582e-002 1.060742e-001 3.612592e-001 3.499522e-002 1.975126e-001 3.382518e-001 -1.725870e+000 -4.782828e-002 -2.881124e-001 -3.470713e-001 -3.416792e-001 -1.909117e-001 -2.281796e-001 3.827138e-002 1.546213e-002 -7.693060e-002 -8.585318e-002 -1.070483e-001 -8.850995e-002 3.225051e-001
<VARIANCE> 39
 3.832080e+001 1.642899e+001 2.150992e+001 2.033377e+001 2.276884e+001 2.079897e+001 2.592805e+001 2.779247e+001 2.745160e+001 2.213983e+001 2.042071e+001 1.752649e+001 3.381623e+001 1.417135e+000 2.923654e+000 2.523397e+000 1.867948e+000 2.690094e+000 2.332111e+000 2.050249e+000 2.470534e+000 2.386879e+000 2.312274e+000 1.526414e+000 1.797396e+000 2.219891e+000 2.746284e-001 1.942388e-001 1.753367e-001 1.544449e-001 2.045965e-001 2.372561e-001 2.291676e-001 1.657881e-001 2.391648e-001 2.444516e-001 1.899401e-001 1.896110e-001 1.647363e-001
<GCONST> 1.018978e+002
<MIXTURE> 5 1.653812e-001
<MEAN> 39
 -9.482236e+000 -2.077924e+000 5.060615e-002 -1.931639e+000 1.107727e+000 -1.524270e+000 1.544171e+000 -2.052034e+000 2.349678e+000 -1.535239e+000 2.008761e+000 -2.581306e+000 4.698595e+001 -9.197640e-002 -4.923658e-002 -3.646512e-002 -1.407968e-001 -6.928983e-002 -5.442572e-002 5.213421e-002 8.336609e-002 -8.904760e-002 -2.118745e-001 -1.031917e-001 1.549875e-002 -4.990480e-002 6.651163e-003 -8.906642e-003 6.147304e-002 3.725327e-002 -5.131141e-002 -1.278264e-001 -7.655872e-002 -3.700013e-002 -1.227347e-001 -9.028284e-002 -5.234551e-002 2.033842e-002 6.604768e-002
<VARIANCE> 39
 9.933532e+000 7.142434e+000 7.534408e+000 8.320219e+000 9.519991e+000 1.563008e+001 1.974071e+001 2.238749e+001 2.408577e+001 2.441262e+001 1.948602e+001 1.850271e+001 7.423815e+001 1.326166e-001 2.700111e-001 2.631116e-001 3.800983e-001 4.482097e-001 5.444044e-001 7.545170e-001 7.686699e-001 7.105294e-001 8.164043e-001 8.428437e-001 7.186006e-001 1.091060e-001 3.046779e-002 4.534201e-002 4.583380e-002 7.852284e-002 7.966546e-002 9.126683e-002 1.417795e-001 1.704198e-001 1.322011e-001 1.428123e-001 1.545639e-001 1.197060e-001 1.522423e-002
<GCONST> 6.389092e+001
<MIXTURE> 6 1.834941e-001
<MEAN> 39
 -1.247814e+001 -2.771814e+000 -1.948942e-001 -3.168979e+000 -1.593443e+000 -5.054096e+000 -8.854803e-001 -3.953771e+000 2.145359e+000 -3.126038e+000 1.896656e+000 -2.310606e+000 4.826754e+001 -7.057223e-001 -6.632712e-001 -3.520821e-001 -3.442319e-001 -5.643113e-001 -4.142001e-001 7.078954e-003 -1.698427e-001 -1.116949e-001 -1.624963e-001 -4.792218e-002 -5.801310e-002 1.759572e-001 2.509125e-001 6.867680e-003 -7.453605e-004 -8.461868e-003 3.046857e-002 -6.057505e-003 3.038706e-002 7.832175e-002 1.519412e-002 -7.954012e-003 -1.576907e-002 -5.125297e-002 1.822246e-001
<VARIANCE> 39
 2.530900e+001 2.155428e+001 3.235410e+001 3.252446e+001 3.006032e+001 4.616951e+001 4.253457e+001 3.244336e+001 3.532184e+001 2.855383e+001 2.379832e+001 1.802606e+001 1.101643e+002 7.102789e-001 6.623080e-001 6.506608e-001 7.393921e-001 7.971578e-001 1.045995e+000 9.679886e-001 9.218171e-001 1.251496e+000 1.445636e+000 8.971376e-001 6.929395e-001 1.351297e+000 1.460780e-001 1.027241e-001 1.114726e-001 1.492490e-001 1.882906e-001 2.170456e-001 2.182778e-001 1.713229e-001 2.354181e-001 1.826730e-001 1.541687e-001 1.300718e-001 1.810354e-001
<GCONST> 9.217587e+001
<MIXTURE> 7 8.016725e-002
<MEAN> 39
 -1.064232e+001 9.471536e-002 3.333328e+000 -4.671125e+000 3.191520e-001 -6.330081e+000 -9.559222e-001 -4.572307e+000 -4.617917e-001 -3.362253e+000 2.614621e+000 -3.732699e+000 4.876151e+001 -1.411983e+000 -1.084108e+000 -6.787067e-001 1.247433e-001 -2.404268e-001 -1.697910e-001 4.399872e-001 -2.042407e-001 -1.917158e-001 -5.227149e-001 -1.757289e-001 5.803372e-002 -3.278033e-001 1.888186e-001 -8.991416e-002 -2.035151e-001 -3.056583e-001 -1.024453e-001 -6.423552e-002 -1.314418e-001 3.965538e-002 4.363617e-002 -2.602043e-002 -1.299219e-001 -9.282259e-002 1.677682e-001
<VARIANCE> 39
 3.868998e+001 3.976239e+001 5.558344e+001 5.933947e+001 8.004483e+001 5.643943e+001 5.836821e+001 8.327431e+001 6.380404e+001 6.436307e+001 5.925242e+001 4.838225e+001 8.065983e+001 1.846807e+000 1.260567e+000 1.798532e+000 2.112524e+000 2.427037e+000 2.226897e+000 2.193657e+000 2.377022e+000 2.280802e+000 2.073082e+000 1.827163e+000 2.240587e+000 1.422474e+000 3.272978e-001 1.705102e-001 1.847697e-001 2.230152e-001 3.277794e-001 2.775933e-001 3.570041e-001 4.270523e-001 3.353273e-001 3.609040e-001 3.395514e-001 3.456766e-001 1.431471e-001
<GCONST> 1.169762e+002
<STATE> 3
<NUMMIXES> 7
<MIXTURE> 1 1.920508e-001
<MEAN> 39
 -1.553695e+001 -7.316308e+000 -1.993845e+000 -8.268580e+000 -3.394099e+000 -6.259918e+000 8.941623e-001 -1.617381e+000 1.722211e+000 -2.844843e+000 1.694884e+000 -2.611670e+000 5.264857e+001 8.869063e-001 -3.022839e-001 -1.598433e-001 1.371054e-001 -4.283706e-002 -2.522936e-001 6.285745e-002 2.271491e-001 4.982918e-001 7.469680e-002 -2.626176e-001 4.670081e-002 5.039681e-001 8.749260e-001 1.405503e-001 -1.302289e-001 9.720260e-002 8.878729e-002 -6.487507e-002 -2.835348e-001 -1.176977e-001 1.912224e-001 8.336722e-002 -2.014566e-001 -8.784599e-002 2.592929e-001
<VARIANCE> 39
 3.492289e+001 3.699182e+001 4.758438e+001 7.241599e+001 5.571706e+001 6.483731e+001 4.856823e+001 4.125718e+001 5.735274e+001 5.144045e+001 3.844918e+001 3.420636e+001 6.899531e+001 3.042080e+000 1.313566e+000 1.537889e+000 1.920645e+000 1.663712e+000 1.940878e+000 1.731866e+000 1.381935e+000 1.725448e+000 1.421299e+000 1.472420e+000 1.150522e+000 1.042747e+000 3.183550e-001 2.021072e-001 3.442368e-001 2.757370e-001 3.532672e-001 4.199993e-001 3.162944e-001 3.245936e-001 3.879257e-001 4.022835e-001 2.793890e-001 2.538215e-001 2.079569e-001
<GCONST> 1.128088e+002
<MIXTURE> 2 9.634499e-002
<MEAN> 39
 -1.847015e+001 -9.089696e+000 -5.934108e+000 -7.300293e+000 -2.512812e+000 -4.185482e+000 1.442023e+000 -4.776203e+000 4.339254e-001 -3.400876e+000 1.865002e+000 -3.070867e+000 5.741915e+001 1.749729e-001 1.566483e-001 2.591230e-001 2.170433e-001 3.120498e-001 2.536038e-001 2.964617e-001 2.171720e-001 1.085320e-001 8.805878e-002 1.651585e-001 1.428672e-001 1.853502e-001 5.506635e-001 1.883417e-001 1.028184e-001 1.174141e-001 1.128709e-001 4.602370e-002 2.695766e-002 1.669560e-001 1.362123e-001 1.118007e-001 4.276499e-002 1.823468e-002 1.259605e-001
<VARIANCE> 39
 1.436884e+001 9.033228e+000 1.312901e+001 1.690590e+001 1.463805e+001 1.589314e+001 1.882678e+001 1.907254e+001 2.060176e+001 2.754846e+001 2.186805e+001 1.233692e+001 2.729775e+001 5.127477e-001 5.262536e-001 4.819310e-001 5.207974e-001 5.551994e-001 9.344056e-001 9.191807e-001 9.324551e-001 8.421827e-001 1.098088e+000 7.411791e-001 7.356090e-001 7.658703e-001 1.630458e-001 1.312416e-001 1.277287e-001 1.297028e-001 1.227883e-001 1.375341e-001 1.713643e-001 1.489990e-001 1.612630e-001 2.011637e-001 1.738906e-001 1.330234e-001 1.311729e-001
<GCONST> 7.915028e+001
<MIXTURE> 3 6.389191e-002
<MEAN> 39
 -1.456896e+001 -1.419401e+001 -1.180314e+001 -1.873120e+001 -1.271284e+001 -1.278323e+001 -4.161600e+000 -4.118305e+000 4.532600e+000 -1.884722e-001 3.950137e+000 -2.460828e+000 4.386703e+001 2.934939e-002 1.022133e-002 -5.715520e-002 1.382084e-002 3.328544e-003 2.420532e-002 1.130412e-002 -7.291185e-002 3.913487e-002 -8.986654e-002 -2.319613e-002 2.446114e-002 -6.226747e-002 2.848213e-003 -2.519566e-003 3.531709e-002 8.310180e-003 3.755052e-002 9.553413e-003 -5.413636e-003 1.424676e-002 1.244527e-002 -2.876041e-002 -1.016369e-002 1.947598e-002 2.637093e-002
<VARIANCE> 39
 1.874444e+000 5.378906e+000 8.229860e+000 1.001100e+001 1.037473e+001 1.174137e+001 1.351496e+001 2.330134e+001 1.632199e+001 2.018458e+001 1.793315e+001 1.536225e+001 3.143911e+000 9.412382e-002 2.407660e-001 3.058617e-001 4.548801e-001 4.159064e-001 5.219973e-001 6.268178e-001 1.029622e+000 7.452508e-001 8.987266e-001 4.903073e-001 7.976498e-001 1.496972e-001 2.312745e-002 3.539643e-002 5.869523e-002 8.337859e-002 7.829674e-002 8.808914e-002 1.095168e-001 1.245884e-001 1.332858e-001 1.673382e-001 8.824577e-002 1.639129e-001 3.654347e-002
<GCONST> 5.750524e+001
<MIXTURE> 4 1.864367e-001
<MEAN> 39
 -1.889636e+001 -8.876779e+000 -4.639298e+000 -3.859046e+000 -6.287745e-001 -4.391484e+000 1.529810e+000 -3.449967e+000 1.671635e+000 -3.429873e+000 1.695730e+000 -3.310818e+000 5.490330e+001 6.958579e-001 -5.639951e-002 -2.314072e-002 7.545896e-002 -1.513519e-002 4.707947e-002 9.342387e-002 1.105534e-001 1.953803e-001 1.559265e-001 -1.459894e-001 1.184032e-002 3.571973e-001 1.041866e+000 -1.911365e-002 -2.753706e-001 -2.361450e-001 -2.195425e-001 -9.042548e-002 -6.341215e-002 -8.520748e-002 4.090853e-002 -2.429782e-002 -6.902169e-002 -1.110816e-001 5.260340e-001
<VARIANCE> 39
 1.100861e+001 1.418254e+001 1.060646e+001 1.358740e+001 1.656396e+001 2.003635e+001 1.786648e+001 2.017282e+001 1.840541e+001 1.790039e+001 1.644283e+001 1.571606e+001 4.996178e+001 4.622742e+000 6.771165e-001 7.519183e-001 7.371090e-001 9.253590e-001 7.965283e-001 9.183496e-001 1.114287e+000 1.210330e+000 9.510726e-001 7.281035e-001 6.797678e-001 1.425530e+000 1.368576e-001 1.983345e-001 1.628975e-001 1.695138e-001 2.403811e-001 1.836902e-001 2.011767e-001 3.022452e-001 2.305629e-001 2.375093e-001 1.974415e-001 1.639435e-001 2.015010e-001
<GCONST> 8.766122e+001
<MIXTURE> 5 2.037482e-001
<MEAN> 39
 -2.029392e+001 -1.015715e+001 -6.963172e+000 -7.158023e+000 -2.145882e+000 -4.500492e+000 1.496737e+000 -2.222155e+000 3.535690e+000 -2.126656e+000 2.130447e+000 -4.375997e+000 5.649723e+001 -2.905675e-003 -3.320991e-001 -1.975429e-001 -1.152852e-001 -2.581265e-001 -2.856084e-001 -1.618728e-001 5.024389e-003 5.155276e-002 -2.238636e-002 5.649075e-002 1.416944e-001 1.072062e-001 5.637084e-001 1.662950e-001 1.760566e-001 5.580707e-002 -2.158871e-002 -8.828434e-003 -4.860254e-002 -2.012065e-001 -2.271520e-001 -9.598213e-002 -1.415766e-002 3.564789e-002 1.362576e-001
<VARIANCE> 39
 7.741092e+000 7.284947e+000 1.063012e+001 9.947379e+000 1.463252e+001 1.953881e+001 1.849570e+001 1.809549e+001 2.130530e+001 2.123134e+001 1.563218e+001 1.826882e+001 3.538609e+001 6.235874e-001 3.898251e-001 4.878659e-001 6.949610e-001 5.610629e-001 5.377174e-001 6.138524e-001 7.992389e-001 1.057253e+000 8.400383e-001 6.522053e-001 7.215262e-001 4.384697e-001 1.652993e-001 7.180013e-002 1.111634e-001 1.342274e-001 1.289361e-001 1.501482e-001 1.618494e-001 1.336282e-001 1.784306e-001 1.899556e-001 1.386934e-001 1.583562e-001 7.461091e-002
<GCONST> 7.485585e+001
<MIXTURE> 6 1.557039e-001
<MEAN> 39
 -1.874164e+001 -8.764746e+000 -6.151738e+000 -6.549304e+000 -2.560218e+000 -3.986411e+000 1.390628e+000 -3.350727e+000 1.746394e+000 -3.174724e+000 1.909859e+000 -2.955888e+000 5.531809e+001 -1.622569e+000 -6.229371e-001 -4.285155e-001 -1.726711e-002 -2.771473e-001 -5.043218e-002 3.216482e-004 6.494584e-003 3.527548e-003 -2.302939e-001 -1.011124e-001 -9.660989e-002 -4.941416e-001 8.412344e-001 1.195098e-001 -1.730113e-002 -1.675873e-001 2.759621e-002 -2.151443e-001 -7.967117e-002 -9.158945e-002 -2.098549e-002 1.531109e-002 -7.649446e-002 -1.331008e-001 3.718425e-001
<VARIANCE> 39
