~o
<STREAMINFO> 1 39
<VECSIZE> 39<NULLD><MFCC_D_A_0><DIAGC>
~h "hmmdef"
<BEGINHMM>
<NUMSTATES> 5
<STATE> 2
<MEAN> 39
 -6.744761e+000 -4.572526e+000 -4.535878e+000 -7.926845e+000 -1.817100e+000 -5.245615e+000 1.601950e-001 -4.057274e+000 1.019804e+000 -3.331049e+000 3.549325e-001 -3.998646e+000 5.737379e+001 7.376460e-004 9.577628e-004 1.601495e-003 1.098731e-003 1.052161e-003 -2.802852e-003 -8.388272e-004 -7.582262e-004 -3.423937e-003 -1.252313e-003 3.311899e-003 7.555332e-004 8.883996e-003 2.618354e-004 -9.752093e-005 -2.453432e-004 -1.523317e-004 -1.210932e-004 1.636645e-004 6.968671e-005 -2.617486e-004 1.546205e-004 3.143051e-004 1.044795e-004 -4.891617e-005 -4.781442e-004
<VARIANCE> 39
 6.462492e+001 6.956547e+001 7.186485e+001 6.999606e+001 6.448029e+001 5.750336e+001 5.624557e+001 5.199509e+001 4.839970e+001 4.834552e+001 3.956067e+001 3.605325e+001 2.053100e+002 2.030547e+000 1.873629e+000 2.088778e+000 2.383905e+000 2.166655e+000 2.160503e+000 2.096554e+000 1.969345e+000 1.976575e+000 1.841086e+000 1.561815e+000 1.321981e+000 4.059922e+000 2.501691e-001 2.287732e-001 2.698185e-001 3.290135e-001 3.102688e-001 3.204211e-001 3.165246e-001 3.070776e-001 3.084475e-001 2.916523e-001 2.485166e-001 2.121603e-001 4.972110e-001
<GCONST> 1.185049e+002
<STATE> 3
<MEAN> 39
 -6.744761e+000 -4.572526e+000 -4.535878e+000 -7.926845e+000 -1.817100e+000 -5.245615e+000 1.601950e-001 -4.057274e+000 1.019804e+000 -3.331049e+000 3.549325e-001 -3.998646e+000 5.737379e+001 7.376460e-004 9.577628e-004 1.601495e-003 1.098731e-003 1.052161e-003 -2.802852e-003 -8.388272e-004 -7.582262e-004 -3.423937e-003 -1.252313e-003 3.311899e-003 7.555332e-004 8.883996e-003 2.618354e-004 -9.752093e-005 -2.453432e-004 -1.523317e-004 -1.210932e-004 1.636645e-004 6.968671e-005 -2.617486e-004 1.546205e-004 3.143051e-004 1.044795e-004 -4.891617e-005 -4.781442e-004
<VARIANCE> 39
 6.462492e+001 6.956547e+001 7.186485e+001 6.999606e+001 6.448029e+001 5.750336e+001 5.624557e+001 5.199509e+001 4.839970e+001 4.834552e+001 3.956067e+001 3.605325e+001 2.053100e+002 2.030547e+000 1.873629e+000 2.088778e+000 2.383905e+000 2.166655e+000 2.160503e+000 2.096554e+000 1.969345e+000 1.976575e+000 1.841086e+000 1.561815e+000 1.321981e+000 4.059922e+000 2.501691e-001 2.287732e-001 2.698185e-001 3.290135e-001 3.102688e-001 3.204211e-001 3.165246e-001 3.070776e-001 3.084475e-001 2.916523e-001 2.485166e-001 2.121603e-001 4.972110e-001
<GCONST> 1.185049e+002
<STATE> 4
<MEAN> 39
 -6.744761e+000 -4.572526e+000 -4.535878e+000 -7.926845e+000 -1.817100e+000 -5.245615e+000 1.601950e-001 -4.057274e+000 1.019804e+000 -3.331049e+000 3.549325e-001 -3.998646e+000 5.737379e+001 7.376460e-004 9.577628e-004 1.601495e-003 1.098731e-003 1.052161e-003 -2.802852e-003 -8.388272e-004 -7.582262e-004 -3.423937e-003 -1.252313e-003 3.311899e-003 7.555332e-004 8.883996e-003 2.618354e-004 -9.752093e-005 -2.453432e-004 -1.523317e-004 -1.210932e-004 1.636645e-004 6.968671e-005 -2.617486e-004 1.546205e-004 3.143051e-004 1.044795e-004 -4.891617e-005 -4.781442e-004
<VARIANCE> 39
 6.462492e+001 6.956547e+001 7.186485e+001 6.999606e+001 6.448029e+001 5.750336e+001 5.624557e+001 5.199509e+001 4.839970e+001 4.834552e+001 3.956067e+001 3.605325e+001 2.053100e+002 2.030547e+000 1.873629e+000 2.088778e+000 2.383905e+000 2.166655e+000 2.160503e+000 2.096554e+000 1.969345e+000 1.976575e+000 1.841086e+000 1.561815e+000 1.321981e+000 4.059922e+000 2.501691e-001 2.287732e-001 2.698185e-001 3.290135e-001 3.102688e-001 3.204211e-001 3.165246e-001 3.070776e-001 3.084475e-001 2.916523e-001 2.485166e-001 2.121603e-001 4.972110e-001
<GCONST> 1.185049e+002
<TRANSP> 5
 0.000000e+000 1.000000e+000 0.000000e+000 0.000000e+000 0.000000e+000
 0.000000e+000 6.000000e-001 4.000000e-001 0.000000e+000 0.000000e+000
 0.000000e+000 0.000000e+000 6.000000e-001 4.000000e-001 0.000000e+000
 0.000000e+000 0.000000e+000 0.000000e+000 6.000000e-001 4.000000e-001
 0.000000e+000 0.000000e+000 0.000000e+000 0.000000e+000 0.000000e+000
<ENDHMM>
