~o
<STREAMINFO> 1 39
<VECSIZE> 39<NULLD><MFCC_D_A_0><DIAGC>
~h "zh"
<BEGINHMM>
<NUMSTATES> 5
<STATE> 2
<MEAN> 39
 -8.040998e+000 4.376382e+000 -6.048541e+000 -1.701976e+001 -2.128976e+000 -9.351133e+000 -1.371412e+000 -6.956336e+000 1.942021e+000 -6.229616e+000 -4.340941e+000 -7.707384e+000 6.668026e+001 -9.460416e-001 1.238463e+000 -2.142118e-001 7.087231e-001 5.579908e-001 5.175659e-004 4.273688e-002 -2.919545e-001 4.368391e-001 1.664912e-001 2.364646e-001 6.110405e-001 -4.844628e-001 -2.172120e-001 -2.234214e-001 -1.483789e-001 3.987280e-001 8.332034e-002 1.454884e-001 1.340422e-001 1.047175e-001 -7.314709e-002 -6.512854e-003 1.489731e-001 6.162595e-002 -2.199918e-001
<VARIANCE> 39
 1.696724e+001 2.154384e+001 3.909989e+001 5.509080e+001 3.087547e+001 2.882261e+001 2.259866e+001 3.861348e+001 2.118477e+001 5.945419e+001 3.377464e+001 9.308820e+001 2.994197e+001 2.732542e+000 2.156674e+000 2.682247e+000 5.017501e+000 1.542112e+000 1.622245e+000 2.516755e+000 1.520223e+000 1.776164e+000 1.332446e+000 9.179220e-001 1.836530e+000 2.233626e+000 2.947323e-001 2.091934e-001 3.606425e-001 4.489622e-001 3.065531e-001 2.749033e-001 3.240612e-001 3.716515e-001 2.332480e-001 1.873612e-001 1.629813e-001 2.981744e-001 1.559280e-001
<GCONST> 1.090167e+002
<STATE> 3
<MEAN> 39
 -1.184631e+001 1.057076e+001 -1.025095e+001 -7.416864e+000 -3.577051e+000 -8.190428e+000 -5.784460e-001 -1.112132e+001 2.109777e+000 -6.009238e+000 -5.494575e+000 -6.993703e+000 6.012521e+001 -1.430787e+000 1.972996e-001 -8.946419e-001 7.810678e-001 6.017044e-001 3.217801e-001 4.699093e-001 1.601502e-001 6.572382e-002 -3.181694e-001 2.779187e-001 -1.252499e-001 -6.309898e-001 1.484281e-001 -5.167662e-001 1.177684e-002 -3.893826e-001 2.686048e-002 2.160917e-002 -3.446465e-002 1.849914e-001 -3.449400e-002 -1.158286e-001 -1.352587e-002 -1.534957e-001 2.048473e-001
<VARIANCE> 39
 3.835730e+001 2.524761e+001 7.248993e+001 2.897380e+001 3.040173e+001 2.702925e+001 1.307028e+001 4.873170e+001 1.613005e+001 9.851688e+001 4.361937e+001 1.066158e+002 2.099635e+001 3.264643e+000 1.604289e+000 1.287949e+000 2.603533e+000 1.518586e+000 8.404310e-001 1.405432e+000 1.203214e+000 1.287920e+000 9.825624e-001 9.658273e-001 1.247239e+000 1.161366e+000 3.015343e-001 1.803200e-001 2.097786e-001 4.405540e-001 1.888063e-001 1.723753e-001 1.670292e-001 3.197865e-001 1.951537e-001 2.090364e-001 1.313420e-001 3.144879e-001 2.574632e-001
<GCONST> 1.030461e+002
<STATE> 4
<MEAN> 39
 -1.905907e+001 2.907617e+000 -1.036928e+001 -7.972982e+000 -1.002597e-001 -4.345393e+000 8.181986e-001 -5.739764e+000 2.093727e+000 -3.118018e+000 -1.160470e+000 -1.670540e+000 6.055341e+001 4.032796e-001 -5.458558e-001 2.690149e-001 -5.178298e-001 -6.961149e-002 -1.418623e-001 -6.190520e-002 -1.210055e-001 -9.799127e-002 -2.498605e-002 -8.803539e-003 -4.028850e-001 7.465717e-002 3.976928e-001 -4.804792e-002 2.585890e-001 -9.757859e-002 -1.591895e-001 -5.186423e-002 -1.392079e-001 -5.414357e-003 -3.208632e-002 1.991445e-002 -4.693287e-002 -2.403014e-002 1.196045e-001
<VARIANCE> 39
 6.168403e+001 3.102783e+001 3.101011e+001 3.117691e+001 2.371016e+001 2.462877e+001 3.532008e+001 4.546827e+001 1.534265e+001 2.679163e+001 4.616392e+001 4.438986e+001 2.295750e+001 3.489204e+000 9.022685e-001 1.612265e+000 1.835798e+000 1.853332e+000 8.721850e-001 1.300265e+000 1.918446e+000 7.214406e-001 9.677610e-001 1.121754e+000 1.153904e+000 1.447618e+000 3.724915e-001 1.613643e-001 1.220389e-001 2.330908e-001 2.808169e-001 1.437052e-001 2.144589e-001 3.131624e-001 1.393510e-001 1.806348e-001 2.061612e-001 1.804634e-001 1.546636e-001
<GCONST> 9.940997e+001
<TRANSP> 5
 0.000000e+000 1.000000e+000 0.000000e+000 0.000000e+000 0.000000e+000
 0.000000e+000 7.071500e-001 2.928500e-001 0.000000e+000 0.000000e+000
 0.000000e+000 0.000000e+000 7.158298e-001 2.841702e-001 0.000000e+000
 0.000000e+000 0.000000e+000 0.000000e+000 8.630701e-001 1.369298e-001
 0.000000e+000 0.000000e+000 0.000000e+000 0.000000e+000 0.000000e+000
<ENDHMM>
~h "b"
<BEGINHMM>
<NUMSTATES> 5
<STATE> 2
<MEAN> 39
 -1.723316e+000 1.008889e+000 6.750175e-001 -6.954838e-001 1.563764e+000 -6.442667e+000 -2.689352e+000 -4.520988e+000 -9.357572e-001 -5.225545e+000 1.440693e+000 -4.256165e+000 4.486386e+001 -3.751313e-001 7.084705e-001 6.172246e-001 9.163110e-001 8.238690e-001 5.592988e-001 -5.455633e-002 -1.317367e-001 -2.847094e-002 -2.027178e-001 -1.193500e-001 7.657248e-002 -2.106716e+000 -3.394092e-001 -4.596134e-001 -4.887550e-001 -5.863433e-001 -3.796321e-001 1.204039e-003 2.233944e-001 4.880989e-002 1.633685e-001 1.707265e-001 -2.394548e-002 2.316210e-002 1.192071e+000
<VARIANCE> 39
 4.185663e+001 2.586156e+001 2.937875e+001 3.447219e+001 3.629408e+001 3.198993e+001 3.650536e+001 4.077493e+001 3.187975e+001 3.545696e+001 2.971437e+001 2.420914e+001 5.191263e+001 2.187674e+000 2.754848e+000 2.515020e+000 3.552974e+000 2.478923e+000 1.892404e+000 2.339942e+000 2.295083e+000 1.836249e+000 2.081267e+000 1.394587e+000 1.162313e+000 7.901806e+000 2.370422e-001 4.446942e-001 3.610577e-001 5.304152e-001 4.377771e-001 3.589554e-001 4.226297e-001 3.818097e-001 3.465228e-001 3.437526e-001 2.491834e-001 2.357460e-001 8.793107e-001
<GCONST> 1.159409e+002
<STATE> 3
<MEAN> 39
 -7.500217e+000 -5.278034e-001 -5.988807e-001 -8.503246e-001 1.868863e+000 -3.640938e+000 -8.587292e-001 -3.881682e+000 2.931560e-001 -4.193833e+000 8.650502e-001 -3.397951e+000 4.281388e+001 -5.060333e-001 -1.254394e+000 -1.370100e+000 -1.531135e+000 -1.056318e+000 -1.744806e-001 4.685255e-001 2.159359e-001 5.257592e-001 3.764834e-001 3.936817e-002 -3.236491e-002 3.452273e+000 4.338511e-001 -3.281739e-001 -5.227149e-001 -4.876083e-001 -3.152731e-001 -3.593240e-001 -1.594620e-002 3.862494e-002 6.011309e-002 6.036702e-003 -6.174147e-003 -1.211466e-001 1.371891e+000
<VARIANCE> 39
 4.559296e+001 2.694697e+001 2.660005e+001 2.731604e+001 2.483973e+001 2.450017e+001 2.788779e+001 2.706449e+001 2.517403e+001 2.854270e+001 2.144871e+001 1.922552e+001 6.930135e+001 2.450465e+000 1.986742e+000 3.124397e+000 2.014129e+000 1.661349e+000 1.702963e+000 2.002241e+000 1.998451e+000 1.686035e+000 1.406850e+000 1.370986e+000 1.236717e+000 5.750710e+000 3.417129e-001 4.561238e-001 4.869239e-001 3.921254e-001 3.499747e-001 2.768472e-001 3.377414e-001 3.879293e-001 2.980595e-001 2.701429e-001 2.453297e-001 2.032565e-001 6.722779e-001
<GCONST> 1.104482e+002
<STATE> 4
<MEAN> 39
 -5.324394e+000 -6.542355e+000 -8.007441e+000 -8.405493e+000 -2.578858e+000 -7.236574e+000 8.455149e-001 -3.344449e+000 2.746726e+000 -3.166945e+000 1.344040e+000 -4.738804e+000 6.306685e+001 1.021772e+000 -1.397474e+000 -2.262267e+000 -1.821451e+000 -8.221240e-001 -8.403777e-001 3.070753e-001 1.103263e-001 3.959819e-001 8.264300e-002 -1.276266e-001 -3.484637e-001 4.766845e+000 2.010589e-001 2.455146e-001 1.874646e-001 2.890009e-001 2.531609e-001 8.966926e-002 -1.284953e-001 -8.663233e-002 -1.583520e-001 -9.341013e-002 -5.496425e-002 4.059195e-002 -6.856123e-001
<VARIANCE> 39
 4.406389e+001 2.896807e+001 8.266242e+001 3.579175e+001 4.203935e+001 2.902253e+001 4.010878e+001 4.228626e+001 2.988597e+001 2.885909e+001 2.724727e+001 3.006536e+001 6.649862e+001 3.056568e+000 3.547573e+000 3.968312e+000 3.117983e+000 3.030100e+000 2.370345e+000 3.048089e+000 2.895471e+000 2.508638e+000 1.869366e+000 1.790640e+000 1.914217e+000 3.559399e+000 3.760139e-001 2.154286e-001 4.343608e-001 2.817574e-001 3.035305e-001 2.911672e-001 2.950943e-001 3.033192e-001 2.852559e-001 2.373958e-001 2.599216e-001 2.450015e-001 6.297560e-001
<GCONST> 1.167627e+002
<TRANSP> 5
 0.000000e+000 1.000000e+000 0.000000e+000 0.000000e+000 0.000000e+000
 0.000000e+000 7.163472e-001 2.836529e-001 0.000000e+000 0.000000e+000
 0.000000e+000 0.000000e+000 5.951831e-001 4.048169e-001 0.000000e+000
 0.000000e+000 0.000000e+000 0.000000e+000 5.641244e-001 4.358756e-001
 0.000000e+000 0.000000e+000 0.000000e+000 0.000000e+000 0.000000e+000
<ENDHMM>
~h "d"
<BEGINHMM>
<NUMSTATES> 5
<STATE> 2
<MEAN> 39
 -6.210331e+000 3.088718e+000 3.025764e+000 -3.806096e+000 -1.148293e+000 -4.845655e+000 -6.374345e-001 -5.973423e+000 -1.800755e+000 -3.536605e+000 -1.929675e+000 -4.107277e+000 4.456513e+001 -8.540090e-001 -1.351519e-001 -4.842270e-001 1.055443e+000 3.094043e-001 2.864545e-001 1.601634e-001 3.076823e-001 8.909946e-004 -7.678339e-002 7.008865e-003 7.762959e-002 -6.437494e-001 -1.671313e-001 -4.846694e-001 -5.643058e-001 -6.825622e-001 -3.042811e-001 -4.240957e-002 3.088993e-002 5.074316e-002 3.024235e-001 5.967484e-002 1.672492e-001 1.519690e-002 1.382136e+000
<VARIANCE> 39
 3.194499e+001 3.409236e+001 3.766755e+001 4.691076e+001 2.973473e+001 3.414404e+001 3.176182e+001 2.896719e+001 3.738673e+001 3.593872e+001 3.493745e+001 2.741966e+001 7.078236e+001 1.967402e+000 3.081053e+000 3.407650e+000 4.699416e+000 2.721138e+000 2.214264e+000 2.072541e+000 1.855861e+000 2.316057e+000 2.102033e+000 1.839661e+000 1.469060e+000 1.292237e+001 3.100901e-001 3.368511e-001 4.095616e-001 6.088148e-001 3.803850e-001 3.782963e-001 3.527483e-001 3.107981e-001 3.715335e-001 3.424970e-001 3.106945e-001 2.847109e-001 9.318124e-001
<GCONST> 1.187221e+002
<STATE> 3
<MEAN> 39
 -1.358820e+001 -3.257128e+000 -5.983437e+000 -6.352306e+000 -1.532429e+000 -4.122614e+000 -4.342615e-001 -4.366576e+000 1.997753e+000 -3.773584e+000 5.789173e-001 -2.751294e+000 5.568292e+001 -2.106779e-001 -9.958110e-001 -1.374044e+000 -2.119687e+000 -1.222732e+000 -1.243781e-001 3.670695e-001 -1.242735e-002 8.714100e-001 3.190728e-001 1.641971e-001 -7.024103e-002 4.495354e+000 6.024563e-001 -1.255844e-002 2.754126e-001 -3.849849e-001 -1.782535e-001 -1.505830e-001 1.867936e-001 -1.261471e-001 -1.081192e-001 -1.682294e-003 -1.329622e-001 -1.831194e-001 2.796803e-001
<VARIANCE> 39
 2.337386e+001 2.894849e+001 3.445450e+001 4.190672e+001 2.798042e+001 2.780600e+001 2.726331e+001 3.106516e+001 3.404529e+001 3.134829e+001 2.886093e+001 2.553333e+001 1.191402e+002 2.654390e+000 1.938090e+000 2.148154e+000 2.578244e+000 2.047983e+000 2.188739e+000 2.103073e+000 2.167621e+000 2.282614e+000 2.280190e+000 2.067533e+000 1.891725e+000 6.208260e+000 2.362671e-001 3.381377e-001 3.647448e-001 5.925922e-001 3.785086e-001 3.492748e-001 3.545793e-001 3.822879e-001 4.268061e-001 4.080163e-001 3.260211e-001 3.352046e-001 9.447819e-001
<GCONST> 1.163304e+002
<STATE> 4
<MEAN> 39
 -8.941166e+000 -5.569440e+000 -6.915009e+000 -1.349125e+001 -5.877386e+000 -4.184568e+000 3.082172e+000 -6.100752e+000 2.446980e+000 -2.525259e+000 -1.238181e+000 -4.919794e+000 6.761411e+001 7.886356e-001 -1.327914e+000 -5.729846e-001 -8.322177e-001 -4.337487e-001 -6.247624e-002 8.069995e-001 -2.380365e-002 -3.246659e-001 -1.349477e-001 -3.854511e-002 -4.963638e-001 2.622842e+000 1.347907e-001 2.516401e-002 2.244924e-001 6.078406e-001 3.995762e-001 -3.379023e-002 -1.797159e-001 1.070353e-001 -2.923895e-001 -1.931884e-001 6.704673e-002 5.407470e-002 -9.255500e-001
<VARIANCE> 39
 2.344804e+001 3.829492e+001 2.512906e+001 4.636089e+001 4.598204e+001 3.559380e+001 4.335807e+001 4.374717e+001 4.270861e+001 6.440023e+001 4.233104e+001 4.042937e+001 9.521929e+001 2.072235e+000 2.277197e+000 1.888323e+000 4.353593e+000 2.872526e+000 2.647376e+000 2.478658e+000 3.356566e+000 3.258802e+000 3.220442e+000 2.484238e+000 2.098710e+000 5.642689e+000 2.882973e-001 2.635032e-001 2.819099e-001 5.451960e-001 5.153803e-001 3.505293e-001 3.908974e-001 4.014441e-001 4.747103e-001 6.730245e-001 4.101676e-001 3.546703e-001 5.072538e-001
<GCONST> 1.221842e+002
<TRANSP> 5
 0.000000e+000 1.000000e+000 0.000000e+000 0.000000e+000 0.000000e+000
 0.000000e+000 7.053044e-001 2.946956e-001 0.000000e+000 0.000000e+000
 0.000000e+000 0.000000e+000 4.561171e-001 5.438828e-001 0.000000e+000
 0.000000e+000 0.000000e+000 0.000000e+000 5.663587e-001 4.336413e-001
 0.000000e+000 0.000000e+000 0.000000e+000 0.000000e+000 0.000000e+000
<ENDHMM>
~h "f"
<BEGINHMM>
<NUMSTATES> 5
<STATE> 2
<MEAN> 39
 -1.594683e+001 -7.393011e+000 -5.081620e+000 -5.699811e+000 -1.092689e+000 -3.720870e+000 1.154258e+000 -4.209674e+000 1.045871e+000 -3.278207e+000 2.102939e+000 -3.669735e+000 5.602273e+001 -2.094795e+000 -3.718915e-001 -1.334150e-001 2.130361e-001 -8.449131e-002 1.639089e-001 1.612416e-001 1.986716e-001 2.401751e-001 -1.363055e-001 3.082344e-002 1.161152e-001 -8.650990e-001 4.339646e-001 -2.892946e-002 -1.094662e-001 -1.786062e-001 -8.923798e-002 -1.464511e-001 -3.060544e-002 -2.520530e-002 -2.963194e-002 2.054545e-002 -1.015068e-001 -6.723506e-002 3.000247e-001
<VARIANCE> 39
 3.507766e+001 1.530218e+001 1.795177e+001 1.624791e+001 1.874307e+001 2.116946e+001 2.173882e+001 2.556301e+001 2.621931e+001 2.163776e+001 1.787568e+001 1.722747e+001 4.420942e+001 3.046402e+000 1.644989e+000 1.921906e+000 1.246731e+000 1.605993e+000 1.531859e+000 1.486802e+000 1.744020e+000 1.486933e+000 1.539437e+000 1.099882e+000 1.172463e+000 2.339539e+000 3.419978e-001 2.775821e-001 2.477282e-001 2.125866e-001 2.219593e-001 2.632760e-001 2.450468e-001 2.302526e-001 2.471148e-001 2.426131e-001 1.652783e-001 1.947539e-001 3.133609e-001
<GCONST> 9.964899e+001
<STATE> 3
<MEAN> 39
 -1.896665e+001 -9.387410e+000 -6.375793e+000 -6.551667e+000 -2.261955e+000 -4.553889e+000 1.253187e+000 -3.834264e+000 1.675693e+000 -3.132666e+000 1.956811e+000 -3.537772e+000 5.664566e+001 7.166817e-001 -6.393676e-002 -1.288004e-001 -5.859402e-002 -8.375437e-002 -1.633065e-001 -5.067129e-002 -6.421546e-003 3.381583e-002 -7.838947e-002 -1.512729e-001 -1.518642e-002 4.031878e-001 6.894755e-001 6.848327e-002 -5.233093e-002 -5.844447e-002 -9.025978e-003 -6.651309e-002 -2.369988e-002 -5.011437e-002 -1.191071e-002 -4.150495e-002 -4.822379e-002 -5.786439e-002 3.010799e-001
<VARIANCE> 39
 1.376408e+001 1.084413e+001 1.305932e+001 1.564783e+001 1.675969e+001 1.865307e+001 1.856997e+001 1.999616e+001 2.167788e+001 2.281450e+001 1.934532e+001 1.702105e+001 3.250903e+001 3.082317e+000 7.300012e-001 9.063069e-001 8.693758e-001 9.443305e-001 8.954892e-001 8.508720e-001 1.077795e+000 1.195322e+000 1.165407e+000 8.722085e-001 7.894593e-001 1.417568e+000 2.274590e-001 1.630589e-001 2.153320e-001 1.909147e-001 2.102923e-001 1.733474e-001 1.751702e-001 2.268464e-001 2.225933e-001 2.199216e-001 1.853248e-001 1.740500e-001 2.161430e-001
<GCONST> 8.876669e+001
<STATE> 4
<MEAN> 39
 -9.598146e+000 -7.893034e+000 -7.289821e+000 -6.527101e+000 -1.414365e+000 -5.194113e+000 9.296993e-001 -4.165426e+000 1.288368e+000 -4.072628e+000 3.482661e-001 -4.147563e+000 5.933615e+001 3.196780e+000 -2.185636e-001 -9.971930e-001 -7.619159e-001 -2.354387e-001 -5.765497e-001 -5.796525e-002 -2.469490e-001 2.297131e-001 -3.758953e-001 -3.798411e-001 -3.839274e-001 1.961588e+000 -8.793321e-002 -1.435882e-001 -1.102538e-001 -1.687700e-001 -8.842763e-002 -4.537569e-002 5.075780e-002 -1.401511e-002 7.628749e-002 -1.687125e-002 6.997324e-002 8.675760e-004 2.583312e-001
<VARIANCE> 39
 7.107298e+001 2.163172e+001 3.526207e+001 2.912130e+001 2.937903e+001 2.591188e+001 2.365175e+001 2.957835e+001 3.030391e+001 3.052176e+001 2.370852e+001 2.161921e+001 4.153783e+001 2.535685e+000 2.572291e+000 3.260823e+000 2.718302e+000 3.514688e+000 1.794457e+000 1.813472e+000 2.373962e+000 2.295386e+000 2.139978e+000 1.727797e+000 1.532425e+000 3.246300e+000 4.674383e-001 1.918589e-001 2.721430e-001 2.519953e-001 2.718394e-001 2.455053e-001 2.388537e-001 3.068160e-001 2.584228e-001 2.077260e-001 1.996423e-001 2.088565e-001 2.624629e-001
<GCONST> 1.091808e+002
<TRANSP> 5
 0.000000e+000 1.000000e+000 0.000000e+000 0.000000e+000 0.000000e+000
 0.000000e+000 6.841703e-001 3.158297e-001 0.000000e+000 0.000000e+000
 0.000000e+000 0.000000e+000 7.988902e-001 2.011098e-001 0.000000e+000
 0.000000e+000 0.000000e+000 0.000000e+000 5.582452e-001 4.417548e-001
 0.000000e+000 0.000000e+000 0.000000e+000 0.000000e+000 0.000000e+000
<ENDHMM>
~h "g"
<BEGINHMM>
<NUMSTATES> 5
<STATE> 2
<MEAN> 39
 -4.458921e+000 1.535855e+000 2.867788e+000 -1.081646e+001 -1.564940e+000 -6.597394e+000 -5.216589e+000 -4.099473e+000 -5.235921e-001 -3.945566e+000 9.249819e-001 -3.278250e+000 5.082578e+001 -6.161788e-001 -1.283884e-001 3.763490e-001 1.934566e+000 1.765830e-001 3.979747e-002 2.247335e-001 -1.371722e-001 -2.884481e-001 -2.087816e-001 3.307393e-002 9.195429e-002 -2.255600e+000 -2.682853e-001 -7.757461e-001 -5.535418e-001 2.359030e-002 -1.045912e-001 3.150025e-002 4.872666e-001 6.086635e-002 1.212134e-001 3.498998e-002 -4.261122e-002 -3.987061e-002 8.690780e-001
<VARIANCE> 39
 3.124262e+001 3.176015e+001 4.426732e+001 8.193557e+001 5.247393e+001 7.721317e+001 6.597012e+001 4.607940e+001 4.298589e+001 4.083190e+001 3.318216e+001 2.928811e+001 9.245840e+001 1.942837e+000 3.567643e+000 3.107337e+000 4.298073e+000 3.357228e+000 3.671994e+000 3.473830e+000 2.308995e+000 2.270961e+000 1.984007e+000 1.637954e+000 1.334562e+000 7.572548e+000 2.514876e-001 4.508993e-001 4.462416e-001 8.151921e-001 3.941939e-001 5.582753e-001 5.424562e-001 4.428557e-001 4.138826e-001 3.673578e-001 3.153172e-001 2.478536e-001 1.190989e+000
<GCONST> 1.250240e+002
<STATE> 3
<MEAN> 39
 -9.265413e+000 -3.263018e+000 1.160175e+000 -2.745103e+000 -1.682544e+000 -4.717086e+000 -1.740602e+000 -4.631759e+000 -1.137005e+000 -4.079847e+000 8.747889e-001 -3.453678e+000 4.591358e+001 -1.003504e+000 -2.590418e+000 -1.494227e+000 5.864590e-001 -5.879003e-001 -1.452989e-001 1.201276e+000 2.386850e-001 4.794980e-001 8.158617e-002 5.311168e-002 6.226602e-002 1.984963e+000 4.136693e-001 -4.928618e-002 -2.498525e-001 -7.507880e-001 -2.744072e-001 -1.955744e-001 -4.233325e-002 8.624158e-002 2.249413e-001 1.087063e-001 8.438647e-003 -4.869699e-002 1.296396e+000
<VARIANCE> 39
 4.303711e+001 7.101093e+001 4.395198e+001 4.050405e+001 3.519511e+001 4.140001e+001 4.059320e+001 3.518990e+001 3.373308e+001 2.674494e+001 2.524029e+001 2.161459e+001 8.715107e+001 2.384787e+000 2.815778e+000 2.767174e+000 4.746984e+000 3.204579e+000 4.023957e+000 2.882245e+000 2.780996e+000 1.985498e+000 2.256385e+000 1.601681e+000 1.409744e+000 4.903434e+000 3.639251e-001 6.581129e-001 5.030253e-001 4.432532e-001 4.922448e-001 4.389559e-001 4.813967e-001 4.019392e-001 3.265901e-001 3.335100e-001 3.079464e-001 2.096041e-001 7.376766e-001
<GCONST> 1.209651e+002
<STATE> 4
<MEAN> 39
 -9.383590e+000 -1.113425e+001 -3.791341e+000 -5.825960e+000 -4.834290e+000 -6.843209e+000 9.202305e-001 -3.340492e+000 1.806260e+000 -2.882733e+000 1.847397e+000 -3.142063e+000 5.927297e+001 9.361539e-001 -4.223566e-001 -8.319375e-001 -7.308055e-001 -8.920140e-001 -4.357318e-001 3.481867e-001 3.957580e-002 7.358291e-001 1.496408e-002 1.029796e-002 -1.366477e-001 2.745454e+000 4.843923e-001 6.405906e-001 2.238081e-001 -1.980185e-001 1.419189e-002 6.040517e-002 -3.043768e-001 -1.135930e-001 -6.103729e-002 -9.493283e-002 -4.634727e-002 -7.512148e-002 -2.135464e-001
<VARIANCE> 39
 3.603838e+001 6.692350e+001 4.174721e+001 6.584245e+001 4.186962e+001 4.773032e+001 3.843497e+001 3.716524e+001 2.845309e+001 2.609478e+001 2.511886e+001 2.035738e+001 4.839585e+001 3.073877e+000 3.648398e+000 3.120623e+000 2.783465e+000 2.909530e+000 3.081900e+000 2.834343e+000 2.582590e+000 1.852880e+000 1.784516e+000 1.859495e+000 1.413796e+000 3.214174e+000 3.850259e-001 7.210129e-001 4.011776e-001 5.652649e-001 4.402047e-001 5.357278e-001 5.028796e-001 5.087730e-001 2.887259e-001 3.598165e-001 3.107028e-001 2.407480e-001 4.942304e-001
<GCONST> 1.199330e+002
<TRANSP> 5
 0.000000e+000 1.000000e+000 0.000000e+000 0.000000e+000 0.000000e+000
 0.000000e+000 6.751076e-001 3.248924e-001 0.000000e+000 0.000000e+000
 0.000000e+000 0.000000e+000 5.139115e-001 4.860885e-001 0.000000e+000
 0.000000e+000 0.000000e+000 0.000000e+000 6.500213e-001 3.499787e-001
 0.000000e+000 0.000000e+000 0.000000e+000 0.000000e+000 0.000000e+000
<ENDHMM>
~h "k"
<BEGINHMM>
<NUMSTATES> 5
<STATE> 2
<MEAN> 39
 -1.187058e+001 -3.216716e+000 5.368557e-001 -5.624162e+000 -1.734330e+000 -2.706979e+000 -1.218652e+000 -3.636965e+000 -1.412373e-001 -3.784545e+000 1.081686e+000 -3.730785e+000 4.463660e+001 -1.393117e+000 -5.858378e-001 -2.233951e-001 1.485289e+000 6.188167e-001 6.251116e-002 6.276405e-001 3.571516e-001 1.802057e-001 -1.507379e-002 1.346832e-001 3.169917e-001 -2.909488e+000 6.225101e-002 -4.640452e-001 -5.426049e-001 -3.791957e-001 -1.668824e-001 -1.522052e-001 1.823490e-001 -1.942843e-002 1.178127e-001 6.475697e-002 -5.674214e-002 -2.496827e-002 1.531222e+000
<VARIANCE> 39
 3.045619e+001 4.709792e+001 2.888095e+001 6.365496e+001 4.868158e+001 4.438781e+001 5.225005e+001 3.584152e+001 3.522470e+001 3.160312e+001 2.926737e+001 2.072326e+001 1.269407e+002 2.226330e+000 4.160639e+000 2.590603e+000 3.968023e+000 3.572085e+000 2.901729e+000 3.090970e+000 2.339821e+000 1.978961e+000 1.661859e+000 1.787109e+000 1.233692e+000 1.067793e+001 2.763167e-001 4.646118e-001 2.831795e-001 7.496291e-001 5.137770e-001 3.956046e-001 5.131657e-001 3.837342e-001 3.577881e-001 3.003662e-001 2.745385e-001 2.087965e-001 1.772321e+000
<GCONST> 1.218265e+002
<STATE> 3
<MEAN> 39
 -1.555980e+001 -7.776241e+000 -2.923856e+000 -3.430864e+000 -1.454312e+000 -3.144734e+000 1.500902e+000 -2.323712e+000 8.305134e-001 -2.912032e+000 1.483423e+000 -2.684189e+000 4.410867e+001 -3.088371e-001 -1.305310e+000 -1.226145e+000 -6.465763e-001 -2.696823e-001 -4.890599e-001 5.270168e-001 1.217105e-001 4.692203e-001 2.042610e-001 -4.504140e-002 -8.692887e-003 3.298858e+000 4.840150e-001 3.373464e-001 -1.891116e-002 -4.895570e-001 -1.687950e-001 -8.816159e-002 -2.249362e-001 -1.375256e-001 3.563837e-002 -3.244963e-004 -4.288957e-002 -1.490059e-001 1.191043e+000
<VARIANCE> 39
 1.755560e+001 4.728412e+001 2.577187e+001 3.919577e+001 3.387741e+001 3.038783e+001 2.374483e+001 2.696323e+001 2.334435e+001 2.090510e+001 1.875865e+001 1.708965e+001 1.208889e+002 1.918384e+000 2.391152e+000 1.944749e+000 2.544130e+000 2.430791e+000 2.131445e+000 2.089014e+000 2.003339e+000 1.860034e+000 1.504002e+000 1.192924e+000 9.681304e-001 6.398497e+000 2.246474e-001 4.344532e-001 3.060971e-001 4.595249e-001 4.683500e-001 3.513226e-001 3.275963e-001 3.394517e-001 2.815078e-001 2.598843e-001 2.713190e-001 1.812895e-001 1.371583e+000
<GCONST> 1.110975e+002
<STATE> 4
<MEAN> 39
 -1.393405e+001 -8.693429e+000 -6.815715e+000 -7.999082e+000 -1.610960e+000 -5.600933e+000 2.153223e+000 -3.300626e+000 2.540544e+000 -2.915381e+000 1.054969e+000 -3.916193e+000 6.079937e+001 1.047772e+000 3.464187e-001 -2.555418e-001 -9.077999e-001 9.015799e-003 -4.935466e-002 -2.822626e-001 -3.157279e-001 8.304922e-002 -3.275323e-002 -1.634097e-001 -3.209260e-001 2.306588e+000 2.930112e-001 2.403905e-001 2.164350e-001 -9.737791e-003 9.154812e-003 1.473723e-001 -1.988640e-001 -8.572089e-002 -1.492571e-001 -6.709564e-002 -4.468867e-002 -4.269033e-002 -4.915564e-001
<VARIANCE> 39
 2.541527e+001 6.701017e+001 3.678535e+001 4.947427e+001 4.648001e+001 4.083939e+001 3.187038e+001 3.539801e+001 3.000029e+001 2.845339e+001 2.299161e+001 2.218845e+001 3.645052e+001 1.974851e+000 2.282375e+000 2.199659e+000 2.247399e+000 2.342284e+000 2.313015e+000 1.700222e+000 1.783616e+000 1.724986e+000 1.489364e+000 1.453669e+000 1.194514e+000 4.491453e+000 2.174782e-001 4.955456e-001 3.426874e-001 3.686134e-001 4.266887e-001 3.702414e-001 3.159578e-001 3.379616e-001 3.179899e-001 2.795673e-001 2.595316e-001 2.286983e-001 8.182942e-001
<GCONST> 1.128576e+002
<TRANSP> 5
 0.000000e+000 1.000000e+000 0.000000e+000 0.000000e+000 0.000000e+000
 0.000000e+000 6.796286e-001 3.203714e-001 0.000000e+000 0.000000e+000
 0.000000e+000 0.000000e+000 5.563901e-001 4.436099e-001 0.000000e+000
 0.000000e+000 0.000000e+000 0.000000e+000 7.378545e-001 2.621455e-001
 0.000000e+000 0.000000e+000 0.000000e+000 0.000000e+000 0.000000e+000
<ENDHMM>
~h "l"
<BEGINHMM>
<NUMSTATES> 5
<STATE> 2
<MEAN> 39
 1.888235e+000 -7.479032e+000 -1.896176e+001 -5.589180e+000 -4.109203e-001 -1.062947e+001 -1.021450e+000 -2.633164e+000 2.359260e+000 -3.129904e+000 -3.532768e-001 -5.562797e+000 6.629923e+001 6.985742e-001 6.961454e-002 -9.205531e-001 2.404538e-001 1.614535e-001 -5.146921e-001 -3.004010e-001 4.247980e-001 1.893934e-001 2.155258e-003 -2.216376e-001 5.769531e-002 1.988608e-001 -3.464281e-001 -3.579516e-002 4.910612e-001 -1.228194e-001 -1.829119e-001 2.336366e-001 1.763556e-001 -4.519678e-002 -1.346525e-001 -7.333620e-003 3.441191e-002 5.641201e-002 -6.359629e-002
<VARIANCE> 39
 1.821903e+001 4.569003e+001 5.631871e+001 3.522346e+001 4.618879e+001 4.658277e+001 7.083276e+001 6.577962e+001 3.978952e+001 5.496128e+001 3.596987e+001 3.245842e+001 3.808325e+001 1.532994e+000 1.830257e+000 3.284730e+000 1.875875e+000 2.673030e+000 2.203080e+000 3.265028e+000 3.191988e+000 2.377413e+000 2.258271e+000 1.727440e+000 1.274554e+000 2.373560e+000 2.099883e-001 2.446034e-001 3.404618e-001 3.020364e-001 3.515618e-001 3.332889e-001 5.340253e-001 5.314296e-001 4.327985e-001 3.808191e-001 3.037848e-001 1.996670e-001 2.542574e-001
<GCONST> 1.161868e+002
<STATE> 3
<MEAN> 39
 1.683945e+000 -8.405350e+000 -1.790663e+001 -4.778882e+000 -2.410996e+000 -1.145693e+001 7.570070e-001 -2.960751e-001 1.173742e+000 -4.117932e+000 -4.655975e-001 -4.542209e+000 6.657706e+001 -7.449787e-001 3.802755e-002 1.703432e+000 -3.743460e-001 -9.437794e-001 5.429388e-001 8.952776e-001 -3.143142e-001 -8.768457e-001 1.148951e-001 2.446903e-001 1.125262e-001 -5.681526e-002 -3.777058e-001 1.741919e-001 4.977122e-001 -2.643707e-001 -9.091812e-003 3.883729e-001 -2.655759e-002 -3.705559e-001 1.763600e-002 1.069023e-001 4.291476e-002 -3.924015e-002 -1.628295e-001
<VARIANCE> 39
 1.692874e+001 3.469942e+001 4.372570e+001 2.970322e+001 4.722646e+001 5.907425e+001 7.959432e+001 6.877752e+001 4.157064e+001 4.940221e+001 3.296675e+001 3.489536e+001 3.912370e+001 1.047708e+000 1.989781e+000 2.822963e+000 1.967509e+000 2.522203e+000 2.501554e+000 4.091691e+000 2.791782e+000 2.338818e+000 2.129749e+000 1.573127e+000 1.239253e+000 3.102561e+000 1.950899e-001 2.176170e-001 2.753637e-001 3.602380e-001 3.004524e-001 4.117266e-001 5.407701e-001 4.845589e-001 3.768004e-001 3.766895e-001 2.571442e-001 2.167927e-001 2.103541e-001
<GCONST> 1.149406e+002
<STATE> 4
<MEAN> 39
 -2.155570e+000 -7.392179e+000 -1.008889e+001 -7.516132e+000 -5.355595e+000 -6.395388e+000 2.986429e+000 -4.549676e+000 -6.901691e-001 -2.173905e+000 2.942127e-001 -5.099940e+000 6.429614e+001 -1.384720e+000 7.851721e-001 2.032761e+000 -1.113850e+000 -2.435656e-001 1.081439e+000 -2.860353e-001 -9.161361e-001 1.129129e-001 1.758584e-001 2.797127e-002 1.473387e-001 -5.583840e-001 -7.927698e-002 1.733153e-001 -1.933766e-001 -5.547974e-002 3.840138e-001 -8.190414e-002 -3.727407e-001 8.836510e-002 2.377363e-001 -1.354458e-001 -1.405660e-003 3.644169e-002 -1.548466e-001
<VARIANCE> 39
 2.529753e+001 3.865550e+001 6.006907e+001 4.655852e+001 7.341507e+001 6.467512e+001 7.902560e+001 6.253397e+001 4.937726e+001 4.696098e+001 3.297662e+001 3.419439e+001 9.897619e+001 1.268975e+000 2.588844e+000 2.749235e+000 3.941800e+000 2.407966e+000 3.039127e+000 3.821367e+000 2.992004e+000 2.492745e+000 2.148872e+000 1.560825e+000 1.478086e+000 3.335055e+000 2.080366e-001 2.827219e-001 3.510715e-001 3.986790e-001 4.754473e-001 4.692509e-001 7.052985e-001 4.526438e-001 4.265930e-001 3.448125e-001 2.619243e-001 2.360465e-001 2.908942e-001
<GCONST> 1.211829e+002
<TRANSP> 5
 0.000000e+000 1.000000e+000 0.000000e+000 0.000000e+000 0.000000e+000
 0.000000e+000 7.599649e-001 2.400351e-001 0.000000e+000 0.000000e+000
 0.000000e+000 0.000000e+000 5.479642e-001 4.520359e-001 0.000000e+000
 0.000000e+000 0.000000e+000 0.000000e+000 5.340548e-001 4.659452e-001
 0.000000e+000 0.000000e+000 0.000000e+000 0.000000e+000 0.000000e+000
<ENDHMM>
~h "m"
<BEGINHMM>
<NUMSTATES> 5
<STATE> 2
<MEAN> 39
 -2.630322e+000 -4.691871e+000 -1.062992e+000 -7.151906e+000 -1.357358e+000 -9.822978e+000 -3.952528e+000 -2.801613e+000 -3.152570e+000 -5.937665e+000 1.841438e-001 -6.604730e+000 5.753058e+001 7.921138e-001 8.232217e-001 1.541546e+000 1.726434e-001 5.351754e-001 -1.229779e+000 -1.380282e+000 4.030560e-001 -7.074143e-001 -9.797582e-002 1.950901e-002 -1.565586e-001 -8.648220e-001 -2.102688e-001 -5.408219e-002 -2.094110e-001 -1.601675e-001 -7.441628e-002 2.283468e-001 1.733143e-001 -1.416916e-001 1.753338e-001 7.257075e-002 -8.989879e-002 5.426145e-002 3.322300e-001
<VARIANCE> 39
 2.670992e+001 3.294435e+001 4.326498e+001 3.375109e+001 5.246254e+001 6.068442e+001 6.595696e+001 5.613792e+001 5.735902e+001 6.823085e+001 7.804138e+001 4.768786e+001 6.664475e+001 2.029405e+000 1.873284e+000 2.208956e+000 2.493752e+000 2.680598e+000 3.115277e+000 2.936865e+000 2.818505e+000 3.231006e+000 3.570542e+000 3.353502e+000 2.114293e+000 3.717410e+000 2.128072e-001 2.747929e-001 3.252164e-001 2.869668e-001 3.857513e-001 4.317554e-001 4.496248e-001 4.183707e-001 4.755242e-001 4.704131e-001 4.162075e-001 2.972835e-001 4.115458e-001
<GCONST> 1.225656e+002
<STATE> 3
<MEAN> 39
 -8.298838e-001 -2.945153e+000 3.219212e+000 -7.862355e+000 3.146703e-001 -1.334291e+001 -7.240486e+000 -2.148947e+000 -4.195865e+000 -4.852731e+000 1.323774e-001 -6.238671e+000 5.780106e+001 -1.542091e-001 6.092295e-002 -1.451801e-001 -2.012777e-001 -7.232247e-002 3.305410e-001 6.221317e-002 -3.782620e-001 1.474809e-001 -1.925787e-002 -2.865206e-002 -4.132381e-002 4.784951e-001 -3.446885e-001 -2.705202e-001 -7.273532e-001 -1.054476e-001 -1.766571e-001 5.616326e-001 5.580329e-001 -1.823744e-001 3.194935e-001 -6.567718e-002 5.929271e-003 4.492330e-002 3.701009e-001
<VARIANCE> 39
 9.690785e+000 2.199186e+001 3.818574e+001 3.379053e+001 5.295579e+001 6.544152e+001 6.345680e+001 7.063840e+001 6.545312e+001 9.010122e+001 8.448108e+001 4.804379e+001 2.623331e+001 1.135892e+000 1.530960e+000 2.677498e+000 1.727174e+000 2.042471e+000 2.639019e+000 2.487221e+000 2.356082e+000 2.321469e+000 2.498662e+000 1.975221e+000 1.635985e+000 3.905193e+000 2.387301e-001 2.292488e-001 3.228753e-001 3.012639e-001 3.434470e-001 4.286957e-001 4.863792e-001 5.190842e-001 5.328392e-001 6.544077e-001 5.206979e-001 3.482645e-001 2.300596e-001
<GCONST> 1.180906e+002
<STATE> 4
<MEAN> 39
 -2.939090e+000 -4.888407e+000 -1.986470e+000 -8.217135e+000 -1.445904e+000 -7.907080e+000 -3.466637e+000 -5.455682e+000 -1.570296e+000 -5.938623e+000 6.171215e-001 -6.418521e+000 6.082801e+001 -9.593039e-001 -5.160803e-001 -1.827391e+000 -5.613073e-001 -1.926090e-001 1.443526e+000 1.269051e+000 -4.275541e-001 8.877385e-001 -2.804171e-001 -1.082105e-001 1.422482e-001 1.282596e+000 -1.582409e-001 4.354675e-004 -1.235883e-001 -1.000161e-001 5.668362e-002 -1.464704e-002 1.179229e-001 1.250416e-001 1.763104e-002 4.147540e-002 -1.502475e-002 7.254831e-002 1.402870e-002
<VARIANCE> 39
 1.769930e+001 3.869752e+001 5.741813e+001 4.314045e+001 5.275760e+001 4.700434e+001 5.992535e+001 5.072215e+001 5.022789e+001 6.725783e+001 5.723612e+001 3.948803e+001 7.398125e+001 1.672363e+000 2.336974e+000 2.802944e+000 2.697731e+000 2.663938e+000 2.757301e+000 3.074343e+000 3.154729e+000 3.332270e+000 4.689734e+000 3.343416e+000 2.149673e+000 3.396065e+000 1.778630e-001 3.010378e-001 4.383206e-001 2.850146e-001 3.657587e-001 3.973286e-001 4.522586e-001 4.024791e-001 3.978003e-001 4.556376e-001 3.615744e-001 2.573967e-001 3.634959e-001
<GCONST> 1.218711e+002
<TRANSP> 5
 0.000000e+000 1.000000e+000 0.000000e+000 0.000000e+000 0.000000e+000
 0.000000e+000 6.058491e-001 3.941509e-001 0.000000e+000 0.000000e+000
 0.000000e+000 0.000000e+000 6.485037e-001 3.514963e-001 0.000000e+000
 0.000000e+000 0.000000e+000 0.000000e+000 5.371971e-001 4.628029e-001
 0.000000e+000 0.000000e+000 0.000000e+000 0.000000e+000 0.000000e+000
<ENDHMM>
~h "n"
<BEGINHMM>
<NUMSTATES> 5
<STATE> 2
<MEAN> 39
 -2.686896e+000 -2.789764e+000 -2.034281e+000 -1.304790e+001 8.832840e-001 -8.200543e+000 -1.449939e+000 -7.007428e+000 -1.545138e+000 -5.451303e+000 -2.508103e+000 -6.110664e+000 6.037334e+001 7.389022e-001 6.946933e-001 1.008336e+000 -1.740153e-001 9.356418e-001 -1.232136e+000 -3.888988e-001 3.477314e-002 -6.117176e-001 3.469122e-001 -3.164992e-001 1.318813e-001 -1.335607e+000 -2.279391e-001 -9.820257e-002 -2.499386e-001 1.714688e-001 -1.354200e-001 1.789973e-001 7.906187e-002 3.890633e-002 1.314352e-001 -3.324107e-002 9.362254e-002 5.045142e-002 1.342276e-001
<VARIANCE> 39
 1.590226e+001 3.469226e+001 4.864434e+001 3.759054e+001 5.002312e+001 6.575636e+001 5.676249e+001 5.529469e+001 7.335963e+001 7.913734e+001 4.614077e+001 4.548006e+001 4.246080e+001 1.110750e+000 1.723910e+000 1.587057e+000 2.244384e+000 2.531771e+000 3.227499e+000 2.572887e+000 2.339540e+000 2.516559e+000 2.261417e+000 1.978787e+000 1.486860e+000 2.405736e+000 1.834034e-001 1.845546e-001 3.042299e-001 2.755320e-001 3.554127e-001 5.220664e-001 3.377235e-001 3.662381e-001 3.713964e-001 3.428295e-001 2.922911e-001 2.261935e-001 2.695441e-001
<GCONST> 1.154993e+002
<STATE> 3
<MEAN> 39
 -8.483974e-001 -1.571458e+000 9.985874e-001 -1.317783e+001 3.411380e+000 -1.185704e+001 -2.395919e+000 -5.907193e+000 -2.775313e+000 -2.975179e+000 -2.683577e+000 -4.583258e+000 5.712995e+001 -2.405392e-001 1.888170e-001 -2.138326e-002 4.232107e-001 -5.981034e-002 1.488295e-001 -4.685310e-002 -3.549514e-002 -3.008588e-002 9.224983e-002 2.088397e-001 1.231388e-001 -4.636011e-001 -4.672152e-001 -3.033505e-001 -5.385301e-001 2.447032e-001 -4.585655e-001 6.288192e-001 2.200739e-001 -6.687481e-003 3.184889e-001 -1.997543e-001 1.748621e-001 -2.733370e-002 4.427307e-001
<VARIANCE> 39
 1.213784e+001 2.534405e+001 3.680914e+001 3.065165e+001 4.201656e+001 6.085498e+001 6.046109e+001 6.209655e+001 8.087942e+001 6.807304e+001 4.771078e+001 3.964023e+001 3.435450e+001 1.141477e+000 1.417998e+000 1.404838e+000 1.918593e+000 2.170184e+000 2.980969e+000 2.056067e+000 2.006067e+000 1.989390e+000 1.875547e+000 1.385941e+000 1.288858e+000 3.245625e+000 2.244350e-001 2.542676e-001 3.205581e-001 3.018818e-001 3.818240e-001 5.353763e-001 4.600154e-001 4.622128e-001 5.276592e-001 4.109267e-001 3.622578e-001 2.684399e-001 2.715231e-001
<GCONST> 1.145407e+002
<STATE> 4
<MEAN> 39
 -4.012667e+000 -2.528462e+000 -1.658031e+000 -1.054342e+001 1.173571e-001 -6.801550e+000 -1.081485e+000 -7.209305e+000 -1.570608e+000 -3.819165e+000 -9.912413e-001 -4.647762e+000 5.731751e+001 -1.133916e+000 -6.809233e-001 -1.057665e+000 7.632941e-001 -7.475674e-001 1.188166e+000 4.668829e-001 3.825948e-002 5.289952e-001 -3.014945e-001 4.347697e-001 5.993880e-002 5.128556e-001 -1.571362e-001 -2.256244e-001 -2.603869e-001 1.262625e-002 -7.736944e-002 6.917061e-002 8.277561e-002 9.347409e-002 1.380402e-001 -8.751474e-002 2.068251e-003 -1.507353e-002 2.715056e-001
<VARIANCE> 39
 2.544070e+001 3.808089e+001 4.055402e+001 3.900157e+001 4.275419e+001 5.979169e+001 5.802314e+001 4.929389e+001 6.720066e+001 5.643911e+001 4.065380e+001 3.551521e+001 9.089768e+001 2.012918e+000 1.986252e+000 1.811914e+000 2.288191e+000 2.365408e+000 3.165297e+000 2.596274e+000 2.847752e+000 2.814908e+000 2.497602e+000 2.060692e+000 1.599505e+000 3.800455e+000 2.904981e-001 2.479904e-001 2.956050e-001 3.026277e-001 3.497919e-001 4.688423e-001 3.454886e-001 3.598675e-001 4.234114e-001 3.109559e-001 2.753642e-001 2.292496e-001 4.269431e-001
<GCONST> 1.184716e+002
<TRANSP> 5
 0.000000e+000 1.000000e+000 0.000000e+000 0.000000e+000 0.000000e+000
 0.000000e+000 5.656044e-001 4.343956e-001 0.000000e+000 0.000000e+000
 0.000000e+000 0.000000e+000 5.341459e-001 4.658542e-001 0.000000e+000
 0.000000e+000 0.000000e+000 0.000000e+000 5.184237e-001 4.815762e-001
 0.000000e+000 0.000000e+000 0.000000e+000 0.000000e+000 0.000000e+000
<ENDHMM>
~h "p"
<BEGINHMM>
<NUMSTATES> 5
<STATE> 2
<MEAN> 39
 -9.212941e+000 -1.634959e+000 -1.305534e+000 -1.410618e+000 1.048619e+000 -5.442331e+000 -1.140611e+000 -4.008670e+000 -8.212478e-001 -5.341423e+000 6.209899e-001 -3.747029e+000 4.044365e+001 -1.570267e+000 -1.231020e-001 2.726516e-001 4.701743e-001 3.911633e-001 6.426888e-001 3.694456e-001 9.398145e-002 1.734725e-001 -2.477204e-002 1.509375e-001 3.570375e-001 -2.819542e+000 1.386154e-002 -4.674575e-001 -4.134846e-001 -4.727928e-001 -2.973901e-001 -2.795068e-002 1.811573e-001 9.967077e-002 1.520555e-001 1.977389e-001 7.439228e-002 -3.718809e-002 1.513037e+000
<VARIANCE> 39
 3.430233e+001 2.171523e+001 2.184537e+001 2.032798e+001 2.013142e+001 2.690785e+001 2.533237e+001 2.774469e+001 3.088143e+001 2.395241e+001 2.675712e+001 2.269861e+001 7.149174e+001 2.414487e+000 2.150904e+000 2.448640e+000 2.182951e+000 1.921835e+000 1.989411e+000 1.909133e+000 1.874526e+000 2.007993e+000 1.692264e+000 1.818515e+000 1.125933e+000 1.068713e+001 4.174750e-001 3.224148e-001 2.631972e-001 3.252649e-001 2.903304e-001 3.245988e-001 2.967768e-001 2.778173e-001 3.188510e-001 2.795099e-001 2.574257e-001 2.101916e-001 1.386092e+000
<GCONST> 1.104408e+002
<STATE> 3
<MEAN> 39
 -1.400095e+001 -5.329449e+000 -3.832376e+000 -3.445361e+000 -3.252473e-001 -3.772180e+000 1.360020e+000 -2.222157e+000 9.686847e-001 -3.414927e+000 2.230631e+000 -2.604217e+000 4.251329e+001 1.534263e-001 -1.128520e+000 -7.246373e-001 -7.317188e-001 -5.209799e-001 3.558080e-002 4.327145e-001 1.998271e-001 4.452926e-001 4.243221e-001 2.454310e-001 -3.725391e-002 3.719675e+000 6.035204e-001 -7.549128e-002 -9.578548e-002 -1.195763e-001 -8.350918e-002 -1.564632e-001 -1.468708e-001 -1.293014e-001 -3.948026e-002 -3.550697e-002 -1.387441e-001 -1.976103e-001 1.025501e+000
<VARIANCE> 39
 6.782763e+000 1.508095e+001 1.075465e+001 1.589794e+001 1.546805e+001 1.855129e+001 2.066531e+001 1.843493e+001 2.133698e+001 1.940287e+001 1.612633e+001 1.490165e+001 1.155984e+002 1.715579e+000 1.223936e+000 1.425368e+000 1.349085e+000 1.296545e+000 1.439070e+000 1.292060e+000 1.483857e+000 1.445858e+000 1.401026e+000 1.179463e+000 1.047994e+000 6.013158e+000 2.444576e-001 1.910715e-001 2.211768e-001 2.671703e-001 2.698590e-001 2.563592e-001 2.594940e-001 2.593756e-001 2.695469e-001 2.549525e-001 2.478369e-001 1.834792e-001 1.416344e+000
<GCONST> 9.800627e+001
<STATE> 4
<MEAN> 39
 -1.027243e+001 -1.005849e+001 -6.915399e+000 -5.681598e+000 -9.191367e-001 -4.284301e+000 2.349021e+000 -2.527837e+000 1.938263e+000 -2.254116e+000 2.136123e+000 -4.228870e+000 5.992395e+001 1.698234e+000 -8.696479e-001 -9.046805e-001 -5.371141e-001 -2.853625e-001 -2.777718e-001 -2.399722e-001 -3.745643e-001 -5.615379e-002 -1.066662e-002 -4.232807e-001 -5.117927e-001 3.138057e+000 2.940089e-001 2.091265e-001 5.559878e-002 4.766649e-002 -8.963296e-003 -8.861110e-002 -1.786292e-001 -9.525923e-002 -1.374964e-001 -1.789546e-001 -1.693127e-001 -2.088822e-002 -5.588037e-001
<VARIANCE> 39
 2.906673e+001 2.528048e+001 3.671251e+001 2.625510e+001 3.766023e+001 3.009909e+001 3.055634e+001 3.588056e+001 2.980196e+001 3.649413e+001 2.930011e+001 2.132243e+001 4.205311e+001 2.005273e+000 1.912459e+000 2.376455e+000 2.303519e+000 2.655444e+000 1.961019e+000 1.715326e+000 2.354478e+000 1.744871e+000 2.348165e+000 1.701497e+000 1.324702e+000 5.295848e+000 2.703314e-001 1.978050e-001 2.227923e-001 2.497573e-001 3.406437e-001 2.744153e-001 3.117190e-001 3.389466e-001 3.186005e-001 3.574871e-001 2.691090e-001 1.967528e-001 6.481838e-001
<GCONST> 1.103494e+002
<TRANSP> 5
 0.000000e+000 1.000000e+000 0.000000e+000 0.000000e+000 0.000000e+000
 0.000000e+000 7.126951e-001 2.873049e-001 0.000000e+000 0.000000e+000
 0.000000e+000 0.000000e+000 6.713037e-001 3.286963e-001 0.000000e+000
 0.000000e+000 0.000000e+000 0.000000e+000 6.681716e-001 3.318284e-001
 0.000000e+000 0.000000e+000 0.000000e+000 0.000000e+000 0.000000e+000
<ENDHMM>
~h "r"
<BEGINHMM>
<NUMSTATES> 5
<STATE> 2
<MEAN> 39
 -4.709917e-002 -1.378099e+001 -4.416462e+000 -5.254362e+000 -1.072685e+001 -6.061617e+000 -2.757725e-001 -5.950400e+000 4.578282e+000 -5.231937e+000 1.526027e+000 -4.495086e+000 6.489800e+001 1.121155e+000 -8.085603e-001 4.914754e-002 2.195099e-001 -1.340852e+000 3.149238e-002 2.393652e-001 -2.443312e-001 4.396463e-001 -2.723181e-001 -1.469270e-001 -3.959547e-002 7.654783e-001 -3.754189e-001 2.280060e-001 8.759440e-002 -3.482514e-001 1.994186e-001 1.729073e-001 -1.406949e-002 4.046057e-002 -9.868544e-002 2.768179e-002 7.668683e-003 -1.823767e-002 -5.421563e-003
<VARIANCE> 39
 4.714460e+001 4.229324e+001 4.786363e+001 4.941992e+001 6.173971e+001 5.738121e+001 4.948321e+001 4.233725e+001 5.195307e+001 4.195011e+001 4.066285e+001 3.082589e+001 5.455338e+001 2.594797e+000 2.003422e+000 2.369539e+000 3.185072e+000 3.057749e+000 2.645509e+000 2.615390e+000 2.381469e+000 2.286608e+000 2.462734e+000 2.077664e+000 1.440523e+000 2.808880e+000 3.273713e-001 2.360420e-001 2.856403e-001 3.572250e-001 4.831884e-001 4.156993e-001 3.854885e-001 3.154524e-001 3.602567e-001 3.917063e-001 3.275798e-001 2.712676e-001 2.959559e-001
<GCONST> 1.189786e+002
<STATE> 3
<MEAN> 39
 2.966491e-001 -1.600518e+001 -2.340461e+000 -7.314843e+000 -1.594636e+001 -3.901444e+000 2.357209e+000 -6.138760e+000 4.906200e+000 -6.303095e+000 2.026705e+000 -5.252532e+000 6.864709e+001 -5.069104e-001 6.143777e-001 7.851302e-001 -1.422832e+000 -7.480578e-002 8.275125e-001 -2.463452e-001 -2.169831e-001 -1.672744e-001 4.246293e-002 1.046395e-001 -2.705099e-001 4.510480e-001 -4.365707e-001 5.309414e-001 -1.045349e-001 -2.574073e-001 8.067530e-001 6.500479e-004 -2.816797e-001 1.189194e-001 -1.803472e-001 1.421765e-001 -4.940512e-002 1.910036e-002 -2.807114e-001
<VARIANCE> 39
 1.647000e+001 3.658680e+001 4.279198e+001 5.772721e+001 6.978931e+001 6.219934e+001 4.596106e+001 4.667303e+001 4.611498e+001 3.578996e+001 4.714786e+001 3.713161e+001 3.055314e+001 1.614589e+000 2.055749e+000 2.109143e+000 3.171693e+000 2.832807e+000 3.412363e+000 3.449295e+000 2.376545e+000 2.657841e+000 2.420232e+000 1.748223e+000 1.783408e+000 3.497548e+000 2.006050e-001 1.731770e-001 2.014051e-001 3.482599e-001 3.899289e-001 4.140717e-001 3.580853e-001 3.155948e-001 3.526323e-001 3.087991e-001 3.406285e-001 2.933596e-001 2.441905e-001
<GCONST> 1.160052e+002
<STATE> 4
<MEAN> 39
 -2.911613e+000 -1.212328e+001 1.987680e-001 -1.421459e+001 -1.164337e+001 -6.444192e-001 -8.606834e-001 -5.975760e+000 3.762062e+000 -5.140791e+000 1.479100e+000 -6.421580e+000 6.876924e+001 -1.089325e+000 1.950552e+000 3.419537e-002 -1.277287e+000 1.852520e+000 -6.508690e-002 -8.016772e-001 1.989709e-001 -5.040755e-001 3.444950e-001 -2.075004e-001 1.677486e-002 -4.043876e-001 -1.339671e-001 2.488542e-001 -3.834625e-001 3.984789e-001 4.582147e-001 -4.259871e-001 8.648317e-002 1.039940e-001 -1.268441e-001 5.066129e-002 -5.618547e-002 1.734840e-001 -2.955654e-001
<VARIANCE> 39
 1.550640e+001 4.331289e+001 4.570192e+001 6.367512e+001 8.056023e+001 5.864530e+001 6.253812e+001 6.131958e+001 4.548384e+001 3.664655e+001 4.379553e+001 3.179691e+001 4.355461e+001 1.230436e+000 2.297435e+000 1.952191e+000 3.630774e+000 2.501065e+000 3.270123e+000 2.764038e+000 2.220688e+000 2.527706e+000 2.039550e+000 1.883289e+000 1.826499e+000 5.125980e+000 1.992957e-001 2.209625e-001 2.500561e-001 3.731256e-001 4.368033e-001 4.184751e-001 4.055558e-001 4.186920e-001 3.505369e-001 3.314592e-001 2.970452e-001 2.526059e-001 2.524140e-001
<GCONST> 1.176440e+002
<TRANSP> 5
 0.000000e+000 1.000000e+000 0.000000e+000 0.000000e+000 0.000000e+000
 0.000000e+000 6.426182e-001 3.573818e-001 0.000000e+000 0.000000e+000
 0.000000e+000 0.000000e+000 5.160992e-001 4.839008e-001 0.000000e+000
 0.000000e+000 0.000000e+000 0.000000e+000 4.997135e-001 5.002865e-001
 0.000000e+000 0.000000e+000 0.000000e+000 0.000000e+000 0.000000e+000
<ENDHMM>
~h "s"
<BEGINHMM>
<NUMSTATES> 5
<STATE> 2
<MEAN> 39
 -1.669043e+001 -3.158735e+000 -7.678503e+000 -4.264249e+000 -2.888550e+000 -1.457507e+000 1.706374e-001 -4.223806e+000 1.891008e+000 -2.180475e+000 8.305789e-001 -3.266978e+000 5.728838e+001 -2.349283e+000 -3.849834e-001 -1.294392e+000 7.488658e-001 -9.022497e-002 5.762452e-001 -2.518695e-001 2.998526e-001 3.134643e-001 -2.407106e-001 -2.292784e-002 1.492915e-001 -5.965598e-001 4.191496e-001 -1.414106e-001 6.556454e-002 -3.403407e-001 -1.279661e-001 -2.669960e-001 2.466821e-003 -1.071211e-001 -1.034620e-001 -5.523849e-003 -8.325168e-002 -5.952598e-002 2.863849e-001
<VARIANCE> 39
 2.401893e+001 2.330001e+001 2.136105e+001 2.493856e+001 2.986506e+001 2.446774e+001 2.606716e+001 2.808984e+001 2.565504e+001 3.264227e+001 2.273943e+001 2.378773e+001 4.036547e+001 1.560184e+000 2.172146e+000 1.342746e+000 1.488469e+000 1.554016e+000 1.726593e+000 1.937418e+000 2.109328e+000 1.893852e+000 1.819433e+000 1.463893e+000 1.192657e+000 2.070806e+000 2.337696e-001 3.020767e-001 2.723875e-001 2.574467e-001 2.510678e-001 2.509484e-001 2.628298e-001 3.032404e-001 2.628984e-001 2.822105e-001 1.926146e-001 1.877358e-001 3.348240e-001
<GCONST> 1.034073e+002
<STATE> 3
<MEAN> 39
 -1.981749e+001 -4.914715e+000 -1.061690e+001 -4.477889e+000 -4.354203e+000 -1.927238e+000 -7.499347e-001 -4.422107e+000 1.687954e+000 -2.292375e+000 2.195650e-001 -3.219840e+000 5.773717e+001 -3.275666e-002 -5.072668e-002 -3.401340e-002 -6.136272e-002 -1.063588e-001 -6.132506e-002 8.794838e-002 -5.383134e-002 -7.515312e-002 3.989492e-002 -2.476501e-002 1.837878e-003 -2.430935e-002 4.173402e-001 8.667822e-002 2.836217e-001 -8.912114e-002 3.350114e-002 -8.348081e-002 7.649842e-002 -1.422577e-002 -5.432806e-002 9.177781e-003 2.059653e-002 -2.632292e-002 -2.432832e-002
<VARIANCE> 39
 7.747071e+000 1.432900e+001 1.418176e+001 1.897698e+001 2.361676e+001 2.068084e+001 2.074714e+001 2.328008e+001 2.433515e+001 2.646136e+001 2.437258e+001 1.999894e+001 2.212880e+001 8.639349e-001 6.519271e-001 8.139189e-001 7.712699e-001 8.326132e-001 8.964655e-001 1.003485e+000 1.071420e+000 1.009245e+000 1.045508e+000 9.446933e-001 8.382635e-001 1.102459e+000 1.497262e-001 1.397587e-001 1.482833e-001 1.458168e-001 1.612163e-001 1.855978e-001 2.039926e-001 2.278707e-001 2.040977e-001 2.003535e-001 1.877983e-001 1.573634e-001 2.113950e-001
<GCONST> 8.621392e+001
<STATE> 4
<MEAN> 39
 -1.754369e+001 -4.539924e+000 -8.351556e+000 -5.276870e+000 -4.077264e+000 -2.018777e+000 8.857730e-001 -4.532947e+000 1.501546e+000 -2.106971e+000 3.984461e-001 -3.398825e+000 5.685613e+001 1.835630e+000 8.344927e-002 1.000627e+000 -6.016794e-001 -5.558934e-002 -7.598994e-001 2.009536e-001 -2.885565e-002 -3.334029e-001 -1.600813e-001 4.703985e-003 -2.780365e-001 -1.642262e-001 3.209600e-001 -6.652898e-002 7.698974e-002 -1.257065e-001 -7.415867e-004 -1.959116e-001 -7.569390e-002 1.152271e-002 -3.862680e-002 -8.595538e-002 8.365014e-003 -6.653843e-002 1.147170e-001
<VARIANCE> 39
 2.048717e+001 2.104842e+001 2.012437e+001 2.784363e+001 3.248938e+001 2.881363e+001 2.885970e+001 2.962652e+001 3.042464e+001 3.852946e+001 3.072738e+001 2.569844e+001 4.091049e+001 1.891079e+000 1.600780e+000 1.581552e+000 1.932228e+000 1.979167e+000 1.747932e+000 1.966083e+000 2.210341e+000 1.538104e+000 1.601234e+000 1.781094e+000 1.110149e+000 5.646080e+000 2.175873e-001 1.981773e-001 2.148689e-001 2.400012e-001 2.834333e-001 2.677953e-001 3.070797e-001 2.814007e-001 2.635203e-001 2.860118e-001 2.720878e-001 2.394371e-001 4.918281e-001
<GCONST> 1.062023e+002
<TRANSP> 5
 0.000000e+000 1.000000e+000 0.000000e+000 0.000000e+000 0.000000e+000
 0.000000e+000 6.435740e-001 3.564260e-001 0.000000e+000 0.000000e+000
 0.000000e+000 0.000000e+000 8.164750e-001 1.835250e-001 0.000000e+000
 0.000000e+000 0.000000e+000 0.000000e+000 5.731210e-001 4.268791e-001
 0.000000e+000 0.000000e+000 0.000000e+000 0.000000e+000 0.000000e+000
<ENDHMM>
~h "t"
<BEGINHMM>
<NUMSTATES> 5
<STATE> 2
<MEAN> 39
 -1.258634e+001 -1.482195e+000 -2.135035e+000 -2.550877e+000 -7.537451e-001 -3.783278e+000 -1.996560e-001 -3.855094e+000 -2.708881e-001 -4.134296e+000 3.146293e-001 -3.670122e+000 4.147961e+001 -1.284036e+000 -6.275322e-001 -4.354275e-001 6.936644e-001 5.579204e-001 4.271308e-001 3.039547e-001 6.221370e-001 2.289934e-001 1.190193e-002 3.187927e-001 3.207961e-001 -1.741856e+000 9.749372e-002 -2.633293e-001 -4.082546e-001 -5.873162e-001 -1.868267e-001 -7.955566e-002 1.235193e-002 -4.578203e-002 2.048947e-001 5.922827e-002 1.370557e-002 7.517945e-003 1.554520e+000
<VARIANCE> 39
 2.999240e+001 2.942095e+001 2.644706e+001 2.579545e+001 2.458157e+001 2.918964e+001 2.881736e+001 3.030501e+001 2.795484e+001 2.518954e+001 2.697345e+001 1.997494e+001 6.557711e+001 2.301219e+000 2.256970e+000 2.512366e+000 2.556796e+000 2.110480e+000 2.225610e+000 1.938223e+000 2.037651e+000 2.035603e+000 1.845639e+000 1.633760e+000 1.258704e+000 1.055467e+001 2.732851e-001 3.297381e-001 2.855529e-001 3.483537e-001 3.140348e-001 2.877647e-001 2.913045e-001 3.211626e-001 3.100950e-001 3.015282e-001 2.694282e-001 2.290346e-001 1.128875e+000
<GCONST> 1.116705e+002
<STATE> 3
<MEAN> 39
 -1.586311e+001 -4.889398e+000 -6.393913e+000 -4.162680e+000 -7.395875e-001 -3.137871e+000 3.206815e-001 -1.926700e+000 1.755381e+000 -3.272367e+000 1.808223e+000 -2.478060e+000 4.607089e+001 -3.882982e-001 -4.593750e-001 -9.128463e-001 -1.100001e+000 -3.086010e-001 4.540757e-002 1.180231e-003 -2.162232e-002 6.217915e-001 1.150767e-001 3.355046e-002 1.531458e-001 3.157896e+000 3.465903e-001 1.845333e-001 2.002816e-001 -3.488453e-001 -1.387381e-001 -6.292435e-002 -4.282502e-002 -2.763770e-001 -4.609136e-002 -1.053518e-003 -1.503877e-001 -8.793857e-002 7.157366e-001
<VARIANCE> 39
 1.418745e+001 1.766535e+001 2.392987e+001 2.477349e+001 1.993735e+001 2.407026e+001 2.335856e+001 2.228943e+001 2.442797e+001 2.200822e+001 1.920955e+001 1.883671e+001 1.399212e+002 1.682279e+000 1.156499e+000 1.390466e+000 1.577357e+000 1.187204e+000 1.287425e+000 1.425340e+000 1.447008e+000 1.501422e+000 1.733917e+000 1.345216e+000 1.414561e+000 6.419798e+000 2.393925e-001 2.328953e-001 3.099692e-001 3.205464e-001 2.837342e-001 2.506682e-001 2.539424e-001 2.754927e-001 2.841582e-001 3.138877e-001 2.170256e-001 2.194679e-001 1.410123e+000
<GCONST> 1.035762e+002
<STATE> 4
<MEAN> 39
 -1.605338e+001 -5.089520e+000 -7.528242e+000 -1.003266e+001 -1.951894e+000 -2.860709e+000 4.574818e-001 -4.527760e+000 3.833692e+000 -3.022641e+000 5.472013e-001 -2.305047e+000 6.061986e+001 1.211758e+000 -4.441245e-002 5.683778e-001 -1.092741e+000 -4.936104e-001 -1.196218e-001 9.512331e-002 -7.502240e-001 -1.070122e-001 1.280555e-001 -3.889520e-001 -3.091539e-001 2.058695e+000 4.655295e-001 3.671140e-002 2.766922e-001 2.044767e-001 -6.112332e-002 -1.426633e-001 -2.782585e-002 -9.983890e-004 -2.705032e-001 -3.869073e-002 -9.420055e-003 -1.517198e-001 -5.579201e-001
<VARIANCE> 39
 2.532267e+001 2.176365e+001 2.705462e+001 2.831444e+001 3.075147e+001 2.649290e+001 2.755687e+001 3.056316e+001 3.408505e+001 4.367514e+001 3.438417e+001 3.735507e+001 3.775314e+001 2.322955e+000 1.582923e+000 1.824596e+000 2.373030e+000 2.208087e+000 1.761077e+000 1.713212e+000 1.909914e+000 1.754852e+000 2.199714e+000 1.970658e+000 1.656357e+000 5.391618e+000 3.007616e-001 2.246693e-001 3.446362e-001 2.880066e-001 2.962214e-001 3.105551e-001 2.595166e-001 3.378617e-001 3.393271e-001 3.694855e-001 3.748662e-001 2.979229e-001 6.780729e-001
<GCONST> 1.112119e+002
<TRANSP> 5
 0.000000e+000 1.000000e+000 0.000000e+000 0.000000e+000 0.000000e+000
 0.000000e+000 6.546301e-001 3.453699e-001 0.000000e+000 0.000000e+000
 0.000000e+000 0.000000e+000 6.180086e-001 3.819914e-001 0.000000e+000
 0.000000e+000 0.000000e+000 0.000000e+000 7.127924e-001 2.872076e-001
 0.000000e+000 0.000000e+000 0.000000e+000 0.000000e+000 0.000000e+000
<ENDHMM>
~h "v"
<BEGINHMM>
<NUMSTATES> 5
<STATE> 2
<MEAN> 39
 -3.658162e+000 -5.012068e+000 -3.554540e+000 -6.393355e+000 -3.666080e+000 -7.678979e+000 -1.152271e+000 -2.603056e+000 2.412720e-001 -3.160089e+000 1.601645e+000 -5.400490e+000 5.920844e+001 -6.177589e-001 6.544369e-001 6.606557e-001 1.233982e+000 5.974896e-001 3.912613e-003 -4.076976e-001 -9.569619e-002 3.828935e-002 -2.700571e-001 4.753649e-001 1.520723e-001 -1.747024e+000 -2.233333e-001 -9.871367e-002 -2.111000e-001 -2.564635e-001 4.265138e-002 1.675116e-001 2.090279e-001 -1.302792e-001 3.990271e-002 -3.583302e-002 -1.546120e-001 6.196233e-003 2.831785e-001
<VARIANCE> 39
 2.679748e+001 2.551682e+001 4.052158e+001 3.947759e+001 4.257450e+001 3.750958e+001 3.541395e+001 4.088035e+001 3.640912e+001 3.466527e+001 3.791252e+001 2.265607e+001 5.372139e+001 2.164800e+000 1.651667e+000 1.942231e+000 2.435018e+000 1.940548e+000 2.013005e+000 2.083766e+000 1.920732e+000 1.970507e+000 1.958873e+000 1.708846e+000 1.431959e+000 4.138814e+000 2.599258e-001 2.412233e-001 2.939645e-001 3.351823e-001 2.712972e-001 2.840087e-001 2.581202e-001 2.949269e-001 2.740822e-001 2.945427e-001 2.578987e-001 1.986578e-001 4.486127e-001
<GCONST> 1.108444e+002
<STATE> 3
<MEAN> 39
 -6.170192e+000 -3.842144e+000 -2.306645e+000 -3.881474e+000 -1.948295e+000 -6.968970e+000 -1.346237e+000 -3.600387e+000 6.311848e-001 -4.007169e+000 2.383410e+000 -4.780913e+000 5.588270e+001 -7.646272e-001 2.727729e-001 5.935590e-003 4.059432e-001 4.633023e-001 3.168328e-001 5.835867e-002 -1.738024e-001 7.207582e-002 -1.917024e-001 -1.025615e-002 5.527245e-002 -7.789258e-001 1.275967e-001 -2.315210e-001 -3.890045e-001 -5.401098e-001 -1.799010e-001 5.576332e-002 2.139950e-001 7.204627e-004 1.325846e-002 7.552931e-002 -2.127501e-001 -7.780833e-002 6.636212e-001
<VARIANCE> 39
 4.021437e+001 2.457276e+001 3.504397e+001 3.038415e+001 3.511791e+001 3.242142e+001 3.336974e+001 3.522534e+001 2.909953e+001 2.905817e+001 3.085500e+001 2.555683e+001 5.283135e+001 2.442338e+000 1.364506e+000 1.925543e+000 2.276412e+000 2.014055e+000 1.586094e+000 1.614838e+000 1.369708e+000 1.693411e+000 1.518117e+000 1.273578e+000 1.318354e+000 4.689834e+000 4.392081e-001 2.568293e-001 3.196151e-001 3.439246e-001 2.719425e-001 2.929392e-001 2.642435e-001 2.618514e-001 2.955788e-001 3.045791e-001 2.451872e-001 2.280711e-001 4.415460e-001
<GCONST> 1.089726e+002
<STATE> 4
<MEAN> 39
 -7.377032e+000 -3.755948e+000 -3.824356e+000 -5.593353e+000 -1.675547e+000 -5.780896e+000 -5.368562e-001 -3.500442e+000 4.151955e-001 -3.641762e+000 1.680707e+000 -4.963042e+000 5.643127e+001 -2.982040e-002 -1.772840e-001 -8.218858e-001 -8.606004e-001 -1.209084e-001 1.321997e-001 3.091534e-001 -5.916508e-002 1.138001e-001 6.454722e-002 -4.237933e-001 -1.890348e-001 9.422768e-001 2.394308e-001 -1.544576e-001 -2.279294e-001 -3.672512e-001 -1.641492e-001 -7.083283e-002 8.229274e-002 4.528812e-004 2.021140e-002 7.382736e-002 -1.070750e-001 -2.391900e-002 4.963450e-001
<VARIANCE> 39
 4.940175e+001 2.816872e+001 4.233754e+001 4.797990e+001 4.021178e+001 3.662502e+001 2.944273e+001 3.309718e+001 2.828809e+001 3.305719e+001 2.951671e+001 3.201779e+001 6.811050e+001 3.119341e+000 1.704232e+000 2.161222e+000 2.972131e+000 2.231805e+000 1.937632e+000 1.485511e+000 1.532286e+000 1.663011e+000 1.705853e+000 1.410996e+000 1.314692e+000 6.428936e+000 3.693418e-001 2.370284e-001 3.234753e-001 3.912282e-001 3.290693e-001 2.526183e-001 2.435811e-001 2.305460e-001 3.118467e-001 2.757917e-001 2.441467e-001 2.686126e-001 5.719493e-001
<GCONST> 1.123544e+002
<TRANSP> 5
 0.000000e+000 1.000000e+000 0.000000e+000 0.000000e+000 0.000000e+000
 0.000000e+000 3.218021e-001 6.781979e-001 0.000000e+000 0.000000e+000
 0.000000e+000 0.000000e+000 3.730235e-001 6.269765e-001 0.000000e+000
 0.000000e+000 0.000000e+000 0.000000e+000 4.481286e-001 5.518714e-001
 0.000000e+000 0.000000e+000 0.000000e+000 0.000000e+000 0.000000e+000
<ENDHMM>
~h "w"
<BEGINHMM>
<NUMSTATES> 5
<STATE> 2
<MEAN> 39
 -1.646965e+000 -5.621743e+000 -8.536861e+000 -6.852994e+000 -7.504234e-001 -7.266583e+000 -3.451874e+000 -4.839688e+000 1.819529e-001 -3.419352e+000 3.140378e+000 -4.592328e+000 5.535708e+001 2.279085e+000 3.809089e-001 -1.745292e+000 -5.615100e-001 7.714208e-001 -1.664915e-001 -6.672466e-001 -3.080031e-001 -4.653173e-002 1.547554e-001 2.785316e-001 -1.347764e-001 2.386460e-001 -1.760620e-001 1.291439e-001 -1.570284e-001 -3.388927e-001 -4.139411e-002 8.381840e-002 5.425356e-002 2.012210e-002 1.222447e-002 4.015781e-002 -1.385330e-002 -2.202814e-002 4.276320e-001
<VARIANCE> 39
 7.491697e+001 4.233842e+001 5.122897e+001 4.071165e+001 3.877633e+001 4.474754e+001 5.884830e+001 3.162149e+001 3.599224e+001 4.136491e+001 3.949734e+001 2.781340e+001 6.385216e+001 2.552752e+000 2.385281e+000 2.953791e+000 3.306486e+000 2.600398e+000 2.830631e+000 2.717980e+000 1.654455e+000 1.906604e+000 1.655197e+000 1.796358e+000 1.558659e+000 4.094222e+000 3.445218e-001 4.637125e-001 4.524620e-001 4.637755e-001 4.450426e-001 4.607396e-001 3.976180e-001 2.812155e-001 3.368461e-001 2.912464e-001 2.691525e-001 2.853380e-001 3.197495e-001
<GCONST> 1.188078e+002
<STATE> 3
<MEAN> 39
 5.640922e+000 -2.866097e+000 -1.886458e+001 -1.382611e+001 1.606413e+000 -6.331896e+000 -4.469213e+000 -6.304487e+000 1.100064e-001 -2.210984e+000 5.067395e+000 -6.068557e+000 6.137008e+001 1.269874e-001 -6.038278e-001 -1.128469e+000 -2.182249e-001 1.730918e-001 -1.630625e-001 1.716886e-001 4.301650e-001 5.588565e-001 9.723393e-002 -2.962073e-001 -3.385271e-001 1.483489e+000 -4.759967e-001 -3.466870e-001 4.109629e-001 3.462609e-001 -1.599830e-001 -6.190344e-002 2.338438e-001 2.278405e-001 1.048158e-001 -1.551878e-001 -2.248977e-001 3.923664e-002 1.141804e-001
<VARIANCE> 39
 1.094190e+001 2.968411e+001 4.937360e+001 4.716626e+001 3.018543e+001 4.615334e+001 5.125962e+001 3.314628e+001 3.835791e+001 4.592751e+001 5.259104e+001 3.605009e+001 2.501850e+001 1.284845e+000 2.002702e+000 2.336522e+000 2.484675e+000 2.249581e+000 2.619792e+000 2.334882e+000 2.152198e+000 2.350467e+000 1.853074e+000 2.206817e+000 1.840088e+000 2.470424e+000 2.018079e-001 1.791909e-001 2.530767e-001 3.288280e-001 3.812852e-001 3.935851e-001 4.276053e-001 2.976841e-001 3.509253e-001 3.205412e-001 3.248969e-001 2.643421e-001 1.611675e-001
<GCONST> 1.117722e+002
<STATE> 4
<MEAN> 39
 1.359776e+000 -1.054755e+001 -1.574616e+001 -8.867455e+000 -9.816694e-001 -9.847789e+000 -2.079540e+000 -5.334765e-001 3.877339e+000 -4.191043e+000 1.223917e+000 -6.943845e+000 6.773110e+001 -9.676351e-001 -8.798039e-001 1.229940e+000 2.977739e-001 -1.206552e+000 -7.750504e-002 1.321412e+000 5.302673e-001 -1.703261e-001 -5.449658e-001 -5.487655e-001 2.449830e-001 1.417102e+000 -1.885788e-001 3.007835e-001 3.974050e-001 -1.892526e-001 -5.513005e-002 3.543909e-001 1.365119e-001 -3.376942e-001 -2.901583e-001 7.982550e-002 1.028572e-001 1.583683e-001 -3.999338e-001
<VARIANCE> 39
 1.573055e+001 2.759327e+001 8.234564e+001 4.661137e+001 7.840528e+001 6.416460e+001 7.599998e+001 7.356441e+001 6.210464e+001 5.579019e+001 7.551139e+001 4.778479e+001 2.472096e+001 8.625429e-001 2.070762e+000 2.764700e+000 4.007075e+000 3.746667e+000 3.161420e+000 3.029213e+000 3.960686e+000 3.263748e+000 2.976474e+000 3.204303e+000 1.893928e+000 1.520772e+000 1.799372e-001 2.027662e-001 3.757547e-001 3.668925e-001 5.249663e-001 5.162413e-001 5.604123e-001 5.623502e-001 5.924555e-001 4.594058e-001 4.749697e-001 3.029220e-001 2.168961e-001
<GCONST> 1.226210e+002
<TRANSP> 5
 0.000000e+000 1.000000e+000 0.000000e+000 0.000000e+000 0.000000e+000
 0.000000e+000 7.294805e-001 2.705195e-001 0.000000e+000 0.000000e+000
 0.000000e+000 0.000000e+000 7.385986e-001 2.614014e-001 0.000000e+000
 0.000000e+000 0.000000e+000 0.000000e+000 6.238245e-001 3.761755e-001
 0.000000e+000 0.000000e+000 0.000000e+000 0.000000e+000 0.000000e+000
<ENDHMM>
~h "y"
<BEGINHMM>
<NUMSTATES> 5
<STATE> 2
<MEAN> 39
 -8.351222e+000 1.115657e+001 -3.835323e+000 -1.181264e+001 -8.251463e-001 -1.060336e+001 -4.762942e+000 -7.765311e+000 2.722101e-001 -5.964904e+000 1.471938e+000 -3.374031e+000 6.064565e+001 -4.824954e-002 1.246678e+000 3.392297e-002 -3.731085e-001 2.562957e-001 -6.033061e-001 -5.787022e-001 -3.234521e-001 2.043474e-002 -1.977241e-001 2.769167e-001 -5.054693e-002 2.284453e-001 9.487826e-002 -5.385269e-001 -5.274187e-002 -1.035849e-001 -1.662377e-001 9.905008e-002 1.858695e-001 1.349225e-001 5.172745e-002 1.327789e-001 -2.704399e-002 -4.935729e-002 2.175233e-001
<VARIANCE> 39
 1.462856e+001 2.918192e+001 4.274247e+001 4.549552e+001 2.540246e+001 4.417646e+001 3.766116e+001 3.717207e+001 2.911954e+001 4.946307e+001 3.514479e+001 3.833275e+001 3.464148e+001 1.132245e+000 2.581576e+000 1.496300e+000 3.060349e+000 2.012970e+000 1.968744e+000 2.240515e+000 1.578039e+000 1.261416e+000 2.072207e+000 1.104668e+000 1.132288e+000 2.740784e+000 1.134841e-001 1.718224e-001 2.676917e-001 5.011118e-001 2.863402e-001 3.278577e-001 2.864381e-001 2.725592e-001 1.803686e-001 2.344721e-001 1.571407e-001 2.026392e-001 2.186785e-001
<GCONST> 1.060318e+002
<STATE> 3
<MEAN> 39
 -8.096725e+000 9.146407e+000 -3.344469e+000 -1.855671e+001 -2.741480e-001 -1.237832e+001 -5.045043e+000 -5.845909e+000 1.673536e+000 -3.753342e+000 2.555969e+000 -3.671281e+000 6.480238e+001 2.154675e-001 -1.145878e+000 4.980197e-001 -1.214175e+000 -4.171310e-001 5.338081e-001 -1.635659e-001 4.869495e-001 3.259315e-001 2.068338e-001 -6.602446e-002 -6.572073e-002 7.455755e-001 5.112509e-002 -2.986906e-001 4.243645e-002 1.607736e-001 -1.834130e-001 2.612974e-001 1.044337e-001 2.086000e-003 4.144637e-002 -2.687789e-003 -4.663771e-002 -4.345121e-003 -9.245414e-002
<VARIANCE> 39
 9.409497e+000 2.250586e+001 4.546221e+001 2.993579e+001 2.671875e+001 3.791905e+001 5.622322e+001 3.274008e+001 2.557117e+001 4.068326e+001 2.307388e+001 2.425049e+001 2.475475e+001 3.373370e-001 8.862481e-001 5.932515e-001 1.005396e+000 1.432696e+000 1.286621e+000 1.074044e+000 1.154873e+000 8.477799e-001 1.014336e+000 7.503954e-001 8.880801e-001 6.434479e-001 4.834075e-002 1.095860e-001 8.775093e-002 1.745983e-001 1.324644e-001 1.692908e-001 1.958955e-001 1.636157e-001 1.139636e-001 1.371316e-001 1.011486e-001 1.157605e-001 6.697921e-002
<GCONST> 8.530948e+001
<STATE> 4
<MEAN> 39
 -6.878900e+000 -1.670789e+000 1.957028e-001 -2.223861e+001 -5.732193e+000 -3.566801e+000 -5.580160e+000 -4.151151e+000 3.381501e+000 -4.640133e+000 4.691041e-001 -4.381356e+000 6.889762e+001 6.664189e-001 -2.020199e+000 2.900501e-001 6.094907e-001 -1.466962e+000 1.296160e+000 7.062338e-001 -3.819092e-001 2.176539e-001 3.552036e-001 -1.499825e-001 -1.755868e-001 2.632983e-001 3.330173e-002 1.052584e-001 -2.386304e-001 6.287612e-001 1.104429e-001 -2.695761e-001 3.011419e-001 -1.315870e-001 -1.566428e-001 4.421565e-002 6.053139e-002 -2.010976e-002 -3.141364e-001
<VARIANCE> 39
 1.123234e+001 4.015604e+001 3.778765e+001 2.617476e+001 6.106743e+001 4.075663e+001 5.059682e+001 4.243140e+001 2.773250e+001 3.781193e+001 3.319744e+001 3.935675e+001 3.041297e+001 4.519832e-001 1.431840e+000 7.811773e-001 1.906137e+000 2.326857e+000 2.192674e+000 2.118431e+000 1.798881e+000 1.655817e+000 1.592525e+000 1.393287e+000 1.688886e+000 7.754430e-001 6.347591e-002 1.520883e-001 1.499738e-001 2.019411e-001 2.466867e-001 2.977911e-001 2.757531e-001 2.615294e-001 1.750308e-001 2.323823e-001 1.878841e-001 2.249632e-001 1.016470e-001
<GCONST> 1.001936e+002
<TRANSP> 5
 0.000000e+000 1.000000e+000 0.000000e+000 0.000000e+000 0.000000e+000
 0.000000e+000 7.795584e-001 2.204416e-001 0.000000e+000 0.000000e+000
 0.000000e+000 0.000000e+000 7.947000e-001 2.052999e-001 0.000000e+000
 0.000000e+000 0.000000e+000 0.000000e+000 7.148652e-001 2.851348e-001
 0.000000e+000 0.000000e+000 0.000000e+000 0.000000e+000 0.000000e+000
<ENDHMM>
~h "z"
<BEGINHMM>
<NUMSTATES> 5
<STATE> 2
<MEAN> 39
 -7.644621e+000 1.979248e+000 -3.068149e+000 -4.880699e+000 -7.671566e+000 -5.834365e+000 -4.101215e-001 -6.934107e+000 -8.005889e-001 2.173227e+000 8.887005e-001 -2.531461e+000 5.903767e+001 -2.221565e+000 3.429836e-001 -9.114427e-001 1.544197e+000 5.478460e-001 1.319131e+000 1.210403e-003 4.037557e-001 1.722297e-001 -1.892103e-001 1.447432e-001 2.884709e-003 -1.327945e+000 -2.211027e-001 -3.890095e-001 -1.811389e-001 -3.001692e-001 1.168880e-001 9.257900e-002 2.061922e-002 1.374779e-001 1.039499e-001 -2.391294e-001 -7.095191e-002 -7.703009e-002 2.024800e-001
<VARIANCE> 39
 2.800067e+001 2.155249e+001 2.492527e+001 3.321275e+001 3.590158e+001 3.343578e+001 2.937150e+001 3.479964e+001 4.788458e+001 4.523495e+001 2.649880e+001 2.464167e+001 3.484579e+001 1.657155e+000 2.051749e+000 1.711479e+000 1.770872e+000 1.929326e+000 2.422030e+000 1.903471e+000 2.194161e+000 2.061217e+000 1.616065e+000 1.201535e+000 1.356650e+000 1.608434e+000 2.653416e-001 2.083020e-001 2.067633e-001 2.811300e-001 2.647083e-001 3.224633e-001 2.198227e-001 2.676385e-001 3.041071e-001 2.540380e-001 1.733013e-001 1.974845e-001 2.244187e-001
<GCONST> 1.055387e+002
<STATE> 3
<MEAN> 39
 -1.650992e+001 -3.320028e-001 -7.517257e+000 -2.187023e+000 -4.380141e+000 -8.034804e-001 2.036448e-002 -4.918795e+000 7.433615e-001 -6.504863e-001 8.360831e-001 -3.070936e+000 5.632790e+001 -1.421833e+000 -7.991533e-001 -7.801831e-001 7.495174e-002 1.775092e-001 5.586409e-001 1.432604e-001 3.853429e-001 8.498859e-002 -3.443540e-001 -1.099369e-001 8.436276e-004 -2.147231e-001 7.084053e-001 -1.640690e-001 2.701890e-001 -4.798877e-001 -1.883127e-001 -4.631149e-001 2.877228e-004 -1.046581e-001 -5.190348e-002 5.703837e-002 -5.373100e-002 -6.285326e-003 3.256726e-001
<VARIANCE> 39
 2.310822e+001 2.661754e+001 2.557729e+001 2.360881e+001 3.286226e+001 2.480099e+001 2.249545e+001 2.559803e+001 2.716409e+001 3.609651e+001 2.751427e+001 2.397316e+001 2.643118e+001 2.390266e+000 1.162803e+000 1.414235e+000 1.350306e+000 1.675465e+000 1.865833e+000 1.251513e+000 1.271533e+000 1.457085e+000 1.499358e+000 1.056881e+000 1.115540e+000 1.369123e+000 2.647147e-001 2.881976e-001 2.069575e-001 2.884192e-001 2.743320e-001 3.063600e-001 2.501542e-001 2.890060e-001 2.935967e-001 2.664461e-001 2.118870e-001 2.033169e-001 3.090096e-001
<GCONST> 1.013870e+002
<STATE> 4
<MEAN> 39
 -1.616543e+001 -3.115738e+000 -8.107332e+000 -4.529045e+000 -5.206510e+000 -2.116349e+000 3.440869e-001 -4.365983e+000 8.727880e-001 -1.041333e+000 1.286351e-001 -2.709408e+000 5.643121e+001 9.061618e-001 -5.773200e-001 3.205419e-001 -7.153248e-001 -1.968593e-001 -6.822358e-001 1.711519e-001 1.298916e-002 -5.498620e-002 -7.075465e-002 -8.372045e-002 -8.802859e-002 1.216710e-001 4.837769e-001 6.337862e-002 2.036217e-001 -1.478330e-001 2.127144e-003 -2.010393e-001 2.508136e-003 -7.687676e-002 -1.849144e-002 9.396652e-003 3.276822e-002 -4.384069e-002 6.582198e-002
<VARIANCE> 39
 3.053126e+001 2.207640e+001 2.575669e+001 2.551683e+001 3.676510e+001 3.200380e+001 2.815884e+001 2.475580e+001 3.254015e+001 4.007563e+001 2.989004e+001 2.300911e+001 4.846098e+001 2.568072e+000 1.441090e+000 1.348320e+000 1.831468e+000 1.878392e+000 1.788859e+000 1.860240e+000 1.594928e+000 1.435085e+000 1.750907e+000 1.452351e+000 1.174840e+000 4.341538e+000 3.506379e-001 1.987029e-001 2.251710e-001 2.673439e-001 2.988247e-001 3.352557e-001 2.970169e-001 2.456645e-001 2.689225e-001 2.833008e-001 2.428676e-001 2.068881e-001 4.329315e-001
<GCONST> 1.065241e+002
<TRANSP> 5
 0.000000e+000 1.000000e+000 0.000000e+000 0.000000e+000 0.000000e+000
 0.000000e+000 6.027362e-001 3.972637e-001 0.000000e+000 0.000000e+000
 0.000000e+000 0.000000e+000 6.131115e-001 3.868885e-001 0.000000e+000
 0.000000e+000 0.000000e+000 0.000000e+000 6.767265e-001 3.232735e-001
 0.000000e+000 0.000000e+000 0.000000e+000 0.000000e+000 0.000000e+000
<ENDHMM>
~h "aa"
<BEGINHMM>
<NUMSTATES> 5
<STATE> 2
<MEAN> 39
 -1.141526e+000 -1.273373e+001 -1.704165e+001 -8.241414e+000 1.417805e+000 -5.225633e+000 1.084701e+000 -1.498548e+000 5.608644e-001 -5.162440e+000 -5.832570e-001 -6.378370e+000 6.920609e+001 4.463708e-001 -1.174370e+000 -1.162108e+000 6.098105e-001 7.865964e-001 -5.484423e-002 8.574382e-002 4.174306e-001 -1.415682e-001 -6.623299e-001 -1.911345e-001 1.118094e-001 1.359011e+000 -2.276693e-001 1.093221e-001 3.151056e-001 8.361926e-002 -1.073844e-001 -4.839729e-003 -3.331620e-002 -8.570698e-002 1.405058e-002 4.680911e-002 6.778641e-002 1.592569e-001 -2.826112e-001
<VARIANCE> 39
 2.665942e+001 3.501201e+001 6.897148e+001 4.725374e+001 6.273050e+001 4.774660e+001 5.704145e+001 6.921178e+001 5.721645e+001 4.692701e+001 4.326060e+001 3.592042e+001 6.038374e+001 1.762244e+000 1.670409e+000 2.733675e+000 2.230330e+000 2.304537e+000 2.003835e+000 2.124565e+000 2.243170e+000 2.877710e+000 2.704851e+000 1.935492e+000 1.654063e+000 2.139192e+000 2.292850e-001 1.749207e-001 2.743408e-001 2.581362e-001 3.491253e-001 3.186086e-001 3.093537e-001 3.743817e-001 3.359400e-001 3.213447e-001 3.029275e-001 2.367518e-001 2.586526e-001
<GCONST> 1.157615e+002
<STATE> 3
<MEAN> 39
 -1.523442e+000 -1.756211e+001 -1.750689e+001 -4.323008e+000 3.317230e+000 -5.498163e+000 2.105946e+000 -1.984982e+000 -2.092131e-001 -6.572408e+000 -3.399714e-001 -4.131374e+000 7.201090e+001 -4.134638e-002 -2.532797e-001 3.674992e-001 2.006335e-001 -3.268595e-001 5.734250e-002 2.093789e-001 -4.042209e-002 -1.645637e-001 -4.635519e-002 2.223558e-001 1.111694e-001 5.502649e-002 7.291024e-003 2.073840e-001 2.166386e-001 -1.693805e-001 -2.224351e-001 4.377196e-002 2.836656e-002 -8.548999e-002 4.508023e-002 1.313096e-001 -6.075599e-003 -7.726765e-002 -1.949090e-001
<VARIANCE> 39
 1.672789e+001 2.936359e+001 5.766748e+001 4.454802e+001 4.702624e+001 3.722390e+001 4.082061e+001 6.055429e+001 5.771252e+001 5.361758e+001 3.535625e+001 3.277967e+001 2.288963e+001 3.490058e-001 6.426988e-001 1.380115e+000 9.837140e-001 1.404227e+000 1.113751e+000 1.152927e+000 1.293189e+000 1.416318e+000 1.392351e+000 1.122064e+000 1.015783e+000 4.197349e-001 4.651952e-002 7.553215e-002 1.072624e-001 1.180642e-001 1.303695e-001 1.538110e-001 1.534037e-001 1.936180e-001 2.002067e-001 2.256842e-001 1.641208e-001 1.325529e-001 7.442509e-002
<GCONST> 9.185943e+001
<STATE> 4
<MEAN> 39
 -2.069104e+000 -1.662795e+001 -1.157422e+001 -6.503180e+000 -1.718945e+000 -3.738871e+000 4.557861e+000 -3.192369e+000 -1.445694e+000 -5.613422e+000 5.617273e-001 -4.866802e+000 7.028843e+001 -3.551281e-001 1.431916e+000 1.613164e+000 -5.990257e-001 -1.023534e+000 3.358435e-001 7.485357e-002 -6.380996e-001 5.208899e-001 6.070719e-001 -1.169386e-001 -1.420840e-001 -1.742968e+000 -2.562104e-001 3.711563e-001 9.274312e-002 4.529426e-002 1.238401e-001 -8.536489e-002 -2.345800e-001 -2.160718e-002 1.462742e-001 5.122978e-002 -5.379934e-002 6.843688e-002 -4.447157e-001
<VARIANCE> 39
 1.866868e+001 3.381253e+001 5.088580e+001 3.894727e+001 5.358872e+001 4.177016e+001 5.050072e+001 8.170206e+001 5.740007e+001 5.212941e+001 3.937798e+001 2.809442e+001 4.494587e+001 1.520520e+000 1.923975e+000 2.053861e+000 2.010447e+000 2.047589e+000 2.341581e+000 2.366472e+000 2.836277e+000 2.348521e+000 2.514558e+000 1.636530e+000 1.351813e+000 3.234736e+000 2.262975e-001 2.174300e-001 2.756913e-001 2.651089e-001 3.322814e-001 2.859970e-001 2.816612e-001 4.219838e-001 3.469440e-001 3.350524e-001 2.804660e-001 1.956006e-001 3.314624e-001
<GCONST> 1.140095e+002
<TRANSP> 5
 0.000000e+000 1.000000e+000 0.000000e+000 0.000000e+000 0.000000e+000
 0.000000e+000 7.042944e-001 2.957056e-001 0.000000e+000 0.000000e+000
 0.000000e+000 0.000000e+000 8.522829e-001 1.477171e-001 0.000000e+000
 0.000000e+000 0.000000e+000 0.000000e+000 6.304858e-001 3.695141e-001
 0.000000e+000 0.000000e+000 0.000000e+000 0.000000e+000 0.000000e+000
<ENDHMM>
~h "ae"
<BEGINHMM>
<NUMSTATES> 5
<STATE> 2
<MEAN> 39
 -7.192518e+000 -1.199751e+001 -7.357655e+000 -1.600171e+001 1.052363e+000 1.186150e+000 3.771694e+000 -8.150987e+000 -2.507907e-001 -4.797230e+000 -1.849955e+000 -4.330763e+000 7.300001e+001 -2.887317e-002 -4.289418e-001 -1.271453e-001 1.931176e-001 2.576785e-001 3.131458e-001 9.833534e-002 -3.365632e-001 -1.765192e-001 3.802416e-002 -6.267145e-002 1.396111e-001 4.044429e-001 5.037760e-002 9.196237e-002 6.813710e-002 1.323496e-001 -1.055673e-001 -1.538770e-001 -1.675105e-002 6.908011e-002 4.054026e-002 4.564575e-002 4.560656e-002 -1.177008e-002 -2.688752e-001
<VARIANCE> 39
 1.049907e+001 3.825427e+001 1.671968e+001 2.967430e+001 5.945772e+001 2.581815e+001 4.680046e+001 3.572273e+001 4.625375e+001 3.990849e+001 3.036708e+001 3.193895e+001 2.747003e+001 3.411272e-001 8.698205e-001 5.762586e-001 9.863458e-001 1.106233e+000 1.036771e+000 8.310148e-001 8.618809e-001 1.185839e+000 8.578578e-001 9.386927e-001 7.594406e-001 1.314986e+000 5.857271e-002 8.549460e-002 7.060064e-002 1.511095e-001 1.139972e-001 1.357624e-001 1.221015e-001 1.232544e-001 1.529026e-001 1.271794e-001 1.433365e-001 1.141989e-001 1.265678e-001
<GCONST> 8.600303e+001
<STATE> 3
<MEAN> 39
 -6.952402e+000 -1.389330e+001 -7.487072e+000 -1.335969e+001 -3.282182e-001 2.032994e+000 5.095985e+000 -8.960591e+000 -1.860738e+000 -3.772152e+000 -2.179658e+000 -4.289673e+000 7.432707e+001 4.060753e-001 5.684903e-001 2.635305e-001 9.823751e-002 -6.201009e-001 -3.706136e-001 -9.797055e-004 2.963598e-001 1.650930e-001 2.150578e-001 -7.141839e-002 -1.161730e-001 -9.597755e-001 2.477243e-003 4.100459e-001 1.652369e-001 5.281617e-002 -8.856737e-002 -2.386308e-001 -2.081705e-001 1.626837e-001 1.174110e-001 6.195865e-003 1.014973e-001 -1.188793e-002 -5.616382e-001
<VARIANCE> 39
 1.568125e+001 2.837545e+001 1.548580e+001 3.540870e+001 4.938813e+001 2.304977e+001 5.189191e+001 3.924170e+001 5.434595e+001 3.926294e+001 3.148594e+001 2.866883e+001 3.812084e+001 5.253586e-001 1.533460e+000 6.660486e-001 1.497308e+000 1.229345e+000 1.313024e+000 1.520227e+000 1.293898e+000 1.781934e+000 1.161376e+000 1.151348e+000 8.418296e-001 1.317743e+000 1.218397e-001 1.493843e-001 1.033456e-001 1.965159e-001 1.700604e-001 1.741300e-001 2.086849e-001 2.011861e-001 2.388928e-001 1.851625e-001 1.764549e-001 1.428910e-001 1.723707e-001
<GCONST> 9.560884e+001
<STATE> 4
<MEAN> 39
 -6.793381e+000 -8.642397e+000 -4.968536e+000 -1.229212e+001 -2.805530e+000 -1.110010e+000 3.420233e+000 -7.226553e+000 -4.782217e-001 -3.234220e+000 -1.419927e+000 -4.700300e+000 6.320411e+001 -2.700347e-001 1.469453e+000 7.471887e-001 8.963895e-001 -1.873497e-001 -8.814262e-001 -9.643137e-001 5.790831e-001 2.605297e-001 2.302729e-002 4.842463e-001 4.804859e-002 -2.868761e+000 -2.237285e-001 2.919811e-002 -1.538354e-002 2.293589e-001 1.913541e-001 -4.801484e-002 -1.374529e-001 1.832425e-002 -5.083328e-002 -6.324453e-002 6.649709e-002 6.238592e-002 -1.912586e-001
<VARIANCE> 39
 2.520879e+001 4.642773e+001 2.870189e+001 6.138220e+001 4.907288e+001 4.152108e+001 5.934982e+001 5.724548e+001 5.829039e+001 5.027902e+001 3.666469e+001 3.399141e+001 1.905944e+002 2.184266e+000 2.731791e+000 1.497704e+000 2.917798e+000 2.257287e+000 2.155869e+000 2.877540e+000 2.449174e+000 2.725537e+000 1.846350e+000 1.818578e+000 1.500438e+000 5.076285e+000 3.246973e-001 3.891011e-001 2.533253e-001 5.079921e-001 3.178267e-001 3.627208e-001 4.161659e-001 4.035972e-001 4.326229e-001 3.010463e-001 2.638367e-001 2.320416e-001 9.082223e-001
<GCONST> 1.203767e+002
<TRANSP> 5
 0.000000e+000 1.000000e+000 0.000000e+000 0.000000e+000 0.000000e+000
 0.000000e+000 8.795680e-001 1.204319e-001 0.000000e+000 0.000000e+000
 0.000000e+000 0.000000e+000 6.327802e-001 3.672197e-001 0.000000e+000
 0.000000e+000 0.000000e+000 0.000000e+000 7.222869e-001 2.777130e-001
 0.000000e+000 0.000000e+000 0.000000e+000 0.000000e+000 0.000000e+000
<ENDHMM>
~h "ah"
<BEGINHMM>
<NUMSTATES> 5
<STATE> 2
<MEAN> 39
 -3.935331e+000 -1.061456e+001 -9.184564e+000 -8.304471e+000 -4.962612e+000 -6.964617e+000 5.711357e+000 -3.995009e+000 -1.230458e+000 -3.582701e+000 -6.775964e-001 -5.408878e+000 6.696365e+001 9.177102e-001 -6.643275e-001 -5.299217e-001 3.170771e-001 -1.960239e-001 -3.310392e-001 6.246808e-001 1.977171e-001 -4.931042e-001 -3.831644e-001 1.193909e-001 -2.014208e-001 1.057908e+000 -1.839639e-001 3.198701e-001 1.831388e-001 1.529215e-001 2.754154e-001 5.923950e-002 -4.201695e-001 -1.017291e-002 9.834963e-002 7.776184e-003 8.464037e-002 1.085893e-001 -6.421126e-001
<VARIANCE> 39
 2.870957e+001 3.240106e+001 4.014631e+001 4.278756e+001 4.703371e+001 5.672820e+001 5.336740e+001 8.663704e+001 5.125551e+001 5.472222e+001 3.476675e+001 3.028844e+001 8.038767e+001 2.368576e+000 1.836856e+000 2.838545e+000 2.401968e+000 2.354499e+000 2.793018e+000 3.032528e+000 3.117989e+000 2.559753e+000 2.588390e+000 1.738147e+000 1.507137e+000 4.587780e+000 3.340914e-001 2.466582e-001 3.802242e-001 3.428915e-001 4.435600e-001 4.518245e-001 4.364245e-001 5.543644e-001 4.483029e-001 4.627935e-001 2.891274e-001 2.361815e-001 8.245960e-001
<GCONST> 1.214626e+002
<STATE> 3
<MEAN> 39
 -2.529369e+000 -1.186664e+001 -1.049998e+001 -6.859966e+000 -4.813179e+000 -7.686299e+000 5.725263e+000 -2.907405e+000 -1.799013e+000 -5.264131e+000 6.042511e-001 -5.255390e+000 6.933604e+001 3.160968e-001 6.217849e-001 4.970714e-001 3.485617e-001 1.973777e-001 -6.697956e-002 -6.239478e-001 -6.438505e-002 5.337028e-002 4.297008e-002 2.032212e-001 1.404611e-002 -9.327909e-001 -2.580525e-001 5.000139e-001 3.763407e-001 4.129268e-002 2.875036e-001 9.764776e-002 -4.572544e-001 -1.301079e-001 1.387510e-001 1.494826e-001 -5.047940e-002 7.459760e-002 -8.632607e-001
<VARIANCE> 39
 1.766010e+001 3.256367e+001 3.874847e+001 3.723793e+001 4.153505e+001 5.013583e+001 4.907854e+001 9.267255e+001 4.849749e+001 5.007547e+001 3.601263e+001 3.367998e+001 4.928407e+001 1.584537e+000 1.634344e+000 2.766141e+000 2.144524e+000 2.243564e+000 2.337396e+000 2.617016e+000 2.926593e+000 2.435761e+000 2.524701e+000 1.505123e+000 1.279712e+000 3.694438e+000 2.982063e-001 2.112630e-001 3.551813e-001 3.625717e-001 3.952471e-001 4.487268e-001 3.499928e-001 5.702441e-001 4.032981e-001 3.887889e-001 2.897854e-001 2.652370e-001 4.432831e-001
<GCONST> 1.169794e+002
<STATE> 4
<MEAN> 39
 -2.219381e+000 -8.527369e+000 -7.961000e+000 -5.672756e+000 -3.649384e+000 -7.296103e+000 2.332323e+000 -3.909581e+000 -1.963891e-001 -4.204617e+000 1.022290e+000 -5.175786e+000 6.320589e+001 -3.843318e-001 1.461245e+000 1.109342e+000 4.142107e-001 8.072909e-001 1.405589e-001 -1.250153e+000 -3.490431e-001 1.602089e-001 1.924839e-001 1.288255e-002 1.611463e-001 -2.445633e+000 -3.167809e-001 8.545149e-002 2.490100e-002 -6.058720e-002 1.633115e-001 8.348999e-002 -7.056274e-002 -3.978713e-002 -2.916390e-002 6.001241e-003 -5.396532e-002 6.404831e-002 -2.529650e-001
<VARIANCE> 39
 2.583426e+001 3.780794e+001 5.064617e+001 4.207988e+001 4.638218e+001 5.370118e+001 5.822994e+001 7.279962e+001 5.155865e+001 4.917461e+001 3.405253e+001 3.098286e+001 7.321042e+001 2.498557e+000 1.799522e+000 3.115485e+000 2.736515e+000 2.417661e+000 3.023900e+000 2.593505e+000 3.870569e+000 2.562307e+000 2.405592e+000 1.754157e+000 1.571442e+000 4.720395e+000 3.051745e-001 2.628680e-001 4.143704e-001 3.549895e-001 3.327185e-001 4.125330e-001 3.644302e-001 4.673463e-001 3.804399e-001 3.425991e-001 2.704016e-001 2.192240e-001 5.712276e-001
<GCONST> 1.201990e+002
<TRANSP> 5
 0.000000e+000 1.000000e+000 0.000000e+000 0.000000e+000 0.000000e+000
 0.000000e+000 4.995462e-001 5.004538e-001 0.000000e+000 0.000000e+000
 0.000000e+000 0.000000e+000 4.754171e-001 5.245829e-001 0.000000e+000
 0.000000e+000 0.000000e+000 0.000000e+000 4.152913e-001 5.847088e-001
 0.000000e+000 0.000000e+000 0.000000e+000 0.000000e+000 0.000000e+000
<ENDHMM>
~h "aw"
<BEGINHMM>
<NUMSTATES> 5
<STATE> 2
<MEAN> 39
 -6.603865e+000 -1.791931e+001 -8.987862e+000 -5.537078e+000 -4.767305e-001 -1.912013e+000 5.130139e+000 -8.499767e+000 -2.850110e+000 -4.577772e+000 -7.695827e-001 -5.336558e+000 7.426385e+001 1.029393e-001 -7.464499e-001 -4.371831e-001 1.073036e+000 3.485733e-002 -3.981159e-001 4.921730e-001 1.610726e-002 -2.860491e-001 -2.867532e-001 4.641594e-001 -1.052246e-002 6.165232e-001 6.090327e-002 2.660392e-001 -1.257916e-004 -5.434809e-002 -2.349137e-002 -1.221550e-001 -1.255809e-001 1.993541e-001 1.208443e-001 -3.124473e-002 1.697378e-002 1.347837e-002 -3.656459e-001
<VARIANCE> 39
 1.982888e+001 1.933407e+001 3.615630e+001 3.804910e+001 2.398076e+001 3.242395e+001 2.960715e+001 6.194684e+001 5.322661e+001 4.702660e+001 3.303016e+001 1.991728e+001 2.817225e+001 1.069265e+000 9.030398e-001 1.163189e+000 1.140999e+000 1.263243e+000 1.430234e+000 9.784938e-001 1.674712e+000 1.440330e+000 1.828448e+000 1.281116e+000 8.425810e-001 1.479427e+000 1.382309e-001 1.056918e-001 1.493295e-001 1.510991e-001 1.342181e-001 2.127181e-001 1.774245e-001 1.974222e-001 2.229690e-001 2.390885e-001 2.031037e-001 1.317259e-001 1.391875e-001
<GCONST> 9.599609e+001
<STATE> 3
<MEAN> 39
 -3.135931e+000 -1.773503e+001 -1.417406e+001 -3.190560e-001 -7.704527e-001 -5.907326e+000 5.089085e+000 -3.196464e+000 -2.420171e+000 -8.720657e+000 7.070107e-001 -4.252895e+000 7.249271e+001 5.622824e-001 5.064774e-001 -3.910275e-001 -2.136456e-001 7.676165e-002 -3.435899e-001 -3.807491e-001 4.901723e-001 5.998112e-001 -4.778399e-001 -2.666188e-001 1.790299e-002 -6.487557e-001 3.138888e-002 2.218699e-001 1.952294e-001 -2.700819e-001 -5.779469e-003 -3.043885e-002 -9.071205e-002 -6.485324e-002 9.649520e-002 1.406680e-001 -9.764507e-002 -4.741613e-002 -2.041226e-001
<VARIANCE> 39
 1.473162e+001 1.698305e+001 3.559114e+001 3.786504e+001 3.679044e+001 2.552990e+001 3.478575e+001 6.390522e+001 4.564642e+001 4.644247e+001 1.927794e+001 2.925376e+001 2.423746e+001 4.127990e-001 4.666919e-001 8.861524e-001 9.291751e-001 8.023070e-001 8.786003e-001 1.141232e+000 1.040783e+000 1.716216e+000 9.787548e-001 6.972899e-001 7.003894e-001 4.164172e-001 5.225530e-002 7.466728e-002 1.687605e-001 1.133346e-001 1.098180e-001 1.366114e-001 1.559320e-001 1.712915e-001 2.081112e-001 1.775767e-001 1.131233e-001 1.122620e-001 6.053229e-002
<GCONST> 8.525225e+001
<STATE> 4
<MEAN> 39
 4.343245e-001 -1.228701e+001 -1.370823e+001 -5.139953e+000 -6.037309e-001 -8.274269e+000 1.567726e+000 -1.786925e+000 1.989781e+000 -7.870647e+000 4.040856e-002 -5.359872e+000 6.609945e+001 -1.641950e-001 1.531217e+000 1.766311e+000 -8.615437e-001 -3.863851e-001 -3.541299e-001 -5.222479e-001 -1.262243e-001 -1.057749e-001 6.841460e-001 -5.571141e-002 2.176380e-001 -1.865176e+000 -3.799037e-001 1.740112e-001 3.497992e-001 2.931754e-002 -1.609064e-002 1.433046e-001 2.923716e-002 -1.804126e-001 -2.282058e-001 1.499007e-001 2.455452e-002 9.663338e-002 -1.610347e-001
<VARIANCE> 39
 1.653684e+001 2.635068e+001 5.655770e+001 4.345294e+001 3.802467e+001 4.936353e+001 6.432666e+001 5.667331e+001 5.492274e+001 5.073756e+001 3.027858e+001 3.134470e+001 4.890089e+001 1.580349e+000 2.025014e+000 2.263069e+000 2.617383e+000 1.956928e+000 2.546534e+000 2.346248e+000 2.130176e+000 3.523537e+000 1.723790e+000 1.563409e+000 1.970125e+000 2.047189e+000 1.969500e-001 2.259709e-001 3.357964e-001 3.063961e-001 2.615973e-001 3.566624e-001 3.867997e-001 3.158310e-001 4.354850e-001 3.050570e-001 2.535874e-001 2.483311e-001 2.690834e-001
<GCONST> 1.138236e+002
<TRANSP> 5
 0.000000e+000 1.000000e+000 0.000000e+000 0.000000e+000 0.000000e+000
 0.000000e+000 8.346891e-001 1.653110e-001 0.000000e+000 0.000000e+000
 0.000000e+000 0.000000e+000 8.273683e-001 1.726317e-001 0.000000e+000
 0.000000e+000 0.000000e+000 0.000000e+000 7.466629e-001 2.533371e-001
 0.000000e+000 0.000000e+000 0.000000e+000 0.000000e+000 0.000000e+000
<ENDHMM>
~h "ay"
<BEGINHMM>
<NUMSTATES> 5
<STATE> 2
<MEAN> 39
 -4.134293e+000 -1.609308e+001 -1.293696e+001 -4.392004e+000 -4.353822e-001 -5.200126e+000 6.523959e+000 -3.983267e+000 -4.234124e+000 -5.303221e+000 1.047280e+000 -3.762184e+000 7.109760e+001 -2.272902e-001 -7.761843e-001 2.644875e-001 7.302553e-003 -1.785280e-001 5.543175e-001 5.721028e-001 -5.960830e-001 -6.214899e-001 2.314229e-001 2.764102e-001 -8.555102e-002 1.164848e+000 -1.316849e-001 3.789750e-001 3.402643e-001 -2.468339e-001 -2.273428e-002 4.721546e-002 -3.027466e-001 -4.505383e-002 3.086721e-001 1.587194e-001 -9.742694e-002 -2.775578e-002 -3.669273e-001
<VARIANCE> 39
 2.005688e+001 2.396056e+001 2.987955e+001 4.125430e+001 4.459569e+001 3.640254e+001 4.416969e+001 7.316615e+001 4.416037e+001 4.476403e+001 2.967528e+001 2.871652e+001 6.309295e+001 1.526385e+000 2.000379e+000 2.666901e+000 2.809757e+000 2.248120e+000 2.236484e+000 1.844369e+000 2.205384e+000 2.669505e+000 2.080835e+000 1.624838e+000 1.220355e+000 2.095529e+000 1.921141e-001 2.033205e-001 2.373552e-001 2.849159e-001 2.693459e-001 3.235444e-001 3.579038e-001 3.919795e-001 4.116524e-001 2.922973e-001 2.699494e-001 2.298631e-001 2.622477e-001
<GCONST> 1.116347e+002
<STATE> 3
<MEAN> 39
 -5.604323e+000 -1.815412e+001 -9.101704e+000 -5.719168e+000 -7.775542e-001 -2.559545e+000 6.024660e+000 -7.548775e+000 -3.357412e+000 -2.876665e+000 1.051403e+000 -4.398869e+000 7.343031e+001 -3.389637e-001 5.655509e-001 6.669528e-001 -1.023767e+000 -1.437175e-001 7.000034e-001 -2.571414e-001 -4.068245e-001 4.959596e-001 2.740544e-001 -3.825541e-001 6.648164e-003 -1.225798e-002 5.995633e-002 2.998595e-001 -1.207947e-002 -2.289287e-001 1.336578e-002 -4.899248e-002 -1.775382e-001 1.696005e-001 1.750785e-001 -1.223642e-001 -7.429005e-002 4.939382e-002 -2.067463e-001
<VARIANCE> 39
 1.596124e+001 2.136563e+001 1.775256e+001 4.001868e+001 3.329021e+001 2.742434e+001 3.423247e+001 4.931555e+001 6.805016e+001 2.645199e+001 2.755794e+001 2.110775e+001 2.770323e+001 2.881550e-001 9.929627e-001 8.644568e-001 1.943482e+000 1.217037e+000 1.207337e+000 1.370045e+000 1.063999e+000 1.524953e+000 1.161633e+000 1.085177e+000 7.758711e-001 4.174054e-001 4.284000e-002 9.618333e-002 8.907349e-002 1.454098e-001 1.204098e-001 2.133784e-001 1.876992e-001 2.041622e-001 2.168761e-001 1.375930e-001 1.529794e-001 1.178022e-001 9.778795e-002
<GCONST> 8.844687e+001
<STATE> 4
<MEAN> 39
 -6.208429e+000 -8.535886e+000 -6.253611e+000 -1.722462e+001 -1.827728e+000 -1.036057e-001 2.597458e+000 -6.514574e+000 1.901822e+000 -3.822951e+000 -1.781285e+000 -4.187218e+000 7.034412e+001 9.573806e-002 1.684904e+000 5.978969e-001 -6.959044e-001 -6.502118e-002 -6.818830e-001 -7.370195e-001 5.373592e-001 4.134338e-001 4.388764e-002 4.655394e-002 -1.118346e-002 -1.483081e+000 9.383609e-003 -9.414128e-002 -2.487780e-002 5.920175e-001 6.693576e-002 -2.748450e-001 3.812430e-002 2.450839e-002 -2.303860e-001 2.359675e-002 1.670310e-001 -1.449762e-002 -3.871469e-001
<VARIANCE> 39
 1.273728e+001 5.200478e+001 2.299024e+001 4.029770e+001 4.688776e+001 4.697570e+001 3.341843e+001 3.621734e+001 4.295920e+001 3.027189e+001 3.401248e+001 2.950346e+001 4.435661e+001 5.590131e-001 2.005808e+000 1.426394e+000 3.532423e+000 1.645867e+000 2.280020e+000 2.255136e+000 2.065307e+000 2.602739e+000 1.549574e+000 1.395784e+000 1.125087e+000 2.027870e+000 1.280026e-001 2.392330e-001 1.853226e-001 3.398330e-001 2.644421e-001 4.179431e-001 2.487390e-001 2.884719e-001 2.690451e-001 2.441777e-001 2.301587e-001 1.836467e-001 2.200875e-001
<GCONST> 1.063316e+002
<TRANSP> 5
 0.000000e+000 1.000000e+000 0.000000e+000 0.000000e+000 0.000000e+000
 0.000000e+000 7.154730e-001 2.845271e-001 0.000000e+000 0.000000e+000
 0.000000e+000 0.000000e+000 7.902679e-001 2.097321e-001 0.000000e+000
 0.000000e+000 0.000000e+000 0.000000e+000 7.877750e-001 2.122250e-001
 0.000000e+000 0.000000e+000 0.000000e+000 0.000000e+000 0.000000e+000
<ENDHMM>
~h "ch"
<BEGINHMM>
<NUMSTATES> 5
<STATE> 2
<MEAN> 39
 -1.491304e+001 9.080055e-001 -3.677362e+000 -3.502883e+000 -5.756099e-001 -4.780225e+000 -1.032845e+000 -5.056918e+000 4.831674e-001 -5.960253e+000 -3.331019e-001 -3.487785e+000 4.697956e+001 -2.418105e+000 -3.814793e-001 -1.202110e+000 9.892237e-001 4.564591e-001 1.780562e-001 6.099603e-001 6.879513e-001 5.627736e-001 2.731867e-001 6.934986e-001 3.595496e-001 -6.282459e-001 -1.356181e-002 -1.752448e-001 -2.602568e-001 -5.669724e-001 -1.219987e-001 -5.509486e-002 6.015838e-002 -7.457267e-002 1.093032e-001 1.089958e-001 -2.320551e-002 -5.910496e-002 1.282896e+000
<VARIANCE> 39
 4.619952e+001 3.205491e+001 3.146616e+001 3.888104e+001 2.366580e+001 2.490799e+001 2.947591e+001 3.028805e+001 3.459782e+001 3.008850e+001 2.664036e+001 2.346257e+001 7.833670e+001 2.360048e+000 2.605853e+000 1.952394e+000 3.092342e+000 2.055606e+000 1.471177e+000 2.086422e+000 1.780653e+000 2.080492e+000 1.806540e+000 1.429492e+000 1.479400e+000 9.921137e+000 3.799495e-001 4.806894e-001 3.704399e-001 4.397780e-001 2.787035e-001 2.715290e-001 3.152682e-001 3.328924e-001 3.204312e-001 3.195131e-001 2.651809e-001 2.181351e-001 9.309309e-001
<GCONST> 1.138576e+002
<STATE> 3
<MEAN> 39
 -2.463656e+001 1.336803e+000 -1.082945e+001 -5.522409e+000 5.668364e-001 -4.314049e+000 1.399161e+000 -3.702717e+000 3.712026e+000 -3.448725e+000 1.752090e+000 -2.187562e+000 5.877407e+001 -3.854223e-001 2.629486e-001 1.516291e-002 -1.053936e+000 2.296590e-001 -1.500206e-001 7.481126e-002 -1.529688e-001 1.663768e-001 2.865866e-001 -1.985151e-001 6.862505e-003 1.554433e+000 7.285722e-001 -5.919724e-002 5.161034e-001 -2.103819e-001 -1.319018e-001 -4.103413e-002 -1.527648e-001 -1.294798e-001 -2.206791e-001 -2.510698e-002 -1.504937e-001 -1.148088e-001 -2.725993e-001
<VARIANCE> 39
 1.414439e+001 2.532619e+001 2.020190e+001 2.077727e+001 1.716454e+001 1.926092e+001 1.746467e+001 1.884498e+001 2.079621e+001 2.383761e+001 2.245716e+001 1.879783e+001 3.709087e+001 2.666879e+000 1.313873e+000 1.947153e+000 1.541625e+000 1.084583e+000 9.466565e-001 1.090852e+000 9.153728e-001 1.349889e+000 1.353171e+000 1.572070e+000 8.463249e-001 3.621963e+000 2.852264e-001 3.509150e-001 2.331485e-001 2.447523e-001 2.488167e-001 1.863785e-001 2.444554e-001 1.900880e-001 2.443147e-001 2.221233e-001 2.786061e-001 1.851659e-001 5.082250e-001
<GCONST> 9.775275e+001
<STATE> 4
<MEAN> 39
 -1.858767e+001 5.134145e-002 -5.074027e+000 -1.288780e+001 2.204641e-001 -5.558279e+000 3.497954e-001 -5.322184e+000 1.488368e+000 -2.351269e+000 -7.414681e-001 -4.373815e+000 6.274800e+001 2.613015e+000 -9.444655e-001 1.075816e+000 -8.521904e-001 -1.224362e+000 -6.567428e-003 -5.005845e-001 -3.937528e-001 -3.640198e-001 -3.535492e-001 -1.409814e-002 -7.940436e-001 8.785633e-001 2.534008e-001 -1.818417e-001 -1.906707e-001 3.648169e-001 -2.342544e-001 5.469779e-002 -1.090208e-002 6.096746e-002 5.365058e-002 -1.993530e-001 1.781026e-001 -1.976777e-002 2.635979e-002
<VARIANCE> 39
 4.910492e+001 2.468941e+001 3.180675e+001 3.410889e+001 3.647874e+001 2.921889e+001 2.489395e+001 2.719382e+001 2.725202e+001 4.303498e+001 3.826565e+001 2.721962e+001 3.107323e+001 2.064997e+000 1.688301e+000 1.817346e+000 2.744815e+000 2.077636e+000 2.195986e+000 1.822700e+000 2.310851e+000 1.512102e+000 2.181161e+000 2.814196e+000 1.393750e+000 1.841741e+000 4.437372e-001 2.081924e-001 2.701173e-001 2.749302e-001 3.366596e-001 3.249222e-001 2.689231e-001 3.148638e-001 2.236613e-001 3.578690e-001 2.986109e-001 2.319809e-001 2.357609e-001
<GCONST> 1.093868e+002
<TRANSP> 5
 0.000000e+000 1.000000e+000 0.000000e+000 0.000000e+000 0.000000e+000
 0.000000e+000 7.497682e-001 2.502318e-001 0.000000e+000 0.000000e+000
 0.000000e+000 0.000000e+000 7.952929e-001 2.047071e-001 0.000000e+000
 0.000000e+000 0.000000e+000 0.000000e+000 7.082253e-001 2.917747e-001
 0.000000e+000 0.000000e+000 0.000000e+000 0.000000e+000 0.000000e+000
<ENDHMM>
~h "dh"
<BEGINHMM>
<NUMSTATES> 5
<STATE> 2
<MEAN> 39
 -9.990152e+000 -3.424177e+000 -2.645786e+000 -4.576859e+000 -9.234532e-001 -5.103646e+000 9.217994e-001 -4.156017e+000 -2.685670e-001 -2.652031e+000 1.370490e+000 -3.520690e+000 4.441038e+001 -1.219637e-001 -2.726628e-001 -3.104334e-001 8.283231e-002 -2.241348e-001 1.320499e-001 2.358012e-001 9.668569e-002 5.604122e-002 -2.463486e-002 3.159282e-002 -3.496270e-002 6.308654e-001 2.260597e-001 -1.847744e-001 -1.695157e-001 -4.711861e-001 -2.376053e-001 4.488524e-003 8.519630e-002 -4.313597e-002 1.361719e-001 7.716482e-002 -9.472848e-002 -3.106954e-002 1.030919e+000
<VARIANCE> 39
 3.603812e+001 2.838972e+001 2.731145e+001 2.663445e+001 2.109196e+001 3.300665e+001 3.103392e+001 2.886368e+001 3.549260e+001 3.051716e+001 2.160797e+001 1.866181e+001 7.624684e+001 2.015009e+000 1.732307e+000 1.601819e+000 2.977216e+000 1.488114e+000 1.450031e+000 1.472845e+000 1.660965e+000 1.958875e+000 1.757453e+000 1.192083e+000 8.711020e-001 9.009209e+000 2.845779e-001 3.837395e-001 3.093176e-001 3.705014e-001 2.775059e-001 3.114991e-001 2.840520e-001 3.193748e-001 3.477932e-001 3.150885e-001 2.280352e-001 1.857479e-001 6.204126e-001
<GCONST> 1.087307e+002
<STATE> 3
<MEAN> 39
 -8.695401e+000 -5.702113e+000 -4.953871e+000 -7.122039e+000 -2.793853e+000 -5.368978e+000 1.234934e+000 -3.861391e+000 4.368351e-001 -1.790974e+000 1.422697e+000 -3.395313e+000 5.426928e+001 1.118546e+000 -4.339848e-001 -4.314475e-001 -1.633908e+000 -1.271294e+000 -7.299737e-002 5.398626e-001 -2.198597e-001 1.827794e-001 5.510348e-001 -4.911152e-001 -2.450868e-001 3.997894e+000 1.815096e-001 3.302388e-002 2.309955e-002 -2.729273e-001 -1.312599e-001 -6.358794e-002 5.745881e-002 -8.165929e-002 -1.667114e-002 -9.062618e-003 -1.375508e-001 -5.940987e-002 2.836119e-001
<VARIANCE> 39
 3.710321e+001 2.138684e+001 2.491219e+001 2.380711e+001 2.352141e+001 3.474945e+001 2.790807e+001 3.494230e+001 4.710463e+001 3.266479e+001 1.924510e+001 1.978960e+001 6.122427e+001 1.870219e+000 1.368883e+000 1.451415e+000 1.931546e+000 1.657531e+000 2.090733e+000 2.020604e+000 2.393757e+000 2.426729e+000 2.755517e+000 1.423165e+000 1.369522e+000 3.888580e+000 2.463367e-001 2.497188e-001 2.507660e-001 2.542457e-001 2.232640e-001 2.773516e-001 2.965396e-001 2.823269e-001 3.800326e-001 2.324470e-001 2.012967e-001 1.931726e-001 4.646266e-001
<GCONST> 1.071953e+002
<STATE> 4
<MEAN> 39
 -4.096481e+000 -6.270409e+000 -4.778264e+000 -1.221013e+001 -7.708193e+000 -5.983203e+000 3.700856e+000 -4.435912e+000 -1.845601e-001 3.174146e-001 -1.362762e+000 -5.232253e+000 6.414428e+001 8.060551e-001 -4.385172e-001 -3.340173e-001 -1.642789e+000 -9.633912e-001 1.837723e-001 4.873292e-001 -3.746338e-001 1.239332e-001 2.701256e-001 -6.462169e-001 -1.178358e-001 3.209761e+000 -2.421834e-001 1.666272e-001 9.486739e-002 3.131959e-001 4.201838e-001 1.116713e-001 -2.070868e-001 -3.463136e-002 7.031042e-003 -2.173995e-001 1.232897e-001 1.460022e-001 -7.525143e-001
<VARIANCE> 39
 1.803885e+001 2.282541e+001 2.023782e+001 3.428167e+001 3.566356e+001 4.014456e+001 3.682678e+001 6.002829e+001 6.444952e+001 6.986582e+001 3.073266e+001 2.768875e+001 4.846875e+001 1.901206e+000 1.673219e+000 1.415660e+000 2.229786e+000 1.920715e+000 2.491846e+000 2.297726e+000 2.375510e+000 2.775208e+000 1.972348e+000 1.603325e+000 1.688602e+000 3.680085e+000 1.992219e-001 1.717152e-001 2.028952e-001 2.432449e-001 2.325163e-001 2.548888e-001 2.760609e-001 3.288814e-001 3.495886e-001 3.896635e-001 2.411794e-001 1.908100e-001 5.003554e-001
<GCONST> 1.104421e+002
<TRANSP> 5
 0.000000e+000 1.000000e+000 0.000000e+000 0.000000e+000 0.000000e+000
 0.000000e+000 6.682246e-001 3.317755e-001 0.000000e+000 0.000000e+000
 0.000000e+000 0.000000e+000 3.872918e-001 6.127081e-001 0.000000e+000
 0.000000e+000 0.000000e+000 0.000000e+000 4.837433e-001 5.162567e-001
 0.000000e+000 0.000000e+000 0.000000e+000 0.000000e+000 0.000000e+000
<ENDHMM>
~h "dx"
<BEGINHMM>
<NUMSTATES> 5
<STATE> 2
<MEAN> 39
 -4.172436e+000 -7.391088e+000 -2.014953e+000 -1.267768e+001 -5.671550e+000 -8.510073e+000 3.500995e+000 -5.034702e+000 -1.357314e+000 -7.886064e-001 -7.697542e-001 -4.023923e+000 6.617103e+001 5.264755e-002 3.593443e-001 7.499715e-001 -1.971337e-001 -7.050601e-001 -2.901855e-001 4.091273e-001 -7.256129e-001 3.669239e-001 6.544836e-001 -2.153292e-001 9.661782e-002 -4.767241e-001 3.921505e-002 -1.397855e-001 -3.750878e-001 -4.710960e-002 2.818897e-002 1.264507e-001 -1.135522e-001 1.499289e-001 2.272823e-001 -2.690888e-001 9.897585e-002 -5.704370e-002 3.296102e-001
<VARIANCE> 39
 1.707501e+001 7.851563e+001 4.949491e+001 4.108807e+001 4.166518e+001 4.501988e+001 6.184163e+001 6.198450e+001 5.197306e+001 4.441018e+001 2.570267e+001 2.568152e+001 4.797260e+001 3.882934e-001 1.454983e+000 1.849885e+000 1.767284e+000 1.835279e+000 1.964733e+000 1.740060e+000 1.803792e+000 1.865471e+000 1.976905e+000 1.425773e+000 1.177506e+000 1.088627e+000 6.696796e-002 2.074324e-001 3.345874e-001 2.970783e-001 3.116752e-001 3.167641e-001 2.622690e-001 3.173977e-001 3.937968e-001 3.292488e-001 2.333460e-001 1.863535e-001 2.833450e-001
<GCONST> 1.075134e+002
<STATE> 3
<MEAN> 39
 -4.704959e+000 -6.264022e+000 -1.713350e+000 -1.403580e+001 -6.697978e+000 -8.361754e+000 4.202173e+000 -6.856528e+000 5.187778e-001 5.505756e-002 -1.207329e+000 -4.206892e+000 6.650703e+001 9.476331e-002 3.625471e-002 4.680746e-002 -3.539132e-001 -5.114980e-001 9.881058e-002 8.923814e-002 -2.190168e-001 6.427253e-001 -9.900495e-002 2.564564e-002 -1.515705e-002 1.487815e-001 4.390894e-002 -1.356518e-001 -2.895843e-001 6.469116e-003 1.237090e-001 1.309286e-001 -2.100205e-001 2.513711e-001 2.637049e-002 -2.970768e-001 1.314137e-001 -6.184505e-003 2.125965e-001
<VARIANCE> 39
 1.614825e+001 6.973379e+001 3.902514e+001 3.476004e+001 3.629331e+001 4.249857e+001 6.109940e+001 4.256806e+001 4.897210e+001 4.054541e+001 2.887205e+001 2.907256e+001 3.805333e+001 3.613685e-001 1.604571e+000 1.290684e+000 1.422233e+000 1.557279e+000 1.881564e+000 1.905844e+000 1.430545e+000 1.543159e+000 1.583278e+000 1.227931e+000 1.103723e+000 1.100432e+000 6.063975e-002 1.771452e-001 2.705059e-001 3.272259e-001 2.440450e-001 2.963271e-001 2.315799e-001 2.320426e-001 2.778074e-001 2.619909e-001 2.040589e-001 1.762679e-001 2.418547e-001
<GCONST> 1.026466e+002
<STATE> 4
<MEAN> 39
 -4.580053e+000 -6.542121e+000 -2.771638e+000 -1.632837e+001 -7.495273e+000 -6.966497e+000 3.487637e+000 -7.331927e+000 3.028039e+000 -1.978971e+000 -1.357253e+000 -3.421867e+000 6.830317e+001 1.297286e-001 -4.650730e-002 -2.025242e-001 -1.837518e-001 -1.262808e-001 2.171555e-001 -3.557683e-001 1.718626e-001 3.755183e-001 -5.009629e-001 2.727385e-001 5.424673e-002 1.825495e-001 2.786828e-002 1.517071e-003 -1.089326e-001 2.094630e-001 1.951951e-001 -2.151476e-003 -2.072135e-001 1.462117e-001 -1.669682e-001 -9.200042e-002 6.848559e-002 5.664239e-004 -1.253391e-001
<VARIANCE> 39
 1.596546e+001 6.686845e+001 3.137831e+001 3.677589e+001 3.777486e+001 4.460175e+001 6.591527e+001 3.618059e+001 4.322586e+001 4.324866e+001 3.260939e+001 3.698653e+001 3.279066e+001 4.155624e-001 1.534487e+000 1.222950e+000 1.689253e+000 1.682088e+000 2.023364e+000 2.058078e+000 1.629417e+000 1.866665e+000 1.744330e+000 1.194868e+000 1.160287e+000 1.498043e+000 6.389447e-002 1.502340e-001 2.185730e-001 2.733580e-001 2.179361e-001 2.723750e-001 2.730120e-001 2.116180e-001 2.205120e-001 2.657045e-001 2.096954e-001 1.608814e-001 2.915367e-001
<GCONST> 1.030502e+002
<TRANSP> 5
 0.000000e+000 1.000000e+000 0.000000e+000 0.000000e+000 0.000000e+000
 0.000000e+000 3.554044e-001 6.445956e-001 0.000000e+000 0.000000e+000
 0.000000e+000 0.000000e+000 3.927996e-001 6.072004e-001 0.000000e+000
 0.000000e+000 0.000000e+000 0.000000e+000 4.476034e-001 5.523967e-001
 0.000000e+000 0.000000e+000 0.000000e+000 0.000000e+000 0.000000e+000
<ENDHMM>
~h "eh"
<BEGINHMM>
<NUMSTATES> 5
<STATE> 2
<MEAN> 39
 -7.266597e+000 -6.519393e+000 -5.888092e+000 -1.789967e+001 -4.423782e+000 -2.263161e+000 2.669101e+000 -5.656068e+000 2.904034e+000 -3.030466e+000 -1.111272e+000 -5.414742e+000 7.076204e+001 3.645552e-001 -9.098156e-001 -1.002598e-001 -1.003503e+000 -4.564568e-001 1.074158e+000 5.544068e-001 -2.465525e-001 2.347052e-001 -2.878986e-002 -6.233433e-001 -7.996468e-002 1.771482e+000 -1.345849e-001 8.421981e-003 9.064818e-003 4.421645e-001 1.477182e-001 -1.104088e-001 -7.061543e-002 4.761166e-002 -7.678924e-002 -4.942832e-002 8.205431e-002 7.323165e-002 -4.800465e-001
<VARIANCE> 39
 1.565047e+001 3.308158e+001 3.042709e+001 3.924472e+001 6.353349e+001 3.432271e+001 3.792609e+001 3.719984e+001 3.547437e+001 4.294339e+001 3.376284e+001 3.558815e+001 4.269764e+001 1.363057e+000 1.659185e+000 1.217720e+000 1.858751e+000 2.336456e+000 1.949041e+000 1.774883e+000 1.897135e+000 1.639097e+000 1.793206e+000 1.707439e+000 1.797168e+000 2.718301e+000 2.062136e-001 1.788014e-001 1.626421e-001 2.265411e-001 2.940795e-001 3.082415e-001 3.009875e-001 2.621121e-001 2.852756e-001 2.431482e-001 2.300484e-001 2.529999e-001 3.512064e-001
<GCONST> 1.075873e+002
<STATE> 3
<MEAN> 39
