~o
<STREAMINFO> 1 39
<VECSIZE> 39<NULLD><MFCC_D_A_0><DIAGC>
~s "silst"
<NUMMIXES> 4
<MIXTURE> 1 2.433220e-001
<MEAN> 39
 -4.120849e+000 1.389139e+000 9.762220e-001 -4.073267e+000 -9.768976e-001 -3.429937e+000 1.635105e+000 -2.124805e+000 2.374250e+000 -8.702264e-001 2.161208e+000 -1.910408e+000 5.348810e+001 1.912458e-001 2.297205e-001 5.020012e-001 7.802520e-001 4.467240e-001 3.236773e-001 3.137942e-001 3.416515e-001 1.332689e-001 1.043102e-001 2.042189e-001 2.020841e-001 -9.977784e-001 5.749536e-002 -7.857453e-003 -5.650891e-003 5.798357e-002 1.791429e-001 7.646392e-002 7.338919e-002 1.079133e-001 9.297309e-002 7.864956e-002 6.124362e-002 6.947675e-002 2.364064e-001
<VARIANCE> 39
 7.890336e+001 6.766828e+001 6.412904e+001 8.565569e+001 7.034475e+001 5.938829e+001 6.109335e+001 5.921634e+001 5.498315e+001 4.981527e+001 3.831076e+001 3.614962e+001 1.088007e+002 1.275248e+000 1.191307e+000 1.424156e+000 1.775704e+000 1.908213e+000 1.696399e+000 1.792677e+000 1.560556e+000 1.567701e+000 1.593551e+000 1.335443e+000 9.913316e-001 3.356749e+000 1.642993e-001 1.522816e-001 1.868633e-001 2.206865e-001 2.448062e-001 2.572918e-001 2.658559e-001 2.711895e-001 2.628781e-001 2.259369e-001 2.057395e-001 1.802305e-001 2.294355e-001
<GCONST> 1.113357e+002
<MIXTURE> 2 2.644200e-001
<MEAN> 39
 -2.577547e+000 -2.112771e+000 -1.202455e+000 -1.125785e+001 -5.726315e+000 -7.714793e+000 -5.269873e-001 -5.491631e+000 1.408293e+000 -2.233600e+000 -8.388321e-001 -4.786726e+000 5.673738e+001 -7.567459e-001 1.181530e+000 9.617993e-001 1.887016e+000 8.634995e-001 2.387455e-001 -2.448532e-001 6.722128e-002 -2.801968e-001 -4.585655e-002 2.079187e-001 3.713177e-001 -4.117062e+000 -4.873467e-001 -3.494238e-001 -3.490504e-001 2.553001e-001 3.260348e-001 2.437390e-001 1.374878e-001 1.445344e-001 -8.027408e-002 -1.437254e-001 9.017541e-002 4.874821e-002 8.804379e-002
<VARIANCE> 39
 2.328719e+001 5.223002e+001 6.159922e+001 7.582197e+001 7.822632e+001 7.796074e+001 7.478809e+001 8.248589e+001 6.719293e+001 6.504111e+001 5.370089e+001 4.471023e+001 5.963497e+001 2.299889e+000 3.263235e+000 2.910855e+000 3.545838e+000 3.504653e+000 3.151170e+000 3.109963e+000 3.370098e+000 3.125522e+000 2.625728e+000 2.542701e+000 2.084592e+000 5.755474e+000 2.223980e-001 3.191559e-001 3.664175e-001 4.806859e-001 5.525620e-001 5.176317e-001 5.116443e-001 5.652381e-001 5.213748e-001 4.380167e-001 4.097143e-001 3.440789e-001 4.919075e-001
<GCONST> 1.285319e+002
<MIXTURE> 3 2.489316e-001
<MEAN> 39
 -3.478199e+000 7.279690e-001 7.778094e-001 -1.209061e+001 -3.573215e+000 -7.626027e+000 -5.079288e+000 -5.619260e+000 -1.269934e+000 -2.530715e+000 7.459427e-001 -3.343874e+000 5.568378e+001 -8.881611e-001 8.664305e-001 7.099476e-001 2.260273e+000 8.975714e-001 2.595501e-001 -6.386257e-002 -9.242266e-002 -4.873876e-001 -5.309699e-001 1.836434e-002 7.962980e-002 -4.310517e+000 -4.911860e-001 -5.753024e-001 -5.363430e-001 2.546007e-001 7.387750e-002 2.473200e-001 5.082855e-001 1.545957e-001 1.892303e-001 -6.149737e-002 -5.576253e-002 -5.451661e-002 2.246337e-001
<VARIANCE> 39
 2.229529e+001 4.608726e+001 5.140219e+001 6.955833e+001 6.354441e+001 7.193338e+001 7.187202e+001 5.919413e+001 6.021181e+001 6.206339e+001 4.689248e+001 3.868259e+001 5.768593e+001 1.972931e+000 3.221266e+000 2.854511e+000 3.306597e+000 3.252103e+000 3.120457e+000 2.735670e+000 2.717579e+000 2.634088e+000 2.302501e+000 2.074735e+000 1.709169e+000 4.994896e+000 2.056408e-001 2.914583e-001 3.260423e-001 4.567569e-001 4.514406e-001 4.820559e-001 5.802854e-001 4.695239e-001 4.955507e-001 4.377488e-001 3.913187e-001 2.945903e-001 5.267024e-001
<GCONST> 1.245819e+002
<MIXTURE> 4 2.433220e-001
<MEAN> 39
 -7.673951e+000 -1.901290e+000 -2.227002e+000 -7.775281e+000 -4.331769e+000 -6.512489e+000 -1.491385e+000 -5.202891e+000 -5.917752e-001 -3.693424e+000 -3.146195e-001 -4.315390e+000 4.931580e+001 -2.604617e-001 -2.068676e-001 2.464920e-002 2.472298e-001 -1.058284e-001 -1.973062e-001 -2.217693e-001 -1.580374e-001 -3.675625e-001 -4.006335e-001 -2.580266e-001 -1.961784e-001 -1.730636e+000 -1.046400e-001 -1.639505e-001 -1.785616e-001 -1.299255e-001 -1.876867e-002 -1.264318e-001 -1.328557e-001 -1.003901e-001 -1.121135e-001 -1.114817e-001 -1.201904e-001 -1.003375e-001 4.480865e-002
<VARIANCE> 39
 7.890336e+001 6.766828e+001 6.412904e+001 8.565569e+001 7.034475e+001 5.938829e+001 6.109335e+001 5.921634e+001 5.498315e+001 4.981527e+001 3.831076e+001 3.614962e+001 1.088007e+002 1.275248e+000 1.191307e+000 1.424156e+000 1.775704e+000 1.908213e+000 1.696399e+000 1.792677e+000 1.560556e+000 1.567701e+000 1.593551e+000 1.335443e+000 9.913316e-001 3.356749e+000 1.642993e-001 1.522816e-001 1.868633e-001 2.206865e-001 2.448062e-001 2.572918e-001 2.658559e-001 2.711895e-001 2.628781e-001 2.259369e-001 2.057395e-001 1.802305e-001 2.294355e-001
<GCONST> 1.113357e+002
~h "zh"
<BEGINHMM>
<NUMSTATES> 5
<STATE> 2
<NUMMIXES> 4
<MIXTURE> 1 1.369039e-001
<MEAN> 39
 -2.502220e+000 2.983100e-001 -2.433490e+000 -1.259146e+001 -1.041329e+001 -3.789439e+000 -8.734108e-001 -8.153696e+000 2.620150e+000 4.055140e+000 -3.653606e+000 -6.736641e-001 6.674684e+001 -1.440621e+000 2.619682e+000 7.179444e-001 -1.026419e+000 1.332515e+000 2.494349e-001 -1.052509e+000 -2.360971e-001 1.382916e+000 -6.194378e-001 7.225391e-001 1.136803e+000 -4.952426e-001 -2.973390e-001 -7.352774e-002 -8.689263e-001 7.275471e-001 3.692448e-001 -2.781653e-001 7.547336e-001 5.356630e-001 -6.619242e-002 -6.781428e-001 1.310037e-001 1.043595e-002 -1.893839e-002
<VARIANCE> 39
 3.097294e+001 2.065283e+000 2.324855e+001 1.371076e+001 4.103324e+000 4.902178e+000 5.689983e+000 1.170459e+001 3.131034e+001 4.043838e+001 1.510076e+001 2.848171e+001 6.625652e+001 2.053009e-001 7.118179e-001 8.331195e-001 2.896554e+000 1.311673e+000 6.972662e-001 1.771348e+000 9.137551e-001 1.667594e+000 2.562748e+000 7.649159e-002 2.971895e+000 1.976131e+000 2.291652e-001 1.038008e-001 2.379910e-001 1.719906e-001 1.672711e-001 1.153599e-001 3.518568e-001 2.025622e-001 1.228024e-001 1.224293e-001 1.290577e-001 2.201369e-001 8.682854e-002
<GCONST> 8.247794e+001
<MIXTURE> 2 4.217495e-001
<MEAN> 39
 -8.113132e+000 6.123639e+000 -5.459908e+000 -1.155555e+001 -5.119901e+000 -9.349327e+000 -5.121490e+000 -1.127310e+001 -2.661836e+000 -5.661313e+000 -7.809762e+000 -8.301556e+000 6.567198e+001 -1.092236e+000 1.402906e+000 -1.378747e+000 9.663345e-001 6.036820e-001 -4.698332e-001 6.476046e-001 -9.577503e-001 9.604192e-001 2.485127e-001 5.958185e-001 6.316097e-001 -3.587216e-001 -2.162391e-001 -2.507066e-001 2.042849e-002 -1.074760e-003 2.462523e-002 1.867363e-001 2.543343e-001 2.196005e-001 3.559600e-002 -1.041813e-001 2.316486e-001 1.276731e-001 -2.029423e-001
<VARIANCE> 39
 3.805410e+000 6.421766e+000 3.020904e+001 4.076054e+001 5.272230e+001 1.705631e+001 1.388432e+001 3.257943e+001 1.132104e+001 9.228726e+001 2.860394e+001 1.166621e+002 1.014966e+001 1.469476e+000 1.990965e+000 2.100953e+000 1.500201e+000 7.654743e-001 1.521167e+000 1.982418e+000 9.315814e-001 2.391303e+000 6.355719e-001 1.137888e+000 2.572033e+000 8.411990e-001 2.291322e-001 9.037835e-002 1.181978e-001 2.808610e-001 3.530019e-001 3.608891e-001 2.203461e-001 2.228795e-001 2.380713e-001 1.518363e-001 7.464980e-002 2.665625e-001 1.134139e-001
<GCONST> 9.482316e+001
<MIXTURE> 3 2.206734e-001
<MEAN> 39
 -5.736296e+000 4.222157e+000 -1.705196e+000 -1.900449e+001 -1.325325e+000 -4.694880e+000 -3.268648e+000 -5.061913e+000 7.254414e+000 -3.464895e+000 1.902533e+000 9.347821e-001 6.613226e+001 -1.216560e+000 1.808871e+000 3.408502e-001 2.457757e+000 3.546570e-001 2.006686e-001 2.971773e-001 -1.624844e-001 -8.092149e-002 4.042706e-001 3.673856e-001 7.909001e-001 -1.262573e+000 -5.421301e-001 -1.360070e-002 -2.949997e-001 6.639657e-001 3.175836e-001 1.110683e-001 5.126508e-001 2.291456e-001 -1.320144e-001 1.625605e-001 -1.457691e-001 -1.128301e-001 -8.764692e-002
<VARIANCE> 39
 2.044988e+001 1.115502e+001 7.315565e+000 1.972747e+001 2.410308e+001 4.825147e+000 3.187994e+000 7.225893e+000 1.102090e+001 5.537529e+000 8.722505e+000 6.175515e+000 1.864013e+001 1.962947e+000 2.454613e-001 5.192025e-001 1.324083e+000 3.987057e+000 7.270250e-001 1.221020e+000 9.061686e-001 8.686474e-001 1.406407e+000 5.735404e-001 2.856904e-001 4.643995e-001 8.908016e-002 1.188184e-001 1.013788e-001 1.438940e-001 1.540154e-001 7.889332e-002 3.796569e-002 4.127767e-002 3.491322e-001 1.128467e-001 4.724588e-002 4.757179e-002 5.415085e-002
<GCONST> 6.678770e+001
<MIXTURE> 4 2.206734e-001
<MEAN> 39
 -7.545158e+000 2.886192e+000 -2.787088e+000 -2.078111e+001 -3.289121e+000 -5.573528e+000 -3.982846e+000 -6.137154e+000 5.926504e+000 -4.406173e+000 7.211772e-001 -5.924128e-002 6.440528e+001 -1.776980e+000 1.610695e+000 5.262738e-002 1.997482e+000 -4.440477e-001 -1.403944e-001 -1.448218e-001 -5.432560e-001 -4.537265e-001 -7.009757e-002 6.445580e-002 5.771000e-001 -1.535161e+000 -6.615153e-001 -1.514809e-001 -4.223599e-001 5.122323e-001 1.606044e-001 -1.283499e-003 4.347117e-001 1.478780e-001 -3.683640e-001 2.818988e-002 -2.327135e-001 -2.000739e-001 -1.807283e-001
<VARIANCE> 39
 2.044988e+001 1.115502e+001 7.315565e+000 1.972747e+001 2.410308e+001 4.825147e+000 3.187994e+000 7.225893e+000 1.102090e+001 5.537529e+000 8.722505e+000 6.175515e+000 1.864013e+001 1.962947e+000 2.454613e-001 5.192025e-001 1.324083e+000 3.987057e+000 7.270250e-001 1.221020e+000 9.061686e-001 8.686474e-001 1.406407e+000 5.735404e-001 2.856904e-001 4.643995e-001 8.908016e-002 1.188184e-001 1.013788e-001 1.438940e-001 1.540154e-001 7.889332e-002 3.796569e-002 4.127767e-002 3.491322e-001 1.128467e-001 4.724588e-002 4.757179e-002 5.415085e-002
<GCONST> 6.678770e+001
<STATE> 3
<NUMMIXES> 4
<MIXTURE> 1 2.658254e-001
<MEAN> 39
 -1.288270e+001 9.285914e+000 -3.220566e+000 -5.474541e+000 -1.124948e+000 -4.738734e+000 9.173405e-001 -7.668307e+000 4.236023e+000 2.264255e+000 1.836128e-001 2.172512e+000 6.341522e+001 -2.648900e+000 7.602426e-001 -1.304484e+000 1.826306e+000 1.531315e+000 8.912054e-001 1.325730e+000 7.915637e-001 2.677555e-001 -2.356278e-001 6.124212e-001 1.408600e-001 -8.263176e-001 3.176398e-001 -6.664573e-001 6.883610e-002 -3.937931e-001 7.135855e-002 8.092017e-002 3.246941e-002 4.666761e-001 -3.360302e-002 -6.393782e-002 8.417736e-002 -2.075581e-001 2.549313e-001
<VARIANCE> 39
 1.955130e+001 1.165263e+001 1.797887e+001 2.937486e+001 3.784941e+001 2.288574e+001 1.289882e+001 3.434179e+001 1.964379e+001 6.334827e+001 2.311923e+001 4.505306e+001 1.510668e+001 1.784306e+000 1.971013e+000 1.225230e+000 2.196953e+000 1.802993e+000 7.992845e-001 2.239305e+000 1.667829e+000 1.845956e+000 1.331869e+000 1.046345e+000 1.277514e+000 8.547500e-001 1.668480e-001 1.220503e-001 2.796425e-001 4.281084e-001 3.741395e-001 2.075404e-001 2.192637e-001 4.545628e-001 2.081521e-001 2.594679e-001 1.724327e-001 4.634282e-001 1.165004e-001
<GCONST> 9.951313e+001
<MIXTURE> 2 3.204459e-001
<MEAN> 39
 -7.809441e+000 1.544383e+001 -2.056055e+001 -9.978030e+000 -4.937293e+000 -1.258121e+001 -1.547400e+000 -1.638135e+001 1.580167e+000 -1.477621e+001 -1.269431e+001 -1.783467e+001 5.892668e+001 1.836371e-001 4.402684e-001 -2.444674e-001 2.545414e-001 -6.566553e-001 1.476475e-001 3.208321e-001 -2.305711e-001 2.919359e-001 -3.355501e-001 3.539927e-001 -2.744963e-001 -4.774140e-001 8.998339e-003 -1.458510e-001 1.341095e-001 -8.465263e-002 1.177171e-001 1.176099e-002 -3.687847e-002 -2.077951e-002 -1.430358e-001 -6.528652e-002 -3.520198e-002 -1.150524e-001 -2.275446e-002
<VARIANCE> 39
 6.091472e-001 2.356100e+000 1.829071e+000 1.190900e+000 8.967768e+000 2.056641e+000 3.049132e+000 4.732508e+000 2.413850e+000 5.771315e+000 5.322200e+000 3.922036e+000 2.747574e+000 3.358775e-002 1.083463e-001 1.471748e-001 2.190788e-001 4.989930e-001 1.451430e-001 8.657700e-002 3.608136e-001 3.661700e-001 5.736578e-001 9.521072e-002 2.539800e-001 5.261575e-002 9.091359e-003 1.933097e-002 4.753426e-002 2.118460e-002 4.998282e-002 6.813767e-002 2.042524e-002 5.339514e-002 2.232999e-002 7.043709e-002 3.504616e-002 3.780649e-003 8.906183e-003
<GCONST> 1.355993e+001
<MIXTURE> 3 1.479031e-001
<MEAN> 39
 -5.510403e+000 1.480303e+001 -1.934433e+001 -1.111428e+001 -2.367342e+000 -1.428898e+001 6.158965e-001 -2.024327e+001 6.924365e-001 -2.152454e+001 -1.481078e+001 -2.375086e+001 5.287312e+001 -1.622164e-001 -7.283031e-001 1.530252e+000 -3.164348e-001 1.761551e+000 -1.106352e+000 -5.348140e-001 5.477888e-001 -4.197077e-001 -2.564385e-001 -1.501155e+000 -6.517552e-001 -9.169648e-001 -3.372523e-001 -1.094416e-001 4.844894e-001 3.460066e-002 2.600759e-001 -9.925582e-002 -1.763740e-001 3.992249e-001 -1.819683e-001 2.012879e-001 4.120968e-002 2.399007e-001 -4.745851e-002
<VARIANCE> 39
 1.765219e+000 6.359739e+000 7.621460e+000 3.632892e+000 8.296879e+000 5.280034e+000 4.712239e+000 2.593508e+000 2.294415e+000 1.222390e+001 2.034423e+001 5.254224e+000 2.880496e+000 6.793197e-001 7.883915e-002 1.337729e+000 4.403271e-002 3.377038e-001 2.606772e-001 2.964486e-001 1.021886e+000 4.909238e-002 1.121408e-001 1.990289e-001 2.671055e-001 4.901518e-002 9.120268e-002 2.837259e-002 3.475423e-002 1.276257e-002 2.439780e-002 1.302628e-001 4.303721e-002 4.823042e-002 5.034338e-002 3.282039e-002 2.696771e-001 5.188954e-002 6.152933e-003
<GCONST> 3.085567e+001
<MIXTURE> 4 2.658254e-001
<MEAN> 39
 -1.465138e+001 7.920476e+000 -4.916626e+000 -7.642484e+000 -3.585823e+000 -6.652296e+000 -5.192567e-001 -1.001238e+001 2.463171e+000 -9.194099e-001 -1.739686e+000 -5.123509e-001 6.186052e+001 -3.183212e+000 1.986716e-001 -1.747244e+000 1.233422e+000 9.942128e-001 5.335946e-001 7.271578e-001 2.749859e-001 -2.757083e-001 -6.972544e-001 2.032572e-001 -3.112487e-001 -1.196128e+000 1.542516e-001 -8.062001e-001 -1.426888e-001 -6.555130e-001 -1.733092e-001 -1.013062e-001 -1.548330e-001 1.969910e-001 -2.160978e-001 -2.676898e-001 -8.192271e-002 -4.798603e-001 1.184027e-001
<VARIANCE> 39
 1.955130e+001 1.165263e+001 1.797887e+001 2.937486e+001 3.784941e+001 2.288574e+001 1.289882e+001 3.434179e+001 1.964379e+001 6.334827e+001 2.311923e+001 4.505306e+001 1.510668e+001 1.784306e+000 1.971013e+000 1.225230e+000 2.196953e+000 1.802993e+000 7.992845e-001 2.239305e+000 1.667829e+000 1.845956e+000 1.331869e+000 1.046345e+000 1.277514e+000 8.547500e-001 1.668480e-001 1.220503e-001 2.796425e-001 4.281084e-001 3.741395e-001 2.075404e-001 2.192637e-001 4.545628e-001 2.081521e-001 2.594679e-001 1.724327e-001 4.634282e-001 1.165004e-001
<GCONST> 9.951313e+001
<STATE> 4
<NUMMIXES> 4
<MIXTURE> 1 1.738938e-001
<MEAN> 39
 -2.238023e+001 4.998437e+000 -8.653903e+000 -4.572189e+000 1.970054e+000 -2.958774e+000 6.236210e+000 -5.559948e+000 2.330525e+000 -3.787606e+000 3.016008e+000 -4.109860e+000 6.014117e+001 1.130649e-001 -7.165297e-001 -7.068534e-002 -1.482132e-002 6.716553e-001 -3.215607e-001 9.370790e-001 8.344659e-001 -5.844179e-003 5.284830e-001 6.972445e-001 2.799403e-001 -2.221584e-001 9.955059e-001 -2.068302e-001 5.643145e-001 -3.421202e-001 -4.459378e-001 -1.368441e-001 -5.146710e-001 -1.520660e-001 2.997941e-002 2.270006e-001 -3.040672e-001 3.048849e-002 3.861480e-001
<VARIANCE> 39
 3.290312e+001 3.506345e+001 1.913535e+001 2.314349e+001 2.627935e+001 2.053306e+001 6.706578e+001 6.102432e+001 1.275611e+001 2.610282e+001 1.559063e+001 4.691158e+001 2.583390e+001 7.065106e+000 5.418045e-001 1.479201e+000 2.892488e+000 8.670598e-001 1.298819e+000 7.848702e-001 9.311032e-001 1.002205e+000 1.107396e+000 5.658141e-001 1.748480e+000 1.039974e+000 2.005179e-001 2.935249e-001 8.631408e-002 1.719965e-001 3.774132e-001 8.534128e-002 2.920607e-001 7.295616e-001 7.199369e-002 1.364263e-001 1.951860e-001 4.056926e-001 1.492141e-001
<GCONST> 9.673163e+001
<MIXTURE> 2 4.062040e-001
<MEAN> 39
 -1.670087e+001 4.843245e+000 -5.764822e+000 -1.010089e+001 4.216304e-001 -6.759007e+000 -4.152431e-001 -6.464363e+000 1.389654e+000 -3.239358e+000 -1.573641e+000 -3.348933e+000 6.236980e+001 1.868732e+000 -7.211257e-001 1.055819e+000 -1.491636e+000 -1.036269e+000 -4.125507e-001 -5.958467e-001 -9.103341e-001 -6.585465e-004 -6.050862e-002 -5.315954e-001 -9.309579e-001 1.012613e+000 2.636588e-001 -3.381375e-001 -7.917893e-002 -3.033572e-002 -2.725083e-001 8.784507e-002 -2.133945e-002 3.037455e-002 -3.187574e-002 1.563065e-002 7.895110e-002 1.052417e-001 1.895887e-001
<VARIANCE> 39
 4.967878e+001 1.714251e+001 4.510523e+001 3.448635e+001 2.991194e+001 2.561999e+001 1.969890e+001 4.132121e+001 7.920542e+000 3.907743e+001 4.382294e+001 4.970088e+001 3.959927e+001 2.426908e+000 1.496335e+000 1.431577e+000 1.811479e+000 2.217712e+000 7.005593e-001 1.609904e+000 2.434145e+000 8.046549e-001 1.465834e+000 9.397835e-001 8.294924e-001 1.937708e+000 3.753209e-001 1.827692e-001 2.092040e-001 5.006180e-001 2.187578e-001 3.128144e-001 2.445414e-001 4.439404e-001 1.344433e-001 2.650401e-001 2.252177e-001 1.529547e-001 3.583494e-001
<GCONST> 1.032767e+002
<MIXTURE> 3 2.099510e-001
<MEAN> 39
 -2.257247e+001 4.445258e+000 -1.194269e+001 -4.587753e+000 6.221011e-001 -2.677554e+000 -7.249118e-001 -2.330426e+000 3.330101e+000 -2.953406e+000 1.725533e+000 9.418038e-001 6.004655e+001 -3.389151e-001 -1.541710e-001 -2.398211e-001 -7.294298e-002 1.132147e-001 9.228078e-002 2.422559e-001 3.429854e-001 -2.936392e-002 7.036590e-004 2.205860e-001 1.380990e-002 2.129895e-003 6.338248e-001 1.341722e-001 3.573885e-001 -2.082360e-001 2.838117e-002 -1.785148e-001 4.397405e-002 -4.626516e-002 1.281452e-001 1.039880e-001 -2.785525e-003 -4.195735e-002 1.257530e-001
<VARIANCE> 39
 1.194387e+001 2.591017e+001 1.944364e+001 1.447865e+001 1.008603e+001 1.798270e+001 1.915726e+001 3.101085e+001 2.257132e+001 9.667286e+000 3.586012e+001 3.925288e+001 8.139090e+000 1.525988e+000 8.041688e-001 1.028726e+000 7.080198e-001 8.398835e-001 6.903292e-001 3.478728e-001 7.125996e-001 8.542564e-001 7.041036e-001 9.303736e-001 1.000511e+000 1.670255e-001 1.877766e-001 1.221986e-001 6.957017e-002 1.504093e-001 1.402026e-001 4.047054e-002 1.018306e-001 6.441636e-002 1.972411e-001 1.610732e-001 2.063461e-001 1.230422e-001 3.651090e-002
<GCONST> 7.598397e+001
<MIXTURE> 4 2.099510e-001
<MEAN> 39
 -2.395487e+001 2.409176e+000 -1.370649e+001 -6.109786e+000 -6.482393e-001 -4.373795e+000 -2.475672e+000 -4.557922e+000 1.429729e+000 -4.197096e+000 -6.697997e-001 -1.564281e+000 5.890539e+001 -8.330387e-001 -5.128728e-001 -6.455256e-001 -4.095186e-001 -2.533660e-001 -2.400634e-001 6.332916e-003 5.322981e-003 -3.990679e-001 -3.349399e-001 -1.652375e-001 -3.862923e-001 -1.613451e-001 4.604920e-001 -5.655442e-003 2.518839e-001 -3.633666e-001 -1.213934e-001 -2.589840e-001 -8.366959e-002 -1.477867e-001 -4.950214e-002 -5.654769e-002 -1.844869e-001 -1.822668e-001 4.932171e-002
<VARIANCE> 39
 1.194387e+001 2.591017e+001 1.944364e+001 1.447865e+001 1.008603e+001 1.798270e+001 1.915726e+001 3.101085e+001 2.257132e+001 9.667286e+000 3.586012e+001 3.925288e+001 8.139090e+000 1.525988e+000 8.041688e-001 1.028726e+000 7.080198e-001 8.398835e-001 6.903292e-001 3.478728e-001 7.125996e-001 8.542564e-001 7.041036e-001 9.303736e-001 1.000511e+000 1.670255e-001 1.877766e-001 1.221986e-001 6.957017e-002 1.504093e-001 1.402026e-001 4.047054e-002 1.018306e-001 6.441636e-002 1.972411e-001 1.610732e-001 2.063461e-001 1.230422e-001 3.651090e-002
<GCONST> 7.598397e+001
<TRANSP> 5
 0.000000e+000 1.000000e+000 0.000000e+000 0.000000e+000 0.000000e+000
 0.000000e+000 7.025172e-001 2.974828e-001 0.000000e+000 0.000000e+000
 0.000000e+000 0.000000e+000 7.042004e-001 2.957996e-001 0.000000e+000
 0.000000e+000 0.000000e+000 0.000000e+000 8.512661e-001 1.487339e-001
 0.000000e+000 0.000000e+000 0.000000e+000 0.000000e+000 0.000000e+000
<ENDHMM>
~h "b"
<BEGINHMM>
<NUMSTATES> 5
<STATE> 2
<NUMMIXES> 4
<MIXTURE> 1 2.409173e-001
<MEAN> 39
 1.988938e+000 4.118375e+000 5.688653e+000 4.502556e-001 1.409411e+000 -3.385502e+000 5.099277e-002 -3.264601e+000 2.636423e-001 -2.854736e+000 1.239844e+000 -2.705824e+000 4.785825e+001 -7.825222e-001 -3.094731e-001 -2.063584e-001 3.085412e-001 3.103361e-002 1.925379e-001 4.105622e-001 2.095387e-001 3.046098e-001 -7.031626e-002 -6.726902e-002 6.774755e-002 -5.556594e-001 -5.224087e-002 -3.632503e-001 -2.540123e-001 -1.901990e-001 -2.211234e-001 -2.806134e-001 -2.423750e-001 3.391447e-002 1.730322e-001 4.615263e-002 1.471195e-002 -2.602687e-002 5.713602e-001
<VARIANCE> 39
 2.176057e+001 1.985506e+001 3.183161e+001 2.300041e+001 3.652793e+001 3.999585e+001 4.854784e+001 4.656246e+001 4.617175e+001 3.217848e+001 4.164989e+001 2.195578e+001 8.615835e+001 9.253309e-001 8.704383e-001 8.935792e-001 1.234722e+000 7.918884e-001 1.088319e+000 1.691899e+000 1.739857e+000 1.302966e+000 1.202645e+000 1.646063e+000 8.770891e-001 7.915424e-001 1.478548e-001 1.388571e-001 1.940297e-001 2.354101e-001 1.855428e-001 2.562497e-001 3.186716e-001 3.569074e-001 3.136584e-001 2.474823e-001 2.885687e-001 1.880808e-001 1.824250e-001
<GCONST> 9.996273e+001
<MIXTURE> 2 2.460436e-001
<MEAN> 39
 -3.213046e-001 4.591063e+000 3.484898e+000 2.718547e+000 5.029554e+000 -3.608191e+000 -2.790806e+000 -4.940712e+000 4.553031e-001 -4.056302e+000 1.282838e+000 -3.498805e+000 4.315021e+001 -1.133828e+000 -7.497495e-001 -5.590590e-001 -8.055757e-001 -5.114592e-001 5.018742e-001 1.067035e+000 5.230102e-001 6.272981e-001 7.459512e-001 3.157831e-001 4.529268e-001 2.132234e+000 2.226434e-001 -6.546847e-001 -6.302222e-001 -6.594833e-001 -4.638753e-001 -2.993667e-001 2.722014e-001 3.338372e-001 2.934726e-001 2.896729e-001 1.655986e-001 5.019191e-002 1.849891e+000
<VARIANCE> 39
 2.829651e+001 1.656162e+001 3.038209e+001 2.478322e+001 3.121347e+001 2.912734e+001 3.052066e+001 3.400843e+001 2.511516e+001 3.584513e+001 2.916812e+001 2.648569e+001 3.396071e+001 1.399633e+000 1.681229e+000 2.543610e+000 1.662634e+000 1.547472e+000 1.720835e+000 1.771538e+000 2.334818e+000 1.587250e+000 1.626938e+000 1.502822e+000 1.114029e+000 3.686271e+000 2.783307e-001 3.323509e-001 4.631001e-001 3.706764e-001 3.749411e-001 3.111241e-001 4.292661e-001 4.474486e-001 3.192253e-001 3.400656e-001 2.893274e-001 2.177355e-001 3.810465e-001
<GCONST> 1.087606e+002
<MIXTURE> 3 2.669953e-001
<MEAN> 39
 -7.606517e+000 -1.291332e+000 -4.580867e-001 -1.922604e+000 -8.381479e-002 -4.355527e+000 4.937738e-002 -2.368005e+000 9.128953e-001 -3.422675e+000 9.610331e-001 -3.626607e+000 4.177827e+001 -6.593633e-001 -4.993874e-001 -2.210201e-001 -1.805858e-001 -5.446789e-002 9.830572e-002 -8.265539e-002 -5.418675e-002 9.932060e-002 -2.214055e-002 2.097431e-002 -2.303027e-001 -2.468284e-001 1.447085e-001 -4.629282e-002 -4.507168e-002 -8.188113e-002 1.445916e-003 -1.242764e-001 -1.066072e-001 -1.582320e-002 4.190590e-002 -2.836745e-003 -2.933924e-002 6.112292e-002 7.057562e-001
<VARIANCE> 39
 3.901338e+001 1.849821e+001 1.612024e+001 1.328256e+001 1.610134e+001 3.296395e+001 2.946011e+001 2.224244e+001 1.935235e+001 2.166129e+001 2.232048e+001 2.084562e+001 6.128889e+001 8.245153e-001 6.027209e-001 5.975069e-001 7.852844e-001 7.127458e-001 8.310319e-001 8.531482e-001 8.678395e-001 6.989762e-001 8.583323e-001 7.008808e-001 9.492395e-001 7.723884e-001 1.247001e-001 1.442862e-001 1.579256e-001 2.124294e-001 1.518960e-001 1.999912e-001 2.025305e-001 1.471235e-001 1.675223e-001 1.874296e-001 1.766964e-001 1.467061e-001 5.200809e-001
<GCONST> 8.703695e+001
<MIXTURE> 4 2.460436e-001
<MEAN> 39
 -2.449083e+000 2.963224e+000 1.280100e+000 7.272371e-001 2.794794e+000 -5.766981e+000 -5.000626e+000 -7.273382e+000 -1.549298e+000 -6.451134e+000 -8.774624e-001 -5.557375e+000 4.081918e+001 -1.607052e+000 -1.268398e+000 -1.197007e+000 -1.321348e+000 -1.009049e+000 -2.284820e-002 5.346384e-001 -8.819421e-002 1.233537e-001 2.357453e-001 -1.745754e-001 3.073656e-002 1.364248e+000 1.161519e-002 -8.852842e-001 -9.024280e-001 -9.030161e-001 -7.088051e-001 -5.224807e-001 1.012780e-002 6.627081e-002 6.747244e-002 5.641231e-002 -4.955805e-002 -1.364566e-001 1.602975e+000
<VARIANCE> 39
 2.829651e+001 1.656162e+001 3.038209e+001 2.478322e+001 3.121347e+001 2.912734e+001 3.052066e+001 3.400843e+001 2.511516e+001 3.584513e+001 2.916812e+001 2.648569e+001 3.396071e+001 1.399633e+000 1.681229e+000 2.543610e+000 1.662634e+000 1.547472e+000 1.720835e+000 1.771538e+000 2.334818e+000 1.587250e+000 1.626938e+000 1.502822e+000 1.114029e+000 3.686271e+000 2.783307e-001 3.323509e-001 4.631001e-001 3.706764e-001 3.749411e-001 3.111241e-001 4.292661e-001 4.474486e-001 3.192253e-001 3.400656e-001 2.893274e-001 2.177355e-001 3.810465e-001
<GCONST> 1.087606e+002
<STATE> 3
<NUMMIXES> 4
<MIXTURE> 1 1.809786e-001
<MEAN> 39
 -8.644067e+000 -2.685145e+000 4.050545e-001 -1.805893e+000 1.031236e+000 -3.559752e+000 6.699792e-001 -9.092419e-001 2.266288e+000 -2.703511e+000 6.485652e-001 -3.198177e+000 4.661274e+001 6.271868e-001 -1.131632e+000 -8.063282e-001 -3.049993e-001 -5.478107e-001 -1.207546e+000 -8.935019e-001 5.707185e-003 8.228455e-001 2.371993e-001 6.926266e-002 1.906128e-001 2.472591e+000 8.285621e-001 7.681664e-003 -1.825548e-001 -3.165101e-002 -2.543094e-001 -3.286752e-001 -3.270862e-001 -1.984880e-001 1.363757e-001 6.033355e-002 -7.979035e-002 6.510974e-002 6.693162e-001
<VARIANCE> 39
 2.409520e+001 1.448782e+001 1.782872e+001 2.329473e+001 1.762682e+001 2.373222e+001 2.908140e+001 1.876044e+001 1.960358e+001 2.523610e+001 1.661942e+001 2.058304e+001 9.183937e+001 2.318594e+000 1.079373e+000 1.445764e+000 1.858345e+000 1.637975e+000 1.490519e+000 1.508317e+000 1.577539e+000 1.597409e+000 1.701310e+000 1.070861e+000 8.690900e-001 3.228098e+000 2.131891e-001 1.793468e-001 2.552173e-001 3.728823e-001 1.940407e-001 1.836385e-001 2.538280e-001 2.856937e-001 2.326728e-001 2.836309e-001 1.916811e-001 1.804921e-001 4.959867e-001
<GCONST> 9.986573e+001
<MIXTURE> 2 2.245279e-001
<MEAN> 39
 -2.951828e+000 7.089045e-001 1.124076e+000 -7.658731e-001 1.794624e+000 -4.112705e+000 2.607150e-001 -3.342395e+000 9.505135e-001 -3.060864e+000 1.692663e+000 -2.138051e+000 5.283957e+001 2.655228e-001 -1.588752e+000 -1.764034e+000 -1.244898e+000 -7.488520e-001 -5.193803e-001 8.290563e-001 6.459509e-001 1.299776e+000 8.870471e-001 2.361609e-001 2.516536e-001 4.334126e+000 5.795346e-001 -1.905421e-001 -2.550479e-001 -1.177910e-001 4.720017e-003 -1.357392e-001 -4.408966e-002 1.999087e-001 3.033733e-001 9.690715e-002 6.059472e-002 -2.638703e-002 8.169722e-001
<VARIANCE> 39
 3.516530e+001 3.041544e+001 4.071570e+001 4.205159e+001 4.365794e+001 4.683585e+001 5.189099e+001 4.351083e+001 3.872695e+001 4.144176e+001 3.367894e+001 2.928513e+001 8.804978e+001 2.110332e+000 2.270899e+000 4.291697e+000 3.522937e+000 3.269859e+000 2.240118e+000 4.231219e+000 3.623419e+000 2.891185e+000 2.615503e+000 2.623430e+000 1.985021e+000 3.661201e+000 2.998319e-001 2.619058e-001 3.627577e-001 3.220839e-001 3.911215e-001 3.534554e-001 3.845807e-001 5.440898e-001 3.880969e-001 2.760364e-001 3.174947e-001 2.450694e-001 2.722957e-001
<GCONST> 1.198485e+002
<MIXTURE> 3 3.699653e-001
<MEAN> 39
 -1.318233e+001 -4.409987e+000 -2.755498e+000 -3.417920e+000 -1.312320e-001 -2.915079e+000 1.732854e+000 -2.289070e+000 1.712722e+000 -2.555378e+000 1.531491e+000 -2.934307e+000 4.102066e+001 6.933576e-001 -8.599032e-001 -7.998161e-001 -1.232761e+000 -8.589723e-001 -4.425212e-001 -7.790069e-002 1.306480e-002 2.430820e-001 1.819076e-001 -2.448605e-001 -1.643724e-001 4.034350e+000 8.271894e-001 5.474364e-002 -2.814256e-001 -2.450106e-001 -1.269328e-001 -3.878017e-001 -1.947916e-001 -8.736432e-002 -1.018230e-001 -8.311391e-002 -1.622873e-001 -1.409439e-001 1.211157e+000
<VARIANCE> 39
 7.878584e+000 9.788927e+000 8.063464e+000 1.371723e+001 1.340114e+001 1.261273e+001 1.636558e+001 1.696653e+001 1.260809e+001 1.934702e+001 1.718512e+001 1.360775e+001 7.553478e+001 1.980291e+000 1.850487e+000 2.096657e+000 1.948665e+000 1.204924e+000 1.273058e+000 1.449724e+000 1.267756e+000 1.398361e+000 1.569897e+000 9.346751e-001 8.673148e-001 4.383620e+000 2.479698e-001 2.952284e-001 3.093656e-001 2.528176e-001 2.653818e-001 2.029861e-001 2.691771e-001 2.934907e-001 2.118614e-001 2.330659e-001 1.908768e-001 1.951319e-001 6.841744e-001
<GCONST> 9.525787e+001
<MIXTURE> 4 2.245279e-001
<MEAN> 39
 -5.323842e+000 -1.497103e+000 -1.428278e+000 -3.359761e+000 -8.483419e-001 -6.850173e+000 -2.620701e+000 -5.980905e+000 -1.538726e+000 -5.635876e+000 -6.286792e-001 -4.302681e+000 4.908617e+001 -3.155565e-001 -2.191532e+000 -2.592690e+000 -1.995678e+000 -1.472162e+000 -1.118061e+000 6.259260e-003 -1.154603e-001 6.196362e-001 2.401464e-001 -4.117194e-001 -3.119095e-001 3.568755e+000 3.605070e-001 -3.952490e-001 -4.959655e-001 -3.448008e-001 -2.454388e-001 -3.735476e-001 -2.921479e-001 -9.514111e-002 5.418365e-002 -1.132495e-001 -1.647920e-001 -2.244050e-001 6.082444e-001
<VARIANCE> 39
 3.516530e+001 3.041544e+001 4.071570e+001 4.205159e+001 4.365794e+001 4.683585e+001 5.189099e+001 4.351083e+001 3.872695e+001 4.144176e+001 3.367894e+001 2.928513e+001 8.804978e+001 2.110332e+000 2.270899e+000 4.291697e+000 3.522937e+000 3.269859e+000 2.240118e+000 4.231219e+000 3.623419e+000 2.891185e+000 2.615503e+000 2.623430e+000 1.985021e+000 3.661201e+000 2.998319e-001 2.619058e-001 3.627577e-001 3.220839e-001 3.911215e-001 3.534554e-001 3.845807e-001 5.440898e-001 3.880969e-001 2.760364e-001 3.174947e-001 2.450694e-001 2.722957e-001
<GCONST> 1.198485e+002
<STATE> 4
<NUMMIXES> 4
<MIXTURE> 1 2.646280e-001
<MEAN> 39
 2.693746e+000 -3.473653e+000 -8.369938e+000 -5.281257e+000 2.407555e+000 -9.186473e+000 -3.463367e+000 -1.143920e+000 6.403775e+000 6.819367e-001 6.415870e-001 -3.955746e+000 6.291064e+001 1.979614e+000 -1.234926e+000 -2.155787e+000 -1.472943e-001 -5.733922e-002 -7.527122e-001 -1.911793e-001 6.583267e-001 1.424088e+000 6.522598e-001 -3.651835e-001 1.764619e-001 3.421937e+000 6.138459e-002 1.523527e-001 5.714078e-001 4.225236e-001 3.140000e-003 3.903358e-001 3.178924e-001 8.413417e-002 -1.452581e-001 -1.484646e-001 1.510833e-001 1.957950e-001 -4.440235e-001
<VARIANCE> 39
 3.725227e+001 3.372282e+001 1.163456e+002 4.627435e+001 4.366870e+001 3.762947e+001 5.191713e+001 6.694514e+001 3.490680e+001 4.540672e+001 3.766469e+001 3.478499e+001 6.422680e+001 2.453401e+000 2.151010e+000 4.129437e+000 2.349323e+000 3.772669e+000 2.506281e+000 3.105681e+000 3.577562e+000 3.137793e+000 2.753494e+000 2.213153e+000 1.833647e+000 2.987861e+000 3.104982e-001 1.743415e-001 4.102660e-001 3.048312e-001 2.753012e-001 2.468376e-001 3.261567e-001 4.093050e-001 3.014139e-001 3.734770e-001 3.094017e-001 2.314753e-001 4.301275e-001
<GCONST> 1.195506e+002
<MIXTURE> 2 2.666449e-001
<MEAN> 39
 -7.826671e+000 -6.019255e+000 -3.904807e+000 -9.691450e+000 -4.408728e+000 -5.001788e+000 2.285276e+000 -5.366098e+000 3.101398e+000 -3.560607e+000 8.286254e-001 -3.049678e+000 6.228792e+001 1.085617e+000 -9.515038e-001 -1.841753e+000 -2.518655e+000 -6.160110e-001 -8.477222e-001 -1.073929e-001 -3.167840e-001 2.974678e-001 -2.720421e-002 4.095255e-002 -3.323474e-002 5.389794e+000 3.634627e-001 3.898332e-001 2.602163e-002 3.711195e-001 4.592461e-001 -9.899466e-002 -2.589292e-001 7.916465e-003 -1.407449e-001 -6.517465e-002 6.983101e-002 1.804905e-002 -7.068901e-001
<VARIANCE> 39
 2.942702e+001 2.584937e+001 6.475175e+001 4.275148e+001 2.936354e+001 2.255958e+001 3.421054e+001 3.119920e+001 3.207711e+001 2.294224e+001 2.518418e+001 2.179926e+001 4.493902e+001 2.778636e+000 4.913000e+000 4.831381e+000 2.925426e+000 2.753844e+000 2.512099e+000 2.415768e+000 2.607869e+000 1.809270e+000 1.648892e+000 1.855302e+000 1.635880e+000 2.419353e+000 3.400839e-001 1.975855e-001 3.168488e-001 3.194173e-001 1.783843e-001 2.895103e-001 3.138491e-001 2.255399e-001 2.682461e-001 1.836930e-001 2.775034e-001 2.076740e-001 4.011642e-001
<GCONST> 1.111649e+002
<MIXTURE> 3 2.040988e-001
<MEAN> 39
 -5.912234e+000 -8.211329e+000 -4.328722e+000 -9.785238e+000 -7.506064e+000 -8.321289e+000 3.520808e+000 -1.897031e+000 7.373362e-001 -3.041855e+000 2.689044e+000 -7.149809e+000 6.574446e+001 5.834895e-001 -1.863187e+000 -1.704235e+000 -2.320791e+000 -1.543630e+000 -4.383249e-001 1.108030e+000 4.401082e-001 -5.272730e-002 1.137592e-001 -4.296626e-002 -8.148039e-001 5.107591e+000 1.966263e-001 2.510499e-001 7.186838e-002 3.257766e-001 5.232005e-001 2.801613e-001 -2.178228e-001 -1.719340e-001 -5.275102e-002 -1.959724e-001 -2.522624e-001 1.820613e-001 -7.868361e-001
<VARIANCE> 39
 2.308362e+001 1.699550e+001 4.408588e+001 3.411437e+001 2.833024e+001 2.151270e+001 3.873867e+001 3.656423e+001 2.899734e+001 2.778293e+001 3.387805e+001 2.652139e+001 6.147814e+001 2.792831e+000 2.039007e+000 2.970094e+000 2.676583e+000 2.822611e+000 2.409430e+000 3.244879e+000 3.391535e+000 2.354785e+000 1.735849e+000 1.953113e+000 1.716048e+000 3.762543e+000 2.011051e-001 1.779191e-001 2.158544e-001 3.005599e-001 2.208814e-001 1.678863e-001 2.851580e-001 2.738018e-001 2.825580e-001 2.137270e-001 2.673664e-001 2.936449e-001 4.317891e-001
<GCONST> 1.102137e+002
<MIXTURE> 4 2.646280e-001
<MEAN> 39
 2.523602e-001 -5.796507e+000 -1.268448e+001 -8.002267e+000 -2.357370e-001 -1.164019e+001 -6.345509e+000 -4.416720e+000 4.040495e+000 -2.013444e+000 -1.813276e+000 -6.314898e+000 5.970498e+001 1.353080e+000 -1.821579e+000 -2.968627e+000 -7.603943e-001 -8.342736e-001 -1.385962e+000 -8.960969e-001 -9.825110e-002 7.155357e-001 -1.148640e-002 -9.602503e-001 -3.651870e-001 2.730519e+000 -1.615049e-001 -1.466417e-002 3.151998e-001 2.016775e-001 -2.067366e-001 1.916048e-001 8.945183e-002 -1.717736e-001 -3.648628e-001 -3.929156e-001 -7.141226e-002 3.347521e-003 -7.063599e-001
<VARIANCE> 39
 3.725227e+001 3.372282e+001 1.163456e+002 4.627435e+001 4.366870e+001 3.762947e+001 5.191713e+001 6.694514e+001 3.490680e+001 4.540672e+001 3.766469e+001 3.478499e+001 6.422680e+001 2.453401e+000 2.151010e+000 4.129437e+000 2.349323e+000 3.772669e+000 2.506281e+000 3.105681e+000 3.577562e+000 3.137793e+000 2.753494e+000 2.213153e+000 1.833647e+000 2.987861e+000 3.104982e-001 1.743415e-001 4.102660e-001 3.048312e-001 2.753012e-001 2.468376e-001 3.261567e-001 4.093050e-001 3.014139e-001 3.734770e-001 3.094017e-001 2.314753e-001 4.301275e-001
<GCONST> 1.195506e+002
<TRANSP> 5
 0.000000e+000 1.000000e+000 0.000000e+000 0.000000e+000 0.000000e+000
 0.000000e+000 5.905241e-001 4.094759e-001 0.000000e+000 0.000000e+000
 0.000000e+000 0.000000e+000 4.826732e-001 5.173268e-001 0.000000e+000
 0.000000e+000 0.000000e+000 0.000000e+000 4.944212e-001 5.055788e-001
 0.000000e+000 0.000000e+000 0.000000e+000 0.000000e+000 0.000000e+000
<ENDHMM>
~h "d"
<BEGINHMM>
<NUMSTATES> 5
<STATE> 2
<NUMMIXES> 4
<MIXTURE> 1 2.610164e-001
<MEAN> 39
 5.710927e-001 2.533894e+000 4.199768e+000 -2.908537e+000 -3.045655e+000 -4.642634e+000 1.150095e+000 -1.359456e+000 3.752353e-001 -1.902570e+000 5.737998e-001 -2.364035e+000 5.029341e+001 -7.092925e-001 2.812579e-001 -9.199833e-002 -7.037801e-002 3.012252e-001 3.801931e-001 -1.347169e-002 -9.947634e-002 1.061846e-001 3.096712e-002 2.001373e-002 2.589164e-003 -3.572634e-001 -2.813199e-001 -2.256760e-001 -2.999426e-001 -4.210407e-001 -2.190843e-001 -1.427597e-001 1.363397e-002 -5.869042e-002 1.734600e-001 7.876999e-002 -1.195477e-001 -1.672865e-002 7.657658e-001
<VARIANCE> 39
 3.746509e+001 3.156588e+001 2.920353e+001 3.952818e+001 6.430733e+001 4.883655e+001 4.261328e+001 4.631959e+001 3.241807e+001 4.043341e+001 3.301066e+001 2.975289e+001 7.801568e+001 1.519221e+000 1.524612e+000 1.540832e+000 2.335804e+000 2.469961e+000 2.082259e+000 1.790098e+000 1.645599e+000 2.128053e+000 1.900284e+000 1.628077e+000 1.313050e+000 2.297531e+000 1.726668e-001 1.690693e-001 2.417679e-001 3.465015e-001 4.723851e-001 3.428798e-001 3.817047e-001 2.896167e-001 4.061848e-001 3.839532e-001 2.960090e-001 3.018577e-001 3.130186e-001
<GCONST> 1.122254e+002
<MIXTURE> 2 2.376793e-001
<MEAN> 39
 -8.364566e+000 2.435508e+000 1.954608e+000 1.029182e+000 1.173127e+000 -1.463639e+000 8.964227e-001 -3.103204e+000 -9.723105e-001 -3.213543e+000 -2.492067e-001 -2.756409e+000 4.093669e+001 -9.190853e-001 -9.654497e-001 -1.554816e+000 -7.342367e-001 -2.810786e-001 2.818801e-001 2.248684e-001 5.308340e-001 9.931860e-001 4.893856e-001 7.518386e-001 6.270774e-001 3.782763e+000 3.532576e-001 -1.737904e-002 -1.124851e-001 -8.809316e-001 -3.974145e-001 -1.848260e-001 1.371451e-001 -3.395256e-002 4.072967e-001 3.195296e-001 1.319059e-001 4.942359e-002 1.793174e+000
<VARIANCE> 39
 3.065174e+001 3.320537e+001 2.940192e+001 1.945332e+001 1.959469e+001 2.223593e+001 2.232464e+001 2.444225e+001 2.728587e+001 2.660523e+001 2.883659e+001 2.222222e+001 4.179943e+001 1.789651e+000 1.681747e+000 1.791790e+000 2.015396e+000 1.604677e+000 1.645251e+000 1.568681e+000 1.588136e+000 1.765759e+000 1.716476e+000 1.522033e+000 1.464273e+000 5.018229e+000 2.525312e-001 3.014820e-001 3.139341e-001 4.150732e-001 3.126355e-001 2.703930e-001 2.998530e-001 2.800719e-001 3.138197e-001 3.776968e-001 3.101530e-001 2.637535e-001 5.283760e-001
<GCONST> 1.070717e+002
<MIXTURE> 3 2.636243e-001
<MEAN> 39
 -1.667749e+000 1.897377e+000 5.397891e-001 -3.706693e+000 -2.760057e+000 -7.765661e+000 -8.094664e-001 -4.409174e+000 -1.605374e+000 -2.862231e+000 -1.998112e+000 -5.679201e+000 4.962013e+001 -1.113829e+000 6.124608e-002 -2.830114e-001 -4.239749e-001 -3.673752e-001 6.944736e-001 1.305275e-001 -1.194178e-001 3.085946e-001 8.596127e-002 8.186644e-002 8.899269e-002 4.890534e-001 -1.345614e-001 -2.630997e-001 -2.933672e-001 -5.022709e-001 -1.391336e-001 -1.247251e-001 1.457395e-001 -5.463180e-002 1.608727e-001 6.477337e-002 -1.700527e-002 1.099349e-001 7.955341e-001
<VARIANCE> 39
 5.621279e+001 4.582470e+001 5.819759e+001 5.359088e+001 7.192152e+001 7.223454e+001 6.859818e+001 5.241990e+001 5.209378e+001 4.843073e+001 4.271994e+001 3.306884e+001 8.916624e+001 1.772079e+000 2.206542e+000 2.755536e+000 2.994554e+000 4.678707e+000 3.688160e+000 3.021627e+000 2.730613e+000 2.701012e+000 2.486327e+000 1.952085e+000 1.801780e+000 2.828549e+000 2.575968e-001 2.497581e-001 3.449484e-001 4.861363e-001 4.324501e-001 5.693402e-001 5.416524e-001 4.443009e-001 4.159015e-001 4.894294e-001 3.215410e-001 3.339574e-001 3.994425e-001
<GCONST> 1.244346e+002
<MIXTURE> 4 2.376793e-001
<MEAN> 39
 -1.057913e+001 1.305439e-001 -2.143340e-001 -7.350550e-001 -5.975087e-001 -3.349839e+000 -9.935356e-001 -5.080768e+000 -3.061746e+000 -5.276753e+000 -2.397195e+000 -4.642027e+000 3.835059e+001 -1.454197e+000 -1.484178e+000 -2.090248e+000 -1.302095e+000 -7.877820e-001 -2.311893e-001 -2.761196e-001 2.674896e-002 4.616586e-001 -3.467180e-002 2.583558e-001 1.430488e-001 2.886707e+000 1.522476e-001 -2.370085e-001 -3.366044e-001 -1.138636e+000 -6.210698e-001 -3.928234e-001 -8.189021e-002 -2.456398e-001 1.832183e-001 7.370142e-002 -9.085967e-002 -1.560042e-001 1.502416e+000
<VARIANCE> 39
 3.065174e+001 3.320537e+001 2.940192e+001 1.945332e+001 1.959469e+001 2.223593e+001 2.232464e+001 2.444225e+001 2.728587e+001 2.660523e+001 2.883659e+001 2.222222e+001 4.179943e+001 1.789651e+000 1.681747e+000 1.791790e+000 2.015396e+000 1.604677e+000 1.645251e+000 1.568681e+000 1.588136e+000 1.765759e+000 1.716476e+000 1.522033e+000 1.464273e+000 5.018229e+000 2.525312e-001 3.014820e-001 3.139341e-001 4.150732e-001 3.126355e-001 2.703930e-001 2.998530e-001 2.800719e-001 3.138197e-001 3.776968e-001 3.101530e-001 2.637535e-001 5.283760e-001
<GCONST> 1.070717e+002
<STATE> 3
<NUMMIXES> 4
<MIXTURE> 1 2.288693e-001
<MEAN> 39
 -5.532487e+000 1.387864e+000 9.316849e-001 -4.097523e+000 -1.016548e+000 -3.358192e+000 5.329335e-001 -2.581866e+000 2.515814e+000 -3.872267e-001 5.859255e-001 -1.349578e+000 5.729200e+001 -4.094238e-001 9.714973e-002 -3.514334e-001 -1.229936e+000 -7.506354e-001 1.740140e-002 8.924174e-001 1.003017e-001 8.207425e-001 9.521257e-001 1.118239e-001 4.209833e-001 2.774760e+000 4.644170e-001 1.076630e-001 1.270812e-001 -1.908233e-001 -1.137696e-001 -1.644113e-001 2.649029e-001 2.023571e-001 1.226657e-001 2.123301e-001 3.161556e-002 4.810431e-002 4.601927e-001
<VARIANCE> 39
 4.391734e+001 2.968530e+001 3.961281e+001 5.376155e+001 5.958862e+001 6.579479e+001 4.930476e+001 4.734610e+001 4.180659e+001 4.849237e+001 3.433062e+001 3.466627e+001 7.566615e+001 1.841319e+000 2.082672e+000 1.966203e+000 2.914741e+000 3.755236e+000 3.337191e+000 3.962531e+000 2.219676e+000 2.509059e+000 2.573721e+000 2.050894e+000 2.080974e+000 4.350183e+000 2.051069e-001 2.175405e-001 2.626480e-001 3.593018e-001 3.436224e-001 4.092655e-001 3.694811e-001 3.478421e-001 3.249973e-001 3.424227e-001 2.591725e-001 2.436501e-001 2.213145e-001
<GCONST> 1.181956e+002
<MIXTURE> 2 3.036719e-001
<MEAN> 39
 -1.529640e+001 -5.439302e+000 -7.948076e+000 -7.826046e+000 -1.515126e+000 -3.635243e+000 1.067359e+000 -4.506545e+000 4.076856e+000 -3.588299e+000 1.202745e+000 -1.070980e+000 5.967973e+001 2.199951e-001 -9.049146e-001 -8.877789e-001 -2.228274e+000 -1.684061e+000 -4.921498e-001 5.834504e-001 -4.519281e-002 6.750954e-001 8.018036e-001 1.657812e-001 -1.731255e-002 5.315051e+000 7.934598e-001 1.471995e-001 4.980221e-001 -1.816188e-001 -2.419014e-001 -2.372108e-001 1.170478e-001 1.633836e-002 -3.461893e-001 4.411206e-002 -1.672883e-001 -3.563765e-001 -1.048385e-001
<VARIANCE> 39
 1.550806e+001 2.555844e+001 2.051960e+001 2.493163e+001 2.346777e+001 2.560422e+001 2.838922e+001 2.979663e+001 3.259172e+001 2.797916e+001 2.496985e+001 2.174020e+001 6.388908e+001 2.396072e+000 1.957103e+000 2.207317e+000 1.903031e+000 1.514971e+000 1.912171e+000 2.089735e+000 2.031096e+000 2.039363e+000 1.757156e+000 2.208524e+000 1.752159e+000 4.269242e+000 1.917049e-001 3.115691e-001 2.620513e-001 4.048096e-001 3.097352e-001 3.315466e-001 3.292263e-001 3.446170e-001 3.092791e-001 4.256734e-001 3.276470e-001 3.023061e-001 5.837885e-001
<GCONST> 1.094843e+002
<MIXTURE> 3 2.385899e-001
<MEAN> 39
 -1.415491e+001 -5.526299e+000 -9.852282e+000 -8.427803e+000 -1.933433e+000 -5.748388e+000 -1.534136e+000 -2.978540e+000 1.665056e+000 -5.214769e+000 2.900187e+000 -4.442337e+000 6.098377e+001 4.075506e-001 -6.693916e-001 -1.249625e+000 -2.787672e+000 -1.042488e+000 -2.583817e-001 2.180775e-002 -4.331652e-001 1.087803e+000 -5.086017e-001 -2.236562e-001 -6.514485e-001 5.114276e+000 5.779299e-001 6.194550e-002 4.987506e-001 -2.090644e-001 5.325149e-002 5.482670e-002 3.224627e-001 -3.821925e-001 -2.042738e-002 -1.014371e-001 -3.418431e-001 -1.121105e-001 -3.041244e-001
<VARIANCE> 39
 1.445905e+001 2.383133e+001 1.737787e+001 2.066273e+001 1.775275e+001 1.825564e+001 2.182090e+001 2.133928e+001 2.596028e+001 2.281077e+001 2.336175e+001 2.766775e+001 3.946086e+001 2.442932e+000 2.162142e+000 1.890387e+000 2.205805e+000 2.091460e+000 2.153680e+000 1.986575e+000 1.981503e+000 1.899227e+000 2.923025e+000 1.926273e+000 1.584121e+000 4.546645e+000 1.746781e-001 3.602553e-001 2.576887e-001 4.703066e-001 2.306114e-001 2.844591e-001 3.712049e-001 3.977403e-001 4.210215e-001 3.852749e-001 2.459335e-001 3.047802e-001 5.508571e-001
<GCONST> 1.076502e+002
<MIXTURE> 4 2.288693e-001
<MEAN> 39
 -8.183293e+000 -7.915053e-001 -1.585863e+000 -7.030414e+000 -4.104294e+000 -6.602752e+000 -2.275760e+000 -5.334206e+000 -7.050635e-002 -3.172685e+000 -1.757768e+000 -3.704700e+000 5.381254e+001 -9.522046e-001 -4.801089e-001 -9.123188e-001 -1.912840e+000 -1.525773e+000 -7.133178e-001 9.617315e-002 -4.956414e-001 1.871422e-001 3.104129e-001 -4.610139e-001 -1.560400e-001 1.940476e+000 2.832621e-001 -7.890198e-002 -7.791553e-002 -4.305905e-001 -3.482468e-001 -4.203067e-001 2.176309e-002 -3.355551e-002 -1.053684e-001 -2.173753e-002 -1.720204e-001 -1.493394e-001 2.720165e-001
<VARIANCE> 39
 4.391734e+001 2.968530e+001 3.961281e+001 5.376155e+001 5.958862e+001 6.579479e+001 4.930476e+001 4.734610e+001 4.180659e+001 4.849237e+001 3.433062e+001 3.466627e+001 7.566615e+001 1.841319e+000 2.082672e+000 1.966203e+000 2.914741e+000 3.755236e+000 3.337191e+000 3.962531e+000 2.219676e+000 2.509059e+000 2.573721e+000 2.050894e+000 2.080974e+000 4.350183e+000 2.051069e-001 2.175405e-001 2.626480e-001 3.593018e-001 3.436224e-001 4.092655e-001 3.694811e-001 3.478421e-001 3.249973e-001 3.424227e-001 2.591725e-001 2.436501e-001 2.213145e-001
<GCONST> 1.181956e+002
<STATE> 4
<NUMMIXES> 4
<MIXTURE> 1 2.923071e-001
<MEAN> 39
 -3.584187e+000 1.530265e+000 2.488197e+000 -1.279993e+001 -1.000614e+001 -7.320984e+000 3.501825e+000 -2.852714e+000 2.447971e+000 4.423392e+000 -3.789887e+000 -2.140626e+000 6.494868e+001 1.458565e-001 4.420803e-001 2.248102e-001 -1.883997e+000 -7.839627e-001 -3.079248e-001 4.718963e-001 2.274090e-001 5.521569e-001 4.597320e-001 -5.549729e-001 6.134193e-002 1.729171e+000 5.272134e-002 9.541329e-002 1.414994e-002 2.527551e-001 4.764531e-001 1.361260e-001 -2.821130e-001 1.679911e-001 -6.404930e-002 -4.837917e-001 2.345074e-001 -3.121866e-002 -5.800418e-001
<VARIANCE> 39
 2.849297e+001 2.895622e+001 5.106561e+001 9.104446e+001 8.482183e+001 6.531009e+001 5.971977e+001 4.797501e+001 8.563752e+001 6.305624e+001 6.665590e+001 5.074213e+001 6.327817e+001 1.665725e+000 1.499422e+000 2.127688e+000 3.008245e+000 2.729738e+000 2.645634e+000 4.082749e+000 2.133522e+000 2.174073e+000 2.307933e+000 1.909857e+000 1.996800e+000 2.445680e+000 1.824632e-001 1.405755e-001 2.950654e-001 3.035262e-001 3.697153e-001 3.133840e-001 4.103057e-001 3.249550e-001 3.949955e-001 3.890588e-001 3.929625e-001 2.442308e-001 2.369832e-001
<GCONST> 1.191417e+002
<MIXTURE> 2 1.862059e-001
<MEAN> 39
 -5.523490e+000 -4.896786e+000 -5.645364e+000 -1.569873e+001 -7.705372e+000 -2.689450e+000 6.042114e+000 -4.988980e+000 4.626104e+000 -8.709994e-001 -1.557125e+000 -4.287426e+000 7.191354e+001 1.397905e+000 -1.624987e+000 -4.927844e-001 -7.375215e-001 -6.132475e-002 6.252700e-001 1.774912e+000 4.202609e-001 -3.108017e-001 1.077721e-001 5.659418e-002 -4.472102e-001 3.484401e+000 -2.590714e-002 -3.357411e-003 2.306552e-001 1.133090e+000 8.195584e-001 1.607077e-001 -8.674733e-002 3.283254e-001 -3.566516e-001 -2.640220e-002 3.191885e-001 2.218819e-001 -1.188931e+000
<VARIANCE> 39
 9.444787e+000 2.223272e+001 1.821073e+001 3.363513e+001 3.306696e+001 2.922248e+001 3.833205e+001 4.311175e+001 4.171041e+001 7.638967e+001 3.768801e+001 3.731832e+001 4.276793e+001 1.284900e+000 1.424853e+000 1.347584e+000 3.144212e+000 2.506170e+000 2.391141e+000 1.716081e+000 4.228170e+000 2.903331e+000 3.020792e+000 2.438699e+000 2.150331e+000 4.940048e+000 1.831607e-001 1.895961e-001 2.041516e-001 2.653985e-001 2.784471e-001 2.972382e-001 3.443587e-001 3.656012e-001 3.979324e-001 8.112956e-001 3.785468e-001 3.218085e-001 2.213342e-001
<GCONST> 1.124598e+002
<MIXTURE> 3 3.352816e-001
<MEAN> 39
 -8.469858e+000 -1.146975e+000 -3.353102e+000 -1.008430e+001 -6.001386e+000 -7.234717e+000 1.253565e-001 -6.068673e+000 2.103052e+000 -1.164219e+000 -7.476982e-001 -3.595365e+000 6.026194e+001 1.397026e-001 -2.484611e-001 -2.106330e-001 -1.580485e+000 -9.963040e-001 -4.719371e-001 2.135599e-001 -9.193525e-002 4.473352e-001 3.535146e-001 -1.725072e-001 -1.271533e-001 1.932158e+000 4.339304e-001 1.091536e-001 3.196956e-001 1.909669e-001 1.634093e-001 4.400760e-002 -2.389081e-002 1.239566e-001 -1.967110e-001 -1.404144e-001 -7.207707e-002 -1.000809e-001 -5.433478e-001
<VARIANCE> 39
 4.202296e+001 4.608475e+001 3.542262e+001 5.181220e+001 5.975755e+001 6.188501e+001 5.804841e+001 6.293725e+001 6.062032e+001 8.229550e+001 4.163572e+001 5.673301e+001 6.160988e+001 2.563280e+000 1.973663e+000 2.134669e+000 4.508557e+000 2.897602e+000 2.932201e+000 2.852102e+000 2.155830e+000 2.536251e+000 2.688325e+000 2.132308e+000 1.967595e+000 4.635592e+000 2.246271e-001 2.768431e-001 3.123190e-001 3.275082e-001 4.323689e-001 3.662756e-001 4.554392e-001 3.715252e-001 4.078153e-001 4.530396e-001 2.853964e-001 3.436429e-001 3.235881e-001
<GCONST> 1.224956e+002
<MIXTURE> 4 1.862059e-001
<MEAN> 39
 -6.752785e+000 -6.782850e+000 -7.352326e+000 -1.801857e+001 -1.000553e+001 -4.851762e+000 3.565598e+000 -7.615362e+000 2.042760e+000 -4.367047e+000 -4.012747e+000 -6.730975e+000 6.929765e+001 9.444911e-001 -2.102455e+000 -9.571264e-001 -1.446799e+000 -6.945602e-001 6.737421e-003 1.250914e+000 -4.022397e-001 -9.923683e-001 -5.874449e-001 -5.680592e-001 -1.033771e+000 2.595353e+000 -1.970963e-001 -1.775279e-001 4.992263e-002 9.270223e-001 6.084861e-001 -5.737052e-002 -3.214757e-001 8.646556e-002 -6.089792e-001 -3.866900e-001 7.308389e-002 -5.030731e-003 -1.377115e+000
<VARIANCE> 39
 9.444787e+000 2.223272e+001 1.821073e+001 3.363513e+001 3.306696e+001 2.922248e+001 3.833205e+001 4.311175e+001 4.171041e+001 7.638967e+001 3.768801e+001 3.731832e+001 4.276793e+001 1.284900e+000 1.424853e+000 1.347584e+000 3.144212e+000 2.506170e+000 2.391141e+000 1.716081e+000 4.228170e+000 2.903331e+000 3.020792e+000 2.438699e+000 2.150331e+000 4.940048e+000 1.831607e-001 1.895961e-001 2.041516e-001 2.653985e-001 2.784471e-001 2.972382e-001 3.443587e-001 3.656012e-001 3.979324e-001 8.112956e-001 3.785468e-001 3.218085e-001 2.213342e-001
<GCONST> 1.124598e+002
<TRANSP> 5
 0.000000e+000 1.000000e+000 0.000000e+000 0.000000e+000 0.000000e+000
 0.000000e+000 5.240613e-001 4.759387e-001 0.000000e+000 0.000000e+000
 0.000000e+000 0.000000e+000 3.899696e-001 6.100304e-001 0.000000e+000
 0.000000e+000 0.000000e+000 0.000000e+000 5.200096e-001 4.799904e-001
 0.000000e+000 0.000000e+000 0.000000e+000 0.000000e+000 0.000000e+000
<ENDHMM>
~h "f"
<BEGINHMM>
<NUMSTATES> 5
<STATE> 2
<NUMMIXES> 4
<MIXTURE> 1 2.843979e-001
<MEAN> 39
 -8.334648e+000 -2.102389e+000 1.468706e+000 -1.506603e+000 -8.922783e-001 -2.687816e+000 1.087718e+000 -1.918212e+000 1.618768e+000 -1.259759e+000 1.000303e+000 -2.541517e+000 5.094406e+001 -1.186881e-001 4.097962e-002 9.397949e-002 9.340101e-002 1.650672e-001 2.538606e-001 1.651093e-001 2.070869e-001 2.700933e-001 2.653080e-002 1.385842e-001 4.363758e-002 -1.374543e-001 3.186062e-002 1.444972e-002 1.000728e-003 1.040627e-002 2.510542e-002 -1.124672e-002 1.786363e-002 2.269124e-002 1.384983e-002 6.038606e-003 1.482097e-002 4.720968e-002 2.739196e-002
<VARIANCE> 39
 1.845898e+001 1.129736e+001 1.261958e+001 1.718056e+001 3.176688e+001 2.528093e+001 2.023452e+001 2.611599e+001 2.912457e+001 3.540939e+001 3.107666e+001 2.011007e+001 7.125523e+001 3.053769e-001 3.778716e-001 3.487139e-001 5.246297e-001 7.024895e-001 8.760234e-001 8.691717e-001 9.362361e-001 1.223098e+000 9.134062e-001 1.081041e+000 7.974495e-001 2.540995e-001 5.028477e-002 6.635688e-002 6.803052e-002 9.243084e-002 1.463802e-001 1.579315e-001 1.549310e-001 1.499988e-001 2.288321e-001 1.769807e-001 1.925031e-001 1.346305e-001 2.830454e-002
<GCONST> 7.831510e+001
<MIXTURE> 2 2.113719e-001
<MEAN> 39
 -9.221800e+000 -1.757761e+000 8.628588e-001 -3.132769e+000 1.571992e+000 -3.403230e+000 2.010272e+000 -2.186958e+000 2.118572e+000 -1.474956e+000 3.305718e+000 -2.297033e+000 5.562791e+001 -1.766746e+000 -1.555566e-001 9.528296e-002 6.404338e-001 1.338321e-001 5.613916e-001 5.922028e-001 3.772166e-001 4.876205e-001 1.342345e-001 3.590919e-001 5.527661e-001 -5.616568e-001 2.400046e-001 -3.325193e-002 -1.230602e-001 -1.478315e-001 -5.794656e-003 -1.267573e-002 5.022987e-002 1.344104e-001 1.026368e-001 6.594893e-002 4.042068e-003 9.579964e-003 3.187082e-001
<VARIANCE> 39
 4.189066e+001 3.680807e+001 4.491753e+001 3.967286e+001 4.282021e+001 3.890812e+001 3.936007e+001 4.986339e+001 4.117730e+001 3.656142e+001 3.053956e+001 2.739521e+001 7.296641e+001 2.765871e+000 2.028659e+000 2.013847e+000 2.038241e+000 2.098100e+000 2.285166e+000 2.063413e+000 2.223082e+000 2.164350e+000 2.144786e+000 1.602656e+000 1.682148e+000 2.442103e+000 3.418711e-001 2.132734e-001 1.959814e-001 2.179989e-001 2.412143e-001 3.002233e-001 2.882955e-001 2.688040e-001 3.068593e-001 2.813400e-001 2.515627e-001 2.352441e-001 2.082519e-001
<GCONST> 1.116872e+002
<MIXTURE> 3 2.928617e-001
<MEAN> 39
 -1.001326e+001 -2.085153e+000 1.680097e-001 -1.525014e+000 1.872829e-001 -3.329357e+000 -3.853940e-001 -2.374237e+000 2.071587e+000 -2.533662e+000 2.542356e+000 -1.832490e+000 4.636412e+001 -3.604964e-001 -2.990797e-001 -1.737492e-001 -2.326196e-001 -2.822324e-001 -3.050827e-001 -1.491602e-001 -1.348291e-001 -9.383664e-002 -1.979052e-001 -4.276090e-002 -7.958279e-002 -6.087620e-002 1.095954e-001 -1.143288e-002 2.630166e-002 -1.258305e-002 -3.422851e-002 -8.576963e-002 -2.063929e-002 8.201550e-003 -3.646914e-002 -4.910105e-002 -7.340137e-002 -5.648673e-002 1.287867e-001
<VARIANCE> 39
 1.932554e+001 1.357067e+001 2.161510e+001 2.468708e+001 3.519612e+001 3.635727e+001 3.552821e+001 3.694592e+001 2.788004e+001 2.671760e+001 2.644417e+001 2.353846e+001 1.183677e+002 4.647019e-001 5.435017e-001 4.340158e-001 5.798313e-001 8.851826e-001 9.136826e-001 9.270946e-001 1.031797e+000 1.024084e+000 1.065248e+000 9.655482e-001 7.538660e-001 4.604415e-001 8.639423e-002 6.896099e-002 6.639048e-002 1.128879e-001 1.773606e-001 1.685783e-001 1.990969e-001 2.087105e-001 1.797847e-001 1.808322e-001 1.772710e-001 1.437578e-001 6.059102e-002
<GCONST> 8.505566e+001
<MIXTURE> 4 2.113719e-001
<MEAN> 39
 -1.181072e+001 -4.184547e+000 -1.817963e+000 -5.652225e+000 -1.045494e+000 -5.898285e+000 -4.992321e-001 -5.011518e+000 -4.482095e-001 -3.893598e+000 1.095214e+000 -4.390651e+000 5.221109e+001 -2.431982e+000 -7.252806e-001 -4.723574e-001 6.936596e-002 -4.455607e-001 -4.327901e-002 1.761941e-002 -2.191836e-001 -1.008487e-001 -4.515691e-001 -1.472923e-001 3.397552e-002 -1.186746e+000 6.125608e-003 -2.179781e-001 -3.001394e-001 -3.345929e-001 -2.022489e-001 -2.318463e-001 -1.645427e-001 -7.297490e-002 -1.189427e-001 -1.462170e-001 -1.965820e-001 -1.844279e-001 1.361696e-001
<VARIANCE> 39
 4.189066e+001 3.680807e+001 4.491753e+001 3.967286e+001 4.282021e+001 3.890812e+001 3.936007e+001 4.986339e+001 4.117730e+001 3.656142e+001 3.053956e+001 2.739521e+001 7.296641e+001 2.765871e+000 2.028659e+000 2.013847e+000 2.038241e+000 2.098100e+000 2.285166e+000 2.063413e+000 2.223082e+000 2.164350e+000 2.144786e+000 1.602656e+000 1.682148e+000 2.442103e+000 3.418711e-001 2.132734e-001 1.959814e-001 2.179989e-001 2.412143e-001 3.002233e-001 2.882955e-001 2.688040e-001 3.068593e-001 2.813400e-001 2.515627e-001 2.352441e-001 2.082519e-001
<GCONST> 1.116872e+002
<STATE> 3
<NUMMIXES> 4
<MIXTURE> 1 2.548437e-001
<MEAN> 39
 -1.661900e+001 -6.788090e+000 -2.648169e+000 -4.548370e+000 -1.054349e+000 -3.157317e+000 2.747131e+000 -1.868278e+000 2.627142e+000 -2.240693e+000 2.773200e+000 -2.180388e+000 5.608955e+001 6.961873e-001 -4.799479e-002 6.361960e-002 2.744622e-001 1.577836e-001 5.059892e-002 2.600444e-001 3.912272e-001 3.989407e-001 1.279353e-001 -1.991989e-003 1.972245e-001 5.138091e-001 1.010025e+000 1.685562e-001 -7.438134e-002 5.829411e-005 8.553478e-002 -5.519325e-002 -7.958366e-002 1.612051e-002 2.011436e-001 1.291346e-001 -2.238480e-002 -1.350117e-002 4.812778e-001
<VARIANCE> 39
 2.170348e+001 2.196601e+001 2.714461e+001 2.886144e+001 2.769369e+001 3.145777e+001 2.611321e+001 2.746765e+001 3.162654e+001 2.962090e+001 2.467592e+001 2.222147e+001 5.912279e+001 4.420814e+000 1.146312e+000 1.210725e+000 1.123508e+000 1.220620e+000 1.289692e+000 1.212213e+000 1.261927e+000 1.363068e+000 1.184428e+000 1.029189e+000 9.249656e-001 1.469591e+000 1.933228e-001 2.170293e-001 2.491156e-001 2.487316e-001 2.806802e-001 2.734357e-001 2.433574e-001 2.837140e-001 3.027218e-001 3.115686e-001 2.218245e-001 2.044687e-001 2.745178e-001
<GCONST> 1.007667e+002
<MIXTURE> 2 3.433791e-001
<MEAN> 39
 -1.968942e+001 -9.546490e+000 -6.378304e+000 -7.119334e+000 -2.148578e+000 -4.528546e+000 1.111719e+000 -3.779083e+000 2.076059e+000 -3.007404e+000 1.914894e+000 -3.765911e+000 5.631015e+001 -6.657479e-002 -1.259095e-001 -3.537194e-002 -2.588716e-002 -5.835048e-002 -7.453459e-002 4.989161e-002 2.673695e-002 3.895677e-002 2.839530e-002 6.413371e-002 9.118056e-002 8.751380e-002 5.831220e-001 1.549049e-001 1.193176e-001 7.051421e-002 2.058525e-002 8.755953e-003 1.817429e-002 -1.781337e-002 -7.168585e-002 -5.840126e-003 -1.001822e-002 5.292092e-003 1.685159e-001
<VARIANCE> 39
 1.159531e+001 7.793204e+000 1.054434e+001 1.288671e+001 1.403664e+001 1.618036e+001 1.699892e+001 2.016162e+001 2.190044e+001 2.270649e+001 1.764615e+001 1.464299e+001 3.543974e+001 6.984218e-001 4.864362e-001 5.109029e-001 6.236318e-001 6.132592e-001 7.055759e-001 7.386069e-001 8.341578e-001 9.490921e-001 9.878412e-001 7.092467e-001 7.061617e-001 6.643460e-001 1.739350e-001 1.013097e-001 1.215740e-001 1.319590e-001 1.298279e-001 1.411742e-001 1.565085e-001 1.755359e-001 1.856410e-001 1.878371e-001 1.492369e-001 1.430631e-001 1.505551e-001
<GCONST> 7.811519e+001
<MIXTURE> 3 1.469320e-001
<MEAN> 39
 -1.598330e+001 -1.164611e+001 -8.804152e+000 -1.374744e+001 -8.222396e+000 -1.056394e+001 -2.778712e+000 -4.024935e+000 3.304918e+000 -1.203174e+000 2.845053e+000 -3.228654e+000 4.870831e+001 -2.821540e-002 -1.374067e-001 -1.275851e-001 -4.294559e-002 -4.444712e-002 -1.450994e-001 -1.437834e-001 -1.543119e-001 3.473035e-002 -1.305799e-001 1.892321e-002 7.464924e-002 8.181680e-003 1.878336e-001 6.304367e-002 1.439492e-001 9.689644e-002 9.557625e-002 1.030481e-001 7.650403e-002 -1.498637e-003 -9.954350e-003 -9.094084e-003 -2.939529e-002 4.731856e-002 7.394508e-002
<VARIANCE> 39
 1.053749e+001 1.400681e+001 2.144814e+001 5.287239e+001 3.579232e+001 2.287599e+001 2.273444e+001 2.517139e+001 2.197480e+001 2.670587e+001 2.008027e+001 1.945839e+001 5.776419e+001 6.038262e-001 3.828321e-001 5.850633e-001 7.044970e-001 6.316705e-001 6.922450e-001 8.370235e-001 9.174317e-001 9.995216e-001 1.051706e+000 8.342896e-001 8.237421e-001 4.280603e-001 1.487212e-001 6.180986e-002 1.113787e-001 1.625381e-001 1.222441e-001 1.194494e-001 1.601634e-001 1.734702e-001 1.822245e-001 2.001045e-001 1.512332e-001 1.780792e-001 8.357318e-002
<GCONST> 8.262707e+001
<MIXTURE> 4 2.548437e-001
<MEAN> 39
 -1.848248e+001 -8.662807e+000 -4.732189e+000 -6.697284e+000 -3.159341e+000 -5.400806e+000 7.030873e-001 -3.964662e+000 3.776425e-001 -4.417697e+000 7.862058e-001 -4.065974e+000 5.301389e+001 -1.448420e-001 -4.762586e-001 -3.765122e-001 -1.495205e-001 -2.841431e-001 -4.036595e-001 -1.803578e-001 -5.811495e-002 -6.806131e-002 -3.073904e-001 -4.077878e-001 -1.874760e-001 2.890231e-002 8.341509e-001 -1.778937e-002 -2.740273e-001 -1.994337e-001 -1.263823e-001 -2.643576e-001 -2.769087e-001 -1.969387e-001 -1.893702e-002 -9.413869e-002 -2.107778e-001 -1.943740e-001 2.717000e-001
<VARIANCE> 39
 2.170348e+001 2.196601e+001 2.714461e+001 2.886144e+001 2.769369e+001 3.145777e+001 2.611321e+001 2.746765e+001 3.162654e+001 2.962090e+001 2.467592e+001 2.222147e+001 5.912279e+001 4.420814e+000 1.146312e+000 1.210725e+000 1.123508e+000 1.220620e+000 1.289692e+000 1.212213e+000 1.261927e+000 1.363068e+000 1.184428e+000 1.029189e+000 9.249656e-001 1.469591e+000 1.933228e-001 2.170293e-001 2.491156e-001 2.487316e-001 2.806802e-001 2.734357e-001 2.433574e-001 2.837140e-001 3.027218e-001 3.115686e-001 2.218245e-001 2.044687e-001 2.745178e-001
<GCONST> 1.007667e+002
<STATE> 4
<NUMMIXES> 4
<MIXTURE> 1 2.260889e-001
<MEAN> 39
 -9.726510e+000 -5.335642e+000 7.382109e-002 -2.774699e+000 -1.085274e+000 -5.841844e+000 6.591409e-001 8.596278e-001 4.067512e+000 -4.180522e+000 1.093337e+000 -2.258396e+000 5.446357e+001 3.848856e+000 -5.739314e-001 -5.625296e-001 3.829124e-001 -7.757408e-001 -5.424497e-001 -5.575402e-001 -2.152578e-001 1.379480e+000 3.380755e-001 -5.295893e-001 -2.669042e-001 1.912292e+000 4.183669e-001 -2.196747e-001 -2.113937e-001 -1.260075e-001 -3.613215e-001 8.435287e-002 -1.294791e-001 -2.634260e-001 1.851357e-001 3.716039e-003 -2.975309e-002 -8.083913e-002 4.058960e-001
<VARIANCE> 39
 3.659137e+001 2.589780e+001 2.736254e+001 2.421324e+001 5.098663e+001 3.549019e+001 3.425741e+001 3.951947e+001 3.725073e+001 3.517111e+001 2.927049e+001 2.524690e+001 6.778577e+001 1.696702e+000 1.477315e+000 2.346291e+000 1.879565e+000 3.235073e+000 2.870510e+000 2.287061e+000 2.497153e+000 2.141330e+000 2.650218e+000 2.029089e+000 9.421969e-001 1.223508e+000 4.349361e-001 1.387551e-001 1.962871e-001 1.614020e-001 2.452840e-001 2.952027e-001 2.810990e-001 3.034827e-001 3.287483e-001 2.768995e-001 2.767749e-001 1.765018e-001 1.112378e-001
<GCONST> 1.077397e+002
<MIXTURE> 2 2.129883e-001
<MEAN> 39
 2.241905e+000 -4.515503e+000 -9.979140e+000 -8.503193e+000 3.401175e+000 -5.301769e+000 -2.002753e+000 -1.249810e+000 5.272670e+000 -1.857056e+000 -2.450766e-001 -5.398571e+000 6.180080e+001 2.569757e+000 -1.685534e-001 -9.558102e-001 -3.157149e-001 4.155483e-001 -1.114675e-001 8.768436e-002 5.216155e-001 8.569731e-001 -9.784875e-003 -2.692773e-001 -2.001892e-001 2.078438e+000 -4.088912e-001 -1.045012e-001 3.569088e-001 2.833677e-001 -7.672681e-003 1.960039e-001 3.715941e-001 1.783982e-001 6.369586e-002 5.936594e-002 1.920270e-001 1.938191e-001 -6.197716e-002
<VARIANCE> 39
 6.936469e+001 3.055789e+001 9.075704e+001 5.930059e+001 7.440633e+001 6.429851e+001 5.628977e+001 5.550739e+001 7.041492e+001 7.093229e+001 5.616306e+001 3.945372e+001 7.300253e+001 4.099194e+000 2.208766e+000 3.537235e+000 2.362297e+000 2.834951e+000 2.572645e+000 2.600441e+000 2.673044e+000 3.311245e+000 2.789213e+000 2.777523e+000 1.729744e+000 3.848797e+000 4.244547e-001 1.674286e-001 2.860917e-001 2.110712e-001 2.744519e-001 2.974283e-001 3.509601e-001 3.898838e-001 3.761417e-001 3.709912e-001 3.212212e-001 2.296824e-001 2.238820e-001
<GCONST> 1.223312e+002
<MIXTURE> 3 3.479354e-001
<MEAN> 39
 -1.414111e+001 -7.474537e+000 -4.466378e+000 -5.003656e+000 -1.412977e+000 -4.404725e+000 1.152356e+000 -3.890300e+000 1.122428e+000 -3.562052e+000 1.578942e+000 -3.482929e+000 5.483794e+001 3.591599e+000 -2.196246e-001 -1.110011e+000 -7.715734e-001 -1.047367e-001 -5.850213e-001 -4.239843e-001 -2.721366e-001 1.507361e-001 -4.056118e-001 -6.152293e-001 -5.012499e-001 2.155579e+000 4.262904e-001 -2.175547e-001 -4.164231e-001 -2.961287e-001 -4.328159e-002 -1.204409e-001 -1.842829e-005 6.930724e-002 1.411692e-001 -7.650673e-002 -1.198863e-001 -1.330734e-001 5.413235e-001
<VARIANCE> 39
 3.057118e+001 2.273503e+001 2.382384e+001 2.073253e+001 1.765050e+001 2.238505e+001 2.153458e+001 2.167779e+001 2.621697e+001 2.417398e+001 2.064250e+001 1.854545e+001 5.367305e+001 1.338504e+000 2.091279e+000 2.765678e+000 2.166354e+000 2.996684e+000 1.811828e+000 1.652510e+000 2.354802e+000 2.379904e+000 2.616705e+000 1.684639e+000 1.257832e+000 1.837152e+000 2.831398e-001 2.258321e-001 2.410849e-001 2.196132e-001 3.237175e-001 2.409111e-001 2.142303e-001 2.660262e-001 2.741654e-001 2.216308e-001 2.449518e-001 2.122576e-001 1.851429e-001
<GCONST> 1.034408e+002
<MIXTURE> 4 2.129883e-001
<MEAN> 39
 -1.089514e+000 -6.726671e+000 -1.378980e+001 -1.158347e+001 -4.918907e-002 -8.509223e+000 -5.003813e+000 -4.229941e+000 1.916126e+000 -5.225908e+000 -3.242757e+000 -7.911059e+000 5.838314e+001 1.759899e+000 -7.630302e-001 -1.708112e+000 -9.305055e-001 -2.579442e-001 -7.530461e-001 -5.573509e-001 -1.323623e-001 1.291000e-001 -6.778224e-001 -9.359134e-001 -7.262681e-001 1.293704e+000 -6.694920e-001 -2.681734e-001 1.429586e-001 9.959772e-002 -2.172253e-001 -2.214409e-002 1.346265e-001 -7.136453e-002 -1.816257e-001 -1.842702e-001 -3.467853e-002 2.118314e-003 -2.512418e-001
<VARIANCE> 39
 6.936469e+001 3.055789e+001 9.075704e+001 5.930059e+001 7.440633e+001 6.429851e+001 5.628977e+001 5.550739e+001 7.041492e+001 7.093229e+001 5.616306e+001 3.945372e+001 7.300253e+001 4.099194e+000 2.208766e+000 3.537235e+000 2.362297e+000 2.834951e+000 2.572645e+000 2.600441e+000 2.673044e+000 3.311245e+000 2.789213e+000 2.777523e+000 1.729744e+000 3.848797e+000 4.244547e-001 1.674286e-001 2.860917e-001 2.110712e-001 2.744519e-001 2.974283e-001 3.509601e-001 3.898838e-001 3.761417e-001 3.709912e-001 3.212212e-001 2.296824e-001 2.238820e-001
<GCONST> 1.223312e+002
<TRANSP> 5
 0.000000e+000 1.000000e+000 0.000000e+000 0.000000e+000 0.000000e+000
 0.000000e+000 7.946663e-001 2.053337e-001 0.000000e+000 0.000000e+000
 0.000000e+000 0.000000e+000 7.952304e-001 2.047696e-001 0.000000e+000
 0.000000e+000 0.000000e+000 0.000000e+000 6.700243e-001 3.299757e-001
 0.000000e+000 0.000000e+000 0.000000e+000 0.000000e+000 0.000000e+000
<ENDHMM>
~h "g"
<BEGINHMM>
<NUMSTATES> 5
<STATE> 2
<NUMMIXES> 4
<MIXTURE> 1 2.103643e-001
<MEAN> 39
 -3.393485e+000 2.771811e+000 6.902977e+000 -2.224372e+000 -2.434863e+000 -2.993880e+000 -4.941771e+000 -6.371092e+000 -4.593197e+000 -4.647788e+000 3.168575e+000 -3.314452e+000 4.780907e+001 -9.645036e-001 -2.362785e+000 -1.968657e+000 2.181912e+000 1.762811e-001 -4.936830e-001 2.741307e+000 6.599719e-001 9.123003e-001 8.421286e-001 1.814436e-001 6.750975e-001 1.432169e+000 1.059676e-001 -2.879279e-001 -3.832351e-001 -4.335791e-001 -8.606318e-002 -1.692110e-002 1.661503e-001 5.402124e-001 6.646604e-001 3.768382e-001 2.591969e-001 1.493656e-001 1.551403e+000
<VARIANCE> 39
 2.074897e+001 3.145766e+001 3.557526e+001 4.902652e+001 3.474347e+001 4.434012e+001 3.788372e+001 4.248508e+001 3.296183e+001 3.550514e+001 4.977840e+001 2.878844e+001 3.478251e+001 1.452235e+000 1.895877e+000 2.863213e+000 4.032534e+000 3.264497e+000 4.121720e+000 2.434968e+000 3.412889e+000 2.291248e+000 2.626754e+000 2.530760e+000 1.265686e+000 1.598234e+000 2.463613e-001 3.288503e-001 4.678307e-001 5.298745e-001 4.437580e-001 3.778628e-001 4.932518e-001 3.571749e-001 3.041904e-001 2.611777e-001 3.331213e-001 2.444681e-001 4.175910e-001
<GCONST> 1.164878e+002
<MIXTURE> 2 2.722179e-001
<MEAN> 39
 -8.629668e+000 -1.243645e+000 -5.277981e-002 -3.226591e+000 -3.008078e-001 -4.000698e+000 -1.414235e+000 -3.015872e+000 2.201531e-001 -4.617739e+000 1.533991e+000 -2.314666e+000 4.349777e+001 -1.266845e+000 -2.136230e+000 -6.511691e-001 5.406002e-002 -1.046316e+000 3.019023e-001 7.545699e-001 -5.655545e-002 6.239187e-001 -8.009905e-002 -2.576659e-002 1.331364e-001 2.221162e+000 2.524963e-001 -1.132468e-001 -1.458264e-001 -8.132547e-001 -3.245567e-001 -1.348038e-001 -2.789017e-002 6.029008e-002 1.367756e-001 2.037937e-001 -7.257469e-002 -9.329625e-002 1.486959e+000
<VARIANCE> 39
 4.598052e+001 4.944556e+001 2.706789e+001 3.432685e+001 3.070656e+001 2.625893e+001 3.587756e+001 1.951240e+001 2.937573e+001 2.758475e+001 2.332801e+001 1.802265e+001 7.685928e+001 1.919761e+000 2.645163e+000 3.047162e+000 2.195334e+000 2.892915e+000 3.449147e+000 1.623368e+000 2.385860e+000 2.034409e+000 2.181641e+000 1.412693e+000 1.317150e+000 2.923758e+000 1.908500e-001 3.914105e-001 2.808411e-001 3.739155e-001 5.770047e-001 3.297403e-001 3.568876e-001 1.589997e-001 2.796125e-001 1.716292e-001 2.496066e-001 1.347896e-001 6.529027e-001
<GCONST> 1.106975e+002
<MIXTURE> 3 3.070534e-001
<MEAN> 39
 -1.072797e+001 -5.662896e-002 1.698699e+000 -8.266773e-001 4.251816e-001 -3.457904e+000 -1.370649e+000 -3.502819e+000 1.425552e+000 -2.823750e+000 6.311231e-001 -3.531135e+000 3.746989e+001 -1.819363e+000 -3.718072e+000 -1.075742e+000 5.441155e-001 -7.437044e-001 7.968648e-001 5.021484e-001 3.629750e-001 1.762941e-002 -5.830408e-001 2.562007e-001 -3.556730e-001 1.716139e+000 5.288435e-001 -4.487277e-001 -3.971548e-001 -9.659716e-001 -4.184901e-001 -4.202327e-001 3.199458e-001 -1.704462e-001 3.258526e-002 4.641045e-002 -1.147717e-001 -8.556096e-002 1.998203e+000
<VARIANCE> 39
 2.520350e+001 2.118453e+001 1.147703e+001 1.481342e+001 2.272688e+001 2.083991e+001 2.393788e+001 1.487970e+001 1.412562e+001 1.477505e+001 1.645431e+001 2.978542e+001 2.118699e+001 2.153259e+000 1.866600e+000 1.105676e+000 3.896427e+000 3.069430e+000 2.712768e+000 2.504575e+000 2.851360e+000 1.158841e+000 1.489062e+000 1.193808e+000 1.076762e+000 2.719909e+000 2.212545e-001 4.168339e-001 3.838350e-001 4.053853e-001 4.201469e-001 2.737418e-001 2.501455e-001 2.712879e-001 1.974698e-001 2.888587e-001 1.805024e-001 2.443913e-001 5.334184e-001
<GCONST> 1.027420e+002
<MIXTURE> 4 2.103643e-001
<MEAN> 39
 -5.215527e+000 5.283264e-001 4.517177e+000 -5.025130e+000 -4.792607e+000 -5.657415e+000 -7.403761e+000 -8.978315e+000 -6.889693e+000 -7.031236e+000 3.464228e-001 -5.460646e+000 4.545000e+001 -1.446538e+000 -2.913549e+000 -2.645499e+000 1.378666e+000 -5.464357e-001 -1.305764e+000 2.117131e+000 -7.898833e-002 3.068256e-001 1.938381e-001 -4.548910e-001 2.250867e-001 9.264835e-001 -9.257156e-002 -5.173097e-001 -6.568277e-001 -7.247490e-001 -3.525238e-001 -2.628033e-001 -1.147773e-001 3.011560e-001 4.440466e-001 1.724160e-001 2.833028e-002 -4.840924e-002 1.292917e+000
<VARIANCE> 39
 2.074897e+001 3.145766e+001 3.557526e+001 4.902652e+001 3.474347e+001 4.434012e+001 3.788372e+001 4.248508e+001 3.296183e+001 3.550514e+001 4.977840e+001 2.878844e+001 3.478251e+001 1.452235e+000 1.895877e+000 2.863213e+000 4.032534e+000 3.264497e+000 4.121720e+000 2.434968e+000 3.412889e+000 2.291248e+000 2.626754e+000 2.530760e+000 1.265686e+000 1.598234e+000 2.463613e-001 3.288503e-001 4.678307e-001 5.298745e-001 4.437580e-001 3.778628e-001 4.932518e-001 3.571749e-001 3.041904e-001 2.611777e-001 3.331213e-001 2.444681e-001 4.175910e-001
<GCONST> 1.164878e+002
<STATE> 3
<NUMMIXES> 4
<MIXTURE> 1 2.532305e-001
<MEAN> 39
 -9.291477e+000 -1.074835e+001 -1.638163e+000 -2.121761e-001 -1.543253e+000 -4.777612e+000 3.460891e+000 -3.324749e+000 -1.763956e+000 -1.577482e+000 1.248911e+000 -3.268984e+000 5.569409e+001 1.475774e-001 -1.742707e+000 -1.951084e+000 9.535200e-001 -3.466160e-002 -1.207216e+000 1.922086e+000 1.196880e+000 1.100822e+000 8.913463e-001 4.285598e-001 6.648327e-001 3.233249e+000 7.169753e-001 8.397980e-001 3.279719e-001 -6.648597e-001 1.132779e-002 1.592314e-001 -6.090294e-001 2.359142e-001 4.992428e-001 -5.046794e-002 2.774192e-001 4.285221e-002 7.791207e-001
<VARIANCE> 39
 3.175623e+001 5.266536e+001 4.508130e+001 3.988099e+001 3.586196e+001 3.646594e+001 2.260272e+001 3.214470e+001 3.018204e+001 2.501468e+001 1.750689e+001 1.694988e+001 6.575482e+001 2.853084e+000 2.102738e+000 2.546729e+000 3.883490e+000 2.788506e+000 2.721343e+000 2.664171e+000 2.706517e+000 2.052927e+000 2.540767e+000 1.836588e+000 1.575701e+000 2.949263e+000 2.256097e-001 3.269666e-001 3.910649e-001 3.976675e-001 4.837396e-001 4.379109e-001 3.224323e-001 3.216369e-001 3.012180e-001 4.185408e-001 3.019991e-001 1.942190e-001 3.734900e-001
<GCONST> 1.145669e+002
<MIXTURE> 2 2.773309e-001
<MEAN> 39
 -1.297134e+001 -8.775219e+000 -1.486791e+000 -5.495790e+000 -3.576947e+000 -1.564699e+000 5.276600e-001 -2.887209e+000 1.823916e+000 -3.791409e+000 1.598432e+000 -2.825886e+000 4.738562e+001 -4.397930e-001 -2.453919e+000 -6.466314e-001 -1.194948e+000 -1.477247e+000 4.205653e-001 6.600713e-001 -3.340659e-001 3.804553e-001 5.320348e-001 -6.226178e-002 -8.203570e-002 4.177165e+000 7.558262e-001 5.652557e-001 -4.119346e-002 -5.099774e-001 -5.497390e-002 -4.721836e-001 -4.987675e-002 -3.457202e-002 -1.251707e-001 2.200798e-001 6.267037e-003 -7.421072e-002 8.252264e-001
<VARIANCE> 39
 3.032936e+001 3.874976e+001 1.569279e+001 4.454706e+001 2.446394e+001 2.783496e+001 3.253522e+001 1.631302e+001 1.610141e+001 1.469251e+001 1.610025e+001 1.763954e+001 1.272063e+002 1.453124e+000 2.482644e+000 2.055233e+000 1.606351e+000 1.726892e+000 1.798674e+000 2.028754e+000 1.493387e+000 1.337096e+000 1.098753e+000 1.567400e+000 1.617534e+000 2.884583e+000 2.515050e-001 3.161008e-001 3.426520e-001 3.930656e-001 3.885492e-001 3.809989e-001 2.651089e-001 3.623220e-001 1.610733e-001 2.751606e-001 1.585072e-001 2.487548e-001 4.291762e-001
<GCONST> 1.051633e+002
<MIXTURE> 3 2.162086e-001
<MEAN> 39
 -1.273953e+001 -1.229316e+001 -8.123596e-001 -4.780929e+000 -1.632048e+000 -3.373574e+000 -4.447338e+000 -5.344023e+000 1.175972e+000 -6.670631e+000 7.142258e-001 -2.118336e+000 5.442361e+001 -1.101568e+000 -2.785849e+000 -1.109749e+000 -5.866321e-001 -1.623811e+000 7.396661e-001 1.201716e+000 -2.807810e-001 9.178408e-001 -8.439837e-001 -1.501199e-001 -3.476811e-001 3.310035e+000 8.270555e-001 6.043979e-001 -1.705879e-001 -6.100329e-001 -1.481563e-001 -4.770557e-001 3.751182e-001 -8.317330e-002 -6.034189e-002 3.391273e-001 -2.431279e-001 -2.349619e-001 4.582263e-001
<VARIANCE> 39
 4.647543e+001 3.759029e+001 6.423026e+001 3.934724e+001 3.748728e+001 4.435117e+001 3.409603e+001 3.502113e+001 2.615193e+001 2.490602e+001 2.786316e+001 1.434195e+001 7.107425e+001 2.509533e+000 1.889395e+000 1.989153e+000 3.551878e+000 2.707412e+000 2.623594e+000 2.615259e+000 1.443257e+000 1.971458e+000 1.536018e+000 1.772327e+000 1.351618e+000 2.136777e+000 4.567709e-001 4.969013e-001 5.832325e-001 4.085821e-001 4.013888e-001 3.451321e-001 3.434695e-001 5.115035e-001 1.932399e-001 2.800139e-001 4.122417e-001 1.195358e-001 3.561546e-001
<GCONST> 1.141612e+002
<MIXTURE> 4 2.532305e-001
<MEAN> 39
 -1.154558e+001 -1.365119e+001 -4.323867e+000 -2.738232e+000 -3.938647e+000 -7.193094e+000 1.559198e+000 -5.592601e+000 -3.961484e+000 -3.578069e+000 -4.247387e-001 -4.915793e+000 5.245051e+001 -5.280656e-001 -2.322739e+000 -2.589423e+000 1.652571e-001 -7.026144e-001 -1.867076e+000 1.269194e+000 5.388205e-001 5.277008e-001 2.537549e-001 -1.135233e-001 1.627250e-001 2.546313e+000 5.269818e-001 6.110740e-001 7.783113e-002 -9.171032e-001 -2.668778e-001 -1.054680e-001 -8.361618e-001 9.062017e-003 2.797094e-001 -3.092469e-001 5.760141e-002 -1.334289e-001 5.346653e-001
<VARIANCE> 39
 3.175623e+001 5.266536e+001 4.508130e+001 3.988099e+001 3.586196e+001 3.646594e+001 2.260272e+001 3.214470e+001 3.018204e+001 2.501468e+001 1.750689e+001 1.694988e+001 6.575482e+001 2.853084e+000 2.102738e+000 2.546729e+000 3.883490e+000 2.788506e+000 2.721343e+000 2.664171e+000 2.706517e+000 2.052927e+000 2.540767e+000 1.836588e+000 1.575701e+000 2.949263e+000 2.256097e-001 3.269666e-001 3.910649e-001 3.976675e-001 4.837396e-001 4.379109e-001 3.224323e-001 3.216369e-001 3.012180e-001 4.185408e-001 3.019991e-001 1.942190e-001 3.734900e-001
<GCONST> 1.145669e+002
<STATE> 4
<NUMMIXES> 4
<MIXTURE> 1 2.461932e-001
<MEAN> 39
 -9.405182e+000 -1.251237e+001 -5.131732e+000 -2.083784e+000 -5.153342e+000 -1.032616e+001 3.526981e+000 7.928076e-001 -2.637226e-001 -2.298728e+000 4.994168e+000 -1.981484e+000 5.881304e+001 1.299839e+000 2.041015e-001 -4.599686e-001 -3.529321e-001 -1.000632e+000 -7.681726e-001 3.502131e-003 2.210641e-001 1.410999e+000 -1.481309e-001 3.812879e-001 4.742794e-001 2.669543e+000 5.317826e-001 8.569587e-001 5.112168e-001 -3.518746e-001 -1.989520e-001 4.377877e-001 -6.819296e-001 -7.325501e-001 1.797826e-001 -2.754784e-001 -1.348353e-001 -1.359011e-001 -2.220032e-001
<VARIANCE> 39
 2.715379e+001 5.110043e+001 5.125072e+001 4.052297e+001 4.032212e+001 2.356980e+001 2.725373e+001 2.499352e+001 2.706903e+001 2.882696e+001 2.007442e+001 1.825638e+001 2.572133e+001 2.074368e+000 3.504882e+000 4.288867e+000 1.806153e+000 3.027277e+000 1.708045e+000 2.147112e+000 3.005532e+000 1.769721e+000 1.620256e+000 9.664804e-001 9.975790e-001 3.024546e+000 2.681236e-001 4.488284e-001 3.858491e-001 4.506743e-001 4.401048e-001 3.773393e-001 3.604062e-001 2.795601e-001 2.641668e-001 3.779012e-001 3.245968e-001 2.500281e-001 3.469437e-001
<GCONST> 1.115736e+002
<MIXTURE> 2 2.407378e-001
<MEAN> 39
 -9.386952e+000 -7.374976e+000 -1.108925e+000 -9.583817e+000 -4.987553e+000 -1.568541e+000 2.189337e+000 -5.465045e+000 4.365416e+000 -2.263086e+000 1.019152e+000 -2.954745e+000 6.458029e+001 1.109636e+000 8.470970e-002 -1.013544e-001 -1.039400e+000 -8.485208e-001 3.323957e-001 9.248619e-001 -4.323297e-002 4.325638e-001 4.989506e-001 3.452744e-002 -2.336776e-001 3.258482e+000 5.719926e-001 7.008764e-001 2.247452e-001 3.219463e-001 3.718401e-001 -6.560773e-002 -3.218630e-002 3.499228e-001 -1.868415e-001 1.405608e-001 9.903602e-002 5.341170e-002 -5.809048e-001
<VARIANCE> 39
 3.135538e+001 6.707971e+001 3.095546e+001 5.761973e+001 4.517579e+001 4.030763e+001 3.399301e+001 3.879855e+001 2.033919e+001 3.516958e+001 2.341217e+001 2.695032e+001 2.950022e+001 2.660522e+000 2.880858e+000 1.893281e+000 2.871779e+000 2.239694e+000 3.021378e+000 2.249657e+000 2.288239e+000 1.774929e+000 1.676634e+000 2.398082e+000 1.563371e+000 3.778510e+000 3.900312e-001 6.663941e-001 3.322051e-001 4.908495e-001 3.464298e-001 5.109746e-001 4.459275e-001 4.766971e-001 2.572349e-001 3.581498e-001 3.095634e-001 2.594902e-001 2.396422e-001
<GCONST> 1.161570e+002
<MIXTURE> 3 2.723313e-001
<MEAN> 39
 -7.357293e+000 -1.126397e+001 -7.028206e+000 -2.287600e+000 -3.058167e+000 -1.106161e+001 -8.250164e-002 -1.427720e+000 2.589993e+000 -2.643215e+000 2.154091e+000 -3.233126e+000 5.731293e+001 1.812541e+000 7.136659e-001 -1.125924e+000 -4.890439e-001 -2.652730e-001 -1.094761e+000 -7.035262e-001 1.092893e-001 8.451978e-001 -9.007496e-002 1.145166e-001 -2.466410e-001 2.255965e+000 3.653152e-001 5.688267e-001 3.569799e-001 -3.601940e-001 -1.558885e-001 3.568520e-001 -2.966780e-001 -2.363137e-001 -1.367269e-001 -1.371321e-001 -7.938693e-002 -1.158082e-001 -1.544847e-001
<VARIANCE> 39
 3.412323e+001 7.136643e+001 4.820638e+001 3.141073e+001 3.673339e+001 2.826947e+001 3.809821e+001 2.642123e+001 2.851621e+001 2.131071e+001 1.887608e+001 1.803650e+001 3.346329e+001 1.995185e+000 2.722568e+000 3.566882e+000 2.225075e+000 2.626601e+000 2.405989e+000 2.212924e+000 2.245991e+000 1.606769e+000 1.591735e+000 1.365984e+000 8.575041e-001 3.173973e+000 3.184816e-001 7.982596e-001 3.894346e-001 3.894854e-001 4.180617e-001 3.287702e-001 3.952893e-001 3.686671e-001 2.697827e-001 2.215228e-001 2.469018e-001 2.418130e-001 3.826005e-001
<GCONST> 1.121085e+002
<MIXTURE> 4 2.407378e-001
<MEAN> 39
 -1.162679e+001 -1.065106e+001 -3.334431e+000 -1.262012e+001 -7.676071e+000 -4.108073e+000 -1.428035e-001 -7.956584e+000 2.561456e+000 -4.635244e+000 -9.162927e-001 -5.031293e+000 6.240773e+001 4.571914e-001 -5.942139e-001 -6.517406e-001 -1.717252e+000 -1.447145e+000 -3.628888e-001 3.249077e-001 -6.483100e-001 -1.003420e-001 -1.898900e-002 -5.849022e-001 -7.338170e-001 2.480946e+000 3.221827e-001 3.743445e-001 -5.803768e-003 4.170369e-002 1.364069e-001 -3.515377e-001 -2.992975e-001 7.374979e-002 -3.897149e-001 -9.882163e-002 -1.235177e-001 -1.503490e-001 -7.767179e-001
<VARIANCE> 39
 3.135538e+001 6.707971e+001 3.095546e+001 5.761973e+001 4.517579e+001 4.030763e+001 3.399301e+001 3.879855e+001 2.033919e+001 3.516958e+001 2.341217e+001 2.695032e+001 2.950022e+001 2.660522e+000 2.880858e+000 1.893281e+000 2.871779e+000 2.239694e+000 3.021378e+000 2.249657e+000 2.288239e+000 1.774929e+000 1.676634e+000 2.398082e+000 1.563371e+000 3.778510e+000 3.900312e-001 6.663941e-001 3.322051e-001 4.908495e-001 3.464298e-001 5.109746e-001 4.459275e-001 4.766971e-001 2.572349e-001 3.581498e-001 3.095634e-001 2.594902e-001 2.396422e-001
<GCONST> 1.161570e+002
<TRANSP> 5
 0.000000e+000 1.000000e+000 0.000000e+000 0.000000e+000 0.000000e+000
 0.000000e+000 2.119732e-001 7.880268e-001 0.000000e+000 0.000000e+000
 0.000000e+000 0.000000e+000 2.469468e-001 7.530532e-001 0.000000e+000
 0.000000e+000 0.000000e+000 0.000000e+000 6.307585e-001 3.692415e-001
 0.000000e+000 0.000000e+000 0.000000e+000 0.000000e+000 0.000000e+000
<ENDHMM>
~h "k"
<BEGINHMM>
<NUMSTATES> 5
<STATE> 2
<NUMMIXES> 4
<MIXTURE> 1 2.190996e-001
<MEAN> 39
 -4.844321e+000 -7.150505e-001 1.091761e+000 -2.480798e+000 5.925066e-001 -2.701994e+000 -1.343127e-001 -1.758326e-001 1.694599e+000 -6.851267e-001 1.086987e+000 -2.632600e+000 5.034080e+001 -1.006099e+000 -7.948750e-001 -1.230327e-001 7.891184e-001 -1.585153e-002 1.568366e-001 1.173085e+000 5.063750e-001 4.297343e-001 4.708772e-001 5.193586e-001 5.298895e-001 5.027249e-001 8.386110e-003 1.013816e-001 -1.493416e-001 -2.464272e-001 2.035494e-002 6.089537e-002 1.859142e-001 1.802002e-001 2.186945e-001 1.173133e-001 6.830674e-002 6.653650e-002 9.775441e-001
<VARIANCE> 39
 6.277156e+001 7.248474e+001 7.521620e+001 6.555309e+001 7.639500e+001 6.396429e+001 5.758626e+001 7.166531e+001 5.159560e+001 4.980804e+001 3.721756e+001 3.854265e+001 8.685561e+001 2.148859e+000 2.825291e+000 3.691609e+000 3.077386e+000 3.827825e+000 2.988733e+000 2.893244e+000 2.683903e+000 2.784139e+000 1.968587e+000 1.853612e+000 1.739324e+000 5.729968e+000 3.215055e-001 3.083344e-001 3.296724e-001 3.465646e-001 5.218931e-001 4.704899e-001 3.607480e-001 3.747497e-001 3.872789e-001 3.802369e-001 2.665684e-001 3.081767e-001 4.260764e-001
<GCONST> 1.251914e+002
<MIXTURE> 2 2.714645e-001
<MEAN> 39
 -1.439057e+001 -3.135618e+000 -1.425492e+000 -1.552090e+000 8.175017e-001 -2.119412e+000 1.522800e+000 -2.158099e+000 1.097199e+000 -2.524550e+000 1.636994e+000 -2.757365e+000 3.431660e+001 -9.414521e-001 -1.659281e+000 -1.330305e+000 -1.366037e-001 1.057324e-001 -3.015972e-001 7.275129e-001 4.315137e-001 5.651494e-001 4.148382e-001 2.135704e-001 3.784449e-001 2.112780e+000 4.228188e-001 -1.344349e-001 -1.695025e-001 -8.799484e-001 -4.096752e-001 -2.400599e-001 -2.331066e-001 -1.585570e-001 4.666594e-002 1.159797e-002 -2.138374e-002 -1.349723e-001 2.280436e+000
<VARIANCE> 39
 3.959602e+000 6.992722e+000 8.866676e+000 9.733513e+000 1.450608e+001 1.577623e+001 1.960510e+001 2.102327e+001 1.947891e+001 2.259747e+001 1.846756e+001 1.777913e+001 2.846991e+000 1.477271e+000 2.018071e+000 1.785265e+000 3.028246e+000 2.301116e+000 2.174312e+000 2.416159e+000 1.891803e+000 2.021698e+000 1.377286e+000 1.720624e+000 1.047708e+000 7.017066e+000 2.132846e-001 4.544077e-001 2.138056e-001 3.605619e-001 3.943674e-001 3.358590e-001 3.420874e-001 3.411997e-001 2.414338e-001 2.814329e-001 2.526321e-001 1.683729e-001 6.494759e-001
<GCONST> 9.796527e+001
<MIXTURE> 3 2.903351e-001
<MEAN> 39
 -1.453368e+001 -4.035266e+000 -1.947645e+000 -2.592077e+000 -1.521767e-001 -2.970204e+000 1.086107e+000 -2.549680e+000 6.707528e-001 -3.951672e+000 1.225849e+000 -3.586044e+000 3.405424e+001 -7.343124e-001 -1.683727e+000 -9.263450e-001 4.095669e-002 -3.363185e-001 -9.080274e-002 5.599318e-001 5.949374e-002 6.596865e-002 -6.535993e-002 -3.519316e-002 -1.041169e-002 1.837117e+000 3.624869e-001 -1.975570e-001 -2.555028e-001 -7.688224e-001 -2.399621e-001 -2.648045e-001 -4.216446e-002 -1.255725e-001 1.569283e-001 8.448172e-002 -7.373014e-002 -8.325858e-002 2.359107e+000
<VARIANCE> 39
 2.546700e+000 5.737710e+000 8.356765e+000 1.090227e+001 1.265755e+001 1.748097e+001 1.710640e+001 1.645076e+001 1.851011e+001 1.419354e+001 1.509806e+001 1.559135e+001 2.142815e+000 1.920053e+000 2.257776e+000 1.790972e+000 2.699787e+000 2.191896e+000 2.262235e+000 2.142291e+000 1.890035e+000 1.527699e+000 1.274967e+000 1.017558e+000 9.394290e-001 7.305746e+000 1.374239e-001 4.484724e-001 2.331786e-001 5.175514e-001 3.388120e-001 3.228114e-001 2.414248e-001 2.520565e-001 2.450643e-001 2.015898e-001 1.804977e-001 1.740075e-001 6.285523e-001
<GCONST> 9.351105e+001
<MIXTURE> 4 2.190996e-001
<MEAN> 39
 -8.013461e+000 -4.120569e+000 -2.377330e+000 -5.719392e+000 -2.903663e+000 -5.901102e+000 -3.169737e+000 -3.562047e+000 -1.178604e+000 -3.508119e+000 -1.353261e+000 -5.115909e+000 4.661295e+001 -1.592459e+000 -1.467219e+000 -8.915751e-001 8.741922e-002 -7.984447e-001 -5.346816e-001 4.927033e-001 -1.489299e-001 -2.376953e-001 -9.034820e-002 -2.523104e-002 2.355745e-003 -4.547692e-001 -2.184197e-001 -1.207299e-001 -3.790100e-001 -4.819062e-001 -2.686137e-001 -2.134737e-001 -5.433497e-002 -6.466702e-002 -3.023246e-002 -1.293401e-001 -1.382143e-001 -1.555182e-001 7.164459e-001
<VARIANCE> 39
 6.277156e+001 7.248474e+001 7.521620e+001 6.555309e+001 7.639500e+001 6.396429e+001 5.758626e+001 7.166531e+001 5.159560e+001 4.980804e+001 3.721756e+001 3.854265e+001 8.685561e+001 2.148859e+000 2.825291e+000 3.691609e+000 3.077386e+000 3.827825e+000 2.988733e+000 2.893244e+000 2.683903e+000 2.784139e+000 1.968587e+000 1.853612e+000 1.739324e+000 5.729968e+000 3.215055e-001 3.083344e-001 3.296724e-001 3.465646e-001 5.218931e-001 4.704899e-001 3.607480e-001 3.747497e-001 3.872789e-001 3.802369e-001 2.665684e-001 3.081767e-001 4.260764e-001
<GCONST> 1.251914e+002
<STATE> 3
<NUMMIXES> 4
<MIXTURE> 1 2.562918e-001
<MEAN> 39
 -1.040406e+001 -1.132211e+001 -5.429264e+000 -3.456676e+000 -1.668604e+000 -9.251099e+000 2.200689e+000 -1.357537e-002 8.400298e-001 -1.798301e+000 2.055424e+000 -2.522321e+000 5.825777e+001 -9.769895e-001 -7.614999e-001 -1.221919e+000 -5.162100e-001 2.176694e-002 -2.004092e-001 9.522331e-001 6.700190e-001 7.100165e-001 6.508079e-001 1.724848e-001 2.416572e-001 2.499310e+000 2.812324e-001 7.227073e-001 2.814120e-001 -2.118994e-001 2.223575e-001 3.713867e-001 -2.954190e-001 -2.056466e-001 -4.346707e-002 3.216093e-002 -1.180850e-001 -1.259131e-001 -2.160533e-001
<VARIANCE> 39
 3.832789e+001 7.227449e+001 6.522060e+001 8.403427e+001 8.534089e+001 7.209135e+001 7.722346e+001 9.615167e+001 4.396082e+001 4.905563e+001 3.696033e+001 3.311622e+001 6.332020e+001 2.821295e+000 3.008782e+000 2.774428e+000 3.658698e+000 4.114118e+000 3.467657e+000 3.248606e+000 3.095901e+000 4.138295e+000 2.940936e+000 1.931133e+000 1.592048e+000 5.173395e+000 2.483240e-001 3.001716e-001 2.537703e-001 2.882683e-001 6.451386e-001 4.027296e-001 5.184479e-001 5.157248e-001 4.323126e-001 4.258313e-001 2.718097e-001 2.594752e-001 5.821809e-001
<GCONST> 1.267090e+002
<MIXTURE> 2 2.014337e-001
<MEAN> 39
 -1.503905e+001 -6.550584e+000 -8.146505e-001 -2.869145e+000 -7.931340e-001 -6.925274e-001 1.651702e+000 -1.668198e+000 2.513905e+000 -1.202620e+000 1.710159e+000 -1.234154e+000 4.879436e+001 1.399816e-002 -8.432292e-001 -9.591877e-001 -1.008589e+000 -2.268063e-001 -1.071830e-001 5.990033e-001 2.540967e-001 8.227851e-001 3.918372e-001 9.559543e-002 8.125501e-002 4.842378e+000 6.178710e-001 6.345143e-001 1.345833e-001 -1.936526e-001 7.676942e-002 -2.373959e-002 -2.079749e-002 4.507591e-002 4.796376e-002 9.526139e-002 1.040742e-001 -9.271503e-002 8.437510e-001
<VARIANCE> 39
 2.530622e+001 5.464906e+001 3.392046e+001 4.141860e+001 3.508696e+001 2.516395e+001 1.926090e+001 2.347129e+001 2.076756e+001 1.824066e+001 1.656744e+001 1.420550e+001 7.304319e+001 1.135457e+000 1.965419e+000 1.593240e+000 2.037327e+000 1.659621e+000 1.953143e+000 1.601485e+000 1.564675e+000 1.493957e+000 1.333677e+000 9.363618e-001 9.361454e-001 3.432107e+000 2.439875e-001 2.756717e-001 2.829595e-001 3.312970e-001 3.965577e-001 3.091889e-001 2.920014e-001 2.992380e-001 2.513098e-001 2.355617e-001 2.518745e-001 1.696005e-001 4.940111e-001
<GCONST> 1.043210e+002
<MIXTURE> 3 3.408407e-001
<MEAN> 39
 -1.073292e+001 -1.512362e+001 -6.087489e+000 -1.715584e+000 -4.587474e+000 -7.365098e+000 3.352684e+000 -1.015453e+000 -1.720467e+000 -2.783210e+000 1.810543e+000 -3.646385e+000 5.697464e+001 2.259378e-001 -7.195317e-001 -8.276715e-001 -4.442283e-001 -3.190990e-001 -7.157562e-001 3.547613e-001 3.839609e-001 3.228005e-002 6.796763e-002 1.874303e-002 -2.160191e-001 2.760128e+000 2.580534e-001 8.302919e-001 1.973003e-001 -3.145953e-001 1.766944e-001 2.052531e-001 -4.395579e-001 -2.341571e-001 2.036424e-001 -6.618749e-002 -1.547170e-001 -1.067762e-001 -1.753085e-001
<VARIANCE> 39
 3.035352e+001 5.212635e+001 4.224952e+001 4.732196e+001 4.820861e+001 3.925496e+001 4.298925e+001 3.896246e+001 3.314050e+001 2.775367e+001 2.635371e+001 1.696732e+001 5.352376e+001 3.727782e+000 2.795069e+000 2.533572e+000 1.945671e+000 3.370022e+000 2.186233e+000 2.379552e+000 1.848563e+000 2.263577e+000 1.322996e+000 1.455565e+000 1.119884e+000 5.482194e+000 2.179030e-001 3.153773e-001 3.138256e-001 3.030532e-001 4.908133e-001 3.264118e-001 4.011374e-001 3.908093e-001 3.025788e-001 2.592235e-001 3.445145e-001 2.161089e-001 6.360993e-001
<GCONST> 1.149148e+002
<MIXTURE> 4 2.014337e-001
<MEAN> 39
 -1.705126e+001 -9.507585e+000 -3.144301e+000 -5.443437e+000 -3.162504e+000 -2.699075e+000 -1.037881e-001 -3.606086e+000 6.910473e-001 -2.910984e+000 8.203388e-002 -2.741762e+000 4.537576e+001 -4.122331e-001 -1.404003e+000 -1.464082e+000 -1.579529e+000 -7.421114e-001 -6.662026e-001 9.280411e-002 -2.462512e-001 3.338749e-001 -7.010257e-002 -2.914677e-001 -3.057634e-001 4.101340e+000 4.202906e-001 4.244965e-001 -7.819242e-002 -4.238862e-001 -1.751219e-001 -2.461586e-001 -2.369461e-001 -1.737347e-001 -1.525595e-001 -9.887740e-002 -9.667425e-002 -2.574454e-001 5.626073e-001
<VARIANCE> 39
 2.530622e+001 5.464906e+001 3.392046e+001 4.141860e+001 3.508696e+001 2.516395e+001 1.926090e+001 2.347129e+001 2.076756e+001 1.824066e+001 1.656744e+001 1.420550e+001 7.304319e+001 1.135457e+000 1.965419e+000 1.593240e+000 2.037327e+000 1.659621e+000 1.953143e+000 1.601485e+000 1.564675e+000 1.493957e+000 1.333677e+000 9.363618e-001 9.361454e-001 3.432107e+000 2.439875e-001 2.756717e-001 2.829595e-001 3.312970e-001 3.965577e-001 3.091889e-001 2.920014e-001 2.992380e-001 2.513098e-001 2.355617e-001 2.518745e-001 1.696005e-001 4.940111e-001
<GCONST> 1.043210e+002
<STATE> 4
<NUMMIXES> 4
<MIXTURE> 1 2.183620e-001
<MEAN> 39
 -1.516484e+001 -4.001779e+000 -5.898774e+000 -1.195122e+001 -9.887198e-001 -7.425081e+000 1.988937e+000 -1.666451e+000 4.411442e+000 -4.145215e-001 1.174504e+000 -2.368601e+000 6.203376e+001 4.317141e-001 7.681696e-001 1.934888e-001 -9.339814e-001 1.401909e-001 6.708075e-001 -1.193124e-001 -1.280937e-002 4.953018e-001 3.583761e-001 1.404850e-001 4.950483e-002 1.568410e+000 5.207138e-001 1.236772e-001 4.550075e-001 2.865870e-001 -2.105639e-002 3.849149e-001 -3.001429e-001 -1.749886e-001 -3.226637e-001 -1.506059e-001 -3.237042e-002 -6.013637e-002 -6.692029e-001
<VARIANCE> 39
 1.926338e+001 5.048830e+001 3.582269e+001 4.799953e+001 5.159483e+001 6.042913e+001 3.651480e+001 4.432302e+001 3.472942e+001 4.209201e+001 2.975722e+001 2.249394e+001 3.321435e+001 1.897567e+000 1.569628e+000 1.890800e+000 1.804456e+000 1.623640e+000 2.285673e+000 1.775396e+000 1.669034e+000 1.488995e+000 1.530380e+000 1.182861e+000 1.063452e+000 4.243881e+000 2.137882e-001 3.067855e-001 3.009676e-001 4.031495e-001 4.453906e-001 4.477741e-001 2.931587e-001 3.731751e-001 3.721378e-001 3.483463e-001 2.671393e-001 2.511484e-001 5.000279e-001
<GCONST> 1.118562e+002
<MIXTURE> 2 2.315702e-001
<MEAN> 39
 -9.106993e+000 -2.922082e+000 -2.091637e+000 -7.113784e+000 3.847291e+000 -2.734662e+000 2.264284e+000 -2.681351e+000 2.004519e+000 -7.977283e-001 6.671851e-001 -3.368235e+000 6.266895e+001 1.857535e+000 2.271332e-001 4.728708e-001 -3.286180e-001 4.976510e-001 7.132718e-001 -1.902508e-001 -2.921059e-001 -2.266978e-001 -1.192836e-001 -2.244090e-001 -1.477666e-001 1.549466e+000 1.956842e-001 -1.948030e-001 -5.289455e-002 6.305734e-002 -1.634821e-001 7.334532e-002 1.611792e-001 1.746787e-001 1.353337e-001 1.382839e-002 1.144002e-001 1.133521e-001 2.362904e-001
<VARIANCE> 39
 2.942450e+001 7.770939e+001 4.524026e+001 8.634148e+001 6.307858e+001 6.598288e+001 4.696203e+001 5.654364e+001 4.643629e+001 4.542852e+001 3.984885e+001 3.744200e+001 4.783279e+001 1.476160e+000 2.223295e+000 1.746527e+000 3.144324e+000 3.020659e+000 3.090643e+000 2.255779e+000 2.201780e+000 2.053457e+000 2.334058e+000 1.888601e+000 1.847495e+000 1.762320e+000 2.761574e-001 2.173006e-001 2.075944e-001 3.507169e-001 3.112136e-001 3.882728e-001 2.765374e-001 3.174587e-001 3.272220e-001 3.472291e-001 2.870533e-001 2.968859e-001 3.388766e-001
<GCONST> 1.171431e+002
<MIXTURE> 3 3.184978e-001
<MEAN> 39
 -1.548301e+001 -9.312161e+000 -7.217621e+000 -8.350113e+000 -3.294061e+000 -5.038494e+000 2.614737e+000 -3.375210e+000 3.181285e+000 -3.214301e+000 1.235536e+000 -4.105570e+000 6.190151e+001 2.629964e-001 6.858816e-001 -5.987549e-001 -8.068174e-001 8.588941e-002 -1.766401e-001 -9.205307e-002 -4.302689e-001 2.612306e-001 -1.793056e-002 -1.756088e-001 -3.536286e-001 2.589458e+000 3.603171e-001 5.122378e-001 3.339812e-001 1.449679e-001 2.494054e-001 8.122522e-002 -2.515058e-001 -1.144411e-001 -2.449486e-001 -5.679006e-002 -7.501121e-002 -2.800946e-002 -9.986225e-001
<VARIANCE> 39
 2.291392e+001 5.546801e+001 3.662846e+001 3.933436e+001 4.039552e+001 3.550708e+001 3.107472e+001 3.108673e+001 2.563301e+001 2.942068e+001 1.744605e+001 2.024063e+001 2.887722e+001 1.875939e+000 1.771345e+000 1.688397e+000 1.797203e+000 1.646721e+000 1.506421e+000 1.265371e+000 1.283715e+000 1.245043e+000 1.243503e+000 1.200976e+000 1.108526e+000 5.006547e+000 1.959362e-001 3.233358e-001 3.166791e-001 3.452002e-001 3.694066e-001 3.092561e-001 3.005653e-001 3.202372e-001 2.688597e-001 2.772903e-001 2.140149e-001 2.099336e-001 4.380496e-001
<GCONST> 1.061262e+002
<MIXTURE> 4 2.315702e-001
<MEAN> 39
 -1.127677e+001 -6.448200e+000 -4.782073e+000 -1.083059e+001 6.704096e-001 -5.983856e+000 -4.768703e-001 -5.689171e+000 -7.212487e-001 -3.493756e+000 -1.857853e+000 -5.815829e+000 5.990250e+001 1.371545e+000 -3.692955e-001 -5.575416e-002 -1.037908e+000 -1.975507e-001 1.006282e-002 -7.910208e-001 -8.856418e-001 -7.998934e-001 -7.303886e-001 -7.741145e-001 -6.914570e-001 1.018456e+000 -1.451856e-002 -3.812650e-001 -2.351447e-001 -1.738281e-001 -3.866282e-001 -1.759008e-001 -4.916810e-002 -5.069518e-002 -9.347961e-002 -2.218762e-001 -9.990922e-002 -1.045969e-001 3.437985e-003
<VARIANCE> 39
 2.942450e+001 7.770939e+001 4.524026e+001 8.634148e+001 6.307858e+001 6.598288e+001 4.696203e+001 5.654364e+001 4.643629e+001 4.542852e+001 3.984885e+001 3.744200e+001 4.783279e+001 1.476160e+000 2.223295e+000 1.746527e+000 3.144324e+000 3.020659e+000 3.090643e+000 2.255779e+000 2.201780e+000 2.053457e+000 2.334058e+000 1.888601e+000 1.847495e+000 1.762320e+000 2.761574e-001 2.173006e-001 2.075944e-001 3.507169e-001 3.112136e-001 3.882728e-001 2.765374e-001 3.174587e-001 3.272220e-001 3.472291e-001 2.870533e-001 2.968859e-001 3.388766e-001
<GCONST> 1.171431e+002
<TRANSP> 5
 0.000000e+000 1.000000e+000 0.000000e+000 0.000000e+000 0.000000e+000
 0.000000e+000 5.262378e-001 4.737622e-001 0.000000e+000 0.000000e+000
 0.000000e+000 0.000000e+000 3.956702e-001 6.043298e-001 0.000000e+000
 0.000000e+000 0.000000e+000 0.000000e+000 7.496865e-001 2.503135e-001
 0.000000e+000 0.000000e+000 0.000000e+000 0.000000e+000 0.000000e+000
<ENDHMM>
~h "l"
<BEGINHMM>
<NUMSTATES> 5
<STATE> 2
<NUMMIXES> 4
<MIXTURE> 1 2.529114e-001
<MEAN> 39
 4.876123e+000 -3.675251e+000 -2.118272e+001 -8.206307e+000 3.589570e+000 -9.435617e+000 -2.547593e+000 -3.638772e+000 5.336784e+000 1.977996e+000 -1.191075e+000 -5.193603e+000 6.475705e+001 2.704794e-001 5.095183e-001 -7.902138e-002 -4.469371e-002 8.168377e-003 1.385432e-001 -2.609998e-001 -5.945899e-001 2.808999e-002 3.348946e-001 2.583468e-001 1.234929e-001 -6.014238e-001 -1.569695e-001 -5.709158e-002 3.826104e-001 9.435592e-002 -1.841566e-001 4.097315e-002 1.588789e-001 1.142736e-001 -2.352511e-001 -1.755191e-001 9.755745e-002 7.257894e-002 -6.231475e-002
<VARIANCE> 39
 1.856670e+001 3.717054e+001 7.479606e+001 3.884538e+001 4.064134e+001 4.729957e+001 3.957488e+001 4.415507e+001 3.572373e+001 3.403921e+001 3.525077e+001 3.646206e+001 3.485297e+001 3.397003e-001 6.289893e-001 1.222841e+000 9.245459e-001 1.088601e+000 1.249246e+000 1.388609e+000 1.641484e+000 1.459754e+000 1.244973e+000 1.115844e+000 8.707612e-001 4.789572e-001 6.588533e-002 7.347990e-002 1.952612e-001 1.200880e-001 1.583045e-001 1.537974e-001 2.311987e-001 1.927411e-001 2.321207e-001 1.635462e-001 1.808295e-001 1.122276e-001 7.562707e-002
<GCONST> 9.291176e+001
<MIXTURE> 2 2.326681e-001
<MEAN> 39
 2.560170e+000 -4.856614e+000 -1.377701e+001 -3.427067e+000 -4.985655e-001 -9.964000e+000 1.238152e+000 -1.014624e+000 2.480922e+000 -2.607496e+000 1.762885e+000 -3.791053e+000 6.642467e+001 1.459479e+000 3.340970e-001 -1.375877e+000 4.899946e-001 8.950866e-001 -3.037024e-001 -2.536673e-001 7.413395e-001 8.936661e-001 3.988291e-001 -1.730367e-001 1.961861e-001 8.062924e-001 -3.245341e-001 -1.489215e-003 4.941307e-001 -4.172620e-002 5.905949e-002 4.702240e-001 2.889987e-001 9.364573e-002 1.059745e-001 1.953354e-001 4.347806e-002 1.199891e-001 9.205435e-002
<VARIANCE> 39
 2.090470e+001 5.348624e+001 7.126687e+001 4.127973e+001 6.044492e+001 5.323088e+001 7.576873e+001 6.928324e+001 4.365308e+001 5.444321e+001 3.857511e+001 3.586729e+001 4.563293e+001 1.760537e+000 2.231101e+000 2.642872e+000 2.345007e+000 2.934762e+000 2.538655e+000 3.288506e+000 3.233829e+000 2.594228e+000 2.237531e+000 1.967291e+000 1.487267e+000 2.783558e+000 2.477618e-001 3.110136e-001 3.915042e-001 3.978260e-001 4.681244e-001 3.978375e-001 5.791826e-001 6.191819e-001 4.473030e-001 4.386529e-001 3.124407e-001 2.280388e-001 2.977887e-001
<GCONST> 1.209623e+002
<MIXTURE> 3 2.817487e-001
<MEAN> 39
 4.546498e+000 -4.302282e+000 -2.376103e+001 -8.337171e+000 2.375708e+000 -6.409308e+000 -3.975375e+000 -5.274117e+000 3.115461e+000 2.908428e-001 2.051726e-001 -6.626115e+000 6.389008e+001 1.746973e-001 3.553655e-001 1.906181e-001 -5.472352e-002 -1.740786e-001 4.972551e-002 -2.741340e-001 -8.129653e-002 -1.258614e-001 1.885278e-001 3.077552e-003 9.936682e-002 -4.823999e-001 -2.438689e-001 -1.719158e-001 4.402590e-001 1.517509e-001 -1.367665e-001 -1.514920e-001 2.102166e-001 2.526120e-001 -1.039088e-001 -2.133688e-001 -5.860344e-002 9.676885e-002 1.211302e-002
<VARIANCE> 39
 1.169975e+001 4.601673e+001 4.571425e+001 4.469835e+001 3.451772e+001 4.461825e+001 4.544941e+001 5.522479e+001 3.150777e+001 5.237320e+001 3.849739e+001 3.653611e+001 3.292360e+001 3.619307e-001 6.954439e-001 1.270232e+000 1.006046e+000 8.946608e-001 1.273101e+000 1.168446e+000 1.576737e+000 1.145829e+000 1.116582e+000 1.048922e+000 8.002757e-001 6.307173e-001 8.239026e-002 1.269624e-001 2.145401e-001 1.415942e-001 1.789865e-001 1.708974e-001 2.587588e-001 3.047473e-001 2.541659e-001 2.417383e-001 1.862559e-001 1.614654e-001 1.338311e-001
<GCONST> 9.573842e+001
<MIXTURE> 4 2.326681e-001
<MEAN> 39
 7.313039e-001 -7.781985e+000 -1.715379e+001 -5.997039e+000 -3.608419e+000 -1.288238e+001 -2.243657e+000 -4.344086e+000 -1.618966e-001 -5.558922e+000 -7.214695e-001 -6.186625e+000 6.372259e+001 9.287385e-001 -2.633778e-001 -2.026153e+000 -1.225420e-001 2.098408e-001 -9.410287e-001 -9.790368e-001 2.202548e-002 2.494018e-001 -1.995060e-001 -7.340773e-001 -2.916281e-001 1.389325e-001 -5.236369e-001 -2.245636e-001 2.438495e-001 -2.940200e-001 -2.146190e-001 2.179266e-001 -1.541749e-002 -2.211067e-001 -1.615484e-001 -6.958811e-002 -1.801075e-001 -7.102454e-002 -1.262257e-001
<VARIANCE> 39
 2.090470e+001 5.348624e+001 7.126687e+001 4.127973e+001 6.044492e+001 5.323088e+001 7.576873e+001 6.928324e+001 4.365308e+001 5.444321e+001 3.857511e+001 3.586729e+001 4.563293e+001 1.760537e+000 2.231101e+000 2.642872e+000 2.345007e+000 2.934762e+000 2.538655e+000 3.288506e+000 3.233829e+000 2.594228e+000 2.237531e+000 1.967291e+000 1.487267e+000 2.783558e+000 2.477618e-001 3.110136e-001 3.915042e-001 3.978260e-001 4.681244e-001 3.978375e-001 5.791826e-001 6.191819e-001 4.473030e-001 4.386529e-001 3.124407e-001 2.280388e-001 2.977887e-001
<GCONST> 1.209623e+002
<STATE> 3
<NUMMIXES> 4
<MIXTURE> 1 2.743799e-001
<MEAN> 39
 3.362054e+000 -2.805791e+000 -1.525181e+001 -3.535047e+000 -3.739968e-001 -1.390967e+001 -3.027496e+000 -1.923677e+000 4.273630e+000 -1.259908e+000 -1.380882e+000 -2.446153e+000 6.274227e+001 -5.368326e-001 -7.737100e-001 2.376554e-001 2.246123e-001 -3.721150e-001 2.050113e-001 1.090627e+000 6.244922e-001 -5.880272e-001 -4.178787e-001 -1.605876e-001 3.902939e-001 6.188970e-001 -4.058732e-001 -1.835685e-001 4.491242e-001 -1.627234e-001 -1.499698e-001 3.832871e-001 4.417607e-001 -7.325959e-002 -3.828811e-001 -1.060694e-001 1.518545e-001 -6.285270e-002 8.522972e-002
<VARIANCE> 39
 2.082298e+001 3.522895e+001 8.731288e+001 4.554892e+001 6.201744e+001 8.023341e+001 6.806041e+001 5.340239e+001 5.717972e+001 4.185121e+001 3.986555e+001 3.651363e+001 4.736317e+001 6.213678e-001 2.324541e+000 4.140012e+000 2.098415e+000 3.259127e+000 3.389380e+000 3.196430e+000 3.191165e+000 2.200097e+000 2.044470e+000 1.699090e+000 1.230190e+000 2.472865e+000 1.513018e-001 1.359534e-001 3.316796e-001 3.197443e-001 3.690920e-001 3.997682e-001 3.751737e-001 3.477365e-001 3.856664e-001 2.820114e-001 2.534199e-001 1.811719e-001 1.318172e-001
<GCONST> 1.151918e+002
<MIXTURE> 2 2.185931e-001
<MEAN> 39
 1.510217e+000 -1.022110e+001 -1.827616e+001 -3.950523e+000 5.530626e-001 -1.166922e+001 2.515674e+000 5.834026e+000 2.677299e+000 -4.405115e+000 -2.614271e+000 -3.116476e+000 7.122410e+001 -6.694539e-001 -2.959394e-001 1.779252e+000 3.010454e-001 -8.938218e-001 3.547408e-001 2.162193e+000 1.041287e+000 -1.135699e+000 -1.200262e-001 4.259878e-001 5.266167e-001 1.014311e+000 -2.380611e-001 4.172279e-001 7.567963e-001 -1.921755e-001 -6.228670e-002 6.687126e-001 1.955090e-001 -6.175814e-001 -8.136196e-002 4.350692e-001 4.131428e-001 1.513701e-002 -2.686415e-001
