~o
<STREAMINFO> 1 39
<VECSIZE> 39<NULLD><MFCC_D_A_0><DIAGC>
~s "silst"
<MEAN> 39
 -8.842395e+000 -3.312228e+000 -2.054187e+000 -6.565715e+000 -2.095571e+000 -4.606791e+000 -1.086232e-001 -4.107624e+000 9.759988e-001 -2.499421e+000 8.831881e-001 -3.270979e+000 5.175661e+001 -3.416938e-001 7.556336e-002 1.020342e-001 5.046661e-001 2.860302e-001 1.334630e-001 2.855679e-002 8.874790e-002 -3.516636e-002 -8.369907e-002 6.446461e-002 5.507914e-002 -1.316433e+000 1.245893e-002 -5.271379e-002 -7.177553e-002 -1.797965e-002 2.175264e-002 -3.713015e-003 2.609877e-002 2.215880e-002 5.328448e-003 -5.429381e-003 -2.153198e-002 -1.654647e-002 1.277337e-001
<VARIANCE> 39
 4.865106e+001 4.621185e+001 4.600747e+001 5.739919e+001 5.339231e+001 4.605519e+001 4.920957e+001 4.477416e+001 4.244685e+001 4.203254e+001 3.425283e+001 3.033219e+001 9.278046e+001 1.356783e+000 1.496917e+000 1.427722e+000 2.089550e+000 1.818773e+000 1.621222e+000 1.639102e+000 1.615345e+000 1.628825e+000 1.497446e+000 1.284804e+000 1.086307e+000 4.855594e+000 1.683711e-001 1.806680e-001 2.016906e-001 2.302540e-001 2.383387e-001 2.500851e-001 2.745072e-001 2.676469e-001 2.762631e-001 2.475407e-001 2.138090e-001 1.838351e-001 2.880066e-001
<GCONST> 1.092469e+002
~h "zh"
<BEGINHMM>
<NUMSTATES> 5
<STATE> 2
<MEAN> 39
 -7.471640e+000 4.795321e+000 -4.201115e+000 -1.531438e+001 -4.544627e+000 -6.526567e+000 -2.984324e+000 -7.695210e+000 1.374770e+000 -5.342563e+000 -3.864813e+000 -6.571043e+000 6.587617e+001 -1.563825e+000 1.778825e+000 -5.771290e-001 1.138907e+000 8.631265e-001 -2.065468e-001 1.793425e-001 -4.322123e-001 5.912767e-001 1.436912e-002 5.551559e-001 7.804927e-001 -7.798769e-001 -3.203481e-001 -2.465459e-001 -2.645541e-001 3.554990e-001 1.362768e-001 5.950819e-002 3.339577e-001 1.679903e-001 -4.806648e-002 -3.042494e-002 6.116077e-002 4.503099e-002 -1.312999e-001
<VARIANCE> 39
 1.835957e+001 9.927570e+000 2.076573e+001 4.320356e+001 2.994178e+001 1.677354e+001 1.181137e+001 3.593705e+001 2.767575e+001 7.389913e+001 3.597125e+001 1.146141e+002 2.286458e+001 1.756293e+000 1.327937e+000 2.195027e+000 2.829451e+000 1.604737e+000 1.366679e+000 2.495342e+000 1.388812e+000 2.141765e+000 1.725394e+000 6.990938e-001 1.793290e+000 1.261796e+000 2.303741e-001 1.057326e-001 2.498754e-001 3.911552e-001 2.367644e-001 2.463518e-001 2.541052e-001 3.781274e-001 2.907796e-001 2.032030e-001 1.579956e-001 3.139600e-001 9.308870e-002
<GCONST> 1.020648e+002
<STATE> 3
<MEAN> 39
 -1.154944e+001 1.145210e+001 -1.144547e+001 -7.730463e+000 -3.640830e+000 -8.951405e+000 -3.162168e-001 -1.222865e+001 1.907572e+000 -7.080767e+000 -6.568205e+000 -8.617585e+000 5.982282e+001 -1.418685e+000 2.207490e-001 -7.161888e-001 7.419510e-001 5.963537e-001 2.153294e-001 5.081768e-001 3.026507e-001 1.408645e-001 -4.058793e-001 1.299849e-001 -2.103426e-001 -7.650145e-001 1.463047e-001 -5.093331e-001 1.282604e-001 -3.443828e-001 6.193161e-002 -4.559598e-003 -9.550282e-002 2.091349e-001 -8.125811e-002 -1.030013e-001 -1.567191e-002 -1.304420e-001 1.392325e-001
<VARIANCE> 39
 3.117490e+001 2.041669e+001 7.048495e+001 2.651407e+001 2.291114e+001 2.573890e+001 1.010945e+001 4.638282e+001 1.403075e+001 1.034039e+002 4.793913e+001 1.171795e+002 1.919778e+001 3.401707e+000 1.315451e+000 1.486387e+000 2.090699e+000 1.797267e+000 9.045951e-001 1.336784e+000 1.230876e+000 1.249802e+000 9.323643e-001 1.060694e+000 8.577799e-001 7.147162e-001 2.065744e-001 1.825414e-001 1.939767e-001 4.161494e-001 2.048596e-001 1.727306e-001 1.178256e-001 2.960122e-001 1.776880e-001 1.980218e-001 1.121519e-001 2.607566e-001 2.317974e-001
<GCONST> 9.957047e+001
<STATE> 4
<MEAN> 39
 -2.066440e+001 3.872253e+000 -9.845433e+000 -6.888530e+000 7.194101e-001 -4.722054e+000 8.954641e-001 -5.024176e+000 2.149932e+000 -3.045289e+000 4.219461e-001 -1.390761e+000 6.053049e+001 5.412858e-001 -5.183620e-001 2.461470e-001 -5.821078e-001 -2.579158e-001 -2.522716e-001 3.592115e-002 -1.443212e-001 -1.200956e-001 -1.396913e-002 -6.493499e-002 -3.849325e-001 2.405803e-001 5.174361e-001 -6.716591e-002 2.411243e-001 -1.692165e-001 -2.442901e-001 -6.283689e-002 -1.387191e-001 -9.327709e-002 -7.606218e-003 5.215906e-002 -9.130255e-002 -3.295657e-002 1.587411e-001
<VARIANCE> 39
 4.286573e+001 2.271478e+001 3.570547e+001 2.600592e+001 1.972568e+001 2.310375e+001 4.113924e+001 4.498571e+001 1.514721e+001 2.834217e+001 3.877433e+001 4.108376e+001 2.332747e+001 3.934322e+000 9.378003e-001 1.766116e+000 1.925182e+000 1.774395e+000 7.950096e-001 1.267816e+000 2.068378e+000 7.933211e-001 1.014843e+000 1.064747e+000 1.320728e+000 1.221108e+000 3.281878e-001 1.646459e-001 1.366383e-001 2.420536e-001 2.617135e-001 1.481466e-001 2.267440e-001 3.195427e-001 1.340543e-001 1.948178e-001 2.286665e-001 2.085078e-001 1.350879e-001
<GCONST> 9.889135e+001
<TRANSP> 5
 0.000000e+000 1.000000e+000 0.000000e+000 0.000000e+000 0.000000e+000
 0.000000e+000 6.010811e-001 3.989190e-001 0.000000e+000 0.000000e+000
 0.000000e+000 0.000000e+000 7.284874e-001 2.715126e-001 0.000000e+000
 0.000000e+000 0.000000e+000 0.000000e+000 8.349913e-001 1.650087e-001
 0.000000e+000 0.000000e+000 0.000000e+000 0.000000e+000 0.000000e+000
<ENDHMM>
~h "b"
<BEGINHMM>
<NUMSTATES> 5
<STATE> 2
<MEAN> 39
 1.183995e-001 2.173126e+000 1.653806e+000 -2.428011e-001 2.263004e+000 -6.149432e+000 -3.584132e+000 -4.868197e+000 -4.775522e-001 -4.233853e+000 6.176034e-001 -4.011980e+000 4.506474e+001 -5.685188e-001 1.887423e-001 1.394340e-001 1.534126e-001 1.324055e-001 3.407997e-001 1.479647e-001 -1.337143e-001 1.837134e-001 2.399648e-002 -4.702438e-002 1.387137e-001 -3.012629e-001 -2.041933e-001 -5.023380e-001 -4.579449e-001 -4.883583e-001 -3.772215e-001 -1.091098e-001 1.600331e-001 8.474942e-002 1.395492e-001 9.910847e-002 1.112696e-002 1.837918e-002 1.135425e+000
<VARIANCE> 39
 4.572927e+001 3.466179e+001 4.546216e+001 3.374380e+001 4.913190e+001 4.419823e+001 4.746155e+001 4.560688e+001 3.642986e+001 3.779187e+001 3.685275e+001 2.646255e+001 6.776218e+001 2.220246e+000 1.980539e+000 2.276082e+000 2.264482e+000 1.942306e+000 1.917524e+000 2.259293e+000 2.306683e+000 1.564746e+000 1.820130e+000 1.544418e+000 1.154517e+000 5.342645e+000 3.162142e-001 3.832048e-001 4.827472e-001 5.615507e-001 3.982170e-001 3.897896e-001 4.373639e-001 4.791955e-001 3.228045e-001 3.213381e-001 2.640021e-001 2.369380e-001 8.702676e-001
<GCONST> 1.174398e+002
<STATE> 3
<MEAN> 39
 -5.459469e+000 5.008521e-001 9.816937e-001 -2.154975e-001 2.035328e+000 -3.746362e+000 -1.258380e+000 -3.923736e+000 2.262232e-001 -3.918716e+000 5.402809e-001 -3.298541e+000 4.406306e+001 -2.978341e-001 -1.460249e+000 -1.450985e+000 -1.443309e+000 -1.073647e+000 -4.782098e-001 2.865195e-001 2.502522e-001 5.996785e-001 3.739614e-001 -1.524568e-002 2.258108e-002 3.351132e+000 5.008194e-001 -3.776582e-001 -5.356622e-001 -4.119093e-001 -2.834225e-001 -3.656173e-001 -9.382670e-002 3.729187e-002 1.409985e-001 3.829210e-002 -2.615998e-002 -9.267186e-002 1.189814e+000
<VARIANCE> 39
 4.412775e+001 2.887646e+001 3.071143e+001 2.936200e+001 3.113720e+001 3.088393e+001 3.691048e+001 3.249048e+001 2.696339e+001 3.211958e+001 2.704604e+001 2.300885e+001 7.430383e+001 2.660268e+000 1.662429e+000 2.943186e+000 2.227283e+000 1.827047e+000 1.852172e+000 2.606722e+000 2.406241e+000 1.940100e+000 1.681230e+000 1.718378e+000 1.276046e+000 4.238883e+000 3.256686e-001 3.611212e-001 4.525031e-001 3.768674e-001 3.457241e-001 2.934709e-001 3.729026e-001 4.334964e-001 3.205731e-001 2.995209e-001 2.844543e-001 2.224109e-001 5.473889e-001
<GCONST> 1.132033e+002
<STATE> 4
<MEAN> 39
 -3.715782e+000 -5.765221e+000 -6.993774e+000 -7.925329e+000 -1.657430e+000 -7.976296e+000 -7.822590e-002 -2.906861e+000 2.880738e+000 -2.729740e+000 5.589424e-001 -4.430181e+000 6.205464e+001 1.071737e+000 -1.566181e+000 -2.245757e+000 -1.506546e+000 -6.584085e-001 -8.479351e-001 1.199567e-001 1.874463e-001 5.232834e-001 8.817104e-002 -2.557541e-001 -1.795942e-001 4.365509e+000 1.959353e-001 1.612318e-001 2.071657e-001 2.963318e-001 1.762193e-001 1.350887e-001 -7.609371e-002 -9.695074e-002 -1.298188e-001 -1.291018e-001 -2.225092e-002 6.994221e-002 -5.578038e-001
<VARIANCE> 39
 4.663644e+001 2.968865e+001 9.544472e+001 4.034060e+001 5.250026e+001 3.595958e+001 5.204116e+001 4.990479e+001 3.604762e+001 3.415747e+001 3.610274e+001 3.347446e+001 6.853086e+001 2.883105e+000 2.888848e+000 4.367756e+000 3.465168e+000 3.768233e+000 2.411482e+000 3.517113e+000 3.368771e+000 2.903406e+000 2.220351e+000 2.098711e+000 1.969355e+000 3.732611e+000 3.826576e-001 2.221504e-001 4.201004e-001 3.197423e-001 3.417284e-001 2.819043e-001 3.418530e-001 3.350684e-001 3.114913e-001 2.698401e-001 3.133037e-001 2.342111e-001 5.273101e-001
<GCONST> 1.204197e+002
<TRANSP> 5
 0.000000e+000 1.000000e+000 0.000000e+000 0.000000e+000 0.000000e+000
 0.000000e+000 4.485185e-001 5.514815e-001 0.000000e+000 0.000000e+000
 0.000000e+000 0.000000e+000 5.020669e-001 4.979331e-001 0.000000e+000
 0.000000e+000 0.000000e+000 0.000000e+000 5.366634e-001 4.633366e-001
 0.000000e+000 0.000000e+000 0.000000e+000 0.000000e+000 0.000000e+000
<ENDHMM>
~h "d"
<BEGINHMM>
<NUMSTATES> 5
<STATE> 2
<MEAN> 39
 -3.821946e+000 3.839513e+000 3.137110e+000 -2.778523e+000 -1.214631e+000 -5.238037e+000 -6.285832e-001 -4.822217e+000 -1.560292e+000 -3.422520e+000 -1.551745e+000 -3.893594e+000 4.590451e+001 -9.185342e-001 -3.362356e-001 -5.855261e-001 4.133033e-002 5.772995e-003 2.414631e-001 7.650655e-002 1.362308e-001 2.198632e-001 -7.690415e-003 1.304163e-001 8.811234e-002 4.917443e-001 -1.372246e-001 -3.516377e-001 -3.924140e-001 -6.472002e-001 -2.989439e-001 -1.201296e-001 5.901707e-002 4.340098e-003 2.405368e-001 1.091861e-001 5.721938e-002 2.336920e-002 1.118394e+000
<VARIANCE> 39
 4.746665e+001 4.051744e+001 3.489406e+001 5.104216e+001 3.992318e+001 4.123261e+001 4.417900e+001 3.628932e+001 4.412644e+001 4.083164e+001 3.845281e+001 3.401870e+001 8.213654e+001 1.745893e+000 2.329290e+000 2.734645e+000 3.941092e+000 2.712400e+000 2.363067e+000 2.106484e+000 1.816453e+000 2.228320e+000 2.035134e+000 1.773404e+000 1.531144e+000 7.536628e+000 2.757518e-001 2.878261e-001 3.753503e-001 5.717031e-001 3.856854e-001 3.745270e-001 3.472125e-001 3.150939e-001 3.769538e-001 3.816877e-001 3.314542e-001 3.084638e-001 9.561320e-001
<GCONST> 1.196174e+002
<STATE> 3
<MEAN> 39
 -1.184647e+001 -2.603620e+000 -4.345726e+000 -5.988413e+000 -1.723037e+000 -4.231642e+000 -3.751469e-001 -3.702137e+000 1.631523e+000 -3.134187e+000 7.181758e-001 -2.509021e+000 5.519647e+001 -2.402721e-001 -6.456056e-001 -1.050829e+000 -2.099031e+000 -1.220077e+000 -3.103040e-001 2.921941e-001 -8.790885e-002 7.380230e-001 4.323694e-001 -3.334808e-002 -3.240646e-002 3.876928e+000 5.651148e-001 7.399931e-002 2.566428e-001 -3.396509e-001 -2.219209e-001 -1.687492e-001 1.613588e-001 -8.970290e-002 -5.289282e-002 3.165236e-002 -1.622661e-001 -1.801433e-001 2.707327e-001
<VARIANCE> 39
 3.753394e+001 3.359637e+001 4.069595e+001 4.443674e+001 3.682136e+001 3.753311e+001 3.367585e+001 3.699996e+001 3.688309e+001 3.704931e+001 2.973880e+001 2.846837e+001 1.096933e+002 2.389701e+000 2.007039e+000 2.209291e+000 2.589305e+000 2.398309e+000 2.301505e+000 2.609643e+000 1.994230e+000 2.079662e+000 2.553806e+000 2.046538e+000 1.783850e+000 6.524751e+000 2.195562e-001 2.763895e-001 3.135754e-001 4.552580e-001 3.382095e-001 3.879508e-001 3.562083e-001 3.752937e-001 3.693296e-001 3.995328e-001 3.096150e-001 3.001130e-001 6.173154e-001
<GCONST> 1.172811e+002
<STATE> 4
<MEAN> 39
 -7.057216e+000 -3.306500e+000 -4.300644e+000 -1.345742e+001 -7.426435e+000 -5.358628e+000 3.096926e+000 -5.490697e+000 2.482459e+000 -1.483411e+000 -2.091803e+000 -4.596624e+000 6.520020e+001 6.846360e-001 -8.473412e-001 -3.427245e-001 -1.201166e+000 -5.951456e-001 -5.929649e-002 7.536638e-001 1.766455e-002 -1.181748e-001 -2.123606e-002 -2.456229e-001 -4.189859e-001 2.282421e+000 1.061198e-001 3.389614e-002 1.808977e-001 5.621942e-001 4.223008e-001 3.081571e-002 -1.841341e-001 1.402976e-001 -2.547510e-001 -2.236647e-001 1.103216e-001 3.324086e-002 -8.191312e-001
<VARIANCE> 39
 2.908392e+001 4.226023e+001 3.885112e+001 6.051017e+001 6.190731e+001 4.862802e+001 5.708651e+001 5.442599e+001 5.316722e+001 8.552217e+001 5.276487e+001 4.769731e+001 8.812827e+001 1.991839e+000 2.423044e+000 1.913661e+000 4.169199e+000 2.874921e+000 2.801327e+000 2.922495e+000 3.013913e+000 2.974606e+000 3.298157e+000 2.525084e+000 1.998889e+000 5.462001e+000 2.628848e-001 2.356964e-001 2.739043e-001 4.481761e-001 4.339476e-001 3.832079e-001 4.327749e-001 3.796517e-001 4.325099e-001 6.584221e-001 4.087920e-001 3.297144e-001 4.402153e-001
<GCONST> 1.242901e+002
<TRANSP> 5
 0.000000e+000 1.000000e+000 0.000000e+000 0.000000e+000 0.000000e+000
 0.000000e+000 5.731841e-001 4.268159e-001 0.000000e+000 0.000000e+000
 0.000000e+000 0.000000e+000 4.121158e-001 5.878842e-001 0.000000e+000
 0.000000e+000 0.000000e+000 0.000000e+000 5.361416e-001 4.638584e-001
 0.000000e+000 0.000000e+000 0.000000e+000 0.000000e+000 0.000000e+000
<ENDHMM>
~h "f"
<BEGINHMM>
<NUMSTATES> 5
<STATE> 2
<MEAN> 39
 -1.432494e+001 -5.887476e+000 -3.177015e+000 -4.938330e+000 -8.535318e-001 -3.619335e+000 1.141522e+000 -3.405333e+000 1.305526e+000 -3.163088e+000 1.988182e+000 -3.493945e+000 5.477627e+001 -1.746350e+000 -3.961899e-001 -7.479562e-002 2.135871e-001 -1.181692e-001 1.050308e-001 1.705714e-001 1.964505e-001 2.717823e-001 -1.821247e-001 3.818904e-002 1.173423e-001 -6.716903e-001 4.603947e-001 -5.007890e-002 -1.336109e-001 -1.690610e-001 -5.343483e-002 -1.572195e-001 -6.919564e-002 -1.948323e-002 -1.796684e-003 1.052462e-002 -1.217411e-001 -5.550321e-002 3.148018e-001
<VARIANCE> 39
 3.399609e+001 2.095236e+001 2.861687e+001 2.518525e+001 2.777269e+001 2.991244e+001 2.654727e+001 2.895098e+001 3.246113e+001 2.777902e+001 2.292719e+001 2.129659e+001 6.039453e+001 3.679590e+000 1.575599e+000 1.712602e+000 1.228148e+000 1.731607e+000 1.555214e+000 1.494400e+000 1.746469e+000 1.673022e+000 1.698593e+000 1.272572e+000 1.210641e+000 2.179557e+000 3.230670e-001 2.350267e-001 2.241764e-001 2.282888e-001 2.188423e-001 2.804094e-001 2.665761e-001 2.319939e-001 2.908020e-001 2.774819e-001 1.963225e-001 1.942103e-001 2.494607e-001
<GCONST> 1.036988e+002
<STATE> 3
<MEAN> 39
 -1.841851e+001 -8.845260e+000 -5.520757e+000 -6.288582e+000 -2.317220e+000 -4.592695e+000 1.268728e+000 -3.350134e+000 1.923833e+000 -2.983134e+000 1.994367e+000 -3.480968e+000 5.611974e+001 6.389930e-001 -8.526674e-002 -8.745755e-002 -2.884424e-002 -5.520983e-002 -1.713839e-001 -7.684016e-002 -8.901696e-003 9.998594e-002 -3.390180e-002 -1.350139e-001 1.723948e-002 3.325271e-001 7.438405e-001 8.904535e-002 -4.612985e-002 -3.921997e-002 -1.175373e-002 -4.984810e-002 -6.173299e-002 -4.781095e-002 1.617647e-002 -2.299122e-002 -7.345913e-002 -6.076391e-002 2.983615e-001
<VARIANCE> 39
 1.828908e+001 1.478902e+001 2.007964e+001 2.012504e+001 2.291355e+001 2.256392e+001 2.160792e+001 2.411229e+001 2.512402e+001 2.531394e+001 2.127373e+001 1.968051e+001 4.162202e+001 2.669776e+000 6.938534e-001 8.166388e-001 8.794501e-001 9.522904e-001 9.695961e-001 9.770225e-001 1.060135e+000 1.253697e+000 1.168054e+000 8.949214e-001 7.933094e-001 1.223721e+000 2.348079e-001 1.585990e-001 2.112231e-001 1.918220e-001 2.112621e-001 1.921291e-001 2.069824e-001 2.394331e-001 2.389507e-001 2.453664e-001 2.006527e-001 1.701560e-001 2.077839e-001
<GCONST> 9.199526e+001
<STATE> 4
<MEAN> 39
 -8.154514e+000 -6.195663e+000 -5.022194e+000 -5.666736e+000 -7.699552e-001 -5.327548e+000 4.186180e-002 -2.802977e+000 2.056341e+000 -3.538856e+000 2.047117e-001 -4.040405e+000 5.696561e+001 3.266754e+000 -3.799859e-001 -9.796278e-001 -5.106900e-001 -2.721153e-001 -5.403932e-001 -3.461785e-001 -1.409710e-001 5.869708e-001 -2.513964e-001 -5.312561e-001 -3.590382e-001 1.943482e+000 3.360933e-002 -1.915780e-001 -1.338294e-001 -1.089643e-001 -1.472306e-001 -1.423769e-002 5.138803e-002 -2.247376e-002 9.361895e-002 -5.005818e-002 -3.174712e-003 -1.919090e-002 2.534994e-001
<VARIANCE> 39
 8.028381e+001 2.916807e+001 5.270688e+001 3.610923e+001 4.202570e+001 3.379898e+001 3.835097e+001 3.921566e+001 4.082721e+001 3.855671e+001 2.930936e+001 2.624743e+001 5.644745e+001 2.863476e+000 2.388206e+000 3.119537e+000 2.550052e+000 3.195202e+000 2.401389e+000 2.531138e+000 2.442346e+000 2.750313e+000 2.799067e+000 1.948035e+000 1.494201e+000 2.798334e+000 5.193910e-001 1.895630e-001 2.846083e-001 2.305839e-001 2.811927e-001 2.755597e-001 3.135905e-001 3.326320e-001 2.893883e-001 2.735671e-001 2.475523e-001 2.199370e-001 2.442671e-001
<GCONST> 1.148799e+002
<TRANSP> 5
 0.000000e+000 1.000000e+000 0.000000e+000 0.000000e+000 0.000000e+000
 0.000000e+000 4.945198e-001 5.054802e-001 0.000000e+000 0.000000e+000
 0.000000e+000 0.000000e+000 7.171609e-001 2.828391e-001 0.000000e+000
 0.000000e+000 0.000000e+000 0.000000e+000 5.778004e-001 4.221996e-001
 0.000000e+000 0.000000e+000 0.000000e+000 0.000000e+000 0.000000e+000
<ENDHMM>
~h "g"
<BEGINHMM>
<NUMSTATES> 5
<STATE> 2
<MEAN> 39
 -3.681950e+000 6.410297e-001 1.981635e+000 -1.261264e+001 -1.056856e+000 -6.391778e+000 -5.092378e+000 -2.765682e+000 -5.969880e-001 -3.338516e+000 9.752139e-001 -4.295443e+000 5.377245e+001 -4.896127e-001 -6.866419e-002 5.458128e-001 1.583943e+000 -2.990737e-001 5.061148e-002 -1.112742e-002 -2.297373e-001 -2.112035e-001 -7.293399e-002 6.235947e-002 1.518875e-001 -1.951576e+000 -3.111301e-001 -6.711906e-001 -4.475893e-001 2.610595e-001 -1.188710e-001 7.289463e-002 4.425814e-001 -4.634105e-002 9.002978e-002 -1.303969e-002 -3.168621e-002 3.490254e-002 5.551972e-001
<VARIANCE> 39
 2.897007e+001 3.700399e+001 4.782848e+001 8.150790e+001 5.916212e+001 6.708989e+001 6.483705e+001 4.689956e+001 5.105320e+001 4.156223e+001 3.264730e+001 2.967408e+001 1.015748e+002 1.966172e+000 3.833402e+000 3.378109e+000 4.216285e+000 2.941820e+000 3.424898e+000 3.454162e+000 2.482370e+000 2.176406e+000 1.965801e+000 1.611659e+000 1.151199e+000 7.142659e+000 2.441983e-001 5.427355e-001 4.856901e-001 8.359801e-001 4.449615e-001 4.974263e-001 5.131786e-001 4.487585e-001 4.484686e-001 3.734941e-001 2.958277e-001 2.246605e-001 1.509483e+000
<GCONST> 1.255738e+002
<STATE> 3
<MEAN> 39
 -9.065076e+000 -3.113999e+000 1.386216e+000 -2.025506e+000 -1.468111e+000 -4.222249e+000 -1.935879e+000 -4.551772e+000 -1.510008e+000 -4.366891e+000 4.072596e-001 -3.585352e+000 4.549159e+001 -1.026712e+000 -2.755811e+000 -1.566864e+000 6.407732e-001 -7.035065e-001 -1.463629e-001 1.270291e+000 1.719449e-001 4.932870e-001 9.955329e-002 1.154464e-001 1.033096e-001 2.268297e+000 4.327163e-001 -4.314936e-002 -2.720325e-001 -7.808486e-001 -2.622523e-001 -2.379205e-001 -2.552523e-002 6.655868e-002 2.525673e-001 1.355822e-001 5.617725e-002 -5.618490e-002 1.313464e+000
<VARIANCE> 39
 4.114526e+001 6.008465e+001 4.016379e+001 3.490649e+001 3.283583e+001 3.851835e+001 3.458272e+001 3.822498e+001 3.451989e+001 2.519556e+001 2.483655e+001 1.997771e+001 8.111341e+001 2.583173e+000 2.732308e+000 2.825629e+000 4.591741e+000 3.283713e+000 3.952881e+000 2.779938e+000 2.772159e+000 2.072751e+000 2.330195e+000 1.540559e+000 1.305337e+000 3.903074e+000 3.167611e-001 5.463684e-001 4.849056e-001 4.055509e-001 4.741145e-001 4.265395e-001 4.594900e-001 4.045939e-001 3.154342e-001 3.082083e-001 2.829472e-001 2.026287e-001 6.890762e-001
<GCONST> 1.189707e+002
<STATE> 4
<MEAN> 39
 -9.954555e+000 -1.139248e+001 -4.093619e+000 -6.083077e+000 -4.819923e+000 -6.763687e+000 1.449119e+000 -3.413268e+000 1.776432e+000 -2.769745e+000 1.756490e+000 -3.349120e+000 6.004451e+001 1.004150e+000 -3.018270e-001 -7.717162e-001 -8.791963e-001 -9.410695e-001 -4.725942e-001 2.779306e-001 -6.788278e-002 7.464947e-001 4.707742e-002 4.155711e-002 -1.606109e-001 2.878183e+000 5.215015e-001 6.804991e-001 2.704706e-001 -2.223419e-001 3.085316e-002 5.860713e-002 -3.450022e-001 -1.201511e-001 -5.918364e-002 -1.004347e-001 -4.562470e-002 -8.249488e-002 -2.919845e-001
<VARIANCE> 39
 3.555917e+001 6.645895e+001 4.433041e+001 6.333171e+001 4.401151e+001 4.864547e+001 3.548863e+001 3.781597e+001 2.765660e+001 2.773363e+001 2.523720e+001 2.099374e+001 3.676693e+001 2.991601e+000 3.686290e+000 3.107817e+000 2.868822e+000 2.798266e+000 2.904037e+000 2.803365e+000 2.413099e+000 1.887456e+000 1.738569e+000 1.871176e+000 1.458306e+000 3.643451e+000 3.734169e-001 6.698948e-001 3.976056e-001 5.576081e-001 4.223275e-001 5.569372e-001 4.879633e-001 5.202006e-001 3.011868e-001 3.716741e-001 3.231871e-001 2.437016e-001 4.312780e-001
<GCONST> 1.195733e+002
<TRANSP> 5
 0.000000e+000 1.000000e+000 0.000000e+000 0.000000e+000 0.000000e+000
 0.000000e+000 6.394114e-001 3.605885e-001 0.000000e+000 0.000000e+000
 0.000000e+000 0.000000e+000 4.441925e-001 5.558076e-001 0.000000e+000
 0.000000e+000 0.000000e+000 0.000000e+000 6.517866e-001 3.482134e-001
 0.000000e+000 0.000000e+000 0.000000e+000 0.000000e+000 0.000000e+000
<ENDHMM>
~h "k"
<BEGINHMM>
<NUMSTATES> 5
<STATE> 2
<MEAN> 39
 -9.534399e+000 -3.695169e+000 5.433403e-002 -6.829673e+000 -2.177164e+000 -3.494493e+000 -1.385818e+000 -2.625689e+000 4.682743e-002 -3.007029e+000 6.195499e-001 -3.864653e+000 4.882272e+001 -8.311775e-001 -6.546122e-001 -1.735963e-001 7.602830e-001 3.248391e-002 -1.417789e-001 5.145757e-001 1.744207e-001 8.693373e-002 6.867667e-002 1.846956e-001 2.275123e-001 -1.087543e+000 -7.896044e-003 -2.274272e-001 -3.595071e-001 -2.161527e-001 -1.032395e-001 -1.205788e-001 1.350369e-001 -4.624946e-002 1.008291e-001 8.168317e-002 -2.345476e-002 -1.170286e-002 9.584933e-001
<VARIANCE> 39
 5.369228e+001 6.152946e+001 4.230111e+001 7.551585e+001 6.484872e+001 6.893659e+001 6.640267e+001 4.853683e+001 4.090096e+001 3.757702e+001 3.314103e+001 2.713981e+001 1.742004e+002 2.457518e+000 3.726734e+000 2.985397e+000 3.582245e+000 3.659015e+000 2.770026e+000 3.232007e+000 2.476897e+000 2.175488e+000 1.760787e+000 1.734044e+000 1.372002e+000 1.123910e+001 3.796441e-001 5.447279e-001 3.593947e-001 7.519071e-001 6.198474e-001 5.119003e-001 5.158084e-001 4.113312e-001 3.754237e-001 3.566127e-001 3.112579e-001 2.514091e-001 2.114701e+000
<GCONST> 1.278492e+002
<STATE> 3
<MEAN> 39
 -1.428899e+001 -6.639449e+000 -2.318977e+000 -3.108832e+000 -1.480483e+000 -3.194141e+000 1.159230e+000 -2.194930e+000 7.747203e-001 -2.349058e+000 1.256176e+000 -2.543874e+000 4.541990e+001 -2.917458e-001 -1.248926e+000 -1.226555e+000 -7.587692e-001 -4.141110e-001 -4.939422e-001 5.352533e-001 9.869380e-002 4.646011e-001 2.445797e-001 -1.011180e-002 1.454830e-002 3.541743e+000 4.181008e-001 3.152794e-001 -2.852826e-002 -4.568654e-001 -1.033123e-001 -7.176020e-002 -1.840328e-001 -1.041557e-001 3.740020e-002 -1.020157e-002 -7.512350e-002 -1.538972e-001 9.535215e-001
<VARIANCE> 39
 3.042865e+001 5.157407e+001 3.091261e+001 4.465962e+001 4.141329e+001 3.443497e+001 2.684162e+001 3.201077e+001 2.598386e+001 2.457183e+001 2.053702e+001 1.821471e+001 1.347232e+002 2.063215e+000 2.591187e+000 2.098450e+000 2.423331e+000 2.467437e+000 2.237307e+000 2.195515e+000 2.014492e+000 2.118728e+000 1.568210e+000 1.338768e+000 1.119540e+000 5.489663e+000 2.505348e-001 3.849412e-001 2.823251e-001 4.237241e-001 4.086013e-001 3.578922e-001 3.350742e-001 3.246588e-001 2.735679e-001 2.658052e-001 2.576037e-001 1.926509e-001 1.096276e+000
<GCONST> 1.132419e+002
<STATE> 4
<MEAN> 39
 -1.314907e+001 -7.671911e+000 -5.825983e+000 -8.175744e+000 -1.216206e+000 -5.685118e+000 2.145122e+000 -2.981799e+000 2.424127e+000 -2.053143e+000 7.085294e-001 -3.706378e+000 6.106404e+001 8.699479e-001 2.858318e-001 -2.130885e-001 -7.941213e-001 4.507507e-002 6.981039e-003 -2.339371e-001 -2.944441e-001 3.804992e-002 -2.684585e-002 -2.071719e-001 -2.982748e-001 1.977440e+000 2.688226e-001 1.956909e-001 1.848562e-001 3.149420e-002 1.983704e-002 1.233930e-001 -1.632595e-001 -7.224302e-002 -1.347618e-001 -8.088128e-002 -3.680095e-002 -4.463122e-002 -4.806764e-001
<VARIANCE> 39
 3.145504e+001 7.467445e+001 4.312420e+001 6.260981e+001 5.909175e+001 5.428987e+001 3.924266e+001 4.626574e+001 3.699806e+001 3.770846e+001 2.784091e+001 2.629529e+001 4.138861e+001 2.191139e+000 2.191325e+000 2.134420e+000 2.450455e+000 2.517215e+000 2.532064e+000 1.956582e+000 1.950873e+000 1.871291e+000 1.666567e+000 1.509257e+000 1.346713e+000 4.567799e+000 2.372497e-001 4.625852e-001 3.225065e-001 3.734437e-001 4.184831e-001 3.976584e-001 3.363548e-001 3.411716e-001 3.275808e-001 2.831399e-001 2.461641e-001 2.493747e-001 6.707894e-001
<GCONST> 1.164058e+002
<TRANSP> 5
 0.000000e+000 1.000000e+000 0.000000e+000 0.000000e+000 0.000000e+000
 0.000000e+000 5.302302e-001 4.697698e-001 0.000000e+000 0.000000e+000
 0.000000e+000 0.000000e+000 3.755918e-001 6.244082e-001 0.000000e+000
 0.000000e+000 0.000000e+000 0.000000e+000 7.334489e-001 2.665511e-001
 0.000000e+000 0.000000e+000 0.000000e+000 0.000000e+000 0.000000e+000
<ENDHMM>
~h "l"
<BEGINHMM>
<NUMSTATES> 5
<STATE> 2
<MEAN> 39
 3.046586e+000 -5.621865e+000 -1.799449e+001 -5.963109e+000 1.073432e+000 -1.058868e+001 -1.953475e+000 -3.135105e+000 3.015945e+000 -1.813099e+000 -7.887627e-001 -5.230731e+000 6.538646e+001 5.681306e-001 1.273447e-001 -8.106146e-001 1.243375e-001 2.342097e-001 -3.360239e-001 -3.403601e-001 2.220729e-001 2.638729e-001 6.369903e-002 -2.334864e-001 5.550054e-002 6.171256e-002 -2.971253e-001 -8.266816e-002 3.996071e-001 -3.633735e-002 -1.688061e-001 1.720143e-001 2.038392e-001 3.400957e-002 -1.485830e-001 -5.040359e-002 2.635631e-002 5.703478e-002 -4.480800e-002
<VARIANCE> 39
 2.293214e+001 5.202317e+001 7.924747e+001 4.281525e+001 5.676661e+001 5.445058e+001 6.996407e+001 7.252914e+001 4.692490e+001 5.766328e+001 4.507281e+001 4.146039e+001 4.486484e+001 1.302658e+000 1.591255e+000 2.848974e+000 1.683405e+000 2.128799e+000 2.123875e+000 2.676404e+000 3.145060e+000 2.162903e+000 1.983778e+000 1.657477e+000 1.267424e+000 2.001649e+000 1.856783e-001 2.015849e-001 3.308372e-001 2.665913e-001 3.166888e-001 3.085578e-001 4.509647e-001 4.725421e-001 4.010371e-001 3.351324e-001 2.785878e-001 1.955737e-001 2.115294e-001
<GCONST> 1.154722e+002
<STATE> 3
<MEAN> 39
 2.052864e+000 -7.731971e+000 -1.697229e+001 -4.066060e+000 -1.601067e+000 -1.250345e+001 3.295680e-001 9.245108e-001 1.538463e+000 -4.403122e+000 -1.540439e+000 -3.711536e+000 6.603087e+001 -8.093109e-001 -2.127699e-001 1.654241e+000 -2.190545e-001 -1.051656e+000 4.821164e-001 1.176501e+000 -3.742984e-002 -1.076624e+000 -1.386504e-002 3.212201e-001 1.339453e-001 9.043678e-002 -3.665627e-001 1.667925e-001 4.914132e-001 -2.911341e-001 -4.799497e-002 4.331728e-001 2.364237e-002 -4.430102e-001 -2.659930e-002 1.665226e-001 9.975795e-002 -9.348653e-002 -1.453528e-001
<VARIANCE> 39
 1.910692e+001 4.065652e+001 5.186258e+001 3.350564e+001 5.442527e+001 6.726258e+001 7.675455e+001 6.761466e+001 4.558327e+001 5.118626e+001 3.940808e+001 3.865857e+001 5.047636e+001 9.462989e-001 2.001613e+000 2.799964e+000 1.791633e+000 2.647139e+000 2.410912e+000 3.829058e+000 2.870209e+000 2.275256e+000 2.264389e+000 1.508891e+000 1.285119e+000 2.871283e+000 1.978564e-001 1.955085e-001 2.510281e-001 3.324935e-001 2.777160e-001 3.935746e-001 4.656521e-001 4.435277e-001 3.539339e-001 3.572884e-001 2.551052e-001 2.083669e-001 1.748885e-001
<GCONST> 1.151436e+002
<STATE> 4
<MEAN> 39
 -1.791486e+000 -5.478994e+000 -7.832589e+000 -6.925812e+000 -4.542974e+000 -6.824675e+000 2.374724e+000 -3.943044e+000 -6.997048e-001 -1.988782e+000 2.979119e-001 -4.928040e+000 6.156704e+001 -1.343454e+000 4.525317e-001 1.633240e+000 -8.391778e-001 -1.936083e-001 9.218071e-001 -4.164733e-002 -6.734931e-001 3.052022e-002 8.702237e-002 6.189232e-002 1.087076e-001 -4.210488e-001 -2.737039e-002 1.164344e-001 -2.196633e-001 -6.380405e-002 3.273868e-001 -8.428311e-002 -3.216843e-001 4.313409e-002 2.117134e-001 -1.025094e-001 -1.373415e-002 3.929873e-002 -8.175164e-002
<VARIANCE> 39
 3.932844e+001 5.667633e+001 8.471024e+001 5.885231e+001 8.763168e+001 8.291139e+001 7.866437e+001 6.746928e+001 5.858076e+001 5.569508e+001 4.062064e+001 3.970656e+001 1.329470e+002 1.558465e+000 2.937509e+000 3.320626e+000 3.765498e+000 2.703397e+000 3.325263e+000 3.655190e+000 3.015978e+000 2.471401e+000 2.311408e+000 1.686846e+000 1.505698e+000 3.014178e+000 2.038930e-001 3.036507e-001 3.787128e-001 3.843373e-001 4.873757e-001 4.619173e-001 6.171211e-001 4.218171e-001 3.875109e-001 3.639390e-001 2.637649e-001 2.363846e-001 2.873454e-001
<GCONST> 1.246291e+002
<TRANSP> 5
 0.000000e+000 1.000000e+000 0.000000e+000 0.000000e+000 0.000000e+000
 0.000000e+000 7.889141e-001 2.110859e-001 0.000000e+000 0.000000e+000
 0.000000e+000 0.000000e+000 5.337040e-001 4.662959e-001 0.000000e+000
 0.000000e+000 0.000000e+000 0.000000e+000 6.040303e-001 3.959697e-001
 0.000000e+000 0.000000e+000 0.000000e+000 0.000000e+000 0.000000e+000
<ENDHMM>
~h "m"
<BEGINHMM>
<NUMSTATES> 5
<STATE> 2
<MEAN> 39
 -3.811286e-001 -3.002015e+000 -3.005625e-001 -6.417130e+000 9.035283e-001 -8.472737e+000 -3.715805e+000 -3.351810e+000 -1.927394e+000 -5.668045e+000 2.657246e-001 -6.599413e+000 5.850211e+001 7.047817e-001 7.816505e-001 1.412406e+000 3.069356e-001 3.195938e-001 -1.140884e+000 -1.174548e+000 3.154489e-001 -5.985393e-001 -5.320203e-003 1.863025e-002 -8.552801e-002 -8.301837e-001 -1.573291e-001 -4.193584e-002 -1.705002e-001 -1.162667e-001 -2.051053e-002 1.388813e-001 1.067216e-001 -1.056283e-001 1.488212e-001 7.142117e-002 -1.041227e-001 7.368536e-002 1.811320e-001
<VARIANCE> 39
 3.851842e+001 4.811166e+001 5.307537e+001 4.801075e+001 7.529323e+001 6.732531e+001 7.040895e+001 6.553868e+001 6.206601e+001 6.695541e+001 6.734405e+001 5.005770e+001 7.914559e+001 1.649002e+000 1.521671e+000 2.174141e+000 2.212931e+000 2.491333e+000 2.853837e+000 2.989172e+000 2.804005e+000 3.089746e+000 3.091591e+000 2.878220e+000 1.962224e+000 2.513829e+000 1.565952e-001 2.025317e-001 2.883358e-001 2.395442e-001 3.135064e-001 3.618298e-001 4.033662e-001 3.825696e-001 3.840966e-001 3.978465e-001 3.527060e-001 2.657582e-001 2.530507e-001
<GCONST> 1.205388e+002
<STATE> 3
<MEAN> 39
 2.674184e-001 -1.744800e+000 4.202427e+000 -6.663559e+000 1.894217e+000 -1.278330e+001 -7.145488e+000 -2.395178e+000 -3.205143e+000 -3.546282e+000 -6.360965e-001 -5.850582e+000 5.751383e+001 -9.614352e-002 8.829107e-002 -1.703905e-001 -1.095755e-001 -1.689707e-002 2.709064e-001 7.196557e-002 -3.758873e-001 5.624949e-002 8.757882e-002 -3.807116e-002 4.437087e-002 1.274078e-001 -2.489577e-001 -2.558963e-001 -6.851493e-001 -1.155909e-001 -1.810212e-001 5.070282e-001 5.059135e-001 -1.255831e-001 2.824578e-001 -1.064723e-001 3.381025e-002 1.926140e-002 3.152956e-001
<VARIANCE> 39
 1.479557e+001 2.660095e+001 3.864760e+001 4.904743e+001 6.164965e+001 6.223232e+001 7.351074e+001 7.293344e+001 6.677775e+001 8.899318e+001 7.597932e+001 5.033923e+001 3.389189e+001 8.843293e-001 1.222107e+000 2.480198e+000 1.454749e+000 1.903886e+000 2.299065e+000 2.244814e+000 2.105699e+000 2.000185e+000 2.064281e+000 1.607302e+000 1.399923e+000 2.803292e+000 2.075219e-001 1.922277e-001 3.092123e-001 2.653980e-001 3.000219e-001 3.789468e-001 4.697737e-001 4.820470e-001 4.735718e-001 5.521905e-001 4.347821e-001 3.011002e-001 1.786026e-001
<GCONST> 1.156733e+002
<STATE> 4
<MEAN> 39
 -1.212772e+000 -3.781632e+000 -2.811960e+000 -6.929987e+000 4.434421e-001 -6.913495e+000 -3.112460e+000 -4.853588e+000 -1.171294e+000 -5.617326e+000 -1.761769e-001 -6.167517e+000 5.911372e+001 -7.187573e-001 -5.416080e-001 -1.692906e+000 -4.021789e-001 -1.551552e-001 1.170096e+000 1.153237e+000 -2.128103e-001 7.514915e-001 -2.300092e-001 -9.939794e-003 1.540834e-001 8.876224e-001 -1.069471e-001 2.658318e-002 -3.164991e-002 -3.216188e-002 7.754236e-002 -6.080189e-002 5.080790e-002 1.012643e-001 1.795912e-002 4.287862e-002 -1.912780e-002 5.843071e-002 -2.868108e-002
<VARIANCE> 39
 3.322217e+001 5.265553e+001 7.015759e+001 6.142223e+001 6.598743e+001 5.334426e+001 6.708374e+001 5.335044e+001 5.806376e+001 6.543787e+001 6.165277e+001 4.239680e+001 9.423022e+001 1.692718e+000 2.250797e+000 3.842986e+000 2.471152e+000 2.502012e+000 2.800551e+000 3.249329e+000 3.134112e+000 3.104965e+000 4.085458e+000 2.956476e+000 2.163825e+000 3.347606e+000 1.601702e-001 2.605192e-001 4.257315e-001 2.752632e-001 3.257219e-001 3.557035e-001 4.437973e-001 3.818600e-001 3.650076e-001 3.899464e-001 3.470120e-001 2.804030e-001 2.894218e-001
<GCONST> 1.232092e+002
<TRANSP> 5
 0.000000e+000 1.000000e+000 0.000000e+000 0.000000e+000 0.000000e+000
 0.000000e+000 6.069031e-001 3.930969e-001 0.000000e+000 0.000000e+000
 0.000000e+000 0.000000e+000 6.713762e-001 3.286238e-001 0.000000e+000
 0.000000e+000 0.000000e+000 0.000000e+000 5.863582e-001 4.136419e-001
 0.000000e+000 0.000000e+000 0.000000e+000 0.000000e+000 0.000000e+000
<ENDHMM>
~h "n"
<BEGINHMM>
<NUMSTATES> 5
<STATE> 2
<MEAN> 39
 -3.543662e-001 -1.544490e+000 4.339222e-001 -1.038730e+001 2.172887e+000 -8.924505e+000 -7.041538e-002 -6.256437e+000 -1.230425e+000 -5.330265e+000 -2.414563e+000 -4.439855e+000 6.118625e+001 4.779500e-001 6.094690e-001 8.955088e-001 -1.251294e-001 6.222925e-001 -9.132566e-001 -2.322473e-001 1.045683e-001 -4.555129e-001 2.614451e-001 -1.843179e-001 1.178836e-001 -1.012906e+000 -1.374077e-001 -6.466348e-002 -1.770909e-001 1.121085e-001 -5.817144e-002 1.262060e-001 4.337437e-002 3.601575e-002 8.045477e-002 -2.541779e-002 5.288149e-002 3.421995e-002 6.712025e-002
<VARIANCE> 39
 2.909994e+001 5.052834e+001 6.172178e+001 6.660237e+001 7.378654e+001 7.969900e+001 9.745589e+001 7.815044e+001 8.262949e+001 9.377367e+001 5.764327e+001 7.273860e+001 6.185731e+001 9.178369e-001 1.340616e+000 1.646186e+000 2.029701e+000 2.259362e+000 2.640600e+000 2.265498e+000 2.194825e+000 2.245959e+000 2.077860e+000 1.751877e+000 1.460690e+000 1.589816e+000 1.231314e-001 1.282519e-001 2.221429e-001 2.403271e-001 2.629746e-001 3.388005e-001 2.771050e-001 3.081127e-001 3.050627e-001 2.852448e-001 2.481455e-001 2.052402e-001 1.411242e-001
<GCONST> 1.147438e+002
<STATE> 3
<MEAN> 39
 7.383764e-001 1.357062e-001 3.057164e+000 -1.121297e+001 4.171825e+000 -1.209177e+001 -1.603899e+000 -4.044507e+000 -2.800628e+000 -1.861110e+000 -2.218585e+000 -3.531934e+000 5.673459e+001 -2.192367e-001 2.746075e-001 4.421725e-002 3.919771e-001 -5.580327e-002 1.887443e-001 -3.166127e-002 -3.540134e-002 -1.710979e-002 1.002534e-001 2.133810e-001 1.011811e-001 -5.712712e-001 -4.155277e-001 -2.695454e-001 -5.000367e-001 2.134697e-001 -4.240699e-001 5.848504e-001 2.111050e-001 -4.663488e-002 2.915558e-001 -1.888831e-001 1.646428e-001 -4.573484e-002 3.569125e-001
<VARIANCE> 39
 1.764474e+001 3.258407e+001 4.406452e+001 5.005492e+001 5.084451e+001 6.826423e+001 7.489321e+001 7.149284e+001 7.728369e+001 7.204565e+001 5.644633e+001 4.887066e+001 3.963726e+001 9.635099e-001 1.214972e+000 1.230815e+000 1.796330e+000 1.878186e+000 2.382048e+000 1.912312e+000 1.736436e+000 1.748520e+000 1.668198e+000 1.294351e+000 1.144371e+000 2.198080e+000 1.912291e-001 2.153336e-001 2.868431e-001 2.849734e-001 3.489061e-001 4.770251e-001 4.294747e-001 4.002602e-001 4.590485e-001 3.907971e-001 3.332479e-001 2.600394e-001 2.313863e-001
<GCONST> 1.137198e+002
<STATE> 4
<MEAN> 39
 -2.993959e+000 1.054767e-001 7.361647e-001 -7.050013e+000 2.879302e-001 -6.471202e+000 3.054913e-001 -4.921548e+000 -7.957094e-001 -2.896698e+000 -5.406809e-001 -4.068290e+000 5.538916e+001 -1.212180e+000 -6.041173e-001 -8.544294e-001 4.232587e-001 -6.143575e-001 1.009931e+000 4.085203e-001 -2.570432e-002 5.299188e-001 -2.507772e-001 3.679691e-001 7.308699e-002 2.592933e-001 -9.432498e-002 -1.384741e-001 -1.614805e-001 -5.499117e-002 -3.788773e-003 1.192578e-002 1.879226e-002 3.887512e-002 7.579657e-002 -4.926759e-002 -1.483465e-002 -7.375859e-003 1.581519e-001
<VARIANCE> 39
 4.203981e+001 5.366100e+001 5.834097e+001 6.939160e+001 5.705965e+001 6.938184e+001 7.423823e+001 6.651860e+001 7.081055e+001 6.327681e+001 5.030027e+001 4.073199e+001 1.170925e+002 1.942913e+000 1.799986e+000 1.946059e+000 2.317917e+000 2.267162e+000 3.059046e+000 2.626780e+000 2.593987e+000 2.715342e+000 2.412334e+000 2.184618e+000 1.657457e+000 2.663794e+000 2.375542e-001 2.115444e-001 2.577845e-001 2.826871e-001 3.087218e-001 3.958618e-001 3.285342e-001 3.327861e-001 3.887476e-001 3.097371e-001 2.903670e-001 2.265571e-001 2.698924e-001
<GCONST> 1.199755e+002
<TRANSP> 5
 0.000000e+000 1.000000e+000 0.000000e+000 0.000000e+000 0.000000e+000
 0.000000e+000 6.733890e-001 3.266110e-001 0.000000e+000 0.000000e+000
 0.000000e+000 0.000000e+000 5.470213e-001 4.529787e-001 0.000000e+000
 0.000000e+000 0.000000e+000 0.000000e+000 6.226832e-001 3.773169e-001
 0.000000e+000 0.000000e+000 0.000000e+000 0.000000e+000 0.000000e+000
<ENDHMM>
~h "p"
<BEGINHMM>
<NUMSTATES> 5
<STATE> 2
<MEAN> 39
 -1.098451e+001 -3.174401e+000 -2.138825e+000 -1.909043e+000 7.985901e-001 -5.904076e+000 -4.142014e-001 -3.339864e+000 -6.166880e-001 -4.800762e+000 1.188232e+000 -3.261661e+000 4.103337e+001 -9.956223e-001 -5.876098e-001 -2.150146e-001 -1.251208e-001 -1.181375e-001 3.522578e-001 5.061709e-001 7.233632e-002 3.590304e-001 1.950156e-001 2.269386e-001 2.387809e-001 -1.753966e-001 2.901011e-001 -3.706242e-001 -3.326612e-001 -4.210050e-001 -2.422572e-001 -5.763591e-002 7.892084e-002 6.863641e-002 1.260338e-001 1.299626e-001 3.210963e-002 -8.745275e-002 1.673122e+000
<VARIANCE> 39
 2.929231e+001 2.299142e+001 2.572689e+001 2.365204e+001 2.386939e+001 3.030292e+001 2.839943e+001 2.681090e+001 2.997436e+001 2.584575e+001 2.400327e+001 2.386514e+001 1.283106e+002 2.034058e+000 1.808042e+000 1.732950e+000 1.815665e+000 1.501136e+000 2.308161e+000 1.478692e+000 1.716135e+000 1.727378e+000 1.577658e+000 1.334041e+000 1.084759e+000 1.109795e+001 4.553822e-001 3.428746e-001 3.052526e-001 3.383642e-001 3.324067e-001 3.839299e-001 3.133222e-001 3.225673e-001 2.840839e-001 3.286165e-001 3.015405e-001 2.525314e-001 2.090889e+000
<GCONST> 1.113918e+002
<STATE> 3
<MEAN> 39
 -1.411033e+001 -5.086878e+000 -3.884033e+000 -3.167774e+000 -3.439213e-001 -3.825140e+000 1.236112e+000 -2.102825e+000 6.188928e-001 -3.337832e+000 1.888653e+000 -2.586611e+000 4.162988e+001 2.604316e-001 -1.209677e+000 -7.651106e-001 -9.366683e-001 -5.946295e-001 2.083280e-002 4.927031e-001 2.293734e-001 4.366454e-001 4.506679e-001 2.789914e-001 -3.192393e-002 4.557528e+000 6.547952e-001 -1.090306e-001 -8.329044e-002 -1.359332e-001 -9.824383e-002 -1.566978e-001 -1.442843e-001 -1.315923e-001 -3.483279e-002 -4.750028e-002 -1.103105e-001 -2.049465e-001 1.140025e+000
<VARIANCE> 39
 6.652966e+000 1.259550e+001 1.005807e+001 1.530441e+001 1.592031e+001 1.844998e+001 1.928040e+001 1.668828e+001 2.185069e+001 1.974086e+001 1.654565e+001 1.567244e+001 1.004644e+002 1.582412e+000 1.202276e+000 1.389141e+000 1.314852e+000 1.394581e+000 1.486861e+000 1.303553e+000 1.649306e+000 1.468033e+000 1.451416e+000 1.291050e+000 1.131826e+000 3.061551e+000 2.294877e-001 1.891554e-001 2.275132e-001 2.738291e-001 3.037335e-001 2.757977e-001 2.510415e-001 2.472216e-001 2.584154e-001 2.503867e-001 2.650735e-001 1.726316e-001 1.268652e+000
<GCONST> 9.707178e+001
<STATE> 4
<MEAN> 39
 -1.073031e+001 -1.017488e+001 -6.593301e+000 -5.622438e+000 -8.106763e-001 -4.089807e+000 2.592934e+000 -2.828233e+000 1.991586e+000 -2.284737e+000 2.078927e+000 -4.111163e+000 6.010974e+001 1.678929e+000 -8.946314e-001 -8.356950e-001 -4.785802e-001 -2.911906e-001 -3.131346e-001 -2.349074e-001 -3.928705e-001 -9.561579e-002 -6.855003e-002 -4.388432e-001 -5.258164e-001 3.163121e+000 3.206771e-001 2.057767e-001 2.601935e-002 3.952037e-002 -2.359963e-002 -8.870840e-002 -1.761958e-001 -8.347552e-002 -1.339509e-001 -1.596301e-001 -1.616023e-001 -3.061615e-002 -5.876284e-001
<VARIANCE> 39
 2.465258e+001 2.717416e+001 3.439652e+001 2.661325e+001 3.756274e+001 3.093043e+001 3.046578e+001 3.746628e+001 2.961094e+001 3.526045e+001 3.049370e+001 2.076758e+001 3.594915e+001 1.859395e+000 1.920347e+000 2.343335e+000 2.322809e+000 2.621696e+000 2.008935e+000 1.610029e+000 2.147336e+000 1.821770e+000 2.250422e+000 1.743493e+000 1.263908e+000 5.621797e+000 2.227951e-001 1.937563e-001 2.251932e-001 2.405662e-001 3.190043e-001 2.560640e-001 2.915962e-001 3.289757e-001 3.191407e-001 3.524830e-001 2.552951e-001 1.923134e-001 5.911249e-001
<GCONST> 1.092503e+002
<TRANSP> 5
 0.000000e+000 1.000000e+000 0.000000e+000 0.000000e+000 0.000000e+000
 0.000000e+000 3.026100e-001 6.973900e-001 0.000000e+000 0.000000e+000
 0.000000e+000 0.000000e+000 5.317488e-001 4.682512e-001 0.000000e+000
 0.000000e+000 0.000000e+000 0.000000e+000 6.962116e-001 3.037885e-001
 0.000000e+000 0.000000e+000 0.000000e+000 0.000000e+000 0.000000e+000
<ENDHMM>
~h "r"
<BEGINHMM>
<NUMSTATES> 5
<STATE> 2
<MEAN> 39
 1.843202e+000 -1.069965e+001 -1.718671e+000 -3.489408e+000 -7.095597e+000 -7.814862e+000 -4.083776e-001 -4.358711e+000 5.518413e+000 -4.422041e+000 3.366014e-001 -3.775076e+000 6.375578e+001 1.136574e+000 -7.606197e-001 -7.356740e-002 1.481427e-001 -8.951273e-001 -1.036672e-002 1.924117e-001 -1.999190e-003 3.664494e-001 -3.533821e-001 -1.565058e-001 -7.270169e-004 8.654364e-001 -4.313866e-001 1.425501e-001 9.649515e-002 -3.123798e-001 1.424944e-001 2.007536e-001 1.074830e-001 6.245327e-002 -1.493671e-001 -5.038566e-002 8.021364e-002 -2.780150e-002 -1.485889e-003
<VARIANCE> 39
 5.794862e+001 5.344386e+001 8.006158e+001 6.344960e+001 9.713687e+001 7.084859e+001 7.721323e+001 6.555032e+001 6.246221e+001 5.517575e+001 5.495578e+001 4.537944e+001 6.456462e+001 2.932004e+000 1.768941e+000 2.327531e+000 2.703656e+000 3.256878e+000 2.652483e+000 2.855173e+000 2.688998e+000 2.651013e+000 2.816170e+000 2.444177e+000 1.736030e+000 2.306487e+000 3.471199e-001 2.119379e-001 2.604152e-001 3.426965e-001 4.396387e-001 4.046156e-001 4.350382e-001 3.739114e-001 4.173466e-001 4.476974e-001 3.723627e-001 3.030272e-001 2.258528e-001
<GCONST> 1.238045e+002
<STATE> 3
<MEAN> 39
 1.183754e+000 -1.452459e+001 -1.234938e+000 -6.619576e+000 -1.422803e+001 -4.517408e+000 2.581657e+000 -4.465500e+000 5.318187e+000 -6.682253e+000 1.781625e+000 -4.737725e+000 6.834713e+001 -6.111562e-001 4.182005e-001 7.292373e-001 -1.489593e+000 -7.129442e-002 9.053000e-001 5.348903e-002 -1.150928e-001 -3.596966e-001 -1.025867e-001 3.053711e-001 -4.162036e-001 6.214641e-001 -4.143775e-001 5.099332e-001 -9.199189e-002 -2.265579e-001 7.341411e-001 3.631069e-002 -3.064978e-001 6.231153e-002 -1.987856e-001 2.019909e-001 -4.142059e-002 -1.120364e-002 -2.829427e-001
<VARIANCE> 39
 1.819521e+001 4.609891e+001 5.704131e+001 5.695153e+001 9.326209e+001 6.441747e+001 4.867308e+001 6.283794e+001 5.551077e+001 4.942635e+001 6.024292e+001 4.815244e+001 4.116274e+001 1.430224e+000 1.822171e+000 2.048549e+000 2.375554e+000 2.737694e+000 2.911741e+000 3.060378e+000 2.575504e+000 2.780746e+000 3.184497e+000 1.985723e+000 1.983210e+000 2.382237e+000 2.014130e-001 1.633565e-001 1.956177e-001 2.936251e-001 3.787674e-001 3.771667e-001 3.365905e-001 3.414062e-001 3.969596e-001 3.754874e-001 4.068550e-001 3.338838e-001 1.761440e-001
<GCONST> 1.179125e+002
<STATE> 4
<MEAN> 39
 -1.819211e+000 -1.042376e+001 1.538117e+000 -1.329581e+001 -9.241026e+000 -6.076992e-001 -6.227664e-001 -3.907905e+000 3.659903e+000 -5.303536e+000 1.313279e+000 -6.539158e+000 6.851321e+001 -9.409505e-001 1.499611e+000 -1.430590e-001 -1.111855e+000 1.646358e+000 3.746399e-002 -5.188102e-001 1.139811e-001 -5.374079e-001 2.546923e-001 -1.633868e-001 5.354408e-002 -1.501916e-001 -8.115941e-002 2.307768e-001 -3.122930e-001 3.849916e-001 3.202715e-001 -4.093830e-001 4.836743e-002 2.804648e-002 -7.346123e-002 8.423722e-002 -5.440858e-002 1.877763e-001 -2.732792e-001
<VARIANCE> 39
 2.218419e+001 5.510027e+001 6.667902e+001 6.734729e+001 1.042664e+002 6.618442e+001 6.893302e+001 7.333723e+001 6.141369e+001 5.358356e+001 5.382166e+001 4.002817e+001 5.447201e+001 1.041543e+000 2.349520e+000 1.856907e+000 2.895156e+000 2.813053e+000 2.813879e+000 2.802431e+000 2.197617e+000 2.676451e+000 2.367300e+000 2.079635e+000 1.981535e+000 3.023700e+000 1.767876e-001 1.866094e-001 2.355735e-001 3.117883e-001 4.338208e-001 3.694296e-001 3.981093e-001 3.903840e-001 3.661152e-001 4.048415e-001 3.321665e-001 3.039267e-001 1.959408e-001
<GCONST> 1.196199e+002
<TRANSP> 5
 0.000000e+000 1.000000e+000 0.000000e+000 0.000000e+000 0.000000e+000
 0.000000e+000 6.975465e-001 3.024535e-001 0.000000e+000 0.000000e+000
 0.000000e+000 0.000000e+000 5.010461e-001 4.989539e-001 0.000000e+000
 0.000000e+000 0.000000e+000 0.000000e+000 5.087675e-001 4.912325e-001
 0.000000e+000 0.000000e+000 0.000000e+000 0.000000e+000 0.000000e+000
<ENDHMM>
~h "s"
<BEGINHMM>
<NUMSTATES> 5
<STATE> 2
<MEAN> 39
 -1.645721e+001 -2.592725e+000 -7.257459e+000 -4.065087e+000 -2.793516e+000 -1.152361e+000 2.033096e-001 -4.143981e+000 1.942925e+000 -1.904919e+000 9.067285e-001 -3.182791e+000 5.763660e+001 -2.355423e+000 -4.163683e-001 -1.265684e+000 7.761868e-001 -4.912533e-002 5.836368e-001 -2.891027e-001 3.284555e-001 2.837562e-001 -2.860908e-001 -2.968750e-002 1.484724e-001 -7.216336e-001 4.268028e-001 -1.722148e-001 6.745258e-002 -3.553501e-001 -1.428099e-001 -2.957462e-001 -2.447919e-002 -9.184211e-002 -9.979311e-002 -3.495687e-002 -8.846749e-002 -7.140187e-002 2.409670e-001
<VARIANCE> 39
 2.431997e+001 2.444935e+001 2.441033e+001 2.646368e+001 3.481793e+001 2.774248e+001 2.838982e+001 3.129116e+001 2.754042e+001 3.513275e+001 2.475450e+001 2.701518e+001 3.481699e+001 1.544444e+000 2.209226e+000 1.316109e+000 1.571783e+000 1.551470e+000 1.745231e+000 1.974422e+000 2.125771e+000 1.938455e+000 1.876972e+000 1.534917e+000 1.238525e+000 1.782606e+000 2.238489e-001 2.786429e-001 2.485507e-001 2.450744e-001 2.552573e-001 2.409859e-001 2.678612e-001 3.024026e-001 2.680094e-001 2.835631e-001 2.026646e-001 1.958271e-001 2.326027e-001
<GCONST> 1.038885e+002
<STATE> 3
<MEAN> 39
 -1.967016e+001 -4.885019e+000 -1.057747e+001 -4.369767e+000 -4.448831e+000 -1.873217e+000 -8.919373e-001 -4.432633e+000 1.691429e+000 -2.099946e+000 8.794162e-002 -3.227410e+000 5.761119e+001 -5.058120e-002 -7.279029e-002 -8.731698e-002 -6.721374e-002 -9.945735e-002 -5.781847e-002 5.938642e-002 -5.051604e-002 -6.611516e-002 3.478865e-002 -3.546822e-002 -5.427316e-003 2.376785e-003 3.841139e-001 8.054293e-002 2.740993e-001 -8.500057e-002 3.531663e-002 -7.540598e-002 9.138138e-002 -1.378655e-002 -5.024591e-002 9.838517e-003 3.807572e-002 -2.394507e-002 -1.727266e-002
<VARIANCE> 39
 8.325260e+000 1.489330e+001 1.554699e+001 1.945067e+001 2.422883e+001 2.106280e+001 2.108637e+001 2.396644e+001 2.471983e+001 2.627412e+001 2.418445e+001 2.067791e+001 2.399828e+001 6.345358e-001 5.752857e-001 6.870835e-001 7.220746e-001 8.051353e-001 8.518969e-001 9.950712e-001 1.042437e+000 1.004203e+000 9.952615e-001 9.197970e-001 8.194286e-001 7.396547e-001 1.412998e-001 1.334166e-001 1.401834e-001 1.375087e-001 1.543726e-001 1.709236e-001 1.930631e-001 2.203034e-001 1.994188e-001 1.970479e-001 1.849497e-001 1.551861e-001 1.754770e-001
<GCONST> 8.466433e+001
<STATE> 4
<MEAN> 39
 -1.721548e+001 -4.287520e+000 -8.257198e+000 -5.265548e+000 -4.308004e+000 -1.770998e+000 5.911456e-001 -4.583998e+000 1.621583e+000 -1.796561e+000 1.159088e-001 -3.419227e+000 5.753421e+001 1.824247e+000 8.901591e-002 9.469466e-001 -6.913511e-001 -1.711928e-001 -8.214594e-001 2.659284e-001 -1.327937e-001 -3.435548e-001 -1.491717e-001 -8.674884e-003 -3.027573e-001 1.686731e-001 3.417087e-001 -6.151269e-002 1.063228e-001 -1.236829e-001 6.603329e-003 -2.140814e-001 -5.017497e-002 2.077532e-002 -5.274849e-002 -1.019776e-001 2.329868e-002 -6.275347e-002 5.143009e-002
<VARIANCE> 39
 2.360283e+001 2.241561e+001 2.426061e+001 3.051344e+001 3.537288e+001 3.045942e+001 3.117864e+001 2.988318e+001 3.242669e+001 3.943522e+001 3.124739e+001 2.852101e+001 3.639661e+001 1.932750e+000 1.656082e+000 1.517979e+000 1.812501e+000 1.873223e+000 1.797373e+000 1.974296e+000 2.219909e+000 1.531704e+000 1.667675e+000 1.876261e+000 1.149214e+000 4.506566e+000 2.277706e-001 1.953463e-001 2.091577e-001 2.308436e-001 2.748865e-001 2.749081e-001 3.085591e-001 2.855629e-001 2.591525e-001 2.845291e-001 2.600397e-001 2.418858e-001 4.132005e-001
<GCONST> 1.065820e+002
<TRANSP> 5
 0.000000e+000 1.000000e+000 0.000000e+000 0.000000e+000 0.000000e+000
 0.000000e+000 5.847315e-001 4.152685e-001 0.000000e+000 0.000000e+000
 0.000000e+000 0.000000e+000 7.949882e-001 2.050118e-001 0.000000e+000
 0.000000e+000 0.000000e+000 0.000000e+000 5.421655e-001 4.578345e-001
 0.000000e+000 0.000000e+000 0.000000e+000 0.000000e+000 0.000000e+000
<ENDHMM>
~h "t"
<BEGINHMM>
<NUMSTATES> 5
<STATE> 2
<MEAN> 39
 -9.556224e+000 -3.272786e-001 -3.186239e-001 -3.370656e+000 -9.546318e-001 -3.992788e+000 3.854060e-001 -3.222381e+000 3.494871e-001 -3.276594e+000 2.164723e-001 -3.038378e+000 4.445835e+001 -1.043460e+000 -5.200002e-001 -7.033603e-001 -2.872769e-001 1.997344e-001 8.898152e-002 1.125517e-001 2.269693e-001 2.811889e-001 2.910158e-002 1.353431e-001 2.072759e-001 8.416303e-001 -2.777643e-002 -4.144958e-002 -1.715489e-001 -4.716999e-001 -2.090201e-001 -1.003515e-001 -5.410630e-002 -8.741668e-002 1.497256e-001 7.980485e-002 3.460174e-002 -7.257412e-003 1.034630e+000
<VARIANCE> 39
 5.505912e+001 3.936028e+001 3.982757e+001 4.532241e+001 4.573431e+001 4.100607e+001 4.391066e+001 4.102716e+001 3.923649e+001 3.350473e+001 3.126395e+001 3.129250e+001 1.227445e+002 2.881719e+000 1.884273e+000 2.082989e+000 2.474652e+000 2.062918e+000 2.046318e+000 1.726257e+000 2.181431e+000 2.165067e+000 1.739986e+000 1.623542e+000 1.386657e+000 5.196756e+000 3.824787e-001 2.646724e-001 2.926628e-001 3.939382e-001 3.603024e-001 3.227474e-001 2.989521e-001 3.424210e-001 3.777610e-001 3.439699e-001 2.714433e-001 2.470268e-001 1.063317e+000
<GCONST> 1.170877e+002
<STATE> 3
<MEAN> 39
 -1.468060e+001 -3.493949e+000 -4.775712e+000 -4.932868e+000 -1.267781e+000 -3.690753e+000 5.435389e-001 -2.032409e+000 1.936357e+000 -2.693478e+000 1.829763e+000 -2.205218e+000 4.966635e+001 -4.887464e-001 -2.773841e-001 -7.997720e-001 -1.214984e+000 -3.873909e-001 -9.475072e-003 -8.699577e-002 -1.172808e-001 6.432179e-001 1.528602e-001 2.950697e-002 1.594414e-001 3.054473e+000 3.703021e-001 1.650911e-001 2.692085e-001 -2.313759e-001 -1.513229e-001 -5.422262e-002 -1.366030e-002 -2.023727e-001 -4.256463e-002 2.636390e-002 -1.337149e-001 -1.042546e-001 3.879149e-001
<VARIANCE> 39
 2.576371e+001 3.037461e+001 4.007358e+001 3.801800e+001 3.433142e+001 3.466219e+001 3.345153e+001 2.910495e+001 3.115164e+001 2.862105e+001 2.389559e+001 2.319124e+001 1.300273e+002 2.829860e+000 1.275689e+000 1.659605e+000 1.819751e+000 1.673680e+000 1.686547e+000 1.697579e+000 1.704733e+000 1.781058e+000 2.001481e+000 1.562027e+000 1.623146e+000 5.208051e+000 2.469284e-001 2.192606e-001 2.898340e-001 3.115325e-001 3.015821e-001 3.061854e-001 2.565849e-001 2.988732e-001 3.084093e-001 3.310579e-001 2.477220e-001 2.191375e-001 8.708479e-001
<GCONST> 1.103457e+002
<STATE> 4
<MEAN> 39
 -1.601240e+001 -3.119351e+000 -4.546958e+000 -1.063094e+001 -2.282605e+000 -3.362446e+000 7.800786e-001 -3.842762e+000 3.954504e+000 -2.061657e+000 6.528515e-001 -2.045303e+000 5.926696e+001 9.913412e-001 -5.514237e-002 6.896986e-001 -6.684847e-001 -5.792375e-001 -4.399526e-002 8.783166e-002 -4.816754e-001 -1.420063e-001 1.833451e-001 -2.928410e-001 -3.332580e-001 1.508647e+000 6.036649e-001 2.061113e-002 2.469999e-001 2.907364e-001 -5.076313e-002 -1.601835e-001 -3.903240e-002 3.978018e-002 -2.641996e-001 -7.653315e-002 -4.054073e-003 -1.601177e-001 -3.987500e-001
<VARIANCE> 39
 3.189842e+001 3.514828e+001 4.890950e+001 4.651692e+001 4.845219e+001 4.598688e+001 4.299134e+001 4.405646e+001 4.162224e+001 5.370182e+001 4.279476e+001 4.261523e+001 4.875915e+001 3.288496e+000 1.612712e+000 2.022990e+000 2.882664e+000 2.453162e+000 2.196177e+000 2.110864e+000 2.189492e+000 2.104041e+000 2.491024e+000 2.137133e+000 1.688791e+000 4.209345e+000 3.348570e-001 2.316019e-001 3.817703e-001 3.364742e-001 3.572807e-001 4.029984e-001 3.313070e-001 3.831784e-001 3.643430e-001 3.896595e-001 3.889695e-001 3.031149e-001 5.302820e-001
<GCONST> 1.184806e+002
<TRANSP> 5
 0.000000e+000 1.000000e+000 0.000000e+000 0.000000e+000 0.000000e+000
 0.000000e+000 4.096667e-001 5.903333e-001 0.000000e+000 0.000000e+000
 0.000000e+000 0.000000e+000 3.619466e-001 6.380534e-001 0.000000e+000
 0.000000e+000 0.000000e+000 0.000000e+000 6.826704e-001 3.173296e-001
 0.000000e+000 0.000000e+000 0.000000e+000 0.000000e+000 0.000000e+000
<ENDHMM>
~h "v"
<BEGINHMM>
<NUMSTATES> 5
<STATE> 2
<MEAN> 39
 -1.347230e+000 -4.879533e+000 -2.282206e+000 -5.516071e+000 -3.503269e+000 -8.599469e+000 -1.913777e+000 -1.035614e+000 3.376608e-001 -3.786750e+000 1.673210e+000 -5.322322e+000 5.997519e+001 -4.088391e-001 7.989625e-001 6.220204e-001 1.310898e+000 6.695045e-001 -6.687943e-002 -4.851752e-001 -3.183119e-001 2.153113e-001 -1.693560e-001 2.685948e-001 2.082849e-001 -1.906339e+000 -2.868065e-001 -4.221471e-002 -2.249685e-001 -2.655226e-001 1.182021e-001 2.375678e-001 2.567588e-001 -1.410340e-001 -2.252353e-002 2.665170e-002 -1.659673e-001 4.477655e-003 2.549135e-001
<VARIANCE> 39
 3.215641e+001 3.435551e+001 5.101571e+001 3.254900e+001 5.709400e+001 3.971849e+001 5.205103e+001 5.898193e+001 4.736343e+001 4.084834e+001 4.692476e+001 2.951406e+001 5.561264e+001 2.064085e+000 1.715228e+000 1.979117e+000 2.065554e+000 2.103032e+000 2.053526e+000 2.266113e+000 2.074431e+000 2.141176e+000 1.876547e+000 1.718836e+000 1.334281e+000 2.634912e+000 1.812315e-001 1.903544e-001 2.256805e-001 2.423337e-001 2.455415e-001 2.809476e-001 2.571756e-001 2.781745e-001 3.193097e-001 3.035966e-001 2.498579e-001 2.044745e-001 3.127995e-001
<GCONST> 1.114933e+002
<STATE> 3
<MEAN> 39
 -4.655274e+000 -2.804659e+000 -9.147210e-001 -2.787719e+000 -1.108353e+000 -7.134079e+000 -1.903207e+000 -3.669572e+000 6.818125e-001 -3.976693e+000 1.815290e+000 -4.421116e+000 5.548265e+001 -9.367820e-001 3.158164e-001 -5.058301e-002 4.109101e-001 5.124272e-001 3.917516e-001 1.526715e-001 -2.268336e-001 4.063389e-002 -1.320745e-002 -4.973315e-002 9.766803e-002 -8.244609e-001 7.686065e-002 -2.400354e-001 -4.302628e-001 -5.972384e-001 -2.094011e-001 1.026148e-002 2.246787e-001 9.703556e-002 1.946834e-002 4.809863e-002 -1.508002e-001 -1.151628e-001 7.064966e-001
<VARIANCE> 39
 4.797888e+001 3.562212e+001 4.114646e+001 2.933421e+001 3.953142e+001 3.372686e+001 3.673949e+001 4.476596e+001 3.580789e+001 3.062568e+001 3.691168e+001 3.014184e+001 6.499642e+001 2.566665e+000 1.227814e+000 1.525174e+000 1.736756e+000 1.914095e+000 1.724443e+000 1.598980e+000 1.607684e+000 1.649601e+000 1.478239e+000 1.377064e+000 1.312956e+000 2.751675e+000 3.270793e-001 2.802116e-001 3.448813e-001 3.066878e-001 2.564989e-001 2.813342e-001 3.156887e-001 2.783473e-001 3.186057e-001 2.939775e-001 2.452604e-001 2.329673e-001 4.282394e-001
<GCONST> 1.099870e+002
<STATE> 4
<MEAN> 39
 -6.726765e+000 -3.475657e+000 -2.611607e+000 -4.906647e+000 -1.126711e+000 -5.711847e+000 -2.425187e-001 -2.773762e+000 5.543154e-001 -3.174908e+000 1.270854e+000 -4.548164e+000 5.698205e+001 4.149869e-002 -2.608892e-001 -9.515862e-001 -8.793383e-001 -1.694133e-001 -3.343134e-002 3.832288e-001 7.643092e-002 9.161764e-002 7.687601e-002 -4.275742e-001 -2.840864e-001 9.670256e-001 3.115658e-001 -9.369542e-002 -2.087425e-001 -3.028314e-001 -1.313154e-001 -1.265645e-001 1.565346e-002 3.058289e-002 6.192649e-002 8.759771e-003 -8.568500e-002 -5.597705e-002 4.012471e-001
<VARIANCE> 39
 7.197279e+001 3.649638e+001 5.155181e+001 4.976423e+001 4.323676e+001 3.632559e+001 3.729155e+001 3.914058e+001 3.374844e+001 3.326224e+001 3.444486e+001 3.617205e+001 6.868080e+001 3.314720e+000 1.733269e+000 2.007576e+000 2.567746e+000 2.177711e+000 1.945213e+000 1.586982e+000 1.587821e+000 1.710497e+000 1.725259e+000 1.449561e+000 1.385024e+000 4.864194e+000 4.160338e-001 2.306355e-001 3.212326e-001 3.635998e-001 3.152688e-001 2.558092e-001 2.966278e-001 2.365215e-001 3.379484e-001 2.488964e-001 2.426547e-001 2.442418e-001 4.789870e-001
<GCONST> 1.138402e+002
<TRANSP> 5
 0.000000e+000 1.000000e+000 0.000000e+000 0.000000e+000 0.000000e+000
 0.000000e+000 3.540605e-001 6.459395e-001 0.000000e+000 0.000000e+000
 0.000000e+000 0.000000e+000 3.496373e-001 6.503627e-001 0.000000e+000
 0.000000e+000 0.000000e+000 0.000000e+000 4.490943e-001 5.509058e-001
 0.000000e+000 0.000000e+000 0.000000e+000 0.000000e+000 0.000000e+000
<ENDHMM>
~h "w"
<BEGINHMM>
<NUMSTATES> 5
<STATE> 2
<MEAN> 39
 -8.056164e-001 -4.280134e+000 -7.416434e+000 -4.797667e+000 3.906078e-001 -7.514195e+000 -2.524698e+000 -4.255213e+000 3.501808e-001 -3.615294e+000 1.914925e+000 -4.011502e+000 5.373514e+001 2.061615e+000 3.856929e-001 -1.540977e+000 -4.161085e-001 6.633670e-001 -2.445312e-001 -6.281912e-001 -3.202187e-001 -5.699549e-002 1.563077e-001 2.183445e-001 -9.635880e-002 3.480605e-001 -1.461230e-001 1.054959e-001 -1.426888e-001 -3.149851e-001 -2.892836e-002 1.139320e-001 6.142665e-002 -2.352426e-002 -3.071248e-002 5.826459e-002 2.777301e-002 -9.508462e-003 3.530557e-001
<VARIANCE> 39
 7.080626e+001 6.900367e+001 6.787714e+001 4.082827e+001 5.467420e+001 5.393897e+001 6.038263e+001 4.453503e+001 3.783991e+001 5.264431e+001 4.354606e+001 3.396566e+001 9.639086e+001 2.757041e+000 2.426398e+000 3.383681e+000 2.953084e+000 3.073385e+000 2.893892e+000 2.657850e+000 2.474637e+000 2.097378e+000 1.832648e+000 1.867356e+000 1.490718e+000 4.992313e+000 3.077658e-001 3.956440e-001 4.240752e-001 4.275630e-001 4.395185e-001 4.649623e-001 4.067481e-001 3.771802e-001 3.575163e-001 3.089308e-001 2.835217e-001 2.732764e-001 4.103200e-001
<GCONST> 1.227712e+002
<STATE> 3
<MEAN> 39
 5.970485e+000 -1.987429e+000 -1.844520e+001 -1.367406e+001 1.697618e+000 -5.989388e+000 -4.327932e+000 -6.916058e+000 -4.152770e-001 -1.499005e+000 4.672840e+000 -5.329281e+000 6.069250e+001 7.861117e-002 -5.691843e-001 -1.130240e+000 -1.814718e-001 2.874409e-001 -1.246912e-001 1.108070e-001 3.915303e-001 4.817203e-001 1.004797e-001 -2.836125e-001 -3.335220e-001 1.353811e+000 -4.193733e-001 -3.631425e-001 3.720561e-001 3.662855e-001 -1.269765e-001 -1.409716e-001 1.739632e-001 2.841535e-001 1.314401e-001 -1.865604e-001 -2.287651e-001 1.502883e-002 1.279444e-001
<VARIANCE> 39
 1.348098e+001 3.120599e+001 5.668874e+001 4.855350e+001 3.524123e+001 4.540010e+001 5.127468e+001 3.966373e+001 3.934419e+001 5.227408e+001 4.844056e+001 4.225133e+001 3.230580e+001 1.010235e+000 2.056489e+000 2.086932e+000 2.532100e+000 2.078516e+000 2.428884e+000 2.251714e+000 2.140791e+000 2.445174e+000 1.974654e+000 2.129565e+000 1.765718e+000 2.446397e+000 1.830620e-001 1.547780e-001 2.578467e-001 2.731729e-001 3.666389e-001 3.340520e-001 3.940402e-001 3.126902e-001 3.260645e-001 3.336688e-001 2.927127e-001 2.526643e-001 1.479656e-001
<GCONST> 1.116005e+002
<STATE> 4
<MEAN> 39
 1.479994e+000 -1.018331e+001 -1.465147e+001 -6.848359e+000 7.012334e-001 -1.043947e+001 -2.175043e+000 3.003678e-001 2.647086e+000 -3.700571e+000 6.180100e-002 -6.494834e+000 6.705634e+001 -9.368328e-001 -9.617168e-001 1.338987e+000 2.984539e-001 -1.356084e+000 -1.460249e-001 1.382042e+000 6.846854e-001 -3.352872e-001 -5.878626e-001 -4.684440e-001 1.740017e-001 1.521959e+000 -1.788087e-001 3.404760e-001 4.511008e-001 -2.492214e-001 -1.848626e-001 4.108415e-001 1.831195e-001 -4.019753e-001 -2.779073e-001 1.112067e-001 1.116785e-001 1.451300e-001 -4.453973e-001
<VARIANCE> 39
 2.133959e+001 3.228308e+001 8.611037e+001 5.437855e+001 9.586852e+001 6.962712e+001 8.660273e+001 7.384090e+001 7.746026e+001 6.425625e+001 8.012952e+001 5.675959e+001 3.738412e+001 7.869475e-001 1.876431e+000 2.475242e+000 3.870740e+000 3.536590e+000 3.550565e+000 3.101820e+000 4.206956e+000 2.808351e+000 3.096189e+000 3.242162e+000 1.882378e+000 1.699839e+000 1.849011e-001 1.735397e-001 3.726625e-001 3.288117e-001 5.286695e-001 5.164321e-001 6.220890e-001 5.624282e-001 5.762902e-001 4.768403e-001 5.110202e-001 3.206172e-001 2.212940e-001
<GCONST> 1.245444e+002
<TRANSP> 5
 0.000000e+000 1.000000e+000 0.000000e+000 0.000000e+000 0.000000e+000
 0.000000e+000 7.291007e-001 2.708994e-001 0.000000e+000 0.000000e+000
 0.000000e+000 0.000000e+000 7.592404e-001 2.407597e-001 0.000000e+000
 0.000000e+000 0.000000e+000 0.000000e+000 6.320500e-001 3.679500e-001
 0.000000e+000 0.000000e+000 0.000000e+000 0.000000e+000 0.000000e+000
<ENDHMM>
~h "y"
<BEGINHMM>
<NUMSTATES> 5
<STATE> 2
<MEAN> 39
 -8.350619e+000 1.146517e+001 -4.231125e+000 -1.182856e+001 -7.179511e-001 -1.078765e+001 -4.670234e+000 -8.255073e+000 2.829573e-001 -6.064862e+000 1.348977e+000 -3.485011e+000 6.079284e+001 4.608180e-002 1.224678e+000 4.415064e-002 -5.334442e-001 2.146393e-001 -6.024065e-001 -5.656167e-001 -2.816900e-001 4.904537e-002 -1.722724e-001 1.925997e-001 -1.081074e-001 3.781003e-001 9.536257e-002 -6.085435e-001 -3.748748e-002 -5.919438e-002 -1.894329e-001 1.399556e-001 1.911970e-001 1.844631e-001 5.058867e-002 1.267334e-001 -8.806964e-003 -4.334977e-002 1.791635e-001
<VARIANCE> 39
 1.525807e+001 2.400563e+001 4.643491e+001 4.479255e+001 2.524051e+001 4.358085e+001 3.832635e+001 3.592722e+001 3.189919e+001 5.061268e+001 3.725998e+001 3.894781e+001 3.511060e+001 1.295141e+000 2.636525e+000 1.637245e+000 3.120087e+000 2.138592e+000 1.993588e+000 2.379956e+000 1.757208e+000 1.411873e+000 2.289265e+000 1.437630e+000 1.357226e+000 2.615584e+000 1.251425e-001 1.512321e-001 2.837901e-001 4.439364e-001 2.852262e-001 3.493321e-001 3.025728e-001 2.849255e-001 2.002717e-001 2.660086e-001 1.983679e-001 2.207312e-001 1.538585e-001
<GCONST> 1.074913e+002
<STATE> 3
<MEAN> 39
 -7.936246e+000 9.648509e+000 -3.744458e+000 -1.821584e+001 -1.812960e-001 -1.256278e+001 -4.832042e+000 -5.874013e+000 1.705287e+000 -3.479633e+000 2.654230e+000 -3.448464e+000 6.441626e+001 1.834769e-001 -1.075789e+000 4.502693e-001 -1.157406e+000 -3.277132e-001 4.936255e-001 -1.446056e-001 4.562917e-001 2.917594e-001 1.639007e-001 -7.029065e-002 -5.360067e-002 6.885916e-001 5.015517e-002 -2.843701e-001 6.216834e-002 1.254192e-001 -1.695410e-001 2.422284e-001 8.165356e-002 4.549203e-005 4.056690e-002 -7.351515e-003 -4.701387e-002 -8.496239e-004 -7.299686e-002
<VARIANCE> 39
 9.337062e+000 2.264366e+001 4.434698e+001 3.256120e+001 2.684464e+001 3.577445e+001 5.443741e+001 3.103557e+001 2.426956e+001 3.977553e+001 2.196763e+001 2.278244e+001 2.545962e+001 3.069979e-001 8.258242e-001 6.144774e-001 8.971666e-001 1.289333e+000 1.233764e+000 1.011239e+000 1.062790e+000 7.700239e-001 9.950902e-001 6.917510e-001 7.736018e-001 5.354111e-001 4.218525e-002 9.463510e-002 7.035229e-002 1.656693e-001 1.222854e-001 1.438495e-001 1.643731e-001 1.439321e-001 1.038944e-001 1.230361e-001 9.103851e-002 1.085090e-001 5.920322e-002
<GCONST> 8.241948e+001
<STATE> 4
<MEAN> 39
 -6.992285e+000 -1.403988e+000 4.211544e-001 -2.252016e+001 -5.629841e+000 -3.448106e+000 -6.043665e+000 -3.794418e+000 3.512424e+000 -4.952192e+000 7.728432e-001 -4.340168e+000 6.892374e+001 7.242060e-001 -2.202696e+000 3.616628e-001 4.958918e-001 -1.650906e+000 1.457783e+000 7.033833e-001 -4.674465e-001 3.351269e-001 3.104113e-001 -1.419479e-001 -1.769454e-001 3.787568e-001 4.165490e-002 6.251415e-002 -2.676188e-001 6.738773e-001 6.486601e-002 -2.855791e-001 3.629569e-001 -1.684265e-001 -1.607085e-001 6.922802e-002 4.243273e-002 -3.549100e-002 -3.030807e-001
<VARIANCE> 39
 1.140648e+001 4.032819e+001 3.825632e+001 2.308817e+001 6.331049e+001 4.008550e+001 5.050005e+001 4.184186e+001 2.753934e+001 3.727158e+001 3.162737e+001 3.841924e+001 3.013967e+001 4.543691e-001 1.229169e+000 8.151947e-001 1.763649e+000 2.487822e+000 1.986503e+000 2.250344e+000 1.739307e+000 1.608409e+000 1.613116e+000 1.389174e+000 1.722049e+000 7.409899e-001 6.465252e-002 1.579017e-001 1.549984e-001 1.963705e-001 2.396191e-001 3.004708e-001 2.708352e-001 2.665693e-001 1.852495e-001 2.381877e-001 1.801667e-001 2.217298e-001 9.837864e-002
<GCONST> 9.980212e+001
<TRANSP> 5
 0.000000e+000 1.000000e+000 0.000000e+000 0.000000e+000 0.000000e+000
 0.000000e+000 7.387596e-001 2.612404e-001 0.000000e+000 0.000000e+000
 0.000000e+000 0.000000e+000 7.996219e-001 2.003781e-001 0.000000e+000
 0.000000e+000 0.000000e+000 0.000000e+000 6.900029e-001 3.099972e-001
 0.000000e+000 0.000000e+000 0.000000e+000 0.000000e+000 0.000000e+000
<ENDHMM>
~h "z"
<BEGINHMM>
<NUMSTATES> 5
<STATE> 2
<MEAN> 39
 -7.096891e+000 3.066699e+000 -1.718344e+000 -4.593667e+000 -7.674285e+000 -5.951966e+000 -4.970443e-001 -6.334382e+000 1.924817e-002 2.010882e+000 1.178451e+000 -2.444038e+000 5.877077e+001 -2.088546e+000 2.854452e-001 -8.345566e-001 1.481252e+000 5.047023e-001 1.306545e+000 -6.454106e-002 3.368077e-001 2.570964e-001 -2.330409e-001 1.129787e-001 5.053394e-002 -1.325676e+000 -2.107840e-001 -3.878735e-001 -1.834523e-001 -2.892034e-001 1.293274e-001 1.163220e-001 1.859822e-002 1.302358e-001 5.747334e-002 -2.304249e-001 -8.295537e-002 -7.737649e-002 1.596179e-001
<VARIANCE> 39
 2.426916e+001 2.531379e+001 3.270024e+001 3.526945e+001 4.288126e+001 3.407976e+001 3.698940e+001 3.992921e+001 5.211710e+001 4.867506e+001 2.736352e+001 2.710902e+001 3.972655e+001 1.729943e+000 1.932244e+000 1.570581e+000 1.841351e+000 1.889384e+000 2.500268e+000 1.890314e+000 2.221497e+000 2.081311e+000 1.676278e+000 1.305003e+000 1.464987e+000 1.268808e+000 2.293293e-001 1.813550e-001 1.933939e-001 2.565470e-001 2.493817e-001 3.096201e-001 2.278439e-001 2.568833e-001 3.076907e-001 2.654780e-001 1.778254e-001 2.050229e-001 1.667242e-001
<GCONST> 1.060641e+002
<STATE> 3
<MEAN> 39
 -1.605667e+001 4.942249e-002 -6.392332e+000 -1.901218e+000 -3.746735e+000 -3.534192e-001 1.456462e-001 -4.508028e+000 1.213618e+000 -1.168292e+000 7.478877e-001 -3.143838e+000 5.564816e+001 -1.458043e+000 -8.701962e-001 -8.532039e-001 6.052132e-002 2.328533e-001 6.229464e-001 1.556142e-001 3.440739e-001 1.012942e-001 -2.951938e-001 -1.448557e-001 2.230352e-002 -2.779938e-001 7.238113e-001 -1.433697e-001 2.531599e-001 -4.908086e-001 -2.067692e-001 -5.011576e-001 -1.608078e-002 -1.221548e-001 -7.135284e-002 8.957674e-002 -5.576666e-002 8.939953e-003 3.436301e-001
<VARIANCE> 39
 2.418500e+001 3.151407e+001 3.199075e+001 2.740511e+001 3.503109e+001 2.726089e+001 2.713435e+001 2.950454e+001 2.772961e+001 3.737612e+001 2.719746e+001 2.553347e+001 2.899064e+001 2.030591e+000 1.017612e+000 1.296006e+000 1.292436e+000 1.524429e+000 1.709580e+000 1.272544e+000 1.289594e+000 1.469251e+000 1.421137e+000 1.119902e+000 1.135781e+000 1.105310e+000 2.418865e-001 2.811719e-001 2.031100e-001 2.739763e-001 2.584979e-001 3.008125e-001 2.613581e-001 3.116361e-001 3.047402e-001 2.787230e-001 2.271800e-001 2.162012e-001 2.500478e-001
<GCONST> 1.017577e+002
<STATE> 4
<MEAN> 39
 -1.552029e+001 -2.425413e+000 -7.157484e+000 -4.466914e+000 -5.453919e+000 -1.866324e+000 1.745999e-001 -4.245520e+000 1.101359e+000 -5.153306e-001 6.501338e-002 -2.870096e+000 5.609300e+001 8.836338e-001 -4.988686e-001 3.692451e-001 -6.665819e-001 -1.638177e-001 -6.251781e-001 1.515716e-001 -3.874796e-002 -9.633981e-002 8.752336e-003 -7.151900e-002 -6.639338e-002 7.418190e-002 4.069226e-001 6.761520e-002 2.008137e-001 -9.767439e-002 8.503578e-003 -1.696581e-001 8.787105e-003 -4.335293e-002 -3.118574e-002 -5.414912e-003 3.089065e-002 -3.436726e-002 2.155466e-002
<VARIANCE> 39
 3.351246e+001 2.618182e+001 3.482394e+001 2.916884e+001 4.005959e+001 2.947229e+001 3.072079e+001 2.982804e+001 3.505376e+001 4.311469e+001 2.907798e+001 2.410580e+001 4.429709e+001 1.975989e+000 1.319532e+000 1.127694e+000 1.641966e+000 1.687370e+000 1.536131e+000 1.700127e+000 1.573925e+000 1.341622e+000 1.670530e+000 1.352868e+000 1.100961e+000 3.168104e+000 3.241818e-001 1.785934e-001 1.895175e-001 2.335548e-001 2.703785e-001 2.936235e-001 2.779968e-001 2.552378e-001 2.500200e-001 2.813422e-001 2.268102e-001 1.876379e-001 3.354640e-001
<GCONST> 1.047563e+002
<TRANSP> 5
 0.000000e+000 1.000000e+000 0.000000e+000 0.000000e+000 0.000000e+000
 0.000000e+000 5.838940e-001 4.161060e-001 0.000000e+000 0.000000e+000
 0.000000e+000 0.000000e+000 5.787194e-001 4.212806e-001 0.000000e+000
 0.000000e+000 0.000000e+000 0.000000e+000 6.489942e-001 3.510058e-001
 0.000000e+000 0.000000e+000 0.000000e+000 0.000000e+000 0.000000e+000
<ENDHMM>
~h "aa"
<BEGINHMM>
<NUMSTATES> 5
<STATE> 2
<MEAN> 39
 2.738748e-001 -1.047053e+001 -1.622354e+001 -6.583870e+000 3.502061e+000 -5.434404e+000 8.210363e-001 -1.884660e+000 9.445498e-001 -4.687110e+000 -1.233950e+000 -5.741070e+000 6.672987e+001 5.747672e-001 -8.824259e-001 -1.122653e+000 4.187345e-001 7.075658e-001 -2.617297e-003 -7.626779e-002 2.478276e-001 -6.099522e-002 -5.160761e-001 -2.336141e-001 5.057797e-002 1.399166e+000 -2.233952e-001 1.070009e-001 3.518726e-001 6.892472e-002 -1.260469e-001 -9.746657e-003 -2.078723e-002 -2.475950e-002 -2.236882e-003 4.780802e-002 6.581670e-002 1.178709e-001 -2.952407e-001
<VARIANCE> 39
 3.777765e+001 5.455437e+001 8.595994e+001 6.775617e+001 8.796798e+001 6.372079e+001 6.724388e+001 8.495139e+001 7.118839e+001 5.202900e+001 5.120533e+001 4.394563e+001 8.426722e+001 1.835410e+000 1.793926e+000 3.113313e+000 2.284300e+000 2.498110e+000 2.337040e+000 2.241713e+000 2.556232e+000 3.014215e+000 2.623881e+000 2.033054e+000 1.710755e+000 2.451568e+000 2.175687e-001 1.934458e-001 3.222190e-001 2.520935e-001 3.735980e-001 3.427610e-001 3.336236e-001 3.936751e-001 3.675390e-001 3.155204e-001 2.992628e-001 2.544584e-001 2.680339e-001
<GCONST> 1.206946e+002
<STATE> 3
<MEAN> 39
 -6.281774e-001 -1.620587e+001 -1.565742e+001 -3.176266e+000 4.489088e+000 -5.822928e+000 1.866253e+000 -2.107545e+000 -4.249829e-002 -5.942682e+000 -7.925528e-001 -3.507430e+000 7.100373e+001 -2.644997e-002 -1.754078e-001 3.787336e-001 1.652471e-001 -2.964423e-001 9.053465e-002 1.553257e-001 1.564239e-002 -1.333349e-001 -5.153570e-002 1.730627e-001 8.224894e-002 3.549012e-002 1.264993e-002 1.793909e-001 2.006787e-001 -1.593480e-001 -1.988389e-001 3.104195e-002 2.438654e-002 -5.809671e-002 3.060328e-002 1.037655e-001 8.029148e-005 -7.075751e-002 -1.788432e-001
<VARIANCE> 39
 2.276024e+001 3.906079e+001 8.872993e+001 5.501592e+001 5.757408e+001 4.670736e+001 4.795398e+001 6.512501e+001 5.748759e+001 5.793114e+001 4.141941e+001 3.840887e+001 3.262783e+001 3.235358e-001 6.118031e-001 1.186391e+000 9.898735e-001 1.294037e+000 1.103822e+000 1.094491e+000 1.297937e+000 1.368288e+000 1.288926e+000 1.119971e+000 9.922325e-001 3.669886e-001 3.809819e-002 6.715595e-002 1.055152e-001 1.138362e-001 1.244454e-001 1.482007e-001 1.496324e-001 1.821756e-001 1.797607e-001 2.095247e-001 1.572896e-001 1.307412e-001 6.127741e-002
<GCONST> 9.284988e+001
<STATE> 4
<MEAN> 39
 -1.390428e+000 -1.453326e+001 -1.140785e+001 -5.575788e+000 -5.790235e-001 -3.883461e+000 3.552497e+000 -2.076244e+000 -1.261395e+000 -5.626347e+000 3.306879e-002 -4.883825e+000 6.904256e+001 -3.388376e-001 1.325802e+000 1.713468e+000 -5.844941e-001 -1.011574e+000 2.601096e-001 8.539026e-002 -5.567455e-001 4.716324e-001 5.514604e-001 -4.779282e-002 -1.004373e-001 -1.709311e+000 -2.179975e-001 3.229154e-001 1.134070e-001 2.333056e-002 1.125627e-001 -1.091969e-001 -1.899092e-001 -5.182151e-002 1.449402e-001 8.184302e-002 -4.980515e-002 7.799125e-002 -4.111805e-001
<VARIANCE> 39
 2.428012e+001 4.925260e+001 5.905738e+001 4.780273e+001 5.899438e+001 4.978277e+001 5.921612e+001 8.888406e+001 6.397878e+001 5.750499e+001 4.459889e+001 3.149876e+001 5.925813e+001 1.587888e+000 1.871856e+000 2.118162e+000 2.093387e+000 2.188453e+000 2.404064e+000 2.482639e+000 2.950629e+000 2.620018e+000 2.571929e+000 1.774722e+000 1.451875e+000 3.137386e+000 2.245952e-001 2.231169e-001 2.849307e-001 2.571090e-001 3.352417e-001 3.064992e-001 3.123908e-001 4.553561e-001 3.856373e-001 3.648974e-001 2.860872e-001 2.029283e-001 3.027275e-001
<GCONST> 1.171960e+002
<TRANSP> 5
 0.000000e+000 1.000000e+000 0.000000e+000 0.000000e+000 0.000000e+000
 0.000000e+000 7.509554e-001 2.490446e-001 0.000000e+000 0.000000e+000
 0.000000e+000 0.000000e+000 8.401319e-001 1.598681e-001 0.000000e+000
 0.000000e+000 0.000000e+000 0.000000e+000 6.166763e-001 3.833237e-001
 0.000000e+000 0.000000e+000 0.000000e+000 0.000000e+000 0.000000e+000
<ENDHMM>
~h "ae"
<BEGINHMM>
<NUMSTATES> 5
<STATE> 2
<MEAN> 39
 -7.069524e+000 -1.200646e+001 -7.204219e+000 -1.542899e+001 1.344057e+000 1.081730e+000 3.519044e+000 -8.045759e+000 -3.418949e-001 -4.907921e+000 -1.624651e+000 -4.375841e+000 7.302242e+001 -4.564475e-002 -4.473214e-001 -1.164384e-001 2.921070e-001 2.233687e-001 2.604202e-001 6.975543e-002 -3.133439e-001 -1.702853e-001 4.918822e-002 -2.765580e-002 1.540197e-001 2.978598e-001 6.348817e-002 8.811454e-002 7.086892e-002 1.075690e-001 -1.284669e-001 -1.428953e-001 6.225486e-004 5.871322e-002 3.325055e-002 5.207288e-002 2.146857e-002 -1.834499e-002 -2.568289e-001
<VARIANCE> 39
 1.196615e+001 3.866384e+001 1.876165e+001 3.511010e+001 6.107952e+001 2.730243e+001 4.845000e+001 3.868887e+001 4.745429e+001 4.018343e+001 3.310538e+001 3.278710e+001 2.697095e+001 2.818145e-001 7.910550e-001 5.544789e-001 8.321903e-001 1.089814e+000 9.598932e-001 8.144637e-001 8.267055e-001 1.149323e+000 8.597730e-001 8.908623e-001 7.073876e-001 8.684570e-001 5.192311e-002 7.930955e-002 6.542931e-002 1.357518e-001 1.056509e-001 1.295616e-001 1.173352e-001 1.109301e-001 1.499200e-001 1.221816e-001 1.364517e-001 1.081896e-001 1.015219e-001
<GCONST> 8.450605e+001
<STATE> 3
<MEAN> 39
 -6.301960e+000 -1.416505e+001 -7.046352e+000 -1.226932e+001 -6.946238e-001 1.721427e+000 5.407799e+000 -8.164721e+000 -2.580688e+000 -3.689867e+000 -2.428526e+000 -4.263875e+000 7.397221e+001 4.946739e-001 5.119442e-001 1.871497e-001 1.008916e-001 -6.366383e-001 -4.576523e-001 9.847606e-002 3.089973e-001 1.279789e-001 2.333990e-001 -8.902622e-002 -1.413295e-001 -9.132828e-001 1.801115e-002 4.478898e-001 1.640480e-001 5.426422e-002 -6.072353e-002 -2.422609e-001 -2.235728e-001 1.705056e-001 1.581625e-001 -2.304912e-003 1.214056e-001 -2.038701e-002 -5.511915e-001
<VARIANCE> 39
 1.793951e+001 2.670163e+001 1.879870e+001 4.220798e+001 4.906701e+001 2.612174e+001 5.533410e+001 5.311229e+001 5.683082e+001 4.417883e+001 3.520698e+001 3.101526e+001 3.952789e+001 4.818848e-001 1.440464e+000 6.983312e-001 1.469443e+000 1.268224e+000 1.338524e+000 1.431354e+000 1.341092e+000 1.821081e+000 1.297328e+000 1.228098e+000 8.998777e-001 1.059916e+000 1.222825e-001 1.376040e-001 9.967411e-002 2.050238e-001 1.669279e-001 1.867434e-001 2.278039e-001 2.083355e-001 2.665168e-001 2.001675e-001 1.793036e-001 1.492605e-001 1.649478e-001
<GCONST> 9.718291e+001
<STATE> 4
<MEAN> 39
 -5.944894e+000 -8.373099e+000 -4.442853e+000 -1.052917e+001 -2.466476e+000 -1.941949e+000 3.367539e+000 -6.325634e+000 -9.591256e-001 -3.396475e+000 -1.255623e+000 -4.908359e+000 6.202797e+001 -4.112126e-001 1.369272e+000 6.177856e-001 1.024906e+000 5.308534e-003 -7.951374e-001 -8.984962e-001 5.546112e-001 2.880222e-001 -4.124434e-002 4.790913e-001 7.581081e-002 -2.791337e+000 -2.378173e-001 -2.019498e-002 -5.159346e-002 1.354247e-001 1.754125e-001 9.322236e-004 -1.003986e-001 1.607939e-003 -4.545011e-003 -4.787985e-002 4.069209e-002 6.800371e-002 -6.047622e-002
<VARIANCE> 39
 3.178301e+001 4.952111e+001 3.526485e+001 6.778974e+001 6.086143e+001 4.678448e+001 6.403679e+001 7.425041e+001 6.325593e+001 5.665269e+001 4.120841e+001 3.821861e+001 1.810184e+002 2.226381e+000 2.790684e+000 1.563480e+000 2.603012e+000 2.238884e+000 2.214208e+000 2.687394e+000 2.470912e+000 2.890136e+000 1.854533e+000 1.774224e+000 1.581843e+000 5.051054e+000 3.366512e-001 4.182633e-001 2.522953e-001 4.512407e-001 3.425498e-001 3.689741e-001 4.232097e-001 3.935190e-001 4.407455e-001 3.097155e-001 2.658300e-001 2.378517e-001 8.709180e-001
<GCONST> 1.221536e+002
<TRANSP> 5
 0.000000e+000 1.000000e+000 0.000000e+000 0.000000e+000 0.000000e+000
 0.000000e+000 8.502213e-001 1.497787e-001 0.000000e+000 0.000000e+000
 0.000000e+000 0.000000e+000 6.275660e-001 3.724340e-001 0.000000e+000
 0.000000e+000 0.000000e+000 0.000000e+000 6.839249e-001 3.160751e-001
 0.000000e+000 0.000000e+000 0.000000e+000 0.000000e+000 0.000000e+000
<ENDHMM>
~h "ah"
<BEGINHMM>
<NUMSTATES> 5
<STATE> 2
<MEAN> 39
 -2.574502e+000 -8.621533e+000 -7.241925e+000 -8.669988e+000 -4.552359e+000 -7.008916e+000 5.795287e+000 -3.262008e+000 -4.158015e-001 -3.193014e+000 -1.457394e+000 -5.115651e+000 6.614895e+001 7.976235e-001 -5.573577e-001 -5.459575e-001 3.076183e-001 -1.025688e-001 -3.356273e-001 6.840210e-001 7.581428e-002 -4.912615e-001 -3.373025e-001 2.075185e-002 -2.122256e-001 9.557647e-001 -1.293793e-001 2.413812e-001 1.649601e-001 1.756110e-001 2.064190e-001 3.538449e-002 -3.746757e-001 -3.577300e-003 9.924382e-002 -1.655756e-002 1.136500e-001 1.022679e-001 -5.210626e-001
<VARIANCE> 39
 3.736515e+001 4.408260e+001 5.778679e+001 6.565044e+001 7.212411e+001 7.417890e+001 6.536586e+001 9.345813e+001 6.828777e+001 6.654401e+001 4.105928e+001 3.956671e+001 7.866440e+001 2.336640e+000 1.705779e+000 2.633654e+000 2.404503e+000 2.530952e+000 2.828434e+000 2.920695e+000 3.117334e+000 2.635760e+000 2.318645e+000 1.993360e+000 1.633139e+000 3.226265e+000 2.976366e-001 2.067387e-001 3.386276e-001 3.308338e-001 4.397251e-001 4.094316e-001 4.142841e-001 5.085578e-001 4.238334e-001 4.239928e-001 2.876311e-001 2.399988e-001 5.211207e-001
<GCONST> 1.230841e+002
<STATE> 3
<MEAN> 39
 -1.626478e+000 -1.067425e+001 -9.779867e+000 -5.865538e+000 -3.661545e+000 -7.106408e+000 5.601958e+000 -2.191715e+000 -1.459977e+000 -5.630667e+000 4.721555e-002 -4.910587e+000 6.884039e+001 3.201380e-001 5.561754e-001 4.462239e-001 2.440395e-001 9.093598e-002 -1.115487e-001 -5.718364e-001 -7.728975e-002 1.479007e-001 1.158534e-001 1.669129e-001 -5.327827e-002 -7.278183e-001 -1.307796e-001 4.295012e-001 3.828860e-001 -1.583951e-002 1.923441e-001 2.448395e-002 -4.222799e-001 -1.203718e-001 1.325205e-001 1.798775e-001 -3.422384e-002 4.988805e-002 -6.693134e-001
<VARIANCE> 39
 2.262329e+001 4.088250e+001 5.309205e+001 5.381485e+001 6.120162e+001 5.316022e+001 5.855197e+001 9.174700e+001 6.197763e+001 5.694135e+001 4.039910e+001 4.274236e+001 5.696041e+001 1.170427e+000 1.262907e+000 2.451153e+000 1.957298e+000 2.087881e+000 1.930588e+000 2.502283e+000 2.461815e+000 2.352970e+000 2.221271e+000 1.453534e+000 1.206562e+000 1.975648e+000 2.337997e-001 1.777879e-001 2.815218e-001 3.300624e-001 3.691921e-001 4.003664e-001 3.203089e-001 4.856757e-001 3.648073e-001 3.424495e-001 2.652675e-001 2.510788e-001 3.420060e-001
<GCONST> 1.156825e+002
<STATE> 4
<MEAN> 39
 -3.946561e-001 -5.618751e+000 -5.462596e+000 -5.252904e+000 -2.568758e+000 -6.873740e+000 1.845676e+000 -3.242074e+000 1.156069e+000 -3.718066e+000 5.675166e-001 -5.059075e+000 6.163303e+001 -2.868593e-001 1.145364e+000 8.326772e-001 3.330198e-001 6.960677e-001 3.546667e-002 -9.673246e-001 -3.053128e-001 5.417635e-002 2.642172e-001 1.130615e-001 1.737768e-001 -1.754304e+000 -2.324564e-001 4.196491e-002 2.636807e-002 -3.908643e-002 1.169422e-001 5.946065e-002 -1.669694e-002 6.119091e-003 -5.507312e-002 -1.078641e-002 -4.609372e-002 5.668818e-002 -1.582489e-001
<VARIANCE> 39
 4.172503e+001 4.707344e+001 8.519176e+001 6.236806e+001 8.330334e+001 6.562197e+001 6.793365e+001 7.537161e+001 6.607199e+001 5.538243e+001 4.634837e+001 3.945527e+001 8.319112e+001 2.261764e+000 1.660769e+000 2.964254e+000 2.463055e+000 2.358145e+000 2.557074e+000 2.620778e+000 3.151304e+000 2.433406e+000 2.257362e+000 1.866106e+000 1.530837e+000 3.436960e+000 2.437823e-001 2.119862e-001 3.435058e-001 3.372115e-001 3.521964e-001 3.521373e-001 3.492565e-001 3.938022e-001 3.656979e-001 3.007458e-001 2.696385e-001 2.207125e-001 3.872377e-001
<GCONST> 1.211629e+002
<TRANSP> 5
 0.000000e+000 1.000000e+000 0.000000e+000 0.000000e+000 0.000000e+000
 0.000000e+000 4.812071e-001 5.187929e-001 0.000000e+000 0.000000e+000
 0.000000e+000 0.000000e+000 5.088023e-001 4.911977e-001 0.000000e+000
 0.000000e+000 0.000000e+000 0.000000e+000 4.959109e-001 5.040891e-001
 0.000000e+000 0.000000e+000 0.000000e+000 0.000000e+000 0.000000e+000
<ENDHMM>
~h "aw"
<BEGINHMM>
<NUMSTATES> 5
<STATE> 2
<MEAN> 39
 -7.069813e+000 -1.777885e+001 -8.358475e+000 -6.154858e+000 -3.579312e-001 -1.397908e+000 4.958670e+000 -9.504010e+000 -1.972804e+000 -4.339320e+000 -1.229786e+000 -5.248300e+000 7.447842e+001 9.608601e-002 -7.822437e-001 -4.781720e-001 1.189182e+000 -2.841893e-002 -4.147804e-001 5.371108e-001 -7.368764e-003 -2.596880e-001 -2.161021e-001 5.222379e-001 -5.306669e-002 5.883263e-001 6.530789e-002 2.798731e-001 -1.557152e-002 -1.313511e-002 -4.129450e-002 -1.399622e-001 -1.182723e-001 2.162909e-001 8.545090e-002 -3.405994e-002 4.952768e-002 1.261962e-002 -4.081378e-001
<VARIANCE> 39
 1.940649e+001 1.958545e+001 3.320747e+001 3.874554e+001 2.277046e+001 3.256012e+001 3.316784e+001 5.259116e+001 4.974146e+001 4.644698e+001 3.219388e+001 1.973664e+001 2.472856e+001 1.064152e+000 9.642500e-001 1.171321e+000 1.184706e+000 1.353199e+000 1.572940e+000 1.013381e+000 1.646753e+000 1.373749e+000 1.856735e+000 1.252437e+000 8.039700e-001 1.432893e+000 1.535381e-001 1.056466e-001 1.425876e-001 1.664213e-001 1.548381e-001 2.301635e-001 1.875426e-001 2.050926e-001 2.263326e-001 2.482552e-001 2.110691e-001 1.366196e-001 1.394142e-001
<GCONST> 9.633095e+001
<STATE> 3
<MEAN> 39
 -3.362754e+000 -1.784898e+001 -1.380955e+001 -4.272435e-001 -8.829270e-001 -5.602568e+000 5.267015e+000 -3.016136e+000 -3.261811e+000 -8.385716e+000 1.076251e+000 -4.240671e+000 7.292339e+001 5.435672e-001 4.590083e-001 -4.665792e-001 -1.302177e-001 1.325096e-001 -3.434132e-001 -3.640641e-001 5.015596e-001 5.580311e-001 -5.226113e-001 -2.332649e-001 4.168347e-002 -5.964948e-001 5.216963e-002 2.075660e-001 1.570891e-001 -2.771618e-001 3.741809e-003 -4.440759e-002 -9.732123e-002 -5.770276e-002 1.422760e-001 1.161137e-001 -1.346939e-001 -5.588978e-002 -1.918145e-001
<VARIANCE> 39
 1.426797e+001 1.697627e+001 3.427627e+001 3.743701e+001 3.646919e+001 2.498493e+001 3.221251e+001 6.368642e+001 5.003659e+001 4.688694e+001 1.853328e+001 2.923713e+001 2.659808e+001 3.730127e-001 4.165797e-001 7.302094e-001 8.534685e-001 7.082295e-001 8.254790e-001 1.050545e+000 9.549784e-001 1.700932e+000 9.198352e-001 6.819414e-001 6.826265e-001 3.356297e-001 4.034388e-002 6.750461e-002 1.398714e-001 1.053342e-001 1.034299e-001 1.338951e-001 1.368577e-001 1.562564e-001 2.048424e-001 1.600065e-001 1.048395e-001 1.016643e-001 5.178734e-002
<GCONST> 8.265636e+001
<STATE> 4
<MEAN> 39
 5.552059e-001 -1.244839e+001 -1.454969e+001 -5.142510e+000 -5.238086e-001 -8.807321e+000 1.274833e+000 -1.652129e+000 2.137808e+000 -8.068334e+000 1.816604e-001 -4.955812e+000 6.627335e+001 -1.043807e-001 1.497849e+000 1.640978e+000 -8.290455e-001 -4.046085e-001 -3.765551e-001 -5.544196e-001 -1.526258e-001 -6.850857e-002 7.066186e-001 -1.240476e-001 1.810629e-001 -1.893308e+000 -3.954976e-001 1.703617e-001 4.094236e-001 2.852222e-002 -2.391370e-002 1.576581e-001 7.913940e-002 -1.780171e-001 -2.277742e-001 1.598275e-001 4.095347e-002 8.165493e-002 -1.681899e-001
<VARIANCE> 39
 1.430553e+001 2.726412e+001 6.199917e+001 4.296485e+001 4.066454e+001 5.025006e+001 6.486975e+001 5.509022e+001 5.881681e+001 5.008718e+001 3.134660e+001 3.553363e+001 5.663104e+001 1.584481e+000 1.967467e+000 2.546425e+000 2.512547e+000 1.970606e+000 2.637445e+000 2.471143e+000 2.124588e+000 3.803256e+000 1.828711e+000 1.539842e+000 2.188893e+000 1.946764e+000 1.747421e-001 2.221366e-001 3.184115e-001 2.967430e-001 2.688688e-001 3.575606e-001 4.049038e-001 3.163066e-001 4.865190e-001 3.468875e-001 2.603085e-001 2.731243e-001 2.537856e-001
<GCONST> 1.146955e+002
<TRANSP> 5
 0.000000e+000 1.000000e+000 0.000000e+000 0.000000e+000 0.000000e+000
 0.000000e+000 8.090786e-001 1.909214e-001 0.000000e+000 0.000000e+000
 0.000000e+000 0.000000e+000 8.331703e-001 1.668297e-001 0.000000e+000
 0.000000e+000 0.000000e+000 0.000000e+000 7.555229e-001 2.444771e-001
 0.000000e+000 0.000000e+000 0.000000e+000 0.000000e+000 0.000000e+000
<ENDHMM>
~h "ay"
<BEGINHMM>
<NUMSTATES> 5
<STATE> 2
<MEAN> 39
 -2.853336e+000 -1.454667e+001 -1.240495e+001 -3.576516e+000 2.193656e+000 -6.370490e+000 5.004956e+000 -1.927486e+000 -4.668947e+000 -6.344995e+000 2.757476e-001 -2.241723e+000 6.972102e+001 -3.472798e-001 -8.247938e-001 2.595196e-001 -8.726016e-004 -1.902942e-001 4.906535e-001 6.595926e-001 -4.920411e-001 -8.637799e-001 1.862726e-001 3.647072e-001 -1.527157e-001 1.227227e+000 -1.086804e-001 3.663553e-001 3.916856e-001 -2.087664e-001 -1.956451e-001 1.194530e-001 -2.192051e-001 -1.432190e-001 3.044773e-001 2.777162e-001 -7.743517e-002 -7.890711e-002 -3.937820e-001
<VARIANCE> 39
 1.970421e+001 2.788691e+001 5.649576e+001 5.500266e+001 7.492872e+001 4.919023e+001 5.290720e+001 8.105148e+001 5.327483e+001 5.294488e+001 4.200639e+001 4.649285e+001 8.210707e+001 1.161833e+000 1.691377e+000 2.655527e+000 2.195431e+000 2.762092e+000 2.418659e+000 1.824417e+000 2.200302e+000 2.749514e+000 2.269787e+000 1.785900e+000 1.395781e+000 2.083842e+000 1.551760e-001 1.610486e-001 2.388935e-001 2.837605e-001 3.167234e-001 3.166536e-001 3.489659e-001 3.534758e-001 4.248185e-001 3.071537e-001 3.082674e-001 2.384934e-001 2.190249e-001
<GCONST> 1.148015e+002
<STATE> 3
<MEAN> 39
 -5.196980e+000 -1.666185e+001 -7.551706e+000 -5.162247e+000 -2.746266e-001 -2.183173e+000 5.920827e+000 -7.252235e+000 -4.040330e+000 -2.513248e+000 2.756990e-001 -4.029126e+000 7.230232e+001 -2.997283e-001 5.623878e-001 7.032019e-001 -1.097498e+000 -3.451000e-001 8.293376e-001 -2.223556e-001 -4.400432e-001 4.911095e-001 3.006042e-001 -4.304709e-001 -6.593332e-002 -7.492600e-003 7.767363e-002 2.947673e-001 -1.866434e-002 -2.214635e-001 -5.001871e-003 -6.961338e-002 -1.643098e-001 1.617447e-001 2.074498e-001 -1.398385e-001 -7.881655e-002 7.305180e-002 -1.865456e-001
<VARIANCE> 39
 1.533065e+001 2.382939e+001 2.755414e+001 5.137780e+001 4.121218e+001 3.624955e+001 4.224180e+001 6.192072e+001 7.466560e+001 3.709051e+001 3.223521e+001 3.038200e+001 4.825418e+001 2.691695e-001 8.041165e-001 8.786957e-001 1.712325e+000 1.268824e+000 1.252916e+000 1.160892e+000 1.100243e+000 1.573989e+000 1.408894e+000 1.142584e+000 8.082024e-001 2.976576e-001 3.471160e-002 8.656851e-002 8.232309e-002 1.301973e-001 1.216590e-001 1.919858e-001 2.001580e-001 2.023224e-001 2.451370e-001 1.606530e-001 1.524933e-001 1.256005e-001 6.259306e-002
<GCONST> 9.052534e+001
<STATE> 4
<MEAN> 39
 -5.438261e+000 -4.942642e+000 -3.130415e+000 -1.714943e+001 -3.461152e+000 -1.061540e+000 1.710243e+000 -5.679071e+000 1.686237e+000 -3.095026e+000 -2.409450e+000 -3.925290e+000 6.792120e+001 1.267180e-001 1.623204e+000 6.927235e-001 -4.323951e-001 -1.856128e-001 -7.376086e-001 -7.908625e-001 4.063273e-001 5.697807e-001 1.243369e-001 1.299782e-001 1.183058e-001 -1.666982e+000 1.190292e-002 -1.648016e-001 -8.699238e-002 5.837575e-001 1.542109e-001 -2.023932e-001 7.527574e-002 2.869403e-002 -2.391547e-001 6.527512e-004 1.636220e-001 5.626595e-003 -3.597400e-001
<VARIANCE> 39
 1.534320e+001 6.092223e+001 4.459787e+001 4.871845e+001 6.369340e+001 6.133474e+001 4.948238e+001 5.343322e+001 4.726293e+001 4.630247e+001 3.807423e+001 3.980478e+001 7.100545e+001 6.320116e-001 1.989660e+000 1.693601e+000 4.101578e+000 1.889583e+000 2.350410e+000 2.532515e+000 2.504636e+000 2.731885e+000 2.104054e+000 1.669765e+000 1.482059e+000 2.186953e+000 1.222191e-001 2.730269e-001 2.256176e-001 3.416124e-001 3.014394e-001 4.992521e-001 3.653658e-001 3.406986e-001 3.234310e-001 3.514740e-001 2.715425e-001 2.483460e-001 1.998891e-001
<GCONST> 1.141505e+002
<TRANSP> 5
 0.000000e+000 1.000000e+000 0.000000e+000 0.000000e+000 0.000000e+000
 0.000000e+000 7.102185e-001 2.897815e-001 0.000000e+000 0.000000e+000
 0.000000e+000 0.000000e+000 7.912521e-001 2.087479e-001 0.000000e+000
 0.000000e+000 0.000000e+000 0.000000e+000 7.901129e-001 2.098872e-001
 0.000000e+000 0.000000e+000 0.000000e+000 0.000000e+000 0.000000e+000
<ENDHMM>
~h "ch"
<BEGINHMM>
<NUMSTATES> 5
<STATE> 2
<MEAN> 39
 -1.833343e+001 -8.142093e-001 -6.301983e+000 -3.146683e+000 -7.759806e-001 -4.296383e+000 -3.236447e-001 -4.690528e+000 7.436508e-001 -5.711879e+000 8.519224e-001 -3.618613e+000 4.843559e+001 -2.428282e+000 -5.118080e-001 -1.625177e+000 1.477256e-001 1.721145e-001 6.314837e-002 6.222472e-001 5.376445e-001 7.072911e-001 3.681477e-001 7.242668e-001 2.155290e-001 1.512351e+000 2.459261e-001 1.221770e-001 -8.216155e-003 -6.543857e-001 -7.116219e-002 -2.871708e-002 -2.455743e-002 -1.061702e-001 8.501082e-002 1.266665e-001 -8.151220e-002 1.181671e-002 1.205500e+000
<VARIANCE> 39
 3.778349e+001 3.428171e+001 3.323151e+001 2.647498e+001 1.945826e+001 2.449333e+001 2.708434e+001 2.921909e+001 2.487325e+001 3.491159e+001 2.961363e+001 1.942544e+001 9.303003e+001 1.779734e+000 2.232555e+000 1.520087e+000 2.182533e+000 1.042160e+000 1.102674e+000 1.922067e+000 1.620177e+000 1.703373e+000 1.626047e+000 1.663571e+000 1.283502e+000 6.743906e+000 3.716287e-001 4.948924e-001 4.160844e-001 3.479902e-001 2.259915e-001 2.551304e-001 3.311538e-001 2.414856e-001 3.146444e-001 3.578790e-001 2.349812e-001 1.816512e-001 1.003577e+000
<GCONST> 1.093187e+002
<STATE> 3
<MEAN> 39
 -2.472706e+001 1.307645e+000 -1.118275e+001 -5.542625e+000 5.075796e-001 -4.273887e+000 1.405982e+000 -3.812176e+000 3.855176e+000 -3.699632e+000 1.687664e+000 -2.074852e+000 5.991607e+001 -3.980559e-001 4.181758e-001 7.401216e-002 -1.194813e+000 2.722879e-001 -1.822090e-001 4.679638e-002 -1.897810e-001 2.239611e-001 2.741685e-001 -2.375356e-001 5.866957e-002 1.756934e+000 7.860539e-001 -7.076097e-002 5.935795e-001 -2.241614e-001 -1.264783e-001 -6.018168e-002 -1.670267e-001 -1.338651e-001 -2.351379e-001 -2.035975e-002 -1.712889e-001 -1.234232e-001 -4.004689e-001
<VARIANCE> 39
 1.463307e+001 2.698991e+001 1.872313e+001 1.905807e+001 1.630248e+001 1.670650e+001 1.645388e+001 1.814327e+001 2.003455e+001 2.335389e+001 2.145753e+001 1.985149e+001 2.402676e+001 2.490992e+000 1.202225e+000 1.846165e+000 1.323051e+000 1.021805e+000 9.223601e-001 1.074350e+000 8.392107e-001 1.311587e+000 1.322829e+000 1.593574e+000 8.576124e-001 3.341455e+000 2.451942e-001 3.385817e-001 1.741116e-001 2.310819e-001 2.287658e-001 1.642936e-001 2.460168e-001 1.914767e-001 2.339919e-001 2.092502e-001 2.827883e-001 1.937690e-001 3.848798e-001
<GCONST> 9.520390e+001
<STATE> 4
<MEAN> 39
 -1.849450e+001 1.610336e-001 -4.981522e+000 -1.302147e+001 3.815194e-001 -5.686380e+000 9.916648e-002 -5.506306e+000 1.472729e+000 -2.416928e+000 -9.894983e-001 -4.332960e+000 6.298758e+001 2.605411e+000 -9.989647e-001 1.138548e+000 -8.300447e-001 -1.233410e+000 1.695634e-002 -5.176974e-001 -3.761384e-001 -3.798954e-001 -3.447532e-001 -2.674363e-002 -8.244601e-001 8.124137e-001 2.379182e-001 -2.135086e-001 -1.995514e-001 3.930210e-001 -2.513531e-001 6.836131e-002 1.958573e-002 7.199147e-002 6.139850e-002 -1.883005e-001 1.961177e-001 -3.194957e-002 -9.348009e-003
<VARIANCE> 39
 5.206016e+001 2.621905e+001 3.173295e+001 3.614526e+001 3.496627e+001 3.001908e+001 2.531149e+001 2.998455e+001 2.832381e+001 4.412367e+001 3.797048e+001 3.045670e+001 2.776337e+001 1.922727e+000 1.651639e+000 1.680948e+000 2.905070e+000 2.142760e+000 2.235411e+000 1.843456e+000 2.432464e+000 1.549381e+000 2.197919e+000 2.687733e+000 1.348753e+000 1.940124e+000 4.687989e-001 2.153044e-001 2.565165e-001 2.809667e-001 3.315209e-001 3.343990e-001 2.749678e-001 3.367781e-001 2.361656e-001 3.638942e-001 3.017520e-001 2.309785e-001 2.489776e-001
<GCONST> 1.100107e+002
<TRANSP> 5
 0.000000e+000 1.000000e+000 0.000000e+000 0.000000e+000 0.000000e+000
 0.000000e+000 3.845910e-001 6.154090e-001 0.000000e+000 0.000000e+000
 0.000000e+000 0.000000e+000 7.620637e-001 2.379363e-001 0.000000e+000
 0.000000e+000 0.000000e+000 0.000000e+000 7.215210e-001 2.784790e-001
 0.000000e+000 0.000000e+000 0.000000e+000 0.000000e+000 0.000000e+000
<ENDHMM>
~h "dh"
<BEGINHMM>
<NUMSTATES> 5
<STATE> 2
<MEAN> 39
 -8.816864e+000 -2.237680e+000 -1.496450e+000 -4.003356e+000 -1.362611e+000 -5.313296e+000 5.229034e-001 -3.661073e+000 -2.984975e-001 -2.612054e+000 1.337049e+000 -3.142431e+000 4.645032e+001 2.995699e-001 -1.327892e-001 -2.370459e-001 -3.949691e-001 -3.105603e-001 1.600427e-001 2.583612e-001 4.652612e-002 8.328258e-002 1.163848e-001 -3.587499e-002 -5.998438e-002 1.577930e+000 2.176623e-001 -1.613347e-001 -1.467569e-001 -5.020974e-001 -2.823589e-001 -3.532046e-002 9.095614e-002 -6.665455e-002 1.504970e-001 9.212230e-002 -9.363502e-002 -4.916262e-002 9.825729e-001
<VARIANCE> 39
 4.275377e+001 3.488759e+001 3.526925e+001 2.547728e+001 2.518143e+001 3.718988e+001 3.094588e+001 3.680376e+001 4.561381e+001 2.890329e+001 2.321851e+001 2.067709e+001 8.806557e+001 1.672395e+000 1.739362e+000 1.567244e+000 1.937934e+000 1.563281e+000 1.473717e+000 1.626434e+000 1.746631e+000 2.000862e+000 1.632635e+000 1.127197e+000 8.481497e-001 5.753766e+000 2.908576e-001 3.439871e-001 3.094368e-001 3.635986e-001 2.712385e-001 3.263187e-001 2.891776e-001 3.224934e-001 3.886736e-001 2.861750e-001 2.399150e-001 1.706173e-001 5.755353e-001
<GCONST> 1.092196e+002
<STATE> 3
<MEAN> 39
 -8.862478e+000 -5.212623e+000 -4.462680e+000 -7.357222e+000 -3.019448e+000 -4.994794e+000 9.400563e-001 -4.213042e+000 9.807952e-001 -1.768159e+000 1.467349e+000 -3.307542e+000 5.472884e+001 1.161794e+000 -3.728604e-001 -3.821345e-001 -1.675988e+000 -1.296409e+000 -1.239836e-001 4.994143e-001 -2.555186e-001 2.578302e-001 5.236051e-001 -4.702524e-001 -3.245288e-001 3.990246e+000 1.821721e-001 6.570893e-002 6.248864e-002 -2.544132e-001 -1.092276e-001 -5.199468e-002 4.429550e-002 -3.355427e-002 -1.671159e-002 -9.775666e-003 -1.559145e-001 -6.907395e-002 2.398246e-001
<VARIANCE> 39
 4.039902e+001 2.657710e+001 3.364459e+001 2.229331e+001 2.548710e+001 3.482581e+001 2.803518e+001 3.415414e+001 4.759135e+001 3.349044e+001 2.141954e+001 2.162395e+001 5.774501e+001 1.792604e+000 1.513665e+000 1.561265e+000 2.025703e+000 1.457922e+000 2.239041e+000 2.163740e+000 2.380430e+000 2.387663e+000 2.877078e+000 1.516262e+000 1.436322e+000 3.774249e+000 2.197247e-001 2.266233e-001 2.248046e-001 2.102062e-001 1.996835e-001 2.432175e-001 2.839533e-001 2.801402e-001 3.261788e-001 2.390780e-001 2.049520e-001 1.879198e-001 3.689561e-001
<GCONST> 1.070892e+002
<STATE> 4
<MEAN> 39
 -3.657037e+000 -5.655199e+000 -3.913116e+000 -1.221955e+001 -8.204167e+000 -5.799942e+000 3.719815e+000 -4.456099e+000 -4.055643e-003 6.329882e-001 -1.873869e+000 -5.238223e+000 6.494986e+001 7.298923e-001 -5.041086e-001 -3.266249e-001 -1.605195e+000 -8.332923e-001 2.060606e-001 5.240898e-001 -3.968167e-001 1.168718e-001 1.984688e-001 -6.592486e-001 -1.693941e-001 3.053349e+000 -2.783504e-001 1.207919e-001 6.072039e-002 3.185718e-001 4.326282e-001 1.257823e-001 -1.982056e-001 -2.352918e-002 3.550283e-004 -2.302912e-001 1.334582e-001 1.570577e-001 -7.468549e-001
<VARIANCE> 39
 1.691224e+001 3.497002e+001 3.071407e+001 3.914836e+001 3.724393e+001 4.293360e+001 4.255392e+001 6.263127e+001 6.406786e+001 6.903300e+001 3.523454e+001 3.071192e+001 5.042635e+001 1.785283e+000 1.751655e+000 1.520957e+000 1.997520e+000 1.857660e+000 2.537029e+000 2.256902e+000 2.285383e+000 2.682555e+000 1.922855e+000 1.624899e+000 1.709391e+000 3.160915e+000 1.767405e-001 1.648208e-001 1.761344e-001 2.542132e-001 2.053688e-001 2.320749e-001 2.838888e-001 3.419681e-001 3.002798e-001 3.833258e-001 2.422231e-001 1.759022e-001 3.849546e-001
<GCONST> 1.106838e+002
<TRANSP> 5
 0.000000e+000 1.000000e+000 0.000000e+000 0.000000e+000 0.000000e+000
 0.000000e+000 5.164819e-001 4.835180e-001 0.000000e+000 0.000000e+000
 0.000000e+000 0.000000e+000 3.808065e-001 6.191934e-001 0.000000e+000
 0.000000e+000 0.000000e+000 0.000000e+000 4.729264e-001 5.270736e-001
 0.000000e+000 0.000000e+000 0.000000e+000 0.000000e+000 0.000000e+000
<ENDHMM>
~h "dx"
<BEGINHMM>
<NUMSTATES> 5
<STATE> 2
<MEAN> 39
 -3.780363e+000 -7.282138e+000 -7.359357e-001 -1.180614e+001 -5.536848e+000 -9.160039e+000 3.084334e+000 -4.670346e+000 -1.666901e+000 -1.279675e+000 -6.270480e-001 -3.749574e+000 6.418781e+001 1.719867e-002 4.732662e-001 8.126473e-001 -1.319527e-001 -6.853715e-001 -3.114355e-001 3.476032e-001 -7.845826e-001 3.154668e-001 7.174449e-001 -1.931613e-001 1.752642e-001 -6.241879e-001 3.955847e-002 -1.915898e-001 -5.510029e-001 -8.640882e-002 -5.758327e-003 1.635981e-001 -4.682338e-002 1.635321e-001 2.808358e-001 -2.494522e-001 1.047829e-001 -9.192444e-002 5.303428e-001
<VARIANCE> 39
 1.755853e+001 7.240648e+001 4.748475e+001 4.330194e+001 4.185924e+001 4.936880e+001 6.103989e+001 6.456004e+001 5.203226e+001 5.036086e+001 2.752324e+001 2.392320e+001 5.619135e+001 4.372527e-001 1.440634e+000 1.896833e+000 1.543316e+000 2.011507e+000 1.868717e+000 2.007585e+000 1.985290e+000 1.927048e+000 2.155518e+000 1.592223e+000 1.244240e+000 8.182579e-001 8.768457e-002 1.983850e-001 3.384517e-001 3.756867e-001 3.638059e-001 3.491366e-001 2.959057e-001 3.588745e-001 4.474338e-001 3.909365e-001 2.421921e-001 2.147536e-001 2.779005e-001
<GCONST> 1.095819e+002
<STATE> 3
<MEAN> 39
 -4.984581e+000 -5.161148e+000 -1.039294e+000 -1.368091e+001 -6.604110e+000 -8.504668e+000 3.673167e+000 -6.835259e+000 4.773384e-001 -6.577336e-002 -8.375506e-001 -4.266606e+000 6.542717e+001 7.091788e-002 4.545894e-002 -6.558175e-002 -3.940690e-001 -5.139458e-001 7.229758e-002 1.682112e-001 -1.863768e-001 6.905903e-001 -1.183307e-001 4.425183e-002 1.296196e-002 3.354032e-001 6.983665e-002 -2.447239e-001 -3.639635e-001 -4.655495e-002 1.076769e-001 1.646619e-001 -1.755050e-001 2.702948e-001 3.853671e-002 -2.954904e-001 1.073442e-001 -2.187017e-002 3.649745e-001
<VARIANCE> 39
 1.584758e+001 6.330333e+001 3.581395e+001 2.942847e+001 3.514474e+001 4.368684e+001 5.807560e+001 4.386004e+001 4.531417e+001 4.209012e+001 2.800038e+001 2.544225e+001 3.771836e+001 3.685561e-001 1.501606e+000 1.229255e+000 1.346185e+000 1.510309e+000 1.704061e+000 2.067393e+000 1.420224e+000 1.565874e+000 1.511817e+000 1.182483e+000 1.199657e+000 8.899657e-001 8.040252e-002 2.135251e-001 2.803072e-001 3.887878e-001 2.896289e-001 3.497301e-001 2.596347e-001 2.693330e-001 3.126278e-001 2.875580e-001 2.242881e-001 1.891983e-001 2.261077e-001
<GCONST> 1.032223e+002
<STATE> 4
<MEAN> 39
 -4.877245e+000 -6.273311e+000 -2.628954e+000 -1.695516e+001 -7.438010e+000 -7.140576e+000 3.169208e+000 -7.425169e+000 3.579254e+000 -2.303389e+000 -1.295416e+000 -2.938153e+000 6.882006e+001 1.425731e-001 -2.770348e-001 -3.497262e-001 -3.147173e-001 -2.082890e-001 3.394634e-001 -2.309566e-001 1.589111e-001 4.170437e-001 -4.267153e-001 1.939453e-001 6.229986e-002 5.543706e-001 6.263826e-002 -2.942011e-002 -1.164371e-001 2.237372e-001 1.663008e-001 7.321265e-003 -1.846750e-001 1.311559e-001 -1.892198e-001 -7.257844e-002 6.786788e-002 -2.367188e-002 -1.264025e-001
<VARIANCE> 39
 1.533331e+001 6.326300e+001 2.845175e+001 3.429338e+001 3.589560e+001 4.217162e+001 6.946632e+001 3.774550e+001 3.771899e+001 4.023148e+001 3.252949e+001 3.836554e+001 2.968165e+001 4.731248e-001 1.602171e+000 1.239641e+000 1.809992e+000 1.725299e+000 2.078043e+000 2.109023e+000 1.764625e+000 1.949930e+000 1.778796e+000 1.317493e+000 1.234880e+000 1.401712e+000 5.809066e-002 1.369146e-001 1.952046e-001 2.461440e-001 2.036384e-001 2.613894e-001 2.838759e-001 2.046070e-001 2.204715e-001 2.398885e-001 2.097801e-001 1.661312e-001 2.010675e-001
<GCONST> 1.021176e+002
<TRANSP> 5
 0.000000e+000 1.000000e+000 0.000000e+000 0.000000e+000 0.000000e+000
 0.000000e+000 3.247586e-001 6.752415e-001 0.000000e+000 0.000000e+000
 0.000000e+000 0.000000e+000 2.743216e-001 7.256784e-001 0.000000e+000
 0.000000e+000 0.000000e+000 0.000000e+000 4.035282e-001 5.964717e-001
 0.000000e+000 0.000000e+000 0.000000e+000 0.000000e+000 0.000000e+000
<ENDHMM>
~h "eh"
<BEGINHMM>
<NUMSTATES> 5
<STATE> 2
<MEAN> 39
