~o
<STREAMINFO> 1 39
<VECSIZE> 39<NULLD><MFCC_D_A_0><DIAGC>
~s "silst"
<NUMMIXES> 5
<MIXTURE> 1 2.303530e-001
<MEAN> 39
 -3.740839e+000 6.844599e-001 7.307696e-001 -6.635635e+000 -3.123439e+000 -5.495524e+000 -6.076146e-001 -3.033749e+000 1.079742e+000 -1.793250e+000 1.099853e+000 -2.672983e+000 5.125806e+001 -1.042067e-001 -7.375841e-003 1.688075e-001 5.358635e-001 8.810096e-002 1.286337e-001 8.412132e-002 8.303934e-002 -4.372337e-002 -4.315916e-002 6.497652e-002 5.208106e-002 -1.145900e+000 -9.824180e-002 -8.825980e-002 -1.063444e-001 4.657576e-003 7.513049e-002 1.603196e-002 -1.392884e-003 -2.103531e-002 3.098127e-004 -1.118670e-002 -2.985046e-002 -2.014936e-002 1.158488e-001
<VARIANCE> 39
 6.422389e+001 6.780029e+001 6.550353e+001 9.121651e+001 7.386835e+001 6.245533e+001 5.814294e+001 4.318473e+001 4.989789e+001 3.885514e+001 3.054293e+001 3.584890e+001 1.017623e+002 9.362032e-001 7.754242e-001 1.085178e+000 1.391021e+000 1.516871e+000 1.519001e+000 1.700878e+000 1.350341e+000 1.359564e+000 1.380352e+000 1.075938e+000 9.923761e-001 1.645976e+000 1.167403e-001 1.056480e-001 1.503882e-001 1.780053e-001 1.968360e-001 2.296853e-001 2.604043e-001 2.234106e-001 2.205767e-001 1.983522e-001 1.487113e-001 1.560707e-001 1.251668e-001
<GCONST> 1.042315e+002
<MIXTURE> 2 2.940223e-001
<MEAN> 39
 -2.884931e+000 -5.039168e+000 -2.641909e+000 -9.637946e+000 -7.487298e+000 -7.233378e+000 1.061252e+000 -5.251906e+000 7.520014e-001 -2.286823e+000 -5.690558e-001 -4.884368e+000 5.692017e+001 -7.339264e-001 1.177208e+000 7.548252e-001 1.193249e+000 9.641921e-001 1.479794e-001 -3.543550e-001 8.149583e-003 -1.118599e-001 -1.307688e-001 1.377225e-001 2.974131e-001 -3.470713e+000 -3.704455e-001 -1.271366e-001 -2.379218e-001 1.756828e-001 4.436511e-001 1.418605e-001 -2.218108e-002 1.334006e-001 -6.634946e-002 -1.376556e-001 5.563417e-002 5.701734e-002 8.159888e-002
<VARIANCE> 39
 3.228011e+001 5.174786e+001 7.003231e+001 7.982625e+001 8.109820e+001 9.300875e+001 8.331518e+001 1.040328e+002 7.962669e+001 7.499831e+001 6.577775e+001 5.292217e+001 7.673792e+001 2.459657e+000 3.788967e+000 3.350586e+000 3.647127e+000 4.293844e+000 3.557356e+000 3.651910e+000 3.717386e+000 3.758060e+000 3.185854e+000 2.723226e+000 2.295569e+000 7.141052e+000 2.627378e-001 2.816031e-001 4.209010e-001 4.538871e-001 5.663388e-001 5.684800e-001 5.537020e-001 6.715152e-001 5.953214e-001 4.951112e-001 5.086578e-001 4.021701e-001 5.155158e-001
<GCONST> 1.334109e+002
<MIXTURE> 3 1.343189e-001
<MEAN> 39
 -2.934840e+000 3.425570e+000 2.105296e+000 -1.241898e+001 -1.372606e+000 -7.356388e+000 -5.178936e+000 -5.317863e+000 3.641143e-001 -2.408986e+000 6.443716e-001 -2.824013e+000 5.512480e+001 -6.014658e-001 7.724280e-001 9.010017e-001 2.934570e+000 7.555119e-001 5.349233e-001 2.582679e-001 1.122606e-001 -5.064024e-001 -2.386619e-001 1.735709e-001 1.874666e-001 -4.387438e+000 -5.020344e-001 -6.546395e-001 -5.345113e-001 2.708982e-001 -2.361066e-002 2.774947e-001 5.192674e-001 1.650482e-001 1.269545e-001 -3.951804e-002 4.677639e-003 -5.052940e-002 2.585817e-001
<VARIANCE> 39
 2.122118e+001 2.942460e+001 3.544226e+001 6.525348e+001 4.659063e+001 5.649222e+001 4.801769e+001 3.986781e+001 4.708911e+001 4.607869e+001 3.487159e+001 2.776083e+001 4.984468e+001 1.769310e+000 2.538388e+000 2.307748e+000 2.294129e+000 2.562431e+000 2.661664e+000 2.399796e+000 1.987493e+000 2.027354e+000 1.865234e+000 1.817695e+000 1.412984e+000 3.607690e+000 1.699875e-001 2.420396e-001 2.340222e-001 4.123870e-001 3.360403e-001 4.239824e-001 4.227988e-001 3.539728e-001 3.826543e-001 3.237111e-001 2.846811e-001 2.229048e-001 4.272311e-001
<GCONST> 1.148937e+002
<MIXTURE> 4 2.068653e-001
<MEAN> 39
 -9.108449e+000 -2.672115e+000 -3.159875e+000 -3.692053e+000 -2.220407e+000 -3.767938e+000 7.971571e-001 -4.375205e+000 1.431345e-001 -3.214341e+000 -2.155847e-001 -3.799291e+000 4.879122e+001 1.126041e-001 -1.017145e-001 2.497371e-001 2.534982e-001 1.698131e-001 -1.086120e-001 -6.153904e-002 7.473400e-002 -1.675579e-001 -1.391108e-001 -7.889491e-002 -5.111453e-002 -1.346599e+000 1.116987e-001 -1.829702e-002 -2.583741e-002 -1.363060e-001 2.905149e-002 -7.931484e-002 -6.745064e-002 -2.096016e-003 -1.558485e-002 -5.239077e-003 -1.003648e-002 -9.042683e-004 2.028636e-001
<VARIANCE> 39
 6.798137e+001 6.518728e+001 5.390392e+001 6.180429e+001 6.416410e+001 4.689137e+001 5.152731e+001 6.601951e+001 5.349882e+001 5.884860e+001 4.708080e+001 4.162181e+001 1.018878e+002 1.343143e+000 1.267411e+000 1.500355e+000 1.504533e+000 2.087898e+000 1.494206e+000 1.552976e+000 1.581970e+000 1.603228e+000 1.596734e+000 1.423737e+000 9.521167e-001 4.702034e+000 1.712992e-001 1.818579e-001 2.035741e-001 2.217191e-001 2.546242e-001 2.467673e-001 2.584614e-001 2.732117e-001 2.961822e-001 2.641110e-001 2.464757e-001 2.119462e-001 3.202377e-001
<GCONST> 1.121367e+002
<MIXTURE> 5 1.344394e-001
<MEAN> 39
 -3.794227e+000 2.809083e+000 1.625283e+000 -1.296070e+001 -1.737691e+000 -7.344579e+000 -6.386488e+000 -5.345536e+000 -9.222202e-001 -3.063533e+000 2.928955e-001 -3.541473e+000 5.483407e+001 -9.752434e-001 5.202962e-001 6.394063e-001 2.715986e+000 6.493860e-001 2.631743e-001 -5.279575e-003 -7.271039e-002 -7.187291e-001 -5.665761e-001 -5.796942e-002 -6.056322e-002 -4.687840e+000 -5.675070e-001 -7.612944e-001 -6.359074e-001 2.531379e-001 -6.402922e-002 2.453515e-001 6.045250e-001 8.600812e-002 1.732886e-001 -4.268563e-002 -5.015464e-002 -6.901700e-002 2.472145e-001
<VARIANCE> 39
 1.897269e+001 3.178106e+001 3.413599e+001 6.120291e+001 4.496473e+001 5.959312e+001 5.363426e+001 4.538113e+001 4.894264e+001 4.705043e+001 3.512328e+001 2.799431e+001 5.005646e+001 1.734759e+000 2.763966e+000 2.291612e+000 2.297733e+000 2.721752e+000 2.790201e+000 2.323909e+000 2.242044e+000 1.950389e+000 1.804959e+000 1.837238e+000 1.295940e+000 3.859700e+000 1.701304e-001 2.304908e-001 2.346187e-001 4.226343e-001 3.429475e-001 4.229059e-001 4.798678e-001 3.713115e-001 4.006982e-001 3.404861e-001 2.972595e-001 2.151746e-001 4.734554e-001
<GCONST> 1.156490e+002
~h "zh"
<BEGINHMM>
<NUMSTATES> 5
<STATE> 2
<NUMMIXES> 5
<MIXTURE> 1 1.317177e-001
<MEAN> 39
 -2.987947e+000 4.365121e-001 -2.095198e+000 -1.201804e+001 -1.092360e+001 -3.655919e+000 -5.840612e-001 -8.981752e+000 2.131243e+000 4.469397e+000 -3.523244e+000 -4.359472e-001 6.728922e+001 -1.367838e+000 2.653541e+000 7.047017e-001 -1.112376e+000 1.355371e+000 2.244661e-001 -9.666829e-001 -3.414465e-001 1.359456e+000 -4.589359e-001 6.862173e-001 1.083804e+000 -5.204524e-001 -2.257911e-001 -9.491401e-002 -8.970542e-001 6.665335e-001 3.510032e-001 -3.179963e-001 7.810884e-001 5.534793e-001 7.471644e-003 -7.272651e-001 1.656834e-001 8.649717e-003 -1.274355e-002
<VARIANCE> 39
 3.129054e+001 1.915664e+000 2.439931e+001 1.113078e+001 7.361102e-001 5.171577e+000 4.429205e+000 5.237859e+000 3.092665e+001 4.144778e+001 1.643717e+001 3.070991e+001 6.786938e+001 1.479968e-001 7.697355e-001 8.698911e-001 3.106269e+000 1.432842e+000 7.614206e-001 1.869914e+000 8.227565e-001 1.801367e+000 2.450852e+000 5.057821e-002 3.214922e+000 2.169968e+000 1.911371e-001 1.084304e-001 2.524503e-001 1.367052e-001 1.804228e-001 1.082008e-001 3.758920e-001 2.196480e-001 6.732538e-002 9.992309e-002 1.242678e-001 2.405869e-001 9.316085e-002
<GCONST> 7.867820e+001
<MIXTURE> 2 2.024287e-001
<MEAN> 39
 -7.623288e+000 6.377043e+000 -3.618268e+000 -1.177790e+001 -6.878133e+000 -9.249312e+000 -4.912853e+000 -9.572445e+000 -2.240687e+000 -3.932584e+000 -5.947504e+000 -6.683520e+000 6.654589e+001 -1.114417e+000 8.289871e-001 -6.883097e-001 1.369472e+000 4.292658e-001 -3.557341e-001 9.710274e-001 -1.070530e+000 7.109872e-001 5.765614e-001 1.143352e+000 1.031202e+000 -7.110907e-001 -4.649191e-001 -2.430676e-001 -4.439395e-002 -3.469077e-002 1.848238e-001 3.055475e-001 3.038164e-001 3.070708e-001 2.680305e-001 -1.841743e-001 3.222175e-001 2.411528e-001 -1.894511e-002
<VARIANCE> 39
 4.143269e+000 4.069162e+000 7.557402e+000 4.304102e+001 2.838453e+001 1.141581e+001 1.393086e+001 3.057525e+001 1.139068e+001 8.173891e+001 1.896200e+001 1.073923e+002 6.368001e+000 1.265111e+000 1.345767e+000 1.133155e+000 9.111980e-001 3.056395e-001 1.422720e+000 1.852408e+000 9.777237e-001 8.737693e-001 4.166864e-001 1.013735e+000 3.249314e+000 1.991170e-001 7.213541e-002 4.719020e-002 6.423106e-002 1.945551e-001 1.387520e-001 3.875724e-001 3.216584e-001 1.650223e-001 1.512377e-001 1.313435e-001 5.359202e-002 2.260895e-001 4.109658e-002
<GCONST> 7.987386e+001
<MIXTURE> 3 2.371228e-001
<MEAN> 39
 -6.806600e+000 5.274711e+000 -1.318875e-001 -2.180676e+001 -3.449578e+000 -4.745367e+000 -3.994465e+000 -6.396890e+000 3.934959e+000 -3.307683e+000 3.734923e+000 2.064910e+000 6.573679e+001 -1.291565e+000 1.571260e+000 -8.270939e-003 2.345612e+000 5.750385e-001 -2.921780e-001 5.043894e-001 -6.748074e-001 -2.201913e-001 5.439534e-001 1.942727e-001 4.247823e-001 -1.539667e+000 -6.816202e-001 -1.283148e-001 -2.949369e-001 4.874747e-001 2.899384e-001 4.811900e-002 5.483515e-001 1.062047e-001 2.308600e-001 2.131812e-001 -1.751097e-001 -6.765026e-002 -7.754696e-002
<VARIANCE> 39
 2.095072e+001 8.444901e+000 2.669008e+000 8.903952e+000 6.605226e+000 5.517100e+000 4.713550e+000 8.092310e+000 1.889025e+000 1.891380e+000 2.444860e+000 2.734124e+000 6.638866e+000 1.415159e+000 3.647215e-001 3.295653e-001 7.862231e-001 1.124616e+000 5.809839e-001 1.191233e+000 2.637655e-001 2.233225e-001 5.031734e-001 3.423789e-001 1.401092e-001 4.597335e-001 5.364572e-002 1.273504e-001 8.179999e-002 7.860866e-002 1.396767e-001 1.227409e-001 4.046816e-002 3.305038e-002 3.331812e-002 4.743452e-002 3.825152e-002 3.834461e-002 7.123558e-002
<GCONST> 4.639639e+001
<MIXTURE> 4 2.371099e-001
<MEAN> 39
 -6.052078e+000 1.824854e+000 -4.381393e+000 -1.789244e+001 -1.672163e+000 -5.424729e+000 -3.347186e+000 -4.449207e+000 9.351347e+000 -4.282049e+000 -1.375724e+000 -1.112619e+000 6.446534e+001 -1.798961e+000 1.899927e+000 3.968351e-001 2.020504e+000 -5.287546e-001 3.398195e-001 -4.096729e-001 7.306958e-002 -2.808432e-001 -3.694104e-001 3.231473e-001 9.630054e-001 -1.185876e+000 -5.469083e-001 -4.596766e-002 -4.364214e-001 7.249391e-001 2.230897e-001 8.445025e-002 3.966328e-001 2.771904e-001 -7.576033e-001 -3.782400e-002 -2.141747e-001 -2.464991e-001 -1.851279e-001
<VARIANCE> 39
 2.346962e+001 7.160536e+000 2.563502e+000 2.247007e+001 3.468031e+001 3.594921e+000 1.396066e+000 6.130245e+000 5.420682e+000 8.499514e+000 3.470441e+000 3.209103e+000 3.045900e+001 2.263381e+000 6.721175e-002 6.005190e-001 2.026328e+000 6.041125e+000 6.336995e-001 9.341924e-001 1.305733e+000 1.550402e+000 2.205172e+000 8.063730e-001 2.999048e-001 4.691555e-001 1.254931e-001 9.473139e-002 1.117753e-001 2.124836e-001 1.520667e-001 2.314534e-002 2.296586e-002 3.586190e-002 1.877425e-001 1.459562e-001 5.363256e-002 3.865174e-002 3.054223e-002
<GCONST> 6.220371e+001
<MIXTURE> 5 1.916209e-001
<MEAN> 39
 -8.456817e+000 6.310791e+000 -8.485601e+000 -1.156351e+001 -1.552639e+000 -1.045761e+001 -4.623997e+000 -1.369811e+001 -2.787021e+000 -8.888350e+000 -9.821094e+000 -1.177583e+001 6.356122e+001 -1.390926e+000 2.251256e+000 -2.436583e+000 6.636714e-001 8.123114e-001 -6.439775e-001 5.157533e-001 -8.786269e-001 1.709549e+000 -1.899446e-001 1.815441e-001 4.689702e-001 -1.167104e-001 2.773301e-002 -3.588747e-001 1.036960e-001 6.020238e-002 -2.428729e-001 1.818595e-001 1.618391e-001 2.353605e-001 -2.652640e-001 -1.025844e-002 1.082558e-001 -4.982465e-002 -2.996780e-001
<VARIANCE> 39
 3.214532e+000 9.843951e+000 4.404659e+001 3.931380e+001 5.358527e+001 2.142502e+001 1.231255e+001 2.574464e+001 1.394652e+001 9.274722e+001 3.632922e+001 8.771793e+001 7.285547e+000 1.580683e+000 1.937935e+000 1.614715e+000 2.162256e+000 1.287240e+000 1.870288e+000 2.153812e+000 1.042170e+000 3.121635e+000 6.321210e-001 8.122880e-001 1.880023e+000 1.329811e+000 3.397590e-001 1.055319e-001 1.994437e-001 4.195715e-001 4.997146e-001 3.615082e-001 1.448530e-001 2.771605e-001 2.244835e-001 1.893994e-001 8.133084e-002 3.117327e-001 1.248809e-001
<GCONST> 9.840755e+001
<STATE> 3
<NUMMIXES> 5
<MIXTURE> 1 2.449619e-001
<MEAN> 39
 -1.204872e+001 7.681156e+000 -4.759670e+000 -6.960307e+000 -5.663504e+000 -6.972722e+000 5.154433e-002 -1.211019e+001 1.085523e+000 4.307614e+000 -2.095399e+000 1.457532e+000 6.582899e+001 -2.034564e+000 6.906989e-001 -1.222620e+000 4.044542e-001 1.993387e+000 6.820319e-001 8.890374e-001 1.145073e+000 5.524284e-001 -8.838103e-001 1.081739e+000 3.183365e-001 -9.080396e-001 2.519500e-001 -8.281514e-001 1.002161e-001 -3.045980e-001 1.336448e-001 3.138744e-003 1.334607e-001 6.910161e-001 -8.935668e-002 -2.396102e-001 2.637040e-002 -5.607094e-001 6.044294e-002
<VARIANCE> 39
 1.257387e+001 6.775147e+000 2.637189e+001 4.116560e+001 2.299890e+001 2.358204e+001 1.125586e+001 1.906682e+001 1.761746e+001 6.265781e+001 1.460550e+001 5.937788e+001 7.149596e+000 1.273993e+000 2.168108e+000 1.074822e+000 1.128183e+000 1.347060e+000 1.412125e+000 3.167438e+000 1.593293e+000 1.244591e+000 2.192640e+000 8.024750e-001 1.634682e+000 1.456043e+000 7.409653e-002 1.966090e-001 3.658625e-001 6.005077e-001 1.472850e-001 2.506505e-001 3.423097e-001 3.983812e-001 1.560177e-001 2.804882e-001 2.675356e-001 5.920397e-001 1.329478e-001
<GCONST> 9.761190e+001
<MIXTURE> 2 3.164786e-001
<MEAN> 39
 -7.809336e+000 1.544446e+001 -2.056110e+001 -9.977966e+000 -4.938470e+000 -1.258114e+001 -1.547465e+000 -1.638181e+001 1.580577e+000 -1.477647e+001 -1.269432e+001 -1.783492e+001 5.892617e+001 1.835694e-001 4.401129e-001 -2.442745e-001 2.543093e-001 -6.564345e-001 1.476035e-001 3.207206e-001 -2.305055e-001 2.917085e-001 -3.357218e-001 3.540694e-001 -2.747012e-001 -4.773854e-001 8.963883e-003 -1.457879e-001 1.339986e-001 -8.468757e-002 1.178481e-001 1.163767e-002 -3.685173e-002 -2.085353e-002 -1.430161e-001 -6.530849e-002 -3.525788e-002 -1.150586e-001 -2.273542e-002
<VARIANCE> 39
 6.091472e-001 2.354606e+000 1.827857e+000 1.191094e+000 8.962566e+000 2.057015e+000 3.049677e+000 4.732535e+000 2.413383e+000 5.772087e+000 5.323212e+000 3.922562e+000 2.746854e+000 3.356939e-002 1.082458e-001 1.470070e-001 2.188399e-001 4.988591e-001 1.451592e-001 8.652588e-002 3.608564e-001 3.659745e-001 5.736097e-001 9.519581e-002 2.538150e-001 5.262090e-002 9.086573e-003 1.931302e-002 4.747766e-002 2.118184e-002 4.990373e-002 6.807258e-002 2.042514e-002 5.337502e-002 2.233215e-002 7.044860e-002 3.503802e-002 3.781129e-003 8.905933e-003
<GCONST> 1.354734e+001
<MIXTURE> 3 1.460965e-001
<MEAN> 39
 -5.510376e+000 1.480299e+001 -1.934430e+001 -1.111429e+001 -2.367234e+000 -1.428903e+001 6.158990e-001 -2.024327e+001 6.924350e-001 -2.152460e+001 -1.481086e+001 -2.375090e+001 5.287307e+001 -1.622232e-001 -7.283131e-001 1.530279e+000 -3.164383e-001 1.761568e+000 -1.106372e+000 -5.348311e-001 5.478114e-001 -4.197098e-001 -2.564328e-001 -1.501178e+000 -6.517516e-001 -9.169696e-001 -3.372597e-001 -1.094391e-001 4.844946e-001 3.460124e-002 2.600746e-001 -9.925325e-002 -1.763756e-001 3.992284e-001 -1.819703e-001 2.012833e-001 4.121636e-002 2.399061e-001 -4.745921e-002
<VARIANCE> 39
 1.765209e+000 6.359700e+000 7.621505e+000 3.632946e+000 8.296248e+000 5.279959e+000 4.712307e+000 2.593546e+000 2.294453e+000 1.222382e+001 2.034418e+001 5.254205e+000 2.880390e+000 6.793273e-001 7.883392e-002 1.337709e+000 4.403260e-002 3.376912e-001 2.606578e-001 2.964357e-001 1.021872e+000 4.909284e-002 1.121404e-001 1.989991e-001 2.671087e-001 4.901518e-002 9.120101e-002 2.837272e-002 3.475306e-002 1.276274e-002 2.439805e-002 1.302644e-001 4.303768e-002 4.823038e-002 5.034397e-002 3.281951e-002 2.696786e-001 5.188849e-002 6.152933e-003
<GCONST> 3.085518e+001
<MIXTURE> 4 1.435239e-001
<MEAN> 39
 -1.797133e+001 1.005639e+001 -5.008875e+000 -4.686276e+000 2.653242e+000 -3.531685e+000 -1.085886e+000 -3.625747e+000 5.242455e+000 -2.059331e+000 -2.950882e-001 7.692593e-001 5.907014e+001 -3.753578e+000 2.444682e-001 -1.915835e+000 2.701777e+000 1.004944e+000 7.742368e-001 8.190641e-001 2.039716e-001 -6.959411e-001 2.158830e-001 -2.089258e-001 -2.305145e-002 -8.944751e-001 3.283634e-001 -5.821449e-001 -5.766584e-002 -6.964138e-001 -4.452923e-001 5.613008e-003 -6.051404e-002 -5.573477e-002 -1.307157e-001 -4.851440e-002 1.423937e-001 -6.997848e-002 3.123232e-001
<VARIANCE> 39
 2.316150e+001 1.594672e+001 2.881392e+001 3.705315e+001 1.753362e+001 4.148051e+001 1.848600e+001 4.285606e+001 8.841582e+000 3.530610e+001 3.141501e+001 2.621362e+001 3.951209e+000 5.071821e-001 1.273594e+000 6.373327e-001 4.718762e-001 7.301480e-001 2.338699e-001 1.792440e+000 1.205034e+000 2.858085e+000 3.140868e-001 3.102092e-001 8.320459e-001 2.266151e-001 3.539925e-001 4.239081e-002 1.771108e-001 1.218467e-001 3.015231e-001 1.456681e-001 7.946093e-002 1.909172e-001 1.438789e-001 2.443435e-001 4.531246e-002 2.106280e-001 3.926329e-002
<GCONST> 7.948843e+001
<MIXTURE> 5 1.489394e-001
<MEAN> 39
 -1.370650e+001 8.150302e+000 -3.647973e+000 -5.688841e+000 -6.108512e-001 -3.678957e+000 2.977719e-001 -6.545383e+000 5.238266e+000 -2.938620e+000 2.682896e-001 -4.639879e-001 5.974201e+001 -3.686604e+000 3.017823e-001 -1.966076e+000 2.531311e+000 3.023492e-001 7.560866e-001 1.127116e+000 1.749884e-002 -7.478625e-001 -2.821798e-001 -3.459851e-001 -6.953213e-001 -1.210251e+000 2.363851e-001 -6.672176e-001 -2.110161e-001 -7.803313e-001 -8.029904e-002 -7.881693e-002 -2.522212e-001 2.838327e-002 -9.730119e-002 -7.516693e-002 -4.004896e-002 -1.486779e-001 2.885010e-001
<VARIANCE> 39
 1.731201e+001 1.126054e+001 9.182546e+000 1.449395e+001 4.538201e+001 1.412023e+001 1.565728e+001 2.709919e+001 1.498310e+001 4.157663e+001 2.398553e+001 3.320408e+001 4.272233e+000 1.082007e+000 2.004018e+000 1.072672e+000 1.023224e+000 1.459461e+000 1.275094e-001 1.490966e+000 1.140566e+000 1.609308e+000 2.659814e-001 3.537131e-001 6.195994e-001 4.096777e-001 2.660656e-001 5.089932e-002 1.651152e-001 2.664638e-001 6.754949e-001 1.843598e-001 4.467361e-002 3.591869e-001 3.651679e-001 2.406300e-001 7.748105e-002 3.097266e-001 1.038037e-001
<GCONST> 8.331056e+001
<STATE> 4
<NUMMIXES> 5
<MIXTURE> 1 1.845924e-001
<MEAN> 39
 -2.219480e+001 4.094771e+000 -7.628108e+000 -6.422740e+000 1.657486e+000 -3.886555e+000 7.960362e+000 -7.025906e+000 2.732260e+000 -3.431355e+000 3.709531e+000 -3.933598e+000 6.116161e+001 3.947514e-001 -7.673827e-001 1.095813e-001 -2.865953e-001 4.521077e-001 -3.342351e-001 7.746223e-001 3.837315e-001 1.480323e-001 4.221680e-001 7.884818e-001 -8.168693e-002 -1.306853e-001 1.024114e+000 -1.333642e-001 5.760490e-001 -2.270060e-001 -4.738368e-001 -1.159013e-001 -6.230329e-001 -1.907598e-001 -6.957125e-002 2.468693e-001 -3.651510e-001 2.865278e-002 3.569920e-001
<VARIANCE> 39
 3.865345e+001 3.493363e+001 1.158163e+001 1.621777e+001 3.091833e+001 1.251643e+001 3.627320e+001 4.760674e+001 1.001650e+001 2.777806e+001 1.149341e+001 4.565950e+001 2.705703e+001 6.032968e+000 5.218518e-001 1.573832e+000 2.576964e+000 1.350904e+000 1.213020e+000 1.184759e+000 1.962525e+000 4.078832e-001 1.146036e+000 4.952497e-001 2.279473e+000 1.242582e+000 2.203214e-001 3.198244e-001 8.515781e-002 1.505421e-001 4.281496e-001 8.439279e-002 2.178472e-001 8.507673e-001 2.799784e-002 1.146929e-001 1.629110e-001 3.713567e-001 1.667065e-001
<GCONST> 9.383197e+001
<MIXTURE> 2 1.879062e-001
<MEAN> 39
 -1.575884e+001 4.930154e+000 -4.365944e+000 -1.094580e+001 -7.468188e-001 -6.944590e+000 7.545774e-002 -7.462415e+000 1.973163e+000 -2.108727e+000 -1.433568e+000 -3.548705e+000 6.309848e+001 2.106029e+000 -6.688578e-001 9.509870e-001 -1.510195e+000 -1.191029e+000 -4.189132e-001 -5.779855e-001 -8.427676e-001 -4.123801e-002 -1.888119e-002 -4.524908e-001 -8.468484e-001 1.330039e+000 1.878192e-001 -3.966855e-001 -6.380859e-002 4.289764e-002 -1.744720e-001 1.255003e-001 8.516230e-002 2.000336e-001 -1.145450e-002 -2.640238e-002 1.633854e-001 1.621931e-001 1.543651e-001
<VARIANCE> 39
 5.694122e+001 1.604549e+001 3.550906e+001 3.707233e+001 3.764089e+001 1.507735e+001 1.923765e+001 4.114825e+001 7.832531e+000 3.794504e+001 3.126431e+001 2.814866e+001 3.462337e+001 1.940403e+000 1.972698e+000 1.890632e+000 2.158843e+000 2.313970e+000 6.975131e-001 1.426603e+000 2.494875e+000 7.796552e-001 1.419733e+000 1.023218e+000 9.239107e-001 2.550674e+000 3.092834e-001 1.710922e-001 1.692295e-001 5.998387e-001 1.870959e-001 2.957465e-001 2.485045e-001 4.173765e-001 1.549153e-001 3.525183e-001 1.691760e-001 1.950652e-001 4.249399e-001
<GCONST> 1.026287e+002
<MIXTURE> 3 2.312037e-001
<MEAN> 39
 -2.284824e+001 2.571893e+000 -1.462703e+001 -4.401102e+000 7.391219e-001 -2.901838e+000 -3.644510e+000 -2.552391e+000 3.924251e-002 -3.848967e+000 -1.584883e+000 1.594448e+000 5.955398e+001 -8.831999e-003 2.439335e-001 -1.193907e-001 -2.319507e-001 3.959652e-002 -5.213074e-001 2.728863e-001 2.807463e-001 1.633485e-002 3.486790e-001 1.720676e-001 2.183983e-001 2.080211e-001 3.868476e-001 1.344091e-001 3.341952e-001 -1.872067e-001 -1.367559e-001 -2.112274e-001 1.142554e-001 -1.634855e-001 2.894151e-001 1.398010e-002 5.463579e-002 -2.592628e-001 7.521554e-002
<VARIANCE> 39
 6.410394e+000 1.936458e+001 1.492789e+001 2.018328e+001 5.972747e+000 1.838285e+001 1.351738e+001 3.282563e+001 1.959760e+001 1.079380e+001 2.857065e+001 4.350668e+001 9.721079e+000 5.310203e-001 5.300365e-001 5.731356e-001 5.091168e-001 4.287204e-001 5.227624e-001 5.575633e-001 3.476746e-001 9.839557e-001 5.154284e-001 1.379159e+000 6.518558e-001 4.901518e-002 1.993678e-001 1.513068e-001 6.006314e-002 1.376551e-001 9.889451e-002 6.617588e-002 1.066717e-001 3.408992e-002 1.801769e-001 1.410773e-001 1.505133e-001 1.408273e-001 2.640601e-002
<GCONST> 6.821505e+001
<MIXTURE> 4 2.113006e-001
<MEAN> 39
 -2.339490e+001 4.883197e+000 -1.140562e+001 -5.753202e+000 -5.234267e-001 -4.219866e+000 -4.273148e-002 -3.720879e+000 4.546615e+000 -3.322315e+000 2.161185e+000 -1.830088e+000 5.971275e+001 -1.249058e+000 -9.049103e-001 -6.142403e-001 -3.192338e-001 -1.543168e-001 3.695574e-001 8.239450e-002 1.540285e-001 -3.553208e-001 -6.291652e-001 -1.655570e-001 -5.887975e-001 -3.824540e-001 6.080818e-001 -8.905955e-002 2.316060e-001 -4.133754e-001 6.250881e-002 -1.753356e-001 -1.885559e-001 -5.414004e-002 -1.874558e-001 7.087027e-003 -2.295358e-001 1.562470e-002 8.005174e-002
<VARIANCE> 39
 1.814219e+001 2.978061e+001 1.777273e+001 7.549646e+000 1.112495e+001 1.795275e+001 1.515837e+001 2.553659e+001 1.535012e+001 8.000865e+000 3.897589e+001 3.028993e+001 7.689986e+000 1.805866e+000 3.481025e-001 1.259358e+000 8.503200e-001 1.055985e+000 5.649703e-001 2.503636e-001 8.741214e-001 5.838177e-001 4.638545e-001 3.170041e-001 7.716401e-001 1.508521e-001 1.264759e-001 7.852010e-002 9.950063e-002 1.352783e-001 1.576358e-001 3.745589e-002 6.738374e-002 7.595127e-002 1.187417e-001 1.787477e-001 2.249433e-001 7.381486e-002 4.984519e-002
<GCONST> 7.073418e+001
<MIXTURE> 5 1.849972e-001
<MEAN> 39
 -1.638854e+001 5.029055e+000 -6.393757e+000 -9.816098e+000 7.564582e-001 -6.916139e+000 -1.336622e+000 -6.007438e+000 8.345496e-001 -4.803859e+000 -2.167184e+000 -4.410200e+000 6.105156e+001 1.931306e+000 -9.754093e-001 1.093518e+000 -1.640340e+000 -9.881134e-001 -4.265114e-001 -5.713080e-001 -1.048769e+000 6.234681e-002 -1.538994e-001 -7.351393e-001 -8.443777e-001 8.913969e-001 3.311625e-001 -3.330920e-001 -1.398023e-001 -1.134668e-001 -3.197429e-001 3.083126e-002 -3.934730e-003 -1.127496e-002 -7.015836e-002 5.527266e-002 5.398505e-003 1.108315e-001 2.890860e-001
<VARIANCE> 39
 4.420094e+001 1.888128e+001 4.969579e+001 3.308733e+001 2.718537e+001 3.715799e+001 1.688076e+001 4.468747e+001 8.795716e+000 4.311451e+001 5.576441e+001 6.771323e+001 4.724605e+001 2.662890e+000 1.344182e+000 1.274682e+000 1.928669e+000 2.359196e+000 6.405293e-001 1.504875e+000 2.534675e+000 9.646320e-001 1.465636e+000 8.617455e-001 8.357342e-001 1.896602e+000 3.905303e-001 1.827742e-001 2.163404e-001 4.759068e-001 1.689571e-001 3.690808e-001 1.782589e-001 3.431107e-001 1.322068e-001 2.022454e-001 2.794670e-001 1.144542e-001 3.187381e-001
<GCONST> 1.032775e+002
<TRANSP> 5
 0.000000e+000 1.000000e+000 0.000000e+000 0.000000e+000 0.000000e+000
 0.000000e+000 6.838675e-001 3.161325e-001 0.000000e+000 0.000000e+000
 0.000000e+000 0.000000e+000 7.078175e-001 2.921825e-001 0.000000e+000
 0.000000e+000 0.000000e+000 0.000000e+000 8.508001e-001 1.491999e-001
 0.000000e+000 0.000000e+000 0.000000e+000 0.000000e+000 0.000000e+000
<ENDHMM>
~h "b"
<BEGINHMM>
<NUMSTATES> 5
<STATE> 2
<NUMMIXES> 5
<MIXTURE> 1 1.450700e-001
<MEAN> 39
 2.940453e+000 4.961879e+000 6.280778e+000 7.936230e-001 1.625941e+000 -3.588680e+000 -6.522514e-001 -3.260886e+000 7.722105e-001 -2.704481e+000 1.704122e+000 -2.536332e+000 4.806319e+001 -7.431549e-001 -1.745972e-001 5.459320e-003 3.666463e-001 1.567379e-001 2.876072e-001 4.264708e-001 1.598715e-001 2.953228e-001 3.154620e-002 -7.253599e-003 8.930150e-002 -6.792922e-001 -9.619368e-002 -3.674010e-001 -2.438100e-001 -1.358367e-001 -1.716043e-001 -2.306137e-001 -1.720266e-001 3.701132e-002 1.537951e-001 4.111716e-002 4.387185e-002 -2.618198e-002 5.223089e-001
<VARIANCE> 39
 1.780031e+001 1.533042e+001 2.644651e+001 2.303883e+001 3.597428e+001 4.428816e+001 4.819336e+001 4.645331e+001 4.278725e+001 3.259130e+001 4.266763e+001 2.130719e+001 8.728529e+001 8.846936e-001 9.180598e-001 1.041788e+000 1.137266e+000 8.171307e-001 1.001412e+000 1.590383e+000 1.640239e+000 1.211921e+000 1.234237e+000 1.511564e+000 9.489525e-001 6.645966e-001 1.450413e-001 1.218216e-001 2.073213e-001 2.390584e-001 1.678563e-001 2.698537e-001 3.372341e-001 3.396079e-001 3.231598e-001 2.469752e-001 3.171024e-001 1.946983e-001 1.623926e-001
<GCONST> 9.894979e+001
<MIXTURE> 2 2.742775e-001
<MEAN> 39
 -1.233289e+000 4.942365e+000 3.269976e+000 2.884890e+000 4.684237e+000 -3.964073e+000 -3.619072e+000 -6.423437e+000 -1.283977e-001 -4.315496e+000 1.390221e+000 -4.059066e+000 4.094162e+001 -1.491459e+000 -7.624901e-001 -7.019288e-001 -7.661205e-001 -4.958259e-001 5.217801e-001 6.384633e-001 2.513303e-001 2.009729e-001 3.980313e-001 4.252109e-002 1.936463e-001 1.143557e+000 7.300453e-002 -9.020545e-001 -8.778344e-001 -8.325922e-001 -6.624248e-001 -4.219649e-001 1.923702e-001 2.908076e-001 1.247258e-001 1.277569e-001 2.091389e-002 -1.044430e-002 1.777518e+000
<VARIANCE> 39
 1.717761e+001 7.384532e+000 2.417858e+001 1.190450e+001 1.781258e+001 2.015573e+001 2.125270e+001 2.738436e+001 2.250366e+001 2.309389e+001 1.927407e+001 1.659073e+001 1.621968e+001 1.214185e+000 1.553511e+000 2.228901e+000 1.094007e+000 1.202403e+000 1.471055e+000 1.137341e+000 1.801436e+000 1.185914e+000 1.039401e+000 1.142385e+000 8.005468e-001 4.020638e+000 2.356057e-001 2.769593e-001 3.660178e-001 2.376662e-001 3.044470e-001 2.792870e-001 2.968862e-001 2.988862e-001 3.215287e-001 3.044810e-001 2.324773e-001 1.881731e-001 3.161435e-001
<GCONST> 9.690125e+001
<MIXTURE> 3 2.358963e-001
<MEAN> 39
 -1.071441e+001 -3.510848e+000 -1.989103e+000 -2.774508e+000 1.290088e-001 -3.677448e+000 8.750115e-001 -2.271681e+000 9.389617e-001 -3.540236e+000 1.165081e+000 -3.096982e+000 4.115053e+001 -4.329744e-001 -4.190521e-001 -1.804082e-001 -2.288118e-001 -3.459942e-002 8.481898e-002 1.404666e-002 4.393779e-002 2.141552e-001 7.556775e-002 7.581432e-002 -9.134614e-002 -5.653174e-003 2.560483e-001 8.711724e-002 3.908817e-003 -3.218368e-002 -5.197830e-002 -1.321804e-001 -1.100337e-001 -3.270698e-002 2.839176e-002 -1.501271e-002 -4.028852e-002 5.570976e-002 8.684230e-001
<VARIANCE> 39
 2.094962e+001 6.579395e+000 8.228089e+000 8.836345e+000 1.332093e+001 2.472418e+001 2.304190e+001 2.139582e+001 1.815521e+001 2.162265e+001 2.226980e+001 2.336947e+001 6.105747e+001 7.390701e-001 5.059884e-001 6.517625e-001 7.491568e-001 7.404742e-001 8.392012e-001 8.133802e-001 8.739608e-001 7.544492e-001 8.612632e-001 6.873866e-001 8.479137e-001 9.243052e-001 1.327520e-001 9.875128e-002 1.282842e-001 1.716732e-001 1.513424e-001 1.788305e-001 2.063392e-001 1.691831e-001 1.845319e-001 1.981085e-001 1.709685e-001 1.336021e-001 7.602095e-001
<GCONST> 8.318247e+001
<MIXTURE> 4 2.002505e-001
<MEAN> 39
 -8.166919e-001 2.485126e+000 1.274769e+000 4.809404e-001 3.099808e+000 -5.670337e+000 -4.121640e+000 -5.903554e+000 -1.087506e+000 -7.062935e+000 -1.968453e+000 -5.493083e+000 4.413842e+001 -1.283384e+000 -1.259077e+000 -9.767519e-001 -1.391060e+000 -1.163531e+000 -1.967312e-002 1.070280e+000 1.691852e-001 5.189975e-001 6.478090e-001 2.302084e-001 3.165968e-001 2.333599e+000 1.001284e-001 -6.477347e-001 -5.414997e-001 -7.081308e-001 -5.289207e-001 -3.761688e-001 8.010963e-002 8.209325e-002 2.556611e-001 2.703193e-001 1.495368e-001 -5.255570e-002 1.558339e+000
<VARIANCE> 39
 3.269403e+001 2.436460e+001 3.265631e+001 3.725862e+001 4.341136e+001 3.804521e+001 3.999179e+001 4.308585e+001 2.702868e+001 4.705439e+001 3.494682e+001 3.480564e+001 5.129691e+001 1.449936e+000 1.924852e+000 2.790207e+000 2.554225e+000 1.806954e+000 1.878004e+000 2.522470e+000 2.974318e+000 1.953115e+000 2.423301e+000 1.999459e+000 1.482031e+000 3.002120e+000 3.299480e-001 3.534433e-001 4.689949e-001 5.334740e-001 4.199857e-001 3.469582e-001 5.768321e-001 6.087928e-001 2.930387e-001 3.953185e-001 3.604661e-001 2.746141e-001 4.279147e-001
<GCONST> 1.166557e+002
<MIXTURE> 5 1.445065e-001
<MEAN> 39
 1.869317e+000 4.522021e+000 4.381693e+000 -2.613984e-001 1.100776e-001 -4.962455e+000 -1.993117e+000 -4.189931e+000 -1.688493e-001 -3.165917e+000 6.859247e-001 -3.587785e+000 4.474383e+001 -1.048334e+000 -3.544308e-001 -2.454396e-001 1.522245e-001 -7.334821e-002 7.860816e-002 1.866984e-001 -1.801695e-002 6.532284e-002 -1.538366e-001 -1.931686e-001 -1.441029e-001 -8.286695e-001 -8.760396e-002 -4.176695e-001 -2.659201e-001 -2.513447e-001 -1.061129e-001 -2.639158e-001 -1.547843e-001 8.573510e-002 1.015216e-001 -1.325974e-002 -2.277704e-002 -5.822012e-002 5.790979e-001
<VARIANCE> 39
 1.875092e+001 1.702308e+001 2.934223e+001 2.039164e+001 3.325060e+001 4.911792e+001 6.155734e+001 4.248201e+001 4.000722e+001 3.179071e+001 3.814083e+001 2.374072e+001 7.615236e+001 7.858265e-001 1.027849e+000 9.412453e-001 1.208788e+000 7.267478e-001 1.367051e+000 1.380274e+000 1.614676e+000 1.087228e+000 1.135187e+000 1.361355e+000 9.625887e-001 5.389407e-001 1.043976e-001 1.355555e-001 2.023193e-001 2.263539e-001 2.416594e-001 3.228168e-001 3.528335e-001 2.902462e-001 2.432364e-001 2.622230e-001 2.653385e-001 2.015434e-001 1.685786e-001
<GCONST> 9.833471e+001
<STATE> 3
<NUMMIXES> 5
<MIXTURE> 1 2.048156e-001
<MEAN> 39
 -7.342254e+000 -3.071921e+000 1.076029e+000 -2.365498e+000 1.069493e+000 -4.499550e+000 8.361517e-001 -7.773467e-001 2.210605e+000 -3.457429e+000 6.733497e-001 -4.543920e+000 5.052305e+001 7.459392e-001 -1.411556e+000 -9.306123e-001 -1.246166e-001 -8.670587e-001 -1.381873e+000 -1.039207e+000 1.141458e-001 9.780185e-001 2.108404e-001 -3.025343e-002 -1.020452e-001 2.250404e+000 8.656412e-001 -4.810351e-002 -1.752706e-001 9.727412e-002 -2.828830e-001 -3.642363e-001 -3.784528e-001 -2.165615e-001 1.758738e-001 1.573081e-001 -1.418227e-001 1.157715e-001 3.413374e-001
<VARIANCE> 39
 1.640001e+001 2.115827e+001 2.087202e+001 2.551260e+001 1.757491e+001 2.370418e+001 2.886952e+001 2.070223e+001 1.981753e+001 2.201348e+001 1.481285e+001 2.484885e+001 6.626563e+001 3.014954e+000 1.056206e+000 1.233124e+000 1.834648e+000 1.498218e+000 1.241749e+000 1.735521e+000 1.802387e+000 1.450259e+000 2.657242e+000 1.141077e+000 9.182916e-001 2.264150e+000 2.215410e-001 1.961081e-001 2.364046e-001 3.101941e-001 1.876505e-001 2.339036e-001 2.803413e-001 3.266816e-001 1.990736e-001 2.647862e-001 2.200350e-001 1.604372e-001 2.464909e-001
<GCONST> 9.940559e+001
<MIXTURE> 2 2.423055e-001
<MEAN> 39
 -6.851794e-001 2.205761e+000 1.910282e+000 -1.026523e+000 8.620611e-001 -5.626087e+000 -2.114090e+000 -4.161493e+000 9.251049e-001 -1.906245e+000 2.120576e+000 -1.729383e+000 4.829513e+001 1.213980e-001 -1.609674e+000 -2.396339e+000 -1.021511e+000 -2.823940e-001 -9.236460e-001 -2.045341e-002 2.020948e-001 9.629962e-001 1.103572e-001 -5.374454e-001 7.755993e-002 3.134394e+000 4.286591e-001 -3.587586e-001 -5.262543e-001 -1.732695e-001 -6.920338e-002 -1.790332e-001 -1.893873e-001 8.383446e-002 1.514324e-001 -1.235147e-002 -1.407296e-001 -9.497846e-002 8.871478e-001
<VARIANCE> 39
 2.210805e+001 2.533898e+001 5.532267e+001 5.009553e+001 5.594743e+001 5.985003e+001 7.019193e+001 4.292089e+001 5.164075e+001 4.189967e+001 3.201127e+001 2.765899e+001 1.105127e+002 1.452642e+000 1.673558e+000 4.948066e+000 3.330198e+000 3.246700e+000 2.238149e+000 3.716553e+000 4.484520e+000 2.994025e+000 1.974082e+000 2.776939e+000 1.611315e+000 3.364923e+000 2.559755e-001 2.161546e-001 6.363647e-001 2.983170e-001 4.577376e-001 4.006562e-001 3.496177e-001 5.037505e-001 5.143937e-001 2.248614e-001 3.583608e-001 2.069827e-001 2.250281e-001
<GCONST> 1.199672e+002
<MIXTURE> 3 1.660433e-001
<MEAN> 39
 -1.351696e+001 -3.311097e+000 -2.274722e+000 -2.151958e+000 3.025267e-001 -2.225916e+000 1.577141e+000 -1.814633e+000 1.805600e+000 -2.214555e+000 1.726663e+000 -2.241332e+000 3.743486e+001 6.938966e-001 -7.701235e-001 -5.372286e-001 -1.258496e+000 -7.730048e-001 -3.119783e-001 8.680087e-002 1.438463e-001 3.693889e-001 4.173649e-001 -9.361440e-002 1.681726e-001 4.587651e+000 7.969865e-001 3.960269e-002 -3.142521e-001 -3.892449e-001 -1.203582e-001 -3.111660e-001 -2.006710e-001 -1.120870e-001 -3.832723e-002 -6.033601e-002 -1.320252e-001 -1.508242e-001 1.502005e+000
<VARIANCE> 39
 5.047272e+000 7.555129e+000 8.721252e+000 1.435501e+001 1.507123e+001 1.707201e+001 1.770317e+001 1.669320e+001 1.420729e+001 2.302128e+001 1.444509e+001 1.145106e+001 3.832682e+001 1.463504e+000 1.716019e+000 2.302021e+000 1.734671e+000 1.396427e+000 1.305347e+000 1.336552e+000 1.287752e+000 1.662491e+000 1.249621e+000 8.961171e-001 8.913711e-001 2.928358e+000 2.232534e-001 3.019895e-001 3.050474e-001 2.294270e-001 2.552505e-001 1.891390e-001 2.529435e-001 2.960463e-001 2.181299e-001 2.235535e-001 1.766642e-001 2.145427e-001 4.889999e-001
<GCONST> 9.297382e+001
<MIXTURE> 4 2.231878e-001
<MEAN> 39
 -6.005061e+000 -2.479801e+000 -2.143243e+000 -3.926357e+000 5.219470e-001 -5.540653e+000 -1.060293e+000 -5.243561e+000 -1.166013e+000 -5.024104e+000 -4.524738e-001 -4.861959e+000 5.396371e+001 -3.496901e-001 -2.058473e+000 -1.938879e+000 -2.209990e+000 -1.737339e+000 -6.898094e-001 8.995962e-001 3.548632e-001 9.766708e-001 1.003355e+000 2.264605e-001 -2.051814e-001 4.483144e+000 4.242585e-001 -2.062004e-001 -2.352039e-001 -2.317921e-001 -1.611410e-001 -2.296029e-001 -1.045741e-001 7.662465e-002 1.923887e-001 -1.013103e-001 -8.552507e-004 -1.430810e-001 5.330765e-001
<VARIANCE> 39
 2.936514e+001 2.569696e+001 3.190863e+001 3.213362e+001 3.850032e+001 3.530557e+001 4.157597e+001 4.500443e+001 2.565092e+001 4.056073e+001 3.687293e+001 2.336352e+001 5.154144e+001 2.089376e+000 2.759172e+000 3.959059e+000 3.239467e+000 2.807104e+000 2.242202e+000 4.525297e+000 3.088344e+000 2.963270e+000 2.682013e+000 2.440778e+000 2.547251e+000 3.917385e+000 2.843509e-001 2.469897e-001 2.003248e-001 3.463392e-001 2.963599e-001 3.006446e-001 4.033141e-001 6.145569e-001 3.093812e-001 2.994486e-001 2.571165e-001 2.478254e-001 2.452890e-001
<GCONST> 1.160048e+002
<MIXTURE> 5 1.636473e-001
<MEAN> 39
 -1.394082e+001 -4.259536e+000 -2.944735e+000 -3.307235e+000 -3.931338e-001 -3.610283e+000 1.241926e+000 -2.594499e+000 1.132207e+000 -2.841150e+000 1.441249e+000 -3.130766e+000 3.894180e+001 6.588503e-001 -1.185654e+000 -9.267170e-001 -1.562588e+000 -1.135169e+000 -3.766530e-001 -1.241097e-003 -3.573556e-002 1.026972e-001 4.332337e-002 -3.154417e-001 -2.475200e-001 4.431245e+000 8.632463e-001 -5.090897e-002 -3.164878e-001 -3.478893e-001 -1.747502e-001 -3.826826e-001 -1.004609e-001 -3.853849e-002 -1.591276e-001 -1.503192e-001 -2.093333e-001 -2.071768e-001 1.470318e+000
<VARIANCE> 39
 4.775115e+000 8.117237e+000 6.864268e+000 1.455342e+001 1.321223e+001 1.653931e+001 1.409053e+001 1.725048e+001 1.378862e+001 1.920574e+001 1.932100e+001 1.372660e+001 4.561228e+001 1.866745e+000 1.946923e+000 2.083479e+000 1.595329e+000 1.207434e+000 1.393248e+000 1.356365e+000 1.178571e+000 1.377446e+000 1.254396e+000 1.000362e+000 7.675790e-001 3.123892e+000 2.343380e-001 3.127598e-001 3.435003e-001 2.476507e-001 2.933063e-001 2.105139e-001 2.460031e-001 3.065933e-001 2.445415e-001 2.109120e-001 2.041513e-001 2.221176e-001 4.643210e-001
<GCONST> 9.342907e+001
<STATE> 4
<NUMMIXES> 5
<MIXTURE> 1 2.857319e-001
<MEAN> 39
 1.888614e+000 -4.012809e+000 -7.589352e+000 -3.757291e+000 -8.766544e-001 -1.061532e+001 -4.678322e+000 -2.853920e+000 6.208104e+000 -7.573962e-001 -8.684695e-001 -3.527879e+000 6.126120e+001 1.724396e+000 -1.582405e+000 -2.005962e+000 -1.300158e-001 -1.170105e+000 -1.401827e+000 -4.039236e-001 1.547893e-002 1.282290e+000 3.028864e-001 -6.688591e-001 4.016363e-001 2.821741e+000 -2.342959e-002 3.447297e-002 3.729118e-001 1.096641e-001 -4.020381e-002 3.214445e-001 2.228393e-001 -1.132325e-001 -2.571105e-001 -1.626587e-001 1.459471e-001 2.127049e-002 -4.675483e-001
<VARIANCE> 39
 2.032417e+001 2.530352e+001 1.018287e+002 2.502540e+001 3.580110e+001 2.692376e+001 3.411605e+001 3.158467e+001 2.358003e+001 3.157024e+001 2.886950e+001 2.127040e+001 4.505653e+001 2.175120e+000 1.835705e+000 4.753501e+000 2.228391e+000 2.959867e+000 1.608143e+000 3.096416e+000 2.396233e+000 2.628880e+000 2.194166e+000 2.491287e+000 1.385723e+000 2.899522e+000 1.493390e-001 1.346250e-001 2.486788e-001 2.310877e-001 2.494664e-001 2.314187e-001 2.377162e-001 2.273021e-001 2.054713e-001 2.233579e-001 2.665825e-001 1.504098e-001 3.926682e-001
<GCONST> 1.080560e+002
<MIXTURE> 2 1.593895e-001
<MEAN> 39
 -9.572654e+000 -5.791397e+000 -2.665818e+000 -7.940735e+000 -3.603318e+000 -4.509677e+000 2.493264e+000 -4.323215e+000 3.608917e+000 -3.031410e+000 1.453083e+000 -1.386554e+000 5.976587e+001 1.513592e+000 -6.921201e-001 -1.887666e+000 -2.138281e+000 -4.210119e-001 -1.080057e+000 -4.158230e-001 -2.926845e-001 4.395553e-001 1.356797e-001 5.030564e-002 1.365080e-001 5.352888e+000 5.552384e-001 4.065367e-001 -1.167687e-001 2.619685e-001 4.011577e-001 -1.750347e-001 -2.488645e-001 -7.459380e-002 -1.250418e-001 -3.097713e-002 5.536935e-002 -3.472925e-002 -5.070448e-001
<VARIANCE> 39
 2.417785e+001 2.419979e+001 4.456998e+001 3.769894e+001 2.756998e+001 2.083653e+001 3.671920e+001 3.391755e+001 3.297772e+001 2.905890e+001 2.610601e+001 2.368157e+001 3.918613e+001 2.709516e+000 4.057027e+000 4.888887e+000 3.485299e+000 2.594365e+000 2.271979e+000 2.404791e+000 2.469214e+000 1.576591e+000 1.512361e+000 1.787530e+000 1.291161e+000 2.718699e+000 3.877142e-001 2.376817e-001 2.644793e-001 3.436569e-001 2.367399e-001 2.745434e-001 3.918213e-001 2.386624e-001 2.493701e-001 2.663671e-001 2.677521e-001 2.564415e-001 3.949691e-001
<GCONST> 1.112056e+002
<MIXTURE> 3 1.821816e-001
<MEAN> 39
 -4.594780e+000 -7.892454e+000 -4.937593e+000 -1.226606e+001 -8.735941e+000 -8.014898e+000 3.143978e+000 -2.393233e+000 1.749851e+000 -2.744897e+000 3.275352e+000 -8.493187e+000 6.937116e+001 1.778516e-001 -1.976938e+000 -1.711541e+000 -2.757110e+000 -1.556189e+000 7.498929e-002 1.353029e+000 3.173286e-001 -2.212315e-001 1.892822e-001 6.736843e-002 -8.007313e-001 5.145246e+000 4.974101e-002 2.493011e-001 2.037001e-001 5.630807e-001 6.860310e-001 3.778028e-001 -1.736127e-001 -8.736429e-002 -1.566731e-001 -1.672348e-001 -3.289211e-001 3.392489e-001 -1.103443e+000
<VARIANCE> 39
 1.201923e+001 1.399504e+001 5.847490e+001 3.837783e+001 3.879280e+001 2.053611e+001 3.692860e+001 4.394004e+001 3.164521e+001 2.615500e+001 3.608583e+001 2.235765e+001 4.111154e+001 1.867186e+000 1.313069e+000 2.665577e+000 2.226866e+000 2.658262e+000 1.584945e+000 2.045707e+000 3.699388e+000 2.215643e+000 1.833055e+000 1.854073e+000 1.850163e+000 3.167660e+000 1.561645e-001 1.186074e-001 1.955281e-001 2.525813e-001 1.904093e-001 1.228020e-001 2.148750e-001 2.680806e-001 2.662576e-001 2.095291e-001 2.705874e-001 2.568585e-001 3.180415e-001
<GCONST> 1.053409e+002
<MIXTURE> 4 2.142683e-001
<MEAN> 39
 3.482987e+000 -5.620007e+000 -1.557206e+001 -1.050800e+001 3.049137e+000 -1.086431e+001 -6.130453e+000 -2.677542e+000 4.044428e+000 6.334958e-001 -4.327148e-001 -7.673268e+000 6.234598e+001 1.490747e+000 -1.671037e+000 -3.173992e+000 -9.068347e-001 2.747008e-001 -5.131841e-001 -4.156730e-001 7.980339e-001 8.264334e-001 2.322294e-001 -6.944692e-001 -6.172875e-001 3.265942e+000 -2.609543e-001 1.621660e-001 6.401442e-001 5.758818e-001 -1.051723e-001 3.269255e-001 2.223454e-001 -2.063762e-002 -2.938474e-001 -5.239851e-001 -4.262676e-002 2.445908e-001 -7.719486e-001
<VARIANCE> 39
 3.169308e+001 3.948923e+001 8.166187e+001 5.363755e+001 4.133016e+001 5.238033e+001 7.514717e+001 1.137771e+002 3.591076e+001 5.150033e+001 4.813456e+001 3.996081e+001 8.359221e+001 2.336625e+000 2.633830e+000 2.721201e+000 2.150843e+000 3.664904e+000 3.239077e+000 3.453928e+000 4.296703e+000 3.732692e+000 3.229465e+000 2.028227e+000 2.170086e+000 3.266996e+000 2.928369e-001 1.803975e-001 4.021262e-001 3.057805e-001 2.625537e-001 2.564900e-001 4.150550e-001 6.628059e-001 3.544240e-001 4.132179e-001 3.507533e-001 3.104465e-001 3.730173e-001
<GCONST> 1.231995e+002
<MIXTURE> 5 1.584298e-001
<MEAN> 39
 -1.086541e+001 -6.353448e+000 -2.764596e+000 -8.279162e+000 -4.662825e+000 -5.870176e+000 1.436099e+000 -4.190922e+000 2.003249e+000 -4.682899e+000 9.982205e-001 -3.121562e+000 5.933336e+001 1.341572e+000 -4.637437e-001 -1.667958e+000 -2.026318e+000 -7.030213e-001 -1.237728e+000 -6.071908e-001 -3.134095e-001 2.815401e-001 -1.311147e-001 -2.260471e-001 -4.121904e-001 5.102162e+000 5.704052e-001 3.249709e-001 -2.172889e-001 1.825214e-001 2.842920e-001 -2.430318e-001 -2.035657e-001 -7.317261e-002 -6.488068e-002 -7.120571e-002 -1.713419e-002 -1.236459e-001 -4.217433e-001
<VARIANCE> 39
 2.248516e+001 2.866323e+001 4.119774e+001 2.907924e+001 2.720235e+001 2.305155e+001 3.514683e+001 2.799341e+001 3.422929e+001 3.322239e+001 2.340065e+001 2.219979e+001 3.548179e+001 3.378589e+000 4.645595e+000 4.499192e+000 3.218102e+000 2.143060e+000 2.323029e+000 2.203146e+000 2.559159e+000 1.509945e+000 1.759390e+000 1.537822e+000 1.336957e+000 3.283075e+000 3.672749e-001 2.650686e-001 2.883576e-001 3.053216e-001 2.677171e-001 2.702518e-001 3.547569e-001 2.517540e-001 2.851609e-001 2.501615e-001 2.619706e-001 2.050628e-001 3.371253e-001
<GCONST> 1.106193e+002
<TRANSP> 5
 0.000000e+000 1.000000e+000 0.000000e+000 0.000000e+000 0.000000e+000
 0.000000e+000 6.161532e-001 3.838468e-001 0.000000e+000 0.000000e+000
 0.000000e+000 0.000000e+000 4.752271e-001 5.247729e-001 0.000000e+000
 0.000000e+000 0.000000e+000 0.000000e+000 5.032744e-001 4.967256e-001
 0.000000e+000 0.000000e+000 0.000000e+000 0.000000e+000 0.000000e+000
<ENDHMM>
~h "d"
<BEGINHMM>
<NUMSTATES> 5
<STATE> 2
<NUMMIXES> 5
<MIXTURE> 1 1.286108e-001
<MEAN> 39
 3.546427e-001 2.765372e+000 4.490440e+000 -3.304651e+000 -5.013060e+000 -4.847286e+000 1.845930e+000 -1.130808e+000 4.686559e-001 -5.123234e-001 7.910615e-001 -2.175311e+000 5.114194e+001 -3.432976e-001 3.571464e-001 3.429363e-002 2.160745e-001 8.561335e-001 3.199313e-001 8.956376e-003 7.053937e-003 -6.524772e-002 -2.214284e-001 1.353743e-001 8.103612e-002 -6.875440e-001 -3.106403e-001 -2.144111e-001 -2.793780e-001 -3.382696e-001 -4.915737e-002 -7.548285e-003 -2.203614e-002 -6.440011e-002 2.409382e-001 3.363416e-002 -8.739084e-002 6.286433e-002 6.836760e-001
<VARIANCE> 39
 3.378417e+001 3.021809e+001 3.140205e+001 3.770350e+001 4.693059e+001 4.416583e+001 4.872034e+001 4.415231e+001 2.836552e+001 3.705442e+001 3.628097e+001 2.857844e+001 9.083461e+001 1.250240e+000 1.669397e+000 1.451866e+000 1.986162e+000 1.768942e+000 1.908750e+000 1.644728e+000 1.330464e+000 1.829235e+000 1.710452e+000 1.445001e+000 1.192040e+000 1.980047e+000 1.263948e-001 1.505477e-001 2.192259e-001 2.880931e-001 3.558865e-001 2.974642e-001 3.224608e-001 2.697538e-001 3.078664e-001 3.579716e-001 2.508271e-001 2.186610e-001 3.228696e-001
<GCONST> 1.079148e+002
<MIXTURE> 2 2.548042e-001
<MEAN> 39
 -1.173213e+001 -9.494864e-001 -1.727071e+000 -5.090833e-001 2.465935e-001 -1.479141e+000 -4.245461e-001 -2.966268e+000 -5.652632e-001 -3.977451e+000 -4.686440e-001 -3.077648e+000 4.113249e+001 -6.101429e-001 -8.185914e-001 -1.167514e+000 -1.222904e+000 -7.831724e-001 1.134361e-001 1.953766e-001 -6.343392e-003 7.462441e-001 4.124901e-001 7.254320e-002 4.775431e-001 3.495157e+000 4.214425e-001 6.510264e-002 5.964992e-002 -6.760526e-001 -5.366827e-001 -3.537064e-001 1.212334e-001 -1.380759e-001 8.592114e-002 2.848986e-001 -8.737361e-002 -7.787856e-002 1.282030e+000
<VARIANCE> 39
 1.943632e+001 2.364378e+001 2.328308e+001 1.981412e+001 1.475881e+001 1.512123e+001 1.750076e+001 2.276188e+001 2.056236e+001 2.077752e+001 1.934691e+001 1.531351e+001 6.464748e+001 1.878942e+000 1.475385e+000 1.617725e+000 1.656774e+000 1.379382e+000 1.529233e+000 2.011333e+000 1.444526e+000 1.579072e+000 1.661820e+000 1.404578e+000 1.285669e+000 5.909670e+000 1.766382e-001 2.088056e-001 2.618048e-001 2.970051e-001 2.558714e-001 2.560207e-001 2.367588e-001 2.794157e-001 2.293195e-001 2.786351e-001 3.080303e-001 2.129873e-001 4.201766e-001
<GCONST> 1.007681e+002
<MIXTURE> 3 2.737647e-001
<MEAN> 39
 7.732815e-001 3.879150e+000 2.492769e+000 -2.046139e+000 -1.150640e+000 -7.713927e+000 -3.941452e-001 -4.020941e+000 -2.540434e+000 -3.269125e+000 -2.530755e+000 -5.168407e+000 4.975508e+001 -1.529272e+000 -2.612050e-001 -5.230445e-001 -6.597623e-001 -6.916205e-001 8.344675e-001 2.011445e-001 -2.868703e-001 7.391664e-001 3.165840e-001 1.523152e-001 1.866254e-001 9.961228e-001 -1.930527e-001 -3.673009e-001 -4.026653e-001 -6.960549e-001 -3.200146e-001 -1.580973e-001 1.589676e-001 -2.568572e-002 2.152776e-001 1.408633e-001 -6.377620e-003 4.974259e-002 9.913586e-001
<VARIANCE> 39
 5.413567e+001 4.300702e+001 5.781485e+001 5.857545e+001 8.371078e+001 1.003884e+002 7.228349e+001 6.332040e+001 5.537960e+001 5.300348e+001 4.452154e+001 4.206009e+001 7.066730e+001 1.329267e+000 2.611212e+000 3.555948e+000 3.593489e+000 5.198314e+000 3.890608e+000 3.352970e+000 2.766279e+000 2.799133e+000 2.621878e+000 2.220244e+000 2.104228e+000 3.416050e+000 2.767159e-001 3.032349e-001 3.290433e-001 4.749800e-001 6.314688e-001 6.187618e-001 6.053655e-001 4.475687e-001 5.234323e-001 5.183136e-001 4.119723e-001 4.912625e-001 3.817598e-001
<GCONST> 1.281454e+002
<MIXTURE> 4 2.183675e-001
<MEAN> 39
 -1.007635e+001 5.443164e-001 5.974116e-001 -4.144689e-001 4.445813e-001 -2.715609e+000 5.819445e-001 -3.928517e+000 -1.584935e+000 -4.334681e+000 -5.152829e-001 -3.023910e+000 3.869853e+001 -1.236420e+000 -1.302167e+000 -2.093978e+000 -9.560687e-001 -4.029086e-001 -1.326673e-001 -1.795625e-001 5.391285e-001 4.729750e-001 -4.931389e-002 7.161665e-001 1.177657e-001 3.278157e+000 2.414142e-001 -9.546421e-002 -2.870483e-001 -1.097742e+000 -4.114667e-001 -2.147401e-001 -8.355826e-002 -1.974664e-001 4.037750e-001 2.938886e-002 6.918271e-003 -1.033796e-001 1.786050e+000
<VARIANCE> 39
 2.510355e+001 3.150951e+001 2.439143e+001 1.921031e+001 2.042843e+001 2.146615e+001 2.344073e+001 2.168075e+001 2.543679e+001 2.644303e+001 2.933291e+001 1.883017e+001 3.579860e+001 1.798490e+000 1.899389e+000 1.621287e+000 1.812092e+000 1.278600e+000 1.435311e+000 1.113218e+000 1.346256e+000 1.541443e+000 1.221989e+000 1.343600e+000 1.386270e+000 4.052700e+000 2.351262e-001 2.882632e-001 2.641824e-001 4.707747e-001 2.961158e-001 2.398292e-001 2.953058e-001 2.420759e-001 2.925403e-001 4.412813e-001 2.836924e-001 2.195620e-001 5.538463e-001
<GCONST> 1.037171e+002
<MIXTURE> 5 1.244533e-001
<MEAN> 39
 -1.672530e+000 2.539535e+000 3.564761e+000 -3.288538e+000 -5.424730e+000 -6.010081e+000 6.361551e-001 -2.740244e+000 1.726011e-001 -1.391349e+000 4.681023e-002 -3.775577e+000 4.843540e+001 -4.633538e-001 1.116226e-001 -2.427841e-001 -2.668882e-002 5.415812e-001 6.781970e-002 -3.061885e-001 -1.008972e-001 -2.400763e-001 -2.743753e-001 -6.485602e-002 -8.418071e-002 -5.238296e-001 -3.270349e-001 -3.013521e-001 -2.863278e-001 -3.748173e-001 -3.549377e-002 -8.826685e-003 -4.496377e-002 -1.090218e-001 1.713426e-001 -6.528323e-002 -7.139778e-002 3.112721e-002 7.547421e-001
<VARIANCE> 39
 3.030687e+001 3.235451e+001 2.838456e+001 3.469966e+001 4.492095e+001 3.438752e+001 4.354674e+001 4.552749e+001 3.290570e+001 4.002843e+001 3.537164e+001 3.027874e+001 6.730706e+001 1.403913e+000 1.375857e+000 1.252027e+000 1.652235e+000 1.565486e+000 1.737134e+000 1.554340e+000 1.609992e+000 1.923645e+000 1.666123e+000 1.316810e+000 9.974839e-001 1.769516e+000 1.249020e-001 1.630259e-001 2.307245e-001 2.958534e-001 2.836615e-001 2.888401e-001 3.253182e-001 3.069518e-001 3.070641e-001 3.207755e-001 2.642037e-001 2.011690e-001 3.322105e-001
<GCONST> 1.063339e+002
<STATE> 3
<NUMMIXES> 5
<MIXTURE> 1 2.570577e-001
<MEAN> 39
 -5.950763e+000 1.285662e+000 1.303599e+000 -5.209246e+000 -1.971085e+000 -3.746001e+000 -5.857857e-001 -2.702801e+000 2.999762e+000 -1.632650e+000 -4.372681e-001 -1.251769e+000 5.681128e+001 -5.868400e-001 -2.604561e-002 -2.210225e-001 -1.653305e+000 -1.158865e+000 -3.598651e-001 4.293346e-001 -3.258260e-001 5.081988e-001 7.101822e-001 -3.866393e-001 -4.745227e-002 2.255649e+000 2.911107e-001 9.066597e-002 4.696825e-002 -3.664243e-001 -2.619484e-001 -2.500279e-001 1.296915e-001 1.192665e-001 -7.428684e-002 1.681593e-001 -2.743318e-002 -1.323003e-002 3.825044e-001
<VARIANCE> 39
 3.731741e+001 1.993769e+001 2.236585e+001 3.978668e+001 5.765669e+001 3.947351e+001 4.531910e+001 3.767857e+001 3.569064e+001 3.375723e+001 3.645824e+001 2.458904e+001 5.715482e+001 1.745255e+000 1.401964e+000 1.863126e+000 2.267208e+000 2.689478e+000 1.869748e+000 4.685551e+000 1.751144e+000 2.241443e+000 2.431195e+000 2.078709e+000 1.852804e+000 2.298084e+000 1.500410e-001 1.618783e-001 1.936551e-001 2.519316e-001 2.393017e-001 3.598633e-001 2.741545e-001 2.957973e-001 2.720880e-001 2.092146e-001 2.133435e-001 1.830387e-001 1.737178e-001
<GCONST> 1.085616e+002
<MIXTURE> 2 1.475767e-001
<MEAN> 39
 -1.474698e+001 -5.217727e+000 -7.324466e+000 -7.475716e+000 -1.620108e+000 -3.753164e+000 1.515696e+000 -5.061635e+000 4.393433e+000 -2.524529e+000 4.728234e-001 1.758221e-001 6.128370e+001 5.674964e-001 -9.344121e-001 -7.480577e-001 -2.229193e+000 -1.952802e+000 -6.977167e-001 8.476276e-001 1.958165e-001 5.166941e-001 1.262944e+000 1.520181e-001 -3.987574e-002 5.892415e+000 7.701014e-001 6.646661e-002 4.421418e-001 -1.725243e-001 -2.492017e-001 -2.408396e-001 1.917387e-001 1.717077e-001 -3.819370e-001 -2.550958e-002 -5.735206e-002 -4.543410e-001 -1.388243e-001
<VARIANCE> 39
 1.530243e+001 2.429321e+001 2.140543e+001 2.946688e+001 2.791154e+001 2.789788e+001 3.754733e+001 3.078740e+001 3.111210e+001 3.199192e+001 2.975023e+001 2.051752e+001 4.168374e+001 2.073846e+000 1.468881e+000 1.819130e+000 1.785882e+000 1.215569e+000 1.904515e+000 1.907377e+000 1.938765e+000 2.070992e+000 1.446575e+000 2.143343e+000 1.914110e+000 3.300787e+000 1.686318e-001 2.924758e-001 2.890456e-001 3.534081e-001 3.433596e-001 2.909775e-001 3.643409e-001 2.719505e-001 2.538908e-001 4.818885e-001 3.299189e-001 2.723303e-001 4.849511e-001
<GCONST> 1.078021e+002
<MIXTURE> 3 2.354192e-001
<MEAN> 39
 -1.402398e+001 -5.699732e+000 -1.007123e+001 -8.574542e+000 -1.918353e+000 -5.401614e+000 -1.047691e+000 -2.092315e+000 1.760194e+000 -5.662346e+000 3.581780e+000 -5.235473e+000 6.051618e+001 2.394304e-001 -5.971280e-001 -1.252136e+000 -2.739026e+000 -6.321926e-001 1.281944e-003 -1.801045e-002 -7.066258e-001 1.289644e+000 -9.100433e-001 -2.031224e-001 -4.530914e-001 4.672804e+000 5.552489e-001 1.698582e-001 5.766215e-001 -1.690263e-001 9.023698e-002 5.688478e-002 2.012616e-001 -5.682271e-001 1.180718e-001 -5.032059e-002 -3.584080e-001 3.875621e-002 -3.574894e-001
<VARIANCE> 39
 1.604038e+001 2.349230e+001 1.457749e+001 1.776755e+001 1.640976e+001 2.118294e+001 2.513194e+001 2.072237e+001 2.381961e+001 2.281516e+001 2.307649e+001 2.426844e+001 3.354102e+001 2.550346e+000 2.384803e+000 1.815649e+000 2.483364e+000 1.608167e+000 2.012773e+000 1.980174e+000 1.564694e+000 1.378742e+000 1.784275e+000 1.843254e+000 1.581789e+000 4.732113e+000 2.056849e-001 3.932241e-001 2.336037e-001 3.928009e-001 1.992680e-001 2.940598e-001 3.559973e-001 3.114710e-001 3.363805e-001 3.561509e-001 2.616658e-001 2.712540e-001 4.874268e-001
<GCONST> 1.051268e+002
<MIXTURE> 4 2.119328e-001
<MEAN> 39
 -5.801683e+000 5.795075e-002 -1.846452e+000 -7.459601e+000 -4.834494e+000 -8.035273e+000 -3.623599e-001 -6.038117e+000 -6.674918e-001 -1.662286e+000 -1.399801e+000 -4.234696e+000 5.743641e+001 -1.019664e+000 -3.619417e-001 -1.057125e+000 -1.656715e+000 -8.421229e-001 -3.341670e-001 4.769092e-001 3.936711e-002 5.591924e-001 6.719571e-001 1.775323e-002 2.022513e-001 2.012116e+000 3.711121e-001 -9.019434e-002 3.620353e-002 -3.020300e-001 -1.911342e-002 -2.073195e-001 5.389028e-002 1.554828e-001 9.553681e-002 -8.163757e-004 -4.202187e-002 -9.001317e-002 1.752266e-001
<VARIANCE> 39
 3.923241e+001 3.998375e+001 6.205845e+001 6.264364e+001 6.568187e+001 8.677178e+001 5.975523e+001 7.282320e+001 5.479433e+001 8.154516e+001 4.068111e+001 5.129327e+001 6.165068e+001 1.525864e+000 3.325063e+000 2.147753e+000 4.162984e+000 5.637959e+000 5.021554e+000 4.089766e+000 2.964758e+000 3.565772e+000 3.051764e+000 2.206422e+000 2.986182e+000 4.815008e+000 1.676746e-001 2.866537e-001 3.978113e-001 4.531549e-001 4.736278e-001 5.783072e-001 5.147708e-001 4.205711e-001 4.037911e-001 5.555552e-001 3.078262e-001 3.214656e-001 1.975279e-001
<GCONST> 1.269909e+002
<MIXTURE> 5 1.480144e-001
<MEAN> 39
 -1.520292e+001 -5.613169e+000 -8.032795e+000 -8.361810e+000 -2.414383e+000 -4.537160e+000 -1.598966e-001 -5.753097e+000 4.137432e+000 -3.649797e+000 4.666888e-001 -6.312407e-001 6.138977e+001 2.405588e-001 -1.227560e+000 -1.198179e+000 -2.477913e+000 -2.180913e+000 -7.374671e-001 6.148502e-001 1.273851e-001 4.472446e-001 1.000679e+000 5.073826e-002 -2.491890e-001 5.775877e+000 7.613354e-001 4.087176e-003 3.770649e-001 -1.873885e-001 -1.765429e-001 -2.088334e-001 3.047193e-001 1.482804e-001 -5.381318e-001 -5.299998e-002 -1.591972e-001 -5.215544e-001 -1.450838e-001
<VARIANCE> 39
 1.328574e+001 2.562185e+001 2.508247e+001 2.492988e+001 2.589560e+001 2.182500e+001 2.735498e+001 2.275252e+001 3.019990e+001 2.919894e+001 2.384156e+001 1.938758e+001 3.710498e+001 2.522478e+000 1.505626e+000 2.122361e+000 1.622290e+000 1.189622e+000 1.996601e+000 1.956129e+000 2.329617e+000 2.361288e+000 1.891101e+000 2.324100e+000 1.814678e+000 3.316632e+000 1.755594e-001 3.234267e-001 3.090649e-001 4.882772e-001 3.515212e-001 3.007531e-001 3.716255e-001 2.912687e-001 2.349611e-001 4.232344e-001 3.005049e-001 2.558038e-001 4.896570e-001
<GCONST> 1.075174e+002
<STATE> 4
<NUMMIXES> 5
<MIXTURE> 1 3.067126e-001
<MEAN> 39
 -3.004705e+000 4.257932e-002 1.172995e+000 -1.173810e+001 -1.257471e+001 -8.241826e+000 5.021453e+000 -2.966970e+000 1.372128e-001 7.008922e+000 -5.802468e+000 -2.522731e+000 6.563135e+001 1.571697e-001 -6.153851e-002 -1.558636e-002 -1.806050e+000 -9.918544e-001 -1.037456e-001 8.993762e-001 3.695257e-001 3.961793e-001 5.261549e-001 -7.759020e-001 5.967669e-002 1.794434e+000 8.709563e-003 1.356171e-001 4.555167e-002 2.453369e-001 6.291256e-001 1.712826e-001 -3.673246e-001 1.699481e-001 1.293213e-002 -6.880635e-001 2.898436e-001 -3.314115e-002 -6.761055e-001
<VARIANCE> 39
 2.105611e+001 2.774356e+001 4.728181e+001 9.019949e+001 5.238381e+001 6.873643e+001 6.190691e+001 5.310968e+001 7.841051e+001 5.178119e+001 3.601010e+001 5.942012e+001 5.559087e+001 1.407220e+000 1.517001e+000 1.618752e+000 3.367356e+000 2.932355e+000 2.230317e+000 3.443110e+000 1.832808e+000 2.266042e+000 2.652941e+000 1.539719e+000 2.107123e+000 2.597033e+000 1.572995e-001 1.503250e-001 2.424102e-001 3.023150e-001 3.013697e-001 2.992663e-001 3.692574e-001 3.254576e-001 3.834222e-001 3.159640e-001 2.952729e-001 3.103445e-001 1.910045e-001
<GCONST> 1.157484e+002
<MIXTURE> 2 1.936041e-001
<MEAN> 39
 -6.462964e+000 -5.002998e+000 -5.314291e+000 -1.608924e+001 -8.919938e+000 -4.158213e+000 5.039855e+000 -6.938617e+000 4.115390e+000 5.510559e-002 -3.707794e+000 -2.710081e+000 7.054075e+001 1.253780e+000 -1.970219e+000 -7.960093e-001 -1.579825e+000 -8.934168e-001 1.495109e-001 1.840811e+000 2.802372e-001 -8.071654e-001 3.825585e-001 -2.872019e-001 -6.627577e-001 3.858023e+000 5.130666e-002 -7.436840e-002 1.645040e-001 9.559029e-001 6.725298e-001 4.519546e-002 -1.231428e-001 3.396443e-001 -7.013787e-001 -3.733504e-001 2.334646e-001 -1.555757e-001 -1.324850e+000
<VARIANCE> 39
 8.901678e+000 1.930271e+001 1.434055e+001 3.333013e+001 2.330747e+001 2.288982e+001 3.375126e+001 2.864179e+001 3.440915e+001 5.260693e+001 2.527564e+001 2.050366e+001 2.872829e+001 1.282576e+000 1.359408e+000 1.673989e+000 2.587620e+000 2.296297e+000 2.630224e+000 1.406029e+000 3.205019e+000 2.464974e+000 2.023349e+000 2.183394e+000 2.178821e+000 4.778241e+000 2.034056e-001 1.413607e-001 1.752246e-001 2.618075e-001 2.163981e-001 2.568774e-001 2.983499e-001 2.489019e-001 2.895103e-001 6.312307e-001 3.023477e-001 2.190622e-001 1.804080e-001
<GCONST> 1.050649e+002
<MIXTURE> 3 1.909785e-001
<MEAN> 39
 -9.101688e+000 1.765926e-001 -1.553369e+000 -1.140958e+001 -2.965084e+000 -6.458311e+000 -8.890220e-002 -4.404399e+000 5.518146e+000 -3.696600e+000 2.182231e+000 -3.067335e+000 6.057045e+001 1.961114e-001 3.438430e-001 1.663418e-001 -1.458968e+000 -5.526618e-001 -5.320462e-001 -1.063849e-002 -1.484787e-001 5.536751e-001 3.375719e-001 3.013050e-001 -2.861456e-002 1.868057e+000 5.292042e-001 1.146189e-001 2.954713e-001 3.884943e-001 5.045452e-002 1.818181e-002 4.838698e-003 1.243428e-001 -2.747327e-001 1.447378e-001 -1.239904e-001 -1.582697e-003 -5.688474e-001
<VARIANCE> 39
 4.502815e+001 4.692442e+001 4.491084e+001 5.604192e+001 6.633379e+001 5.639082e+001 5.067599e+001 5.279855e+001 6.055831e+001 4.265681e+001 4.576103e+001 4.212177e+001 6.029592e+001 3.142560e+000 1.919756e+000 2.461288e+000 3.597436e+000 2.517884e+000 3.140819e+000 2.159288e+000 2.475946e+000 2.168082e+000 2.000891e+000 2.158971e+000 1.504772e+000 3.533014e+000 3.108813e-001 2.632460e-001 3.927383e-001 3.416065e-001 3.727098e-001 3.749880e-001 4.152838e-001 3.595583e-001 3.838136e-001 2.630678e-001 3.287941e-001 2.750407e-001 3.643180e-001
<GCONST> 1.203461e+002
<MIXTURE> 4 1.375220e-001
<MEAN> 39
 -5.572279e+000 -7.000738e+000 -7.989861e+000 -1.822769e+001 -9.183782e+000 -3.474399e+000 4.177591e+000 -5.904673e+000 1.990040e+000 -5.400998e+000 -2.382550e+000 -9.425820e+000 7.281760e+001 1.229621e+000 -2.137565e+000 -7.384696e-001 -5.761259e-001 1.116862e-001 6.519836e-001 1.248593e+000 -3.370885e-001 -6.354623e-001 -1.069513e+000 -2.261389e-001 -8.845026e-001 2.550387e+000 -3.209010e-001 -2.038130e-001 7.392322e-002 1.173188e+000 8.160551e-001 8.766795e-002 -2.268043e-001 9.090369e-002 -2.526158e-001 -9.216136e-002 2.165009e-001 4.660103e-001 -1.291962e+000
<VARIANCE> 39
 7.676370e+000 1.837663e+001 1.739544e+001 2.027821e+001 3.947425e+001 2.971631e+001 3.677736e+001 4.762477e+001 2.875233e+001 8.689188e+001 4.237910e+001 3.139965e+001 2.574041e+001 1.172781e+000 1.100027e+000 1.144030e+000 2.891587e+000 2.216098e+000 1.876777e+000 2.009877e+000 5.702446e+000 3.199949e+000 3.292453e+000 3.014519e+000 2.538232e+000 2.730273e+000 9.661753e-002 2.178216e-001 2.371603e-001 2.252350e-001 3.329445e-001 3.178131e-001 3.275293e-001 4.031107e-001 3.474798e-001 1.039274e+000 4.385728e-001 2.776932e-001 1.891282e-001
<GCONST> 1.101513e+002
<MIXTURE> 5 1.711837e-001
<MEAN> 39
 -1.031747e+001 -1.951703e+000 -4.695454e+000 -1.140991e+001 -3.779263e+000 -6.764819e+000 -1.610965e+000 -6.621891e+000 3.369569e+000 -5.825794e+000 4.065288e-001 -5.477351e+000 5.944235e+001 1.572389e-001 -1.211598e-001 -5.095780e-002 -1.306287e+000 -6.617303e-001 -5.111583e-001 -1.641242e-001 -4.042279e-001 3.054402e-001 -1.133065e-001 -1.826316e-001 -4.415235e-001 1.402456e+000 4.321457e-001 8.761939e-002 3.181393e-001 3.348211e-001 -7.199560e-003 1.122619e-002 3.909529e-002 5.408246e-002 -3.213714e-001 8.749527e-002 -1.661104e-001 -3.260269e-002 -5.760773e-001
<VARIANCE> 39
 4.765617e+001 5.497178e+001 3.603249e+001 4.833347e+001 5.218946e+001 4.645628e+001 4.216525e+001 5.743208e+001 4.856688e+001 4.590582e+001 3.510748e+001 4.768619e+001 6.666492e+001 2.631815e+000 1.983761e+000 2.170548e+000 4.272216e+000 2.818925e+000 2.811409e+000 2.113902e+000 2.326041e+000 2.437402e+000 2.018183e+000 1.913844e+000 1.685876e+000 4.552532e+000 3.221217e-001 2.615243e-001 3.311606e-001 4.173058e-001 4.043506e-001 3.806488e-001 4.207284e-001 3.511868e-001 4.060203e-001 2.951939e-001 2.574979e-001 2.916808e-001 3.931595e-001
<GCONST> 1.198706e+002
<TRANSP> 5
 0.000000e+000 1.000000e+000 0.000000e+000 0.000000e+000 0.000000e+000
 0.000000e+000 5.617445e-001 4.382554e-001 0.000000e+000 0.000000e+000
 0.000000e+000 0.000000e+000 3.801994e-001 6.198006e-001 0.000000e+000
 0.000000e+000 0.000000e+000 0.000000e+000 5.049776e-001 4.950224e-001
 0.000000e+000 0.000000e+000 0.000000e+000 0.000000e+000 0.000000e+000
<ENDHMM>
~h "f"
<BEGINHMM>
<NUMSTATES> 5
<STATE> 2
<NUMMIXES> 5
<MIXTURE> 1 1.424938e-001
<MEAN> 39
 -7.614149e+000 -1.537323e+000 1.445800e+000 -9.348025e-001 4.284802e-001 -2.071463e+000 1.558573e+000 -1.650460e+000 1.912826e+000 -5.592502e-001 9.642444e-001 -1.982286e+000 5.071765e+001 -5.154468e-002 6.511538e-002 1.283227e-001 1.231749e-001 2.066273e-001 3.216867e-001 2.312081e-001 2.747690e-001 3.096310e-001 7.216788e-002 2.426163e-001 7.864896e-002 -9.905307e-002 1.684867e-002 6.991291e-003 7.112502e-003 1.435323e-002 1.227917e-002 -2.723522e-002 3.922947e-002 5.956831e-002 4.309979e-002 3.454471e-002 4.644271e-002 8.067893e-002 4.181967e-002
<VARIANCE> 39
 1.620026e+001 9.281694e+000 9.574082e+000 1.382035e+001 1.753794e+001 1.958522e+001 1.946969e+001 2.087511e+001 2.548501e+001 3.220316e+001 2.822754e+001 1.778504e+001 5.898206e+001 2.268547e-001 3.182547e-001 3.022196e-001 4.902500e-001 6.200637e-001 7.136039e-001 8.373244e-001 8.021436e-001 1.004397e+000 8.327634e-001 8.992141e-001 7.730757e-001 1.791163e-001 3.478799e-002 4.876359e-002 6.003483e-002 8.845806e-002 1.174671e-001 1.272981e-001 1.378034e-001 1.507036e-001 1.929303e-001 1.682990e-001 1.682167e-001 1.351003e-001 1.840480e-002
<GCONST> 7.151365e+001
<MIXTURE> 2 1.906732e-001
<MEAN> 39
 -8.573335e+000 4.407401e-001 3.000674e+000 -4.024480e+000 5.557179e-001 -6.207829e+000 -2.114254e-001 -3.177466e+000 1.586486e-001 -1.657872e+000 2.001511e+000 -3.642222e+000 5.128920e+001 -1.177302e+000 -5.665611e-001 -3.182165e-001 2.333999e-001 -5.281155e-002 2.416106e-002 5.755382e-001 3.562911e-002 1.819751e-001 -2.701694e-001 9.063154e-002 3.110370e-001 -4.206320e-001 1.077365e-001 -7.958243e-002 -1.497287e-001 -1.825993e-001 -4.886876e-002 1.616552e-002 -6.851960e-002 3.679056e-002 2.994113e-002 -5.966681e-002 -6.660130e-002 -3.535774e-002 1.204465e-001
<VARIANCE> 39
 4.430466e+001 4.383118e+001 5.592877e+001 6.261020e+001 8.321210e+001 5.390374e+001 6.111052e+001 8.157179e+001 5.473750e+001 6.168399e+001 4.974542e+001 4.102390e+001 8.323431e+001 1.857465e+000 1.698994e+000 1.754189e+000 2.197236e+000 1.760019e+000 2.673533e+000 2.317619e+000 2.214466e+000 2.651027e+000 2.143300e+000 2.031446e+000 1.780158e+000 1.587380e+000 3.754694e-001 1.873031e-001 1.888113e-001 2.507972e-001 2.778701e-001 3.486888e-001 3.532696e-001 3.822380e-001 3.925040e-001 3.130078e-001 3.782532e-001 2.747522e-001 1.711073e-001
<GCONST> 1.174999e+002
<MIXTURE> 3 3.093935e-001
<MEAN> 39
 -1.096784e+001 -2.599286e+000 -1.176315e-001 -2.050586e+000 -4.570816e-001 -4.483431e+000 -8.906430e-001 -2.616414e+000 2.272372e+000 -2.563671e+000 3.000513e+000 -1.856580e+000 4.775103e+001 -5.143982e-001 -4.439914e-001 -2.202718e-001 -2.240206e-001 -2.665542e-001 -2.253635e-001 -4.059882e-002 -2.285849e-002 7.608703e-002 -1.211902e-001 5.454620e-002 -1.565231e-003 -2.440241e-002 2.140317e-001 4.278357e-002 4.261737e-002 1.044753e-002 -3.938350e-003 -2.721512e-003 1.718821e-002 3.667286e-002 -1.808151e-003 -2.039675e-002 -8.557006e-002 -6.427116e-002 1.321636e-001
<VARIANCE> 39
 1.991829e+001 1.788943e+001 2.611851e+001 3.166129e+001 4.170510e+001 4.237872e+001 3.789116e+001 4.089029e+001 3.243700e+001 3.115471e+001 3.075146e+001 2.467836e+001 1.285473e+002 5.954973e-001 6.098496e-001 5.204444e-001 6.791004e-001 1.012436e+000 1.093844e+000 9.686297e-001 1.181859e+000 1.157778e+000 1.222767e+000 1.135294e+000 7.651924e-001 6.658008e-001 1.190035e-001 9.135611e-002 8.339395e-002 1.373647e-001 2.171420e-001 2.126142e-001 2.260774e-001 2.021545e-001 2.205863e-001 1.908137e-001 1.989427e-001 1.557890e-001 1.030427e-001
<GCONST> 9.141804e+001
<MIXTURE> 4 2.064009e-001
<MEAN> 39
 -1.077028e+001 -4.979001e+000 -2.544523e+000 -4.382915e+000 3.049111e-001 -3.461277e+000 1.098478e+000 -3.998339e+000 1.075287e+000 -3.055586e+000 2.142705e+000 -3.558319e+000 5.672450e+001 -2.958356e+000 -2.500039e-001 1.548267e-002 5.897356e-001 -1.389582e-001 5.097371e-001 8.740219e-002 8.931460e-002 2.733424e-001 -6.410164e-002 1.233377e-001 2.881578e-001 -1.430874e+000 9.006642e-003 -2.263542e-001 -3.105656e-001 -3.199575e-001 -1.572587e-001 -2.289784e-001 9.866208e-003 3.391506e-002 -5.151656e-002 -5.700715e-002 -9.662454e-002 -1.090037e-001 3.127790e-001
<VARIANCE> 39
 3.582005e+001 2.009721e+001 2.363470e+001 2.163064e+001 2.071679e+001 2.075125e+001 2.489711e+001 2.753237e+001 2.817736e+001 2.232752e+001 1.953472e+001 1.784981e+001 4.389346e+001 2.092152e+000 2.697939e+000 2.412392e+000 2.038675e+000 2.448745e+000 2.294128e+000 1.957266e+000 2.364143e+000 2.261379e+000 2.256438e+000 1.458891e+000 1.663325e+000 2.722076e+000 2.657696e-001 2.122318e-001 1.808176e-001 1.717742e-001 1.912609e-001 2.280401e-001 2.395247e-001 1.816591e-001 2.335814e-001 2.435635e-001 1.833993e-001 2.070500e-001 1.841078e-001
<GCONST> 1.028224e+002
<MIXTURE> 5 1.510393e-001
<MEAN> 39
 -8.979298e+000 -2.069243e+000 9.083245e-001 -1.934739e+000 -1.713203e-002 -2.521289e+000 7.035877e-001 -2.645192e+000 1.052284e+000 -2.230118e+000 6.850473e-001 -2.778330e+000 4.833005e+001 -1.097354e-001 -9.573760e-003 -4.381239e-002 -9.589027e-002 -7.081388e-002 -1.215250e-001 -7.742608e-002 -5.090431e-002 -1.454964e-001 -2.276560e-001 -1.556319e-001 -6.809922e-002 -1.346729e-001 -1.489535e-002 -4.730205e-002 -1.294709e-002 -3.506571e-002 -5.986905e-002 -1.088369e-001 -3.473818e-002 -3.520528e-002 -6.727654e-002 -6.331713e-002 -3.888348e-002 -1.339118e-002 5.456909e-002
<VARIANCE> 39
 1.529865e+001 7.669239e+000 9.108428e+000 1.289809e+001 1.569343e+001 1.838277e+001 1.967318e+001 2.286042e+001 2.519681e+001 2.658215e+001 2.323343e+001 1.912030e+001 7.843781e+001 1.835633e-001 2.992403e-001 2.892825e-001 4.417450e-001 5.890658e-001 6.582907e-001 8.845786e-001 8.743917e-001 9.256456e-001 8.916368e-001 8.145553e-001 7.600790e-001 1.467306e-001 3.115295e-002 4.794507e-002 5.092578e-002 8.366638e-002 1.134179e-001 9.674364e-002 1.461088e-001 1.860365e-001 1.680995e-001 1.618275e-001 1.466408e-001 1.093316e-001 1.608447e-002
<GCONST> 6.924366e+001
<STATE> 3
<NUMMIXES> 5
<MIXTURE> 1 2.430144e-001
<MEAN> 39
 -1.613046e+001 -7.276321e+000 -2.071537e+000 -6.937178e+000 -3.051690e+000 -6.072897e+000 8.332920e-001 -2.006836e+000 1.648400e+000 -3.219878e+000 1.855348e+000 -2.802473e+000 5.354745e+001 9.433972e-001 -1.910426e-001 -2.928236e-002 2.128252e-001 6.118207e-002 -1.862317e-001 1.299745e-001 3.991656e-001 5.288150e-001 -1.856742e-002 -2.500812e-001 5.978197e-002 5.327574e-001 8.897480e-001 1.299670e-001 -1.422548e-001 7.203348e-002 5.500247e-002 -4.466445e-002 -2.077747e-001 -8.853277e-002 2.064020e-001 7.885875e-002 -1.539995e-001 -5.815239e-002 2.727303e-001
<VARIANCE> 39
 2.948002e+001 3.220313e+001 3.876646e+001 5.650695e+001 4.529566e+001 5.254638e+001 4.442252e+001 3.615401e+001 4.834041e+001 4.470693e+001 3.530899e+001 3.063805e+001 7.130029e+001 2.696585e+000 1.172488e+000 1.181738e+000 1.445680e+000 1.397838e+000 1.574702e+000 1.522098e+000 1.331897e+000 1.564658e+000 1.221430e+000 1.220529e+000 1.063522e+000 8.840640e-001 2.402629e-001 1.853649e-001 2.496222e-001 2.485587e-001 3.080206e-001 3.604391e-001 3.166307e-001 3.046891e-001 3.697537e-001 3.654966e-001 2.627625e-001 2.364438e-001 1.897810e-001
<GCONST> 1.074110e+002
<MIXTURE> 2 1.968241e-001
<MEAN> 39
 -1.932928e+001 -9.592916e+000 -6.212284e+000 -6.576978e+000 -1.850774e+000 -3.984334e+000 1.755401e+000 -3.255563e+000 2.085349e+000 -2.857045e+000 2.004524e+000 -3.478608e+000 5.716689e+001 1.366336e-001 -3.481534e-002 8.159463e-002 8.472715e-002 7.047738e-002 7.216872e-002 1.373049e-001 1.374250e-001 1.163234e-001 1.283791e-001 1.441157e-001 1.465714e-001 1.774265e-001 6.392651e-001 1.768601e-001 1.121577e-001 6.420045e-002 1.267733e-002 1.191212e-002 1.002505e-002 -2.810665e-003 -1.939820e-002 3.144055e-002 3.155119e-002 2.106421e-002 1.905755e-001
<VARIANCE> 39
 1.109732e+001 7.920689e+000 1.150722e+001 1.304470e+001 1.395611e+001 1.547129e+001 1.688902e+001 2.061181e+001 2.143202e+001 2.216382e+001 1.770849e+001 1.437967e+001 3.061692e+001 6.964006e-001 4.515418e-001 4.938855e-001 5.722899e-001 5.784480e-001 7.313719e-001 7.385781e-001 8.560701e-001 9.217255e-001 9.751570e-001 7.093442e-001 6.987855e-001 6.173680e-001 1.858511e-001 1.101674e-001 1.270196e-001 1.321752e-001 1.305193e-001 1.360548e-001 1.512094e-001 1.711294e-001 1.840572e-001 1.995370e-001 1.545399e-001 1.373415e-001 1.188691e-001
<GCONST> 7.753946e+001
<MIXTURE> 3 8.372322e-002
<MEAN> 39
 -1.487215e+001 -1.319843e+001 -1.106991e+001 -1.695706e+001 -1.102311e+001 -1.240581e+001 -3.605763e+000 -4.522923e+000 4.152036e+000 -3.469990e-001 3.781660e+000 -2.407614e+000 4.591779e+001 2.654997e-003 -3.501966e-002 3.037173e-003 -2.583187e-002 -6.883459e-003 5.096060e-002 2.327840e-003 -9.722430e-002 -3.800191e-002 -3.431804e-002 9.756365e-002 1.022334e-001 -3.413428e-002 2.109504e-002 2.971464e-002 1.341939e-001 7.476853e-002 8.321124e-002 7.108194e-002 4.560330e-002 3.254898e-002 -2.646138e-002 -3.517534e-002 -5.243523e-002 1.181102e-002 2.583845e-002
<VARIANCE> 39
 4.429983e+000 1.001173e+001 1.103933e+001 2.843797e+001 2.025661e+001 1.482994e+001 1.716838e+001 2.486488e+001 1.858080e+001 2.370913e+001 1.769984e+001 1.684518e+001 2.461931e+001 1.252712e-001 3.038346e-001 3.819165e-001 5.635435e-001 4.575516e-001 6.215895e-001 6.699451e-001 9.230405e-001 9.761906e-001 1.019190e+000 6.151795e-001 8.575022e-001 2.134276e-001 3.633563e-002 4.303799e-002 1.022610e-001 1.362119e-001 9.926501e-002 9.866328e-002 1.159080e-001 1.485139e-001 1.588340e-001 1.926323e-001 1.169544e-001 1.604258e-001 5.151663e-002
<GCONST> 6.938658e+001
<MIXTURE> 4 2.799656e-001
<MEAN> 39
 -1.849243e+001 -8.100978e+000 -5.085622e+000 -5.434165e+000 -1.915200e+000 -3.985632e+000 1.655163e+000 -3.518619e+000 1.525257e+000 -3.133574e+000 1.765895e+000 -3.170394e+000 5.435691e+001 -7.149755e-001 -4.355493e-001 -3.102142e-001 -9.822783e-003 -2.075600e-001 -1.278476e-001 1.697840e-002 1.302494e-002 -4.434745e-002 -1.344040e-001 -1.426993e-001 -5.922055e-002 -7.452540e-002 8.820466e-001 5.392422e-003 -1.510875e-001 -2.066671e-001 -3.947558e-002 -1.691930e-001 -9.415744e-002 -7.745491e-002 -8.322909e-003 -2.162562e-002 -9.309509e-002 -1.225353e-001 4.597232e-001
<VARIANCE> 39
 1.222302e+001 1.306143e+001 1.478513e+001 1.653255e+001 1.896648e+001 2.179543e+001 1.682893e+001 2.099864e+001 2.284029e+001 1.939997e+001 1.509383e+001 1.596146e+001 5.489399e+001 5.256414e+000 1.030896e+000 1.265660e+000 8.997977e-001 1.089709e+000 1.135331e+000 1.139472e+000 1.259107e+000 1.063841e+000 1.229921e+000 9.704069e-001 9.183733e-001 2.067003e+000 1.888549e-001 2.413802e-001 2.561189e-001 2.381549e-001 2.697380e-001 2.388835e-001 2.208256e-001 2.957555e-001 2.536825e-001 2.610190e-001 1.842969e-001 1.913764e-001 3.996002e-001
<GCONST> 9.466553e+001
<MIXTURE> 5 1.964720e-001
<MEAN> 39
 -2.029949e+001 -9.962578e+000 -6.611336e+000 -7.381545e+000 -2.452571e+000 -4.894788e+000 1.024367e+000 -4.002281e+000 1.879244e+000 -3.285023e+000 1.665972e+000 -4.399706e+000 5.617052e+001 -1.145862e-001 -2.567394e-001 -2.147290e-001 -1.467384e-001 -1.873785e-001 -2.692147e-001 -1.572282e-001 -1.291299e-001 -4.235815e-002 -1.396001e-001 -1.083501e-001 8.728739e-003 2.951423e-002 5.914853e-001 1.233593e-001 8.277660e-002 4.140102e-002 -1.740099e-002 -4.254035e-002 -5.607025e-002 -8.548089e-002 -1.063420e-001 -5.322391e-002 -3.952792e-002 2.549846e-003 1.391539e-001
<VARIANCE> 39
 9.272275e+000 7.012698e+000 1.016163e+001 1.154956e+001 1.311908e+001 1.593106e+001 1.709855e+001 1.945275e+001 2.197684e+001 2.259072e+001 1.839851e+001 1.572384e+001 3.105889e+001 8.306416e-001 4.641667e-001 5.063126e-001 6.166682e-001 6.500544e-001 6.240352e-001 6.769305e-001 8.085505e-001 9.567116e-001 8.877617e-001 6.929536e-001 6.598537e-001 5.418624e-001 1.841221e-001 9.229450e-002 1.170229e-001 1.270898e-001 1.343002e-001 1.400616e-001 1.586699e-001 1.758122e-001 1.923736e-001 2.004482e-001 1.504129e-001 1.489955e-001 1.058414e-001
<GCONST> 7.676146e+001
<STATE> 4
<NUMMIXES> 5
<MIXTURE> 1 2.981313e-001
<MEAN> 39
 -1.019380e+001 -4.958334e+000 2.594512e-001 -3.158776e+000 -5.814198e-001 -5.454268e+000 6.769646e-001 -3.477259e-001 2.966435e+000 -3.923213e+000 9.513380e-001 -2.494853e+000 5.376741e+001 3.899732e+000 -7.378512e-001 -7.793790e-001 1.368551e-001 -9.893003e-001 -6.977946e-001 -8.068292e-001 -3.638549e-001 1.271852e+000 -1.759051e-001 -7.241355e-001 -3.045833e-001 2.023986e+000 4.203293e-001 -3.080078e-001 -2.898957e-001 -1.376568e-001 -3.827494e-001 6.768598e-002 -7.330103e-002 -1.532220e-001 2.352505e-001 -5.308019e-002 -5.358631e-002 -1.249459e-001 4.489061e-001
<VARIANCE> 39
 5.209099e+001 2.929044e+001 3.054974e+001 3.412654e+001 4.641010e+001 3.385260e+001 3.554230e+001 4.245256e+001 4.242200e+001 4.143940e+001 2.841045e+001 2.471252e+001 6.747002e+001 1.689055e+000 1.646327e+000 2.129877e+000 2.277487e+000 2.793760e+000 3.093304e+000 2.587425e+000 2.576307e+000 2.711206e+000 3.124581e+000 1.906481e+000 1.233051e+000 1.249266e+000 4.693748e-001 1.579723e-001 2.138284e-001 1.860188e-001 2.679419e-001 3.281969e-001 3.264748e-001 3.617874e-001 3.524435e-001 3.203763e-001 2.956638e-001 1.891105e-001 1.295422e-001
<GCONST> 1.112404e+002
<MIXTURE> 2 2.173262e-001
<MEAN> 39
 5.206628e+000 -5.404739e+000 -1.334044e+001 -1.015100e+001 4.615860e+000 -5.124907e+000 -6.486989e+000 -9.231355e-001 5.063632e+000 -2.219162e+000 -4.221403e-001 -8.598756e+000 6.087266e+001 1.509925e+000 -4.909652e-001 -6.725810e-001 -2.858858e-001 -3.232073e-001 2.494372e-002 -4.437252e-001 4.206130e-001 5.603678e-001 -1.813722e-001 -1.891294e-001 -2.807644e-001 1.137442e+000 -5.568650e-001 -1.307558e-001 3.458644e-001 1.986047e-001 -2.882115e-001 -1.756738e-002 3.270622e-001 2.103484e-002 -1.650165e-001 -1.594641e-001 -4.046715e-002 1.677032e-001 -2.161715e-001
<VARIANCE> 39
 2.232430e+001 3.058542e+001 5.771977e+001 5.390213e+001 6.289496e+001 5.505508e+001 5.656171e+001 5.782462e+001 7.281150e+001 4.008954e+001 5.301944e+001 3.133932e+001 5.754887e+001 3.886786e+000 1.117680e+000 3.111279e+000 1.749597e+000 2.638392e+000 2.058687e+000 2.372494e+000 2.953529e+000 3.245173e+000 2.700444e+000 2.693066e+000 1.203928e+000 2.328755e+000 2.886263e-001 1.165061e-001 1.768153e-001 1.391237e-001 2.166276e-001 2.223455e-001 3.888960e-001 3.969151e-001 3.899919e-001 2.885870e-001 3.336401e-001 1.398176e-001 1.000054e-001
<GCONST> 1.133794e+002
<MIXTURE> 3 1.879934e-001
<MEAN> 39
 -1.372208e+001 -7.624514e+000 -5.439304e+000 -5.495910e+000 -1.279935e+000 -4.019320e+000 1.884439e+000 -3.909341e+000 1.557562e+000 -2.484001e+000 1.791884e+000 -3.547333e+000 5.633474e+001 3.208448e+000 2.766444e-001 -8.437873e-001 -7.027724e-001 2.962482e-001 -3.952184e-001 -2.413087e-002 1.287260e-001 1.448330e-001 2.456753e-001 -2.442568e-001 -3.276810e-001 1.855561e+000 3.841732e-001 -5.788010e-002 -3.106480e-001 -2.861173e-001 4.790629e-002 -1.952170e-001 9.300263e-003 1.152121e-001 1.093303e-001 -2.472700e-002 -5.365048e-002 -3.987006e-002 4.499777e-001
<VARIANCE> 39
 3.121538e+001 1.837072e+001 1.765116e+001 1.813431e+001 1.634558e+001 2.174607e+001 1.739016e+001 1.922624e+001 2.156095e+001 2.191836e+001 2.193039e+001 1.679376e+001 4.137960e+001 1.901193e+000 2.026070e+000 3.215306e+000 2.009382e+000 2.707724e+000 1.344969e+000 1.561975e+000 2.134067e+000 1.746874e+000 2.247230e+000 1.670491e+000 1.164915e+000 2.965931e+000 2.772624e-001 2.079949e-001 2.695241e-001 1.996658e-001 2.567487e-001 1.801439e-001 1.803515e-001 2.051606e-001 2.138016e-001 1.892500e-001 2.215169e-001 2.095466e-001 2.406143e-001
<GCONST> 1.002565e+002
<MIXTURE> 4 1.223652e-001
<MEAN> 39
 1.612838e+000 -5.470098e+000 -1.557782e+001 -1.239399e+001 1.174946e+000 -1.171988e+001 -2.657001e+000 -3.115234e+000 2.589721e+000 -6.129366e+000 -5.531441e+000 -7.202226e+000 6.234943e+001 2.382991e+000 -4.931537e-001 -2.149965e+000 -8.255203e-001 6.889260e-001 -9.533612e-001 -2.988105e-002 3.299924e-001 4.251752e-001 -6.541837e-001 -1.016305e+000 -8.919680e-001 2.263716e+000 -8.017881e-001 -2.487260e-001 4.588373e-001 3.499524e-001 -6.002424e-002 3.854190e-001 2.312382e-001 -2.107981e-003 -3.358394e-002 9.883092e-002 3.155181e-001 1.634841e-001 -3.200911e-001
<VARIANCE> 39
 4.194386e+001 3.136983e+001 1.316515e+002 5.930986e+001 8.483819e+001 6.656928e+001 5.199610e+001 5.203243e+001 9.624462e+001 1.139841e+002 7.670950e+001 5.000346e+001 7.487212e+001 3.542590e+000 2.754539e+000 3.576020e+000 2.178682e+000 2.999727e+000 2.789072e+000 3.031628e+000 2.165183e+000 3.755016e+000 3.116433e+000 3.379123e+000 2.021357e+000 2.882290e+000 2.812079e-001 1.820465e-001 3.405559e-001 2.539556e-001 4.002720e-001 3.504169e-001 3.600706e-001 4.257443e-001 4.324114e-001 5.197983e-001 3.364922e-001 3.689108e-001 2.622130e-001
<GCONST> 1.258346e+002
<MIXTURE> 5 1.741846e-001
<MEAN> 39
 -1.468324e+001 -7.870179e+000 -6.340612e+000 -6.232207e+000 -2.179891e+000 -4.462456e+000 3.373302e-001 -5.068563e+000 1.433111e+000 -4.146449e+000 9.461875e-001 -4.018505e+000 5.541265e+001 3.084707e+000 -9.713241e-003 -1.155236e+000 -1.024868e+000 7.132434e-002 -6.274566e-001 -3.765925e-001 -4.323861e-001 -2.412124e-001 -4.666887e-001 -7.196870e-001 -6.276015e-001 1.782501e+000 4.060569e-001 -1.390346e-001 -3.793687e-001 -2.778488e-001 9.144099e-002 -1.689755e-001 9.691216e-003 4.657846e-002 3.113180e-002 -8.540844e-002 -1.487976e-001 -1.803824e-001 4.699584e-001
<VARIANCE> 39
 2.787840e+001 1.924019e+001 1.560455e+001 1.888684e+001 1.465588e+001 2.212316e+001 1.861240e+001 1.782541e+001 2.805108e+001 2.177528e+001 2.006065e+001 1.653759e+001 4.823165e+001 2.739437e+000 2.113632e+000 3.009121e+000 2.183003e+000 2.374892e+000 1.502899e+000 1.266697e+000 2.137350e+000 1.834941e+000 2.206253e+000 1.654871e+000 1.248719e+000 4.014034e+000 2.667269e-001 2.506599e-001 2.415981e-001 2.339262e-001 2.719551e-001 2.049831e-001 1.746609e-001 2.219366e-001 2.685198e-001 1.873501e-001 2.058375e-001 1.953521e-001 2.506326e-001
<GCONST> 1.014474e+002
<TRANSP> 5
 0.000000e+000 1.000000e+000 0.000000e+000 0.000000e+000 0.000000e+000
 0.000000e+000 7.941653e-001 2.058348e-001 0.000000e+000 0.000000e+000
 0.000000e+000 0.000000e+000 7.920946e-001 2.079054e-001 0.000000e+000
 0.000000e+000 0.000000e+000 0.000000e+000 6.773660e-001 3.226340e-001
 0.000000e+000 0.000000e+000 0.000000e+000 0.000000e+000 0.000000e+000
<ENDHMM>
~h "g"
<BEGINHMM>
<NUMSTATES> 5
<STATE> 2
<NUMMIXES> 5
<MIXTURE> 1 2.268614e-001
<MEAN> 39
 -6.430519e+000 1.306574e-001 5.891866e+000 -4.465074e-001 -3.789282e+000 -4.144247e+000 -2.089010e+000 -8.870157e+000 -5.712203e+000 -4.681483e+000 -6.694112e-001 -4.006773e+000 4.569766e+001 -6.435753e-001 -2.462343e+000 -3.163402e+000 1.728391e+000 8.660031e-001 -1.844642e+000 2.052999e+000 1.417530e+000 2.755492e-002 6.772646e-001 2.711965e-001 2.918583e-001 1.129182e+000 2.649283e-001 -2.902646e-001 -6.592799e-001 -1.001864e+000 -1.692465e-001 2.299019e-002 -3.784629e-001 3.943332e-001 8.138295e-001 1.361923e-001 2.622286e-001 7.433139e-002 1.584011e+000
<VARIANCE> 39
 3.033327e+001 4.819865e+001 4.296120e+001 2.716587e+001 2.924803e+001 4.944592e+001 3.224466e+001 4.242479e+001 3.254619e+001 2.755536e+001 3.404535e+001 1.674610e+001 4.097937e+001 1.327517e+000 1.992297e+000 2.278642e+000 4.475418e+000 2.129581e+000 2.390921e+000 1.971295e+000 2.134039e+000 1.533200e+000 3.247446e+000 2.248118e+000 8.858023e-001 2.058069e+000 2.292967e-001 3.643589e-001 3.955176e-001 2.956179e-001 5.791056e-001 4.148767e-001 3.318075e-001 4.413832e-001 1.987714e-001 4.000068e-001 2.923616e-001 1.838315e-001 3.079595e-001
<GCONST> 1.121487e+002
<MIXTURE> 2 2.760605e-001
<MEAN> 39
 -6.284165e+000 -2.643170e+000 -1.110926e+000 -3.551334e+000 -6.651017e-001 -5.308654e+000 -3.707020e+000 -3.817566e+000 -1.417081e+000 -4.813359e+000 3.259079e-001 -2.972641e+000 4.751049e+001 -1.199613e+000 -2.064376e+000 -5.231749e-001 4.887340e-002 -1.522129e+000 7.056770e-001 7.027659e-001 5.839695e-003 6.760548e-001 -2.392906e-001 8.220597e-002 4.646010e-002 2.425126e+000 1.399120e-001 -2.593385e-002 -4.609206e-002 -6.367628e-001 -2.309999e-001 -8.547018e-002 1.328705e-001 2.434793e-002 1.931950e-001 1.606018e-001 4.478572e-002 -1.226505e-001 1.064648e+000
<VARIANCE> 39
 4.644432e+001 4.998697e+001 3.301839e+001 4.283001e+001 3.296436e+001 2.399711e+001 4.383175e+001 2.293215e+001 4.075115e+001 2.594481e+001 2.239700e+001 2.707218e+001 6.317933e+001 1.750222e+000 3.226076e+000 2.845612e+000 2.679733e+000 2.640950e+000 3.105095e+000 1.967978e+000 2.892730e+000 2.068528e+000 2.152187e+000 1.809805e+000 1.201406e+000 2.344848e+000 1.395921e-001 3.592274e-001 2.804856e-001 3.061306e-001 3.658566e-001 2.457114e-001 4.092338e-001 1.103709e-001 3.168518e-001 1.991254e-001 2.681933e-001 2.058521e-001 4.429479e-001
<GCONST> 1.110844e+002
<MIXTURE> 3 1.757082e-001
<MEAN> 39
 -1.124608e+001 8.877686e-001 2.095608e+000 -4.366735e-001 1.212718e+000 -2.145568e+000 -1.196973e-001 -3.154336e+000 1.352142e+000 -3.195757e+000 1.638203e+000 -3.195654e+000 3.628961e+001 -1.907346e+000 -3.326478e+000 -1.172080e+000 8.606923e-002 -3.526283e-001 5.458272e-001 7.728477e-001 1.164178e-001 2.546440e-001 -9.407125e-002 8.404922e-002 5.143942e-002 1.933327e+000 5.471899e-001 -4.477763e-001 -3.039629e-001 -1.051125e+000 -5.171228e-001 -4.185442e-001 7.333931e-002 -4.838010e-002 3.736497e-002 2.109353e-001 -7.871592e-002 -2.503663e-004 2.180830e+000
<VARIANCE> 39
 2.059328e+001 1.646034e+001 1.018024e+001 1.305337e+001 1.763938e+001 2.045091e+001 1.758522e+001 1.665821e+001 1.940672e+001 1.768159e+001 1.208128e+001 2.483815e+001 6.120940e+000 1.751215e+000 1.594907e+000 1.312970e+000 2.983813e+000 2.467778e+000 2.512071e+000 2.337471e+000 2.068485e+000 1.415496e+000 1.648121e+000 1.145130e+000 1.309617e+000 3.958056e+000 2.140845e-001 5.030494e-001 3.849956e-001 3.727174e-001 5.117418e-001 3.229378e-001 3.905816e-001 2.765437e-001 1.839800e-001 2.264375e-001 1.572176e-001 2.175847e-001 2.813517e-001
<GCONST> 9.971839e+001
<MIXTURE> 4 1.505221e-001
<MEAN> 39
 -2.458789e+000 2.222253e+000 5.493133e+000 -7.156371e+000 -3.573737e+000 -3.979449e+000 -1.024254e+001 -6.679667e+000 -5.417455e+000 -6.167915e+000 5.160443e+000 -3.813159e+000 4.739637e+001 -2.128351e+000 -3.104363e+000 -1.262035e+000 1.992888e+000 -1.478988e+000 1.707618e-001 3.214617e+000 -1.186548e+000 1.331435e+000 3.858490e-001 -8.033558e-001 7.470097e-001 1.249968e+000 -2.227338e-001 -3.541025e-001 -3.871671e-001 -7.584228e-002 -1.795657e-001 -3.459787e-001 4.885637e-001 4.661218e-001 2.237723e-001 3.325900e-001 -1.450164e-001 -5.702705e-002 1.114927e+000
<VARIANCE> 39
 8.233120e+000 2.289427e+001 2.024251e+001 5.201715e+001 2.750484e+001 4.118567e+001 3.660888e+001 3.428105e+001 2.828043e+001 4.820936e+001 6.564343e+001 4.210860e+001 2.965698e+001 4.642741e-001 1.558504e+000 1.548652e+000 3.098249e+000 2.416942e+000 4.975393e+000 2.384129e+000 2.100745e+000 2.307219e+000 2.480246e+000 2.548904e+000 2.233960e+000 8.713974e-001 2.151590e-001 2.456478e-001 5.013291e-001 4.333656e-001 2.593438e-001 2.774200e-001 3.130959e-001 1.838639e-001 1.932177e-001 2.750447e-001 4.264831e-001 3.269935e-001 4.059941e-001
<GCONST> 1.095041e+002
<MIXTURE> 5 1.708478e-001
<MEAN> 39
 -1.238568e+001 -5.778098e-001 1.142440e+000 -7.154973e-001 -6.024573e-002 -3.051986e+000 -1.161872e+000 -3.478290e+000 1.183946e+000 -3.577777e+000 9.156418e-001 -3.578864e+000 3.541301e+001 -1.508368e+000 -3.760065e+000 -1.346437e+000 3.486631e-001 -5.981150e-001 4.201832e-001 6.000607e-001 3.209629e-001 -4.670132e-002 -4.061839e-001 1.788787e-001 -4.072336e-001 1.972610e+000 6.026690e-001 -4.095021e-001 -2.949256e-001 -9.154231e-001 -4.736515e-001 -4.634919e-001 1.660066e-001 -1.262878e-001 -4.636123e-002 1.570560e-001 -1.493262e-001 -8.728979e-002 2.124049e+000
<VARIANCE> 39
 1.780763e+001 1.529394e+001 1.063399e+001 1.264251e+001 1.975535e+001 1.869392e+001 1.943480e+001 1.660175e+001 1.472845e+001 1.539132e+001 1.342432e+001 2.660566e+001 4.328971e+000 2.386003e+000 1.741308e+000 1.339425e+000 3.226208e+000 2.666657e+000 2.499560e+000 2.293875e+000 2.487769e+000 1.189261e+000 1.245883e+000 1.135579e+000 1.102479e+000 3.299000e+000 2.447565e-001 5.280797e-001 3.408080e-001 3.906731e-001 5.162604e-001 2.951412e-001 2.520198e-001 3.009089e-001 1.867691e-001 3.001612e-001 1.748285e-001 2.717013e-001 2.846265e-001
<GCONST> 9.927073e+001
<STATE> 3
<NUMMIXES> 5
<MIXTURE> 1 1.922492e-001
<MEAN> 39
 -1.178564e+001 -1.318765e+001 -2.242644e+000 -2.638880e+000 -2.317421e+000 -6.216926e+000 3.893389e+000 -2.503552e+000 -3.296184e+000 -1.230768e+000 1.061875e+000 -5.131521e+000 5.517342e+001 -3.900337e-001 -1.877453e+000 -2.337510e+000 2.071701e-003 -1.826116e-001 -1.385020e+000 1.679935e+000 1.320992e+000 1.156557e+000 1.191248e+000 5.802031e-001 6.368001e-001 3.109044e+000 6.850230e-001 8.776495e-001 2.315987e-001 -7.324964e-001 -2.998138e-001 1.509488e-001 -8.409226e-001 -6.756965e-002 4.847765e-001 -1.952749e-001 3.305739e-002 9.301446e-002 5.937299e-001
<VARIANCE> 39
 2.749509e+001 3.204064e+001 5.678885e+001 4.156114e+001 5.103182e+001 4.596772e+001 2.513756e+001 5.598996e+001 2.958041e+001 1.872623e+001 1.533290e+001 1.834698e+001 5.474303e+001 2.350894e+000 1.690074e+000 3.277301e+000 4.530726e+000 2.773065e+000 3.078919e+000 2.216402e+000 3.123066e+000 1.401999e+000 1.781879e+000 1.567016e+000 1.657308e+000 3.484045e+000 2.566591e-001 2.132828e-001 4.189627e-001 2.707443e-001 6.024981e-001 6.044936e-001 2.616056e-001 4.866875e-001 2.440955e-001 2.307945e-001 2.408473e-001 2.318483e-001 3.493122e-001
<GCONST> 1.135024e+002
<MIXTURE> 2 1.439989e-001
<MEAN> 39
 -1.384733e+001 -7.735537e+000 -2.321241e+000 -5.432431e+000 -2.680078e+000 -2.248082e+000 1.869951e+000 -2.637102e+000 1.474161e+000 -2.657249e+000 1.843064e+000 -2.330250e+000 4.643983e+001 2.633247e-001 -1.971021e+000 -8.050119e-001 -1.369472e+000 -1.068018e+000 -4.014488e-001 6.039735e-001 -8.912010e-002 5.988955e-001 8.804151e-001 2.331877e-001 1.723541e-002 4.679431e+000 7.958285e-001 6.351571e-001 5.359291e-002 -4.465502e-001 -8.510330e-003 -3.837415e-001 -1.851429e-001 -3.732625e-002 -2.364380e-002 1.587508e-001 3.056469e-002 -4.706098e-002 7.364096e-001
<VARIANCE> 39
 2.520080e+001 3.330214e+001 1.606878e+001 4.785166e+001 2.452865e+001 4.004366e+001 1.920331e+001 1.502329e+001 1.553155e+001 1.633178e+001 1.847499e+001 1.778934e+001 1.228487e+002 1.560785e+000 3.067823e+000 1.859785e+000 1.701753e+000 1.712703e+000 2.069712e+000 1.700387e+000 1.656870e+000 1.342208e+000 1.012290e+000 8.794908e-001 1.478326e+000 2.163497e+000 2.058833e-001 2.817517e-001 3.240903e-001 5.001529e-001 2.582700e-001 5.211823e-001 2.824869e-001 3.771116e-001 1.284661e-001 2.899022e-001 1.481255e-001 2.847113e-001 3.960793e-001
<GCONST> 1.038175e+002
<MIXTURE> 3 2.457163e-001
<MEAN> 39
 -1.184442e+001 -1.408088e+001 -1.421752e+000 -6.302257e+000 -2.491398e+000 -2.413304e+000 -4.585210e+000 -4.782741e+000 2.881575e+000 -6.172688e+000 1.410589e+000 -1.565836e+000 5.811980e+001 -1.142672e+000 -2.621576e+000 -9.376352e-001 -5.758342e-001 -1.456977e+000 7.663246e-001 1.173050e+000 -8.494367e-002 1.082512e+000 -4.889910e-001 -3.298994e-001 -1.761114e-001 3.149797e+000 7.953579e-001 7.234635e-001 -6.405408e-002 -4.721704e-001 -9.758359e-002 -4.811244e-001 3.194652e-001 -8.396198e-002 -2.049125e-001 3.745532e-001 -2.433116e-001 -2.259232e-001 2.372537e-001
<VARIANCE> 39
 5.325774e+001 2.349031e+001 7.381380e+001 4.349955e+001 3.994576e+001 4.090287e+001 3.313589e+001 3.700492e+001 1.604245e+001 2.596561e+001 2.622704e+001 1.422909e+001 4.259264e+001 2.172874e+000 1.476624e+000 2.336219e+000 4.027208e+000 2.467384e+000 2.385346e+000 2.984227e+000 1.551149e+000 2.093771e+000 1.730268e+000 2.390287e+000 1.627963e+000 2.856802e+000 4.690673e-001 4.476485e-001 8.026650e-001 4.209414e-001 3.698025e-001 2.850621e-001 3.654559e-001 5.153493e-001 2.272696e-001 2.996730e-001 3.709998e-001 1.281432e-001 2.831446e-001
<GCONST> 1.139475e+002
<MIXTURE> 4 2.777768e-001
<MEAN> 39
 -8.425471e+000 -1.535101e+001 -5.024764e+000 -1.574529e+000 -4.607892e+000 -7.759353e+000 2.421853e+000 -5.450968e+000 -1.587925e+000 -3.089765e+000 4.181046e-001 -3.764087e+000 5.703488e+001 6.730699e-002 -1.821785e+000 -2.173148e+000 1.020754e+000 -4.784310e-001 -1.503184e+000 1.364701e+000 6.375989e-001 4.625800e-001 -1.328099e-001 -7.678461e-002 1.187799e-001 2.389776e+000 6.031914e-001 9.528384e-001 2.391416e-001 -8.222581e-001 8.893894e-002 4.326334e-002 -6.546406e-001 2.331599e-001 2.906395e-001 -1.933914e-001 1.870565e-001 -1.309997e-001 3.478888e-001
<VARIANCE> 39
 2.097849e+001 5.633872e+001 2.959733e+001 3.104799e+001 3.390944e+001 2.506990e+001 2.429284e+001 1.743373e+001 2.540162e+001 2.441463e+001 1.667127e+001 1.795034e+001 2.727121e+001 3.757629e+000 2.327635e+000 2.790294e+000 2.207207e+000 2.847575e+000 3.168067e+000 2.568316e+000 1.859447e+000 2.081812e+000 2.579084e+000 1.659532e+000 9.096057e-001 2.455237e+000 1.927656e-001 5.086658e-001 3.021809e-001 3.982904e-001 5.032291e-001 3.472939e-001 4.008195e-001 2.292893e-001 3.246666e-001 5.044730e-001 3.709383e-001 1.752854e-001 3.775611e-001
<GCONST> 1.104596e+002
<MIXTURE> 5 1.402588e-001
<MEAN> 39
 -1.453460e+001 -8.549972e+000 -4.049693e+000 -3.785564e+000 -2.459730e+000 -4.197729e+000 1.810535e+000 -3.417569e+000 2.123318e-001 -3.869010e+000 1.271951e+000 -3.833002e+000 4.811361e+001 -9.648976e-002 -1.886843e+000 -1.176149e+000 -1.480726e+000 -1.396374e+000 -3.206581e-001 3.444913e-001 -4.176750e-001 3.311571e-001 5.894994e-001 1.512765e-001 -2.986007e-001 4.647560e+000 7.466449e-001 6.114872e-001 1.195810e-001 -7.548835e-001 -1.724625e-001 -4.094477e-001 -1.803006e-001 -6.232136e-002 -5.438677e-002 7.832714e-002 -1.636908e-002 -9.049483e-002 7.868183e-001
<VARIANCE> 39
 2.463336e+001 4.259368e+001 2.473973e+001 5.054210e+001 2.129177e+001 2.474297e+001 2.220010e+001 1.527472e+001 2.353085e+001 1.249908e+001 1.309131e+001 1.391696e+001 1.195364e+002 1.667693e+000 3.267928e+000 1.806204e+000 1.898767e+000 2.034965e+000 1.691053e+000 1.715719e+000 1.498821e+000 1.496206e+000 9.723352e-001 1.079265e+000 2.126997e+000 2.058429e+000 1.811676e-001 3.347634e-001 3.324588e-001 4.096942e-001 2.832464e-001 3.804274e-001 2.458065e-001 3.794605e-001 1.343975e-001 2.700877e-001 1.488326e-001 1.988677e-001 3.975654e-001
<GCONST> 1.034115e+002
<STATE> 4
<NUMMIXES> 5
<MIXTURE> 1 2.341627e-001
<MEAN> 39
 -9.635247e+000 -1.446426e+001 -5.157048e+000 -1.384922e+000 -6.412734e+000 -1.049249e+001 3.650506e+000 7.125423e-001 -5.886034e-001 -1.775697e+000 5.149169e+000 -1.947011e+000 5.891970e+001 1.343031e+000 5.400389e-002 -3.091064e-001 -2.198692e-001 -1.112364e+000 -9.590641e-001 -1.567115e-001 2.373879e-001 1.410771e+000 -3.056136e-001 4.517297e-001 5.307109e-001 2.768090e+000 5.873375e-001 1.027863e+000 5.727207e-001 -3.482338e-001 -1.195720e-001 4.416955e-001 -7.813190e-001 -7.900680e-001 1.805664e-001 -3.752581e-001 -1.066910e-001 -1.979388e-001 -2.675235e-001
<VARIANCE> 39
 2.468159e+001 3.649143e+001 5.474108e+001 3.223661e+001 3.278811e+001 2.211124e+001 2.111628e+001 1.948376e+001 2.668161e+001 2.849013e+001 2.011264e+001 1.561215e+001 2.258139e+001 1.507332e+000 3.411562e+000 3.904267e+000 1.418113e+000 2.731800e+000 1.758882e+000 2.210679e+000 2.514140e+000 1.741714e+000 1.080188e+000 9.696375e-001 8.179960e-001 2.688289e+000 2.386311e-001 3.765081e-001 3.911935e-001 4.736665e-001 4.444070e-001 3.384519e-001 3.001345e-001 2.669864e-001 2.915752e-001 3.676460e-001 3.690051e-001 2.349728e-001 3.014416e-001
<GCONST> 1.076934e+002
<MIXTURE> 2 2.596894e-001
<MEAN> 39
 -8.455232e+000 -3.082228e+000 -1.358568e+000 -1.424047e+001 -5.048313e+000 -6.124023e+000 8.487569e-002 -6.451272e+000 2.804048e+000 -2.745342e+000 1.047420e+000 -3.641728e+000 6.534933e+001 1.454860e+000 8.126263e-002 -4.476994e-001 -2.043600e+000 -1.215620e+000 -4.400390e-002 3.808145e-001 1.350721e-001 4.666665e-001 4.062956e-001 4.890126e-002 -2.136988e-001 3.049269e+000 1.735272e-001 -3.864381e-002 -3.556253e-002 3.973617e-001 2.236533e-001 2.561396e-001 -1.774250e-002 3.045591e-001 -2.187993e-001 -7.614647e-002 -1.429324e-001 -3.353621e-002 -8.024864e-001
<VARIANCE> 39
 2.806919e+001 5.103139e+001 3.247439e+001 5.928777e+001 4.611361e+001 5.610057e+001 4.142511e+001 4.758246e+001 2.077191e+001 2.691649e+001 2.145830e+001 2.019969e+001 2.409022e+001 1.786024e+000 2.560902e+000 1.620066e+000 2.642379e+000 2.364620e+000 3.545059e+000 2.419372e+000 2.497532e+000 1.656812e+000 1.551064e+000 2.548127e+000 1.367576e+000 3.740077e+000 3.039510e-001 4.058417e-001 3.485405e-001 4.011629e-001 3.821684e-001 5.719358e-001 4.153131e-001 4.481396e-001 2.378929e-001 3.202955e-001 2.644435e-001 2.127839e-001 2.160983e-001
<GCONST> 1.136964e+002
<MIXTURE> 3 1.392348e-001
<MEAN> 39
 -6.425714e+000 -8.169277e+000 -6.629374e+000 -1.972897e+000 -8.105903e-001 -1.068790e+001 -2.693567e-001 -1.451830e-001 4.267252e+000 -2.666713e+000 2.248408e+000 -3.281649e+000 5.601384e+001 2.057084e+000 1.567101e+000 -9.924825e-001 -7.954102e-001 1.594004e-001 -6.761757e-001 -8.725262e-001 6.243077e-002 9.501191e-001 8.136521e-002 -1.117180e-001 -2.195867e-001 1.763672e+000 2.479428e-001 2.174086e-001 2.916118e-001 -2.744183e-001 -3.018522e-001 3.529183e-001 -7.915723e-002 -2.520435e-001 -1.630641e-001 -5.218646e-002 -3.363543e-002 6.350274e-003 -7.898846e-002
<VARIANCE> 39
 3.396719e+001 6.474807e+001 3.631091e+001 4.080150e+001 3.055291e+001 2.940439e+001 4.665239e+001 3.047422e+001 2.204301e+001 1.932414e+001 1.931791e+001 1.812674e+001 3.903681e+001 1.641110e+000 1.672066e+000 3.527406e+000 1.991228e+000 2.538255e+000 2.072545e+000 2.088989e+000 2.200018e+000 1.424991e+000 1.898921e+000 1.118402e+000 9.399958e-001 2.556036e+000 3.193793e-001 7.345101e-001 3.210636e-001 3.912419e-001 4.006600e-001 2.986045e-001 4.207817e-001 3.277762e-001 1.864453e-001 2.057797e-001 1.920120e-001 2.038551e-001 4.218143e-001
<GCONST> 1.094464e+002
<MIXTURE> 4 2.293063e-001
<MEAN> 39
 -1.205928e+001 -1.377949e+001 -1.306519e+000 -8.556558e+000 -8.068544e+000 -7.921982e-001 1.644839e+000 -6.461398e+000 3.374576e+000 -3.083521e+000 -4.059248e-001 -3.771965e+000 6.239301e+001 3.995827e-001 -5.412487e-001 -1.976042e-001 -9.533876e-001 -1.352798e+000 -9.485146e-002 9.041680e-001 -6.315620e-001 -4.574402e-002 1.659208e-002 -5.239757e-001 -8.362820e-001 2.834036e+000 7.185454e-001 1.024276e+000 1.509600e-001 -1.619001e-004 3.028830e-001 -5.412017e-001 -2.995889e-001 9.707943e-002 -2.705312e-001 1.914179e-002 8.664648e-002 -1.120591e-001 -6.652308e-001
<VARIANCE> 39
 2.387736e+001 3.826369e+001 1.908029e+001 4.536515e+001 3.563269e+001 2.045849e+001 2.520767e+001 3.008210e+001 2.110671e+001 3.891487e+001 2.515536e+001 2.842376e+001 2.266916e+001 3.371904e+000 2.106968e+000 2.248245e+000 2.066591e+000 1.995957e+000 1.858433e+000 2.103422e+000 1.962594e+000 1.612802e+000 2.095055e+000 2.185595e+000 1.186284e+000 3.240250e+000 3.192667e-001 4.233499e-001 2.595422e-001 4.689085e-001 2.817904e-001 2.815336e-001 4.439359e-001 3.883592e-001 2.810147e-001 4.020498e-001 3.410465e-001 2.793658e-001 2.150089e-001
<GCONST> 1.099884e+002
<MIXTURE> 5 1.376065e-001
<MEAN> 39
 -7.573190e+000 -8.635075e+000 -8.988661e+000 -3.050788e+000 -1.648090e+000 -1.056451e+001 -1.743518e+000 -2.392236e+000 4.504556e+000 -3.147745e+000 1.549576e+000 -4.153254e+000 5.689219e+001 1.692569e+000 1.314126e+000 -9.341067e-001 -8.601258e-001 -1.255991e-001 -8.614917e-001 -1.012071e+000 -4.462394e-001 5.300434e-001 -1.403811e-002 -2.752101e-001 -6.575399e-001 2.013725e+000 2.362853e-001 2.400017e-001 3.715951e-001 -3.465575e-001 -2.503666e-001 2.610406e-001 -1.374434e-001 -1.149860e-001 -3.308572e-001 -9.870755e-002 -1.053892e-001 -8.198060e-002 -1.980524e-001
<VARIANCE> 39
 3.855338e+001 8.012138e+001 4.189816e+001 3.070468e+001 2.852771e+001 3.087170e+001 4.486945e+001 2.727734e+001 1.918915e+001 2.425860e+001 2.186734e+001 1.997873e+001 3.079902e+001 2.117195e+000 1.727007e+000 3.388984e+000 2.109504e+000 2.401265e+000 2.480631e+000 2.048270e+000 2.304918e+000 1.228694e+000 1.189027e+000 1.446238e+000 1.066780e+000 2.769668e+000 3.521609e-001 7.394260e-001 3.293685e-001 2.876516e-001 3.001901e-001 3.226101e-001 4.155165e-001 3.790027e-001 1.916682e-001 1.839185e-001 2.333266e-001 2.469652e-001 4.324529e-001
<GCONST> 1.099221e+002
<TRANSP> 5
 0.000000e+000 1.000000e+000 0.000000e+000 0.000000e+000 0.000000e+000
 0.000000e+000 2.571249e-001 7.428751e-001 0.000000e+000 0.000000e+000
 0.000000e+000 0.000000e+000 3.075482e-001 6.924518e-001 0.000000e+000
 0.000000e+000 0.000000e+000 0.000000e+000 5.925798e-001 4.074202e-001
 0.000000e+000 0.000000e+000 0.000000e+000 0.000000e+000 0.000000e+000
<ENDHMM>
~h "k"
<BEGINHMM>
<NUMSTATES> 5
<STATE> 2
<NUMMIXES> 5
<MIXTURE> 1 2.298264e-001
<MEAN> 39
 -5.121494e+000 -1.713564e+000 1.974030e+000 -3.978321e+000 -1.550429e+000 -5.501130e+000 -1.277834e+000 -2.848548e+000 -1.055491e+000 -2.292283e+000 7.233410e-001 -2.769931e+000 4.912362e+001 -1.275310e+000 -1.416034e+000 -9.221745e-001 3.068013e-001 -3.164966e-001 -2.915376e-001 1.101614e+000 4.414938e-001 2.761058e-001 5.091819e-001 4.436569e-001 4.354261e-001 5.927756e-001 -1.798319e-001 -3.418386e-002 -3.618353e-001 -3.810314e-001 -6.532888e-002 2.541233e-003 1.048186e-001 1.345320e-001 1.715531e-001 5.775963e-006 -1.028472e-001 -1.303996e-001 8.535926e-001
<VARIANCE> 39
 4.831605e+001 6.978082e+001 4.344376e+001 6.016880e+001 6.871996e+001 7.517870e+001 6.600864e+001 6.867742e+001 5.388657e+001 4.238888e+001 3.389737e+001 4.103065e+001 8.531668e+001 2.288958e+000 3.719068e+000 2.936879e+000 3.593813e+000 3.814167e+000 3.209754e+000 3.139936e+000 3.177471e+000 3.130301e+000 2.112946e+000 2.073469e+000 2.188519e+000 7.298886e+000 2.612814e-001 3.151088e-001 2.443349e-001 3.637084e-001 4.077272e-001 4.477045e-001 3.830498e-001 3.560738e-001 3.716637e-001 3.403731e-001 2.417506e-001 3.280798e-001 3.566958e-001
<GCONST> 1.245053e+002
<MIXTURE> 2 2.646994e-001
<MEAN> 39
 -1.443235e+001 -3.342110e+000 -1.367962e+000 -1.463720e+000 5.997515e-001 -2.306957e+000 1.384028e+000 -2.340364e+000 8.955883e-001 -2.556930e+000 1.207560e+000 -2.604505e+000 3.450883e+001 -1.099576e+000 -1.688912e+000 -1.513943e+000 -4.650001e-002 3.541453e-001 -4.366032e-001 8.064594e-001 5.006694e-001 4.690421e-001 4.351969e-001 2.030615e-001 4.161600e-001 1.855332e+000 4.585701e-001 -1.582549e-001 -2.071909e-001 -9.472834e-001 -4.582966e-001 -1.945494e-001 -2.682829e-001 -1.661369e-001 6.501239e-002 -3.395063e-002 -1.002908e-002 -1.801243e-001 2.461836e+000
<VARIANCE> 39
