~o
<STREAMINFO> 1 39
<VECSIZE> 39<NULLD><MFCC_D_A_0><DIAGC>
~h "zh"
<BEGINHMM>
<NUMSTATES> 5
<STATE> 2
<MEAN> 39
 -1.199406e+001 4.001900e+000 -7.374971e+000 -1.265524e+001 -1.945745e+000 -8.510688e+000 -4.769786e-001 -7.105055e+000 2.009846e+000 -5.054060e+000 -2.623255e+000 -7.403130e+000 6.409786e+001 -4.566308e-001 4.603728e-001 -2.168078e-001 1.147407e-001 4.721742e-002 -1.050585e-001 1.726418e-001 -1.379262e-001 1.555954e-001 1.938638e-001 -1.287566e-003 2.170626e-001 -3.917958e-002 7.118114e-003 -1.544839e-001 -5.643830e-002 1.162453e-001 4.753131e-002 2.374831e-002 1.753338e-003 4.226305e-002 -5.070491e-002 6.297990e-003 5.838671e-002 4.311862e-002 -7.340363e-002
<VARIANCE> 39
 6.058036e+001 4.295763e+001 5.799538e+001 7.201037e+001 3.826738e+001 3.097785e+001 3.119693e+001 4.176739e+001 2.831538e+001 6.216802e+001 4.556173e+001 7.447183e+001 4.753084e+001 4.027101e+000 2.773792e+000 2.762034e+000 4.737457e+000 1.999855e+000 1.525497e+000 1.817216e+000 1.869959e+000 1.398106e+000 1.429526e+000 1.097209e+000 1.903571e+000 2.503200e+000 4.318274e-001 3.179817e-001 3.684835e-001 5.754805e-001 3.055520e-001 2.825303e-001 2.851754e-001 3.450837e-001 2.210204e-001 2.256098e-001 1.864628e-001 2.754487e-001 2.730258e-001
<GCONST> 1.156927e+002
<STATE> 3
<MEAN> 39
 -1.311796e+001 4.871598e+000 -8.993669e+000 -9.472944e+000 -3.601722e+000 -6.811220e+000 4.849907e-001 -7.696403e+000 2.024746e+000 -3.151315e+000 -2.926457e+000 -3.912320e+000 6.293183e+001 -4.709360e-001 -1.591391e-001 -5.406382e-001 5.230848e-001 3.005470e-001 1.249506e-001 1.680520e-001 -1.742570e-001 3.011914e-002 -1.089294e-001 6.173288e-002 1.561204e-002 -3.142011e-001 1.123234e-001 -1.869633e-001 2.096929e-002 -5.571103e-002 2.765208e-002 7.447260e-003 -3.835447e-002 4.953505e-002 -2.920666e-002 -6.077631e-002 5.216852e-003 -9.784678e-002 2.107415e-002
<VARIANCE> 39
 6.394894e+001 5.242084e+001 5.712016e+001 6.085041e+001 3.420970e+001 4.276302e+001 2.966848e+001 5.989531e+001 1.948750e+001 7.556839e+001 4.442676e+001 9.038365e+001 3.813966e+001 4.045386e+000 2.550219e+000 2.474236e+000 4.458454e+000 1.838509e+000 1.763023e+000 1.795217e+000 2.172758e+000 1.080481e+000 1.279187e+000 1.034611e+000 1.804348e+000 2.074292e+000 4.382125e-001 2.432753e-001 3.447980e-001 5.709330e-001 2.731451e-001 2.896407e-001 2.713894e-001 4.055792e-001 2.186075e-001 2.279976e-001 1.675728e-001 2.921582e-001 2.219673e-001
<GCONST> 1.147738e+002
<STATE> 4
<MEAN> 39
 -1.665020e+001 2.590328e+000 -1.018981e+001 -7.972536e+000 -2.143159e+000 -4.602813e+000 5.415877e-001 -7.766061e+000 1.902835e+000 -2.560842e+000 -2.818258e+000 -2.183680e+000 6.175267e+001 2.661991e-001 -5.318518e-001 2.120591e-001 5.168233e-002 3.021759e-001 -7.138664e-002 -2.775856e-001 2.354462e-002 -7.798287e-002 -2.003358e-001 -4.708797e-003 -3.530362e-001 -2.878340e-001 2.312416e-001 -8.863270e-002 2.289331e-001 -3.164446e-002 -3.383772e-002 -1.346321e-002 -5.682785e-002 1.642519e-001 -4.082479e-002 -1.906495e-002 2.372089e-002 2.464793e-003 3.149280e-002
<VARIANCE> 39
 7.805650e+001 4.888479e+001 3.137709e+001 4.412028e+001 2.617389e+001 4.194194e+001 4.021431e+001 4.803864e+001 1.547269e+001 4.340145e+001 4.793114e+001 6.696194e+001 3.165232e+001 3.401135e+000 1.198673e+000 2.389879e+000 2.323658e+000 1.744596e+000 1.345679e+000 2.163340e+000 2.403292e+000 9.837255e-001 1.078846e+000 1.169939e+000 1.490135e+000 1.537288e+000 3.891940e-001 1.733236e-001 1.850745e-001 3.607557e-001 2.479483e-001 2.186154e-001 3.455612e-001 4.021683e-001 1.763709e-001 2.155027e-001 1.991939e-001 2.516378e-001 1.950072e-001
<GCONST> 1.082404e+002
<TRANSP> 5
 0.000000e+000 1.000000e+000 0.000000e+000 0.000000e+000 0.000000e+000
 0.000000e+000 8.725536e-001 1.274464e-001 0.000000e+000 0.000000e+000
 0.000000e+000 0.000000e+000 7.791088e-001 2.208912e-001 0.000000e+000
 0.000000e+000 0.000000e+000 0.000000e+000 8.094057e-001 1.905943e-001
 0.000000e+000 0.000000e+000 0.000000e+000 0.000000e+000 0.000000e+000
<ENDHMM>
~h "b"
<BEGINHMM>
<NUMSTATES> 5
<STATE> 2
<MEAN> 39
 -3.595292e+000 -9.483439e-001 -8.852134e-001 -2.185666e+000 4.652973e-001 -6.042328e+000 -1.796303e+000 -3.788410e+000 -1.158034e-001 -4.605803e+000 1.356827e+000 -4.108904e+000 4.704077e+001 -1.563264e-001 4.494016e-001 2.927107e-001 4.407508e-001 4.117634e-001 2.460023e-001 -5.755532e-002 3.551632e-002 6.978673e-002 -1.081124e-001 -5.287980e-002 3.499655e-002 -1.126880e+000 -1.428228e-001 -2.955731e-001 -3.871456e-001 -3.985412e-001 -2.032136e-001 -4.388740e-002 1.510463e-001 4.345640e-004 8.970452e-002 7.819751e-002 -3.376144e-002 -1.119976e-003 9.541121e-001
<VARIANCE> 39
 4.969373e+001 4.023677e+001 4.244065e+001 4.407521e+001 4.204959e+001 3.219086e+001 3.817693e+001 4.214577e+001 3.490577e+001 3.529650e+001 2.864903e+001 2.521234e+001 1.194549e+002 2.280964e+000 3.792545e+000 3.860235e+000 4.569265e+000 2.739837e+000 2.056122e+000 2.596057e+000 2.354274e+000 1.957897e+000 2.004711e+000 1.429407e+000 1.261905e+000 1.435974e+001 3.417469e-001 5.199164e-001 4.839988e-001 5.793172e-001 4.631515e-001 3.472516e-001 4.167505e-001 3.926687e-001 3.679320e-001 3.348910e-001 2.651850e-001 2.433438e-001 1.366853e+000
<GCONST> 1.219172e+002
<STATE> 3
<MEAN> 39
 -4.779800e+000 -1.539627e+000 -2.302552e+000 -2.970061e+000 5.151752e-001 -5.560945e+000 -1.046612e+000 -3.685027e+000 6.016320e-001 -4.223929e+000 1.033233e+000 -4.053929e+000 4.948777e+001 -1.321042e-001 -6.834014e-001 -1.085689e+000 -9.697402e-001 -3.871278e-001 -1.324043e-001 3.201330e-001 5.140000e-002 2.902535e-001 1.397425e-001 -4.615058e-002 -6.534677e-002 2.360493e+000 1.125997e-001 -2.565689e-001 -3.363878e-001 -3.278930e-001 -1.899695e-001 -1.470127e-001 4.366816e-002 -3.411963e-003 3.244193e-002 4.196375e-002 -8.620979e-004 -4.224931e-002 7.901399e-001
<VARIANCE> 39
 4.758654e+001 3.994663e+001 5.722173e+001 4.769919e+001 3.991595e+001 3.178565e+001 3.442027e+001 3.817403e+001 3.192232e+001 3.225911e+001 2.629812e+001 2.465212e+001 1.385815e+002 2.884354e+000 3.666272e+000 4.661332e+000 3.994773e+000 2.890843e+000 2.225880e+000 2.483972e+000 2.484253e+000 2.008530e+000 1.686969e+000 1.512125e+000 1.435087e+000 1.352129e+001 4.225952e-001 5.254245e-001 5.921315e-001 6.057723e-001 4.910243e-001 3.469872e-001 3.752549e-001 3.798462e-001 3.417141e-001 3.082516e-001 2.591234e-001 2.416329e-001 1.674311e+000
<GCONST> 1.226183e+002
<STATE> 4
<MEAN> 39
 -4.369655e+000 -4.785514e+000 -6.812916e+000 -7.164652e+000 -1.269650e+000 -6.875604e+000 2.424698e-002 -3.602410e+000 1.548047e+000 -3.688194e+000 1.131590e+000 -4.549950e+000 5.976078e+001 3.378893e-001 -9.715903e-001 -1.479343e+000 -1.360658e+000 -6.154265e-001 -4.588318e-001 2.320641e-001 -4.279261e-002 2.741644e-001 1.494485e-001 -4.320507e-002 -1.623128e-001 3.368384e+000 9.743255e-002 8.841255e-002 1.081182e-001 1.318126e-001 4.665889e-002 3.868061e-002 -7.219484e-002 -3.892005e-002 -5.993833e-002 -1.614914e-002 -2.683406e-002 1.481927e-002 -3.056875e-001
<VARIANCE> 39
 4.574872e+001 4.975814e+001 9.080489e+001 5.769830e+001 5.020451e+001 3.656556e+001 4.314957e+001 4.552104e+001 3.458818e+001 3.168757e+001 2.950866e+001 3.213102e+001 1.421174e+002 2.881182e+000 3.539810e+000 3.994342e+000 3.502464e+000 3.259511e+000 2.459150e+000 2.545145e+000 2.539667e+000 2.388860e+000 1.817148e+000 1.655541e+000 1.650641e+000 7.463864e+000 4.107194e-001 3.832895e-001 5.721804e-001 5.430413e-001 4.789199e-001 3.503772e-001 3.190466e-001 3.795167e-001 3.217428e-001 2.731037e-001 2.679197e-001 2.537601e-001 1.573301e+000
<GCONST> 1.236907e+002
<TRANSP> 5
 0.000000e+000 1.000000e+000 0.000000e+000 0.000000e+000 0.000000e+000
 0.000000e+000 6.998190e-001 3.001811e-001 0.000000e+000 0.000000e+000
 0.000000e+000 0.000000e+000 6.420859e-001 3.579140e-001 0.000000e+000
 0.000000e+000 0.000000e+000 0.000000e+000 5.732351e-001 4.267649e-001
 0.000000e+000 0.000000e+000 0.000000e+000 0.000000e+000 0.000000e+000
<ENDHMM>
~h "d"
<BEGINHMM>
<NUMSTATES> 5
<STATE> 2
<MEAN> 39
 -7.748964e+000 6.982129e-001 3.172710e-001 -6.295778e+000 -1.826195e+000 -4.547907e+000 -3.193764e-001 -5.700818e+000 -4.544842e-001 -3.551057e+000 -1.307765e+000 -3.763414e+000 4.878924e+001 -4.920267e-001 -7.499633e-002 -3.922902e-001 5.182051e-001 5.397306e-002 1.619398e-001 1.607040e-001 2.040391e-001 9.117583e-002 3.370986e-002 -4.797888e-002 9.039571e-002 8.885337e-003 -1.348727e-002 -3.149939e-001 -3.136471e-001 -4.107610e-001 -1.775491e-001 -3.499534e-002 5.659061e-002 1.195715e-002 1.554013e-001 9.726651e-003 7.816014e-002 -4.051239e-002 9.310805e-001
<VARIANCE> 39
 3.551492e+001 4.228440e+001 4.692377e+001 7.104047e+001 3.332168e+001 3.261959e+001 3.136707e+001 2.948362e+001 4.110089e+001 3.824365e+001 3.254217e+001 2.868511e+001 1.558697e+002 1.980281e+000 3.243948e+000 3.211640e+000 5.839702e+000 2.837183e+000 2.067917e+000 2.107301e+000 1.872361e+000 2.426133e+000 2.071358e+000 1.758784e+000 1.507250e+000 1.688330e+001 3.428694e-001 3.790772e-001 4.771972e-001 8.460883e-001 4.158057e-001 3.580294e-001 3.502743e-001 3.086519e-001 4.208444e-001 3.465864e-001 3.137738e-001 2.932814e-001 1.580953e+000
<GCONST> 1.225918e+002
<STATE> 3
<MEAN> 39
 -9.538999e+000 -1.752247e+000 -3.396289e+000 -8.321085e+000 -3.127574e+000 -4.217813e+000 2.760966e-001 -5.498312e+000 1.145617e+000 -3.190414e+000 -1.138839e+000 -3.608465e+000 5.691036e+001 -7.502349e-002 -7.982659e-001 -8.821864e-001 -9.778748e-001 -5.713381e-001 -1.398545e-002 4.415566e-001 -1.992408e-003 3.570158e-001 9.727599e-002 4.720549e-003 -1.479349e-001 2.716609e+000 2.119361e-001 -1.527666e-001 2.663292e-002 -1.538633e-001 -1.675676e-002 -8.204601e-002 6.289724e-002 -1.586711e-002 -7.538857e-002 -4.060005e-002 2.922737e-002 -7.575683e-002 1.940921e-001
<VARIANCE> 39
 3.385878e+001 4.405022e+001 5.060075e+001 6.963704e+001 3.765926e+001 3.096525e+001 3.524896e+001 3.262838e+001 4.217607e+001 4.718090e+001 3.450867e+001 3.253967e+001 1.708890e+002 2.475054e+000 2.776178e+000 2.589526e+000 5.499360e+000 2.922997e+000 2.167228e+000 2.313901e+000 2.334378e+000 2.607077e+000 2.544470e+000 2.062013e+000 2.023449e+000 1.269628e+001 3.512694e-001 3.627212e-001 4.714647e-001 9.848768e-001 5.063050e-001 3.483812e-001 3.647573e-001 3.647940e-001 4.905623e-001 4.925916e-001 3.338292e-001 3.543016e-001 1.791370e+000
<GCONST> 1.254482e+002
<STATE> 4
<MEAN> 39
 -8.741446e+000 -4.894352e+000 -5.586067e+000 -1.166195e+001 -4.887942e+000 -4.110155e+000 2.220547e+000 -6.160686e+000 1.579852e+000 -2.845788e+000 -1.402296e+000 -4.741125e+000 6.490744e+001 3.801233e-001 -1.029288e+000 -5.355582e-001 -5.041793e-001 -1.872144e-001 -1.615595e-001 4.347920e-001 5.370632e-002 -1.451364e-001 -1.434029e-001 1.346796e-001 -2.872741e-001 1.953894e+000 1.106959e-001 3.010846e-002 1.270105e-001 3.332008e-001 2.337605e-001 -6.760466e-002 -1.675898e-001 8.170062e-002 -1.394671e-001 -1.158534e-001 8.401578e-002 4.831963e-002 -5.674270e-001
<VARIANCE> 39
 2.741345e+001 5.155496e+001 3.757191e+001 6.072762e+001 4.697872e+001 3.568860e+001 4.502966e+001 4.328387e+001 4.146045e+001 5.820595e+001 3.860351e+001 3.809466e+001 1.329133e+002 2.249777e+000 2.570495e+000 2.241791e+000 4.870857e+000 2.932203e+000 2.456795e+000 2.513842e+000 2.813419e+000 2.806625e+000 3.232325e+000 2.224427e+000 2.005837e+000 6.823747e+000 3.025180e-001 2.931523e-001 3.551511e-001 8.335093e-001 5.680904e-001 3.585562e-001 3.782898e-001 3.839737e-001 4.574918e-001 5.800056e-001 3.512244e-001 3.527291e-001 1.064472e+000
<GCONST> 1.248194e+002
<TRANSP> 5
 0.000000e+000 1.000000e+000 0.000000e+000 0.000000e+000 0.000000e+000
 0.000000e+000 6.884361e-001 3.115638e-001 0.000000e+000 0.000000e+000
 0.000000e+000 0.000000e+000 5.847004e-001 4.152997e-001 0.000000e+000
 0.000000e+000 0.000000e+000 0.000000e+000 5.272515e-001 4.727485e-001
 0.000000e+000 0.000000e+000 0.000000e+000 0.000000e+000 0.000000e+000
<ENDHMM>
~h "f"
<BEGINHMM>
<NUMSTATES> 5
<STATE> 2
<MEAN> 39
 -1.500401e+001 -8.794013e+000 -6.250190e+000 -6.265526e+000 -1.494542e+000 -4.361690e+000 1.268445e+000 -4.122120e+000 1.002564e+000 -3.399818e+000 1.898410e+000 -4.007674e+000 5.803865e+001 -1.099125e+000 -2.040630e-001 -1.256405e-001 1.404200e-001 -4.660695e-002 4.942565e-002 4.840515e-002 9.290783e-002 2.265277e-001 -6.345681e-002 4.820526e-002 5.129138e-002 -3.882133e-001 3.622728e-001 2.057385e-002 -4.311792e-002 -1.027497e-001 -6.141387e-002 -8.037131e-002 -1.820061e-002 -2.187735e-002 -5.448674e-003 -3.586172e-003 -6.721135e-002 -2.732450e-002 2.054567e-001
<VARIANCE> 39
 5.997174e+001 2.167650e+001 2.401147e+001 1.924429e+001 2.218146e+001 2.324274e+001 2.218741e+001 3.027197e+001 2.977401e+001 2.640222e+001 2.050879e+001 1.889955e+001 4.654141e+001 5.205748e+000 1.591223e+000 1.845698e+000 1.289043e+000 1.580490e+000 1.446173e+000 1.418745e+000 1.521397e+000 1.574817e+000 1.608001e+000 1.111398e+000 1.042427e+000 2.578331e+000 5.573493e-001 2.337468e-001 2.511983e-001 2.078241e-001 2.284072e-001 2.352389e-001 2.228782e-001 2.389416e-001 2.632135e-001 2.547507e-001 1.777620e-001 1.834644e-001 2.724160e-001
<GCONST> 1.025332e+002
<STATE> 3
<MEAN> 39
 -1.596327e+001 -9.226103e+000 -6.810406e+000 -6.336117e+000 -1.710979e+000 -4.691529e+000 1.321984e+000 -3.960672e+000 1.502532e+000 -3.564806e+000 1.753188e+000 -3.913996e+000 5.814858e+001 6.586132e-001 -9.682891e-002 -2.278232e-001 -5.424873e-002 -1.496613e-001 -1.617773e-001 -1.159714e-003 -1.703080e-003 1.454300e-001 -1.110034e-001 -1.448221e-001 -2.225419e-002 3.500807e-001 4.808039e-001 1.561436e-002 -5.737193e-002 -7.662950e-002 -4.269262e-002 -5.991773e-002 -1.828756e-002 -4.390241e-002 -1.245728e-002 -2.244936e-002 -4.349140e-002 -2.840543e-002 2.333612e-001
<VARIANCE> 39
 5.481396e+001 1.756558e+001 2.185440e+001 2.077251e+001 2.284100e+001 2.290539e+001 2.100855e+001 2.596306e+001 2.620066e+001 2.675299e+001 2.118428e+001 1.885366e+001 4.214075e+001 5.658189e+000 1.224077e+000 1.662888e+000 1.257378e+000 1.533593e+000 1.223981e+000 1.143155e+000 1.428016e+000 1.549884e+000 1.496426e+000 1.067293e+000 9.374372e-001 2.441028e+000 4.879519e-001 1.953042e-001 2.535763e-001 1.976535e-001 2.279051e-001 2.025298e-001 1.988105e-001 2.349048e-001 2.474913e-001 2.416798e-001 1.884614e-001 1.750377e-001 2.403174e-001
<GCONST> 9.989928e+001
<STATE> 4
<MEAN> 39
 -1.115996e+001 -9.286402e+000 -7.721346e+000 -6.597634e+000 -2.225703e+000 -5.410589e+000 1.318973e+000 -4.105566e+000 1.838453e+000 -4.007601e+000 1.063549e+000 -4.105763e+000 6.027410e+001 1.966154e+000 -1.116300e-001 -4.040534e-001 -2.934656e-001 -3.307662e-001 -3.043973e-001 -2.362683e-002 -1.776532e-001 1.816587e-001 -1.749154e-001 -2.006276e-001 -1.176887e-001 1.044222e+000 8.250354e-002 -2.292239e-002 -2.471919e-002 -1.118362e-001 -2.569106e-002 -1.987633e-002 8.936476e-003 -4.651037e-002 1.476119e-002 -4.493619e-003 2.113225e-002 -2.081619e-002 1.675806e-001
<VARIANCE> 39
 8.975809e+001 2.623301e+001 3.548976e+001 3.078593e+001 3.511572e+001 3.054356e+001 2.498924e+001 2.882314e+001 3.308362e+001 3.391564e+001 2.372916e+001 2.183006e+001 5.069293e+001 4.502378e+000 1.780929e+000 2.602050e+000 1.902546e+000 2.490956e+000 1.624243e+000 1.473029e+000 1.977244e+000 1.918077e+000 1.739182e+000 1.365262e+000 1.159549e+000 2.737694e+000 6.761636e-001 2.141169e-001 2.892776e-001 2.455137e-001 2.631513e-001 2.446971e-001 2.311287e-001 2.868421e-001 2.707954e-001 2.263181e-001 2.078025e-001 1.957646e-001 2.910613e-001
<GCONST> 1.087508e+002
<TRANSP> 5
 0.000000e+000 1.000000e+000 0.000000e+000 0.000000e+000 0.000000e+000
 0.000000e+000 7.181044e-001 2.818956e-001 0.000000e+000 0.000000e+000
 0.000000e+000 0.000000e+000 7.007992e-001 2.992007e-001 0.000000e+000
 0.000000e+000 0.000000e+000 0.000000e+000 6.619487e-001 3.380512e-001
 0.000000e+000 0.000000e+000 0.000000e+000 0.000000e+000 0.000000e+000
<ENDHMM>
~h "g"
<BEGINHMM>
<NUMSTATES> 5
<STATE> 2
<MEAN> 39
 -5.570207e+000 -1.109542e+000 8.659078e-001 -1.046174e+001 -2.123117e+000 -6.417469e+000 -3.910614e+000 -3.872933e+000 -2.888973e-001 -3.469151e+000 9.025598e-001 -3.632604e+000 5.340623e+001 -3.617877e-001 -1.371850e-001 1.994800e-001 1.226141e+000 -7.581875e-002 -1.288181e-001 1.775130e-002 -7.780300e-002 -7.487442e-002 -8.993193e-002 9.569691e-002 1.276828e-001 -1.386853e+000 -1.010244e-001 -4.293312e-001 -3.192700e-001 3.550515e-002 -8.573989e-002 3.049016e-002 2.842781e-001 5.078343e-004 6.553309e-002 3.712085e-003 -3.144473e-002 -1.598080e-002 5.603783e-001
<VARIANCE> 39
 3.702680e+001 5.862243e+001 5.537531e+001 9.321708e+001 5.786319e+001 7.193392e+001 6.122273e+001 4.507210e+001 4.278063e+001 3.769650e+001 3.255952e+001 2.866282e+001 1.292828e+002 2.081757e+000 4.941145e+000 3.777268e+000 5.072490e+000 3.366975e+000 3.485672e+000 4.009852e+000 2.574643e+000 2.452928e+000 2.007249e+000 1.736158e+000 1.485967e+000 1.071997e+001 3.496815e-001 7.009521e-001 5.146738e-001 9.356295e-001 4.646793e-001 5.431402e-001 6.171597e-001 4.572914e-001 4.361476e-001 3.720210e-001 3.257329e-001 2.433275e-001 1.436519e+000
<GCONST> 1.294766e+002
<STATE> 3
<MEAN> 39
 -6.887593e+000 -4.456338e+000 -4.974343e-001 -6.973435e+000 -2.886603e+000 -6.557187e+000 -2.376439e+000 -3.856349e+000 -1.597950e-001 -3.618465e+000 1.113974e+000 -3.427100e+000 5.342166e+001 -2.250789e-001 -1.147378e+000 -6.176125e-001 4.707053e-001 -5.441331e-001 -1.072054e-001 6.195672e-001 -6.753582e-003 3.554230e-001 -1.659113e-002 3.287200e-002 3.034273e-002 1.010788e+000 1.662535e-001 -4.347367e-002 -1.669907e-001 -2.985476e-001 -9.127091e-002 1.143853e-002 6.654015e-002 2.229660e-002 1.208095e-001 -3.287863e-003 -2.857660e-002 -5.250043e-002 5.789149e-001
<VARIANCE> 39
 4.242635e+001 9.037737e+001 5.725751e+001 7.034527e+001 5.085972e+001 6.270110e+001 5.915348e+001 4.494226e+001 3.913867e+001 3.471613e+001 3.093378e+001 2.634037e+001 1.125291e+002 2.836531e+000 4.639276e+000 3.578228e+000 5.437790e+000 3.105582e+000 3.841719e+000 3.633630e+000 2.868129e+000 2.350589e+000 2.026033e+000 1.851441e+000 1.563822e+000 9.038667e+000 4.524471e-001 9.724674e-001 5.606163e-001 7.010757e-001 4.742057e-001 5.407471e-001 6.593785e-001 4.822627e-001 3.775356e-001 3.750463e-001 3.310276e-001 2.481886e-001 1.189601e+000
<GCONST> 1.294753e+002
<STATE> 4
<MEAN> 39
 -6.718354e+000 -7.494857e+000 -2.303636e+000 -7.218673e+000 -4.929257e+000 -6.838120e+000 -6.804585e-001 -3.959997e+000 1.482368e+000 -3.446647e+000 1.300733e+000 -3.454607e+000 5.855800e+001 3.945689e-001 -6.291693e-001 -7.225367e-001 -3.197380e-001 -7.199934e-001 -4.993585e-002 4.593551e-001 -9.713611e-002 5.729499e-001 -4.884134e-002 -2.424176e-002 -1.191024e-001 1.865292e+000 1.797161e-001 2.520835e-001 1.135877e-002 -1.638646e-001 3.587308e-002 5.602287e-002 -1.122882e-001 -2.749656e-002 -4.165865e-002 -1.689636e-002 -2.814769e-002 -6.887971e-002 1.533765e-003
<VARIANCE> 39
 4.022536e+001 7.450566e+001 5.030625e+001 7.195907e+001 5.319332e+001 5.665766e+001 5.248951e+001 4.665400e+001 3.610532e+001 3.404969e+001 3.340620e+001 2.659202e+001 9.053307e+001 3.067961e+000 4.060001e+000 3.330230e+000 3.680884e+000 3.354915e+000 3.716865e+000 3.433496e+000 2.844308e+000 2.087984e+000 2.103027e+000 2.010632e+000 1.513751e+000 4.494434e+000 4.353083e-001 7.690058e-001 4.275522e-001 5.975281e-001 4.573625e-001 5.298533e-001 5.956327e-001 4.680559e-001 3.504286e-001 3.544082e-001 3.191367e-001 2.497317e-001 7.982348e-001
<GCONST> 1.260320e+002
<TRANSP> 5
 0.000000e+000 1.000000e+000 0.000000e+000 0.000000e+000 0.000000e+000
 0.000000e+000 7.184411e-001 2.815588e-001 0.000000e+000 0.000000e+000
 0.000000e+000 0.000000e+000 6.500818e-001 3.499183e-001 0.000000e+000
 0.000000e+000 0.000000e+000 0.000000e+000 5.768191e-001 4.231810e-001
 0.000000e+000 0.000000e+000 0.000000e+000 0.000000e+000 0.000000e+000
<ENDHMM>
~h "k"
<BEGINHMM>
<NUMSTATES> 5
<STATE> 2
<MEAN> 39
 -1.225167e+001 -5.124253e+000 -1.305448e+000 -6.553884e+000 -2.200219e+000 -2.734898e+000 -2.526987e-001 -3.515391e+000 3.385644e-001 -3.343605e+000 9.294496e-001 -3.736347e+000 4.834641e+001 -8.786044e-001 -4.594188e-001 -1.857483e-001 7.563018e-001 2.963196e-001 -1.996791e-002 3.729653e-001 2.493386e-001 2.219344e-001 2.837056e-002 8.178323e-002 2.062251e-001 -1.431427e+000 1.139131e-001 -1.989515e-001 -2.989955e-001 -2.466766e-001 -8.065939e-002 -1.212086e-001 6.893732e-002 -3.790729e-002 5.685376e-002 1.927650e-002 -2.996489e-002 -2.745652e-002 1.012367e+000
<VARIANCE> 39
 3.470336e+001 5.713123e+001 3.423232e+001 7.075150e+001 5.245072e+001 4.415097e+001 4.648123e+001 3.373686e+001 3.218133e+001 2.913302e+001 2.854595e+001 2.047079e+001 1.918643e+002 2.354483e+000 4.160393e+000 2.675214e+000 4.582528e+000 3.344581e+000 2.597051e+000 2.856398e+000 2.139601e+000 1.940690e+000 1.585493e+000 1.675073e+000 1.219934e+000 1.779237e+001 3.205223e-001 5.972799e-001 3.651584e-001 7.955704e-001 5.514201e-001 4.007253e-001 4.813306e-001 3.593473e-001 3.415576e-001 2.810580e-001 2.868723e-001 2.068370e-001 2.526573e+000
<GCONST> 1.237201e+002
<STATE> 3
<MEAN> 39
 -1.420880e+001 -8.040539e+000 -3.578586e+000 -5.969926e+000 -2.070960e+000 -3.669535e+000 1.158258e+000 -3.003707e+000 1.176906e+000 -2.993332e+000 1.158220e+000 -3.353578e+000 5.128513e+001 -2.726215e-002 -6.198663e-001 -7.238023e-001 -3.336957e-001 5.110634e-003 -3.197876e-001 2.708839e-001 4.737619e-002 2.696761e-001 6.715833e-002 -2.620520e-002 -3.826327e-002 2.036448e+000 3.364379e-001 1.941670e-001 -2.825820e-002 -2.416204e-001 -7.102616e-002 -1.288383e-002 -1.338827e-001 -8.396704e-002 -2.121062e-002 -2.123442e-002 -3.510846e-002 -8.806961e-002 5.654536e-001
<VARIANCE> 39
 2.649403e+001 5.956650e+001 3.661710e+001 5.523695e+001 4.472853e+001 4.039807e+001 3.551942e+001 3.187215e+001 2.882492e+001 2.621201e+001 2.241015e+001 1.969478e+001 1.632958e+002 2.614417e+000 3.181677e+000 2.314521e+000 3.432799e+000 2.888127e+000 2.414084e+000 2.311420e+000 1.996567e+000 1.814053e+000 1.538509e+000 1.451349e+000 1.146732e+000 1.151278e+001 2.842489e-001 5.975152e-001 4.122951e-001 5.601220e-001 5.293395e-001 3.935649e-001 3.974978e-001 3.531719e-001 3.160350e-001 2.774379e-001 2.684859e-001 2.042558e-001 2.255483e+000
<GCONST> 1.193444e+002
<STATE> 4
<MEAN> 39
 -1.308838e+001 -8.884106e+000 -5.427860e+000 -7.625524e+000 -2.236058e+000 -4.541651e+000 1.533695e+000 -3.148374e+000 1.814749e+000 -2.877455e+000 1.009236e+000 -3.953928e+000 5.882696e+001 8.189110e-001 8.655462e-002 -4.889866e-001 -6.709656e-001 -3.820926e-002 -1.586901e-001 -1.683136e-001 -1.786294e-001 1.089611e-001 -4.247357e-002 -1.266223e-001 -2.253122e-001 2.206386e+000 2.327222e-001 2.308973e-001 1.120479e-001 -4.447431e-002 -1.827456e-002 9.996200e-002 -1.549255e-001 -8.295837e-002 -7.452460e-002 -5.799016e-002 -3.449922e-002 -3.851670e-002 -2.597044e-001
<VARIANCE> 39
 3.391724e+001 6.162549e+001 3.729486e+001 5.847479e+001 4.905354e+001 4.384466e+001 3.598449e+001 3.493464e+001 3.002679e+001 2.898039e+001 2.394427e+001 2.225944e+001 9.057303e+001 2.591375e+000 2.885132e+000 2.380764e+000 2.703279e+000 2.686890e+000 2.434497e+000 2.070271e+000 2.008202e+000 1.805882e+000 1.623668e+000 1.501513e+000 1.252838e+000 5.188953e+000 2.766245e-001 4.930545e-001 3.663014e-001 4.268021e-001 4.656414e-001 3.806448e-001 3.395973e-001 3.545251e-001 3.176025e-001 2.881612e-001 2.587236e-001 2.229551e-001 1.238714e+000
<GCONST> 1.171789e+002
<TRANSP> 5
 0.000000e+000 1.000000e+000 0.000000e+000 0.000000e+000 0.000000e+000
 0.000000e+000 7.269868e-001 2.730132e-001 0.000000e+000 0.000000e+000
 0.000000e+000 0.000000e+000 6.040595e-001 3.959405e-001 0.000000e+000
 0.000000e+000 0.000000e+000 0.000000e+000 5.422700e-001 4.577299e-001
 0.000000e+000 0.000000e+000 0.000000e+000 0.000000e+000 0.000000e+000
<ENDHMM>
~h "l"
<BEGINHMM>
<NUMSTATES> 5
<STATE> 2
<MEAN> 39
 8.485980e-001 -7.906220e+000 -1.776756e+001 -5.757477e+000 -1.131130e+000 -9.686764e+000 4.638441e-001 -2.501523e+000 1.709385e+000 -3.183504e+000 -1.461725e-001 -5.157571e+000 6.614436e+001 4.493190e-001 1.064416e-001 -4.627481e-001 8.820496e-002 -1.846332e-002 -3.029336e-001 -4.463964e-002 1.699704e-001 -2.486636e-002 2.486131e-002 -6.758516e-002 3.590804e-002 1.973405e-001 -2.576535e-001 4.891946e-002 3.926424e-001 -1.382728e-001 -8.808834e-002 2.000097e-001 2.775382e-002 -8.597528e-002 -5.151104e-002 1.473468e-002 1.065855e-002 3.210860e-002 -1.083049e-001
<VARIANCE> 39
 2.523237e+001 4.595568e+001 6.815358e+001 3.791566e+001 4.909646e+001 5.158905e+001 7.498589e+001 6.899391e+001 4.313477e+001 4.756479e+001 3.435365e+001 3.085225e+001 4.741195e+001 1.916551e+000 1.908138e+000 4.568720e+000 2.290726e+000 2.744724e+000 2.654227e+000 3.710214e+000 3.296960e+000 2.573094e+000 2.214128e+000 1.694684e+000 1.201783e+000 2.616733e+000 2.321646e-001 2.630949e-001 3.992089e-001 3.212598e-001 3.547744e-001 3.804414e-001 5.825663e-001 5.388532e-001 4.352037e-001 3.709837e-001 2.884546e-001 1.970342e-001 2.738535e-001
<GCONST> 1.189807e+002
<STATE> 3
<MEAN> 39
 5.719736e-001 -7.668918e+000 -1.635660e+001 -6.035037e+000 -1.876295e+000 -9.500953e+000 1.099186e+000 -2.583638e+000 1.131019e+000 -3.152631e+000 -7.702329e-002 -4.897043e+000 6.588006e+001 -4.238951e-001 2.839642e-001 1.023544e+000 -3.618602e-001 -3.706637e-001 3.356328e-001 1.037760e-001 -2.668908e-001 -2.381349e-001 9.276181e-002 2.656421e-002 1.065587e-001 -1.749525e-001 -2.507027e-001 9.196349e-002 3.061685e-001 -1.328029e-001 4.446634e-003 1.792845e-001 -4.374645e-002 -1.077989e-001 -2.656369e-003 3.144451e-003 2.354209e-002 1.566381e-002 -1.357043e-001
<VARIANCE> 39
 2.454661e+001 4.340149e+001 6.724896e+001 4.170486e+001 5.345728e+001 5.880742e+001 7.909529e+001 6.664142e+001 4.522326e+001 4.698597e+001 3.223557e+001 3.207689e+001 5.456598e+001 1.620231e+000 2.137103e+000 3.939359e+000 2.554873e+000 2.414417e+000 2.804181e+000 4.099337e+000 3.136940e+000 2.466095e+000 2.071461e+000 1.603834e+000 1.190937e+000 2.872994e+000 2.081213e-001 2.513719e-001 4.010137e-001 3.609020e-001 3.676442e-001 4.325969e-001 6.227465e-001 4.898510e-001 4.093242e-001 3.541532e-001 2.592610e-001 1.963807e-001 2.501505e-001
<GCONST> 1.189598e+002
<STATE> 4
<MEAN> 39
 -1.387518e+000 -6.781662e+000 -1.197470e+001 -7.272194e+000 -2.979684e+000 -7.887466e+000 1.489165e+000 -4.002683e+000 4.367917e-001 -2.753417e+000 1.205493e-001 -4.640874e+000 6.451041e+001 -9.410627e-001 5.154657e-001 1.472571e+000 -5.945411e-001 -2.349809e-001 6.372307e-001 -1.376632e-001 -4.542381e-001 -1.075377e-001 9.343673e-002 6.075218e-002 1.350968e-001 -5.059319e-001 -1.290671e-001 6.126828e-002 -4.060409e-002 -2.520987e-002 1.397586e-001 1.639760e-002 -1.257349e-001 4.001641e-002 8.278080e-002 -5.014994e-002 1.749174e-002 9.636651e-003 -1.038683e-001
<VARIANCE> 39
 2.982095e+001 4.523486e+001 7.744346e+001 5.084851e+001 6.194766e+001 6.209462e+001 7.643759e+001 6.053547e+001 4.729119e+001 4.781241e+001 3.101016e+001 3.233394e+001 8.600444e+001 1.645187e+000 2.415414e+000 2.988695e+000 3.351089e+000 2.331840e+000 2.885453e+000 3.741121e+000 2.859036e+000 2.266622e+000 1.979717e+000 1.532348e+000 1.270763e+000 3.236412e+000 2.241306e-001 2.729267e-001 4.327393e-001 3.867434e-001 3.934271e-001 4.709408e-001 6.371955e-001 4.442606e-001 3.890975e-001 3.360153e-001 2.429525e-001 2.025749e-001 3.179047e-001
<GCONST> 1.205263e+002
<TRANSP> 5
 0.000000e+000 1.000000e+000 0.000000e+000 0.000000e+000 0.000000e+000
 0.000000e+000 7.293769e-001 2.706231e-001 0.000000e+000 0.000000e+000
 0.000000e+000 0.000000e+000 6.243496e-001 3.756504e-001 0.000000e+000
 0.000000e+000 0.000000e+000 0.000000e+000 5.382995e-001 4.617005e-001
 0.000000e+000 0.000000e+000 0.000000e+000 0.000000e+000 0.000000e+000
<ENDHMM>
~h "m"
<BEGINHMM>
<NUMSTATES> 5
<STATE> 2
<MEAN> 39
 -3.153633e+000 -4.975369e+000 -1.931082e+000 -8.239779e+000 -1.249509e+000 -9.840355e+000 -4.055169e+000 -3.854941e+000 -2.943146e+000 -6.365100e+000 -4.660301e-001 -7.451605e+000 5.949090e+001 5.413783e-001 4.683394e-001 8.445145e-001 2.031085e-002 3.041148e-001 -6.807699e-001 -8.271409e-001 1.660010e-001 -4.623376e-001 -1.668434e-001 -1.594540e-004 -1.840288e-001 -3.625160e-001 -1.545532e-001 -4.241590e-002 -1.854899e-001 -8.572523e-002 -8.157606e-002 1.871866e-001 1.640560e-001 -8.642972e-002 1.289825e-001 3.026807e-002 -3.898399e-002 5.057111e-002 1.913266e-001
<VARIANCE> 39
 2.980540e+001 3.963544e+001 5.559837e+001 4.082215e+001 4.908784e+001 6.931184e+001 7.132383e+001 6.181782e+001 6.625167e+001 8.191109e+001 8.399565e+001 5.462136e+001 6.635233e+001 1.925785e+000 1.919703e+000 3.075803e+000 2.379601e+000 2.369845e+000 3.556416e+000 3.316962e+000 2.949362e+000 3.456129e+000 3.795045e+000 3.188483e+000 2.147716e+000 3.706270e+000 2.414299e-001 2.884325e-001 4.406432e-001 3.059537e-001 3.622837e-001 5.409726e-001 5.273358e-001 4.571229e-001 5.393222e-001 5.630189e-001 4.718863e-001 3.275970e-001 4.389919e-001
<GCONST> 1.261431e+002
<STATE> 3
<MEAN> 39
 -2.134386e+000 -3.983291e+000 -1.666918e-001 -8.360473e+000 -6.789973e-001 -1.081327e+001 -5.210185e+000 -3.774935e+000 -3.054602e+000 -6.421818e+000 -6.109024e-003 -7.115901e+000 5.931285e+001 -7.209000e-002 1.026801e-001 -1.052087e-001 -1.385093e-001 -3.083169e-002 2.242013e-001 4.601960e-002 -1.850327e-001 1.218608e-001 -7.644079e-002 -9.691132e-004 3.957091e-002 2.647896e-001 -2.440183e-001 -1.249900e-001 -3.927195e-001 -6.385816e-002 -8.684998e-002 2.928884e-001 3.207572e-001 -9.152992e-002 1.879452e-001 1.687812e-002 -1.821488e-002 6.723283e-002 1.940525e-001
<VARIANCE> 39
 1.861671e+001 3.663011e+001 6.198604e+001 3.922129e+001 4.931482e+001 6.637924e+001 6.910571e+001 6.675521e+001 6.361444e+001 8.727805e+001 7.906970e+001 5.349926e+001 5.127348e+001 1.773881e+000 2.091184e+000 3.799255e+000 2.098760e+000 2.254880e+000 3.647079e+000 3.497147e+000 2.782125e+000 3.237770e+000 3.494494e+000 2.745853e+000 2.095954e+000 4.307846e+000 2.395957e-001 2.824085e-001 4.898435e-001 3.077838e-001 3.543150e-001 5.406531e-001 5.321579e-001 4.912655e-001 5.391605e-001 5.967417e-001 4.907764e-001 3.454950e-001 3.759360e-001
<GCONST> 1.253773e+002
<STATE> 4
<MEAN> 39
 -3.187782e+000 -4.393319e+000 -1.792417e+000 -8.380527e+000 -1.131596e+000 -8.723234e+000 -3.370506e+000 -4.475602e+000 -1.732884e+000 -5.976590e+000 4.617957e-001 -6.053417e+000 6.038807e+001 -7.359716e-001 -2.265507e-001 -1.072045e+000 -2.863548e-001 -1.495977e-001 9.133765e-001 7.987087e-001 -2.629623e-001 5.190985e-001 1.480752e-003 -5.604628e-002 1.919561e-001 6.147856e-001 -1.589442e-001 -4.923348e-002 -1.724369e-001 -7.635774e-002 -5.593333e-003 8.472151e-002 1.312370e-001 2.337338e-002 6.644307e-002 4.579940e-002 -3.820930e-003 3.511441e-002 6.026202e-002
<VARIANCE> 39
 2.443689e+001 4.484615e+001 6.464328e+001 4.886401e+001 5.244708e+001 5.975625e+001 6.370113e+001 5.609523e+001 5.601528e+001 7.295140e+001 5.960246e+001 4.125292e+001 7.586615e+001 1.920178e+000 2.344916e+000 3.645765e+000 2.569521e+000 2.466037e+000 3.146215e+000 3.219375e+000 2.826969e+000 3.222735e+000 3.636834e+000 2.829579e+000 1.979471e+000 4.304108e+000 2.458641e-001 3.240954e-001 5.545781e-001 3.094788e-001 3.606620e-001 5.137619e-001 5.154229e-001 4.617370e-001 4.872368e-001 5.367170e-001 4.071966e-001 2.977486e-001 4.395133e-001
<GCONST> 1.253738e+002
<TRANSP> 5
 0.000000e+000 1.000000e+000 0.000000e+000 0.000000e+000 0.000000e+000
 0.000000e+000 6.989234e-001 3.010766e-001 0.000000e+000 0.000000e+000
 0.000000e+000 0.000000e+000 6.649701e-001 3.350298e-001 0.000000e+000
 0.000000e+000 0.000000e+000 0.000000e+000 6.015937e-001 3.984063e-001
 0.000000e+000 0.000000e+000 0.000000e+000 0.000000e+000 0.000000e+000
<ENDHMM>
~h "n"
<BEGINHMM>
<NUMSTATES> 5
<STATE> 2
<MEAN> 39
 -3.457446e+000 -3.872101e+000 -2.911366e+000 -1.244083e+001 -4.873684e-002 -7.607385e+000 -8.400365e-001 -7.068182e+000 -9.314460e-001 -5.499070e+000 -2.301652e+000 -6.020374e+000 6.177152e+001 3.816089e-001 3.878794e-001 5.548546e-001 -3.288383e-002 4.024568e-001 -5.880955e-001 -2.208045e-001 -7.711240e-002 -3.636912e-001 1.411052e-001 -1.628284e-001 4.674671e-002 -7.327855e-001 -1.777534e-001 -8.919784e-002 -1.863316e-001 1.181814e-001 -9.246511e-002 1.464133e-001 4.108165e-002 5.573344e-002 9.950798e-002 -3.242582e-002 7.720438e-002 4.010734e-002 8.705309e-002
<VARIANCE> 39
 2.212079e+001 3.984312e+001 4.836180e+001 4.415576e+001 5.470835e+001 7.059692e+001 5.742797e+001 5.451835e+001 6.910026e+001 7.590234e+001 4.611669e+001 4.375298e+001 6.013335e+001 1.482021e+000 1.771721e+000 2.075462e+000 2.196568e+000 2.685597e+000 3.867930e+000 2.430562e+000 2.347262e+000 2.628374e+000 2.330911e+000 1.930118e+000 1.505287e+000 3.183168e+000 2.178145e-001 2.143437e-001 3.336009e-001 2.796658e-001 4.177801e-001 6.329027e-001 3.800617e-001 3.840345e-001 4.266512e-001 3.798237e-001 3.075625e-001 2.397041e-001 3.553148e-001
<GCONST> 1.191530e+002
<STATE> 3
<MEAN> 39
 -2.949661e+000 -3.225228e+000 -1.890410e+000 -1.235553e+001 6.539511e-001 -8.385402e+000 -1.162587e+000 -7.023120e+000 -1.379617e+000 -4.681507e+000 -2.229967e+000 -5.406402e+000 6.027156e+001 -1.425310e-001 5.101461e-002 9.725832e-004 3.029509e-001 6.825964e-003 8.611106e-002 -3.287201e-002 -7.390216e-003 -3.675690e-002 4.489023e-002 1.074071e-001 1.170675e-001 -3.720367e-001 -2.332892e-001 -1.627227e-001 -2.695540e-001 1.404804e-001 -1.748380e-001 2.563375e-001 8.961143e-002 5.745298e-002 1.522962e-001 -6.999351e-002 9.082801e-002 1.598512e-002 1.733995e-001
<VARIANCE> 39
 2.189135e+001 3.716928e+001 4.645008e+001 4.016555e+001 5.155352e+001 6.933712e+001 5.969218e+001 5.446798e+001 7.370891e+001 7.132608e+001 4.525547e+001 4.129988e+001 6.070427e+001 1.702268e+000 1.894630e+000 2.192514e+000 2.146512e+000 2.569278e+000 4.177605e+000 2.418371e+000 2.411812e+000 2.537627e+000 2.191757e+000 1.862528e+000 1.392083e+000 3.487678e+000 2.529339e-001 2.367866e-001 3.353691e-001 2.973640e-001 4.106019e-001 6.222241e-001 3.993291e-001 3.931874e-001 4.521945e-001 3.714210e-001 3.145865e-001 2.357595e-001 3.332269e-001
<GCONST> 1.193388e+002
<STATE> 4
<MEAN> 39
 -3.841198e+000 -3.646224e+000 -2.425622e+000 -1.113542e+001 -1.043417e-002 -6.949044e+000 -8.296751e-001 -6.993108e+000 -9.961856e-001 -4.423970e+000 -1.450434e+000 -4.938482e+000 5.988972e+001 -6.293905e-001 -3.153536e-001 -5.367352e-001 5.764164e-001 -3.432620e-001 5.615681e-001 1.627666e-001 1.675433e-001 2.514774e-001 -6.938702e-002 2.977125e-001 1.170935e-001 -4.490701e-002 -1.512502e-001 -1.265840e-001 -1.886306e-001 4.742249e-002 -8.402485e-002 8.181664e-002 5.617379e-002 8.292301e-002 1.026540e-001 -3.129943e-002 3.257845e-002 5.583599e-003 1.279265e-001
<VARIANCE> 39
 2.761460e+001 4.357865e+001 4.355048e+001 4.512745e+001 4.703149e+001 6.291816e+001 6.021918e+001 5.012629e+001 6.711375e+001 5.996535e+001 4.156287e+001 3.642326e+001 8.151482e+001 2.083274e+000 1.929766e+000 2.174636e+000 2.262012e+000 2.384624e+000 3.466527e+000 2.464099e+000 2.529791e+000 2.621032e+000 2.241898e+000 1.807634e+000 1.398160e+000 3.187893e+000 2.898043e-001 2.536159e-001 3.267409e-001 3.175151e-001 3.771372e-001 5.501540e-001 3.803587e-001 3.658843e-001 4.276627e-001 3.306822e-001 2.917636e-001 2.168599e-001 3.761731e-001
<GCONST> 1.190510e+002
<TRANSP> 5
 0.000000e+000 1.000000e+000 0.000000e+000 0.000000e+000 0.000000e+000
 0.000000e+000 5.767442e-001 4.232558e-001 0.000000e+000 0.000000e+000
 0.000000e+000 0.000000e+000 5.499866e-001 4.500134e-001 0.000000e+000
 0.000000e+000 0.000000e+000 0.000000e+000 5.194715e-001 4.805285e-001
 0.000000e+000 0.000000e+000 0.000000e+000 0.000000e+000 0.000000e+000
<ENDHMM>
~h "p"
<BEGINHMM>
<NUMSTATES> 5
<STATE> 2
<MEAN> 39
 -9.922869e+000 -3.636262e+000 -3.043906e+000 -2.891754e+000 4.679764e-002 -5.147828e+000 -7.520993e-002 -3.223759e+000 -1.500943e-001 -4.391098e+000 1.239129e+000 -3.836086e+000 4.401770e+001 -9.023828e-001 -2.474615e-001 4.711015e-002 2.674218e-001 1.796989e-001 3.938342e-001 3.074757e-001 1.476957e-001 1.677626e-001 7.405607e-002 1.652471e-001 2.168534e-001 -1.283118e+000 1.129960e-001 -2.726183e-001 -2.366859e-001 -2.797890e-001 -1.656350e-001 -5.007739e-002 6.877388e-002 7.656683e-003 8.655979e-002 8.930176e-002 -7.894955e-003 -3.995301e-002 1.095485e+000
<VARIANCE> 39
 3.863331e+001 2.769200e+001 2.917451e+001 2.524933e+001 2.595868e+001 2.735205e+001 2.822701e+001 2.897801e+001 3.059877e+001 2.658029e+001 2.651779e+001 2.298118e+001 1.533298e+002 2.943662e+000 2.469025e+000 2.657357e+000 2.385513e+000 2.050939e+000 1.917604e+000 1.839136e+000 1.832960e+000 1.810703e+000 1.699767e+000 1.622360e+000 1.173722e+000 1.903750e+001 5.064903e-001 3.493091e-001 3.230852e-001 3.709978e-001 3.498647e-001 3.111130e-001 3.141958e-001 3.042196e-001 3.018513e-001 2.944576e-001 2.734144e-001 2.179772e-001 2.195712e+000
<GCONST> 1.149293e+002
<STATE> 3
<MEAN> 39
 -1.201622e+001 -6.415816e+000 -4.660773e+000 -3.864225e+000 -5.270011e-001 -4.371017e+000 1.340557e+000 -2.479662e+000 9.283413e-001 -3.364806e+000 1.884444e+000 -3.285137e+000 4.828127e+001 3.569842e-001 -9.223535e-001 -6.784160e-001 -5.292420e-001 -3.233220e-001 -4.274518e-003 2.660393e-001 1.472162e-002 2.841053e-001 2.792565e-001 6.904057e-002 -1.081638e-001 2.835755e+000 4.362905e-001 -3.797445e-002 -8.324883e-002 -1.337379e-001 -7.250198e-002 -9.666411e-002 -1.105685e-001 -9.890491e-002 -2.081716e-002 -4.071780e-002 -1.060133e-001 -1.270691e-001 5.901127e-001
<VARIANCE> 39
 2.268881e+001 2.645773e+001 2.609489e+001 2.316225e+001 2.419390e+001 2.331068e+001 2.628667e+001 2.658817e+001 2.774137e+001 2.750734e+001 2.281749e+001 2.014745e+001 1.611888e+002 3.153217e+000 1.609692e+000 2.123304e+000 1.896755e+000 1.957649e+000 1.721682e+000 1.527224e+000 1.864748e+000 1.705365e+000 1.776753e+000 1.495259e+000 1.293403e+000 1.102832e+001 3.376762e-001 2.736883e-001 2.893080e-001 3.191088e-001 3.287057e-001 2.722545e-001 2.932931e-001 3.036622e-001 3.029514e-001 3.204755e-001 2.616163e-001 2.046495e-001 2.034247e+000
<GCONST> 1.105165e+002
<STATE> 4
<MEAN> 39
 -9.350864e+000 -9.118135e+000 -6.729025e+000 -5.490961e+000 -1.259969e+000 -4.710186e+000 1.681830e+000 -2.776635e+000 1.532675e+000 -2.760567e+000 1.709177e+000 -4.210639e+000 5.818578e+001 1.418004e+000 -7.830008e-001 -7.318059e-001 -6.711993e-001 -3.878717e-001 -1.874927e-001 -1.149409e-001 -2.853863e-001 1.261608e-001 3.490203e-002 -2.534194e-001 -4.099418e-001 3.148151e+000 1.794118e-001 1.580337e-001 5.988070e-002 8.623450e-004 -1.102617e-002 -3.907532e-002 -1.335657e-001 -7.227829e-002 -9.390553e-002 -1.267727e-001 -1.172048e-001 -3.067054e-002 -3.466048e-001
<VARIANCE> 39
 4.409789e+001 3.095617e+001 4.540309e+001 3.091390e+001 3.802610e+001 3.041537e+001 3.061690e+001 3.432260e+001 3.116519e+001 3.672355e+001 2.997308e+001 2.460429e+001 1.049272e+002 2.453321e+000 1.963699e+000 2.341368e+000 2.283460e+000 2.537862e+000 1.981798e+000 1.858437e+000 2.225104e+000 1.877993e+000 2.151109e+000 1.692431e+000 1.398397e+000 5.365794e+000 4.111270e-001 2.261345e-001 2.677996e-001 3.030615e-001 3.372309e-001 2.882638e-001 3.206587e-001 3.410037e-001 3.311181e-001 3.686863e-001 2.756372e-001 2.251657e-001 1.090422e+000
<GCONST> 1.144470e+002
<TRANSP> 5
 0.000000e+000 1.000000e+000 0.000000e+000 0.000000e+000 0.000000e+000
 0.000000e+000 7.755110e-001 2.244889e-001 0.000000e+000 0.000000e+000
 0.000000e+000 0.000000e+000 6.331354e-001 3.668646e-001 0.000000e+000
 0.000000e+000 0.000000e+000 0.000000e+000 5.475121e-001 4.524880e-001
 0.000000e+000 0.000000e+000 0.000000e+000 0.000000e+000 0.000000e+000
<ENDHMM>
~h "r"
<BEGINHMM>
<NUMSTATES> 5
<STATE> 2
<MEAN> 39
 -2.361199e+000 -1.361717e+001 -3.203518e+000 -7.767675e+000 -1.100884e+001 -3.900346e+000 6.681489e-001 -5.397453e+000 4.176509e+000 -5.303135e+000 1.779468e+000 -5.090166e+000 6.615846e+001 7.511845e-001 -3.480485e-001 3.052968e-001 -9.755027e-002 -1.046110e+000 1.231990e-001 2.982027e-002 -2.616445e-001 2.579972e-001 -1.390509e-001 -4.928698e-002 -1.129100e-001 5.636690e-001 -2.091522e-001 2.737446e-001 -6.254320e-003 -1.612930e-001 2.683566e-001 2.611751e-002 -7.470936e-002 2.707424e-002 -9.489617e-002 5.608452e-002 -3.002026e-002 1.610086e-002 -1.346892e-001
<VARIANCE> 39
 4.795042e+001 4.797615e+001 4.193663e+001 6.254903e+001 8.088969e+001 5.926305e+001 4.924871e+001 4.319006e+001 5.042933e+001 3.739905e+001 3.874886e+001 3.116392e+001 6.139216e+001 2.902220e+000 2.794359e+000 2.113422e+000 3.574376e+000 3.680915e+000 2.796896e+000 2.608140e+000 2.240153e+000 2.317617e+000 2.251371e+000 1.862110e+000 1.537701e+000 3.500714e+000 4.050481e-001 2.692788e-001 2.717947e-001 4.097019e-001 5.356315e-001 4.115578e-001 3.676468e-001 3.242743e-001 3.569009e-001 3.266847e-001 3.061535e-001 2.610073e-001 3.462169e-001
<GCONST> 1.205664e+002
<STATE> 3
<MEAN> 39
 -1.337789e+000 -1.362943e+001 -2.222398e+000 -8.781262e+000 -1.281676e+001 -3.543553e+000 6.573020e-001 -5.974971e+000 4.360470e+000 -5.384975e+000 1.737999e+000 -5.332265e+000 6.730617e+001 -9.354836e-002 5.482789e-001 3.605609e-001 -7.659246e-001 1.225370e-002 2.369668e-001 -2.306967e-001 -1.044375e-001 -7.449251e-002 7.090335e-002 -3.525875e-002 -1.213009e-001 2.293729e-001 -3.073207e-001 3.298090e-001 -9.587684e-002 -1.081194e-001 4.758010e-001 -4.911341e-002 -9.552355e-002 8.746526e-002 -1.265012e-001 7.296467e-002 -2.368393e-002 3.956042e-002 -1.887871e-001
<VARIANCE> 39
 3.164211e+001 4.780417e+001 4.530595e+001 7.214166e+001 8.706610e+001 6.441371e+001 5.021839e+001 5.055513e+001 4.510481e+001 3.665091e+001 4.147812e+001 3.259291e+001 4.976567e+001 2.568295e+000 3.149747e+000 2.294173e+000 3.819175e+000 4.361108e+000 3.175274e+000 3.233013e+000 2.341116e+000 2.466522e+000 2.183864e+000 1.827108e+000 1.618734e+000 4.018466e+000 3.024999e-001 2.573208e-001 2.807186e-001 4.913289e-001 5.631030e-001 4.695185e-001 3.909466e-001 3.542290e-001 3.473077e-001 3.270770e-001 3.208270e-001 2.719603e-001 3.251625e-001
<GCONST> 1.215827e+002
<STATE> 4
<MEAN> 39
 -2.774194e+000 -1.085717e+001 -1.168844e+000 -1.190096e+001 -1.082346e+001 -2.923056e+000 -4.559490e-001 -5.953203e+000 3.637380e+000 -4.937917e+000 1.786019e+000 -5.727108e+000 6.739164e+001 -7.461870e-001 1.328198e+000 2.705447e-002 -8.505351e-001 1.212743e+000 -2.778451e-002 -4.631269e-001 1.279236e-001 -3.960010e-001 2.084664e-001 -1.097777e-001 1.079684e-002 -2.577727e-001 -1.637584e-001 1.500839e-001 -2.238970e-001 1.655707e-001 3.262659e-001 -1.723639e-001 2.320936e-002 8.054063e-002 -9.095425e-002 4.874169e-002 -3.765531e-002 9.629343e-002 -1.736109e-001
<VARIANCE> 39
 2.559982e+001 5.949424e+001 5.215047e+001 7.860155e+001 9.199220e+001 6.512936e+001 6.115234e+001 5.522084e+001 4.398581e+001 3.873735e+001 4.039021e+001 3.169045e+001 6.136964e+001 1.929555e+000 2.969876e+000 2.356511e+000 3.915990e+000 3.919437e+000 3.330902e+000 3.174004e+000 2.340965e+000 2.381249e+000 2.089229e+000 1.884256e+000 1.669479e+000 4.600453e+000 2.413136e-001 2.997405e-001 2.942172e-001 4.909126e-001 5.450304e-001 4.465725e-001 4.233546e-001 3.967396e-001 3.416241e-001 3.310213e-001 2.903202e-001 2.642673e-001 3.357979e-001
<GCONST> 1.220817e+002
<TRANSP> 5
 0.000000e+000 1.000000e+000 0.000000e+000 0.000000e+000 0.000000e+000
 0.000000e+000 6.163221e-001 3.836779e-001 0.000000e+000 0.000000e+000
 0.000000e+000 0.000000e+000 5.966730e-001 4.033270e-001 0.000000e+000
 0.000000e+000 0.000000e+000 0.000000e+000 5.636072e-001 4.363929e-001
 0.000000e+000 0.000000e+000 0.000000e+000 0.000000e+000 0.000000e+000
<ENDHMM>
~h "s"
<BEGINHMM>
<NUMSTATES> 5
<STATE> 2
<MEAN> 39
 -1.709749e+001 -4.076052e+000 -8.396977e+000 -4.923855e+000 -3.668788e+000 -1.924565e+000 -1.187342e-001 -4.580500e+000 1.725080e+000 -2.044216e+000 4.126969e-001 -3.309909e+000 5.795082e+001 -1.387319e+000 -1.569774e-001 -7.197737e-001 4.220497e-001 -7.405639e-002 2.735609e-001 -1.255100e-001 1.142136e-001 1.368863e-001 -9.480195e-002 1.247716e-002 5.752068e-002 -3.964369e-001 3.400040e-001 -4.400644e-002 1.270832e-001 -1.955690e-001 -4.562997e-002 -1.527412e-001 3.242492e-002 -5.157759e-002 -6.824909e-002 -7.158574e-003 -3.045194e-002 -2.915853e-002 1.495346e-001
<VARIANCE> 39
 3.352006e+001 2.170602e+001 2.308863e+001 2.498773e+001 2.863434e+001 2.567356e+001 2.631335e+001 2.760319e+001 2.687751e+001 3.209702e+001 2.457375e+001 2.279716e+001 3.834803e+001 2.500748e+000 1.674443e+000 1.489758e+000 1.504123e+000 1.320355e+000 1.528563e+000 1.591643e+000 1.771912e+000 1.544313e+000 1.536950e+000 1.263450e+000 1.076484e+000 2.131534e+000 2.880813e-001 2.545754e-001 2.441381e-001 2.324322e-001 2.238623e-001 2.420319e-001 2.435951e-001 2.744947e-001 2.467478e-001 2.517646e-001 1.992840e-001 1.799040e-001 3.259079e-001
<GCONST> 1.021241e+002
<STATE> 3
<MEAN> 39
 -1.877838e+001 -4.648337e+000 -9.580810e+000 -4.850001e+000 -3.992217e+000 -1.988047e+000 -1.789952e-001 -4.582223e+000 1.678866e+000 -2.212214e+000 3.297074e-001 -3.215856e+000 5.769110e+001 -6.266592e-002 -7.482498e-002 -2.176159e-002 -5.104164e-002 -8.693001e-002 -7.634036e-002 7.848481e-002 1.865637e-002 -5.269511e-002 -3.255701e-002 -1.046656e-002 -5.118239e-003 -1.340697e-001 4.306273e-001 3.402337e-002 2.224911e-001 -1.376787e-001 7.419217e-003 -1.273720e-001 3.953750e-002 -1.533477e-002 -6.096803e-002 -4.846829e-003 -7.570291e-003 -3.283438e-002 5.947614e-002
<VARIANCE> 39
 1.851366e+001 1.794698e+001 1.852567e+001 2.250737e+001 2.751144e+001 2.387509e+001 2.455862e+001 2.523698e+001 2.543265e+001 3.007243e+001 2.589178e+001 2.112956e+001 3.158683e+001 2.543447e+000 1.046890e+000 1.413890e+000 1.212685e+000 1.162969e+000 1.293900e+000 1.334654e+000 1.419582e+000 1.226292e+000 1.303934e+000 1.162530e+000 9.620838e-001 2.097799e+000 2.180963e-001 1.945820e-001 2.025708e-001 1.967576e-001 2.052477e-001 2.224905e-001 2.453779e-001 2.563135e-001 2.211567e-001 2.324340e-001 2.081069e-001 1.779821e-001 3.217105e-001
<GCONST> 9.708554e+001
<STATE> 4
<MEAN> 39
 -1.708410e+001 -4.555464e+000 -8.523548e+000 -5.498541e+000 -3.932001e+000 -2.496815e+000 3.403641e-001 -4.539856e+000 1.332716e+000 -2.290249e+000 3.613349e-001 -3.319762e+000 5.731696e+001 1.118456e+000 6.896393e-003 5.385069e-001 -4.097001e-001 -7.914139e-002 -4.600149e-001 1.239535e-001 -1.260471e-003 -1.755102e-001 -1.189865e-001 -2.415829e-002 -1.214363e-001 1.345756e-002 3.094061e-001 -1.489490e-002 1.097372e-001 -1.198345e-001 -7.640748e-003 -1.317358e-001 -2.442404e-002 -9.043971e-003 -2.923735e-002 -4.432043e-002 1.665463e-003 -5.202918e-002 1.247884e-001
<VARIANCE> 39
 3.135220e+001 2.086919e+001 2.316377e+001 2.849650e+001 3.157134e+001 2.916701e+001 2.818638e+001 2.959001e+001 2.804975e+001 3.541757e+001 2.975233e+001 2.414165e+001 5.035103e+001 2.862139e+000 1.375899e+000 1.661961e+000 1.725905e+000 1.602653e+000 1.656844e+000 1.694726e+000 1.821564e+000 1.390131e+000 1.491650e+000 1.498347e+000 1.141453e+000 4.426425e+000 2.792281e-001 1.998182e-001 2.300537e-001 2.286752e-001 2.455602e-001 2.547187e-001 2.790761e-001 2.649529e-001 2.358019e-001 2.588760e-001 2.439203e-001 2.063145e-001 4.734035e-001
<GCONST> 1.051430e+002
<TRANSP> 5
 0.000000e+000 1.000000e+000 0.000000e+000 0.000000e+000 0.000000e+000
 0.000000e+000 7.179466e-001 2.820534e-001 0.000000e+000 0.000000e+000
 0.000000e+000 0.000000e+000 6.809790e-001 3.190211e-001 0.000000e+000
 0.000000e+000 0.000000e+000 0.000000e+000 6.170816e-001 3.829184e-001
 0.000000e+000 0.000000e+000 0.000000e+000 0.000000e+000 0.000000e+000
<ENDHMM>
~h "t"
<BEGINHMM>
<NUMSTATES> 5
<STATE> 2
<MEAN> 39
 -1.295761e+001 -2.353910e+000 -3.756896e+000 -4.566625e+000 -1.331077e+000 -3.723787e+000 -3.046263e-002 -3.928669e+000 7.029758e-001 -3.605673e+000 5.998988e-001 -3.283479e+000 4.599227e+001 -8.924976e-001 -3.722245e-001 -2.705712e-001 3.446493e-001 3.055174e-001 2.735024e-001 1.908952e-001 3.518795e-001 2.314108e-001 4.572563e-002 1.307617e-001 2.125129e-001 -8.745322e-001 1.103217e-001 -1.590434e-001 -1.917660e-001 -3.623646e-001 -1.071151e-001 -5.073418e-002 1.278804e-002 -5.186465e-002 7.679471e-002 1.241396e-002 -1.438698e-002 -2.649643e-002 1.006752e+000
<VARIANCE> 39
 3.664748e+001 3.015787e+001 3.180849e+001 3.916438e+001 2.932575e+001 3.100694e+001 2.946275e+001 3.229808e+001 3.071825e+001 2.895856e+001 2.695437e+001 2.227065e+001 1.341633e+002 2.484074e+000 2.162855e+000 2.287985e+000 3.393635e+000 2.095575e+000 2.020257e+000 1.792116e+000 1.972243e+000 1.984361e+000 1.812435e+000 1.526726e+000 1.315281e+000 1.539629e+001 3.324848e-001 3.346582e-001 3.737706e-001 4.506745e-001 3.173964e-001 2.841448e-001 2.895612e-001 3.279985e-001 3.376704e-001 3.003638e-001 2.600573e-001 2.285945e-001 1.835524e+000
<GCONST> 1.154776e+002
<STATE> 3
<MEAN> 39
 -1.512968e+001 -4.220930e+000 -5.881250e+000 -5.948215e+000 -1.167266e+000 -3.374075e+000 3.486198e-001 -3.244027e+000 1.915529e+000 -3.289117e+000 1.015649e+000 -2.710382e+000 5.005262e+001 -1.794052e-001 -3.761756e-001 -4.180860e-001 -7.522405e-001 -1.729369e-001 9.466020e-002 1.385434e-001 -8.562037e-002 3.532260e-001 7.912728e-002 -2.556313e-002 5.275779e-002 2.010504e+000 3.300089e-001 5.510828e-002 1.034796e-001 -2.228121e-001 -1.109332e-001 -6.997364e-002 -2.747870e-002 -1.424423e-001 -5.879455e-002 -2.978167e-003 -5.251825e-002 -8.057957e-002 4.723941e-001
<VARIANCE> 39
 2.548415e+001 2.287346e+001 2.970087e+001 3.837361e+001 2.661127e+001 2.593258e+001 2.534321e+001 2.794987e+001 3.115274e+001 2.866260e+001 2.601658e+001 2.530081e+001 1.611828e+002 2.663852e+000 1.518466e+000 2.015189e+000 2.753398e+000 1.780188e+000 1.616647e+000 1.526072e+000 1.837876e+000 1.760973e+000 1.818827e+000 1.585376e+000 1.524299e+000 1.032437e+001 3.098469e-001 2.717351e-001 3.864867e-001 4.474451e-001 3.135740e-001 2.731321e-001 2.606277e-001 3.142984e-001 3.443802e-001 3.102112e-001 2.739792e-001 2.465077e-001 1.995992e+000
<GCONST> 1.127010e+002
<STATE> 4
<MEAN> 39
 -1.460075e+001 -4.756409e+000 -6.539685e+000 -8.940954e+000 -1.994472e+000 -3.241078e+000 6.321355e-001 -4.232825e+000 2.737350e+000 -3.149362e+000 5.786539e-001 -2.809726e+000 5.738074e+001 8.416947e-001 -1.371577e-001 1.422941e-001 -9.278854e-001 -3.711744e-001 -1.307306e-001 7.229434e-002 -4.524007e-001 4.429780e-003 4.743645e-002 -1.880258e-001 -2.051403e-001 2.058698e+000 3.259120e-001 4.416236e-002 1.677283e-001 7.304936e-002 -3.805931e-002 -1.047897e-001 -5.234751e-002 -3.921646e-002 -1.588458e-001 -2.933574e-002 -1.050231e-002 -9.876989e-002 -2.416425e-001
<VARIANCE> 39
 3.042124e+001 2.410396e+001 2.964439e+001 4.129323e+001 3.266652e+001 2.761093e+001 2.702282e+001 3.016842e+001 3.366826e+001 3.998055e+001 3.139962e+001 3.314129e+001 1.117845e+002 2.808086e+000 1.594181e+000 2.153963e+000 2.505777e+000 2.167139e+000 1.810903e+000 1.656020e+000 2.014135e+000 1.856490e+000 1.993380e+000 1.907813e+000 1.615977e+000 6.373758e+000 3.300934e-001 2.310898e-001 3.435936e-001 3.861723e-001 2.995984e-001 3.071487e-001 2.448229e-001 3.279125e-001 3.484409e-001 3.431891e-001 3.274727e-001 2.706016e-001 1.209214e+000
<GCONST> 1.139467e+002
<TRANSP> 5
 0.000000e+000 1.000000e+000 0.000000e+000 0.000000e+000 0.000000e+000
 0.000000e+000 6.918763e-001 3.081237e-001 0.000000e+000 0.000000e+000
 0.000000e+000 0.000000e+000 6.379142e-001 3.620857e-001 0.000000e+000
 0.000000e+000 0.000000e+000 0.000000e+000 5.898998e-001 4.101002e-001
 0.000000e+000 0.000000e+000 0.000000e+000 0.000000e+000 0.000000e+000
<ENDHMM>
~h "v"
<BEGINHMM>
<NUMSTATES> 5
<STATE> 2
<MEAN> 39
 -4.953055e+000 -5.849410e+000 -5.669658e+000 -7.877951e+000 -2.568640e+000 -7.103592e+000 2.057011e-002 -2.950406e+000 2.593583e-001 -3.085654e+000 7.823029e-001 -5.361201e+000 6.128163e+001 -2.299653e-001 1.929414e-001 1.123326e-001 4.595498e-001 1.826098e-001 1.857950e-003 -8.586221e-002 1.046526e-001 -3.065033e-002 -1.341733e-001 2.089568e-001 -2.108709e-002 -6.886211e-001 -2.816744e-002 -7.326378e-003 -6.696431e-002 -1.004420e-001 -1.183183e-002 2.665179e-002 5.519753e-002 -5.798070e-002 2.005763e-002 -2.566555e-002 -4.529636e-002 2.295024e-002 8.380187e-002
<VARIANCE> 39
 4.052691e+001 3.451684e+001 5.311739e+001 5.736285e+001 4.926679e+001 4.675926e+001 4.328835e+001 4.087789e+001 3.992859e+001 3.640362e+001 3.583121e+001 2.766356e+001 8.124680e+001 1.775189e+000 1.455718e+000 1.829347e+000 2.346553e+000 1.752306e+000 1.792446e+000 1.990710e+000 1.815437e+000 1.687527e+000 1.902186e+000 1.623462e+000 1.333503e+000 4.227566e+000 2.807779e-001 2.088318e-001 2.642970e-001 3.722462e-001 2.461500e-001 2.510878e-001 2.767181e-001 2.807525e-001 2.722100e-001 2.718230e-001 2.341975e-001 2.148901e-001 5.383472e-001
<GCONST> 1.122510e+002
<STATE> 3
<MEAN> 39
 -5.555880e+000 -5.597145e+000 -5.410365e+000 -7.229508e+000 -2.512182e+000 -6.954605e+000 1.695137e-001 -3.066951e+000 3.404045e-001 -3.419220e+000 1.140238e+000 -5.326924e+000 6.035407e+001 -2.265938e-001 1.206841e-001 -3.718295e-002 1.908004e-001 1.182749e-001 1.047952e-001 2.980888e-002 3.139615e-003 3.643830e-002 -1.249211e-001 4.740311e-002 -7.469397e-003 -4.098222e-001 3.613178e-002 -4.454429e-002 -1.066583e-001 -1.840225e-001 -4.667984e-002 4.218804e-002 5.581304e-002 -4.867592e-002 1.501616e-002 3.543411e-002 -7.950312e-002 1.033513e-002 2.026536e-001
<VARIANCE> 39
 4.372667e+001 3.309394e+001 5.347082e+001 5.470443e+001 4.908937e+001 4.710038e+001 3.856242e+001 3.691614e+001 3.753582e+001 3.575330e+001 3.487577e+001 2.974899e+001 7.663253e+001 1.870789e+000 1.424670e+000 1.857839e+000 2.452103e+000 1.849718e+000 1.643624e+000 1.848817e+000 1.517412e+000 1.633652e+000 1.804726e+000 1.493897e+000 1.384637e+000 5.035005e+000 2.713815e-001 2.022857e-001 2.837764e-001 3.490942e-001 2.691007e-001 2.521049e-001 2.599953e-001 2.493193e-001 2.728321e-001 2.734217e-001 2.434779e-001 2.266876e-001 5.168615e-001
<GCONST> 1.116991e+002
<STATE> 4
<MEAN> 39
 -5.999535e+000 -5.474225e+000 -5.544829e+000 -7.314696e+000 -2.597558e+000 -6.585954e+000 5.100941e-001 -3.211104e+000 6.400237e-001 -3.567952e+000 9.614038e-001 -5.361418e+000 6.017057e+001 -1.331601e-001 3.588135e-002 -2.227212e-001 -1.447891e-001 3.038011e-002 1.953012e-001 1.092986e-001 -5.477923e-002 4.719787e-002 -2.960640e-002 -1.103780e-001 -4.060321e-003 -3.173969e-002 5.892392e-002 -4.737378e-002 -8.524864e-002 -1.670451e-001 -4.887884e-002 3.827255e-003 2.407080e-002 -3.344035e-002 -3.564615e-003 5.834338e-002 -5.076729e-002 1.734019e-002 2.097005e-001
<VARIANCE> 39
 4.661803e+001 3.515296e+001 5.392271e+001 5.310320e+001 5.229807e+001 4.960888e+001 3.658490e+001 3.509612e+001 3.556195e+001 3.792589e+001 3.487502e+001 3.424781e+001 8.665253e+001 2.006069e+000 1.570657e+000 2.046400e+000 2.682335e+000 1.937930e+000 1.819163e+000 1.873344e+000 1.544000e+000 1.728388e+000 1.822852e+000 1.508264e+000 1.384758e+000 5.521667e+000 2.460060e-001 1.970508e-001 2.906078e-001 3.276457e-001 3.102346e-001 2.594881e-001 2.457340e-001 2.500086e-001 2.713268e-001 3.065570e-001 2.480363e-001 2.431533e-001 5.502683e-001
<GCONST> 1.129971e+002
<TRANSP> 5
 0.000000e+000 1.000000e+000 0.000000e+000 0.000000e+000 0.000000e+000
 0.000000e+000 4.302006e-001 5.697994e-001 0.000000e+000 0.000000e+000
 0.000000e+000 0.000000e+000 4.226120e-001 5.773880e-001 0.000000e+000
 0.000000e+000 0.000000e+000 0.000000e+000 4.134181e-001 5.865819e-001
 0.000000e+000 0.000000e+000 0.000000e+000 0.000000e+000 0.000000e+000
<ENDHMM>
~h "w"
<BEGINHMM>
<NUMSTATES> 5
<STATE> 2
<MEAN> 39
 -1.342318e+000 -5.381278e+000 -1.112194e+001 -8.392933e+000 -6.372905e-001 -6.713603e+000 -3.568973e+000 -4.855948e+000 3.070662e-001 -3.104323e+000 3.777612e+000 -5.069134e+000 5.776381e+001 1.679042e+000 4.354288e-002 -1.428576e+000 -4.160256e-001 5.208222e-001 -2.683392e-001 -3.854588e-001 -9.798140e-002 7.865202e-002 7.976729e-002 1.685103e-001 -1.681730e-001 5.001583e-001 -1.542302e-001 3.465239e-002 -2.893546e-002 -1.297289e-001 -4.310200e-002 2.726575e-002 7.905021e-002 4.742743e-002 3.258475e-002 2.504178e-003 -9.537726e-002 -1.703994e-002 2.627489e-001
<VARIANCE> 39
 8.908891e+001 4.498771e+001 7.270579e+001 5.374658e+001 4.204492e+001 4.488264e+001 6.186251e+001 3.672972e+001 4.039571e+001 4.317468e+001 4.767061e+001 3.125632e+001 6.287372e+001 3.419838e+000 2.618605e+000 3.192076e+000 3.086485e+000 2.760063e+000 2.880934e+000 2.829510e+000 2.004774e+000 2.153652e+000 1.836782e+000 1.965149e+000 1.765387e+000 3.721357e+000 3.964485e-001 4.575176e-001 4.903434e-001 5.086340e-001 4.518324e-001 4.750762e-001 4.336782e-001 3.276094e-001 3.642226e-001 3.107846e-001 3.199309e-001 3.006995e-001 3.115731e-001
<GCONST> 1.223770e+002
<STATE> 3
<MEAN> 39
 3.112006e+000 -5.688868e+000 -1.627393e+001 -1.079525e+001 8.306471e-001 -7.407314e+000 -4.116097e+000 -4.475708e+000 1.160957e+000 -2.984509e+000 3.424252e+000 -6.122586e+000 6.197332e+001 4.059313e-001 -4.639592e-001 -6.988395e-001 -1.894595e-001 -3.015730e-002 -2.660998e-001 2.147101e-001 3.683481e-001 2.590139e-001 -7.947193e-002 -2.947634e-001 -1.964755e-001 1.328663e+000 -3.872637e-001 -1.177974e-001 3.184792e-001 7.847448e-002 -1.590897e-001 6.645361e-002 2.176920e-001 6.643233e-002 -5.852683e-003 -6.966178e-002 -9.896144e-002 5.612440e-002 6.800858e-002
<VARIANCE> 39
 3.386890e+001 4.043795e+001 7.415195e+001 5.277242e+001 4.075656e+001 5.434261e+001 5.709871e+001 4.874066e+001 4.725437e+001 4.709844e+001 5.984073e+001 3.761625e+001 4.809250e+001 2.782637e+000 2.474262e+000 3.927112e+000 3.123930e+000 3.201113e+000 2.960812e+000 3.132422e+000 2.755316e+000 2.663184e+000 2.181571e+000 2.479243e+000 1.962170e+000 2.938216e+000 2.694547e-001 3.245001e-001 3.913102e-001 4.510335e-001 4.265394e-001 4.895394e-001 4.554852e-001 4.257175e-001 4.288457e-001 3.554105e-001 3.766284e-001 2.844260e-001 2.810048e-001
<GCONST> 1.226035e+002
<STATE> 4
<MEAN> 39
 1.687387e+000 -8.909024e+000 -1.594086e+001 -1.020712e+001 -6.997360e-001 -8.473251e+000 -1.504828e+000 -2.109515e+000 2.030840e+000 -4.212489e+000 1.220456e+000 -6.758775e+000 6.676176e+001 -6.411390e-001 -5.995601e-001 6.914904e-001 1.116377e-001 -5.968410e-001 8.629217e-002 7.691801e-001 2.756321e-001 -3.959538e-002 -2.639667e-001 -4.017358e-001 1.228672e-001 1.025311e+000 -1.848350e-001 1.371825e-001 2.555966e-001 -8.246779e-003 -2.796267e-003 1.831819e-001 3.096154e-002 -1.682812e-001 -1.005613e-001 2.902881e-002 3.402732e-002 9.606750e-002 -2.476116e-001
<VARIANCE> 39
 2.468220e+001 4.465557e+001 9.600561e+001 5.297649e+001 7.384724e+001 6.208583e+001 6.727873e+001 6.920847e+001 5.977116e+001 5.057756e+001 6.432196e+001 4.406626e+001 3.821480e+001 1.417879e+000 2.513571e+000 4.112656e+000 3.448449e+000 3.785151e+000 3.077143e+000 3.025856e+000 3.734934e+000 3.259085e+000 2.795123e+000 2.780318e+000 1.822793e+000 2.233676e+000 2.172519e-001 3.047559e-001 4.381883e-001 3.963152e-001 5.474027e-001 4.931772e-001 5.130693e-001 5.900812e-001 5.398793e-001 4.390860e-001 4.350273e-001 2.662621e-001 2.831313e-001
<GCONST> 1.253118e+002
<TRANSP> 5
 0.000000e+000 1.000000e+000 0.000000e+000 0.000000e+000 0.000000e+000
 0.000000e+000 7.367024e-001 2.632977e-001 0.000000e+000 0.000000e+000
 0.000000e+000 0.000000e+000 7.107047e-001 2.892953e-001 0.000000e+000
 0.000000e+000 0.000000e+000 0.000000e+000 7.259408e-001 2.740592e-001
 0.000000e+000 0.000000e+000 0.000000e+000 0.000000e+000 0.000000e+000
<ENDHMM>
~h "y"
<BEGINHMM>
<NUMSTATES> 5
<STATE> 2
<MEAN> 39
 -7.926383e+000 9.193020e+000 -3.705154e+000 -1.410834e+001 -9.655876e-001 -1.076127e+001 -4.706662e+000 -6.712410e+000 9.448690e-001 -5.124325e+000 1.839206e+000 -3.438128e+000 6.252088e+001 -3.265923e-002 8.550992e-001 1.408367e-001 -4.329615e-001 1.164762e-001 -4.124574e-001 -4.937578e-001 -9.331569e-002 2.728445e-002 -3.637570e-002 1.627208e-001 -2.620875e-002 9.435164e-002 5.629150e-002 -3.660400e-001 -5.550704e-002 2.974674e-002 -9.675604e-002 9.859274e-002 1.479591e-001 6.934682e-002 9.374540e-003 7.926305e-002 -2.415151e-002 -1.754133e-002 8.892822e-002
<VARIANCE> 39
 1.711148e+001 4.343941e+001 4.499368e+001 4.635582e+001 3.312960e+001 4.842346e+001 4.388978e+001 3.264040e+001 2.658528e+001 4.458823e+001 3.306860e+001 3.419412e+001 4.074973e+001 9.001333e-001 3.296156e+000 1.373906e+000 2.717982e+000 1.915819e+000 2.096503e+000 1.947124e+000 1.375674e+000 1.128456e+000 1.569787e+000 1.062075e+000 1.029938e+000 2.483114e+000 9.598865e-002 2.031510e-001 2.315365e-001 4.265187e-001 2.810251e-001 3.169196e-001 2.657615e-001 2.226653e-001 1.731333e-001 1.948396e-001 1.528621e-001 1.712620e-001 2.156748e-001
<GCONST> 1.046824e+002
<STATE> 3
<MEAN> 39
 -7.956358e+000 7.423358e+000 -2.615766e+000 -1.784193e+001 -1.632907e+000 -1.067453e+001 -5.315172e+000 -5.952718e+000 1.570727e+000 -4.156559e+000 2.084572e+000 -3.583239e+000 6.495701e+001 2.418940e-001 -9.570000e-001 3.798757e-001 -7.298795e-001 -5.308204e-001 4.595046e-001 -3.240583e-002 2.084381e-001 2.501916e-001 2.254234e-001 -2.219631e-002 -7.216301e-002 5.542576e-001 4.442608e-002 -2.720188e-001 -7.088840e-003 1.686705e-001 -1.254587e-001 1.662893e-001 1.482724e-001 4.158902e-004 1.168501e-002 1.999955e-002 -2.591319e-002 -1.617088e-002 -6.815822e-002
<VARIANCE> 39
 1.232481e+001 4.168005e+001 4.950595e+001 4.592248e+001 3.995974e+001 4.784151e+001 5.397855e+001 3.761669e+001 2.912047e+001 4.124613e+001 3.013150e+001 3.054474e+001 3.939453e+001 5.190703e-001 2.018957e+000 8.508633e-001 2.123065e+000 2.001967e+000 1.989715e+000 1.588548e+000 1.404072e+000 1.132481e+000 1.223728e+000 1.034303e+000 1.082889e+000 1.457328e+000 7.209510e-002 1.901477e-001 1.471265e-001 3.377669e-001 2.123948e-001 2.637519e-001 2.567317e-001 2.053991e-001 1.554415e-001 1.693197e-001 1.423660e-001 1.570092e-001 1.995105e-001
<GCONST> 9.988159e+001
<STATE> 4
<MEAN> 39
 -6.765311e+000 -1.974208e-001 -6.274065e-001 -2.054201e+001 -5.357471e+000 -5.706778e+000 -4.347950e+000 -4.852270e+000 2.909923e+000 -3.359077e+000 8.959294e-001 -4.215075e+000 6.772129e+001 5.155041e-001 -1.652082e+000 2.356436e-001 5.021130e-001 -1.016621e+000 9.437837e-001 5.974393e-001 -5.630370e-002 1.295620e-001 2.457522e-001 -1.051669e-001 -1.680396e-001 8.074480e-002 2.286149e-002 5.133965e-002 -1.428249e-001 4.277650e-001 9.554855e-002 -9.326521e-002 1.534820e-001 -6.854304e-002 -9.876101e-002 -3.760722e-002 3.350298e-002 -8.752687e-003 -2.548152e-001
<VARIANCE> 39
 1.381636e+001 5.836304e+001 4.176007e+001 4.127546e+001 6.592545e+001 5.912549e+001 5.524542e+001 4.136869e+001 3.281065e+001 3.564052e+001 3.351603e+001 3.818408e+001 3.710316e+001 5.316123e-001 1.736944e+000 9.776829e-001 2.857988e+000 2.158190e+000 2.415548e+000 2.196369e+000 1.741244e+000 1.555810e+000 1.479200e+000 1.398786e+000 1.570948e+000 1.519371e+000 7.357000e-002 1.937987e-001 1.499648e-001 2.779443e-001 2.813779e-001 3.293766e-001 3.028256e-001 2.439935e-001 1.808863e-001 2.085806e-001 1.943359e-001 2.122142e-001 1.756412e-001
<GCONST> 1.050194e+002
<TRANSP> 5
 0.000000e+000 1.000000e+000 0.000000e+000 0.000000e+000 0.000000e+000
 0.000000e+000 8.422120e-001 1.577881e-001 0.000000e+000 0.000000e+000
 0.000000e+000 0.000000e+000 7.721636e-001 2.278364e-001 0.000000e+000
 0.000000e+000 0.000000e+000 0.000000e+000 7.251332e-001 2.748668e-001
 0.000000e+000 0.000000e+000 0.000000e+000 0.000000e+000 0.000000e+000
<ENDHMM>
~h "z"
<BEGINHMM>
<NUMSTATES> 5
<STATE> 2
<MEAN> 39
 -9.745542e+000 -2.724509e-002 -4.639181e+000 -5.565516e+000 -6.397913e+000 -4.750257e+000 -1.135892e-001 -6.041238e+000 -5.515816e-002 9.649956e-001 5.626147e-001 -2.675599e+000 5.940080e+001 -1.431260e+000 -6.575887e-003 -5.682214e-001 8.257083e-001 1.809948e-001 7.090164e-001 1.093298e-001 2.504895e-001 5.262615e-002 8.232348e-003 6.244679e-002 3.885242e-002 -7.740043e-001 4.468122e-002 -1.803656e-001 -2.676272e-002 -1.875037e-001 2.055792e-002 -3.301212e-002 4.967183e-003 5.155693e-002 2.661658e-002 -1.269757e-001 -3.279507e-002 -5.221289e-002 1.372072e-001
<VARIANCE> 39
 5.182714e+001 2.873103e+001 3.337864e+001 4.044690e+001 4.014486e+001 4.188855e+001 3.049584e+001 3.673451e+001 4.515217e+001 4.718177e+001 2.759454e+001 2.491700e+001 4.317866e+001 2.778701e+000 2.077631e+000 1.855905e+000 2.236821e+000 1.871817e+000 2.458683e+000 1.676277e+000 1.908745e+000 1.760817e+000 1.584168e+000 1.180089e+000 1.272449e+000 2.049982e+000 5.036542e-001 2.625329e-001 2.452453e-001 3.349625e-001 2.886307e-001 3.793168e-001 2.310829e-001 2.918318e-001 2.911820e-001 2.713203e-001 1.937069e-001 1.965487e-001 2.717089e-001
<GCONST> 1.100782e+002
<STATE> 3
<MEAN> 39
 -1.349625e+001 -8.991548e-001 -6.322286e+000 -4.200647e+000 -5.544154e+000 -2.891985e+000 2.825256e-001 -5.167259e+000 4.762034e-001 1.101646e-001 5.739200e-001 -2.708113e+000 5.768411e+001 -7.612796e-001 -4.227517e-001 -3.786381e-001 1.600709e-001 1.015222e-001 3.097771e-001 1.252401e-001 2.591173e-001 6.553961e-002 -2.014129e-001 -6.898329e-002 -2.215512e-002 -3.260049e-001 3.980043e-001 -1.146305e-001 1.297857e-001 -2.818345e-001 -4.812505e-002 -2.235105e-001 1.304245e-003 -3.650376e-002 -1.092541e-002 -5.278358e-002 -3.665932e-002 -4.066489e-002 1.847733e-001
<VARIANCE> 39
 4.787309e+001 2.858137e+001 3.042288e+001 3.150575e+001 3.759225e+001 3.506517e+001 2.685974e+001 2.955011e+001 3.524712e+001 4.195956e+001 2.687901e+001 2.307097e+001 3.856152e+001 3.830239e+000 1.629694e+000 1.742741e+000 2.217320e+000 1.890406e+000 2.628106e+000 1.552201e+000 1.546110e+000 1.522249e+000 1.596094e+000 1.178240e+000 1.200661e+000 2.431129e+000 4.841961e-001 2.703482e-001 2.455000e-001 3.147580e-001 2.927854e-001 3.714296e-001 2.541750e-001 2.682701e-001 2.645397e-001 2.738303e-001 2.105845e-001 2.036621e-001 3.346526e-001
<GCONST> 1.084237e+002
<STATE> 4
<MEAN> 39
 -1.390495e+001 -2.290279e+000 -6.677744e+000 -4.740181e+000 -5.241286e+000 -3.102365e+000 6.206224e-001 -4.613195e+000 6.624394e-001 -6.630182e-001 2.939500e-001 -2.753528e+000 5.703297e+001 3.551298e-001 -5.411649e-001 1.962074e-002 -4.383212e-001 -4.737823e-004 -2.909672e-001 8.537065e-002 9.758081e-002 1.703800e-003 -2.528944e-001 -9.238828e-002 -1.118214e-001 -3.383097e-003 3.563255e-001 -2.782090e-003 1.148024e-001 -1.914475e-001 8.875139e-005 -1.645426e-001 -2.149152e-002 -6.476890e-002 -8.036382e-003 -2.160453e-002 9.360786e-003 -2.619143e-002 1.232222e-001
<VARIANCE> 39
 4.781386e+001 2.785251e+001 2.952615e+001 3.339939e+001 3.945411e+001 3.698001e+001 3.073812e+001 2.800601e+001 3.398849e+001 4.067545e+001 2.701096e+001 2.319727e+001 5.577213e+001 3.860307e+000 1.524182e+000 1.693510e+000 2.172853e+000 1.918487e+000 2.455020e+000 1.814613e+000 1.569878e+000 1.444201e+000 1.758117e+000 1.336422e+000 1.194124e+000 3.749110e+000 4.290809e-001 2.303398e-001 2.467023e-001 3.177173e-001 3.035411e-001 3.807205e-001 2.863284e-001 2.590833e-001 2.591968e-001 2.903060e-001 2.227218e-001 2.037703e-001 4.228016e-001
<GCONST> 1.097342e+002
<TRANSP> 5
 0.000000e+000 1.000000e+000 0.000000e+000 0.000000e+000 0.000000e+000
 0.000000e+000 6.339017e-001 3.660983e-001 0.000000e+000 0.000000e+000
 0.000000e+000 0.000000e+000 6.065630e-001 3.934370e-001 0.000000e+000
 0.000000e+000 0.000000e+000 0.000000e+000 5.797551e-001 4.202448e-001
 0.000000e+000 0.000000e+000 0.000000e+000 0.000000e+000 0.000000e+000
<ENDHMM>
~h "aa"
<BEGINHMM>
<NUMSTATES> 5
<STATE> 2
<MEAN> 39
 -1.584123e+000 -1.439240e+001 -1.695297e+001 -6.427812e+000 1.942231e+000 -5.557096e+000 1.666570e+000 -1.634879e+000 2.153995e-001 -5.680536e+000 -6.147664e-001 -5.115923e+000 6.947469e+001 3.152022e-001 -8.437510e-001 -6.730472e-001 4.405701e-001 4.521632e-001 1.892677e-003 1.149736e-001 2.352687e-001 -2.049051e-001 -4.017972e-001 7.258908e-003 1.188702e-001 9.208137e-001 -1.273289e-001 1.433760e-001 2.329682e-001 -1.142447e-002 -9.914162e-002 2.364936e-002 -3.477608e-002 -8.473913e-002 3.355916e-002 7.363072e-002 2.974682e-002 4.725455e-002 -2.186694e-001
<VARIANCE> 39
 2.767336e+001 3.988785e+001 6.979292e+001 4.839406e+001 6.100764e+001 4.159681e+001 4.962217e+001 6.647321e+001 5.706530e+001 4.894130e+001 4.084517e+001 3.436930e+001 6.403271e+001 1.613467e+000 1.734195e+000 3.046505e+000 1.898058e+000 2.406987e+000 1.806604e+000 1.893409e+000 2.104059e+000 2.427346e+000 2.423792e+000 1.842001e+000 1.486734e+000 2.322730e+000 2.051001e-001 1.759813e-001 2.617167e-001 2.393922e-001 3.150877e-001 2.572166e-001 2.637876e-001 3.147992e-001 3.081703e-001 3.139116e-001 2.748831e-001 2.219865e-001 2.747016e-001
<GCONST> 1.138309e+002
<STATE> 3
<MEAN> 39
 -1.250029e+000 -1.678462e+001 -1.681560e+001 -5.149968e+000 2.208575e+000 -5.255130e+000 2.153986e+000 -1.726337e+000 -2.251175e-001 -6.460176e+000 -1.714006e-001 -4.351995e+000 7.141393e+001 -6.608109e-003 -1.646721e-001 3.829669e-001 1.163702e-001 -3.124315e-001 1.071241e-001 1.698693e-001 -9.144560e-002 -4.134998e-002 -6.065411e-003 1.124238e-001 8.481494e-002 2.196620e-002 -6.744454e-002 2.226799e-001 2.176873e-001 -1.026139e-001 -1.614991e-001 2.947506e-002 -6.236945e-003 -8.697306e-002 6.308842e-002 1.138284e-001 -7.904450e-003 -3.239315e-002 -2.418622e-001
<VARIANCE> 39
 2.062034e+001 3.659194e+001 5.993570e+001 4.538923e+001 5.595627e+001 3.983719e+001 4.687199e+001 6.555289e+001 6.191593e+001 5.412811e+001 3.850546e+001 3.229873e+001 3.617638e+001 7.899885e-001 1.421817e+000 2.263708e+000 1.433645e+000 2.104137e+000 1.490275e+000 1.572927e+000 1.924591e+000 1.929649e+000 1.989454e+000 1.506014e+000 1.241554e+000 1.667746e+000 1.171886e-001 1.501723e-001 1.835072e-001 1.820787e-001 2.400504e-001 2.121133e-001 2.196452e-001 2.791378e-001 2.746060e-001 2.838301e-001 2.244303e-001 1.793769e-001 1.708325e-001
<GCONST> 1.060699e+002
<STATE> 4
<MEAN> 39
 -1.494155e+000 -1.640165e+001 -1.349960e+001 -5.509925e+000 -4.541041e-001 -4.493729e+000 3.224153e+000 -2.899806e+000 -4.571996e-002 -5.796004e+000 3.671614e-001 -4.404697e+000 6.989803e+001 -2.787657e-001 7.734486e-001 1.028357e+000 -2.328077e-001 -7.388920e-001 1.712048e-001 6.158798e-002 -3.274406e-001 2.123856e-001 3.436665e-001 2.512201e-002 -5.609014e-002 -9.510638e-001 -1.468119e-001 2.281008e-001 1.129402e-001 -4.781115e-002 -3.938090e-003 -2.101175e-002 -9.671030e-002 -2.798826e-002 4.813695e-002 5.560779e-002 -2.571790e-002 7.405446e-003 -2.406848e-001
<VARIANCE> 39
 2.320420e+001 4.461080e+001 6.846709e+001 4.423777e+001 6.533017e+001 4.339990e+001 4.908161e+001 6.660341e+001 5.868018e+001 5.372833e+001 3.771083e+001 2.965261e+001 4.986832e+001 1.347256e+000 2.136486e+000 2.173689e+000 1.715243e+000 2.116893e+000 1.845025e+000 1.901020e+000 2.263838e+000 2.149954e+000 2.176133e+000 1.502148e+000 1.236581e+000 2.834905e+000 1.667228e-001 2.052861e-001 2.567477e-001 2.230573e-001 3.117088e-001 2.557042e-001 2.623494e-001 3.212919e-001 2.858894e-001 2.995316e-001 2.284820e-001 1.801959e-001 2.790264e-001
<GCONST> 1.119001e+002
<TRANSP> 5
 0.000000e+000 1.000000e+000 0.000000e+000 0.000000e+000 0.000000e+000
 0.000000e+000 7.729493e-001 2.270507e-001 0.000000e+000 0.000000e+000
 0.000000e+000 0.000000e+000 7.621410e-001 2.378590e-001 0.000000e+000
 0.000000e+000 0.000000e+000 0.000000e+000 7.402446e-001 2.597555e-001
 0.000000e+000 0.000000e+000 0.000000e+000 0.000000e+000 0.000000e+000
<ENDHMM>
~h "ae"
<BEGINHMM>
<NUMSTATES> 5
<STATE> 2
<MEAN> 39
 -7.332042e+000 -1.223215e+001 -7.114608e+000 -1.557602e+001 7.834215e-001 9.665499e-001 4.224333e+000 -8.352584e+000 -4.779669e-001 -4.414533e+000 -2.209940e+000 -4.286761e+000 7.204507e+001 3.925810e-003 -3.396862e-001 -1.229979e-001 4.993326e-002 2.976110e-001 3.115242e-001 1.027241e-001 -3.254853e-001 -1.809827e-001 2.644771e-002 -7.586414e-002 8.007007e-002 5.066747e-001 2.590116e-002 9.807214e-002 6.086570e-002 1.417106e-001 -8.119567e-002 -1.519516e-001 -5.125371e-002 7.516225e-002 3.949446e-002 3.456965e-002 6.455956e-002 -8.642137e-005 -2.654056e-001
<VARIANCE> 39
 1.394914e+001 3.834883e+001 1.759606e+001 3.291529e+001 5.389322e+001 2.985569e+001 4.632511e+001 4.098821e+001 4.733059e+001 4.141145e+001 3.182203e+001 3.532241e+001 5.935399e+001 5.433631e-001 1.219522e+000 6.742088e-001 1.362691e+000 1.217101e+000 1.301900e+000 1.126892e+000 1.110224e+000 1.394305e+000 1.000457e+000 1.066666e+000 9.359666e-001 2.599529e+000 9.118234e-002 1.288342e-001 9.297080e-002 1.963582e-001 1.402134e-001 1.693221e-001 1.627290e-001 1.620017e-001 1.859905e-001 1.536335e-001 1.623343e-001 1.437880e-001 2.494128e-001
<GCONST> 9.489164e+001
<STATE> 3
<MEAN> 39
 -7.304526e+000 -1.216824e+001 -7.222003e+000 -1.418434e+001 3.089204e-001 1.035123e+000 4.559599e+000 -8.715747e+000 -9.637938e-001 -4.102846e+000 -2.038821e+000 -4.357170e+000 7.176314e+001 1.355584e-001 3.268867e-001 1.679174e-001 2.546219e-001 -2.403922e-001 -2.303555e-001 -7.870208e-002 1.050826e-001 5.849084e-002 9.799134e-002 6.994390e-002 -3.670120e-002 -7.647764e-001 -9.588282e-003 2.042822e-001 9.399775e-002 8.344757e-002 -6.730881e-002 -1.412451e-001 -1.208540e-001 1.102863e-001 6.399643e-002 6.143203e-003 5.933334e-002 -8.582943e-003 -3.639806e-001
<VARIANCE> 39
 1.580699e+001 3.761010e+001 1.878483e+001 3.718164e+001 5.125738e+001 3.031359e+001 5.021771e+001 4.025980e+001 4.989256e+001 4.196485e+001 3.230555e+001 3.046081e+001 8.397540e+001 7.524623e-001 1.901577e+000 7.667531e-001 1.523268e+000 1.290621e+000 1.395226e+000 1.525105e+000 1.359550e+000 1.654763e+000 1.150429e+000 1.132954e+000 9.290935e-001 3.531908e+000 1.365977e-001 1.959812e-001 1.103550e-001 2.204554e-001 1.694473e-001 2.006050e-001 2.194147e-001 2.004655e-001 2.359638e-001 1.762146e-001 1.707143e-001 1.468503e-001 3.114092e-001
<GCONST> 1.004558e+002
<STATE> 4
<MEAN> 39
 -7.221170e+000 -9.397241e+000 -5.908583e+000 -1.269177e+001 -1.065859e+000 -5.477945e-001 3.652476e+000 -7.636922e+000 -3.335746e-001 -3.678295e+000 -1.459247e+000 -4.675074e+000 6.544637e+001 -1.288070e-001 9.614944e-001 4.720421e-001 5.950711e-001 -2.727790e-001 -6.071590e-001 -6.385103e-001 4.734855e-001 2.287145e-001 5.334209e-002 3.063919e-001 -1.903826e-002 -1.948216e+000 -1.060557e-001 8.641440e-002 3.564752e-002 1.449016e-001 3.896125e-002 -8.323617e-002 -1.302721e-001 3.939639e-002 -1.007602e-002 -1.730956e-002 3.843777e-002 3.591207e-002 -2.022660e-001
<VARIANCE> 39
 2.268172e+001 4.721783e+001 2.515233e+001 5.448547e+001 4.907260e+001 3.759812e+001 5.262010e+001 4.504280e+001 5.107861e+001 4.750102e+001 3.380998e+001 2.992178e+001 1.824983e+002 1.907667e+000 2.621576e+000 1.262642e+000 2.507792e+000 1.922329e+000 1.935852e+000 2.428062e+000 2.128750e+000 2.127080e+000 1.602041e+000 1.641656e+000 1.187909e+000 5.015016e+000 2.661507e-001 3.491481e-001 1.907328e-001 3.820576e-001 2.688459e-001 2.941315e-001 3.222757e-001 3.153832e-001 3.331610e-001 2.668221e-001 2.291499e-001 1.786291e-001 7.415290e-001
<GCONST> 1.145791e+002
<TRANSP> 5
 0.000000e+000 1.000000e+000 0.000000e+000 0.000000e+000 0.000000e+000
 0.000000e+000 8.416951e-001 1.583049e-001 0.000000e+000 0.000000e+000
 0.000000e+000 0.000000e+000 7.319324e-001 2.680676e-001 0.000000e+000
 0.000000e+000 0.000000e+000 0.000000e+000 6.727296e-001 3.272704e-001
 0.000000e+000 0.000000e+000 0.000000e+000 0.000000e+000 0.000000e+000
<ENDHMM>
~h "ah"
<BEGINHMM>
<NUMSTATES> 5
<STATE> 2
<MEAN> 39
 -4.161551e+000 -9.584669e+000 -8.943866e+000 -7.435658e+000 -3.861772e+000 -7.361320e+000 4.413460e+000 -3.402295e+000 -8.053095e-001 -3.796794e+000 -1.122550e-001 -4.831512e+000 6.489412e+001 6.435403e-001 -2.652932e-001 -2.538324e-001 2.878307e-001 -2.699634e-002 -1.919254e-001 2.901163e-001 4.813058e-002 -2.676696e-001 -2.165633e-001 4.699345e-002 -1.096488e-001 5.521079e-001 -1.524729e-001 2.241903e-001 1.403042e-001 6.963208e-002 1.816703e-001 7.852916e-002 -2.778181e-001 -4.725895e-002 6.520602e-002 7.479656e-003 2.894951e-002 4.055438e-002 -4.233565e-001
<VARIANCE> 39
 3.779673e+001 3.657578e+001 4.953885e+001 4.225465e+001 4.649257e+001 5.620123e+001 5.616835e+001 7.868459e+001 5.169177e+001 5.138929e+001 3.364686e+001 3.002067e+001 9.561420e+001 2.725886e+000 2.272718e+000 3.077812e+000 2.385903e+000 2.518831e+000 2.816142e+000 3.295833e+000 3.220502e+000 2.583149e+000 2.557308e+000 1.602405e+000 1.499240e+000 6.147553e+000 3.631573e-001 3.003746e-001 4.185226e-001 3.403591e-001 4.367107e-001 4.473712e-001 4.825153e-001 5.346048e-001 4.491964e-001 4.309525e-001 2.760378e-001 2.403741e-001 9.006566e-001
<GCONST> 1.232879e+002
<STATE> 3
<MEAN> 39
 -3.162432e+000 -9.824850e+000 -9.366982e+000 -6.629733e+000 -3.443084e+000 -7.552065e+000 4.190269e+000 -3.442506e+000 -9.780525e-001 -4.304233e+000 1.991275e-001 -4.935662e+000 6.566437e+001 2.368717e-001 3.385932e-001 1.958285e-001 2.932245e-001 2.548168e-001 -1.097079e-002 -3.714479e-001 -9.712227e-002 -2.332080e-002 -6.819044e-002 1.046146e-001 -3.664348e-002 -4.411016e-001 -2.151167e-001 2.508050e-001 1.783064e-001 -4.433210e-003 1.460671e-001 8.436024e-002 -2.738993e-001 -6.214985e-002 8.619395e-002 4.830913e-002 4.631000e-003 4.188076e-002 -4.791679e-001
<VARIANCE> 39
 3.190597e+001 3.987071e+001 5.186192e+001 3.919282e+001 4.442556e+001 5.142921e+001 5.820865e+001 8.581560e+001 5.164684e+001 4.963136e+001 3.430092e+001 3.044262e+001 8.826139e+001 2.606353e+000 2.287814e+000 3.142686e+000 2.266935e+000 2.449182e+000 2.763172e+000 3.172353e+000 3.241417e+000 2.641382e+000 2.541090e+000 1.610323e+000 1.405491e+000 5.981801e+000 3.672581e-001 3.149063e-001 4.474968e-001 3.440332e-001 4.148404e-001 4.383901e-001 4.672387e-001 5.737669e-001 4.273460e-001 3.991963e-001 2.807429e-001 2.365937e-001 7.884601e-001
<GCONST> 1.227074e+002
<STATE> 4
<MEAN> 39
 -2.935855e+000 -8.409330e+000 -8.464169e+000 -6.076516e+000 -2.698364e+000 -7.310872e+000 2.650787e+000 -3.827936e+000 -6.342418e-001 -4.244156e+000 4.722817e-001 -4.995516e+000 6.372402e+001 -2.004933e-001 8.137236e-001 5.573453e-001 1.860767e-001 4.233711e-001 1.004482e-001 -7.936491e-001 -2.241358e-001 1.180154e-001 4.667436e-002 8.227643e-002 3.126888e-002 -1.300073e+000 -2.237024e-001 9.235338e-002 5.454815e-002 -4.456377e-002 5.218418e-002 4.766446e-002 -9.536487e-002 -2.953166e-002 3.092234e-002 2.238874e-002 -2.291655e-002 4.160066e-002 -2.360237e-001
<VARIANCE> 39
 3.471634e+001 4.596721e+001 6.048056e+001 4.091311e+001 4.385088e+001 4.963425e+001 6.028019e+001 7.691212e+001 5.067347e+001 4.921806e+001 3.357602e+001 2.924909e+001 9.055170e+001 2.771620e+000 2.186051e+000 3.185501e+000 2.335965e+000 2.517595e+000 2.811263e+000 2.875957e+000 3.480031e+000 2.639585e+000 2.345141e+000 1.696075e+000 1.340196e+000 5.836584e+000 3.309774e-001 3.378837e-001 4.642521e-001 3.480087e-001 3.731441e-001 4.099047e-001 4.584525e-001 5.184084e-001 3.928969e-001 3.705217e-001 2.673590e-001 2.228534e-001 7.690903e-001
<GCONST> 1.223495e+002
<TRANSP> 5
 0.000000e+000 1.000000e+000 0.000000e+000 0.000000e+000 0.000000e+000
 0.000000e+000 4.940519e-001 5.059481e-001 0.000000e+000 0.000000e+000
 0.000000e+000 0.000000e+000 4.801975e-001 5.198025e-001 0.000000e+000
 0.000000e+000 0.000000e+000 0.000000e+000 4.630285e-001 5.369714e-001
 0.000000e+000 0.000000e+000 0.000000e+000 0.000000e+000 0.000000e+000
<ENDHMM>
~h "aw"
<BEGINHMM>
<NUMSTATES> 5
<STATE> 2
<MEAN> 39
 -5.135469e+000 -1.757104e+001 -1.131801e+001 -3.780436e+000 -1.208464e-001 -3.957800e+000 5.011880e+000 -6.156183e+000 -2.854551e+000 -6.377274e+000 -4.483304e-001 -5.096538e+000 7.282810e+001 2.119923e-001 -5.421529e-001 -4.253674e-001 6.970579e-001 6.100932e-002 -3.546298e-001 2.301603e-001 1.481177e-001 -1.165615e-001 -3.332208e-001 2.052126e-001 3.350610e-002 5.113459e-001 1.839629e-002 2.315939e-001 5.726569e-002 -9.810100e-002 -2.493668e-002 -6.667084e-002 -1.101774e-001 8.933293e-002 1.218457e-001 4.072065e-002 -1.083263e-002 1.687407e-004 -2.686476e-001
<VARIANCE> 39
 2.365855e+001 2.189944e+001 5.350606e+001 4.438302e+001 2.722456e+001 3.529742e+001 3.032010e+001 7.379446e+001 5.073291e+001 5.195175e+001 3.105760e+001 2.321312e+001 4.173661e+001 1.164981e+000 1.169453e+000 1.501492e+000 1.384205e+000 1.078051e+000 1.363081e+000 1.243187e+000 1.592686e+000 1.866370e+000 1.830476e+000 1.305243e+000 9.467339e-001 1.933230e+000 1.414668e-001 1.216807e-001 1.962812e-001 1.521002e-001 1.253861e-001 1.990226e-001 1.853676e-001 2.138254e-001 2.399131e-001 2.555196e-001 2.086941e-001 1.341605e-001 1.827492e-001
<GCONST> 1.001188e+002
<STATE> 3
<MEAN> 39
 -3.327878e+000 -1.737440e+001 -1.309249e+001 -2.135477e+000 -2.963862e-001 -5.842097e+000 4.913196e+000 -4.399291e+000 -1.489877e+000 -7.403706e+000 8.140272e-002 -4.696353e+000 7.198543e+001 4.429652e-001 4.684570e-001 -6.517083e-002 -9.984954e-002 -9.611598e-002 -3.890276e-001 -2.062435e-001 3.499455e-001 3.417266e-001 -2.016481e-001 -6.110243e-002 -7.987623e-003 -6.477457e-001 -3.328830e-002 2.220576e-001 2.013532e-001 -1.789968e-001 -3.141319e-002 1.174517e-002 -7.564843e-002 -4.394503e-002 1.951518e-002 9.261160e-002 -2.833444e-002 -7.738749e-003 -2.290707e-001
<VARIANCE> 39
 2.146461e+001 2.106900e+001 4.365636e+001 4.204960e+001 3.242533e+001 3.189236e+001 3.775957e+001 6.938460e+001 4.893309e+001 5.309075e+001 2.395773e+001 2.757705e+001 3.108000e+001 7.293670e-001 1.036871e+000 1.806068e+000 1.411833e+000 1.005241e+000 1.229455e+000 1.418566e+000 1.443493e+000 1.962841e+000 1.496376e+000 9.779831e-001 8.864496e-001 1.263584e+000 1.267617e-001 1.139047e-001 2.385019e-001 1.549269e-001 1.351123e-001 1.825838e-001 2.073330e-001 2.111731e-001 2.576140e-001 2.279932e-001 1.544090e-001 1.375388e-001 1.224203e-001
<GCONST> 9.751115e+001
<STATE> 4
<MEAN> 39
 -1.504233e+000 -1.361202e+001 -1.187649e+001 -4.532292e+000 -9.674681e-001 -7.402407e+000 3.354376e+000 -3.309376e+000 5.070788e-001 -6.985025e+000 -1.656746e-001 -4.830650e+000 6.721140e+001 -7.290214e-002 1.382740e+000 1.101225e+000 -7.341165e-001 -2.599724e-001 -1.609950e-001 -4.208559e-001 -9.765214e-002 8.828746e-002 3.549401e-001 -9.208209e-002 4.636808e-002 -1.547919e+000 -2.316795e-001 1.670674e-001 2.167315e-001 -3.880251e-002 1.418871e-002 8.965969e-002 -6.302308e-002 -1.069146e-001 -1.040822e-001 1.183986e-001 -3.809672e-003 2.412771e-002 -1.511771e-001
<VARIANCE> 39
 2.258235e+001 3.185621e+001 5.093991e+001 4.426352e+001 3.562103e+001 4.309911e+001 5.593996e+001 5.934452e+001 5.021470e+001 5.699525e+001 2.255650e+001 2.938243e+001 5.805386e+001 1.512070e+000 1.819908e+000 2.558109e+000 2.042272e+000 1.578933e+000 2.218718e+000 2.034147e+000 1.901078e+000 2.713030e+000 1.696792e+000 1.225295e+000 1.403541e+000 2.104246e+000 2.128671e-001 2.091089e-001 3.101729e-001 2.897713e-001 2.335802e-001 3.070214e-001 2.975823e-001 2.992363e-001 3.623189e-001 2.398298e-001 1.802560e-001 2.134094e-001 2.429463e-001
<GCONST> 1.103315e+002
<TRANSP> 5
 0.000000e+000 1.000000e+000 0.000000e+000 0.000000e+000 0.000000e+000
 0.000000e+000 8.530353e-001 1.469647e-001 0.000000e+000 0.000000e+000
 0.000000e+000 0.000000e+000 8.023622e-001 1.976378e-001 0.000000e+000
 0.000000e+000 0.000000e+000 0.000000e+000 7.294950e-001 2.705050e-001
 0.000000e+000 0.000000e+000 0.000000e+000 0.000000e+000 0.000000e+000
<ENDHMM>
~h "ay"
<BEGINHMM>
<NUMSTATES> 5
<STATE> 2
<MEAN> 39
 -5.546053e+000 -1.516090e+001 -1.008698e+001 -5.780823e+000 -7.620159e-001 -3.554845e+000 5.317709e+000 -6.302227e+000 -2.780547e+000 -3.747671e+000 6.924275e-001 -3.871058e+000 6.989532e+001 -2.133190e-001 -2.774879e-001 2.702523e-001 -1.798936e-001 3.829177e-002 3.962852e-001 1.535167e-001 -4.130867e-001 -1.750930e-001 2.006549e-001 -4.532480e-003 -6.553567e-003 5.920275e-001 -2.900067e-002 2.609861e-001 1.116427e-001 -1.813070e-001 1.264202e-002 -5.423410e-002 -1.821984e-001 8.657515e-002 1.778436e-001 5.283442e-003 -5.092548e-002 -7.141009e-003 -2.394119e-001
<VARIANCE> 39
 2.277191e+001 4.627385e+001 3.292895e+001 5.616710e+001 3.409703e+001 3.851801e+001 4.541706e+001 6.085201e+001 5.156707e+001 3.470918e+001 3.079067e+001 2.675830e+001 9.594511e+001 1.365524e+000 2.736336e+000 2.072554e+000 3.528586e+000 1.707103e+000 2.268795e+000 2.024359e+000 2.134347e+000 2.526084e+000 1.677489e+000 1.534403e+000 1.097980e+000 3.348480e+000 1.652176e-001 2.693525e-001 2.466521e-001 3.611378e-001 2.079719e-001 3.388391e-001 3.143706e-001 3.559073e-001 3.639756e-001 2.563098e-001 2.376509e-001 1.926026e-001 3.158946e-001
<GCONST> 1.123500e+002
<STATE> 3
<MEAN> 39
 -6.173972e+000 -1.502102e+001 -8.722292e+000 -8.053931e+000 -3.611377e-001 -2.417559e+000 4.917652e+000 -6.872030e+000 -2.199321e+000 -3.384592e+000 3.295311e-001 -3.880986e+000 7.146668e+001 -2.158826e-001 5.603998e-001 4.226929e-001 -7.822915e-001 -1.576945e-002 2.724680e-001 -2.169080e-001 -4.763284e-002 2.634633e-001 1.175927e-001 -1.310254e-001 -2.394304e-002 -1.300290e-001 2.996656e-002 1.895369e-001 7.617889e-003 -5.304950e-002 -2.236947e-002 -7.370749e-002 -1.087558e-001 1.049752e-001 8.435246e-002 -2.650870e-002 -2.628702e-003 -2.302393e-003 -2.214417e-001
<VARIANCE> 39
 1.816488e+001 5.085998e+001 2.580225e+001 6.501855e+001 3.216937e+001 3.595116e+001 3.830061e+001 4.739458e+001 6.296328e+001 2.924897e+001 3.186369e+001 2.378378e+001 7.397842e+001 7.050432e-001 2.186027e+000 1.307214e+000 2.860407e+000 1.410112e+000 2.014513e+000 1.802264e+000 1.771504e+000 2.039331e+000 1.411887e+000 1.333422e+000 9.261280e-001 2.264167e+000 1.052913e-001 2.065092e-001 1.530889e-001 3.524159e-001 1.662664e-001 2.937707e-001 2.385779e-001 2.596726e-001 2.953441e-001 1.962753e-001 2.071024e-001 1.490865e-001 2.137113e-001
<GCONST> 1.045655e+002
<STATE> 4
<MEAN> 39
 -6.431400e+000 -1.199485e+001 -7.173343e+000 -1.233163e+001 -7.244402e-001 -8.873785e-001 3.671730e+000 -6.663367e+000 -4.637839e-001 -3.314816e+000 -4.879889e-001 -3.812221e+000 7.031873e+001 -3.382717e-002 9.565442e-001 3.556445e-001 -5.668261e-001 -1.818740e-001 -5.689378e-002 -3.257056e-001 2.252451e-001 3.229854e-001 5.423323e-002 -8.269676e-002 -4.680134e-002 -8.676220e-001 3.077934e-002 2.915988e-002 -6.231471e-003 2.025614e-001 -1.400713e-002 -1.356417e-001 -3.210369e-002 4.919020e-002 -3.180964e-002 -3.831444e-003 5.208698e-002 -1.979941e-004 -2.071337e-001
<VARIANCE> 39
 1.678824e+001 6.274032e+001 2.439142e+001 6.730155e+001 3.929496e+001 3.756387e+001 3.678692e+001 4.099079e+001 6.635755e+001 2.834263e+001 3.482997e+001 2.450741e+001 7.554526e+001 7.120922e-001 1.897341e+000 1.226028e+000 3.200753e+000 1.414830e+000 2.044521e+000 1.753180e+000 1.633101e+000 2.071457e+000 1.359815e+000 1.439243e+000 8.881878e-001 2.150280e+000 1.158533e-001 2.074352e-001 1.522664e-001 3.626985e-001 1.931037e-001 2.942247e-001 2.221230e-001 2.365190e-001 2.758267e-001 1.880973e-001 2.192337e-001 1.405803e-001 2.268020e-001
<GCONST> 1.047375e+002
<TRANSP> 5
 0.000000e+000 1.000000e+000 0.000000e+000 0.000000e+000 0.000000e+000
 0.000000e+000 6.880762e-001 3.119238e-001 0.000000e+000 0.000000e+000
 0.000000e+000 0.000000e+000 7.230866e-001 2.769134e-001 0.000000e+000
 0.000000e+000 0.000000e+000 0.000000e+000 7.761164e-001 2.238836e-001
 0.000000e+000 0.000000e+000 0.000000e+000 0.000000e+000 0.000000e+000
<ENDHMM>
~h "ch"
<BEGINHMM>
<NUMSTATES> 5
<STATE> 2
<MEAN> 39
 -1.752598e+001 1.379285e+000 -5.768349e+000 -5.503457e+000 -3.795516e-001 -4.768469e+000 -3.244353e-001 -5.189773e+000 1.713667e+000 -4.809301e+000 2.815030e-001 -3.285644e+000 5.271502e+001 -1.818372e+000 2.451475e-002 -7.648212e-001 4.482621e-001 4.463924e-001 4.381765e-002 3.261382e-001 4.238293e-001 3.723224e-001 1.780417e-001 3.719194e-001 1.727784e-001 -6.500681e-002 1.811092e-001 -1.438059e-001 -2.319692e-002 -3.651687e-001 -1.170648e-001 -2.035444e-002 8.547192e-003 -3.887071e-002 4.085111e-004 8.239046e-002 -4.439006e-002 -4.041629e-002 6.871791e-001
<VARIANCE> 39
 6.722134e+001 3.519967e+001 3.973262e+001 4.710380e+001 2.596891e+001 2.471757e+001 2.871672e+001 2.679420e+001 3.015976e+001 3.177476e+001 2.907893e+001 2.255518e+001 1.009482e+002 3.722401e+000 2.845434e+000 2.318053e+000 3.810195e+000 1.899906e+000 1.428654e+000 1.819174e+000 1.665489e+000 1.839969e+000 1.818640e+000 1.826912e+000 1.385873e+000 1.003289e+001 5.703956e-001 4.533817e-001 4.802417e-001 4.672781e-001 3.009267e-001 2.521498e-001 3.050694e-001 3.005919e-001 3.200041e-001 3.095970e-001 2.990732e-001 2.239626e-001 1.382888e+000
<GCONST> 1.166391e+002
<STATE> 3
<MEAN> 39
 -2.232632e+001 8.352059e-001 -8.598195e+000 -7.010279e+000 5.263057e-001 -4.710036e+000 8.538744e-001 -4.162977e+000 2.780878e+000 -3.340880e+000 9.278586e-001 -2.691279e+000 5.834587e+001 1.433576e-001 -1.592712e-001 1.397150e-001 -7.932671e-001 -1.293448e-001 -7.499495e-002 -6.203676e-003 -4.803013e-002 7.671948e-002 1.781628e-001 -5.215424e-002 -6.158264e-002 1.192122e+000 5.802103e-001 -9.705612e-002 2.599488e-001 -1.326881e-001 -1.987740e-001 -1.981609e-002 -8.364846e-002 -1.006050e-001 -8.723713e-002 -5.475346e-002 -5.291249e-002 -9.195951e-002 -3.121578e-003
<VARIANCE> 39
 3.839822e+001 2.812340e+001 3.217128e+001 3.710933e+001 2.435287e+001 2.252987e+001 2.094293e+001 2.129225e+001 2.414869e+001 3.097015e+001 2.554220e+001 2.079499e+001 6.117594e+001 5.059396e+000 1.916275e+000 2.478630e+000 2.371256e+000 1.845554e+000 1.233308e+000 1.353167e+000 1.355460e+000 1.577909e+000 1.577767e+000 1.802884e+000 1.158778e+000 4.041177e+000 4.392361e-001 3.551661e-001 3.764082e-001 3.895843e-001 2.906041e-001 2.301198e-001 2.627491e-001 2.368768e-001 2.737352e-001 2.669555e-001 2.939675e-001 2.009168e-001 7.426327e-001
<GCONST> 1.086753e+002
<STATE> 4
<MEAN> 39
 -1.835819e+001 -1.151540e-001 -6.361189e+000 -1.061431e+001 -6.706547e-001 -5.131979e+000 2.513937e-001 -5.064169e+000 2.333954e+000 -3.354856e+000 1.012240e-001 -3.776783e+000 6.198923e+001 1.860739e+000 -6.257580e-001 6.862596e-001 -7.855636e-001 -8.274075e-001 -1.297945e-001 -2.544327e-001 -2.803995e-001 -1.300040e-001 -1.738031e-001 -6.304257e-002 -4.613434e-001 9.008343e-001 2.171777e-001 -1.061374e-001 -6.486496e-002 1.772712e-001 -1.193855e-001 -1.162168e-002 -2.088078e-002 1.619695e-002 5.510627e-003 -1.031714e-001 6.675380e-002 -3.360629e-002 -5.187821e-002
<VARIANCE> 39
 6.560244e+001 2.987733e+001 3.917637e+001 4.333930e+001 3.527557e+001 2.695547e+001 2.700503e+001 2.669063e+001 2.716349e+001 3.936492e+001 3.444093e+001 2.670403e+001 4.553280e+001 3.745973e+000 1.794847e+000 2.130211e+000 2.508332e+000 2.239348e+000 1.931862e+000 1.781101e+000 1.867898e+000 1.705471e+000 2.052353e+000 2.283615e+000 1.304106e+000 2.678458e+000 5.200086e-001 2.388162e-001 3.890037e-001 3.445998e-001 3.343516e-001 2.627804e-001 2.680604e-001 2.833871e-001 2.502766e-001 3.192050e-001 3.031432e-001 2.164769e-001 3.651403e-001
<GCONST> 1.119641e+002
<TRANSP> 5
 0.000000e+000 1.000000e+000 0.000000e+000 0.000000e+000 0.000000e+000
 0.000000e+000 7.912484e-001 2.087515e-001 0.000000e+000 0.000000e+000
 0.000000e+000 0.000000e+000 7.361715e-001 2.638285e-001 0.000000e+000
 0.000000e+000 0.000000e+000 0.000000e+000 7.037869e-001 2.962131e-001
 0.000000e+000 0.000000e+000 0.000000e+000 0.000000e+000 0.000000e+000
<ENDHMM>
~h "dh"
<BEGINHMM>
<NUMSTATES> 5
<STATE> 2
<MEAN> 39
 -1.019557e+001 -4.784104e+000 -3.727552e+000 -5.716627e+000 -1.759478e+000 -5.068278e+000 1.691993e+000 -4.273187e+000 1.388055e-001 -2.220751e+000 1.232361e+000 -3.553096e+000 4.755374e+001 1.822516e-001 -1.872259e-001 -2.319515e-001 -2.878366e-001 -2.612379e-001 4.941034e-002 1.666746e-001 2.810407e-002 2.408697e-002 1.019101e-001 -3.853615e-002 -3.468680e-002 1.027119e+000 1.935319e-001 -3.294664e-002 -7.364149e-002 -3.263139e-001 -1.623110e-001 -1.161309e-002 2.900554e-002 -3.949040e-002 7.795085e-002 3.693474e-002 -8.550601e-002 -2.626628e-002 7.459838e-001
<VARIANCE> 39
 3.846135e+001 2.274412e+001 2.528362e+001 2.694861e+001 2.474179e+001 3.282771e+001 3.024931e+001 3.148303e+001 3.857580e+001 3.201966e+001 2.201673e+001 2.011620e+001 1.211402e+002 1.664332e+000 1.262691e+000 1.261868e+000 2.194259e+000 1.493858e+000 1.270018e+000 1.339531e+000 1.569123e+000 1.865517e+000 1.710277e+000 1.158936e+000 8.935396e-001 8.330173e+000 2.277874e-001 2.445589e-001 2.346072e-001 3.028387e-001 2.593664e-001 2.629508e-001 2.348553e-001 2.817476e-001 3.064642e-001 2.797082e-001 2.121896e-001 1.724243e-001 8.613918e-001
<GCONST> 1.061557e+002
<STATE> 3
<MEAN> 39
 -8.120335e+000 -5.500574e+000 -4.371113e+000 -7.740454e+000 -3.141291e+000 -5.625567e+000 1.899971e+000 -4.374708e+000 2.295695e-001 -1.492101e+000 8.304350e-001 -3.640995e+000 5.421550e+001 7.890795e-001 -2.517096e-001 -2.873577e-001 -1.178391e+000 -8.030947e-001 -4.536081e-002 2.616342e-001 -1.382516e-001 1.704052e-001 2.912341e-001 -3.566058e-001 -1.266440e-001 2.982841e+000 9.835569e-002 -6.478377e-003 -1.539813e-002 -1.914153e-001 -8.387365e-002 -8.531892e-003 -3.468805e-003 -4.865733e-002 5.894811e-003 -2.121196e-002 -7.662214e-002 -2.486165e-002 2.799946e-001
<VARIANCE> 39
 3.846128e+001 2.422374e+001 2.639720e+001 3.287485e+001 3.007367e+001 3.558173e+001 3.275754e+001 3.884139e+001 5.056249e+001 3.806355e+001 2.427877e+001 2.198230e+001 1.085815e+002 1.841879e+000 1.333618e+000 1.341145e+000 2.314090e+000 1.755567e+000 1.744656e+000 1.853244e+000 2.073005e+000 2.252126e+000 2.213881e+000 1.453506e+000 1.278545e+000 6.920055e+000 2.624623e-001 2.435841e-001 2.276612e-001 3.424181e-001 2.688506e-001 2.675759e-001 2.872284e-001 2.919387e-001 3.490391e-001 2.737100e-001 2.227076e-001 1.828485e-001 9.691765e-001
<GCONST> 1.105986e+002
<STATE> 4
<MEAN> 39
 -5.603867e+000 -5.884745e+000 -4.601467e+000 -1.092164e+001 -5.690629e+000 -5.833424e+000 2.547061e+000 -4.748810e+000 1.571941e-001 -7.253255e-001 -4.481376e-001 -4.392766e+000 6.152295e+001 7.131367e-001 -2.317525e-001 -2.481785e-001 -1.273018e+000 -7.260643e-001 4.301626e-002 2.025032e-001 -2.210784e-001 1.411757e-001 1.553411e-001 -4.169878e-001 -9.556533e-002 2.752855e+000 -1.296223e-001 9.076638e-002 5.315645e-002 1.693895e-001 2.380247e-001 7.290792e-002 -1.103426e-001 -2.775220e-003 -1.716051e-002 -1.269961e-001 6.204099e-002 5.781198e-002 -4.888377e-001
<VARIANCE> 39
 2.848848e+001 2.609438e+001 2.525005e+001 4.062199e+001 3.806472e+001 4.251712e+001 3.821672e+001 5.135198e+001 6.291276e+001 5.694946e+001 3.110106e+001 2.742110e+001 8.210299e+001 1.896246e+000 1.686398e+000 1.488339e+000 2.558154e+000 2.009744e+000 2.312452e+000 2.302782e+000 2.150357e+000 2.481715e+000 2.110187e+000 1.617127e+000 1.460667e+000 6.080243e+000 2.479534e-001 2.189507e-001 2.071487e-001 3.578928e-001 2.896982e-001 2.792481e-001 2.995204e-001 2.859059e-001 3.551403e-001 3.280025e-001 2.389115e-001 1.942529e-001 8.971460e-001
<GCONST> 1.136727e+002
<TRANSP> 5
 0.000000e+000 1.000000e+000 0.000000e+000 0.000000e+000 0.000000e+000
 0.000000e+000 6.174802e-001 3.825198e-001 0.000000e+000 0.000000e+000
 0.000000e+000 0.000000e+000 4.801712e-001 5.198289e-001 0.000000e+000
 0.000000e+000 0.000000e+000 0.000000e+000 4.513096e-001 5.486904e-001
 0.000000e+000 0.000000e+000 0.000000e+000 0.000000e+000 0.000000e+000
<ENDHMM>
~h "dx"
<BEGINHMM>
<NUMSTATES> 5
<STATE> 2
<MEAN> 39
 -4.459883e+000 -8.357738e+000 -4.400463e+000 -1.311779e+001 -5.113095e+000 -7.950052e+000 3.895857e+000 -5.092530e+000 -1.784612e-001 -1.707726e+000 -3.179099e-001 -4.049660e+000 6.856003e+001 5.002124e-002 1.704950e-001 4.821417e-001 -1.765420e-001 -4.318412e-001 -5.978752e-002 2.489735e-001 -4.411944e-001 2.365964e-001 3.280334e-001 -1.209550e-001 4.205604e-002 -2.845833e-001 1.945092e-002 -2.739516e-002 -1.536002e-001 2.114903e-002 4.956235e-002 7.290951e-002 -1.079524e-001 8.508814e-002 8.347603e-002 -1.371641e-001 2.422763e-002 -3.557384e-002 3.592384e-002
<VARIANCE> 39
 1.834323e+001 9.555028e+001 5.285780e+001 5.207151e+001 5.080689e+001 4.526940e+001 6.283260e+001 5.398936e+001 5.803102e+001 4.509056e+001 3.126669e+001 2.951626e+001 4.242545e+001 4.017293e-001 1.508677e+000 1.852454e+000 1.797794e+000 1.907760e+000 1.952638e+000 1.753149e+000 1.749391e+000 1.858073e+000 1.929012e+000 1.362051e+000 1.175132e+000 1.433904e+000 6.677739e-002 1.815348e-001 2.842956e-001 2.588426e-001 2.528771e-001 2.856369e-001 2.349331e-001 2.565286e-001 3.261839e-001 3.045502e-001 2.226887e-001 1.875034e-001 2.876123e-001
<GCONST> 1.074365e+002
<STATE> 3
<MEAN> 39
 -4.415889e+000 -8.190006e+000 -3.888102e+000 -1.360781e+001 -5.700426e+000 -7.686838e+000 4.255385e+000 -5.943155e+000 4.680317e-001 -1.393354e+000 -5.643159e-001 -4.093300e+000 6.827074e+001 8.577915e-002 1.306398e-001 1.539138e-001 -1.481969e-001 -3.099149e-001 8.014733e-002 2.914871e-002 -2.423816e-001 3.275414e-001 3.244278e-003 -4.600996e-002 1.372987e-003 -1.869886e-001 1.678852e-002 -7.860458e-003 -1.532459e-001 5.751053e-002 1.013280e-001 5.082363e-002 -1.419191e-001 1.198164e-001 1.673004e-002 -1.609601e-001 6.285010e-002 -1.392076e-002 2.949008e-003
<VARIANCE> 39
 1.951085e+001 9.394337e+001 4.781831e+001 4.709140e+001 4.734087e+001 4.380932e+001 6.306499e+001 4.476803e+001 5.505933e+001 4.270289e+001 3.355569e+001 3.104606e+001 4.052453e+001 4.119275e-001 1.528755e+000 1.608246e+000 1.749104e+000 1.762766e+000 2.025284e+000 1.939970e+000 1.607814e+000 1.746416e+000 1.850744e+000 1.268277e+000 1.116695e+000 1.410730e+000 6.249918e-002 1.646368e-001 2.492504e-001 2.656277e-001 2.377021e-001 2.877039e-001 2.438994e-001 2.275985e-001 2.779006e-001 2.721417e-001 2.144293e-001 1.799192e-001 2.818958e-001
<GCONST> 1.057853e+002
<STATE> 4
<MEAN> 39
 -4.221655e+000 -8.071397e+000 -4.040497e+000 -1.414762e+001 -6.203264e+000 -7.061190e+000 4.178600e+000 -6.262897e+000 1.296010e+000 -1.872826e+000 -6.256087e-001 -4.145965e+000 6.807436e+001 1.150518e-001 1.716183e-001 -5.728273e-002 8.813499e-003 -8.984706e-002 8.980693e-002 -2.626759e-001 -1.478687e-002 3.010563e-001 -2.545821e-001 9.850862e-002 4.490621e-003 -2.931006e-001 -3.265145e-003 3.010083e-002 -8.776635e-002 1.392777e-001 1.555719e-001 1.193126e-002 -1.656723e-001 1.102987e-001 -5.423014e-002 -9.925319e-002 6.007508e-002 5.125157e-003 -1.303048e-001
<VARIANCE> 39
 2.108041e+001 9.095841e+001 4.743870e+001 4.711584e+001 4.881892e+001 4.859875e+001 6.094673e+001 3.862691e+001 5.392148e+001 4.431389e+001 3.439139e+001 3.171403e+001 3.904195e+001 4.859595e-001 1.533309e+000 1.510810e+000 1.912913e+000 1.783190e+000 2.074379e+000 2.108905e+000 1.647618e+000 1.805937e+000 1.743976e+000 1.286793e+000 1.104039e+000 1.643023e+000 7.379961e-002 1.554221e-001 2.267881e-001 2.896537e-001 2.456079e-001 2.932104e-001 2.623073e-001 2.197461e-001 2.577209e-001 2.706289e-001 2.095271e-001 1.747780e-001 3.535540e-001
<GCONST> 1.065523e+002
<TRANSP> 5
 0.000000e+000 1.000000e+000 0.000000e+000 0.000000e+000 0.000000e+000
 0.000000e+000 4.655001e-001 5.344999e-001 0.000000e+000 0.000000e+000
 0.000000e+000 0.000000e+000 4.825464e-001 5.174536e-001 0.000000e+000
 0.000000e+000 0.000000e+000 0.000000e+000 4.976644e-001 5.023356e-001
 0.000000e+000 0.000000e+000 0.000000e+000 0.000000e+000 0.000000e+000
<ENDHMM>
~h "eh"
<BEGINHMM>
<NUMSTATES> 5
<STATE> 2
<MEAN> 39
 -7.812543e+000 -7.394469e+000 -5.795782e+000 -1.653240e+001 -4.218974e+000 -1.708522e+000 3.016893e+000 -5.684527e+000 2.769703e+000 -3.068588e+000 -1.266310e+000 -4.775191e+000 6.924744e+001 3.174704e-001 -4.385241e-001 3.899558e-002 -5.999219e-001 -2.173920e-001 6.240224e-001 3.106795e-001 -2.221179e-001 7.895418e-002 5.801070e-002 -3.576250e-001 -6.787080e-002 9.539174e-001 -3.280910e-002 6.263813e-002 3.343531e-002 2.937054e-001 9.470624e-002 -1.466582e-001 -1.028147e-001 3.744981e-002 -6.896801e-002 -4.157627e-002 8.394134e-002 2.249054e-002 -3.725619e-001
<VARIANCE> 39
 2.211645e+001 3.494451e+001 2.611936e+001 4.861147e+001 6.451426e+001 3.777279e+001 3.812891e+001 3.639287e+001 3.498630e+001 4.397442e+001 3.829368e+001 3.336820e+001 8.059840e+001 1.368093e+000 1.719534e+000 1.238530e+000 2.446887e+000 2.083316e+000 1.974408e+000 1.945987e+000 1.692664e+000 1.710889e+000 1.731912e+000 1.593516e+000 1.587293e+000 4.392980e+000 2.042591e-001 1.942889e-001 1.698019e-001 2.848209e-001 2.812180e-001 2.901845e-001 2.889457e-001 2.454723e-001 2.612177e-001 2.504272e-001 2.304260e-001 2.400138e-001 5.002189e-001
<GCONST> 1.097310e+002
<STATE> 3
<MEAN> 39
