~o
<STREAMINFO> 1 39
<VECSIZE> 39<NULLD><MFCC_D_A_0><DIAGC>
~s "silst"
<NUMMIXES> 2
<MIXTURE> 1 5.051926e-001
<MEAN> 39
 -3.842798e+000 3.129061e-001 2.288738e-001 -8.235991e+000 -2.996361e+000 -5.759905e+000 -8.407077e-001 -3.856815e+000 1.324908e+000 -2.040832e+000 8.498300e-001 -2.975675e+000 5.362194e+001 -2.823502e-001 5.518799e-001 6.033089e-001 1.218461e+000 5.885565e-001 2.878211e-001 8.622691e-002 1.658419e-001 -8.752406e-002 -3.077753e-002 1.443152e-001 2.239308e-001 -2.409426e+000 -2.007846e-001 -2.038312e-001 -1.905349e-001 1.146032e-001 1.416123e-001 1.147587e-001 1.188180e-001 8.011673e-002 2.119762e-002 -2.758222e-002 1.614302e-002 5.305791e-003 1.469158e-001
<VARIANCE> 39
 5.314191e+001 5.893378e+001 5.932209e+001 8.562524e+001 7.186987e+001 6.920901e+001 6.672623e+001 5.938194e+001 5.613374e+001 5.043982e+001 4.206553e+001 3.640076e+001 8.761949e+001 1.806565e+000 2.226354e+000 2.086528e+000 3.113382e+000 2.422481e+000 2.344710e+000 2.243977e+000 2.144699e+000 2.047537e+000 1.845127e+000 1.700585e+000 1.394493e+000 6.159396e+000 2.167046e-001 2.327035e-001 2.699588e-001 3.358238e-001 3.473571e-001 3.580004e-001 3.925155e-001 3.599629e-001 3.585950e-001 2.846614e-001 2.752028e-001 2.295657e-001 3.022570e-001
<GCONST> 1.197236e+002
<MIXTURE> 2 4.948076e-001
<MEAN> 39
 -5.178843e+000 -9.395426e-001 -1.353827e+000 -9.238960e+000 -3.913738e+000 -7.020230e+000 -2.348866e+000 -5.107799e+000 2.526223e-002 -2.762569e+000 2.263259e-001 -3.917696e+000 5.286656e+001 -5.352408e-001 3.643187e-001 4.185612e-001 1.139537e+000 4.157598e-001 7.221706e-002 -1.250832e-001 -5.533518e-002 -3.581533e-001 -3.661148e-001 -5.918452e-002 -2.018438e-002 -2.785646e+000 -2.573759e-001 -2.767878e-001 -2.714756e-001 5.978880e-002 9.890983e-002 8.689383e-002 1.465005e-001 4.952464e-002 1.093991e-002 -7.661400e-002 -4.429097e-002 -3.109322e-002 1.442883e-001
<VARIANCE> 39
 4.980763e+001 6.224272e+001 5.914460e+001 7.986057e+001 6.576424e+001 6.893135e+001 6.689480e+001 6.001195e+001 5.757688e+001 5.228582e+001 4.381840e+001 3.740562e+001 8.893366e+001 1.916561e+000 2.488086e+000 2.237973e+000 3.251654e+000 2.660914e+000 2.407447e+000 2.269047e+000 2.235930e+000 2.220546e+000 1.952614e+000 1.782376e+000 1.411109e+000 6.656884e+000 2.379052e-001 2.694534e-001 2.984748e-001 3.525934e-001 3.558942e-001 3.891058e-001 4.322562e-001 3.666855e-001 3.828067e-001 3.060687e-001 2.937001e-001 2.334274e-001 3.395976e-001
<GCONST> 1.213841e+002
~h "zh"
<BEGINHMM>
<NUMSTATES> 5
<STATE> 2
<NUMMIXES> 2
<MIXTURE> 1 5.219468e-001
<MEAN> 39
 -6.196868e+000 3.989434e+000 -2.163195e+000 -1.614057e+001 -5.837543e+000 -5.495178e+000 -3.353270e+000 -7.558866e+000 2.471760e+000 -1.535390e+000 -1.381871e+000 -1.505985e+000 6.652126e+001 -1.443673e+000 1.713284e+000 7.458929e-002 1.277797e+000 7.574911e-001 -8.240949e-002 2.595662e-001 -5.174867e-001 4.906289e-001 4.987675e-002 6.768904e-001 1.062042e+000 -1.111918e+000 -4.920633e-001 -1.856202e-001 -4.210146e-001 4.275405e-001 2.668552e-001 5.526460e-002 5.784369e-001 3.610685e-001 2.495479e-002 -1.629398e-001 3.878115e-002 -4.948102e-002 -3.593363e-002
<VARIANCE> 39
 2.231238e+001 1.140836e+001 1.151260e+001 3.498938e+001 2.849133e+001 1.333231e+001 8.304750e+000 1.683542e+001 2.640678e+001 4.918734e+001 2.307644e+001 6.183162e+001 2.510136e+001 1.063198e+000 9.781056e-001 9.274834e-001 3.113233e+000 2.353018e+000 8.357545e-001 2.117920e+000 1.069824e+000 1.257938e+000 1.766050e+000 6.994137e-001 1.745820e+000 9.753941e-001 1.450218e-001 1.278408e-001 2.330820e-001 2.428315e-001 1.526146e-001 2.292774e-001 2.188241e-001 1.756635e-001 2.474222e-001 2.093857e-001 1.097128e-001 1.805739e-001 5.861595e-002
<GCONST> 9.212802e+001
<MIXTURE> 2 4.780532e-001
<MEAN> 39
 -7.403121e+000 4.166627e+000 -3.873900e+000 -1.368518e+001 -3.977877e+000 -6.543602e+000 -3.754439e+000 -8.750938e+000 1.985010e+000 -4.010187e+000 -3.764405e+000 -3.982817e+000 6.502092e+001 -1.620069e+000 1.692720e+000 -8.148879e-001 1.373414e+000 3.578526e-001 -1.518224e-001 1.848954e-001 -5.237675e-001 5.169827e-001 -3.316152e-002 3.865504e-001 6.051723e-001 -7.900747e-001 -3.699567e-001 -2.033314e-001 -2.686495e-001 2.260760e-001 1.463747e-001 4.267178e-002 3.157464e-001 2.427092e-001 -1.361428e-001 -1.133168e-001 2.721506e-002 -2.259334e-002 -1.458072e-001
<VARIANCE> 39
 1.335943e+001 8.687963e+000 1.019847e+001 5.071573e+001 4.554739e+001 1.301344e+001 1.090525e+001 2.856125e+001 3.850816e+001 6.213089e+001 2.817694e+001 7.715682e+001 1.749003e+001 1.939301e+000 1.672390e+000 2.544277e+000 2.649626e+000 3.245166e+000 1.508014e+000 2.105213e+000 1.347647e+000 2.832538e+000 1.366794e+000 7.632878e-001 1.401349e+000 1.187377e+000 1.873351e-001 1.094034e-001 1.216464e-001 3.760651e-001 2.137644e-001 2.183550e-001 1.606135e-001 2.013134e-001 3.500473e-001 1.827354e-001 1.437249e-001 2.766546e-001 7.271872e-002
<GCONST> 9.837649e+001
<STATE> 3
<NUMMIXES> 2
<MIXTURE> 1 4.670930e-001
<MEAN> 39
 -1.264976e+001 1.093603e+001 -8.225690e+000 -7.499653e+000 -2.584267e+000 -8.157726e+000 -8.957945e-001 -1.109006e+001 2.689473e+000 -4.196447e+000 -4.198159e+000 -5.421852e+000 6.174713e+001 -2.215845e+000 8.145062e-001 -1.095827e+000 1.058749e+000 8.377718e-001 3.951164e-001 7.854195e-001 4.176343e-001 2.125955e-001 -1.615387e-001 4.378854e-001 7.058454e-002 -8.458673e-001 1.491285e-001 -6.703306e-001 1.515604e-001 -3.590874e-001 7.071191e-002 5.580049e-003 -3.113777e-002 4.018340e-001 -1.880333e-001 -9.474404e-002 7.883232e-002 -1.801349e-001 8.882275e-002
<VARIANCE> 39
 2.738941e+001 1.500662e+001 5.505081e+001 3.295928e+001 2.590977e+001 2.776691e+001 4.679927e+000 3.293354e+001 1.569967e+001 9.392279e+001 4.947939e+001 9.280187e+001 1.494368e+001 3.355798e+000 1.464915e+000 1.628192e+000 2.273398e+000 1.878415e+000 1.080374e+000 2.034642e+000 1.472701e+000 1.621985e+000 1.110288e+000 9.223675e-001 9.270439e-001 8.421685e-001 1.312520e-001 1.891964e-001 2.240809e-001 4.628609e-001 2.255764e-001 2.581160e-001 1.350410e-001 3.758427e-001 1.208713e-001 2.576607e-001 1.616828e-001 4.410054e-001 1.058355e-001
<GCONST> 1.000726e+002
<MIXTURE> 2 5.329068e-001
<MEAN> 39
 -8.213534e+000 1.376258e+001 -1.768059e+001 -1.000545e+001 -3.338201e+000 -1.260351e+001 -1.340337e+000 -1.629930e+001 7.539054e-001 -1.431950e+001 -1.155335e+001 -1.692315e+001 5.755647e+001 -5.367365e-001 1.679046e-001 -1.884443e-001 3.198069e-001 4.163466e-001 -1.933157e-001 1.039178e-001 8.866365e-002 2.801825e-002 -3.910972e-001 -2.964781e-001 -3.503093e-001 -6.843463e-001 -1.529462e-002 -2.637122e-001 2.200558e-001 -6.153115e-002 6.165487e-002 3.357123e-002 -7.252506e-002 1.184664e-001 -2.152741e-001 3.602656e-002 -5.643560e-002 -2.572332e-002 -5.136573e-002
<VARIANCE> 39
 8.147534e+000 1.307566e+001 3.281352e+001 9.613392e+000 2.231793e+001 1.212574e+001 6.444506e+000 2.471978e+001 9.204659e+000 5.924537e+001 4.135011e+001 8.082907e+001 1.398959e+001 2.001850e+000 9.986961e-001 2.356133e+000 1.112244e+000 1.762290e+000 8.393801e-001 5.701964e-001 8.749670e-001 1.050430e+000 5.097192e-001 8.165299e-001 3.439097e-001 2.296228e-001 1.004388e-001 8.390509e-002 1.304416e-001 1.410863e-001 2.077916e-001 1.293951e-001 4.589096e-002 1.166311e-001 9.629311e-002 1.285205e-001 1.378847e-001 1.134370e-001 4.991100e-002
<GCONST> 7.864641e+001
<STATE> 4
<NUMMIXES> 2
<MIXTURE> 1 4.992480e-001
<MEAN> 39
 -2.123236e+001 4.255505e+000 -9.391891e+000 -6.113756e+000 1.084149e+000 -3.848972e+000 2.336030e+000 -4.665231e+000 2.323568e+000 -2.421299e+000 7.032076e-001 -1.346298e+000 6.047137e+001 3.368436e-001 -3.868210e-001 5.282680e-002 -2.714523e-001 1.028311e-001 -2.204661e-001 2.826806e-001 2.816232e-001 -1.036344e-001 1.577247e-001 1.979090e-001 -3.648738e-002 2.005108e-001 5.901026e-001 -8.553114e-002 3.253426e-001 -2.306378e-001 -3.001944e-001 -9.440061e-002 -2.101693e-001 -1.122920e-001 8.223535e-002 7.684307e-002 -9.083791e-002 -5.424761e-002 2.244554e-001
<VARIANCE> 39
 3.810339e+001 2.692016e+001 3.322870e+001 2.987001e+001 2.071302e+001 2.020506e+001 5.200068e+001 4.378491e+001 1.496626e+001 2.403128e+001 2.956968e+001 4.429340e+001 2.305877e+001 4.610754e+000 8.802014e-001 1.681990e+000 2.095203e+000 1.604393e+000 8.926218e-001 1.303567e+000 1.652993e+000 9.543135e-001 1.172244e+000 1.063443e+000 1.344481e+000 1.197474e+000 2.913220e-001 2.096103e-001 1.343823e-001 3.100469e-001 2.597148e-001 1.218845e-001 2.640425e-001 3.276543e-001 1.582111e-001 1.911726e-001 2.055092e-001 2.681778e-001 1.783755e-001
<GCONST> 9.992097e+001
<MIXTURE> 2 5.007518e-001
<MEAN> 39
 -2.049219e+001 4.194364e+000 -9.645421e+000 -6.663731e+000 4.879077e-001 -5.209208e+000 -1.378878e-001 -4.879455e+000 2.134357e+000 -3.504912e+000 -3.989065e-001 -1.579816e+000 5.998742e+001 2.420320e-001 -6.673499e-001 1.565451e-001 -7.133359e-001 -4.446374e-001 -1.542650e-001 -5.705360e-002 -4.953073e-001 -1.132575e-001 -2.593080e-001 -2.718527e-001 -7.236909e-001 1.954609e-001 5.436643e-001 -1.653535e-001 1.291580e-001 -2.955644e-001 -2.275780e-001 -5.835203e-002 -1.102472e-001 -1.457096e-001 -4.191740e-002 4.686147e-003 -7.936458e-002 -5.007117e-002 2.073544e-001
<VARIANCE> 39
 3.384661e+001 1.938623e+001 3.806192e+001 2.255122e+001 1.839669e+001 2.559305e+001 2.616868e+001 4.021264e+001 1.634498e+001 3.138017e+001 4.574246e+001 4.096633e+001 2.433151e+001 4.188612e+000 9.092442e-001 1.894412e+000 2.022037e+000 1.572722e+000 7.433383e-001 1.191839e+000 2.047820e+000 8.731961e-001 8.900852e-001 9.290751e-001 1.119612e+000 1.063810e+000 2.850727e-001 1.922547e-001 1.483159e-001 3.347828e-001 2.613895e-001 1.540762e-001 1.685866e-001 2.640403e-001 1.580510e-001 1.864944e-001 2.499691e-001 1.455389e-001 2.306635e-001
<GCONST> 9.804210e+001
<TRANSP> 5
 0.000000e+000 1.000000e+000 0.000000e+000 0.000000e+000 0.000000e+000
 0.000000e+000 6.712302e-001 3.287698e-001 0.000000e+000 0.000000e+000
 0.000000e+000 0.000000e+000 6.839871e-001 3.160129e-001 0.000000e+000
 0.000000e+000 0.000000e+000 0.000000e+000 8.465851e-001 1.534149e-001
 0.000000e+000 0.000000e+000 0.000000e+000 0.000000e+000 0.000000e+000
<ENDHMM>
~h "b"
<BEGINHMM>
<NUMSTATES> 5
<STATE> 2
<NUMMIXES> 2
<MIXTURE> 1 4.881459e-001
<MEAN> 39
 -5.568785e-001 3.589709e+000 3.536427e+000 1.056064e+000 3.100784e+000 -4.329946e+000 -2.330751e+000 -4.848730e+000 8.610825e-002 -4.202946e+000 1.118824e+000 -3.874015e+000 4.381926e+001 -9.673330e-001 -3.965566e-001 -2.630615e-001 -1.966730e-001 -2.278704e-001 3.586237e-001 4.980679e-001 1.978801e-001 4.217955e-001 2.733282e-001 6.823084e-002 2.573821e-001 5.015438e-001 2.111472e-002 -5.392708e-001 -4.964394e-001 -4.965667e-001 -4.410190e-001 -2.915233e-001 1.210847e-002 1.207262e-001 1.599013e-001 1.511192e-001 4.970131e-002 2.860379e-002 1.299290e+000
<VARIANCE> 39
 3.906415e+001 2.267254e+001 3.487240e+001 2.605834e+001 3.305907e+001 3.283418e+001 3.862619e+001 3.866644e+001 3.209616e+001 3.651036e+001 3.316520e+001 2.166415e+001 5.926521e+001 1.324115e+000 1.125770e+000 1.427962e+000 1.565637e+000 1.292202e+000 1.267070e+000 1.764274e+000 1.823349e+000 1.317565e+000 1.477079e+000 1.416031e+000 1.018503e+000 2.755478e+000 2.316280e-001 3.075986e-001 3.950503e-001 4.365408e-001 3.234499e-001 2.653973e-001 3.786929e-001 3.867561e-001 3.244163e-001 2.884004e-001 2.956575e-001 2.083890e-001 6.013536e-001
<GCONST> 1.077706e+002
<MIXTURE> 2 5.118534e-001
<MEAN> 39
 -1.808126e+000 2.626508e+000 1.733294e+000 3.533551e-001 2.744030e+000 -5.191844e+000 -3.269124e+000 -5.615203e+000 -6.650540e-001 -5.278555e+000 -3.521803e-002 -5.129411e+000 4.225302e+001 -1.196945e+000 -6.846085e-001 -5.061356e-001 -6.397696e-001 -4.648198e-001 2.353747e-001 4.429338e-001 -1.954130e-003 2.212342e-001 2.587170e-001 -4.176176e-002 1.093056e-001 7.709639e-001 1.890337e-002 -6.494646e-001 -5.901078e-001 -6.598321e-001 -5.198731e-001 -3.708190e-001 7.326180e-002 1.416132e-001 1.585031e-001 1.250784e-001 4.431711e-002 8.800779e-003 1.536998e+000
<VARIANCE> 39
 4.397919e+001 2.503388e+001 2.968903e+001 2.559467e+001 3.333403e+001 3.218438e+001 3.883952e+001 3.531554e+001 2.983629e+001 3.603856e+001 3.536588e+001 2.658382e+001 4.727088e+001 1.591134e+000 1.279724e+000 1.479323e+000 1.622960e+000 1.380616e+000 1.523571e+000 1.959286e+000 2.001471e+000 1.432670e+000 1.700128e+000 1.452262e+000 1.171673e+000 2.841991e+000 2.572161e-001 3.832017e-001 4.568724e-001 4.230292e-001 3.752114e-001 3.207008e-001 4.698116e-001 4.120018e-001 2.949171e-001 3.358207e-001 2.893079e-001 2.123477e-001 5.346957e-001
<GCONST> 1.099132e+002
<STATE> 3
<NUMMIXES> 2
<MIXTURE> 1 5.019385e-001
<MEAN> 39
 -6.978920e+000 -4.730607e-001 7.221755e-001 -7.905841e-001 1.295170e+000 -3.202164e+000 8.103452e-002 -2.713500e+000 1.047938e+000 -2.942806e+000 1.343876e+000 -2.467616e+000 4.480829e+001 1.171429e-001 -1.304864e+000 -1.306583e+000 -1.162649e+000 -8.507094e-001 -6.391985e-001 3.552740e-002 2.080335e-001 7.540565e-001 3.909438e-001 -5.101584e-002 1.635127e-001 3.576266e+000 6.214427e-001 -1.717757e-001 -3.765830e-001 -2.786984e-001 -1.634868e-001 -3.380662e-001 -2.124293e-001 -3.699818e-002 1.125632e-001 4.461781e-002 -6.325933e-002 -5.689893e-002 1.049588e+000
<VARIANCE> 39
 4.112513e+001 2.476207e+001 2.974577e+001 2.997471e+001 2.868417e+001 2.956840e+001 3.508292e+001 2.861543e+001 2.481442e+001 2.742675e+001 2.096137e+001 2.011663e+001 9.239893e+001 2.252234e+000 1.675573e+000 3.118210e+000 2.660962e+000 1.991446e+000 1.649796e+000 2.635209e+000 2.395019e+000 1.977552e+000 1.688534e+000 1.708763e+000 1.200711e+000 3.992039e+000 2.922139e-001 2.891579e-001 4.085958e-001 3.496081e-001 3.187288e-001 2.451913e-001 3.085909e-001 3.970796e-001 3.112530e-001 2.482268e-001 2.465082e-001 2.103207e-001 4.715953e-001
<GCONST> 1.105916e+002
<MIXTURE> 2 4.980617e-001
<MEAN> 39
 -7.538458e+000 -1.450091e+000 -7.928874e-001 -1.859604e+000 8.590679e-001 -4.127198e+000 -6.482304e-001 -4.016846e+000 -1.007212e-001 -3.956359e+000 3.119248e-001 -3.792245e+000 4.493428e+001 -7.085812e-002 -1.613035e+000 -1.684706e+000 -1.618455e+000 -1.177097e+000 -6.863819e-001 1.707936e-001 2.012192e-001 5.263835e-001 3.777125e-001 -5.594846e-002 -1.590357e-001 3.818395e+000 6.256017e-001 -2.361498e-001 -4.308755e-001 -3.090714e-001 -2.016639e-001 -3.965513e-001 -1.523807e-001 2.333578e-003 7.147790e-002 -2.335000e-002 -9.333766e-002 -1.494722e-001 1.044994e+000
<VARIANCE> 39
 4.113565e+001 2.601301e+001 2.454448e+001 2.810450e+001 2.833014e+001 2.869873e+001 3.382005e+001 3.287051e+001 2.332376e+001 3.039008e+001 2.629965e+001 2.166420e+001 8.424174e+001 2.589286e+000 2.000997e+000 2.923764e+000 2.485744e+000 1.971985e+000 1.878561e+000 2.740251e+000 2.310524e+000 1.964193e+000 2.096113e+000 1.642985e+000 1.313521e+000 3.658126e+000 3.259057e-001 3.302272e-001 3.610868e-001 3.231273e-001 3.140844e-001 2.879746e-001 3.609378e-001 4.780695e-001 2.924356e-001 2.924820e-001 2.656735e-001 2.171101e-001 4.578623e-001
<GCONST> 1.118805e+002
<STATE> 4
<NUMMIXES> 2
<MIXTURE> 1 4.980969e-001
<MEAN> 39
 -3.254674e+000 -5.354908e+000 -6.545322e+000 -7.559805e+000 -1.096773e+000 -7.723298e+000 -6.574490e-002 -2.557601e+000 3.811274e+000 -2.190057e+000 7.463873e-001 -3.717455e+000 6.234451e+001 1.310583e+000 -1.453148e+000 -2.143346e+000 -1.313461e+000 -5.139608e-001 -9.320000e-001 -1.027373e-001 9.601456e-002 5.970235e-001 2.165555e-001 -2.642448e-001 7.774711e-002 4.241791e+000 1.991695e-001 1.942841e-001 2.479541e-001 3.347026e-001 1.734478e-001 1.651966e-001 -6.943415e-002 -9.328784e-002 -1.495300e-001 -9.478382e-002 8.806900e-003 1.125127e-001 -6.033819e-001
<VARIANCE> 39
 4.759248e+001 3.008382e+001 9.503951e+001 4.377217e+001 4.992323e+001 3.382636e+001 5.161415e+001 5.062575e+001 3.568573e+001 3.174325e+001 3.508188e+001 2.969316e+001 6.273815e+001 2.738149e+000 2.730079e+000 4.864320e+000 3.550316e+000 3.781581e+000 2.350450e+000 3.270177e+000 3.260122e+000 2.979448e+000 2.045693e+000 2.216108e+000 1.837331e+000 3.608349e+000 3.553212e-001 2.192160e-001 3.917193e-001 3.292471e-001 3.071039e-001 2.871270e-001 3.257178e-001 3.077768e-001 3.136394e-001 2.567734e-001 3.093083e-001 2.354212e-001 5.021685e-001
<GCONST> 1.194471e+002
<MIXTURE> 2 5.019037e-001
<MEAN> 39
 -3.937531e+000 -6.342367e+000 -7.493139e+000 -8.496442e+000 -2.803303e+000 -8.621702e+000 -1.273661e-001 -3.349244e+000 2.651926e+000 -2.825871e+000 2.264274e-001 -5.365626e+000 6.218826e+001 1.063126e+000 -1.612154e+000 -2.321684e+000 -1.592569e+000 -8.006346e-001 -8.625948e-001 1.415806e-001 2.009542e-001 5.338631e-001 1.148604e-001 -3.479459e-001 -4.473644e-001 4.413942e+000 1.830606e-001 1.579169e-001 1.779457e-001 2.804654e-001 1.900779e-001 1.407519e-001 -9.612585e-002 -1.008794e-001 -1.314513e-001 -1.907407e-001 -5.674838e-002 4.281391e-002 -5.955691e-001
<VARIANCE> 39
 4.605802e+001 3.214005e+001 8.670998e+001 4.080054e+001 4.479835e+001 3.438833e+001 5.218203e+001 4.870240e+001 3.522066e+001 3.674310e+001 3.232982e+001 2.983265e+001 6.560825e+001 2.945302e+000 3.272431e+000 4.053782e+000 3.332458e+000 3.554014e+000 2.496490e+000 3.682417e+000 3.466280e+000 2.722334e+000 2.151753e+000 2.129136e+000 1.892251e+000 3.903985e+000 3.436173e-001 2.274374e-001 3.913190e-001 2.849577e-001 3.245409e-001 2.660020e-001 3.092846e-001 3.370798e-001 3.201900e-001 2.669671e-001 2.910140e-001 2.245368e-001 5.024301e-001
<GCONST> 1.193425e+002
<TRANSP> 5
 0.000000e+000 1.000000e+000 0.000000e+000 0.000000e+000 0.000000e+000
 0.000000e+000 4.175066e-001 5.824934e-001 0.000000e+000 0.000000e+000
 0.000000e+000 0.000000e+000 4.773250e-001 5.226750e-001 0.000000e+000
 0.000000e+000 0.000000e+000 0.000000e+000 5.184448e-001 4.815552e-001
 0.000000e+000 0.000000e+000 0.000000e+000 0.000000e+000 0.000000e+000
<ENDHMM>
~h "d"
<BEGINHMM>
<NUMSTATES> 5
<STATE> 2
<NUMMIXES> 2
<MIXTURE> 1 5.112681e-001
<MEAN> 39
 -3.900421e+000 3.039559e+000 2.813478e+000 -1.394919e+000 -1.344581e+000 -4.048607e+000 1.648675e-001 -3.459028e+000 -7.245877e-001 -3.017782e+000 -8.730971e-001 -3.337842e+000 4.647797e+001 -9.948483e-001 -4.250284e-001 -7.537020e-001 -4.553025e-001 -1.135937e-001 3.669548e-001 1.790216e-001 1.563140e-001 5.322009e-001 1.866582e-001 2.617472e-001 2.891930e-001 1.274457e+000 -1.615273e-002 -2.336038e-001 -2.705688e-001 -6.818990e-001 -3.424043e-001 -2.128760e-001 1.028904e-001 -2.918399e-002 2.274735e-001 2.133770e-001 1.118244e-002 5.990696e-002 1.120275e+000
<VARIANCE> 39
 5.317029e+001 3.399963e+001 3.455088e+001 3.468307e+001 4.080856e+001 4.095477e+001 3.632632e+001 3.834367e+001 3.641513e+001 3.503630e+001 3.619073e+001 3.010050e+001 9.057061e+001 1.670052e+000 2.143176e+000 2.580718e+000 2.341558e+000 2.879369e+000 2.392047e+000 2.094897e+000 1.887447e+000 2.139472e+000 1.888027e+000 1.804382e+000 1.568164e+000 4.992650e+000 2.553663e-001 2.490630e-001 2.843887e-001 4.474541e-001 4.092709e-001 3.500557e-001 3.592272e-001 3.026614e-001 3.626722e-001 3.897230e-001 3.150829e-001 2.822205e-001 6.501504e-001
<GCONST> 1.162139e+002
<MIXTURE> 2 4.887319e-001
<MEAN> 39
 -5.707267e+000 2.069673e+000 1.662729e+000 -1.800370e+000 -1.029451e+000 -5.046467e+000 -3.784817e-001 -4.709058e+000 -1.728571e+000 -4.117127e+000 -1.744629e+000 -4.691397e+000 4.416200e+001 -1.284425e+000 -7.695504e-001 -1.235113e+000 -6.900965e-001 -2.796398e-001 1.580465e-001 -9.528878e-002 9.707027e-002 3.519365e-001 1.331287e-002 2.079069e-001 1.003501e-001 1.644726e+000 -3.537981e-003 -2.816918e-001 -3.591658e-001 -8.252169e-001 -3.776226e-001 -2.333155e-001 3.979668e-002 -8.115140e-002 2.360153e-001 1.136608e-001 7.835324e-003 -8.399840e-003 1.323681e+000
<VARIANCE> 39
 4.608130e+001 3.692766e+001 3.715163e+001 3.814986e+001 4.393801e+001 4.469557e+001 3.944329e+001 3.476036e+001 3.741640e+001 3.581390e+001 3.673724e+001 2.862601e+001 8.287369e+001 1.637469e+000 2.144723e+000 2.505432e+000 2.513019e+000 2.735921e+000 2.494030e+000 2.174020e+000 2.045161e+000 2.281073e+000 2.016813e+000 1.707276e+000 1.556111e+000 4.548975e+000 2.422059e-001 2.617060e-001 3.119405e-001 5.195104e-001 3.762411e-001 4.097562e-001 3.964546e-001 3.519693e-001 3.730134e-001 4.002734e-001 3.386008e-001 2.883587e-001 7.384548e-001
<GCONST> 1.173328e+002
<STATE> 3
<NUMMIXES> 2
<MIXTURE> 1 5.070589e-001
<MEAN> 39
 -1.139913e+001 -2.212433e+000 -3.783579e+000 -5.719550e+000 -1.718965e+000 -3.976497e+000 2.155830e-002 -3.172487e+000 2.019529e+000 -2.278964e+000 8.923915e-001 -1.785972e+000 5.517117e+001 -1.088418e-001 -3.910264e-001 -7.407972e-001 -1.861718e+000 -1.193738e+000 -2.906782e-001 4.789504e-001 -9.631746e-002 7.506991e-001 6.314142e-001 3.329562e-003 1.749606e-001 3.827869e+000 6.054876e-001 1.429006e-001 2.907189e-001 -2.778129e-001 -2.191695e-001 -2.030003e-001 1.498332e-001 -2.312795e-002 -5.346373e-002 8.008819e-002 -1.258585e-001 -1.238460e-001 2.766562e-001
<VARIANCE> 39
 4.171283e+001 3.076112e+001 4.045699e+001 4.107431e+001 3.643087e+001 3.993516e+001 3.393251e+001 3.547939e+001 3.577213e+001 3.478747e+001 2.944772e+001 2.585321e+001 1.106223e+002 2.147401e+000 1.870411e+000 1.975008e+000 2.473315e+000 2.431294e+000 2.213022e+000 2.689328e+000 1.791037e+000 2.102672e+000 2.091291e+000 2.044524e+000 1.758684e+000 6.209761e+000 2.239148e-001 2.649519e-001 3.063802e-001 3.750882e-001 3.264464e-001 3.491260e-001 3.148983e-001 3.494271e-001 3.230985e-001 3.554307e-001 2.883101e-001 2.699664e-001 5.703056e-001
<GCONST> 1.152658e+002
<MIXTURE> 2 4.929419e-001
<MEAN> 39
 -1.276399e+001 -3.679009e+000 -5.884946e+000 -7.001613e+000 -1.979605e+000 -4.688793e+000 -7.590666e-001 -4.016581e+000 1.438501e+000 -3.729147e+000 7.494423e-001 -3.191715e+000 5.574254e+001 -2.393305e-001 -7.416943e-001 -1.219138e+000 -2.237194e+000 -1.285541e+000 -3.987084e-001 1.098665e-001 -2.058062e-001 6.829171e-001 1.751638e-001 -1.001702e-001 -1.811519e-001 4.142960e+000 5.921502e-001 5.806542e-002 2.864014e-001 -3.210093e-001 -1.740670e-001 -1.778076e-001 1.638496e-001 -1.333047e-001 -9.254742e-002 -3.849874e-002 -2.195008e-001 -2.162378e-001 1.766229e-001
<VARIANCE> 39
 3.165749e+001 3.228123e+001 3.816152e+001 3.950565e+001 3.257843e+001 3.694284e+001 3.029288e+001 3.512467e+001 3.243225e+001 3.379469e+001 2.735851e+001 3.076008e+001 1.064655e+002 2.552264e+000 1.964439e+000 2.024532e+000 2.436067e+000 2.638297e+000 2.537280e+000 2.495160e+000 2.070277e+000 2.051929e+000 2.785896e+000 1.933955e+000 1.913883e+000 6.056040e+000 2.081755e-001 2.844494e-001 3.218729e-001 4.648077e-001 3.306734e-001 3.443137e-001 3.746408e-001 3.962963e-001 3.780897e-001 3.889404e-001 2.976167e-001 3.050980e-001 6.115870e-001
<GCONST> 1.163803e+002
<STATE> 4
<NUMMIXES> 2
<MIXTURE> 1 5.110337e-001
<MEAN> 39
 -5.875092e+000 -1.751756e+000 -2.542208e+000 -1.259491e+001 -7.982683e+000 -5.858198e+000 3.515835e+000 -4.550907e+000 2.895281e+000 2.770594e-001 -2.024959e+000 -3.440827e+000 6.524463e+001 6.435075e-001 -5.131016e-001 -2.120997e-001 -1.441785e+000 -6.555880e-001 -1.209653e-001 7.919018e-001 1.789910e-001 1.110535e-001 2.383877e-001 -1.626474e-001 -1.215129e-001 2.301296e+000 1.407760e-001 7.461903e-002 1.766542e-001 5.212014e-001 4.852051e-001 9.549908e-002 -1.955775e-001 1.851874e-001 -2.210625e-001 -2.617794e-001 1.360018e-001 3.949447e-002 -8.104182e-001
<VARIANCE> 39
 2.910575e+001 3.948726e+001 4.566516e+001 6.292739e+001 6.410282e+001 5.128251e+001 5.550914e+001 4.859876e+001 6.044855e+001 7.603653e+001 4.914220e+001 4.429794e+001 7.534343e+001 2.041586e+000 2.515716e+000 2.012568e+000 3.717274e+000 2.744479e+000 2.849743e+000 3.120899e+000 2.726208e+000 2.881168e+000 2.741883e+000 2.285458e+000 1.953757e+000 4.764062e+000 2.599507e-001 2.097597e-001 2.866229e-001 4.164176e-001 3.965577e-001 3.267135e-001 4.205076e-001 3.504030e-001 4.140201e-001 5.505323e-001 3.771696e-001 3.015641e-001 3.805268e-001
<GCONST> 1.224849e+002
<MIXTURE> 2 4.889674e-001
<MEAN> 39
 -7.177964e+000 -3.931171e+000 -5.443899e+000 -1.422226e+001 -8.290482e+000 -6.831180e+000 2.016987e+000 -6.047957e+000 2.092798e+000 -1.917158e+000 -3.019042e+000 -5.327444e+000 6.550970e+001 7.172636e-001 -9.795346e-001 -4.302345e-001 -1.227748e+000 -6.792631e-001 -1.903977e-001 7.053674e-001 -3.771405e-002 -1.206148e-001 -2.241869e-001 -3.471426e-001 -6.270132e-001 2.286930e+000 7.730999e-002 -4.582528e-002 1.536578e-001 5.774393e-001 4.509897e-001 6.498477e-002 -1.396547e-001 1.243225e-001 -3.040593e-001 -2.495838e-001 8.115574e-002 1.146960e-002 -8.665537e-001
<VARIANCE> 39
 2.698514e+001 3.570483e+001 4.810851e+001 5.538298e+001 5.421968e+001 5.909662e+001 5.391371e+001 5.342863e+001 5.824176e+001 1.108122e+002 5.755603e+001 5.124752e+001 8.283614e+001 2.008715e+000 2.272719e+000 2.008396e+000 3.972592e+000 2.841873e+000 2.695119e+000 2.912896e+000 3.338311e+000 3.068221e+000 3.494348e+000 2.924456e+000 2.173769e+000 5.750640e+000 2.344657e-001 2.113009e-001 2.696719e-001 4.240454e-001 4.286938e-001 3.311266e-001 4.179766e-001 3.854626e-001 4.500818e-001 6.633590e-001 4.192767e-001 3.604446e-001 4.355249e-001
<GCONST> 1.246482e+002
<TRANSP> 5
 0.000000e+000 1.000000e+000 0.000000e+000 0.000000e+000 0.000000e+000
 0.000000e+000 4.698447e-001 5.301554e-001 0.000000e+000 0.000000e+000
 0.000000e+000 0.000000e+000 4.427772e-001 5.572227e-001 0.000000e+000
 0.000000e+000 0.000000e+000 0.000000e+000 5.446512e-001 4.553488e-001
 0.000000e+000 0.000000e+000 0.000000e+000 0.000000e+000 0.000000e+000
<ENDHMM>
~h "f"
<BEGINHMM>
<NUMSTATES> 5
<STATE> 2
<NUMMIXES> 2
<MIXTURE> 1 5.377079e-001
<MEAN> 39
 -9.355527e+000 -1.674095e+000 5.077921e-001 -1.504614e+000 4.762777e-001 -3.086847e+000 1.031779e+000 -1.869137e+000 1.523544e+000 -1.353016e+000 2.069470e+000 -2.136032e+000 5.020741e+001 -6.498157e-001 -1.955949e-001 -3.764712e-002 1.025690e-001 -7.578446e-003 1.609736e-001 2.251370e-001 2.166909e-001 2.752081e-001 2.185551e-002 1.798780e-001 1.354646e-001 -2.319447e-001 1.220103e-001 -1.534791e-002 -2.961219e-002 -4.227268e-002 -2.067002e-003 -4.118692e-002 -6.770963e-003 3.572141e-002 1.940603e-002 1.600866e-002 -1.304064e-002 3.697846e-003 1.147746e-001
<VARIANCE> 39
 2.470946e+001 1.931141e+001 2.551864e+001 2.638679e+001 3.010819e+001 3.389370e+001 2.828601e+001 3.515286e+001 3.276216e+001 3.370699e+001 3.197097e+001 2.403139e+001 9.586985e+001 1.514010e+000 8.751373e-001 8.219197e-001 9.163611e-001 1.043996e+000 1.300588e+000 1.194099e+000 1.260909e+000 1.387428e+000 1.221122e+000 1.230605e+000 1.031928e+000 1.063216e+000 1.712129e-001 1.139697e-001 1.260371e-001 1.530420e-001 1.748510e-001 2.129469e-001 2.145737e-001 1.894700e-001 2.477836e-001 2.006535e-001 2.171162e-001 1.696915e-001 1.219466e-001
<GCONST> 9.515741e+001
<MIXTURE> 2 4.622866e-001
<MEAN> 39
 -1.159753e+001 -3.573557e+000 -1.318677e+000 -3.687502e+000 -3.390783e-001 -3.957937e+000 1.693764e-001 -3.287534e+000 9.077252e-001 -2.907193e+000 1.587754e+000 -3.069978e+000 5.001469e+001 -1.506215e+000 -4.780986e-001 -2.225714e-001 7.514030e-002 -3.375925e-001 -4.950726e-002 3.914705e-002 -3.729906e-002 1.927240e-002 -1.848920e-001 -6.242336e-002 3.646976e-002 -6.076564e-001 1.836114e-001 -8.715235e-002 -1.394061e-001 -1.805934e-001 -6.472881e-002 -1.645099e-001 -7.252671e-002 -2.607937e-002 -5.945896e-002 -5.941495e-002 -9.572347e-002 -8.599785e-002 2.079074e-001
<VARIANCE> 39
 3.195832e+001 2.274783e+001 2.975452e+001 3.168105e+001 2.814339e+001 3.062719e+001 3.201362e+001 3.446726e+001 3.241297e+001 2.976801e+001 2.535982e+001 2.286851e+001 1.054343e+002 2.878678e+000 1.335554e+000 1.441495e+000 1.272769e+000 1.428746e+000 1.501460e+000 1.358831e+000 1.578925e+000 1.490377e+000 1.516767e+000 1.132769e+000 1.181124e+000 1.735878e+000 1.971319e-001 1.606590e-001 1.615885e-001 1.833665e-001 1.974473e-001 2.246984e-001 2.298069e-001 2.075938e-001 2.244271e-001 2.330982e-001 1.949700e-001 1.805782e-001 1.670930e-001
<GCONST> 1.006961e+002
<STATE> 3
<NUMMIXES> 2
<MIXTURE> 1 4.499139e-001
<MEAN> 39
 -1.725694e+001 -8.171486e+000 -4.280689e+000 -5.871770e+000 -2.148110e+000 -4.524266e+000 1.523337e+000 -2.764241e+000 2.257692e+000 -2.821300e+000 2.402630e+000 -2.867632e+000 5.549633e+001 5.590202e-001 -3.289250e-002 7.053020e-002 1.218125e-001 7.979722e-002 -4.624045e-003 1.280253e-001 1.979598e-001 2.468400e-001 6.818639e-002 4.069285e-003 1.155741e-001 3.487401e-001 7.400163e-001 1.377790e-001 -1.556464e-002 1.200531e-002 2.092560e-002 -1.462460e-002 -4.761725e-002 -4.109229e-003 8.119293e-002 4.726009e-002 -5.113750e-002 -2.490765e-002 2.826815e-001
<VARIANCE> 39
 2.014586e+001 1.824674e+001 2.354860e+001 2.470771e+001 2.649403e+001 2.501706e+001 2.601756e+001 2.541231e+001 2.711213e+001 2.750059e+001 2.277208e+001 1.884583e+001 4.859584e+001 2.272333e+000 7.262298e-001 7.724196e-001 8.554952e-001 9.039958e-001 9.817147e-001 1.013217e+000 1.078573e+000 1.250648e+000 1.062941e+000 8.399041e-001 7.678170e-001 9.810489e-001 2.328276e-001 1.497011e-001 1.937111e-001 1.920066e-001 2.047761e-001 2.101297e-001 2.276055e-001 2.321489e-001 2.538635e-001 2.377263e-001 1.833215e-001 1.628650e-001 1.963979e-001
<GCONST> 9.270218e+001
<MIXTURE> 2 5.500827e-001
<MEAN> 39
 -1.824329e+001 -9.427815e+000 -6.041502e+000 -7.942360e+000 -3.748432e+000 -5.966959e+000 4.262396e-001 -3.897272e+000 1.980439e+000 -3.015326e+000 1.843153e+000 -3.624934e+000 5.358398e+001 8.920428e-003 -2.635525e-001 -2.362857e-001 -9.967504e-002 -1.939363e-001 -2.994458e-001 -1.741170e-001 -1.235105e-001 -7.608250e-002 -1.993809e-001 -1.691084e-001 -3.583509e-002 9.409610e-002 5.967957e-001 5.883095e-002 -3.173465e-002 -2.892550e-002 -2.800879e-003 -6.499656e-002 -6.625612e-002 -6.568544e-002 -2.891353e-002 -4.248515e-002 -8.214054e-002 -7.198374e-002 2.127688e-001
<VARIANCE> 39
 1.594971e+001 1.522616e+001 2.183696e+001 3.356010e+001 2.796019e+001 2.770112e+001 2.458875e+001 2.374289e+001 2.534659e+001 2.447870e+001 1.984524e+001 1.881598e+001 5.548612e+001 2.476109e+000 6.545940e-001 8.010418e-001 8.360723e-001 7.945188e-001 8.934492e-001 9.199692e-001 1.033489e+000 1.110044e+000 1.096907e+000 8.168818e-001 8.151975e-001 1.071362e+000 2.604033e-001 1.339507e-001 1.932647e-001 1.873657e-001 1.871192e-001 1.848242e-001 2.019650e-001 2.248416e-001 2.372525e-001 2.242121e-001 1.742876e-001 1.785101e-001 2.150090e-001
<GCONST> 9.163422e+001
<STATE> 4
<NUMMIXES> 2
<MIXTURE> 1 5.043272e-001
<MEAN> 39
 -7.993605e+000 -5.771069e+000 -3.997754e+000 -5.027688e+000 -5.227342e-001 -5.118093e+000 3.359424e-001 -1.688647e+000 3.082078e+000 -2.906261e+000 9.811086e-001 -3.412614e+000 5.632699e+001 3.350788e+000 -3.509723e-001 -8.417681e-001 -2.689225e-001 -2.224732e-001 -3.994609e-001 -2.574593e-001 -1.340908e-002 8.733851e-001 1.306659e-001 -4.092501e-001 -2.243051e-001 1.993919e+000 1.148495e-001 -1.717332e-001 -1.264046e-001 -9.237662e-002 -1.587622e-001 1.507167e-002 2.405941e-002 -3.760230e-002 1.285708e-001 -3.916057e-002 -3.010940e-003 8.583626e-005 2.778414e-001
<VARIANCE> 39
 7.572498e+001 2.861244e+001 4.715083e+001 3.722248e+001 4.753671e+001 3.514430e+001 3.988825e+001 4.236956e+001 4.143007e+001 3.640771e+001 3.009261e+001 2.726850e+001 6.683189e+001 2.654322e+000 2.195156e+000 3.030647e+000 2.451260e+000 3.205554e+000 2.470971e+000 2.436256e+000 2.457098e+000 2.642368e+000 2.632504e+000 1.920389e+000 1.311302e+000 2.342032e+000 5.742270e-001 1.820570e-001 2.942867e-001 2.227127e-001 2.869834e-001 2.862395e-001 3.344621e-001 3.595244e-001 3.057861e-001 2.754299e-001 2.650876e-001 2.091332e-001 2.431666e-001
<GCONST> 1.148723e+002
<MIXTURE> 2 4.956748e-001
<MEAN> 39
 -8.472177e+000 -6.687529e+000 -6.069428e+000 -6.754856e+000 -4.580626e-001 -5.881270e+000 -9.543635e-001 -3.746245e+000 1.384309e+000 -4.186471e+000 -3.611137e-001 -4.844944e+000 5.603157e+001 3.050014e+000 -5.204655e-001 -1.138837e+000 -7.101479e-001 -3.108248e-001 -6.335275e-001 -4.740700e-001 -2.735024e-001 3.805318e-001 -5.275930e-001 -6.893976e-001 -5.647467e-001 1.868443e+000 6.349129e-002 -2.355130e-001 -1.794399e-001 -1.093049e-001 -1.428906e-001 -1.755423e-002 7.477348e-002 -2.037306e-002 7.579689e-002 -7.040924e-002 -5.709233e-002 -5.942841e-002 2.478109e-001
<VARIANCE> 39
 8.791418e+001 2.951640e+001 5.888171e+001 4.080648e+001 4.335121e+001 3.554598e+001 3.884338e+001 3.608788e+001 4.619135e+001 3.888654e+001 3.099753e+001 2.925679e+001 6.780544e+001 3.151743e+000 2.184794e+000 2.905573e+000 2.476668e+000 3.132420e+000 2.221845e+000 2.171288e+000 2.373258e+000 2.840929e+000 2.460101e+000 1.928249e+000 1.464651e+000 2.948257e+000 5.751705e-001 1.945723e-001 2.922034e-001 2.612254e-001 3.022453e-001 2.797227e-001 3.045866e-001 3.269913e-001 3.201316e-001 2.803316e-001 2.604493e-001 2.206026e-001 2.954468e-001
<GCONST> 1.159485e+002
<TRANSP> 5
 0.000000e+000 1.000000e+000 0.000000e+000 0.000000e+000 0.000000e+000
 0.000000e+000 7.696760e-001 2.303240e-001 0.000000e+000 0.000000e+000
 0.000000e+000 0.000000e+000 7.980828e-001 2.019173e-001 0.000000e+000
 0.000000e+000 0.000000e+000 0.000000e+000 6.235410e-001 3.764590e-001
 0.000000e+000 0.000000e+000 0.000000e+000 0.000000e+000 0.000000e+000
<ENDHMM>
~h "g"
<BEGINHMM>
<NUMSTATES> 5
<STATE> 2
<NUMMIXES> 2
<MIXTURE> 1 5.179087e-001
<MEAN> 39
 -5.322594e+000 2.124078e+000 3.804014e+000 -5.138496e+000 -1.560172e+000 -4.785437e+000 -5.404489e+000 -5.518973e+000 -2.815071e+000 -4.653189e+000 2.227489e+000 -4.086171e+000 4.504261e+001 -1.321974e+000 -2.437895e+000 -1.285571e+000 1.423164e+000 -5.070004e-001 -2.601464e-002 1.620799e+000 1.616854e-001 4.305516e-001 7.244582e-002 -3.900960e-002 3.143320e-001 8.806943e-001 3.016806e-003 -5.331913e-001 -5.083658e-001 -5.861542e-001 -2.661915e-001 -1.334332e-001 2.347163e-001 2.341272e-001 3.883148e-001 2.230009e-001 2.069007e-002 2.984699e-002 1.585537e+000
<VARIANCE> 39
 3.896344e+001 3.358686e+001 3.790921e+001 5.556917e+001 3.672725e+001 3.993813e+001 4.977337e+001 3.893970e+001 4.396883e+001 3.667374e+001 3.808699e+001 3.459177e+001 4.474502e+001 1.613033e+000 2.231731e+000 3.098558e+000 4.085625e+000 3.519093e+000 4.572992e+000 3.108929e+000 2.969941e+000 2.299175e+000 2.436244e+000 1.841215e+000 1.275606e+000 1.787256e+000 2.840447e-001 3.255252e-001 4.450617e-001 6.204566e-001 4.260997e-001 3.703576e-001 4.669369e-001 3.363936e-001 3.501141e-001 2.886713e-001 3.341318e-001 2.329684e-001 5.566801e-001
<GCONST> 1.189192e+002
<MIXTURE> 2 4.820908e-001
<MEAN> 39
 -6.774135e+000 1.297112e+000 2.884036e+000 -4.486080e+000 -1.348612e+000 -4.799360e+000 -4.457547e+000 -4.682828e+000 -1.322390e+000 -3.991335e+000 2.122428e+000 -3.858542e+000 4.332630e+001 -1.492175e+000 -2.700854e+000 -1.272864e+000 1.257609e+000 -7.532644e-001 2.855942e-001 1.080071e+000 -1.207503e-001 2.222399e-001 -2.890740e-001 -6.643426e-002 3.840727e-002 8.446392e-001 4.600535e-002 -6.408353e-001 -4.861371e-001 -5.538752e-001 -3.384063e-001 -2.320023e-001 2.974150e-001 1.125243e-001 2.183999e-001 1.224227e-001 -8.832826e-002 -5.064835e-002 1.625938e+000
<VARIANCE> 39
 4.346822e+001 3.331458e+001 3.689735e+001 5.269973e+001 3.387127e+001 4.155620e+001 4.917710e+001 3.705330e+001 3.751372e+001 3.296984e+001 3.596202e+001 2.817095e+001 5.451443e+001 1.971378e+000 2.599796e+000 2.330811e+000 3.875483e+000 3.202940e+000 3.733207e+000 3.509653e+000 3.227239e+000 1.925490e+000 1.911908e+000 1.697908e+000 1.035407e+000 1.912213e+000 3.210124e-001 3.872285e-001 4.430760e-001 6.769431e-001 4.828789e-001 3.749253e-001 3.900760e-001 3.346258e-001 3.181610e-001 2.878191e-001 3.255399e-001 2.302012e-001 7.603012e-001
<GCONST> 1.182941e+002
<STATE> 3
<NUMMIXES> 2
<MIXTURE> 1 5.137930e-001
<MEAN> 39
 -1.012051e+001 -6.834720e+000 -4.522176e-001 -1.831863e+000 -1.507325e+000 -3.738971e+000 -1.918239e-002 -3.466199e+000 -1.419787e+000 -4.073398e+000 7.302775e-001 -3.076541e+000 4.689766e+001 -7.338917e-001 -2.482676e+000 -1.696639e+000 1.215642e-001 -5.600036e-001 -5.981376e-001 1.376513e+000 4.887066e-001 7.977160e-001 6.041739e-001 1.184496e-001 3.523386e-001 3.080787e+000 5.399264e-001 3.857902e-001 -1.091925e-002 -7.351205e-001 -2.061747e-001 -1.608325e-001 -2.875430e-001 8.325066e-002 2.888336e-001 1.420950e-001 8.413412e-002 -2.733608e-003 1.084078e+000
<VARIANCE> 39
 3.267811e+001 5.338614e+001 3.835688e+001 3.756221e+001 2.906050e+001 3.881219e+001 3.028839e+001 2.654061e+001 3.222841e+001 2.183550e+001 2.140509e+001 1.886615e+001 9.821928e+001 2.281873e+000 2.457408e+000 3.413238e+000 4.087835e+000 2.821561e+000 3.503064e+000 2.793814e+000 2.896482e+000 1.981430e+000 2.085005e+000 1.710798e+000 1.595746e+000 2.965482e+000 2.352706e-001 3.187267e-001 4.006977e-001 4.256925e-001 4.813144e-001 4.618516e-001 4.187345e-001 3.304056e-001 3.006821e-001 2.782799e-001 2.495989e-001 2.028809e-001 4.736358e-001
<GCONST> 1.154762e+002
<MIXTURE> 2 4.862070e-001
<MEAN> 39
 -1.095387e+001 -7.072322e+000 -7.215708e-001 -2.263731e+000 -1.590544e+000 -4.135913e+000 -1.416344e+000 -4.544097e+000 -7.817520e-001 -4.761540e+000 -7.181743e-002 -3.498729e+000 4.693756e+001 -8.895372e-001 -2.907032e+000 -1.553656e+000 1.246756e-001 -1.140626e+000 -4.093363e-002 1.122036e+000 7.143671e-002 5.169199e-001 -1.189993e-001 -8.672631e-002 -1.343963e-001 3.035688e+000 5.688197e-001 2.844430e-001 -1.162882e-001 -7.499369e-001 -2.119073e-001 -3.087306e-001 -3.580498e-002 5.176855e-003 1.175631e-001 1.082016e-001 -1.430292e-002 -1.166071e-001 1.041399e+000
<VARIANCE> 39
 3.671358e+001 5.239976e+001 3.796037e+001 3.674154e+001 2.777903e+001 3.405480e+001 3.560691e+001 2.960802e+001 2.859016e+001 2.105258e+001 2.166271e+001 1.991321e+001 1.040036e+002 2.466534e+000 2.661248e+000 2.563260e+000 3.725582e+000 2.921975e+000 3.495920e+000 2.660813e+000 2.503872e+000 1.879264e+000 2.071935e+000 1.465626e+000 1.366828e+000 2.795263e+000 2.828651e-001 3.584906e-001 4.052867e-001 3.699522e-001 4.204387e-001 3.721420e-001 4.560870e-001 3.863828e-001 2.698504e-001 3.499121e-001 2.784539e-001 1.881871e-001 4.899963e-001
<GCONST> 1.150453e+002
<STATE> 4
<NUMMIXES> 2
<MIXTURE> 1 5.177386e-001
<MEAN> 39
 -9.549955e+000 -1.097596e+001 -4.031031e+000 -5.352968e+000 -4.838326e+000 -7.164820e+000 2.323788e+000 -2.748062e+000 1.605030e+000 -2.273701e+000 2.431476e+000 -2.940817e+000 5.989457e+001 1.127233e+000 -2.929513e-002 -6.673286e-001 -7.436964e-001 -7.963093e-001 -5.558102e-001 3.182078e-001 1.877217e-001 8.459285e-001 1.901998e-001 2.115830e-001 6.196809e-002 2.787769e+000 5.415448e-001 7.242255e-001 3.136967e-001 -2.052033e-001 4.418865e-003 1.141384e-001 -4.368627e-001 -1.692037e-001 -1.410450e-003 -1.250301e-001 -6.719211e-003 -3.355733e-002 -3.084604e-001
<VARIANCE> 39
 3.416510e+001 6.064989e+001 4.632590e+001 6.121701e+001 4.396199e+001 4.568119e+001 3.489690e+001 4.050748e+001 2.863628e+001 2.897481e+001 2.339866e+001 2.029269e+001 3.632570e+001 2.768427e+000 3.406867e+000 3.370585e+000 2.695855e+000 2.690045e+000 2.734611e+000 2.675970e+000 2.371096e+000 1.907960e+000 1.646737e+000 1.702308e+000 1.300610e+000 3.760192e+000 3.351015e-001 6.008145e-001 4.098516e-001 5.039135e-001 4.490880e-001 5.228884e-001 4.631262e-001 5.521562e-001 2.931956e-001 3.859873e-001 2.919649e-001 2.476653e-001 4.162994e-001
<GCONST> 1.184826e+002
<MIXTURE> 2 4.822616e-001
<MEAN> 39
 -1.035186e+001 -1.179075e+001 -4.242812e+000 -6.608352e+000 -5.300420e+000 -6.263928e+000 8.106412e-001 -4.280591e+000 1.956900e+000 -3.223215e+000 1.235936e+000 -3.886235e+000 6.000576e+001 9.624857e-001 -3.004465e-001 -7.958136e-001 -9.030618e-001 -1.010287e+000 -5.649831e-001 1.601235e-001 -2.493789e-001 5.010486e-001 -6.516478e-002 -1.615901e-001 -4.037558e-001 2.759706e+000 5.196328e-001 6.973405e-001 2.356124e-001 -2.012441e-001 5.569769e-002 -1.747312e-002 -3.209592e-001 -8.037569e-002 -1.493219e-001 -1.138506e-001 -7.328305e-002 -1.325832e-001 -3.201870e-001
<VARIANCE> 39
 3.530895e+001 6.478341e+001 4.680841e+001 5.936105e+001 4.299387e+001 4.619843e+001 3.303066e+001 3.559610e+001 2.791632e+001 2.746271e+001 2.386692e+001 2.235962e+001 3.477430e+001 3.081442e+000 3.615628e+000 2.961315e+000 2.941623e+000 2.677950e+000 2.976581e+000 2.599724e+000 2.178481e+000 1.700375e+000 1.703609e+000 1.896493e+000 1.451144e+000 3.589944e+000 3.766807e-001 6.685765e-001 3.775484e-001 5.459398e-001 4.231649e-001 5.234857e-001 4.805289e-001 5.053355e-001 3.148887e-001 3.418663e-001 3.325523e-001 2.521525e-001 4.020008e-001
<GCONST> 1.187159e+002
<TRANSP> 5
 0.000000e+000 1.000000e+000 0.000000e+000 0.000000e+000 0.000000e+000
 0.000000e+000 1.326262e-001 8.673738e-001 0.000000e+000 0.000000e+000
 0.000000e+000 0.000000e+000 2.554249e-001 7.445750e-001 0.000000e+000
 0.000000e+000 0.000000e+000 0.000000e+000 6.663221e-001 3.336779e-001
 0.000000e+000 0.000000e+000 0.000000e+000 0.000000e+000 0.000000e+000
<ENDHMM>
~h "k"
<BEGINHMM>
<NUMSTATES> 5
<STATE> 2
<NUMMIXES> 2
<MIXTURE> 1 4.939626e-001
<MEAN> 39
 -9.521317e+000 -2.951771e+000 1.381096e-001 -2.430779e+000 -1.927814e-001 -3.323745e+000 6.495674e-002 -1.955828e+000 1.077168e-002 -2.404210e+000 1.039799e+000 -3.214977e+000 4.329654e+001 -1.146617e+000 -1.342542e+000 -7.737651e-001 3.898159e-001 -9.557182e-002 -1.049957e-001 9.499968e-001 4.342778e-001 4.195091e-001 3.720371e-001 3.026233e-001 3.863434e-001 7.826926e-001 1.408245e-001 -7.654576e-002 -2.803735e-001 -5.673975e-001 -2.220967e-001 -1.212996e-001 2.170117e-002 1.198663e-003 1.835910e-001 6.770215e-002 -5.908960e-004 -5.557489e-002 1.514694e+000
<VARIANCE> 39
 5.476250e+001 4.142766e+001 3.917598e+001 4.113843e+001 5.135292e+001 4.485975e+001 4.416318e+001 4.840252e+001 3.738667e+001 3.631847e+001 2.759387e+001 2.844260e+001 1.052667e+002 1.899898e+000 2.827404e+000 2.599342e+000 2.919706e+000 3.501128e+000 2.682042e+000 2.949254e+000 2.467817e+000 2.503759e+000 1.719531e+000 1.771865e+000 1.540317e+000 4.767528e+000 3.418207e-001 3.972998e-001 2.831097e-001 4.575373e-001 5.269799e-001 4.304697e-001 3.589355e-001 3.801579e-001 3.177872e-001 3.355336e-001 2.483441e-001 2.667646e-001 1.210187e+000
<GCONST> 1.204151e+002
<MIXTURE> 2 5.060381e-001
<MEAN> 39
 -1.139449e+001 -4.113084e+000 -1.415112e+000 -3.370052e+000 -9.019064e-001 -3.742066e+000 -5.184781e-001 -2.452971e+000 -7.478392e-002 -3.035892e+000 3.039103e-001 -3.998497e+000 4.082869e+001 -1.287011e+000 -1.561928e+000 -8.926818e-001 2.689230e-001 -2.410223e-001 -2.941577e-001 7.426527e-001 9.877504e-002 6.815279e-002 5.312019e-002 5.870096e-002 1.526704e-001 6.672947e-001 1.853620e-001 -1.190263e-001 -3.213872e-001 -6.586634e-001 -2.929325e-001 -2.167113e-001 -4.737627e-002 -7.524754e-002 1.083647e-001 1.810267e-002 -6.502169e-002 -1.049367e-001 1.748435e+000
<VARIANCE> 39
 4.901583e+001 3.918803e+001 4.079270e+001 3.826961e+001 4.847617e+001 3.748992e+001 4.376946e+001 4.584214e+001 3.650724e+001 3.721254e+001 2.864239e+001 2.501537e+001 7.819982e+001 2.037206e+000 2.452827e+000 2.600360e+000 2.718070e+000 3.491134e+000 2.541683e+000 2.732255e+000 2.316441e+000 2.249872e+000 1.547720e+000 1.552678e+000 1.374876e+000 4.224278e+000 3.055566e-001 4.110131e-001 2.983499e-001 4.790491e-001 5.226498e-001 4.172407e-001 3.351157e-001 3.914375e-001 3.236954e-001 3.178802e-001 2.360281e-001 2.395553e-001 1.217515e+000
<GCONST> 1.183631e+002
<STATE> 3
<NUMMIXES> 2
<MIXTURE> 1 5.005074e-001
<MEAN> 39
 -1.354798e+001 -7.066371e+000 -2.643960e+000 -3.160903e+000 -1.304291e+000 -3.305238e+000 1.317506e+000 -1.675010e+000 1.162162e+000 -1.773856e+000 1.608419e+000 -2.101213e+000 4.676304e+001 -3.630353e-001 -1.157826e+000 -1.233076e+000 -8.210080e-001 -3.393271e-001 -3.926172e-001 7.141267e-001 3.422983e-001 7.344468e-001 4.502047e-001 1.704153e-001 1.128472e-001 3.808112e+000 4.230211e-001 4.682738e-001 9.068389e-002 -3.858805e-001 -2.883579e-002 -6.198110e-003 -1.876592e-001 -7.537980e-002 5.249020e-002 5.885105e-002 2.737504e-003 -1.105278e-001 8.239490e-001
<VARIANCE> 39
 3.044508e+001 5.095700e+001 3.149191e+001 3.968776e+001 3.701335e+001 3.241409e+001 2.875348e+001 3.049541e+001 2.333455e+001 2.131844e+001 2.021578e+001 1.767992e+001 1.193951e+002 1.919116e+000 2.451621e+000 2.104550e+000 2.374581e+000 2.313684e+000 2.200694e+000 2.146881e+000 2.012160e+000 2.140988e+000 1.635401e+000 1.248469e+000 1.098688e+000 4.989557e+000 2.309005e-001 3.148161e-001 2.355981e-001 3.481242e-001 4.041611e-001 3.225891e-001 3.384126e-001 3.168405e-001 2.763934e-001 2.316688e-001 2.582971e-001 1.670519e-001 8.496827e-001
<GCONST> 1.108700e+002
<MIXTURE> 2 4.994921e-001
<MEAN> 39
 -1.450405e+001 -7.650414e+000 -3.053125e+000 -3.678981e+000 -1.815501e+000 -3.746084e+000 1.205565e+000 -2.580272e+000 4.992385e-001 -2.793682e+000 1.158315e+000 -2.736664e+000 4.530100e+001 -4.338910e-001 -1.350681e+000 -1.279536e+000 -9.144742e-001 -6.107595e-001 -5.748718e-001 3.953000e-001 5.899402e-002 2.871405e-001 8.003107e-002 -1.009725e-001 -1.215557e-001 3.688399e+000 4.021223e-001 3.916021e-001 3.620822e-003 -4.489939e-001 -1.136397e-001 -1.021989e-001 -2.262201e-001 -1.461449e-001 1.737789e-003 -7.347995e-002 -1.380291e-001 -2.028471e-001 8.763942e-001
<VARIANCE> 39
 2.624413e+001 5.421214e+001 3.327707e+001 3.983992e+001 3.865140e+001 3.226917e+001 2.867134e+001 3.014861e+001 2.365357e+001 2.132571e+001 1.989719e+001 1.764237e+001 1.128661e+002 1.851422e+000 2.466660e+000 1.987244e+000 2.201035e+000 2.284288e+000 1.934902e+000 1.900961e+000 1.782918e+000 1.909579e+000 1.571149e+000 1.174898e+000 1.085643e+000 4.890406e+000 2.132378e-001 3.582873e-001 2.653418e-001 3.915147e-001 3.822337e-001 3.335128e-001 3.286484e-001 3.131436e-001 2.610339e-001 2.569901e-001 2.723092e-001 1.882898e-001 8.926084e-001
<GCONST> 1.105032e+002
<STATE> 4
<NUMMIXES> 2
<MIXTURE> 1 5.197415e-001
<MEAN> 39
 -1.275563e+001 -6.929017e+000 -4.935409e+000 -8.499747e+000 -7.059331e-001 -5.394711e+000 2.472859e+000 -2.295593e+000 2.603648e+000 -1.326783e+000 1.157217e+000 -3.283652e+000 6.188956e+001 8.346373e-001 3.407612e-001 -7.470349e-003 -6.472306e-001 1.975687e-001 3.781352e-001 -6.253377e-002 -9.734496e-002 2.146598e-001 1.551087e-001 5.686647e-002 -6.821638e-003 1.915949e+000 3.186691e-001 1.914304e-001 2.160967e-001 1.004858e-001 2.087767e-002 1.537232e-001 -1.630430e-001 -4.743386e-002 -1.025333e-001 -5.835925e-002 -3.032316e-003 1.325685e-002 -4.702707e-001
<VARIANCE> 39
 2.981236e+001 6.982176e+001 4.219710e+001 6.837438e+001 5.930912e+001 5.497741e+001 4.279546e+001 4.839210e+001 3.853167e+001 4.118629e+001 2.865747e+001 2.622957e+001 3.801579e+001 2.300385e+000 2.079664e+000 2.011373e+000 2.348301e+000 2.484814e+000 2.425635e+000 1.912750e+000 1.792161e+000 1.851810e+000 1.696070e+000 1.313716e+000 1.215051e+000 4.043629e+000 2.510939e-001 4.199796e-001 3.254057e-001 3.599745e-001 4.616244e-001 3.916453e-001 3.456541e-001 3.482067e-001 3.491111e-001 3.155992e-001 2.398704e-001 2.364858e-001 6.461291e-001
<GCONST> 1.160626e+002
<MIXTURE> 2 4.802551e-001
<MEAN> 39
 -1.318484e+001 -7.800687e+000 -5.875846e+000 -8.738175e+000 -1.284894e+000 -5.992453e+000 1.677475e+000 -3.841668e+000 1.633490e+000 -2.953697e+000 4.230281e-002 -4.490808e+000 6.084993e+001 8.428904e-001 2.006118e-001 -2.641384e-001 -8.806487e-001 -2.810081e-002 -1.627618e-001 -4.203883e-001 -6.189545e-001 -2.487823e-001 -3.047100e-001 -5.418245e-001 -5.735695e-001 1.880732e+000 2.386214e-001 1.442076e-001 1.084179e-001 7.467787e-003 -4.169935e-003 7.350715e-002 -1.633794e-001 -1.058069e-001 -1.561801e-001 -1.346540e-001 -8.384269e-002 -8.781474e-002 -4.237867e-001
<VARIANCE> 39
 3.057639e+001 7.913568e+001 4.369927e+001 6.513157e+001 5.981490e+001 5.497930e+001 4.334171e+001 4.545938e+001 4.072747e+001 3.966379e+001 3.013931e+001 2.919324e+001 4.168788e+001 2.276268e+000 2.267633e+000 1.937472e+000 2.515424e+000 2.405357e+000 2.474765e+000 2.011954e+000 2.014552e+000 1.854975e+000 1.956773e+000 1.640715e+000 1.432598e+000 4.077713e+000 2.506106e-001 4.869628e-001 3.142223e-001 3.924655e-001 4.271149e-001 3.995061e-001 3.433120e-001 3.726582e-001 3.558251e-001 3.326475e-001 2.818230e-001 2.730705e-001 6.802303e-001
<GCONST> 1.178569e+002
<TRANSP> 5
 0.000000e+000 1.000000e+000 0.000000e+000 0.000000e+000 0.000000e+000
 0.000000e+000 2.989122e-001 7.010878e-001 0.000000e+000 0.000000e+000
 0.000000e+000 0.000000e+000 3.901884e-001 6.098117e-001 0.000000e+000
 0.000000e+000 0.000000e+000 0.000000e+000 7.643957e-001 2.356043e-001
 0.000000e+000 0.000000e+000 0.000000e+000 0.000000e+000 0.000000e+000
<ENDHMM>
~h "l"
<BEGINHMM>
<NUMSTATES> 5
<STATE> 2
<NUMMIXES> 2
<MIXTURE> 1 5.015317e-001
<MEAN> 39
 4.023984e+000 -4.552856e+000 -1.869329e+001 -6.280585e+000 1.356821e+000 -9.938882e+000 -2.343559e+000 -3.118475e+000 3.907715e+000 -6.932615e-001 1.319088e-001 -4.685697e+000 6.460172e+001 5.351008e-001 2.583683e-001 -6.480672e-001 1.201143e-001 2.668748e-001 -1.500267e-001 -3.056553e-001 1.865474e-002 2.600167e-001 2.442999e-001 -7.590181e-002 1.739973e-001 -9.178086e-002 -3.082860e-001 -1.090398e-001 4.279616e-001 1.695361e-002 -1.484610e-001 1.460402e-001 2.354022e-001 7.146952e-002 -1.813779e-001 -7.476927e-002 3.100828e-002 7.850161e-002 -1.403685e-002
<VARIANCE> 39
 2.138047e+001 4.847611e+001 7.214432e+001 4.071813e+001 4.894816e+001 5.550415e+001 5.980018e+001 6.006990e+001 4.152088e+001 5.111824e+001 3.729008e+001 3.672734e+001 4.164606e+001 1.216586e+000 1.475227e+000 2.997570e+000 1.536695e+000 1.927303e+000 1.993622e+000 2.366491e+000 2.689605e+000 2.055641e+000 1.760082e+000 1.533757e+000 1.074181e+000 1.773707e+000 1.628759e-001 1.883175e-001 3.097411e-001 2.531490e-001 3.023350e-001 3.016145e-001 3.929226e-001 4.159389e-001 3.556341e-001 3.205345e-001 2.565416e-001 1.845051e-001 1.947943e-001
<GCONST> 1.118848e+002
<MIXTURE> 2 4.984670e-001
<MEAN> 39
 3.161452e+000 -5.803370e+000 -1.957234e+001 -6.659840e+000 5.426322e-001 -9.997488e+000 -2.997238e+000 -4.052758e+000 2.506341e+000 -2.244232e+000 -4.390032e-001 -6.215016e+000 6.422575e+001 5.330474e-001 1.371331e-001 -6.874370e-001 -1.322745e-004 1.553549e-001 -2.663840e-001 -4.317511e-001 1.622941e-001 1.789427e-001 3.796773e-002 -3.019553e-001 -7.780270e-002 -2.345378e-002 -3.485458e-001 -1.420555e-001 4.163779e-001 -5.169056e-003 -1.822571e-001 1.330384e-001 2.350242e-001 7.897284e-002 -1.517125e-001 -1.039845e-001 -2.864906e-002 4.264380e-002 -1.814801e-002
<VARIANCE> 39
 1.971185e+001 4.758463e+001 6.221432e+001 4.610555e+001 4.552689e+001 5.578570e+001 6.530370e+001 6.167411e+001 4.149984e+001 6.442641e+001 4.235171e+001 3.929537e+001 4.076168e+001 1.308410e+000 1.579841e+000 2.843037e+000 1.620432e+000 2.003722e+000 1.947148e+000 2.444091e+000 2.799814e+000 1.950325e+000 1.773304e+000 1.606248e+000 1.254975e+000 2.012302e+000 1.790961e-001 2.012592e-001 3.136574e-001 2.749952e-001 3.022766e-001 3.053205e-001 4.191310e-001 4.561321e-001 3.706305e-001 3.582882e-001 2.602164e-001 1.960014e-001 2.094419e-001
<GCONST> 1.134497e+002
<STATE> 3
<NUMMIXES> 2
<MIXTURE> 1 5.071607e-001
<MEAN> 39
 2.239625e+000 -7.234318e+000 -1.683412e+001 -3.763400e+000 -8.517488e-001 -1.330746e+001 6.814366e-002 1.134407e+000 2.735113e+000 -3.736124e+000 -1.678084e+000 -3.072170e+000 6.620200e+001 -7.643480e-001 -4.938169e-001 1.310869e+000 1.180778e-001 -1.013728e+000 3.455489e-001 1.394667e+000 2.904973e-001 -1.018813e+000 -1.671288e-001 3.217047e-001 3.720163e-001 4.192855e-001 -3.851416e-001 1.401725e-001 5.577670e-001 -3.020538e-001 -9.553689e-002 5.260229e-001 1.193487e-001 -4.458024e-001 -1.570808e-001 1.851308e-001 1.789160e-001 -7.756037e-002 -1.115268e-001
<VARIANCE> 39
 1.712671e+001 3.932884e+001 5.214768e+001 3.176258e+001 4.812975e+001 5.744110e+001 6.915675e+001 6.042862e+001 4.249117e+001 4.356481e+001 3.836298e+001 3.233664e+001 4.856050e+001 9.228575e-001 2.288056e+000 3.760463e+000 1.886522e+000 3.101445e+000 2.663489e+000 3.673276e+000 3.294003e+000 2.334496e+000 2.457369e+000 1.562182e+000 1.240298e+000 2.804593e+000 2.025063e-001 1.783646e-001 2.582369e-001 3.412721e-001 2.898870e-001 3.558268e-001 4.584613e-001 4.229955e-001 3.421163e-001 3.438362e-001 2.691450e-001 2.024978e-001 1.590866e-001
<GCONST> 1.145956e+002
<MIXTURE> 2 4.928379e-001
<MEAN> 39
 1.577090e+000 -8.375483e+000 -1.784548e+001 -4.570187e+000 -1.744548e+000 -1.307582e+001 -5.969296e-001 1.103768e+000 1.476407e+000 -4.663126e+000 -2.462513e+000 -4.457821e+000 6.638465e+001 -9.284980e-001 -5.792922e-001 1.379678e+000 -1.148293e-001 -1.106158e+000 2.977604e-001 1.399555e+000 3.800111e-001 -1.165266e+000 -3.814126e-001 4.953790e-002 6.301960e-002 4.371882e-001 -3.982760e-001 1.332534e-001 5.349482e-001 -3.119355e-001 -1.367477e-001 5.030629e-001 1.330637e-001 -4.957159e-001 -1.203775e-001 1.408566e-001 1.412682e-001 -1.154592e-001 -1.465878e-001
<VARIANCE> 39
 1.717657e+001 3.396429e+001 4.684185e+001 3.282099e+001 4.552834e+001 5.570131e+001 7.329440e+001 6.978310e+001 4.251078e+001 5.153034e+001 3.960556e+001 3.857644e+001 5.161236e+001 1.037802e+000 2.167578e+000 3.504717e+000 1.844236e+000 2.842989e+000 2.485830e+000 4.126239e+000 3.552248e+000 2.300009e+000 2.358614e+000 1.699915e+000 1.405761e+000 3.383802e+000 2.169512e-001 1.935758e-001 2.549972e-001 3.241940e-001 2.779711e-001 3.354295e-001 4.653446e-001 4.306496e-001 3.628136e-001 3.761046e-001 2.671643e-001 2.169199e-001 1.914665e-001
<GCONST> 1.156918e+002
<STATE> 4
<NUMMIXES> 2
<MIXTURE> 1 5.164043e-001
<MEAN> 39
 -1.372442e+000 -7.386681e+000 -1.005895e+001 -6.341746e+000 -5.547466e+000 -7.505548e+000 4.974348e+000 -3.792998e+000 -4.545244e-001 -1.925093e+000 5.422373e-001 -4.350691e+000 6.566930e+001 -1.202696e+000 5.631725e-001 1.747906e+000 -1.188168e+000 -2.351702e-001 1.390620e+000 8.954539e-003 -8.655905e-001 -3.717382e-002 2.745669e-001 1.078232e-001 1.821937e-001 2.013532e-002 -6.473137e-002 2.818152e-001 -4.387487e-002 -1.166541e-001 4.510027e-001 -2.455718e-002 -5.048613e-001 -3.214908e-003 2.574788e-001 -6.987008e-002 1.138758e-002 5.741781e-002 -1.950278e-001
<VARIANCE> 39
 2.848442e+001 4.068752e+001 5.867172e+001 4.608378e+001 7.885208e+001 6.736610e+001 7.043375e+001 7.221320e+001 5.105400e+001 4.776591e+001 3.842872e+001 3.432399e+001 9.474039e+001 9.747066e-001 3.045995e+000 3.257112e+000 3.589773e+000 2.945642e+000 3.112413e+000 3.761015e+000 2.845909e+000 2.772007e+000 2.221481e+000 1.610603e+000 1.398426e+000 2.405516e+000 1.786267e-001 2.262667e-001 3.163028e-001 3.761818e-001 4.582829e-001 5.043212e-001 5.262176e-001 4.841838e-001 3.637940e-001 3.550272e-001 2.647187e-001 2.103035e-001 1.738699e-001
<GCONST> 1.200690e+002
<MIXTURE> 2 4.835969e-001
<MEAN> 39
 -2.285811e+000 -8.155397e+000 -1.095033e+001 -6.978084e+000 -5.389645e+000 -6.840544e+000 3.501663e+000 -4.345305e+000 -1.725239e+000 -3.158577e+000 -4.013059e-001 -6.256248e+000 6.476162e+001 -1.455297e+000 4.511760e-001 1.822684e+000 -1.198023e+000 -3.722324e-001 1.127261e+000 -5.776423e-002 -9.267223e-001 -4.566920e-002 3.692011e-002 -1.207906e-001 -1.074381e-001 -2.145080e-001 -7.584390e-002 2.363404e-001 -1.061078e-001 -1.533639e-001 3.778686e-001 -4.005561e-002 -4.552435e-001 -2.336451e-002 2.745535e-001 -1.054087e-001 -3.675475e-002 4.116384e-002 -1.937283e-001
<VARIANCE> 39
 2.707116e+001 3.980297e+001 5.759204e+001 4.326498e+001 8.365849e+001 6.949813e+001 7.249096e+001 7.070181e+001 5.217816e+001 5.574127e+001 4.311659e+001 4.639607e+001 1.033627e+002 1.252436e+000 2.894731e+000 3.093058e+000 3.347358e+000 2.727853e+000 3.222753e+000 3.399411e+000 3.022977e+000 2.630663e+000 2.192485e+000 1.607060e+000 1.533595e+000 2.715599e+000 2.142284e-001 2.631609e-001 3.425441e-001 3.527128e-001 5.319555e-001 4.559501e-001 5.469820e-001 4.630032e-001 3.773803e-001 3.472873e-001 2.603868e-001 2.280889e-001 1.784527e-001
<GCONST> 1.213291e+002
<TRANSP> 5
 0.000000e+000 1.000000e+000 0.000000e+000 0.000000e+000 0.000000e+000
 0.000000e+000 7.548151e-001 2.451849e-001 0.000000e+000 0.000000e+000
 0.000000e+000 0.000000e+000 4.842009e-001 5.157990e-001 0.000000e+000
 0.000000e+000 0.000000e+000 0.000000e+000 4.977846e-001 5.022153e-001
 0.000000e+000 0.000000e+000 0.000000e+000 0.000000e+000 0.000000e+000
<ENDHMM>
~h "m"
<BEGINHMM>
<NUMSTATES> 5
<STATE> 2
<NUMMIXES> 2
<MIXTURE> 1 5.267325e-001
<MEAN> 39
 4.924303e-002 -2.929775e+000 -6.674668e-002 -4.967776e+000 1.564036e+000 -7.341729e+000 -2.318946e+000 -2.106645e+000 -8.121890e-001 -4.722436e+000 1.750679e+000 -4.940168e+000 5.820112e+001 6.567883e-001 1.007712e+000 1.626336e+000 3.729946e-001 4.318754e-001 -1.157204e+000 -1.061620e+000 4.138677e-001 -4.508094e-001 1.811569e-001 2.060167e-001 1.557605e-001 -9.138575e-001 -1.118070e-001 -1.712248e-002 -1.578999e-001 -1.254809e-001 -6.136660e-003 1.413661e-001 5.839182e-002 -1.115546e-001 1.753774e-001 9.113491e-002 -1.308885e-001 8.639484e-002 2.008477e-001
<VARIANCE> 39
 3.813322e+001 3.851250e+001 5.420046e+001 3.718812e+001 6.738077e+001 6.417423e+001 5.921225e+001 5.256625e+001 4.855713e+001 4.898424e+001 4.956973e+001 3.722570e+001 8.399039e+001 1.590802e+000 1.383427e+000 2.068739e+000 1.892482e+000 2.320067e+000 2.568310e+000 2.914444e+000 2.607541e+000 2.724726e+000 2.810130e+000 2.333519e+000 1.579069e+000 2.341136e+000 1.349018e-001 1.866097e-001 2.749212e-001 2.228779e-001 2.734906e-001 3.058455e-001 3.570044e-001 3.577885e-001 2.845056e-001 3.299949e-001 2.909301e-001 2.343989e-001 2.247043e-001
<GCONST> 1.153181e+002
<MIXTURE> 2 4.732661e-001
<MEAN> 39
 -2.017998e+000 -4.473432e+000 -9.011987e-001 -6.403409e+000 -3.350641e-001 -9.060315e+000 -4.987365e+000 -4.357357e+000 -3.488955e+000 -7.130363e+000 3.045345e-001 -7.409586e+000 5.732879e+001 8.574392e-001 7.170918e-001 1.443851e+000 1.959757e-001 2.901968e-001 -1.330728e+000 -1.283359e+000 2.003532e-001 -7.662597e-001 -2.807159e-001 -1.425365e-001 -3.569151e-001 -7.009731e-001 -1.722502e-001 -4.449457e-002 -2.248685e-001 -1.583357e-001 -3.650111e-002 1.523480e-001 1.132983e-001 -1.020211e-001 1.668310e-001 7.943062e-002 -1.704123e-001 6.503275e-003 2.626566e-001
<VARIANCE> 39
 3.735186e+001 3.410019e+001 4.495990e+001 3.651470e+001 5.507352e+001 5.944046e+001 6.318592e+001 6.073940e+001 5.383148e+001 6.120422e+001 6.658385e+001 4.783072e+001 6.744888e+001 1.833180e+000 1.638909e+000 2.130552e+000 2.242687e+000 2.294799e+000 2.540945e+000 3.048203e+000 3.032049e+000 2.987920e+000 3.171560e+000 3.104279e+000 1.934996e+000 3.015074e+000 1.951184e-001 2.063554e-001 2.761942e-001 2.433118e-001 3.104082e-001 3.284359e-001 3.652547e-001 3.779943e-001 3.541087e-001 3.966589e-001 3.332939e-001 2.805342e-001 2.805839e-001
<GCONST> 1.189715e+002
<STATE> 3
<NUMMIXES> 2
<MIXTURE> 1 5.049780e-001
<MEAN> 39
 1.296919e+000 -6.145031e-001 4.962000e+000 -5.773895e+000 3.045393e+000 -1.221634e+001 -6.402150e+000 -1.537865e+000 -1.584551e+000 -1.556735e+000 -4.453515e-001 -4.637565e+000 5.811053e+001 6.225553e-002 2.774748e-001 4.076886e-005 2.988614e-002 1.134572e-001 1.522098e-001 5.314997e-002 -3.066924e-001 3.154927e-002 2.988019e-001 6.690330e-002 2.390312e-001 -1.666871e-001 -1.642266e-001 -2.240898e-001 -6.283115e-001 -1.040300e-001 -1.745889e-001 4.842296e-001 4.540721e-001 -1.092912e-001 2.066279e-001 -1.594404e-001 7.301190e-002 1.378563e-002 2.805874e-001
<VARIANCE> 39
 1.906031e+001 2.878450e+001 4.012169e+001 4.795256e+001 6.587341e+001 6.173357e+001 6.944559e+001 6.899557e+001 6.339094e+001 7.163818e+001 6.121329e+001 4.481442e+001 3.860035e+001 6.856712e-001 1.173832e+000 2.522136e+000 1.254805e+000 1.828988e+000 2.150443e+000 2.082006e+000 2.063549e+000 1.909069e+000 1.977631e+000 1.499104e+000 1.150765e+000 2.138740e+000 1.590257e-001 1.612792e-001 2.713410e-001 2.479235e-001 2.694962e-001 3.621213e-001 4.362235e-001 4.331487e-001 4.546063e-001 4.872794e-001 3.779602e-001 2.615778e-001 1.525023e-001
<GCONST> 1.126619e+002
<MIXTURE> 2 4.950188e-001
<MEAN> 39
 -5.474111e-001 -2.690872e+000 3.248182e+000 -6.870280e+000 1.437067e+000 -1.381378e+001 -8.092802e+000 -3.321417e+000 -4.232714e+000 -4.739151e+000 -1.189020e+000 -6.746019e+000 5.731551e+001 -6.543642e-002 2.211552e-003 -1.485368e-001 -2.151982e-001 -9.721274e-002 2.330422e-001 -2.057074e-002 -3.928237e-001 1.580066e-002 -6.599734e-002 -1.695259e-001 -1.441539e-001 2.959948e-001 -2.471350e-001 -2.784915e-001 -7.204483e-001 -1.388615e-001 -2.028102e-001 5.736932e-001 5.282299e-001 -1.345243e-001 2.963414e-001 -9.711392e-002 9.668697e-003 1.389602e-002 3.132893e-001
<VARIANCE> 39
 1.360832e+001 2.369069e+001 3.895070e+001 4.875039e+001 5.979348e+001 5.946053e+001 7.533917e+001 7.547763e+001 6.473951e+001 9.712107e+001 8.088213e+001 5.021683e+001 3.260793e+001 8.247005e-001 1.239741e+000 2.497618e+000 1.411506e+000 1.753390e+000 2.297640e+000 2.302886e+000 2.002095e+000 1.868845e+000 2.029276e+000 1.544311e+000 1.335793e+000 3.030301e+000 2.199609e-001 1.852904e-001 3.154511e-001 2.763607e-001 3.052711e-001 3.773738e-001 4.683305e-001 4.930427e-001 4.831367e-001 6.038117e-001 4.406550e-001 3.115196e-001 1.758911e-001
<GCONST> 1.155116e+002
<STATE> 4
<NUMMIXES> 2
<MIXTURE> 1 5.004591e-001
<MEAN> 39
 8.935950e-001 -2.571167e+000 -2.666599e+000 -7.968098e+000 1.199594e+000 -6.055820e+000 -2.484694e+000 -4.064333e+000 -5.899228e-001 -4.495936e+000 8.413852e-001 -6.213091e+000 6.055703e+001 -3.965367e-001 -3.704963e-001 -1.909353e+000 -3.951224e-001 -1.516038e-001 1.363227e+000 1.192207e+000 -3.031611e-001 9.113013e-001 -3.490515e-001 9.750433e-002 2.401389e-001 8.935537e-001 -1.665874e-001 3.096695e-002 -2.172245e-002 6.638231e-002 7.335209e-002 -5.271059e-002 6.439709e-002 9.203820e-002 4.821537e-002 2.156164e-002 -4.920803e-003 1.227587e-001 -3.039260e-002
<VARIANCE> 39
 3.379626e+001 4.632928e+001 7.705273e+001 5.178395e+001 6.482976e+001 6.269023e+001 6.471403e+001 5.307097e+001 6.414439e+001 6.162799e+001 5.927095e+001 4.354556e+001 7.049747e+001 1.302630e+000 2.053629e+000 3.859245e+000 2.370830e+000 2.579572e+000 2.485008e+000 2.932450e+000 2.831786e+000 2.857124e+000 3.660821e+000 2.959514e+000 2.077423e+000 3.114988e+000 1.304936e-001 1.961585e-001 3.997122e-001 2.652385e-001 3.066264e-001 3.765359e-001 4.310822e-001 3.395190e-001 4.037786e-001 3.601623e-001 3.619325e-001 2.560700e-001 1.725716e-001
<GCONST> 1.205889e+002
<MIXTURE> 2 4.995390e-001
<MEAN> 39
 -1.407343e+000 -4.614040e+000 -2.432287e+000 -8.495287e+000 -9.184713e-001 -7.947622e+000 -4.209046e+000 -5.704750e+000 -1.935616e+000 -6.115788e+000 -1.234844e-001 -7.328863e+000 6.034737e+001 -6.946742e-001 -4.516939e-001 -1.830858e+000 -6.093146e-001 -2.934943e-001 1.392293e+000 1.042376e+000 -4.326883e-001 9.430913e-001 -3.677666e-001 -1.323204e-001 -8.794013e-002 1.063890e+000 -2.175639e-001 -4.561820e-004 -1.032189e-001 -2.528625e-002 7.775427e-002 1.848312e-003 1.058356e-001 1.145342e-001 4.748306e-002 2.186632e-002 -4.708192e-002 9.143142e-002 -5.269614e-002
<VARIANCE> 39
 2.658059e+001 3.713137e+001 6.638229e+001 5.549097e+001 6.231194e+001 4.891734e+001 6.785606e+001 5.586403e+001 5.730352e+001 6.834464e+001 7.027377e+001 4.188255e+001 7.189389e+001 1.590943e+000 2.326726e+000 3.325663e+000 2.753274e+000 2.759050e+000 2.739888e+000 3.317967e+000 3.241947e+000 3.241861e+000 4.567918e+000 3.187401e+000 2.292143e+000 3.894985e+000 1.702382e-001 2.305234e-001 4.161846e-001 2.890066e-001 3.192750e-001 3.786648e-001 4.448530e-001 3.932132e-001 3.920009e-001 4.248492e-001 4.095073e-001 2.711670e-001 2.248561e-001
<GCONST> 1.228519e+002
<TRANSP> 5
 0.000000e+000 1.000000e+000 0.000000e+000 0.000000e+000 0.000000e+000
 0.000000e+000 5.565048e-001 4.434951e-001 0.000000e+000 0.000000e+000
 0.000000e+000 0.000000e+000 6.736962e-001 3.263038e-001 0.000000e+000
 0.000000e+000 0.000000e+000 0.000000e+000 5.207686e-001 4.792314e-001
 0.000000e+000 0.000000e+000 0.000000e+000 0.000000e+000 0.000000e+000
<ENDHMM>
~h "n"
<BEGINHMM>
<NUMSTATES> 5
<STATE> 2
<NUMMIXES> 2
<MIXTURE> 1 4.990250e-001
<MEAN> 39
 3.313103e+000 -3.396938e+000 4.096494e+000 -5.435381e+000 6.145665e+000 -9.828964e+000 5.666802e+000 -3.414365e+000 1.485990e+000 -4.540648e+000 5.796221e-001 -2.458989e-002 6.259589e+001 1.853584e-001 4.178562e-001 5.429858e-001 3.844509e-002 3.333323e-001 -2.715757e-001 8.491293e-003 1.884093e-001 -5.385907e-002 2.094432e-001 8.517289e-002 2.088018e-001 -6.078609e-001 -5.141633e-002 -8.610371e-003 -8.417281e-002 5.670953e-002 -5.976814e-003 8.481141e-002 1.952050e-002 2.358750e-002 4.055779e-002 1.179047e-002 3.242651e-002 2.262758e-002 2.785116e-002
<VARIANCE> 39
 3.249358e+001 6.663782e+001 6.833236e+001 8.555878e+001 1.015324e+002 8.792903e+001 1.101878e+002 9.077603e+001 7.438760e+001 7.812179e+001 7.617269e+001 6.764671e+001 8.361100e+001 5.399849e-001 8.521429e-001 1.367355e+000 1.393979e+000 1.559109e+000 1.813170e+000 1.498162e+000 1.644822e+000 1.562999e+000 1.468635e+000 1.365846e+000 1.186316e+000 8.841682e-001 5.466539e-002 7.583389e-002 1.235569e-001 1.560155e-001 1.790085e-001 2.064224e-001 1.868601e-001 2.208653e-001 2.242890e-001 2.067747e-001 1.929515e-001 1.699682e-001 6.205474e-002
<GCONST> 1.057915e+002
<MIXTURE> 2 5.009921e-001
<MEAN> 39
 6.205955e-001 -2.392433e+000 6.241730e-001 -7.962961e+000 3.041213e+000 -1.005223e+001 7.855039e-001 -6.438085e+000 -1.699067e+000 -6.164328e+000 -2.322017e+000 -4.420786e+000 6.000071e+001 2.443927e-001 3.877942e-001 6.482519e-001 -1.171435e-001 2.876925e-001 -6.344836e-001 -2.651601e-001 -8.548823e-002 -4.177024e-001 1.135226e-001 -1.885379e-001 -3.481609e-002 -7.971540e-001 -9.835314e-002 -4.711976e-002 -1.413668e-001 3.134239e-002 -6.375197e-002 1.083297e-001 -5.673771e-003 -1.385041e-002 4.037048e-002 -3.392909e-002 1.095153e-002 -1.030954e-002 3.738621e-002
<VARIANCE> 39
 3.271555e+001 5.917763e+001 6.464233e+001 7.171416e+001 8.192963e+001 7.837051e+001 1.084117e+002 9.352805e+001 8.479026e+001 8.934022e+001 6.427711e+001 7.624140e+001 7.858866e+001 6.914150e-001 1.143156e+000 1.465613e+000 1.600666e+000 1.858696e+000 2.223343e+000 1.866234e+000 1.845787e+000 1.859866e+000 1.707816e+000 1.490079e+000 1.278848e+000 1.302770e+000 8.010277e-002 9.104578e-002 1.499558e-001 1.795772e-001 2.050649e-001 2.403242e-001 2.299014e-001 2.461156e-001 2.496306e-001 2.163640e-001 2.040284e-001 1.834164e-001 8.630508e-002
<GCONST> 1.097392e+002
<STATE> 3
<NUMMIXES> 2
<MIXTURE> 1 4.909421e-001
<MEAN> 39
 9.641906e-001 1.897554e-001 2.859579e+000 -1.086668e+001 3.713033e+000 -1.132721e+001 -1.006663e+000 -3.898929e+000 -1.869807e+000 -1.100121e+000 -1.894331e+000 -3.254547e+000 5.713121e+001 2.603192e-002 4.677666e-001 3.237881e-001 3.006314e-001 2.265941e-001 -2.326490e-002 -8.719408e-002 9.621953e-002 -7.873762e-002 2.961495e-001 2.251748e-001 2.415840e-001 -7.228386e-001 -4.133433e-001 -2.183746e-001 -4.977549e-001 2.576564e-001 -4.024449e-001 6.116448e-001 1.844690e-001 -2.835857e-002 2.939227e-001 -2.161393e-001 1.806483e-001 -3.665058e-002 3.582720e-001
<VARIANCE> 39
 2.037871e+001 3.346890e+001 4.248034e+001 5.074380e+001 4.772829e+001 6.928411e+001 5.923390e+001 6.387339e+001 7.035526e+001 6.417899e+001 4.716239e+001 4.028843e+001 4.447636e+001 9.499362e-001 1.278767e+000 1.359805e+000 1.842074e+000 2.139028e+000 2.751201e+000 2.099606e+000 1.847080e+000 1.755902e+000 1.635950e+000 1.293000e+000 1.140774e+000 2.031370e+000 1.579228e-001 2.066999e-001 2.890153e-001 2.862608e-001 3.611343e-001 4.750896e-001 4.095699e-001 4.115506e-001 4.371510e-001 4.138543e-001 3.338135e-001 2.595184e-001 2.347032e-001
<GCONST> 1.133105e+002
<MIXTURE> 2 5.090573e-001
<MEAN> 39
 -5.680686e-001 -1.561745e+000 1.377977e+000 -1.315330e+001 2.779012e+000 -1.208282e+001 -3.000833e+000 -5.953657e+000 -3.326421e+000 -3.052472e+000 -3.220472e+000 -5.133381e+000 5.722142e+001 -1.032853e-001 3.268975e-001 1.526190e-001 1.900668e-001 4.174019e-002 -1.281308e-001 -1.474440e-001 -1.448611e-001 -3.085081e-001 9.380269e-002 1.966495e-003 8.389460e-003 -6.262085e-001 -4.870234e-001 -2.980501e-001 -6.087995e-001 2.879697e-001 -4.649258e-001 6.634343e-001 2.462824e-001 -2.713107e-002 3.357229e-001 -2.439565e-001 1.884279e-001 -5.134327e-002 4.380347e-001
<VARIANCE> 39
 1.414317e+001 2.880663e+001 3.865779e+001 4.593983e+001 4.309563e+001 6.335814e+001 6.496106e+001 6.621903e+001 8.140578e+001 7.605125e+001 5.128112e+001 4.466531e+001 3.722866e+001 1.081420e+000 1.476048e+000 1.424275e+000 1.946359e+000 2.244689e+000 2.770061e+000 2.252407e+000 1.800663e+000 1.887587e+000 1.754099e+000 1.338290e+000 1.194439e+000 2.799621e+000 2.012255e-001 2.395979e-001 2.981910e-001 3.227098e-001 3.705012e-001 4.992328e-001 4.692428e-001 4.492736e-001 5.154538e-001 4.312177e-001 3.834819e-001 2.879521e-001 2.550164e-001
<GCONST> 1.152520e+002
<STATE> 4
<NUMMIXES> 2
<MIXTURE> 1 5.005516e-001
<MEAN> 39
 -1.230166e+000 3.956608e-001 2.069532e+000 -7.637655e+000 1.133240e+000 -6.538188e+000 1.321961e+000 -4.359965e+000 -4.913399e-001 -2.038379e+000 -6.806464e-001 -3.798224e+000 5.663293e+001 -9.256529e-001 -2.983341e-001 -6.611724e-001 5.307842e-001 -5.401465e-001 1.170519e+000 3.483675e-001 -4.896856e-002 7.030296e-001 -1.899094e-001 5.207561e-001 1.487795e-001 2.226855e-001 -2.022963e-001 -1.739114e-001 -2.265640e-001 4.742580e-002 -5.164559e-002 1.184964e-001 5.807151e-002 5.013644e-002 1.166575e-001 -7.522149e-002 7.700301e-002 6.876922e-003 1.733686e-001
<VARIANCE> 39
 3.529904e+001 4.993857e+001 5.210347e+001 7.003856e+001 5.428080e+001 8.163050e+001 7.737876e+001 6.471073e+001 7.620226e+001 6.408363e+001 5.264133e+001 4.177738e+001 1.011100e+002 1.384804e+000 1.837691e+000 1.909726e+000 2.404188e+000 2.404199e+000 3.273945e+000 2.819715e+000 2.537462e+000 2.589872e+000 2.521775e+000 2.148728e+000 1.697998e+000 2.842635e+000 2.096213e-001 1.829506e-001 2.346846e-001 2.647441e-001 3.191203e-001 4.388252e-001 3.538240e-001 3.465496e-001 3.876278e-001 3.166044e-001 3.008503e-001 2.259667e-001 2.061277e-001
<GCONST> 1.193101e+002
<MIXTURE> 2 4.994473e-001
<MEAN> 39
 -3.462203e+000 -1.774596e+000 -2.027664e-001 -9.041677e+000 -3.963254e-001 -7.456047e+000 -2.653490e-001 -6.754244e+000 -2.013462e+000 -3.407246e+000 -1.639473e+000 -5.210954e+000 5.703357e+001 -1.101420e+000 -5.898237e-001 -1.054633e+000 5.061949e-001 -7.770672e-001 1.146339e+000 2.707159e-001 -1.706987e-001 4.575304e-001 -4.464285e-001 2.766324e-001 -6.524159e-002 2.739243e-001 -1.804837e-001 -2.225158e-001 -2.969411e-001 2.581707e-002 -6.132042e-002 1.114643e-001 2.069684e-002 4.391493e-002 1.235315e-001 -1.510674e-001 2.361275e-002 -1.675886e-002 1.618861e-001
<VARIANCE> 39
 2.891728e+001 4.715947e+001 4.814180e+001 6.080220e+001 4.975945e+001 7.170136e+001 6.875840e+001 6.836305e+001 7.491933e+001 6.816257e+001 5.026903e+001 4.155996e+001 1.041590e+002 1.614622e+000 1.901909e+000 1.872353e+000 2.366375e+000 2.425264e+000 3.434619e+000 2.674139e+000 2.710689e+000 2.842586e+000 2.454947e+000 2.055878e+000 1.708139e+000 3.547490e+000 2.471692e-001 2.155199e-001 2.677779e-001 2.822940e-001 3.276890e-001 4.603500e-001 3.551978e-001 3.392079e-001 4.267771e-001 3.003789e-001 2.879356e-001 2.258880e-001 2.385004e-001
<GCONST> 1.197744e+002
<TRANSP> 5
 0.000000e+000 1.000000e+000 0.000000e+000 0.000000e+000 0.000000e+000
 0.000000e+000 7.822049e-001 2.177951e-001 0.000000e+000 0.000000e+000
 0.000000e+000 0.000000e+000 4.868849e-001 5.131151e-001 0.000000e+000
 0.000000e+000 0.000000e+000 0.000000e+000 4.626927e-001 5.373073e-001
 0.000000e+000 0.000000e+000 0.000000e+000 0.000000e+000 0.000000e+000
<ENDHMM>
~h "p"
<BEGINHMM>
<NUMSTATES> 5
<STATE> 2
<NUMMIXES> 2
<MIXTURE> 1 5.085145e-001
<MEAN> 39
 -1.336235e+001 -3.441311e+000 -2.029628e+000 -1.836275e+000 1.547544e+000 -3.717769e+000 5.740651e-001 -2.806389e+000 5.121743e-001 -4.604961e+000 2.158989e+000 -3.164165e+000 3.548644e+001 -1.224421e+000 -6.873009e-001 -5.315024e-001 -4.204901e-001 -1.322250e-001 5.808172e-001 8.902984e-001 5.178842e-001 6.038249e-001 5.261809e-001 5.544429e-001 2.957856e-001 6.470734e-001 5.942902e-001 -2.520089e-001 -2.921602e-001 -3.855476e-001 -2.554600e-001 -1.615467e-001 7.053011e-002 7.411420e-002 1.195066e-001 2.127565e-001 3.839262e-002 -6.887274e-002 2.122407e+000
<VARIANCE> 39
 6.682922e+000 9.220989e+000 8.735877e+000 1.284400e+001 1.605188e+001 1.964532e+001 2.111769e+001 1.992249e+001 2.924550e+001 1.886521e+001 2.005306e+001 1.814299e+001 1.645067e+001 1.415424e+000 1.110847e+000 8.194761e-001 9.893855e-001 1.112209e+000 1.493358e+000 1.533242e+000 1.461477e+000 1.919049e+000 1.259159e+000 1.246187e+000 8.743284e-001 4.341077e+000 2.363316e-001 2.541730e-001 2.650727e-001 2.649665e-001 3.114952e-001 2.713948e-001 2.636538e-001 2.536311e-001 2.796672e-001 2.630800e-001 2.847759e-001 1.979157e-001 7.863348e-001
<GCONST> 9.494794e+001
<MIXTURE> 2 4.914849e-001
<MEAN> 39
 -1.349699e+001 -4.017003e+000 -2.617979e+000 -2.567392e+000 5.182136e-001 -4.595021e+000 -1.453591e-001 -3.538070e+000 -3.243563e-001 -5.338264e+000 1.127671e+000 -3.917793e+000 3.576292e+001 -1.452287e+000 -9.480994e-001 -6.431355e-001 -5.606084e-001 -2.549279e-001 4.235660e-001 5.190264e-001 4.630613e-002 2.240310e-001 1.466886e-001 2.966544e-001 1.530206e-001 1.282305e-001 5.249068e-001 -3.206886e-001 -3.214341e-001 -4.186566e-001 -3.300869e-001 -1.921485e-001 5.971379e-002 4.204999e-002 1.024467e-001 1.634088e-001 2.123253e-002 -1.241688e-001 2.178384e+000
<VARIANCE> 39
 7.329253e+000 1.159702e+001 9.262224e+000 1.255819e+001 1.498846e+001 1.741501e+001 2.006083e+001 1.936280e+001 2.672391e+001 1.810218e+001 2.176664e+001 1.756746e+001 2.496088e+001 1.676078e+000 1.058773e+000 1.099313e+000 1.072295e+000 1.146417e+000 1.363414e+000 1.436682e+000 1.452132e+000 1.534359e+000 1.256319e+000 1.299024e+000 9.474158e-001 5.010035e+000 2.168185e-001 2.697395e-001 2.772227e-001 2.550419e-001 2.687587e-001 2.775266e-001 2.284312e-001 2.509005e-001 2.686355e-001 3.212927e-001 3.003339e-001 2.285673e-001 9.335421e-001
<GCONST> 9.600299e+001
<STATE> 3
<NUMMIXES> 2
<MIXTURE> 1 5.067831e-001
<MEAN> 39
 -1.397308e+001 -4.288334e+000 -3.354021e+000 -2.719436e+000 -1.309683e-001 -3.256385e+000 1.246515e+000 -1.682788e+000 8.966641e-001 -2.738270e+000 2.253796e+000 -2.152351e+000 3.877784e+001 3.360305e-001 -9.836954e-001 -6.246061e-001 -7.713672e-001 -4.230546e-001 1.119644e-001 6.805038e-001 4.072351e-001 6.814219e-001 7.751757e-001 4.202955e-001 4.250436e-002 4.578782e+000 6.318063e-001 -9.516448e-002 -7.520869e-002 -7.515369e-002 -3.498003e-002 -1.447704e-001 -1.252771e-001 -1.178258e-001 -1.594140e-002 1.957468e-002 -7.627868e-002 -1.652440e-001 1.287608e+000
<VARIANCE> 39
 4.732412e+000 1.010324e+001 6.837895e+000 1.395814e+001 1.496694e+001 1.847135e+001 1.914349e+001 1.701321e+001 1.988358e+001 1.930347e+001 1.557673e+001 1.542419e+001 5.781150e+001 1.031656e+000 1.268771e+000 1.327096e+000 1.193925e+000 1.122195e+000 1.424716e+000 1.405208e+000 1.336544e+000 1.355793e+000 1.393265e+000 1.217171e+000 1.044542e+000 3.085086e+000 2.472348e-001 1.526683e-001 2.160618e-001 2.684253e-001 2.907411e-001 2.433045e-001 2.431976e-001 2.542743e-001 2.415721e-001 2.044926e-001 2.248065e-001 1.664213e-001 7.120675e-001
<GCONST> 9.264244e+001
<MIXTURE> 2 4.932176e-001
<MEAN> 39
 -1.428394e+001 -4.911168e+000 -4.197363e+000 -3.538924e+000 -7.614355e-001 -3.737465e+000 5.080351e-001 -2.791340e+000 1.774750e-001 -3.768410e+000 1.409018e+000 -2.691522e+000 4.027892e+001 1.556439e-001 -1.256611e+000 -8.173750e-001 -1.008188e+000 -7.612652e-001 -6.813398e-002 4.214317e-001 3.310646e-003 2.919158e-001 2.859876e-001 1.028060e-001 -1.778941e-001 4.408569e+000 6.496296e-001 -1.383314e-001 -8.769262e-002 -1.786906e-001 -8.998533e-002 -2.171339e-001 -1.948313e-001 -1.653442e-001 -6.899356e-002 -9.841668e-002 -1.952524e-001 -2.674300e-001 1.137802e+000
<VARIANCE> 39
 6.034408e+000 1.080091e+001 9.286341e+000 1.374918e+001 1.286940e+001 1.679666e+001 1.731181e+001 1.644981e+001 1.862572e+001 1.802507e+001 1.456992e+001 1.365094e+001 6.735226e+001 1.534107e+000 1.183476e+000 1.447319e+000 1.530908e+000 1.219572e+000 1.370374e+000 1.254435e+000 1.994638e+000 1.374239e+000 1.480961e+000 1.324071e+000 9.823005e-001 2.988900e+000 2.246535e-001 1.727429e-001 2.153746e-001 2.557935e-001 2.724018e-001 2.836523e-001 2.568373e-001 2.427772e-001 2.564211e-001 2.465081e-001 2.620068e-001 1.708955e-001 7.113109e-001
<GCONST> 9.425030e+001
<STATE> 4
<NUMMIXES> 2
<MIXTURE> 1 5.285283e-001
<MEAN> 39
 -1.083678e+001 -9.372044e+000 -6.196510e+000 -5.662344e+000 -1.081146e+000 -4.100806e+000 3.172674e+000 -2.137506e+000 2.235121e+000 -1.771288e+000 2.901224e+000 -3.525444e+000 6.073471e+001 1.636215e+000 -7.957053e-001 -7.863868e-001 -3.827232e-001 -2.395795e-001 -1.838001e-001 2.285118e-002 -6.551337e-002 2.633844e-001 3.231593e-001 -5.715278e-002 -2.417987e-001 3.444646e+000 3.652437e-001 1.992775e-001 4.930880e-002 8.720133e-002 2.336926e-002 -8.080536e-002 -1.744882e-001 -6.223354e-002 -9.431671e-002 -1.199571e-001 -1.347108e-001 7.539331e-003 -5.495828e-001
<VARIANCE> 39
 2.201035e+001 2.473159e+001 3.035002e+001 2.683527e+001 3.337190e+001 3.364860e+001 2.937087e+001 3.551941e+001 2.816204e+001 3.342276e+001 2.804155e+001 1.948946e+001 3.603093e+001 1.971140e+000 1.827165e+000 2.235488e+000 2.057734e+000 2.569680e+000 1.995524e+000 1.456026e+000 1.992829e+000 1.637246e+000 1.912610e+000 1.339422e+000 1.163256e+000 5.535026e+000 2.381769e-001 1.963887e-001 2.244413e-001 2.391684e-001 2.840112e-001 2.537485e-001 3.267526e-001 3.469750e-001 3.047853e-001 3.428209e-001 2.385103e-001 1.705135e-001 5.945184e-001
<GCONST> 1.074164e+002
<MIXTURE> 2 4.714717e-001
<MEAN> 39
 -1.143114e+001 -1.065389e+001 -6.281027e+000 -5.951871e+000 -7.689265e-001 -3.764174e+000 1.948789e+000 -3.859524e+000 1.437278e+000 -3.037126e+000 1.455686e+000 -4.841784e+000 5.954704e+001 1.469298e+000 -1.076912e+000 -8.187534e-001 -6.025036e-001 -4.377879e-001 -3.796257e-001 -4.271834e-001 -6.253052e-001 -4.255595e-001 -4.433789e-001 -7.635239e-001 -7.382182e-001 2.942524e+000 3.466582e-001 1.875963e-001 -1.315157e-002 1.063174e-002 -5.968310e-002 -1.252228e-001 -1.988433e-001 -6.480020e-002 -1.692458e-001 -2.075570e-001 -2.206626e-001 -8.404850e-002 -5.877928e-001
<VARIANCE> 39
 2.161839e+001 2.720408e+001 3.407739e+001 2.831057e+001 3.816554e+001 3.096615e+001 2.956968e+001 3.612867e+001 2.950674e+001 3.458571e+001 3.007533e+001 2.053346e+001 3.284535e+001 1.883277e+000 1.838166e+000 2.185527e+000 2.461378e+000 2.455467e+000 1.918603e+000 1.527213e+000 2.163091e+000 1.809988e+000 2.164980e+000 1.773639e+000 1.311214e+000 5.305274e+000 2.101726e-001 1.948599e-001 2.162462e-001 2.440522e-001 3.079548e-001 2.750573e-001 2.711839e-001 3.161907e-001 3.359011e-001 3.459313e-001 2.711549e-001 2.091978e-001 5.511222e-001
<GCONST> 1.086882e+002
<TRANSP> 5
 0.000000e+000 1.000000e+000 0.000000e+000 0.000000e+000 0.000000e+000
 0.000000e+000 4.122039e-001 5.877962e-001 0.000000e+000 0.000000e+000
 0.000000e+000 0.000000e+000 4.898866e-001 5.101134e-001 0.000000e+000
 0.000000e+000 0.000000e+000 0.000000e+000 7.321565e-001 2.678435e-001
 0.000000e+000 0.000000e+000 0.000000e+000 0.000000e+000 0.000000e+000
<ENDHMM>
~h "r"
<BEGINHMM>
<NUMSTATES> 5
<STATE> 2
<NUMMIXES> 2
<MIXTURE> 1 4.976017e-001
<MEAN> 39
 2.746161e+000 -1.073051e+001 -3.364264e+000 -3.244351e+000 -6.898472e+000 -7.015948e+000 -1.682436e+000 -4.327936e+000 6.436843e+000 -3.195186e+000 2.953690e-001 -3.958343e+000 6.339437e+001 1.347729e+000 -8.977522e-001 1.052924e-002 2.346819e-001 -1.032944e+000 1.682563e-004 2.697079e-001 1.733476e-001 6.106352e-001 -3.917187e-001 -1.533500e-001 2.313461e-001 1.121891e+000 -5.575794e-001 1.681366e-001 1.610880e-001 -3.815486e-001 9.850444e-002 2.229516e-001 1.996439e-001 1.169569e-001 -2.268475e-001 -1.196846e-001 1.699508e-001 5.668173e-003 2.168073e-002
<VARIANCE> 39
 4.486611e+001 4.494268e+001 6.026069e+001 4.943066e+001 7.653330e+001 6.297596e+001 6.860268e+001 6.164805e+001 6.179899e+001 5.567712e+001 5.315965e+001 4.167516e+001 6.146783e+001 2.791076e+000 1.661655e+000 2.524658e+000 2.529950e+000 3.050173e+000 2.617070e+000 2.823377e+000 2.541737e+000 2.631646e+000 2.765193e+000 2.458421e+000 1.688679e+000 2.118927e+000 2.755401e-001 1.995445e-001 2.709397e-001 3.339676e-001 4.644209e-001 4.132543e-001 4.277669e-001 3.841617e-001 4.328147e-001 4.872341e-001 3.814281e-001 3.208359e-001 2.258550e-001
<GCONST> 1.217718e+002
<MIXTURE> 2 5.023999e-001
<MEAN> 39
 2.118312e+000 -1.175859e+001 -4.784060e+000 -4.775092e+000 -8.392170e+000 -7.611763e+000 -2.435748e+000 -5.854215e+000 4.606592e+000 -4.563090e+000 -6.156617e-001 -5.067101e+000 6.257514e+001 1.407842e+000 -9.869333e-001 -3.741909e-001 1.473323e-002 -1.097298e+000 -9.318154e-002 4.331945e-003 -1.246329e-001 3.719070e-001 -5.787143e-001 -4.910714e-001 -2.029805e-001 1.116716e+000 -5.920016e-001 1.173324e-001 1.195889e-001 -3.462760e-001 1.415870e-001 2.327923e-001 1.765937e-001 1.033207e-001 -1.672455e-001 -8.385035e-002 9.652598e-002 -1.765481e-002 -7.352916e-003
<VARIANCE> 39
 4.458710e+001 4.894571e+001 5.332079e+001 5.573008e+001 6.866281e+001 6.416729e+001 6.457851e+001 5.541181e+001 6.418224e+001 5.696386e+001 5.830609e+001 4.294133e+001 6.265617e+001 2.551023e+000 1.741508e+000 2.347469e+000 2.868945e+000 3.218446e+000 2.727916e+000 2.768003e+000 2.792377e+000 2.929067e+000 2.892730e+000 2.438189e+000 1.870893e+000 2.440552e+000 3.097803e-001 2.236875e-001 2.728113e-001 3.556464e-001 4.867392e-001 4.097451e-001 4.321553e-001 3.790251e-001 4.372088e-001 4.722496e-001 3.848050e-001 3.075498e-001 2.366498e-001
<GCONST> 1.226892e+002
<STATE> 3
<NUMMIXES> 2
<MIXTURE> 1 5.044034e-001
<MEAN> 39
 2.252104e+000 -1.440531e+001 -1.381568e+000 -5.227037e+000 -1.340168e+001 -5.119038e+000 2.488652e+000 -3.265178e+000 6.588332e+000 -6.720426e+000 1.509433e+000 -3.428316e+000 6.873857e+001 -6.495554e-001 3.243010e-001 8.463889e-001 -1.334836e+000 -2.223405e-001 9.140353e-001 2.626948e-001 7.033856e-002 -3.802920e-001 -1.782598e-001 6.386120e-001 -2.957665e-001 6.531690e-001 -4.151421e-001 5.499074e-001 -3.822795e-002 -2.679908e-001 6.927241e-001 9.475251e-002 -2.805549e-001 -8.978259e-003 -2.408454e-001 2.693288e-001 2.115510e-002 -8.095399e-002 -2.656896e-001
<VARIANCE> 39
 1.878682e+001 4.469091e+001 6.535072e+001 5.326516e+001 9.225750e+001 6.069233e+001 4.557156e+001 6.586972e+001 5.565732e+001 5.330304e+001 5.675612e+001 4.432771e+001 4.093646e+001 1.305560e+000 1.751255e+000 2.166160e+000 2.311084e+000 3.190691e+000 2.736482e+000 3.252739e+000 2.641968e+000 2.850199e+000 3.575348e+000 2.009428e+000 1.950914e+000 1.836518e+000 1.890281e-001 1.531015e-001 2.134003e-001 3.005671e-001 3.786608e-001 3.766978e-001 3.465600e-001 3.740652e-001 3.943882e-001 4.059262e-001 4.214379e-001 3.415240e-001 1.492674e-001
<GCONST> 1.178391e+002
<MIXTURE> 2 4.955953e-001
<MEAN> 39
 7.769587e-001 -1.519851e+001 -2.288652e+000 -7.285189e+000 -1.403396e+001 -5.003581e+000 1.913871e+000 -4.652662e+000 4.798731e+000 -7.625859e+000 1.589091e+000 -5.196321e+000 6.779728e+001 -5.600520e-001 2.854158e-001 6.243980e-001 -1.564114e+000 -2.815924e-001 9.084333e-001 1.840710e-001 -1.304086e-001 -4.120807e-001 -2.155803e-001 2.393224e-001 -6.008677e-001 7.863688e-001 -4.590082e-001 5.101183e-001 -8.067029e-002 -2.351745e-001 7.050515e-001 5.600545e-002 -2.792763e-001 4.093118e-003 -2.118564e-001 2.567227e-001 -6.382753e-002 -4.171780e-002 -3.024502e-001
<VARIANCE> 39
 1.782725e+001 4.345642e+001 5.004424e+001 5.701479e+001 8.410253e+001 6.486983e+001 4.764192e+001 5.830889e+001 5.899933e+001 5.003691e+001 6.168768e+001 4.544364e+001 3.867105e+001 1.420621e+000 1.821839e+000 2.025949e+000 2.333742e+000 2.846252e+000 2.845813e+000 3.238667e+000 2.689667e+000 2.820256e+000 3.139818e+000 2.064480e+000 1.895383e+000 2.291452e+000 2.069540e-001 1.622705e-001 1.938458e-001 3.016331e-001 3.862329e-001 3.640836e-001 3.286923e-001 3.504815e-001 4.103077e-001 3.646090e-001 4.018666e-001 3.159795e-001 1.798356e-001
<GCONST> 1.175041e+002
<STATE> 4
<NUMMIXES> 2
<MIXTURE> 1 5.008119e-001
<MEAN> 39
 -5.403851e-001 -1.074307e+001 1.489304e+000 -1.189402e+001 -8.786050e+000 -1.080990e-001 1.886786e-002 -2.061686e+000 3.637995e+000 -5.203157e+000 1.599541e+000 -6.667070e+000 6.965971e+001 -7.690549e-001 1.352949e+000 -4.441195e-002 -9.576486e-001 1.542920e+000 1.164374e-001 -3.389917e-001 1.253223e-002 -5.177074e-001 3.987985e-001 -7.697725e-002 1.926870e-001 -9.097067e-002 -5.269860e-002 2.800963e-001 -2.353251e-001 3.582078e-001 3.232439e-001 -3.897339e-001 2.749898e-002 -2.920349e-002 -2.188309e-002 1.168273e-001 -7.032294e-002 2.314150e-001 -2.843366e-001
<VARIANCE> 39
 2.429904e+001 4.717819e+001 7.569890e+001 6.204754e+001 1.144615e+002 6.065414e+001 6.620821e+001 7.708659e+001 6.561096e+001 5.358674e+001 5.143758e+001 3.988192e+001 4.842588e+001 8.716313e-001 2.133710e+000 1.901619e+000 2.628291e+000 2.954812e+000 2.597623e+000 2.781800e+000 2.250459e+000 2.927697e+000 2.516918e+000 2.096872e+000 1.958876e+000 2.144001e+000 1.483866e-001 1.473637e-001 2.276452e-001 2.724446e-001 4.076044e-001 3.343069e-001 3.797833e-001 3.619562e-001 3.683945e-001 3.915914e-001 3.328496e-001 3.179091e-001 1.361245e-001
<GCONST> 1.177483e+002
<MIXTURE> 2 4.991861e-001
<MEAN> 39
 -2.369251e+000 -1.233873e+001 -6.340109e-001 -1.435192e+001 -9.861914e+000 -7.579274e-001 -4.658073e-001 -4.105485e+000 2.119628e+000 -6.509345e+000 6.095391e-001 -7.906193e+000 6.888549e+001 -9.408681e-001 1.427513e+000 -2.086518e-001 -1.205806e+000 1.564480e+000 4.102959e-003 -4.616088e-001 -8.929150e-002 -5.715708e-001 3.003399e-001 -3.174007e-001 -1.509686e-001 -4.494734e-002 -9.699336e-002 2.908906e-001 -2.813276e-001 4.041460e-001 3.543583e-001 -4.365798e-001 -1.432641e-002 -3.256958e-002 -2.616027e-002 1.125172e-001 -9.642153e-002 2.239907e-001 -3.566620e-001
<VARIANCE> 39
 2.042995e+001 4.744910e+001 5.675484e+001 6.407982e+001 9.537463e+001 6.198964e+001 6.381910e+001 6.362716e+001 7.079183e+001 5.846295e+001 6.242718e+001 3.922281e+001 4.232912e+001 9.542047e-001 2.291361e+000 1.882877e+000 2.918906e+000 2.949208e+000 2.911195e+000 2.699595e+000 2.313949e+000 2.836981e+000 2.357007e+000 2.179544e+000 1.958032e+000 3.076509e+000 1.850315e-001 1.569434e-001 2.219593e-001 2.899349e-001 4.203245e-001 3.453188e-001 3.776217e-001 3.623544e-001 3.672063e-001 4.247399e-001 3.511510e-001 3.015283e-001 1.570978e-001
<GCONST> 1.184110e+002
<TRANSP> 5
 0.000000e+000 1.000000e+000 0.000000e+000 0.000000e+000 0.000000e+000
 0.000000e+000 6.037245e-001 3.962756e-001 0.000000e+000 0.000000e+000
 0.000000e+000 0.000000e+000 5.175304e-001 4.824696e-001 0.000000e+000
 0.000000e+000 0.000000e+000 0.000000e+000 5.013012e-001 4.986988e-001
 0.000000e+000 0.000000e+000 0.000000e+000 0.000000e+000 0.000000e+000
<ENDHMM>
~h "s"
<BEGINHMM>
<NUMSTATES> 5
<STATE> 2
<NUMMIXES> 2
<MIXTURE> 1 4.979531e-001
<MEAN> 39
 -1.568964e+001 -2.206188e+000 -6.510027e+000 -3.873399e+000 -2.675939e+000 -1.013608e+000 3.493633e-001 -4.002345e+000 2.170545e+000 -1.562911e+000 1.402443e+000 -3.064952e+000 5.764175e+001 -2.264883e+000 -2.541479e-001 -1.158399e+000 8.828465e-001 6.609358e-002 7.703760e-001 -1.202577e-001 4.514637e-001 4.333262e-001 -3.194753e-002 1.329155e-001 2.682441e-001 -6.528811e-001 3.708300e-001 -1.592129e-001 5.793798e-002 -2.933540e-001 -9.481973e-002 -2.606230e-001 5.585955e-004 -6.092491e-002 -6.734835e-002 -1.791441e-002 -7.747372e-002 -4.483794e-002 2.174945e-001
<VARIANCE> 39
 2.895332e+001 2.645399e+001 2.835322e+001 2.696479e+001 3.724660e+001 2.827878e+001 2.955447e+001 3.441243e+001 2.946729e+001 3.708310e+001 2.463436e+001 2.743803e+001 3.882740e+001 1.510913e+000 2.234106e+000 1.403314e+000 1.674584e+000 1.616003e+000 1.772616e+000 1.885650e+000 2.116337e+000 1.924407e+000 1.987167e+000 1.544035e+000 1.293682e+000 2.122734e+000 2.637314e-001 2.919365e-001 2.729356e-001 2.584301e-001 2.515045e-001 2.489109e-001 2.609478e-001 2.883576e-001 2.772460e-001 2.781235e-001 1.987192e-001 1.968433e-001 2.071539e-001
<GCONST> 1.053551e+002
<MIXTURE> 2 5.020447e-001
<MEAN> 39
 -1.658253e+001 -3.087697e+000 -7.500387e+000 -4.665013e+000 -3.012516e+000 -1.419304e+000 2.007738e-001 -4.266300e+000 1.732674e+000 -2.133406e+000 6.013833e-001 -3.040060e+000 5.741108e+001 -2.556274e+000 -5.627667e-001 -1.435063e+000 7.085854e-001 -1.988033e-001 4.646698e-001 -4.079926e-001 2.471629e-001 1.718430e-001 -5.023123e-001 -1.733433e-001 2.105901e-002 -7.446944e-001 4.429055e-001 -1.592382e-001 5.853343e-002 -3.698737e-001 -1.602585e-001 -3.221470e-001 -6.769142e-002 -1.324505e-001 -1.306783e-001 -3.407775e-002 -1.094291e-001 -9.612634e-002 2.765804e-001
<VARIANCE> 39
 2.291615e+001 2.319419e+001 2.333591e+001 2.522779e+001 3.256664e+001 2.495576e+001 2.758336e+001 3.027332e+001 2.734969e+001 3.393176e+001 2.505087e+001 2.523328e+001 3.364743e+001 1.140766e+000 2.149925e+000 1.167395e+000 1.560191e+000 1.529490e+000 1.727194e+000 1.978597e+000 2.117668e+000 1.922483e+000 1.725820e+000 1.455794e+000 1.155665e+000 1.792293e+000 2.260230e-001 2.762144e-001 2.520264e-001 2.414181e-001 2.439359e-001 2.264299e-001 2.740660e-001 3.064936e-001 2.627740e-001 2.980920e-001 2.104720e-001 1.899155e-001 1.907674e-001
<GCONST> 1.023914e+002
<STATE> 3
<NUMMIXES> 2
<MIXTURE> 1 4.965175e-001
<MEAN> 39
 -1.929539e+001 -4.690670e+000 -9.961587e+000 -4.277014e+000 -4.077509e+000 -1.685716e+000 -5.736043e-001 -4.144922e+000 1.924592e+000 -1.888537e+000 2.362114e-001 -3.030883e+000 5.756678e+001 9.164223e-003 4.372132e-003 -1.645253e-003 4.783755e-002 1.466892e-002 1.083908e-001 1.963983e-001 8.165070e-002 7.554808e-002 1.894486e-001 7.917801e-002 1.056372e-001 5.227306e-002 3.733272e-001 9.879780e-002 2.815110e-001 -4.467385e-002 6.937569e-002 -2.920019e-002 1.154815e-001 2.024168e-002 -1.315780e-002 5.464356e-002 6.839347e-002 7.364505e-003 -3.197186e-002
<VARIANCE> 39
 1.024605e+001 1.475388e+001 1.765586e+001 1.904762e+001 2.416263e+001 2.122514e+001 2.144667e+001 2.305947e+001 2.458457e+001 2.539415e+001 2.493023e+001 2.094331e+001 2.627879e+001 4.578171e-001 5.127704e-001 6.420103e-001 7.225724e-001 8.049141e-001 8.586413e-001 9.189953e-001 9.915312e-001 9.796835e-001 9.471125e-001 9.402195e-001 7.890925e-001 6.908028e-001 1.373939e-001 1.295601e-001 1.414338e-001 1.366635e-001 1.479165e-001 1.738011e-001 1.888376e-001 2.045303e-001 1.914625e-001 1.819962e-001 1.805936e-001 1.503695e-001 1.607346e-001
<GCONST> 8.381704e+001
<MIXTURE> 2 5.034808e-001
<MEAN> 39
 -1.957273e+001 -5.431579e+000 -1.042380e+001 -4.934099e+000 -4.213647e+000 -2.397670e+000 -1.221699e+000 -4.579102e+000 1.403066e+000 -2.744994e+000 1.138028e-001 -3.739765e+000 5.653599e+001 -1.427815e-001 -1.504787e-001 -2.214234e-001 -1.312053e-001 -1.944600e-001 -1.828143e-001 -1.386690e-001 -2.163022e-001 -1.753055e-001 -1.192846e-001 -1.427157e-001 -9.329889e-002 -4.208226e-002 3.202718e-001 5.315060e-002 2.120149e-001 -8.727860e-002 -2.593156e-004 -7.353538e-002 4.754972e-002 -5.023468e-002 -6.283467e-002 -2.727013e-002 -1.261895e-002 -3.562389e-002 -3.455187e-002
<VARIANCE> 39
 7.883448e+000 1.412477e+001 1.537500e+001 1.830489e+001 2.424322e+001 2.051265e+001 2.049042e+001 2.326542e+001 2.414629e+001 2.632954e+001 2.365223e+001 1.950790e+001 2.403104e+001 4.933113e-001 5.255566e-001 6.102579e-001 6.938213e-001 7.428403e-001 7.808948e-001 9.040207e-001 9.680555e-001 9.646513e-001 9.364268e-001 9.120465e-001 8.337505e-001 6.848271e-001 1.330141e-001 1.205790e-001 1.241723e-001 1.375100e-001 1.419283e-001 1.636238e-001 1.842228e-001 2.125011e-001 2.034936e-001 1.936254e-001 1.804037e-001 1.549999e-001 1.478659e-001
<GCONST> 8.260471e+001
<STATE> 4
<NUMMIXES> 2
<MIXTURE> 1 5.205576e-001
<MEAN> 39
 -1.682645e+001 -3.885603e+000 -7.819993e+000 -4.963011e+000 -4.600099e+000 -1.244243e+000 7.699924e-001 -4.492039e+000 1.664203e+000 -8.959656e-001 6.300127e-002 -2.787981e+000 5.764222e+001 1.806916e+000 1.811633e-001 1.137375e+000 -4.862750e-001 -1.465174e-002 -6.311769e-001 4.419884e-001 1.808197e-001 -2.214709e-001 1.291817e-001 2.353679e-001 -5.892640e-002 4.437998e-002 3.376281e-001 -3.331897e-002 1.431031e-001 -7.225638e-002 5.587881e-002 -2.083457e-001 -2.258978e-002 8.766015e-002 -4.561726e-002 -7.072207e-002 1.004819e-001 -2.572406e-002 1.362155e-002
<VARIANCE> 39
 2.667711e+001 2.340738e+001 2.522393e+001 3.030159e+001 3.609189e+001 3.000062e+001 3.063845e+001 2.878234e+001 3.111331e+001 3.712522e+001 3.094801e+001 2.822346e+001 4.211804e+001 1.917349e+000 1.608097e+000 1.513085e+000 1.818413e+000 1.781763e+000 1.836051e+000 2.012738e+000 1.825143e+000 1.465392e+000 1.513153e+000 1.592552e+000 1.011727e+000 4.702428e+000 2.518575e-001 1.929258e-001 2.246392e-001 2.119916e-001 2.817686e-001 2.688663e-001 3.022550e-001 2.495828e-001 2.489652e-001 2.732103e-001 2.446938e-001 2.094658e-001 5.110005e-001
<GCONST> 1.059694e+002
<MIXTURE> 2 4.794423e-001
<MEAN> 39
 -1.715391e+001 -5.100055e+000 -8.595570e+000 -5.714135e+000 -4.174889e+000 -2.142711e+000 6.959254e-002 -5.055658e+000 1.351400e+000 -2.989836e+000 2.875300e-001 -4.154178e+000 5.658744e+001 1.759875e+000 3.199623e-002 7.333939e-001 -7.700435e-001 -3.304021e-001 -8.058581e-001 8.883505e-002 -4.564666e-001 -4.138260e-001 -4.075705e-001 -2.912058e-001 -4.719128e-001 1.374171e-001 3.257121e-001 -5.609173e-002 6.972332e-002 -1.435549e-001 -1.452972e-002 -2.350663e-001 -4.781455e-002 -2.069287e-002 -9.220495e-002 -1.056724e-001 -7.472095e-002 -9.203548e-002 4.079941e-002
<VARIANCE> 39
 2.312744e+001 2.220190e+001 2.192030e+001 2.977032e+001 3.790178e+001 2.988821e+001 3.142870e+001 3.124832e+001 3.090397e+001 4.093183e+001 3.180383e+001 2.468493e+001 4.239168e+001 1.729855e+000 1.652809e+000 1.428719e+000 1.928411e+000 1.898923e+000 1.889982e+000 1.977452e+000 2.287088e+000 1.631177e+000 1.699706e+000 1.948874e+000 1.178831e+000 4.618697e+000 2.325566e-001 1.996435e-001 1.867205e-001 2.550641e-001 2.888925e-001 2.742507e-001 3.045623e-001 3.146479e-001 2.658876e-001 2.827391e-001 2.781101e-001 2.513878e-001 4.369738e-001
<GCONST> 1.070385e+002
<TRANSP> 5
 0.000000e+000 1.000000e+000 0.000000e+000 0.000000e+000 0.000000e+000
 0.000000e+000 6.266088e-001 3.733912e-001 0.000000e+000 0.000000e+000
 0.000000e+000 0.000000e+000 8.129888e-001 1.870113e-001 0.000000e+000
 0.000000e+000 0.000000e+000 0.000000e+000 6.194503e-001 3.805496e-001
 0.000000e+000 0.000000e+000 0.000000e+000 0.000000e+000 0.000000e+000
<ENDHMM>
~h "t"
<BEGINHMM>
<NUMSTATES> 5
<STATE> 2
<NUMMIXES> 2
<MIXTURE> 1 5.128427e-001
<MEAN> 39
 -8.765196e+000 -7.377566e-001 -1.870444e-001 -2.316669e+000 -4.022260e-001 -3.161199e+000 1.055544e+000 -2.000133e+000 1.318386e+000 -2.454345e+000 7.897876e-001 -2.340405e+000 4.359496e+001 -1.134255e+000 -4.867375e-001 -7.883177e-001 -4.398569e-001 1.422456e-001 9.915741e-002 2.216079e-001 2.709223e-001 6.324077e-001 1.821752e-001 3.726903e-001 3.530885e-001 1.222766e+000 -5.603769e-002 1.001788e-001 -4.136057e-002 -4.022830e-001 -1.890147e-001 -7.153907e-002 -2.123893e-002 -9.432680e-002 1.470820e-001 1.537497e-001 4.177637e-002 4.488193e-002 9.208003e-001
<VARIANCE> 39
 4.031433e+001 3.058448e+001 2.953130e+001 3.868551e+001 4.570483e+001 3.791471e+001 4.030151e+001 3.353891e+001 3.345490e+001 2.904443e+001 2.791676e+001 2.749475e+001 1.095177e+002 2.520738e+000 1.416129e+000 1.734820e+000 1.928077e+000 1.744564e+000 1.919351e+000 1.727128e+000 1.779584e+000 1.917833e+000 1.609982e+000 1.601106e+000 1.360381e+000 4.191926e+000 2.897964e-001 1.982478e-001 2.048608e-001 2.950312e-001 3.192720e-001 3.138923e-001 2.702459e-001 2.785325e-001 3.300113e-001 2.780425e-001 2.401257e-001 2.283186e-001 7.221400e-001
<GCONST> 1.107028e+002
<MIXTURE> 2 4.871593e-001
<MEAN> 39
 -1.008144e+001 -1.827097e+000 -1.066488e+000 -3.264650e+000 -1.559698e+000 -4.618194e+000 -9.757806e-002 -2.913559e+000 1.769614e-001 -3.815050e+000 -8.439641e-003 -3.594893e+000 4.184737e+001 -1.198107e+000 -7.071311e-001 -1.073037e+000 -6.744533e-001 -6.649069e-003 -1.402982e-001 -7.364509e-002 4.212894e-002 2.134676e-001 -1.229261e-001 1.163362e-001 1.789687e-001 1.224114e+000 -1.710456e-002 6.891995e-002 -1.582121e-001 -4.889600e-001 -2.376726e-001 -1.363373e-001 -7.662509e-002 -1.863484e-001 1.092390e-001 6.304160e-002 -1.364049e-002 -2.485387e-002 1.055597e+000
<VARIANCE> 39
 3.869851e+001 3.057802e+001 3.184696e+001 3.577938e+001 4.455174e+001 3.688940e+001 3.832002e+001 3.463202e+001 3.685763e+001 3.075706e+001 2.677226e+001 2.612978e+001 9.634313e+001 2.454348e+000 1.542916e+000 1.744342e+000 1.993931e+000 1.851287e+000 2.101568e+000 1.662812e+000 1.941960e+000 1.884650e+000 1.732633e+000 1.640117e+000 1.275744e+000 4.329885e+000 2.834260e-001 2.025862e-001 2.227829e-001 3.235953e-001 3.332992e-001 2.943070e-001 2.727797e-001 3.011463e-001 3.443641e-001 3.357146e-001 2.678894e-001 2.604069e-001 7.290398e-001
<GCONST> 1.115899e+002
<STATE> 3
<NUMMIXES> 2
<MIXTURE> 1 5.051787e-001
<MEAN> 39
 -1.452022e+001 -3.018633e+000 -5.722179e+000 -5.891107e+000 -9.781634e-001 -3.553059e+000 5.468245e-001 -2.016654e+000 3.420577e+000 -2.518758e+000 2.675411e+000 -1.493785e+000 5.472598e+001 -8.125359e-001 -1.539133e-002 -4.661313e-001 -1.112687e+000 -2.279610e-001 2.634532e-001 1.430987e-001 -7.985640e-002 8.413049e-001 4.443068e-001 9.458347e-002 3.963611e-001 2.857572e+000 4.511544e-001 2.036598e-001 4.959752e-001 8.331775e-003 -5.209194e-002 4.719006e-002 8.041451e-002 -1.260599e-001 -1.344678e-001 1.150227e-001 -1.464387e-001 -6.876170e-002 -1.215363e-001
<VARIANCE> 39
 2.470655e+001 3.295068e+001 4.204518e+001 3.727446e+001 3.361962e+001 3.172428e+001 3.392827e+001 3.199783e+001 3.252113e+001 2.958403e+001 2.637749e+001 2.464989e+001 1.074629e+002 2.781397e+000 1.154430e+000 1.580564e+000 1.795673e+000 1.769237e+000 1.655312e+000 1.731255e+000 1.847442e+000 1.704285e+000 1.745725e+000 1.602901e+000 1.616817e+000 5.022127e+000 2.265275e-001 2.101663e-001 2.630342e-001 2.560313e-001 2.790857e-001 2.957492e-001 2.761483e-001 3.022447e-001 3.065952e-001 2.686369e-001 2.304254e-001 2.156854e-001 7.033926e-001
<GCONST> 1.092546e+002
<MIXTURE> 2 4.948207e-001
<MEAN> 39
 -1.555430e+001 -4.589506e+000 -6.945884e+000 -6.918805e+000 -1.618183e+000 -4.699188e+000 -2.967819e-001 -2.683325e+000 2.057369e+000 -3.842234e+000 2.032143e+000 -3.018242e+000 5.374187e+001 -6.223338e-001 -2.354208e-001 -7.119424e-001 -1.532634e+000 -3.803500e-001 -1.039789e-001 -2.018154e-001 -4.378006e-001 4.292263e-001 -8.899236e-002 -1.543310e-001 -1.343533e-002 3.119222e+000 3.613796e-001 1.761494e-001 3.899313e-001 -1.032420e-001 -1.045323e-001 -1.323883e-002 1.201327e-002 -2.328973e-001 -1.162137e-001 -4.815822e-003 -2.089701e-001 -1.296648e-001 -1.213690e-001
<VARIANCE> 39
 2.184592e+001 3.204658e+001 3.865741e+001 3.514627e+001 3.028671e+001 3.087206e+001 2.950671e+001 2.823840e+001 3.282707e+001 3.126707e+001 2.369048e+001 2.298185e+001 1.164119e+002 2.687603e+000 1.180435e+000 1.549340e+000 1.910070e+000 1.676078e+000 1.684783e+000 1.623647e+000 1.798863e+000 1.576074e+000 1.998397e+000 1.639216e+000 1.763850e+000 5.016245e+000 2.011420e-001 2.186950e-001 2.516403e-001 2.932518e-001 2.857426e-001 2.906588e-001 2.665122e-001 3.026684e-001 3.161672e-001 3.039043e-001 2.602113e-001 2.037806e-001 8.597148e-001
<GCONST> 1.090037e+002
<STATE> 4
<NUMMIXES> 2
<MIXTURE> 1 5.153311e-001
<MEAN> 39
 -1.582659e+001 -1.843984e+000 -1.049778e+000 -1.020960e+001 -3.192090e+000 -3.029981e+000 1.995787e+000 -3.578018e+000 4.114402e+000 -3.547619e-001 1.091664e+000 -1.343918e+000 5.975869e+001 1.081976e+000 -1.278089e-002 8.832222e-001 1.884721e-002 -4.003082e-001 2.465307e-001 3.912063e-001 -5.126339e-002 -1.221918e-001 4.377198e-001 6.865526e-002 -1.778443e-001 8.910701e-001 7.144516e-001 5.544752e-002 1.592023e-001 3.179830e-001 2.888920e-002 -1.619551e-001 -6.639811e-002 1.210410e-001 -1.988275e-001 -1.192038e-001 8.346178e-002 -1.178995e-001 -2.313626e-001
<VARIANCE> 39
 3.122088e+001 4.134655e+001 5.696777e+001 5.645079e+001 6.581083e+001 5.271296e+001 5.787835e+001 5.228389e+001 4.430325e+001 5.425996e+001 4.798790e+001 4.601498e+001 4.835262e+001 3.584934e+000 1.574278e+000 2.060816e+000 2.578369e+000 2.439015e+000 2.240121e+000 2.214074e+000 2.113321e+000 1.876714e+000 2.148232e+000 1.765155e+000 1.499641e+000 2.389265e+000 3.251542e-001 2.187937e-001 3.843352e-001 3.452203e-001 3.821145e-001 4.182354e-001 3.630984e-001 3.674903e-001 3.512631e-001 3.828043e-001 3.457415e-001 2.891309e-001 4.109228e-001
<GCONST> 1.186172e+002
<MIXTURE> 2 4.846695e-001
<MEAN> 39
