~o
<STREAMINFO> 1 39
<VECSIZE> 39<NULLD><MFCC_D_A_0><DIAGC>
~s "silst"
<NUMMIXES> 6
<MIXTURE> 1 2.666745e-001
<MEAN> 39
 -2.597567e+000 8.770881e-001 8.318926e-001 -6.560520e+000 -3.526759e+000 -6.440975e+000 -1.139366e+000 -3.185043e+000 4.592037e-001 -2.013268e+000 6.798449e-001 -3.188641e+000 5.087049e+001 -1.608709e-001 -1.134771e-001 3.468380e-002 4.420227e-001 -2.917091e-002 1.051062e-001 1.846601e-002 -4.119325e-002 -4.116732e-002 -8.750323e-002 3.060553e-002 4.614390e-003 -9.096915e-001 -1.070557e-001 -6.959725e-002 -8.948074e-002 -2.382229e-002 7.415800e-002 5.771485e-002 1.653090e-002 -1.308956e-002 1.192129e-002 1.213100e-003 -1.578998e-002 -1.337138e-002 1.448181e-001
<VARIANCE> 39
 4.940749e+001 7.164072e+001 6.213749e+001 9.011114e+001 7.774609e+001 6.302824e+001 5.765369e+001 4.744645e+001 5.110902e+001 4.622197e+001 3.410391e+001 4.071764e+001 9.654308e+001 7.334138e-001 6.887948e-001 9.594931e-001 1.289070e+000 1.399010e+000 1.416042e+000 1.525513e+000 1.338426e+000 1.401870e+000 1.375187e+000 1.035135e+000 9.438054e-001 1.004353e+000 9.045080e-002 9.421261e-002 1.375185e-001 1.686942e-001 1.912232e-001 2.146690e-001 2.507601e-001 2.171197e-001 2.166988e-001 2.017284e-001 1.386318e-001 1.539903e-001 8.568938e-002
<GCONST> 1.019623e+002
<MIXTURE> 2 1.184286e-001
<MEAN> 39
 -2.180726e+000 -4.784665e+000 -1.203827e+000 -8.737374e+000 -7.033617e+000 -6.527474e+000 1.747311e+000 -4.263206e+000 8.064799e-001 -1.961113e+000 -4.583112e-002 -4.933661e+000 5.731301e+001 -5.060910e-001 1.043945e+000 6.449964e-001 1.124362e+000 9.487254e-001 2.989256e-001 -7.627062e-002 3.914853e-002 7.210822e-002 1.036113e-001 2.653902e-001 4.172320e-001 -2.913969e+000 -3.035969e-001 -3.786284e-002 -2.238100e-001 1.759724e-001 4.481405e-001 1.079121e-001 -3.949750e-002 9.155370e-002 -2.276046e-002 -8.029696e-002 6.032766e-002 1.059677e-001 1.003913e-001
<VARIANCE> 39
 3.461876e+001 5.144923e+001 7.641496e+001 8.771922e+001 9.142908e+001 1.063675e+002 9.746416e+001 1.170196e+002 8.835328e+001 8.084737e+001 7.156888e+001 5.601930e+001 8.180348e+001 2.580656e+000 3.882396e+000 3.453142e+000 3.365219e+000 4.918077e+000 3.834164e+000 4.090866e+000 3.994773e+000 3.899921e+000 3.189917e+000 2.983443e+000 2.334089e+000 7.320515e+000 2.598150e-001 2.712766e-001 4.216891e-001 4.602765e-001 6.034744e-001 6.241028e-001 5.947585e-001 7.083383e-001 6.316627e-001 5.321173e-001 5.513036e-001 4.393258e-001 4.921040e-001
<GCONST> 1.356615e+002
<MIXTURE> 3 1.937851e-001
<MEAN> 39
 -2.342743e+000 2.866735e+000 -4.211057e-001 -1.057684e+001 -2.197345e+000 -9.204250e+000 -1.636961e+000 -7.660244e+000 1.894524e+000 -1.854796e+000 -1.122594e+000 -2.583163e+000 5.384980e+001 -8.667445e-001 7.953649e-001 1.218102e+000 2.810451e+000 6.747051e-001 7.073001e-001 -1.641679e-001 3.215417e-001 -7.343521e-001 -3.566571e-001 1.556456e-001 5.010125e-002 -4.566145e+000 -5.772645e-001 -6.300512e-001 -4.164701e-001 8.052727e-002 7.707234e-002 3.812905e-001 2.126464e-001 2.938934e-001 -6.601202e-003 -1.343622e-001 1.194252e-001 -1.107415e-001 2.396144e-001
<VARIANCE> 39
 1.813666e+001 3.138380e+001 3.453032e+001 6.032392e+001 4.417164e+001 4.983840e+001 3.219670e+001 3.502211e+001 3.778949e+001 4.562407e+001 3.270748e+001 3.170487e+001 4.731579e+001 1.961302e+000 2.686252e+000 2.245162e+000 2.474108e+000 2.657421e+000 2.678108e+000 2.214777e+000 1.842641e+000 1.814399e+000 2.095840e+000 2.004822e+000 1.539715e+000 3.504077e+000 1.482690e-001 2.416343e-001 2.004872e-001 3.438150e-001 2.984599e-001 3.618950e-001 2.371375e-001 2.770720e-001 2.722191e-001 2.655946e-001 2.427025e-001 2.144063e-001 3.716235e-001
<GCONST> 1.115787e+002
<MIXTURE> 4 1.768320e-001
<MEAN> 39
 -1.229745e+001 -4.713002e+000 -5.079386e+000 -3.279655e+000 -1.484407e+000 -2.182359e+000 1.972910e+000 -3.590201e+000 1.323788e+000 -2.679434e+000 4.793434e-001 -2.978766e+000 4.900561e+001 1.830484e-001 7.652175e-002 3.890264e-001 2.856802e-001 3.718520e-001 -1.855973e-001 -4.815884e-002 2.520621e-001 -1.684087e-001 -1.246745e-001 2.226209e-002 1.406905e-002 -1.768330e+000 2.316386e-001 1.003093e-002 1.026712e-002 -1.226437e-001 -6.126416e-003 -1.469434e-001 -1.191249e-001 -2.786800e-002 -5.234913e-002 -4.597940e-002 -3.637226e-002 -2.553426e-002 1.882420e-001
<VARIANCE> 39
 4.965957e+001 5.017774e+001 4.114811e+001 4.749145e+001 5.020221e+001 3.722897e+001 4.207293e+001 5.744855e+001 4.390476e+001 4.204142e+001 3.899536e+001 3.249215e+001 1.089073e+002 1.614272e+000 1.600890e+000 1.694916e+000 1.672079e+000 2.249518e+000 1.465410e+000 1.804103e+000 1.874691e+000 1.663128e+000 1.651497e+000 1.530603e+000 1.038802e+000 6.025603e+000 1.702597e-001 2.307724e-001 2.548541e-001 2.528888e-001 2.765641e-001 2.544181e-001 2.681831e-001 3.037674e-001 3.193106e-001 2.643977e-001 2.835590e-001 2.313992e-001 4.973683e-001
<GCONST> 1.123928e+002
<MIXTURE> 5 1.242243e-001
<MEAN> 39
 -4.524779e+000 2.228671e+000 4.188019e+000 -1.443451e+001 -1.830852e+000 -4.607453e+000 -9.673957e+000 -2.493462e+000 -2.755996e+000 -3.667305e+000 2.166720e+000 -4.439652e+000 5.623068e+001 -8.014437e-001 5.813907e-001 2.730297e-001 2.697206e+000 8.362567e-001 -8.495642e-002 3.144027e-001 -3.029279e-001 -4.319098e-001 -4.220643e-001 -1.617513e-002 1.254077e-001 -4.547114e+000 -4.757535e-001 -7.527803e-001 -7.676740e-001 4.379125e-001 -1.318891e-001 6.341177e-002 9.352265e-001 -9.514938e-002 3.248366e-001 6.748888e-002 -1.768898e-001 3.594013e-002 2.875414e-001
<VARIANCE> 39
 2.043085e+001 3.351270e+001 2.527245e+001 5.959029e+001 5.374781e+001 5.619525e+001 4.964309e+001 4.179367e+001 4.885629e+001 4.518167e+001 3.148528e+001 2.187464e+001 5.269142e+001 1.776046e+000 2.921237e+000 2.094873e+000 2.211360e+000 2.765326e+000 2.469741e+000 2.577194e+000 2.407780e+000 2.243808e+000 1.713791e+000 1.697574e+000 1.263890e+000 4.132202e+000 1.909466e-001 2.411683e-001 2.326563e-001 4.506207e-001 4.077434e-001 4.416698e-001 4.819462e-001 4.142648e-001 4.893740e-001 3.861163e-001 3.033586e-001 2.235577e-001 5.467981e-001
<GCONST> 1.162086e+002
<MIXTURE> 6 1.200534e-001
<MEAN> 39
 -3.724850e+000 -5.948017e+000 -3.181706e+000 -9.906715e+000 -8.577583e+000 -7.540009e+000 3.041123e-001 -5.989851e+000 -4.667989e-001 -2.490045e+000 -2.883584e-001 -5.123684e+000 5.578172e+001 -8.986361e-001 1.029233e+000 4.788000e-001 8.288361e-001 8.140595e-001 4.605373e-002 -3.325433e-001 -1.634679e-001 -1.323919e-001 -3.367501e-001 -8.115600e-002 1.980097e-001 -3.279412e+000 -3.497475e-001 -1.154458e-001 -2.658475e-001 1.414541e-001 4.702341e-001 1.222745e-001 -1.878678e-002 1.098937e-001 -5.836273e-002 -1.555445e-001 -1.438690e-002 4.183808e-002 1.401824e-001
<VARIANCE> 39
 3.307681e+001 5.239691e+001 7.302161e+001 9.241747e+001 8.286212e+001 9.894274e+001 9.665703e+001 1.178882e+002 8.850563e+001 9.061535e+001 7.249998e+001 5.711250e+001 9.091785e+001 2.365783e+000 4.126301e+000 3.618421e+000 3.745263e+000 4.886473e+000 3.701360e+000 3.895727e+000 3.813277e+000 4.076184e+000 3.298394e+000 2.983555e+000 2.388861e+000 7.412482e+000 2.687292e-001 2.623188e-001 4.413043e-001 4.874654e-001 5.915592e-001 6.066951e-001 6.121390e-001 7.280830e-001 6.398122e-001 5.677211e-001 5.514654e-001 4.191509e-001 5.661275e-001
<GCONST> 1.361091e+002
~h "zh"
<BEGINHMM>
<NUMSTATES> 5
<STATE> 2
<NUMMIXES> 6
<MIXTURE> 1 1.253511e-001
<MEAN> 39
 -2.987788e+000 4.365153e-001 -2.095291e+000 -1.201812e+001 -1.092359e+001 -3.655936e+000 -5.840173e-001 -8.981686e+000 2.131405e+000 4.469234e+000 -3.523215e+000 -4.361176e-001 6.728895e+001 -1.367828e+000 2.653522e+000 7.047046e-001 -1.112417e+000 1.355342e+000 2.244688e-001 -9.667082e-001 -3.414204e-001 1.359499e+000 -4.589445e-001 6.862223e-001 1.083772e+000 -5.204248e-001 -2.257975e-001 -9.490558e-002 -8.970389e-001 6.665364e-001 3.510028e-001 -3.179980e-001 7.810693e-001 5.534691e-001 7.465642e-003 -7.272626e-001 1.656821e-001 8.664563e-003 -1.273663e-002
<VARIANCE> 39
 3.129092e+001 1.915617e+000 2.439974e+001 1.113065e+001 7.360988e-001 5.171698e+000 4.429103e+000 5.237867e+000 3.092620e+001 4.144738e+001 1.643719e+001 3.070985e+001 6.786897e+001 1.479982e-001 7.697478e-001 8.698851e-001 3.106222e+000 1.432821e+000 7.614275e-001 1.869927e+000 8.227457e-001 1.801357e+000 2.450883e+000 5.057902e-002 3.214888e+000 2.169942e+000 1.911405e-001 1.084292e-001 2.524522e-001 1.367063e-001 1.804236e-001 1.082010e-001 3.758888e-001 2.196440e-001 6.732555e-002 9.992263e-002 1.242684e-001 2.405855e-001 9.315927e-002
<GCONST> 7.867812e+001
<MIXTURE> 2 2.255396e-001
<MEAN> 39
 -7.761903e+000 6.302171e+000 -3.687040e+000 -1.304111e+001 -7.539095e+000 -9.132236e+000 -5.447667e+000 -8.671210e+000 -3.118117e+000 -3.802996e+000 -6.821050e+000 -6.827863e+000 6.747020e+001 -7.306461e-001 4.098307e-001 -3.145368e-001 1.181172e+000 4.795966e-001 -6.812127e-001 8.215824e-001 -9.723852e-001 6.449949e-001 7.217913e-001 1.283622e+000 1.156654e+000 -6.327502e-001 -4.208244e-001 -1.923853e-001 -6.969766e-002 1.253777e-001 1.415565e-001 3.145810e-001 3.186547e-001 1.515049e-001 3.934797e-001 -1.990164e-001 3.308322e-001 3.535598e-001 -5.319374e-002
<VARIANCE> 39
 4.444769e+000 3.519684e+000 5.334777e+000 4.180945e+001 2.906938e+001 1.006548e+001 1.123488e+001 3.023734e+001 6.943350e+000 8.810239e+001 1.490170e+001 1.355592e+002 3.718831e+000 6.580744e-001 3.590065e-001 3.293824e-001 6.451293e-001 9.579223e-002 8.172249e-001 1.245844e+000 7.293530e-001 6.828254e-001 2.052301e-001 7.754221e-001 2.308484e+000 6.052569e-002 4.167287e-002 2.685359e-002 4.458697e-002 5.739621e-002 6.204604e-002 3.286134e-001 3.528122e-001 1.410821e-001 7.540862e-002 1.455221e-001 3.822636e-002 6.599849e-002 3.412803e-002
<GCONST> 6.333109e+001
<MIXTURE> 3 1.097447e-001
<MEAN> 39
 -5.912022e+000 5.074482e+000 8.100572e-002 -2.206635e+001 -4.253495e+000 -4.150625e+000 -4.451324e+000 -6.275476e+000 4.047303e+000 -3.101883e+000 3.706497e+000 2.066508e+000 6.575248e+001 -1.331803e+000 1.531587e+000 6.067694e-002 2.253977e+000 5.819195e-001 -3.784940e-001 6.541889e-001 -8.093374e-001 -1.946983e-001 6.152033e-001 1.319267e-001 5.203226e-001 -1.456213e+000 -7.315422e-001 -1.517342e-001 -2.276206e-001 4.820705e-001 4.178436e-001 -6.029109e-002 6.211360e-001 1.224426e-001 2.440385e-001 2.354258e-001 -1.285597e-001 -7.214877e-002 -1.057646e-001
<VARIANCE> 39
 1.990058e+001 6.788815e+000 2.126692e+000 7.230258e+000 7.564871e+000 5.163715e+000 4.388365e+000 6.882682e+000 1.603411e+000 1.710019e+000 1.868669e+000 2.225211e+000 5.879118e+000 1.211816e+000 2.846759e-001 2.541035e-001 6.107944e-001 9.272065e-001 4.190911e-001 1.139890e+000 2.819336e-001 2.180678e-001 5.356564e-001 3.308112e-001 1.512054e-001 3.858292e-001 6.018196e-002 1.083263e-001 8.030934e-002 6.152142e-002 1.629379e-001 1.202484e-001 4.623791e-002 2.876706e-002 2.341854e-002 4.170904e-002 3.958786e-002 3.790962e-002 5.248444e-002
<GCONST> 4.221317e+001
<MIXTURE> 4 2.256074e-001
<MEAN> 39
 -6.050445e+000 1.825064e+000 -4.381065e+000 -1.789116e+001 -1.670677e+000 -5.425276e+000 -3.347410e+000 -4.449606e+000 9.351717e+000 -4.283213e+000 -1.375784e+000 -1.113463e+000 6.446304e+001 -1.799220e+000 1.899932e+000 3.965943e-001 2.020957e+000 -5.291288e-001 3.401154e-001 -4.094934e-001 7.336288e-002 -2.805944e-001 -3.694056e-001 3.227432e-001 9.631565e-001 -1.185969e+000 -5.470335e-001 -4.599492e-002 -4.365487e-001 7.250150e-001 2.230590e-001 8.441206e-002 3.966728e-001 2.772815e-001 -7.577065e-001 -3.771956e-002 -2.141903e-001 -2.465053e-001 -1.850530e-001
<VARIANCE> 39
 2.346406e+001 7.162254e+000 2.563499e+000 2.246667e+001 3.468560e+001 3.594755e+000 1.396094e+000 6.131113e+000 5.421163e+000 8.496902e+000 3.471167e+000 3.208810e+000 3.044133e+001 2.263595e+000 6.724560e-002 6.003720e-001 2.025764e+000 6.041959e+000 6.335340e-001 9.342089e-001 1.305620e+000 1.550734e+000 2.205674e+000 8.059758e-001 2.998990e-001 4.692262e-001 1.254561e-001 9.475246e-002 1.117284e-001 2.125080e-001 1.521083e-001 2.315818e-002 2.296575e-002 3.583305e-002 1.877324e-001 1.459517e-001 5.364361e-002 3.866167e-002 3.052452e-002
<GCONST> 6.220255e+001
<MIXTURE> 5 1.978959e-001
<MEAN> 39
 -8.429197e+000 6.811036e+000 -9.616628e+000 -1.044798e+001 -2.426560e-001 -1.037518e+001 -3.599329e+000 -1.428694e+001 -1.737109e+000 -1.016570e+001 -9.587109e+000 -1.309092e+001 6.259345e+001 -1.466311e+000 2.658159e+000 -2.673704e+000 9.116702e-001 4.810772e-001 -2.475132e-001 5.101601e-001 -9.918505e-001 1.666867e+000 -2.419662e-001 -7.552708e-002 2.963586e-001 -2.544553e-001 5.752575e-002 -4.084372e-001 1.963262e-001 -8.275986e-002 -2.751061e-001 1.363510e-001 1.369999e-001 3.333952e-001 -3.978059e-001 4.061108e-002 1.169188e-001 -1.563191e-001 -2.778278e-001
<VARIANCE> 39
 2.675827e+000 1.324940e+001 5.075342e+001 3.581450e+001 3.888835e+001 2.372769e+001 1.266840e+001 2.186278e+001 1.628251e+001 7.078384e+001 4.155302e+001 5.792013e+001 4.774078e+000 2.210085e+000 1.036596e+000 1.115904e+000 2.421963e+000 2.072492e+000 2.267045e+000 2.855682e+000 1.161605e+000 3.136069e+000 6.662585e-001 4.864718e-001 2.148438e+000 1.467626e+000 3.485376e-001 1.061914e-001 2.244236e-001 5.060824e-001 5.527760e-001 3.912136e-001 7.212760e-002 3.096007e-001 1.044530e-001 1.298825e-001 8.619896e-002 3.674515e-001 1.313947e-001
<GCONST> 9.674836e+001
<MIXTURE> 6 1.158613e-001
<MEAN> 39
 -7.656011e+000 5.466314e+000 -3.342248e-001 -2.155890e+001 -2.688302e+000 -5.308419e+000 -3.562178e+000 -6.513576e+000 3.827757e+000 -3.502135e+000 3.761930e+000 2.063444e+000 6.572159e+001 -1.254067e+000 1.609165e+000 -7.351782e-002 2.432902e+000 5.692598e-001 -2.109471e-001 3.630925e-001 -5.473522e-001 -2.442961e-001 4.766579e-001 2.533903e-001 3.343400e-001 -1.619122e+000 -6.344447e-001 -1.063508e-001 -3.587897e-001 4.924871e-001 1.687346e-001 1.507639e-001 4.794877e-001 9.090834e-002 2.185402e-001 1.921200e-001 -2.192056e-001 -6.343289e-002 -5.065178e-002
<VARIANCE> 39
 2.046499e+001 9.933206e+000 3.098857e+000 1.035773e+001 4.505946e+000 5.201067e+000 4.638124e+000 9.206829e+000 2.135366e+000 1.985325e+000 2.989687e+000 3.217068e+000 7.360425e+000 1.604432e+000 4.375056e-001 3.924134e-001 9.365271e-001 1.310614e+000 7.201900e-001 1.198183e+000 2.132733e-001 2.271806e-001 4.631623e-001 3.462926e-001 1.128198e-001 5.166345e-001 4.285742e-002 1.442978e-001 7.485475e-002 9.474315e-002 8.750828e-002 1.034568e-001 2.523573e-002 3.661470e-002 4.232821e-002 5.196404e-002 3.300407e-002 3.872633e-002 8.747514e-002
<GCONST> 4.719746e+001
<STATE> 3
<NUMMIXES> 6
<MIXTURE> 1 1.156451e-001
<MEAN> 39
 -1.142805e+001 7.666268e+000 -4.652460e+000 -7.939751e+000 -4.217795e+000 -4.700951e+000 1.108539e+000 -9.759790e+000 2.747367e-001 2.698619e+000 -2.069484e+000 1.726772e+000 6.737363e+001 -1.866492e+000 6.954595e-001 -1.136332e+000 6.756613e-001 2.400114e+000 4.621610e-001 2.056444e+000 1.225545e+000 7.070843e-001 -9.881512e-001 1.447632e+000 7.645513e-001 -1.093626e+000 2.345829e-001 -7.829393e-001 3.980651e-002 -3.368232e-001 -3.875028e-002 -6.090416e-002 7.367653e-002 5.971921e-001 7.955916e-002 -8.812452e-002 3.272744e-004 -6.145130e-001 2.529899e-001
<VARIANCE> 39
 1.251172e+001 4.974243e+000 2.587800e+001 3.254271e+001 2.141445e+001 2.058212e+001 1.546384e+001 1.651891e+001 1.845403e+001 8.342001e+001 1.337137e+001 6.731014e+001 5.270717e+000 7.004907e-001 1.279333e+000 1.492714e+000 9.913809e-001 1.357690e+000 8.968241e-001 1.497895e+000 2.481205e+000 5.899842e-001 2.475884e+000 7.693851e-001 1.773461e+000 1.238328e+000 4.792252e-002 1.360670e-001 4.355853e-001 4.470501e-001 1.673978e-001 2.019240e-001 3.764498e-001 4.127856e-001 1.298722e-001 1.738098e-001 1.570245e-001 3.257414e-001 9.989902e-002
<GCONST> 9.168925e+001
<MIXTURE> 2 2.947130e-001
<MEAN> 39
 -7.770221e+000 1.568136e+001 -2.077198e+001 -9.951612e+000 -5.385431e+000 -1.255971e+001 -1.578093e+000 -1.654787e+001 1.742244e+000 -1.487244e+001 -1.270105e+001 -1.792342e+001 5.873475e+001 1.570686e-001 3.809558e-001 -1.695704e-001 1.648231e-001 -5.739772e-001 1.304994e-001 2.768122e-001 -2.034860e-001 2.046594e-001 -4.019058e-001 3.849333e-001 -3.529689e-001 -4.659083e-001 -4.695711e-003 -1.209399e-001 9.075834e-002 -9.852969e-002 1.682186e-001 -3.563313e-002 -2.637247e-002 -5.022297e-002 -1.355325e-001 -7.540500e-002 -5.617003e-002 -1.174972e-001 -1.540112e-002
<VARIANCE> 39
 6.091472e-001 1.709195e+000 1.313666e+000 1.268625e+000 6.708004e+000 2.201701e+000 3.260441e+000 4.678535e+000 2.209741e+000 6.062545e+000 5.714320e+000 4.097019e+000 2.414470e+000 2.579533e-002 6.516273e-002 7.641847e-002 1.181330e-001 4.363912e-001 1.515749e-001 6.476979e-002 3.767647e-001 2.823726e-001 5.519286e-001 8.830629e-002 1.831353e-001 5.457212e-002 7.033505e-003 1.172782e-002 2.369746e-002 1.994571e-002 1.656538e-002 4.048633e-002 2.032646e-002 4.472074e-002 2.315879e-002 7.414641e-002 3.123738e-002 3.972661e-003 8.776684e-003
<GCONST> 6.391389e+000
<MIXTURE> 3 1.460615e-001
<MEAN> 39
 -5.510376e+000 1.480299e+001 -1.934430e+001 -1.111429e+001 -2.367235e+000 -1.428902e+001 6.158997e-001 -2.024327e+001 6.924342e-001 -2.152460e+001 -1.481086e+001 -2.375090e+001 5.287307e+001 -1.622225e-001 -7.283134e-001 1.530278e+000 -3.164385e-001 1.761568e+000 -1.106372e+000 -5.348307e-001 5.478108e-001 -4.197096e-001 -2.564332e-001 -1.501178e+000 -6.517516e-001 -9.169695e-001 -3.372595e-001 -1.094391e-001 4.844947e-001 3.460117e-002 2.600747e-001 -9.925355e-002 -1.763758e-001 3.992286e-001 -1.819701e-001 2.012832e-001 4.121604e-002 2.399060e-001 -4.745927e-002
<VARIANCE> 39
 1.765208e+000 6.359695e+000 7.621501e+000 3.632946e+000 8.296242e+000 5.279957e+000 4.712304e+000 2.593544e+000 2.294453e+000 1.222383e+001 2.034417e+001 5.254205e+000 2.880389e+000 6.793271e-001 7.883399e-002 1.337708e+000 4.403260e-002 3.376910e-001 2.606576e-001 2.964357e-001 1.021871e+000 4.909290e-002 1.121406e-001 1.989991e-001 2.671085e-001 4.901518e-002 9.120096e-002 2.837270e-002 3.475305e-002 1.276274e-002 2.439804e-002 1.302644e-001 4.303767e-002 4.823036e-002 5.034395e-002 3.281952e-002 2.696785e-001 5.188847e-002 6.152933e-003
<GCONST> 3.085517e+001
<MIXTURE> 4 1.939951e-001
<MEAN> 39
 -1.957442e+001 9.885798e+000 -4.407897e+000 -5.612481e+000 3.393904e+000 -3.580050e+000 4.339498e-001 -4.697550e+000 5.882825e+000 -6.116183e-001 1.024626e+000 1.856042e+000 5.910908e+001 -3.662855e+000 -2.603727e-001 -1.724076e+000 2.577144e+000 8.004338e-001 7.060102e-001 9.519160e-001 1.135391e-002 -5.132280e-001 1.872795e-001 -1.489513e-001 -2.132430e-001 -7.111112e-001 4.478790e-001 -5.178249e-001 -9.343212e-002 -6.649461e-001 -6.714640e-001 1.037469e-001 -1.182162e-001 -1.496063e-001 -2.410384e-001 -1.645226e-001 1.498948e-001 -2.005030e-001 3.065728e-001
<VARIANCE> 39
 2.137375e+001 1.723042e+001 3.085666e+001 3.476377e+001 6.385894e+000 3.746836e+001 2.144122e+001 4.357037e+001 6.333420e+000 3.020948e+001 2.865775e+001 1.656656e+001 2.155874e+000 2.895187e-001 9.393899e-001 5.183399e-001 3.688808e-001 9.283735e-001 2.477530e-001 1.569643e+000 1.032760e+000 2.289766e+000 2.854170e-001 2.220054e-001 9.935909e-001 1.315303e-001 3.123866e-001 4.116797e-002 2.014011e-001 6.520788e-002 8.532695e-002 5.764528e-002 7.755111e-002 4.541604e-002 7.587147e-002 1.974549e-001 1.880443e-002 1.952159e-001 9.191349e-003
<GCONST> 6.701045e+001
<MIXTURE> 5 1.217257e-001
<MEAN> 39
 -1.155733e+001 8.722925e+000 -5.009994e+000 -4.417851e+000 -2.777927e+000 -2.560177e+000 -1.026261e+000 -6.826107e+000 4.520148e+000 -5.719886e+000 -1.449222e+000 -2.898387e+000 6.013609e+001 -3.702374e+000 1.069018e+000 -2.084700e+000 2.560403e+000 2.430945e-001 8.221668e-001 9.205703e-001 1.703852e-001 -9.379189e-001 -5.740768e-001 -4.340931e-001 -5.405450e-001 -1.504856e+000 7.189012e-002 -7.798423e-001 -7.292979e-002 -9.176007e-001 3.620895e-001 -2.679873e-001 -2.654201e-001 2.625656e-001 1.142519e-003 2.503326e-002 -9.764712e-002 7.870334e-002 2.843568e-001
<VARIANCE> 39
 1.856252e+000 1.045557e+001 6.191332e-001 5.885214e+000 4.901672e+001 1.150798e+001 8.677806e+000 2.189713e+001 1.790811e+001 2.927161e+001 1.780127e+001 3.307634e+001 6.449533e+000 1.542468e+000 1.458728e+000 1.387709e+000 1.306359e+000 1.399445e+000 3.535095e-002 1.567571e+000 1.231613e+000 1.653689e+000 1.863164e-001 4.189130e-001 3.827821e-001 2.850694e-001 1.826961e-001 1.056548e-002 1.858135e-001 3.484843e-001 4.903631e-001 2.333951e-001 4.276317e-002 5.200000e-001 4.975691e-001 2.778693e-001 1.016579e-001 2.838115e-001 1.600114e-001
<GCONST> 7.449921e+001
<MIXTURE> 6 1.278595e-001
<MEAN> 39
 -1.260006e+001 7.680162e+000 -4.858302e+000 -6.105586e+000 -7.000060e+000 -9.073690e+000 -9.233966e-001 -1.423254e+001 1.779408e+000 5.860746e+000 -2.076614e+000 1.303447e+000 6.444533e+001 -2.175414e+000 6.782600e-001 -1.298391e+000 1.559626e-001 1.635928e+000 8.795952e-001 -1.757056e-001 1.086579e+000 4.114073e-001 -7.858883e-001 7.523356e-001 -7.643786e-002 -7.330120e-001 2.707919e-001 -8.697543e-001 1.504643e-001 -2.712603e-001 2.837901e-001 6.822661e-002 1.924704e-001 7.707515e-001 -2.410399e-001 -3.790241e-001 4.806072e-002 -5.214184e-001 -1.099257e-001
<VARIANCE> 39
 1.204941e+001 8.405561e+000 2.707084e+001 4.757896e+001 2.063437e+001 1.702592e+001 5.533117e+000 1.198603e+001 1.563113e+001 3.823911e+001 1.564827e+001 5.177893e+001 4.815941e+000 1.688551e+000 2.942069e+000 6.511565e-001 1.132943e+000 1.060445e+000 1.807680e+000 2.320812e+000 7.286646e-001 1.800670e+000 1.930223e+000 6.046262e-001 1.153625e+000 1.595409e+000 9.485285e-002 2.494485e-001 2.982905e-001 7.368661e-001 7.500953e-002 2.788780e-001 3.036820e-001 3.693160e-001 1.304907e-001 3.370433e-001 3.668199e-001 8.240833e-001 9.836307e-002
<GCONST> 9.404872e+001
<STATE> 4
<NUMMIXES> 6
<MIXTURE> 1 1.918221e-001
<MEAN> 39
 -2.104253e+001 3.805034e+000 -7.463202e+000 -5.980876e+000 1.356519e+000 -4.029274e+000 8.581918e+000 -7.142630e+000 2.674131e+000 -3.080820e+000 3.837407e+000 -3.907749e+000 6.069309e+001 6.167196e-001 -7.523965e-001 1.547516e-001 -2.387426e-001 3.006144e-001 -3.399695e-001 6.970129e-001 4.063406e-001 1.215646e-001 3.993411e-001 6.910770e-001 -1.739110e-003 -7.816616e-002 9.121457e-001 -1.113416e-001 5.545582e-001 -2.713784e-001 -5.057138e-001 -9.553570e-002 -6.292517e-001 -2.303483e-001 -5.681365e-002 2.595206e-001 -3.809784e-001 4.066812e-002 3.789950e-001
<VARIANCE> 39
 5.554303e+001 3.350201e+001 1.110397e+001 1.937429e+001 3.146605e+001 1.262858e+001 4.125012e+001 4.455895e+001 9.357442e+000 2.754150e+001 1.085836e+001 4.452060e+001 3.137001e+001 6.341176e+000 4.926532e-001 1.504163e+000 2.481337e+000 1.552904e+000 1.140311e+000 1.249413e+000 2.067573e+000 4.057225e-001 1.071894e+000 6.050063e-001 2.339743e+000 1.195712e+000 3.969695e-001 3.029944e-001 8.633205e-002 1.828556e-001 4.144058e-001 8.584746e-002 2.034961e-001 8.223621e-001 3.015465e-002 1.095036e-001 1.548635e-001 3.493541e-001 1.658981e-001
<GCONST> 9.511060e+001
<MIXTURE> 2 2.051175e-001
<MEAN> 39
 -1.102606e+001 4.217424e+000 -1.849329e+000 -1.355404e+001 -4.557251e+000 -7.677290e+000 -6.404997e-001 -1.013159e+001 2.414893e+000 1.363611e-001 -1.163733e+000 -2.639690e+000 6.726205e+001 2.076665e+000 -1.030077e+000 9.576543e-001 -1.055701e+000 -1.928209e+000 -2.283595e-001 -6.310725e-001 -9.009324e-001 -7.452469e-002 -2.138477e-001 -1.203627e-001 -1.040812e+000 1.130653e+000 -1.802776e-001 -4.009383e-001 -2.504260e-001 4.476779e-001 -8.368019e-004 2.942414e-001 2.579221e-001 4.519733e-001 -8.604293e-002 -1.356651e-001 1.502374e-001 8.212657e-002 -1.813792e-001
<VARIANCE> 39
 3.811359e+001 2.062306e+001 3.111251e+001 2.069472e+001 3.515225e+001 5.777570e+000 2.228331e+001 2.883955e+001 5.502142e+000 2.395919e+001 2.298363e+001 1.075345e+001 1.892244e+001 1.892849e+000 1.730917e+000 1.549236e+000 1.973036e+000 2.474081e+000 1.291525e+000 2.348523e+000 3.603325e+000 5.047691e-001 1.526542e+000 1.339538e+000 1.112706e+000 2.539532e+000 1.943989e-001 1.118879e-001 1.709756e-001 2.181249e-001 2.243941e-001 2.245738e-001 2.487873e-001 3.304577e-001 1.083415e-001 2.008860e-001 1.011304e-001 9.591937e-002 1.388450e-001
<GCONST> 9.355380e+001
<MIXTURE> 3 1.132146e-001
<MEAN> 39
 -2.321888e+001 2.926691e+000 -1.387245e+001 -4.659845e+000 4.723309e-001 -1.965704e+000 -3.269572e+000 -1.322427e+000 4.079640e-001 -3.564783e+000 -1.794698e+000 2.078223e+000 5.942543e+001 1.939386e-001 3.194194e-001 -9.915395e-002 -2.711634e-001 3.714782e-002 -5.739717e-001 1.900847e-001 3.546914e-001 6.795091e-002 4.771351e-001 1.330429e-001 3.990906e-001 2.063146e-001 4.331886e-001 2.105563e-001 3.878136e-001 -1.435831e-001 -1.267929e-001 -2.562666e-001 9.688625e-002 -1.450269e-001 4.023101e-001 -2.530765e-002 8.412255e-002 -2.719135e-001 9.999575e-002
<VARIANCE> 39
 6.749271e+000 2.263046e+001 1.417666e+001 2.458411e+001 5.628697e+000 1.872914e+001 1.634360e+001 3.227902e+001 1.464979e+001 9.257464e+000 1.367196e+001 5.099606e+001 8.440123e+000 3.884503e-001 4.194121e-001 4.087104e-001 4.992498e-001 4.642069e-001 3.225945e-001 6.342489e-001 3.877105e-001 6.688402e-001 5.327929e-001 1.259834e+000 3.976910e-001 4.901518e-002 1.477871e-001 1.300377e-001 5.912087e-002 1.343141e-001 7.351565e-002 4.167864e-002 9.535185e-002 2.657911e-002 1.585682e-001 1.122390e-001 1.154044e-001 1.331193e-001 2.521306e-002
<GCONST> 6.319335e+001
<MIXTURE> 4 1.936955e-001
<MEAN> 39
 -2.319884e+001 4.200385e+000 -1.151472e+001 -5.685755e+000 -4.236903e-001 -4.247530e+000 -3.109246e-001 -3.518853e+000 4.178710e+000 -3.209322e+000 1.523079e+000 -1.612043e+000 5.986842e+001 -1.193729e+000 -9.919732e-001 -6.538045e-001 -4.297401e-001 -1.266721e-001 4.263684e-001 6.210082e-002 2.029714e-001 -3.980060e-001 -6.071727e-001 -1.827750e-001 -5.935110e-001 -3.894506e-001 6.069520e-001 -3.268945e-002 2.124503e-001 -3.518185e-001 6.733196e-002 -2.034376e-001 -1.842763e-001 -7.763716e-002 -1.421296e-001 8.684988e-002 -1.921166e-001 3.732974e-002 6.479952e-002
<VARIANCE> 39
 1.914765e+001 2.738306e+001 1.822768e+001 7.189263e+000 1.177165e+001 1.225325e+001 1.628634e+001 2.526879e+001 1.789079e+001 7.807236e+000 4.078440e+001 3.293013e+001 8.857388e+000 1.593675e+000 2.824463e-001 1.324660e+000 5.455132e-001 1.150444e+000 5.869828e-001 2.603975e-001 8.994449e-001 6.417346e-001 4.827148e-001 3.422137e-001 7.869337e-001 1.509490e-001 1.349614e-001 8.940965e-002 9.949727e-002 1.293720e-001 1.663104e-001 4.237630e-002 6.796358e-002 7.536416e-002 1.126425e-001 1.739576e-001 2.018013e-001 6.855991e-002 4.977427e-002
<GCONST> 7.057510e+001
<MIXTURE> 5 1.825741e-001
<MEAN> 39
 -2.014176e+001 4.966656e+000 -7.884186e+000 -7.883634e+000 3.213167e+000 -6.424328e+000 -1.011069e+000 -3.802251e+000 3.877183e-001 -6.806180e+000 -1.726144e+000 -5.739802e+000 5.780851e+001 2.051718e+000 -8.536068e-001 1.045508e+000 -1.982165e+000 -3.948748e-001 -5.101019e-001 -5.239125e-001 -6.707527e-001 8.445510e-002 -4.899893e-002 -9.442739e-001 -6.576940e-001 1.105088e+000 6.187212e-001 -2.769342e-001 -3.071199e-002 -4.614183e-001 -3.784317e-001 -9.947957e-002 -1.280826e-001 -1.999410e-001 9.344142e-003 1.520419e-001 2.575531e-002 1.943680e-001 5.915291e-001
<VARIANCE> 39
 2.823174e+001 1.861823e+001 4.179102e+001 3.404598e+001 1.163028e+001 4.421204e+001 1.309499e+001 3.899789e+001 9.592702e+000 3.476249e+001 6.168391e+001 7.357180e+001 3.111155e+001 2.303301e+000 1.746761e+000 1.436280e+000 1.687789e+000 1.058027e+000 4.231848e-001 6.048918e-001 1.554167e+000 1.161471e+000 1.500113e+000 6.563423e-001 5.379302e-001 1.757135e+000 2.592772e-001 2.479414e-001 2.504576e-001 4.885294e-001 1.139574e-001 3.576723e-001 9.131582e-002 1.958165e-001 1.627474e-001 3.027843e-001 3.427772e-001 2.006525e-001 3.279886e-001
<GCONST> 9.796679e+001
<MIXTURE> 6 1.135761e-001
<MEAN> 39
 -2.238298e+001 2.483725e+000 -1.541159e+001 -4.229400e+000 6.447967e-001 -4.602001e+000 -3.822821e+000 -3.824848e+000 1.556241e-001 -4.397701e+000 -6.475226e-001 9.057636e-001 5.958625e+001 -1.628183e-001 2.540272e-001 -4.004486e-002 -2.432089e-001 -2.314683e-002 -6.026782e-001 4.261585e-001 1.466122e-001 2.808459e-002 2.030993e-001 1.904604e-001 -7.330051e-002 2.238216e-001 2.970169e-001 -2.533135e-002 2.625935e-001 -2.708519e-001 -8.677256e-002 -1.058759e-001 1.570515e-001 -1.610321e-001 1.287190e-001 -2.357753e-002 -5.569670e-002 -2.852778e-001 3.734566e-002
<VARIANCE> 39
 5.697407e+000 1.446386e+001 1.361425e+001 1.649691e+001 6.504748e+000 2.346979e+001 1.010911e+001 2.852423e+001 2.349838e+001 1.221187e+001 5.210511e+001 3.585250e+001 1.018351e+001 5.186450e-001 5.007266e-001 6.254083e-001 5.303020e-001 3.608475e-001 5.010375e-001 5.110600e-001 2.964737e-001 1.177019e+000 4.494309e-001 1.474163e+000 9.603069e-001 4.901518e-002 2.642068e-001 1.444765e-001 5.759640e-002 1.207941e-001 1.095525e-001 9.253662e-002 1.047106e-001 3.995247e-002 1.998648e-001 1.503146e-001 2.686560e-001 1.345381e-001 2.916905e-002
<GCONST> 6.969247e+001
<TRANSP> 5
 0.000000e+000 1.000000e+000 0.000000e+000 0.000000e+000 0.000000e+000
 0.000000e+000 6.991554e-001 3.008446e-001 0.000000e+000 0.000000e+000
 0.000000e+000 0.000000e+000 7.078761e-001 2.921239e-001 0.000000e+000
 0.000000e+000 0.000000e+000 0.000000e+000 8.560695e-001 1.439305e-001
 0.000000e+000 0.000000e+000 0.000000e+000 0.000000e+000 0.000000e+000
<ENDHMM>
~h "b"
<BEGINHMM>
<NUMSTATES> 5
<STATE> 2
<NUMMIXES> 6
<MIXTURE> 1 1.580003e-001
<MEAN> 39
 3.544380e+000 4.423869e+000 5.236562e+000 -8.209039e-002 2.307587e+000 -2.175535e+000 1.578756e+000 -2.254256e+000 -9.676798e-002 -3.689692e+000 1.441813e+000 -2.291110e+000 4.787793e+001 -7.479269e-001 6.368893e-002 5.512468e-002 3.168118e-001 1.678239e-001 2.697854e-001 3.382138e-001 7.167434e-002 2.069143e-001 4.668066e-002 -1.484641e-002 2.893111e-002 -8.805870e-001 -1.857794e-001 -4.099567e-001 -2.312018e-001 -8.856116e-002 -2.227263e-001 -3.567142e-001 -2.874492e-001 -9.314211e-002 2.166287e-001 9.073037e-002 3.138845e-002 -5.893294e-002 5.126022e-001
<VARIANCE> 39
 1.887338e+001 1.441032e+001 2.941183e+001 2.999086e+001 3.418427e+001 3.475566e+001 3.537481e+001 4.960796e+001 5.619056e+001 3.758450e+001 4.755522e+001 1.958989e+001 8.616207e+001 8.304060e-001 9.009352e-001 1.341907e+000 1.198325e+000 8.394572e-001 1.105227e+000 1.704966e+000 1.511459e+000 1.251250e+000 1.308508e+000 1.690074e+000 1.061182e+000 5.698923e-001 1.492202e-001 1.045733e-001 1.837220e-001 2.289452e-001 1.656758e-001 3.292073e-001 3.346528e-001 3.389969e-001 3.716132e-001 2.732700e-001 3.371274e-001 1.865804e-001 1.948742e-001
<GCONST> 1.000325e+002
<MIXTURE> 2 1.274537e-001
<MEAN> 39
 -1.943697e+000 5.499537e+000 4.687075e+000 3.797391e+000 4.480308e+000 -3.885670e+000 -2.629812e+000 -5.524951e+000 5.887226e-001 -4.219110e+000 1.677285e+000 -3.284388e+000 4.041938e+001 -1.432140e+000 -7.463359e-001 -6.755531e-001 -6.351655e-001 -4.917473e-001 6.447260e-001 6.639853e-001 3.797475e-001 3.022847e-001 4.962789e-001 3.555147e-002 2.474079e-001 1.221919e+000 1.318336e-001 -8.663896e-001 -8.895554e-001 -8.774951e-001 -6.672444e-001 -3.995511e-001 1.743110e-001 2.716071e-001 6.863966e-002 1.577800e-001 4.194899e-002 -9.986923e-003 1.807563e+000
<VARIANCE> 39
 1.429124e+001 6.634528e+000 1.752909e+001 8.031393e+000 1.513844e+001 1.881951e+001 2.109775e+001 2.572406e+001 2.177530e+001 2.262172e+001 1.919590e+001 1.438163e+001 1.293164e+001 1.058060e+000 1.615203e+000 2.161066e+000 1.253900e+000 1.270325e+000 1.347020e+000 1.010733e+000 2.069695e+000 9.897943e-001 1.013549e+000 1.165015e+000 8.601525e-001 4.443825e+000 2.364713e-001 2.871847e-001 3.383483e-001 2.441436e-001 2.925547e-001 2.426418e-001 3.248021e-001 3.204741e-001 3.035219e-001 2.669731e-001 2.425578e-001 1.817845e-001 3.153962e-001
<GCONST> 9.493062e+001
<MIXTURE> 3 2.226108e-001
<MEAN> 39
 -1.176861e+001 -3.623218e+000 -1.958904e+000 -2.666944e+000 3.162625e-001 -3.342333e+000 1.106724e+000 -2.165582e+000 9.469003e-001 -3.775734e+000 1.271710e+000 -3.241083e+000 4.014746e+001 -4.011659e-001 -4.291004e-001 -1.628995e-001 -2.513248e-001 -4.714618e-002 8.072728e-002 2.627782e-002 6.240358e-002 2.485579e-001 1.179048e-001 5.536637e-002 -4.752232e-002 3.512862e-002 2.850789e-001 7.354261e-002 5.459573e-003 -6.082615e-002 -9.943400e-002 -1.486582e-001 -1.129485e-001 -4.701551e-002 4.522873e-002 -2.784183e-003 -4.405634e-002 7.510723e-002 9.330062e-001
<VARIANCE> 39
 1.109190e+001 6.561891e+000 7.348466e+000 7.968601e+000 1.180235e+001 1.907723e+001 2.249426e+001 2.154697e+001 1.775477e+001 2.142433e+001 2.311896e+001 2.164016e+001 5.671499e+001 7.606469e-001 5.360899e-001 7.172701e-001 7.473971e-001 7.608865e-001 8.529730e-001 7.922775e-001 8.714438e-001 6.553351e-001 8.729861e-001 7.103671e-001 8.696417e-001 9.962016e-001 1.288366e-001 1.049957e-001 1.101097e-001 1.788659e-001 1.396859e-001 1.693036e-001 2.105533e-001 1.641260e-001 1.808144e-001 2.073612e-001 1.688539e-001 1.309272e-001 8.037757e-001
<GCONST> 8.180842e+001
<MIXTURE> 4 2.135020e-001
<MEAN> 39
 7.657797e-001 1.972076e+000 -3.087978e-001 -3.138696e-001 4.276326e+000 -5.402877e+000 -4.538437e+000 -6.278892e+000 -1.493811e+000 -6.968013e+000 -1.776692e+000 -5.783136e+000 4.601641e+001 -1.149994e+000 -1.063105e+000 -9.065794e-001 -1.200884e+000 -1.187299e+000 -1.818397e-001 1.021375e+000 3.134713e-002 5.395164e-001 6.733366e-001 2.191510e-001 4.099717e-001 2.221188e+000 -1.025654e-002 -6.269370e-001 -4.867199e-001 -6.558162e-001 -5.484782e-001 -4.032307e-001 1.871011e-002 1.426768e-001 3.156151e-001 2.493554e-001 1.578883e-001 -1.826033e-002 1.476732e+000
<VARIANCE> 39
 2.829335e+001 2.726868e+001 3.654114e+001 4.051772e+001 4.545456e+001 3.998739e+001 4.191582e+001 5.181350e+001 3.138010e+001 5.777849e+001 4.440721e+001 3.392604e+001 3.895508e+001 1.421026e+000 1.887144e+000 2.976919e+000 2.951277e+000 1.938755e+000 1.965283e+000 3.166616e+000 2.751209e+000 2.248064e+000 2.627531e+000 2.142764e+000 1.359325e+000 2.954497e+000 2.946498e-001 3.385250e-001 4.891753e-001 5.176360e-001 4.611922e-001 3.736693e-001 6.504648e-001 7.024249e-001 3.498638e-001 4.482100e-001 3.672684e-001 2.879416e-001 3.811992e-001
<GCONST> 1.186036e+002
<MIXTURE> 5 1.494389e-001
<MEAN> 39
 1.107694e+000 5.270451e+000 4.851939e+000 1.938682e-001 -3.528620e-001 -6.345434e+000 -5.261066e+000 -5.580998e+000 4.254650e-001 -2.519489e+000 1.093796e+000 -4.025999e+000 4.358812e+001 -1.048278e+000 -5.492275e-001 -2.526189e-001 1.036232e-001 -9.682426e-002 2.043834e-001 3.861088e-001 1.240592e-001 9.831462e-002 -1.815265e-001 -2.030884e-001 -8.982488e-002 -6.482897e-001 -3.295255e-002 -3.685265e-001 -2.974139e-001 -2.849318e-001 -4.365141e-002 -1.531641e-001 3.516639e-002 2.306230e-001 4.672024e-002 -5.426105e-002 -2.279660e-002 -9.799991e-004 6.049027e-001
<VARIANCE> 39
 1.590533e+001 1.522713e+001 3.035518e+001 1.548373e+001 3.239574e+001 4.734010e+001 4.838561e+001 3.417231e+001 2.424123e+001 2.671449e+001 3.113084e+001 2.258538e+001 5.804083e+001 7.386924e-001 9.296368e-001 7.200090e-001 1.204507e+000 6.226406e-001 1.244934e+000 1.221325e+000 1.658405e+000 1.030398e+000 9.694948e-001 1.141842e+000 9.746092e-001 5.370610e-001 9.867273e-002 1.675664e-001 2.822466e-001 2.244562e-001 2.402397e-001 2.483893e-001 3.160610e-001 2.481319e-001 1.669247e-001 2.463668e-001 2.382838e-001 2.151032e-001 1.770561e-001
<GCONST> 9.445346e+001
<MIXTURE> 6 1.289940e-001
<MEAN> 39
 -2.801935e+000 4.672042e+000 3.887546e+000 2.982743e+000 3.775095e+000 -4.259521e+000 -3.208455e+000 -5.983663e+000 -4.713849e-001 -4.890188e+000 1.924370e-001 -4.296907e+000 3.947183e+001 -1.750518e+000 -1.242638e+000 -9.495188e-001 -1.121042e+000 -6.295670e-001 5.193649e-001 6.469711e-001 2.791529e-001 1.542437e-001 3.625792e-001 1.651034e-001 7.187791e-002 1.530527e+000 1.859614e-001 -9.493765e-001 -8.914613e-001 -8.708315e-001 -6.583547e-001 -4.208368e-001 1.694084e-001 1.781002e-001 1.028920e-001 1.395763e-001 7.505169e-002 -7.728308e-002 1.823564e+000
<VARIANCE> 39
 1.641398e+001 6.943811e+000 1.548102e+001 1.096548e+001 1.647053e+001 1.801043e+001 1.905497e+001 2.339794e+001 2.122389e+001 2.064592e+001 1.932836e+001 1.745387e+001 1.192488e+001 1.513180e+000 1.470147e+000 2.045008e+000 1.144367e+000 1.270627e+000 1.448137e+000 1.220679e+000 1.959786e+000 1.174070e+000 1.102809e+000 1.216252e+000 9.218210e-001 4.473056e+000 2.520197e-001 2.910935e-001 3.498221e-001 2.240772e-001 2.716621e-001 2.938134e-001 2.819726e-001 3.212984e-001 2.626642e-001 3.131897e-001 2.234070e-001 1.847953e-001 2.954732e-001
<GCONST> 9.573304e+001
<STATE> 3
<NUMMIXES> 6
<MIXTURE> 1 2.028406e-001
<MEAN> 39
 -6.921269e+000 -2.497917e+000 1.260048e+000 -2.253246e+000 1.426263e+000 -4.625827e+000 7.102842e-001 -8.214875e-001 2.528831e+000 -3.189467e+000 7.810544e-001 -4.662298e+000 5.033393e+001 7.469921e-001 -1.333952e+000 -9.348377e-001 -5.201089e-002 -7.622385e-001 -1.293501e+000 -1.009825e+000 9.554984e-002 8.793504e-001 2.255713e-001 -4.876103e-002 -1.313724e-001 2.033233e+000 8.175787e-001 -9.673551e-002 -1.679057e-001 8.366597e-002 -3.136714e-001 -3.789512e-001 -3.585195e-001 -1.509256e-001 1.265267e-001 1.383142e-001 -1.594642e-001 1.176719e-001 3.773239e-001
<VARIANCE> 39
 1.440613e+001 1.909011e+001 2.119987e+001 2.847638e+001 1.759349e+001 2.625855e+001 3.087183e+001 2.114771e+001 2.172941e+001 2.390864e+001 1.675888e+001 2.677509e+001 5.901859e+001 2.942266e+000 1.125637e+000 1.312418e+000 1.825858e+000 1.310696e+000 1.229308e+000 1.867186e+000 1.776874e+000 1.351429e+000 2.643869e+000 1.156891e+000 8.716738e-001 1.713252e+000 2.035413e-001 2.030847e-001 2.393233e-001 3.199222e-001 2.068268e-001 2.303110e-001 2.854297e-001 2.967243e-001 1.885419e-001 2.957543e-001 2.222158e-001 1.743655e-001 2.142492e-001
<GCONST> 9.937257e+001
<MIXTURE> 2 1.152146e-001
<MEAN> 39
 -9.291319e-002 2.814009e+000 3.311571e+000 -2.574954e-001 1.479721e+000 -5.037503e+000 -2.572361e+000 -3.490323e+000 8.249806e-001 -1.456606e+000 2.587204e+000 -1.462497e+000 4.803102e+001 5.032228e-002 -1.577463e+000 -2.172848e+000 -9.251755e-001 -9.028991e-002 -9.703986e-001 -1.071625e-001 3.121260e-001 9.912085e-001 1.233312e-001 -6.160564e-001 1.283202e-001 2.924428e+000 4.824478e-001 -3.398946e-001 -5.477632e-001 -1.718496e-001 -6.758225e-002 -1.695017e-001 -2.161759e-001 8.235885e-002 1.911795e-001 5.214579e-002 -1.223348e-001 -5.977422e-002 9.401278e-001
<VARIANCE> 39
 1.910942e+001 2.088830e+001 5.141082e+001 4.099908e+001 5.999371e+001 6.279657e+001 8.186006e+001 4.053976e+001 4.416238e+001 3.849932e+001 3.324570e+001 2.790182e+001 1.103589e+002 1.572636e+000 1.460996e+000 4.846769e+000 2.524763e+000 3.090309e+000 2.005927e+000 3.324939e+000 4.399623e+000 3.060477e+000 2.077520e+000 2.592803e+000 1.475965e+000 2.990772e+000 2.284877e-001 1.995060e-001 6.131669e-001 2.915472e-001 4.645477e-001 3.836058e-001 3.427954e-001 5.083084e-001 5.328858e-001 2.369089e-001 3.753372e-001 2.059888e-001 1.696254e-001
<GCONST> 1.180818e+002
<MIXTURE> 3 1.841616e-001
<MEAN> 39
 -1.347975e+001 -3.088534e+000 -2.243243e+000 -1.668669e+000 3.470797e-001 -3.043080e+000 1.289131e+000 -1.520287e+000 1.381752e+000 -3.396075e+000 1.555629e+000 -2.582427e+000 3.482779e+001 2.578803e-001 -5.414926e-001 -2.379933e-001 -1.429083e+000 -7.119750e-001 -1.610533e-001 -8.216485e-002 -3.837878e-002 4.057133e-001 3.094721e-001 -4.635365e-002 1.864538e-001 4.197221e+000 7.070531e-001 1.427597e-001 -3.047214e-001 -5.961829e-001 -1.431878e-001 -3.492578e-001 -2.100311e-001 -2.021300e-001 -3.017160e-002 -6.247213e-003 -1.469753e-001 -1.960642e-001 1.777624e+000
<VARIANCE> 39
 3.717209e+000 8.027617e+000 9.666626e+000 1.125773e+001 1.332179e+001 1.737113e+001 2.079400e+001 1.685107e+001 1.298312e+001 2.305402e+001 1.427595e+001 1.129966e+001 6.053843e+000 1.173422e+000 1.457538e+000 1.918893e+000 1.942367e+000 1.310596e+000 9.739022e-001 1.473429e+000 1.122550e+000 1.546007e+000 1.414514e+000 8.372464e-001 8.638738e-001 2.408203e+000 1.761403e-001 3.220792e-001 3.302958e-001 1.812232e-001 2.036774e-001 2.068060e-001 2.407425e-001 2.844441e-001 1.577412e-001 2.334875e-001 1.636766e-001 1.605179e-001 4.132776e-001
<GCONST> 8.823062e+001
<MIXTURE> 4 2.305119e-001
<MEAN> 39
 -6.319270e+000 -2.942798e+000 -2.602072e+000 -4.786892e+000 -7.871090e-001 -5.984265e+000 -8.979390e-001 -5.088331e+000 -1.373180e-001 -3.637042e+000 9.820334e-002 -4.545342e+000 5.543970e+001 -2.900096e-001 -1.992329e+000 -1.951144e+000 -2.305520e+000 -1.721991e+000 -6.009703e-001 9.610352e-001 4.032238e-001 9.663306e-001 8.797660e-001 2.239464e-001 -2.899110e-001 4.732425e+000 3.741578e-001 -1.625979e-001 -1.673768e-001 -2.160648e-001 -7.253595e-002 -1.596554e-001 -3.788157e-002 6.317147e-002 9.940584e-002 -1.650128e-001 -2.712429e-002 -1.582325e-001 4.129864e-001
<VARIANCE> 39
 2.642705e+001 2.050943e+001 3.495761e+001 2.896049e+001 3.405545e+001 3.230560e+001 3.592664e+001 3.931108e+001 2.734758e+001 3.595752e+001 2.858145e+001 2.212704e+001 4.411883e+001 1.937143e+000 2.670224e+000 4.544468e+000 3.553222e+000 2.786041e+000 2.142408e+000 4.055189e+000 3.384493e+000 2.880544e+000 2.873788e+000 2.575153e+000 2.836668e+000 4.072810e+000 2.617095e-001 2.033137e-001 2.317898e-001 3.094004e-001 2.754104e-001 2.417352e-001 3.119000e-001 4.795415e-001 2.837752e-001 2.277265e-001 2.196618e-001 2.360317e-001 2.164241e-001
<GCONST> 1.132064e+002
<MIXTURE> 5 1.515818e-001
<MEAN> 39
 -1.397406e+001 -4.445676e+000 -2.853487e+000 -3.684854e+000 -3.250783e-001 -2.843110e+000 1.293770e+000 -2.980146e+000 1.483209e+000 -2.085931e+000 1.463122e+000 -2.864035e+000 4.087473e+001 9.522082e-001 -1.694422e+000 -1.453241e+000 -1.430121e+000 -1.284598e+000 -5.756448e-001 2.301005e-001 2.255739e-001 1.463026e-001 7.686886e-002 -3.833593e-001 -2.628218e-001 4.837425e+000 1.010229e+000 -2.313081e-001 -3.936871e-001 -1.233721e-001 -1.601202e-001 -3.617063e-001 -5.014089e-002 6.277411e-002 -1.429576e-001 -1.501116e-001 -1.914508e-001 -1.571850e-001 1.277776e+000
<VARIANCE> 39
 5.960259e+000 7.848295e+000 6.146465e+000 1.722933e+001 1.488365e+001 1.954958e+001 1.004212e+001 1.606137e+001 1.510962e+001 1.554443e+001 1.977066e+001 1.467738e+001 4.992116e+001 2.273235e+000 1.436571e+000 1.762700e+000 1.304175e+000 9.930772e-001 1.741224e+000 1.150804e+000 1.445387e+000 1.511827e+000 9.938025e-001 1.066687e+000 7.418053e-001 3.238231e+000 2.452889e-001 2.183746e-001 3.349030e-001 2.213086e-001 3.450410e-001 2.090616e-001 2.352154e-001 3.256371e-001 3.364048e-001 1.923214e-001 2.492398e-001 2.782232e-001 3.481288e-001
<GCONST> 9.321259e+001
<MIXTURE> 6 1.156898e-001
<MEAN> 39
 -4.627172e-001 2.594464e+000 1.145831e+000 -1.482748e+000 3.836626e-001 -5.938133e+000 -2.781429e+000 -5.658524e+000 -6.160173e-001 -2.383839e+000 1.183333e+000 -2.392179e+000 4.630371e+001 2.977709e-002 -1.762545e+000 -2.737477e+000 -1.162298e+000 -2.783315e-001 -1.046299e+000 -1.829933e-002 2.536521e-001 8.844686e-001 2.249383e-001 -4.567318e-001 -6.047310e-002 3.085669e+000 4.179730e-001 -4.341112e-001 -6.044633e-001 -1.268070e-001 -7.243473e-002 -2.047998e-001 -1.927580e-001 1.205411e-001 2.070995e-001 -9.467805e-002 -1.414417e-001 -1.508185e-001 9.138724e-001
<VARIANCE> 39
 2.089132e+001 2.868236e+001 4.843674e+001 4.998595e+001 5.766463e+001 6.564143e+001 7.179980e+001 3.972482e+001 5.449844e+001 4.077665e+001 3.475848e+001 2.982076e+001 1.084535e+002 1.576748e+000 1.924877e+000 3.881861e+000 3.125191e+000 3.075707e+000 2.794877e+000 4.248264e+000 4.167726e+000 3.085978e+000 2.197774e+000 2.358609e+000 1.804465e+000 3.305633e+000 2.373109e-001 2.548195e-001 5.481013e-001 3.012223e-001 4.189259e-001 5.030807e-001 4.160194e-001 4.956478e-001 4.789133e-001 2.644303e-001 3.838300e-001 2.196666e-001 2.080614e-001
<GCONST> 1.207330e+002
<STATE> 4
<NUMMIXES> 6
<MIXTURE> 1 1.205909e-001
<MEAN> 39
 2.018784e+000 -3.423054e+000 -2.584763e+000 -2.306450e+000 -1.317259e+000 -9.871699e+000 -5.929486e+000 -1.618798e+000 7.173409e+000 -1.884424e-001 3.035011e-001 -2.950090e+000 6.014713e+001 1.935109e+000 -1.687503e+000 -1.074373e+000 1.068550e-001 -1.606303e+000 -1.346993e+000 -6.060259e-001 -2.318096e-001 1.531530e+000 5.449284e-001 -7.454002e-001 6.827595e-001 2.631651e+000 1.709063e-002 3.045523e-002 2.803858e-001 9.907280e-003 -1.142169e-001 2.975875e-001 3.099560e-001 -1.341714e-001 -1.821018e-001 -1.524425e-001 1.196920e-001 5.147230e-002 -2.833226e-001
<VARIANCE> 39
 2.518206e+001 2.522783e+001 5.167572e+001 2.226861e+001 2.932022e+001 2.524880e+001 4.132429e+001 2.691912e+001 2.293534e+001 2.966776e+001 2.300942e+001 2.223078e+001 4.193534e+001 1.987540e+000 1.512041e+000 4.226827e+000 2.563941e+000 2.164858e+000 1.684199e+000 2.890134e+000 2.344247e+000 2.710641e+000 2.738928e+000 2.710092e+000 1.345273e+000 2.438601e+000 1.431263e-001 1.351660e-001 1.705924e-001 2.649075e-001 2.302777e-001 2.289138e-001 2.440207e-001 2.467479e-001 2.031206e-001 2.748483e-001 2.787104e-001 1.870322e-001 3.522281e-001
<GCONST> 1.064991e+002
<MIXTURE> 2 1.566002e-001
<MEAN> 39
 -9.197315e+000 -4.662635e+000 -1.341485e+000 -9.075795e+000 -4.270049e+000 -3.444020e+000 2.083610e+000 -6.243591e+000 4.178247e+000 -2.538799e+000 8.544036e-001 -9.217194e-001 5.899076e+001 1.173841e+000 -2.848476e-002 -1.478829e+000 -2.716682e+000 -1.893274e-001 -8.673540e-001 -5.206460e-001 -5.009866e-001 2.205633e-001 2.660634e-001 1.604801e-001 2.500644e-001 5.220632e+000 4.559320e-001 4.712582e-001 -1.830374e-001 2.503489e-001 4.827421e-001 -2.524821e-001 -3.397229e-001 1.555146e-002 -2.548551e-001 -1.080291e-001 1.516030e-001 -8.901351e-002 -5.404770e-001
<VARIANCE> 39
 3.004795e+001 2.250351e+001 5.228465e+001 5.265899e+001 3.594484e+001 2.225955e+001 4.015396e+001 3.166429e+001 4.039360e+001 3.028686e+001 3.371970e+001 2.236164e+001 4.846922e+001 2.131949e+000 4.946399e+000 5.422226e+000 3.032705e+000 1.798530e+000 1.874153e+000 2.838513e+000 2.495047e+000 1.350859e+000 1.359213e+000 1.890200e+000 9.480722e-001 2.354129e+000 3.862852e-001 2.305895e-001 2.739486e-001 4.317161e-001 2.217723e-001 3.425800e-001 4.044905e-001 2.151760e-001 2.827136e-001 3.052861e-001 2.624778e-001 2.295712e-001 4.873417e-001
<GCONST> 1.123885e+002
<MIXTURE> 3 1.553932e-001
<MEAN> 39
 -4.414726e+000 -7.519924e+000 -4.943566e+000 -1.308396e+001 -9.276048e+000 -7.974630e+000 2.434004e+000 -3.226362e+000 2.505088e+000 -2.766454e+000 3.432523e+000 -8.489866e+000 7.076934e+001 -5.869056e-003 -1.898431e+000 -1.698792e+000 -2.914047e+000 -1.559370e+000 5.152828e-002 1.334526e+000 2.602771e-001 -8.186898e-002 1.880425e-001 1.195754e-001 -8.281955e-001 5.220812e+000 7.208918e-002 2.498059e-001 2.157679e-001 6.306873e-001 7.302194e-001 3.036287e-001 -1.706776e-001 -1.240159e-002 -2.077954e-001 -2.124778e-001 -3.224183e-001 3.328572e-001 -1.183256e+000
<VARIANCE> 39
 9.014560e+000 1.284209e+001 6.308237e+001 3.886217e+001 4.377913e+001 2.127420e+001 3.992388e+001 4.646328e+001 2.690697e+001 2.933190e+001 4.033698e+001 2.396882e+001 2.623033e+001 1.433604e+000 1.441956e+000 2.764601e+000 2.104117e+000 2.550380e+000 1.426465e+000 2.086329e+000 3.730626e+000 2.272234e+000 2.061385e+000 1.805205e+000 1.847854e+000 2.688543e+000 1.563846e-001 1.103179e-001 2.039108e-001 2.297685e-001 2.005748e-001 1.538299e-001 2.005118e-001 2.512020e-001 2.076349e-001 2.287866e-001 3.074735e-001 2.665196e-001 2.521527e-001
<GCONST> 1.044620e+002
<MIXTURE> 4 2.543909e-001
<MEAN> 39
 3.535532e+000 -5.245089e+000 -1.790207e+001 -1.024914e+001 3.950159e+000 -1.041214e+001 -4.316520e+000 -2.250721e+000 3.987883e+000 -4.917417e-001 -6.349335e-001 -6.879139e+000 6.392154e+001 1.300692e+000 -1.396714e+000 -3.520136e+000 -8.163142e-001 6.064432e-001 -4.781892e-001 -2.854361e-001 8.521399e-001 4.498029e-001 -6.570902e-002 -5.919069e-001 -4.845696e-001 3.224178e+000 -2.795804e-001 1.817445e-001 7.834371e-001 6.241899e-001 -4.403695e-002 3.482732e-001 1.496275e-001 -6.155442e-002 -3.557528e-001 -3.731754e-001 3.113841e-002 2.221773e-001 -8.811324e-001
<VARIANCE> 39
 2.090892e+001 3.460136e+001 7.979610e+001 4.520266e+001 4.239571e+001 5.193934e+001 6.117255e+001 1.121398e+002 2.980826e+001 4.135448e+001 5.178033e+001 3.736394e+001 6.380877e+001 2.090832e+000 2.379466e+000 2.759183e+000 2.188105e+000 3.013688e+000 2.818985e+000 3.072017e+000 3.619259e+000 3.547383e+000 2.244855e+000 1.910535e+000 1.925543e+000 3.275321e+000 2.427018e-001 1.775282e-001 3.927279e-001 2.426281e-001 2.836452e-001 2.783179e-001 3.848845e-001 5.877752e-001 3.445395e-001 3.483371e-001 3.545527e-001 2.615755e-001 3.161907e-001
<GCONST> 1.191673e+002
<MIXTURE> 5 1.923769e-001
<MEAN> 39
 -1.149792e+001 -7.774018e+000 -3.239452e+000 -6.548864e+000 -3.566560e+000 -6.786285e+000 2.358812e+000 -2.340065e+000 1.272499e+000 -4.944904e+000 2.016168e+000 -3.477734e+000 5.906868e+001 1.689700e+000 -1.181245e+000 -1.824265e+000 -1.328366e+000 -1.039213e+000 -1.298600e+000 -4.302271e-001 -1.341828e-001 5.113059e-001 -1.774476e-001 -3.980372e-001 -3.494067e-001 4.911549e+000 7.081758e-001 2.669844e-001 -1.608718e-001 1.636360e-001 1.455159e-001 -8.826014e-002 -1.659987e-001 -2.175650e-001 1.125374e-001 -2.366862e-003 -1.596347e-001 -2.160697e-002 -3.354922e-001
<VARIANCE> 39
 1.668341e+001 2.561520e+001 2.870427e+001 1.518406e+001 1.964878e+001 1.806764e+001 2.930942e+001 2.325216e+001 2.726608e+001 3.144867e+001 2.159844e+001 2.141250e+001 2.867691e+001 3.537413e+000 3.208720e+000 3.776618e+000 2.354536e+000 2.771058e+000 2.516208e+000 1.909673e+000 2.552740e+000 1.911335e+000 1.618378e+000 1.360973e+000 1.475165e+000 4.081134e+000 3.610594e-001 2.448469e-001 2.528530e-001 2.195322e-001 2.688882e-001 2.333392e-001 3.274446e-001 2.687312e-001 2.401398e-001 2.114193e-001 2.220309e-001 2.140120e-001 2.715888e-001
<GCONST> 1.059815e+002
<MIXTURE> 6 1.206477e-001
<MEAN> 39
 2.154815e+000 -4.751949e+000 -5.973878e+000 -3.628397e+000 -2.710334e+000 -1.090384e+001 -5.459875e+000 -3.865816e+000 5.874807e+000 -4.993284e-001 -8.344312e-001 -4.406874e+000 5.946747e+001 1.955894e+000 -1.978579e+000 -1.907069e+000 -1.274404e-001 -1.732272e+000 -1.550235e+000 -4.974825e-001 -5.280492e-002 1.513418e+000 4.448344e-001 -7.024517e-001 1.835009e-001 2.838021e+000 -1.226553e-002 -1.827483e-002 2.393818e-001 4.527694e-002 -9.083882e-002 2.724047e-001 2.051853e-001 -6.466302e-002 -2.033654e-001 -2.719758e-001 4.373105e-002 2.077532e-002 -4.126344e-001
<VARIANCE> 39
 2.483534e+001 3.160286e+001 5.544237e+001 2.127546e+001 3.054578e+001 2.625206e+001 4.033477e+001 2.782483e+001 2.723752e+001 3.315656e+001 2.163702e+001 2.731970e+001 5.035606e+001 2.202640e+000 2.087110e+000 3.232748e+000 1.759793e+000 2.524997e+000 1.781888e+000 3.577928e+000 2.582900e+000 2.291195e+000 2.787718e+000 2.667424e+000 1.480052e+000 3.203758e+000 1.837828e-001 1.444043e-001 1.736319e-001 1.982615e-001 2.584078e-001 2.134679e-001 2.567708e-001 2.455245e-001 2.046796e-001 2.549041e-001 2.727643e-001 1.795461e-001 3.434547e-001
<GCONST> 1.079182e+002
<TRANSP> 5
 0.000000e+000 1.000000e+000 0.000000e+000 0.000000e+000 0.000000e+000
 0.000000e+000 6.142135e-001 3.857866e-001 0.000000e+000 0.000000e+000
 0.000000e+000 0.000000e+000 4.660389e-001 5.339611e-001 0.000000e+000
 0.000000e+000 0.000000e+000 0.000000e+000 5.122330e-001 4.877671e-001
 0.000000e+000 0.000000e+000 0.000000e+000 0.000000e+000 0.000000e+000
<ENDHMM>
~h "d"
<BEGINHMM>
<NUMSTATES> 5
<STATE> 2
<NUMMIXES> 6
<MIXTURE> 1 1.245835e-001
<MEAN> 39
 2.312565e+000 -5.482454e-001 4.762510e+000 -5.054286e+000 -6.780382e+000 -6.648087e+000 2.085941e+000 -1.771058e+000 1.760665e-001 5.144863e-001 7.438999e-001 -2.198922e+000 5.668742e+001 -5.666466e-001 9.532973e-001 -1.234912e-001 4.564437e-001 1.056019e+000 3.162545e-001 -1.004499e-001 -1.202264e-001 -2.219305e-001 -1.665672e-001 2.392525e-001 2.383115e-001 -1.378586e+000 -3.197885e-001 -1.719916e-001 -3.835414e-001 -2.908938e-001 5.200582e-002 6.385885e-002 -7.866702e-002 -3.364394e-002 2.746977e-001 -1.411959e-001 -1.466377e-001 -3.541128e-002 4.721910e-001
<VARIANCE> 39
 2.560474e+001 3.170302e+001 4.631539e+001 5.840350e+001 6.033645e+001 8.241080e+001 6.097109e+001 6.441229e+001 3.953547e+001 5.934123e+001 4.152334e+001 2.722862e+001 7.231277e+001 9.772534e-001 1.550953e+000 1.440280e+000 2.234966e+000 1.710518e+000 2.114714e+000 2.196901e+000 1.459025e+000 1.648310e+000 2.092027e+000 1.608499e+000 1.702731e+000 1.643447e+000 1.360928e-001 1.254445e-001 2.344743e-001 3.551943e-001 4.456262e-001 3.650111e-001 3.823383e-001 2.714165e-001 3.899800e-001 4.890049e-001 2.546621e-001 2.284808e-001 2.926266e-001
<GCONST> 1.125488e+002
<MIXTURE> 2 1.424151e-001
<MEAN> 39
 -1.325144e+001 -2.817471e+000 -3.074128e+000 -1.568800e+000 1.767076e-001 -1.633858e+000 7.840418e-001 -1.671640e+000 4.021894e-001 -3.252146e+000 9.074028e-001 -2.193999e+000 4.059494e+001 -1.155318e-001 -3.203793e-001 -9.051071e-001 -1.085972e+000 -6.819048e-001 1.203035e-002 2.584538e-001 5.232249e-002 5.768567e-001 3.589167e-001 1.043760e-001 3.543421e-001 3.587122e+000 4.828322e-001 2.189157e-001 1.485659e-001 -5.453779e-001 -3.859963e-001 -2.514937e-001 5.829987e-002 -1.896462e-001 1.458029e-001 1.490380e-001 -1.056715e-001 -9.916601e-002 1.271657e+000
<VARIANCE> 39
 1.038203e+001 1.256744e+001 1.452948e+001 2.045760e+001 1.641768e+001 1.721059e+001 1.792394e+001 2.121699e+001 2.031441e+001 1.996653e+001 1.803017e+001 1.357604e+001 7.396751e+001 1.319972e+000 1.300233e+000 1.511842e+000 1.606220e+000 1.133712e+000 1.429092e+000 1.805874e+000 1.323310e+000 1.406359e+000 1.407761e+000 1.434020e+000 1.329506e+000 5.970628e+000 1.588283e-001 2.074257e-001 2.115298e-001 2.943951e-001 2.311424e-001 2.650526e-001 2.427806e-001 2.707213e-001 2.660226e-001 3.180075e-001 3.041789e-001 2.075750e-001 4.166383e-001
<GCONST> 9.772160e+001
<MIXTURE> 3 2.444876e-001
<MEAN> 39
 9.267796e-001 4.135394e+000 2.501396e+000 -1.664510e+000 -7.997825e-001 -6.952429e+000 -5.111873e-001 -3.694003e+000 -2.452018e+000 -3.555607e+000 -2.106217e+000 -4.904309e+000 4.939330e+001 -1.621914e+000 -3.268940e-001 -5.262164e-001 -8.024042e-001 -8.440400e-001 8.565626e-001 2.508384e-001 -3.626252e-001 7.628038e-001 3.847523e-001 2.345996e-002 8.113227e-002 1.169583e+000 -1.928060e-001 -3.453951e-001 -3.654840e-001 -7.209681e-001 -3.831073e-001 -2.473354e-001 1.938955e-001 -3.586274e-002 2.095358e-001 1.726885e-001 -3.532302e-002 3.837078e-002 1.041260e+000
<VARIANCE> 39
 5.069525e+001 3.786735e+001 5.236428e+001 5.243402e+001 8.202789e+001 9.007475e+001 6.919928e+001 5.954647e+001 5.269128e+001 5.121845e+001 4.341459e+001 4.330925e+001 6.227155e+001 1.193454e+000 2.336106e+000 3.243651e+000 3.741852e+000 5.235832e+000 3.877801e+000 3.433925e+000 2.776614e+000 2.875416e+000 2.634005e+000 2.210261e+000 2.094485e+000 2.792849e+000 2.675153e-001 3.058256e-001 3.166805e-001 4.687744e-001 6.267825e-001 6.085447e-001 5.839642e-001 4.627469e-001 5.107348e-001 5.048406e-001 4.004419e-001 4.909336e-001 3.170661e-001
<GCONST> 1.265153e+002
<MIXTURE> 4 1.941659e-001
<MEAN> 39
 -6.474138e+000 4.483017e+000 3.894326e+000 1.223453e+000 5.268450e-001 -2.901325e+000 -6.500418e-001 -5.681351e+000 -3.059666e+000 -4.674503e+000 -2.461280e+000 -3.887226e+000 3.990577e+001 -1.877233e+000 -1.827292e+000 -2.330580e+000 -6.024193e-001 -2.506925e-001 2.082004e-001 3.537010e-002 6.622901e-001 8.376461e-001 1.869868e-001 7.929838e-001 4.724485e-001 2.730856e+000 3.680956e-002 -3.538686e-001 -4.623107e-001 -1.270886e+000 -6.141230e-001 -2.985816e-001 3.280142e-002 -4.298948e-002 3.738828e-001 3.192338e-001 1.193420e-001 1.466592e-002 1.947324e+000
<VARIANCE> 39
 1.754599e+001 2.076452e+001 1.576141e+001 1.798152e+001 1.898038e+001 2.216323e+001 2.435590e+001 1.945827e+001 2.590226e+001 2.801597e+001 3.141522e+001 2.083676e+001 2.192874e+001 9.791576e-001 1.301967e+000 1.468450e+000 2.017292e+000 1.818298e+000 1.719311e+000 1.250219e+000 1.385799e+000 1.560476e+000 1.657188e+000 1.465954e+000 1.469951e+000 4.480545e+000 2.440059e-001 2.499411e-001 2.953676e-001 3.442006e-001 2.844534e-001 2.702055e-001 2.796793e-001 2.066384e-001 3.129690e-001 3.563352e-001 3.407758e-001 2.485350e-001 5.026794e-001
<GCONST> 1.019699e+002
<MIXTURE> 5 1.382691e-001
<MEAN> 39
 -3.459430e+000 4.523276e+000 3.549129e+000 -2.262907e+000 -4.402205e+000 -5.466420e+000 1.803916e-001 -3.259956e+000 -2.045949e-001 -1.815191e+000 -7.936617e-001 -4.439950e+000 4.513547e+001 -3.637945e-003 -1.786940e-001 2.006377e-002 -3.485449e-002 2.701509e-001 -2.951731e-002 -1.806737e-001 9.097338e-002 -5.049985e-002 -2.218863e-001 -1.016949e-002 -6.127289e-002 -2.975091e-001 -3.308080e-001 -3.238117e-001 -3.028399e-001 -3.253146e-001 6.598664e-003 5.100011e-002 -4.817237e-003 -4.238708e-002 1.466853e-001 2.210792e-002 2.110838e-002 1.444401e-001 7.958815e-001
<VARIANCE> 39
 2.176416e+001 2.884105e+001 2.394028e+001 2.090519e+001 2.768161e+001 1.977340e+001 3.756636e+001 3.456248e+001 2.822952e+001 2.985769e+001 3.185358e+001 3.273501e+001 3.795525e+001 1.551447e+000 1.244578e+000 1.465741e+000 1.290142e+000 1.472168e+000 1.435069e+000 1.422703e+000 1.633919e+000 1.962504e+000 1.726597e+000 1.157610e+000 8.064027e-001 1.680818e+000 1.165379e-001 1.772232e-001 2.335693e-001 2.479841e-001 1.598194e-001 2.481492e-001 3.264639e-001 3.365833e-001 2.917171e-001 2.677550e-001 2.496246e-001 1.905567e-001 3.566378e-001
<GCONST> 1.008984e+002
<MIXTURE> 6 1.560795e-001
<MEAN> 39
 -1.381820e+001 -3.442366e+000 -3.730100e+000 -2.406188e+000 -2.176663e-002 -2.493610e+000 3.255362e-001 -2.925538e+000 1.052372e-001 -4.120717e+000 3.819959e-001 -3.024231e+000 3.981852e+001 -3.871792e-001 -6.910315e-001 -1.339335e+000 -1.382700e+000 -7.791570e-001 -1.674832e-001 -1.236012e-001 -2.897498e-002 3.466152e-001 -1.522907e-002 1.105205e-001 7.682569e-002 3.632933e+000 4.757960e-001 1.008349e-001 3.962962e-002 -6.610064e-001 -4.004354e-001 -2.323248e-001 -2.558812e-002 -2.567638e-001 1.369368e-001 -2.571543e-002 -1.648426e-001 -1.919239e-001 1.331789e+000
<VARIANCE> 39
 8.280011e+000 1.413821e+001 1.573012e+001 1.745744e+001 1.655105e+001 1.887928e+001 1.981581e+001 2.233321e+001 1.775129e+001 1.927312e+001 1.981711e+001 1.754125e+001 7.597813e+001 1.650423e+000 1.401978e+000 1.543103e+000 1.647776e+000 1.096122e+000 1.401265e+000 1.912960e+000 1.400519e+000 1.591284e+000 1.389325e+000 1.265625e+000 1.227481e+000 5.023623e+000 1.767962e-001 2.302293e-001 2.503526e-001 3.339528e-001 2.422008e-001 2.258179e-001 2.929102e-001 2.792488e-001 2.466015e-001 3.565328e-001 2.572224e-001 1.975818e-001 4.670945e-001
<GCONST> 9.867930e+001
<STATE> 3
<NUMMIXES> 6
<MIXTURE> 1 1.231879e-001
<MEAN> 39
 -6.236632e+000 2.124824e+000 2.024502e+000 -4.446522e+000 -2.618026e+000 -3.798173e+000 -1.086492e+000 -2.741234e+000 2.484959e+000 -9.627040e-001 -5.759395e-001 -7.707665e-001 5.613968e+001 -4.845476e-001 -3.952929e-002 -1.440766e-001 -1.671019e+000 -1.051079e+000 -3.161533e-001 7.010286e-001 -2.762446e-001 5.599833e-001 7.403768e-001 -3.793713e-001 1.916866e-001 2.470760e+000 2.906494e-001 9.877285e-002 4.856074e-002 -4.070456e-001 -2.911546e-001 -2.125002e-001 1.559280e-001 1.516800e-001 1.161101e-002 2.404430e-001 1.603105e-002 6.476720e-002 4.525641e-001
<VARIANCE> 39
 3.072595e+001 1.549186e+001 1.845598e+001 3.405661e+001 4.104674e+001 2.866257e+001 3.688480e+001 2.697070e+001 3.174217e+001 3.416793e+001 2.950326e+001 2.329421e+001 5.665091e+001 1.899111e+000 1.332756e+000 1.870156e+000 2.245500e+000 2.708021e+000 1.972693e+000 4.067860e+000 1.870799e+000 2.247067e+000 2.266318e+000 2.045790e+000 1.465645e+000 2.223594e+000 1.495619e-001 1.605431e-001 1.552756e-001 2.474018e-001 2.401352e-001 3.052547e-001 2.448650e-001 2.557270e-001 2.687142e-001 2.033323e-001 1.593269e-001 1.626016e-001 1.626311e-001
<GCONST> 1.046622e+002
<MIXTURE> 2 1.452115e-001
<MEAN> 39
 -1.526075e+001 -5.776928e+000 -7.560900e+000 -7.054231e+000 -1.014373e+000 -2.796382e+000 2.608538e+000 -5.093490e+000 3.058048e+000 -2.719011e+000 2.153086e-001 -2.658139e-001 6.065102e+001 7.609674e-001 -5.431927e-001 -4.632258e-001 -2.214469e+000 -2.023576e+000 -9.959633e-001 4.913889e-001 -2.239153e-001 4.067304e-001 1.313767e+000 -4.269431e-002 2.180297e-001 5.847927e+000 7.967716e-001 1.179155e-001 4.258375e-001 -1.919375e-001 -3.839954e-001 -3.411600e-001 4.920991e-002 1.479198e-001 -2.192383e-001 3.748908e-004 -8.965754e-002 -4.349431e-001 -1.023596e-001
<VARIANCE> 39
 1.426289e+001 2.438442e+001 1.927267e+001 3.083959e+001 2.386792e+001 2.836516e+001 4.854069e+001 4.162792e+001 2.651063e+001 3.603870e+001 3.622948e+001 2.652141e+001 3.459986e+001 1.653690e+000 1.118097e+000 1.553450e+000 1.821063e+000 1.036450e+000 1.512202e+000 2.245472e+000 1.739889e+000 1.627753e+000 1.263780e+000 2.499034e+000 2.011939e+000 2.906901e+000 1.636396e-001 2.873604e-001 2.674574e-001 3.590916e-001 3.223885e-001 3.132179e-001 4.178676e-001 2.720977e-001 2.104030e-001 6.063627e-001 3.861424e-001 3.271901e-001 4.412756e-001
<GCONST> 1.073760e+002
<MIXTURE> 3 2.361843e-001
<MEAN> 39
 -1.415086e+001 -5.640039e+000 -1.001610e+001 -8.552748e+000 -1.948791e+000 -5.435405e+000 -8.906885e-001 -2.050708e+000 1.785788e+000 -5.569201e+000 3.500769e+000 -5.171114e+000 6.060140e+001 1.171128e-001 -6.636922e-001 -1.342347e+000 -2.751168e+000 -5.861886e-001 1.385103e-003 -1.904344e-002 -6.248344e-001 1.311671e+000 -8.700638e-001 -1.005850e-001 -4.600670e-001 4.667963e+000 5.807174e-001 1.696967e-001 5.692869e-001 -2.142086e-001 9.476992e-002 2.953045e-002 1.866332e-001 -5.700816e-001 1.172066e-001 -6.289653e-002 -3.411935e-001 3.852998e-002 -3.157977e-001
<VARIANCE> 39
 1.601793e+001 2.303134e+001 1.429794e+001 1.870788e+001 1.649738e+001 2.145360e+001 2.440445e+001 2.098265e+001 2.225688e+001 2.160919e+001 2.316761e+001 2.497336e+001 3.164842e+001 2.722343e+000 2.355422e+000 1.802226e+000 2.377639e+000 1.527732e+000 2.232243e+000 2.038188e+000 1.651326e+000 1.344376e+000 1.834902e+000 1.863181e+000 1.633754e+000 4.546730e+000 2.003452e-001 3.755584e-001 2.302988e-001 4.026164e-001 2.026017e-001 3.122756e-001 3.461600e-001 3.193550e-001 3.324449e-001 3.456690e-001 2.807502e-001 2.773962e-001 4.621873e-001
<GCONST> 1.051438e+002
<MIXTURE> 4 2.169465e-001
<MEAN> 39
 -5.348361e+000 -1.122820e-001 -1.891909e+000 -7.634307e+000 -5.162657e+000 -7.625505e+000 7.039052e-001 -5.416187e+000 3.733312e-001 -1.155491e+000 -1.612486e+000 -3.516639e+000 5.851233e+001 -1.013134e+000 -1.837033e-001 -9.107342e-001 -1.574390e+000 -9.180912e-001 -4.803126e-001 4.733423e-001 -5.307523e-002 6.565314e-001 6.730186e-001 -1.492966e-002 1.714369e-001 1.932719e+000 3.968992e-001 -2.959189e-002 9.792145e-002 -2.522193e-001 5.726193e-002 -2.323333e-001 3.244307e-002 2.017037e-001 3.841776e-002 -5.594388e-002 -6.588111e-003 -1.043211e-001 1.082151e-001
<VARIANCE> 39
 4.314007e+001 4.286938e+001 6.635039e+001 6.360183e+001 9.974846e+001 1.036441e+002 7.165829e+001 8.212549e+001 6.854857e+001 8.451063e+001 4.937111e+001 5.245901e+001 5.541423e+001 1.525201e+000 3.606214e+000 2.409398e+000 4.345375e+000 5.923792e+000 4.730597e+000 4.787397e+000 2.821351e+000 3.751725e+000 2.951012e+000 2.360025e+000 3.232115e+000 4.833833e+000 1.867283e-001 3.115000e-001 5.166157e-001 4.512250e-001 5.061772e-001 6.517683e-001 5.993810e-001 4.918947e-001 4.186088e-001 5.312394e-001 3.455880e-001 3.111214e-001 1.856789e-001
<GCONST> 1.299630e+002
<MIXTURE> 5 1.516617e-001
<MEAN> 39
 -1.419013e+001 -4.814785e+000 -7.556376e+000 -9.123050e+000 -3.191612e+000 -5.267883e+000 -1.489349e+000 -6.329180e+000 5.701710e+000 -3.210300e+000 6.755194e-001 -3.674245e-001 6.289711e+001 2.091335e-001 -1.582609e+000 -1.357090e+000 -2.559474e+000 -2.360080e+000 -4.089791e-001 1.068819e+000 4.691491e-001 5.626006e-001 9.922181e-001 6.037840e-002 -3.743588e-001 5.901443e+000 6.870576e-001 -8.161372e-002 3.718708e-001 -1.156697e-001 -4.509099e-002 -1.049729e-001 4.823317e-001 2.206472e-001 -7.085250e-001 -4.049911e-002 -1.535477e-001 -5.082561e-001 -2.325613e-001
<VARIANCE> 39
 1.663716e+001 2.459335e+001 2.714762e+001 2.227596e+001 2.835050e+001 2.056214e+001 1.678003e+001 1.515859e+001 3.243117e+001 2.909261e+001 1.990002e+001 1.481100e+001 3.211746e+001 2.488737e+000 1.378010e+000 1.958421e+000 1.506803e+000 9.205299e-001 2.137410e+000 1.388002e+000 2.443590e+000 2.869266e+000 2.162480e+000 2.174137e+000 1.531702e+000 3.454940e+000 1.859627e-001 2.814687e-001 3.255396e-001 4.375706e-001 3.302567e-001 2.684819e-001 2.576020e-001 2.620863e-001 1.459196e-001 2.845363e-001 2.451688e-001 2.098539e-001 4.446251e-001
<GCONST> 1.035126e+002
<MIXTURE> 6 1.268077e-001
<MEAN> 39
 -6.384618e+000 1.082139e+000 4.563223e-001 -4.870796e+000 -2.045509e+000 -4.801375e+000 -1.289761e+000 -4.033637e+000 1.834162e+000 -3.004192e+000 -8.521285e-001 -3.139178e+000 5.491869e+001 -7.649028e-001 -3.479847e-001 -6.830702e-001 -1.672206e+000 -1.118534e+000 -3.336496e-001 3.749133e-001 -1.656533e-001 4.245883e-001 4.688216e-001 -2.975309e-001 -1.365982e-001 2.154227e+000 2.700670e-001 -8.920625e-003 -1.820984e-003 -3.919341e-001 -2.933940e-001 -2.428710e-001 9.010056e-002 4.796002e-002 -8.389439e-002 1.325459e-001 -2.307146e-002 -5.589375e-002 3.820399e-001
<VARIANCE> 39
 3.594482e+001 1.835143e+001 1.798383e+001 3.248358e+001 4.246413e+001 3.438013e+001 2.915060e+001 3.283078e+001 3.022387e+001 3.209035e+001 2.492815e+001 2.555952e+001 6.142117e+001 1.797343e+000 1.404119e+000 1.464180e+000 2.143764e+000 2.617058e+000 2.426345e+000 4.201513e+000 1.818559e+000 2.018832e+000 2.567009e+000 1.717529e+000 1.991276e+000 2.182855e+000 1.194402e-001 1.533971e-001 1.544977e-001 2.637105e-001 2.337779e-001 2.699678e-001 2.433045e-001 2.161440e-001 1.897619e-001 2.329612e-001 1.857187e-001 2.109933e-001 1.845179e-001
<GCONST> 1.047915e+002
<STATE> 4
<NUMMIXES> 6
<MIXTURE> 1 1.289423e-001
<MEAN> 39
 -2.085771e+000 4.423382e-001 1.629412e+000 -1.031208e+001 -1.266499e+001 -8.014973e+000 6.402594e+000 -2.407286e+000 -1.321088e-001 7.758029e+000 -5.234559e+000 -2.662045e+000 6.721941e+001 2.500234e-001 -5.538223e-003 -2.534185e-002 -1.761247e+000 -1.094852e+000 -8.353896e-002 1.085422e+000 3.963441e-001 4.868402e-001 6.480582e-001 -7.599161e-001 1.610687e-001 1.903776e+000 6.425736e-003 2.041649e-001 9.612802e-002 2.570461e-001 6.710117e-001 2.459121e-001 -4.569465e-001 2.141191e-001 4.812088e-002 -7.076719e-001 3.033788e-001 7.974897e-002 -6.934994e-001
<VARIANCE> 39
 1.695398e+001 2.143485e+001 4.432314e+001 9.133992e+001 4.983793e+001 5.079506e+001 5.246481e+001 4.591990e+001 7.212702e+001 4.377886e+001 3.212181e+001 5.666475e+001 4.979770e+001 1.300699e+000 1.171329e+000 1.487457e+000 3.503736e+000 2.594865e+000 2.230268e+000 3.539714e+000 1.820874e+000 2.206050e+000 2.639963e+000 1.489812e+000 2.030117e+000 2.344181e+000 1.533556e-001 1.372505e-001 2.262237e-001 2.860800e-001 3.027230e-001 2.721725e-001 3.397700e-001 2.975399e-001 3.318466e-001 2.914881e-001 2.606269e-001 2.541696e-001 1.727175e-001
<GCONST> 1.121933e+002
<MIXTURE> 2 1.755740e-001
<MEAN> 39
 -6.787415e+000 -3.034863e+000 -4.087199e+000 -1.542015e+001 -1.034775e+001 -5.458499e+000 3.123293e+000 -6.470922e+000 3.586242e+000 1.642979e+000 -3.151192e+000 -2.978376e+000 7.002876e+001 1.397814e+000 -1.677895e+000 -7.236688e-001 -2.150055e+000 -1.438124e+000 -1.581288e-001 1.767798e+000 5.118347e-001 -5.035506e-001 2.756017e-001 -2.994926e-001 -1.005532e+000 4.359650e+000 1.256673e-001 -1.752553e-001 1.184148e-001 8.580153e-001 7.272600e-001 1.627771e-001 5.403761e-002 3.118679e-001 -6.510360e-001 -5.614693e-001 1.389283e-001 -1.713175e-001 -1.373113e+000
<VARIANCE> 39
 7.545847e+000 1.154634e+001 1.273781e+001 3.317781e+001 1.766261e+001 1.798968e+001 2.788696e+001 2.856477e+001 3.021251e+001 5.066993e+001 2.686103e+001 2.397803e+001 2.756369e+001 1.199668e+000 1.440508e+000 1.645072e+000 1.888225e+000 1.497970e+000 2.419076e+000 1.556111e+000 2.877431e+000 2.247832e+000 2.096889e+000 2.517862e+000 2.351976e+000 3.824302e+000 1.706790e-001 1.452957e-001 1.883366e-001 2.267232e-001 1.983505e-001 2.189270e-001 2.629952e-001 2.637102e-001 2.914608e-001 5.757920e-001 2.814976e-001 2.552492e-001 1.719701e-001
<GCONST> 1.020538e+002
<MIXTURE> 3 2.164479e-001
<MEAN> 39
 -7.652023e+000 2.805303e+000 8.874588e-001 -1.321220e+001 -3.209959e+000 -7.474217e+000 -4.069662e-001 -4.144072e+000 5.799828e+000 -2.800648e+000 1.985881e+000 -1.959555e+000 6.199530e+001 7.468189e-002 5.898594e-001 1.005678e-001 -1.953041e+000 -4.129737e-001 -7.989950e-001 -2.904695e-001 -1.171225e-001 5.845904e-001 3.228939e-001 4.943495e-001 -6.004294e-003 2.006627e+000 4.522170e-001 -1.565380e-002 1.206455e-001 3.576055e-001 7.811808e-003 4.489253e-002 -2.885261e-002 1.061614e-001 -2.642392e-001 6.062617e-002 -1.137802e-001 -5.290377e-002 -5.308769e-001
<VARIANCE> 39
 4.756386e+001 3.707174e+001 5.466798e+001 5.671985e+001 7.022719e+001 6.637303e+001 5.698711e+001 5.882700e+001 6.713112e+001 3.589460e+001 5.017737e+001 4.399149e+001 4.906814e+001 3.023183e+000 2.088677e+000 2.896657e+000 3.024057e+000 2.643670e+000 3.002865e+000 2.647064e+000 2.476267e+000 1.906754e+000 1.878676e+000 2.053254e+000 1.455080e+000 2.403097e+000 3.183885e-001 2.080844e-001 4.193184e-001 3.559970e-001 3.721989e-001 4.054559e-001 4.369275e-001 3.486520e-001 3.913786e-001 2.147562e-001 3.414406e-001 3.026190e-001 2.868409e-001
<GCONST> 1.199641e+002
<MIXTURE> 4 1.590294e-001
<MEAN> 39
 -5.365323e+000 -8.870357e+000 -8.692953e+000 -1.853894e+001 -7.795902e+000 -2.309160e+000 6.370772e+000 -6.774312e+000 2.453474e+000 -5.713789e+000 -3.168728e+000 -7.777898e+000 7.367397e+001 1.044832e+000 -2.388706e+000 -7.668087e-001 -1.824815e-001 5.415808e-001 8.616299e-001 1.318900e+000 -5.222008e-001 -1.000925e+000 -6.074263e-001 -2.264343e-001 -3.832102e-001 2.213330e+000 -3.523665e-001 -7.808929e-002 1.176568e-001 1.239535e+000 7.273501e-001 -2.095465e-002 -3.817456e-001 1.719479e-001 -3.428299e-001 3.540399e-002 3.122338e-001 3.508141e-001 -1.236311e+000
<VARIANCE> 39
 7.925179e+000 1.545608e+001 1.413880e+001 1.736935e+001 3.753666e+001 2.740478e+001 4.099336e+001 4.888734e+001 3.543159e+001 6.966177e+001 3.665224e+001 4.011131e+001 1.721751e+001 1.152972e+000 8.972927e-001 1.268484e+000 2.206138e+000 1.858080e+000 1.804687e+000 1.876812e+000 5.249901e+000 3.334704e+000 3.919633e+000 2.576874e+000 2.280219e+000 1.840926e+000 9.862186e-002 2.066070e-001 2.098599e-001 2.127638e-001 3.394357e-001 3.251917e-001 3.181666e-001 3.858978e-001 3.884375e-001 8.279201e-001 4.341995e-001 3.612316e-001 1.755902e-001
<GCONST> 1.079604e+002
<MIXTURE> 5 1.940024e-001
<MEAN> 39
 -1.022111e+001 -4.101200e+000 -5.766941e+000 -1.089162e+001 -3.992800e+000 -5.556496e+000 -9.672176e-001 -6.044697e+000 4.278283e+000 -6.808901e+000 2.691653e-001 -6.365867e+000 5.794672e+001 2.453219e-001 -2.398683e-001 4.454238e-002 -7.540361e-001 -4.464676e-001 -3.882751e-002 1.570926e-001 -3.196238e-001 2.421793e-001 -1.763194e-001 -4.087202e-001 -4.467185e-001 9.576635e-001 3.380724e-001 1.968272e-001 3.527463e-001 4.038628e-001 9.289132e-002 -1.402844e-002 7.138058e-002 5.647664e-002 -3.609051e-001 2.249267e-001 -1.053457e-001 6.173382e-002 -5.840472e-001
<VARIANCE> 39
 4.868283e+001 4.346960e+001 2.720470e+001 4.937734e+001 4.834746e+001 3.708524e+001 3.839822e+001 5.259097e+001 4.672522e+001 5.004786e+001 3.633461e+001 4.047818e+001 7.673404e+001 2.652989e+000 1.496383e+000 1.970396e+000 4.086396e+000 2.688700e+000 2.007157e+000 1.592252e+000 2.359255e+000 2.614209e+000 2.146161e+000 1.697296e+000 1.566600e+000 5.481550e+000 3.693162e-001 2.989378e-001 2.757297e-001 3.915654e-001 4.082226e-001 3.154540e-001 3.570211e-001 3.568680e-001 3.605414e-001 3.376682e-001 2.278956e-001 2.474463e-001 4.814084e-001
<GCONST> 1.176568e+002
<MIXTURE> 6 1.260033e-001
<MEAN> 39
 -3.970886e+000 -1.531235e+000 -6.806148e-001 -1.170995e+001 -1.361156e+001 -9.592304e+000 5.080065e+000 -3.116051e+000 -1.549118e+000 8.043467e+000 -6.868942e+000 -3.074531e+000 6.483667e+001 1.334043e-001 -3.928914e-001 -1.349711e-001 -1.606364e+000 -1.107849e+000 -1.438434e-001 9.671325e-001 3.605299e-001 3.331225e-001 4.135676e-001 -8.292882e-001 -5.192765e-002 1.711601e+000 2.707912e-002 1.203141e-001 1.083831e-001 2.030236e-001 6.754149e-001 1.665566e-001 -4.142042e-001 9.570572e-002 6.440164e-002 -8.029879e-001 2.990009e-001 -7.198395e-002 -7.260287e-001
<VARIANCE> 39
 2.089355e+001 2.968411e+001 3.599232e+001 9.053208e+001 4.251462e+001 7.991660e+001 6.751456e+001 5.142700e+001 7.183234e+001 5.283915e+001 3.073924e+001 6.659355e+001 5.484025e+001 1.433662e+000 1.493855e+000 1.603015e+000 3.298898e+000 2.817024e+000 2.441774e+000 2.957225e+000 1.739972e+000 2.551893e+000 3.033603e+000 1.869673e+000 2.061004e+000 2.710821e+000 1.435887e-001 1.607959e-001 2.113643e-001 3.119472e-001 2.631588e-001 2.998087e-001 3.077191e-001 3.475344e-001 4.356753e-001 2.940950e-001 3.209258e-001 3.526884e-001 1.782571e-001
<GCONST> 1.155156e+002
<TRANSP> 5
 0.000000e+000 1.000000e+000 0.000000e+000 0.000000e+000 0.000000e+000
 0.000000e+000 5.838873e-001 4.161127e-001 0.000000e+000 0.000000e+000
 0.000000e+000 0.000000e+000 3.711292e-001 6.288708e-001 0.000000e+000
 0.000000e+000 0.000000e+000 0.000000e+000 5.135316e-001 4.864685e-001
 0.000000e+000 0.000000e+000 0.000000e+000 0.000000e+000 0.000000e+000
<ENDHMM>
~h "f"
<BEGINHMM>
<NUMSTATES> 5
<STATE> 2
<NUMMIXES> 6
<MIXTURE> 1 1.469392e-001
<MEAN> 39
 -7.261279e+000 -1.288485e+000 2.093652e+000 -8.459545e-001 -3.229692e-001 -3.110622e+000 8.655347e-001 -2.081717e+000 8.421997e-001 -1.010952e+000 -8.427051e-002 -2.200982e+000 5.196759e+001 -1.054851e-001 6.790662e-002 1.123246e-001 1.205892e-001 2.518433e-001 3.591078e-001 2.373640e-001 2.461397e-001 4.515252e-001 9.226914e-002 2.836497e-001 8.668934e-002 -1.749812e-001 1.225268e-003 -2.353223e-002 -5.590468e-002 -5.978101e-002 -2.132566e-002 -1.073819e-002 5.456519e-002 4.732459e-002 7.171406e-002 5.150874e-002 5.843789e-002 4.238221e-002 3.712571e-002
<VARIANCE> 39
 1.708272e+001 9.719363e+000 9.016422e+000 1.763245e+001 2.044272e+001 2.133808e+001 1.945095e+001 2.197305e+001 2.583313e+001 3.583937e+001 2.953654e+001 1.903868e+001 4.693846e+001 3.069959e-001 3.587065e-001 3.335473e-001 5.852930e-001 7.320678e-001 7.653265e-001 9.215418e-001 8.350779e-001 1.134818e+000 9.067590e-001 9.137664e-001 7.873902e-001 2.563095e-001 3.833427e-002 5.072027e-002 5.888390e-002 9.670410e-002 1.571576e-001 1.426126e-001 1.314656e-001 1.506020e-001 2.180774e-001 1.738017e-001 1.755085e-001 1.348031e-001 2.165902e-002
<GCONST> 7.468214e+001
<MIXTURE> 2 1.908950e-001
<MEAN> 39
 -8.825659e+000 9.301377e-001 3.542493e+000 -3.625252e+000 9.301855e-001 -6.062775e+000 -3.007927e-001 -3.463726e+000 1.718647e-001 -2.113378e+000 2.496611e+000 -3.527461e+000 5.047934e+001 -1.189552e+000 -7.546604e-001 -4.396660e-001 2.378884e-001 -9.582166e-002 -4.013452e-002 5.476260e-001 2.244104e-002 9.248058e-002 -3.009324e-001 2.138487e-002 2.666556e-001 -3.782831e-001 1.360793e-001 -1.023870e-001 -1.686757e-001 -2.150080e-001 -5.749376e-002 -2.508684e-003 -7.454652e-002 7.302501e-002 4.541133e-002 -3.968167e-002 -8.623143e-002 -4.997106e-002 1.573616e-001
<VARIANCE> 39
 4.344904e+001 4.283202e+001 5.638927e+001 6.137475e+001 8.190439e+001 5.779316e+001 5.940685e+001 8.330421e+001 5.523257e+001 5.823609e+001 5.357104e+001 4.298339e+001 8.139987e+001 1.721108e+000 1.602937e+000 1.785242e+000 2.282861e+000 1.888003e+000 2.633939e+000 2.368870e+000 2.321714e+000 2.504766e+000 2.092408e+000 1.982173e+000 1.908557e+000 1.495246e+000 3.622299e-001 1.688410e-001 1.902215e-001 2.490690e-001 2.774277e-001 3.491900e-001 3.561774e-001 4.012626e-001 3.639204e-001 3.168494e-001 3.670796e-001 2.950719e-001 1.691792e-001
<GCONST> 1.173765e+002
<MIXTURE> 3 1.525027e-001
<MEAN> 39
 -1.137078e+001 -2.822183e+000 7.351668e-002 -2.407886e+000 -9.972482e-001 -4.311942e+000 -2.292959e-001 -1.911135e+000 2.714492e+000 -2.245522e+000 3.402576e+000 -1.872796e+000 4.997709e+001 -4.214076e-001 -3.431658e-001 -1.022581e-001 -9.173860e-002 -6.658009e-002 -2.838951e-002 1.396519e-001 2.334062e-001 2.308286e-001 -1.764513e-002 2.139049e-001 9.023545e-002 1.216492e-001 2.844853e-001 9.485702e-002 8.458373e-002 9.447697e-002 5.881910e-002 6.540444e-002 6.836393e-002 8.220561e-002 7.522013e-002 5.661282e-002 -6.386039e-002 -2.865560e-003 1.537421e-001
<VARIANCE> 39
 1.704412e+001 1.602936e+001 2.128067e+001 3.046807e+001 4.093904e+001 3.606631e+001 3.268623e+001 3.971924e+001 3.365353e+001 3.611097e+001 3.227862e+001 2.516998e+001 1.197910e+002 6.360356e-001 6.156325e-001 5.277652e-001 6.867187e-001 1.045888e+000 1.083861e+000 9.685555e-001 1.315035e+000 1.253431e+000 1.267716e+000 1.250679e+000 7.478526e-001 7.445309e-001 1.409473e-001 9.780763e-002 8.965433e-002 1.282025e-001 2.188583e-001 2.100583e-001 2.306889e-001 1.908031e-001 2.644439e-001 1.927813e-001 2.133606e-001 1.513350e-001 1.290484e-001
<GCONST> 9.192279e+001
<MIXTURE> 4 1.892488e-001
<MEAN> 39
 -1.057130e+001 -5.299998e+000 -2.842875e+000 -4.473597e+000 3.150063e-001 -3.362787e+000 1.296760e+000 -3.871824e+000 9.695666e-001 -3.202246e+000 2.082113e+000 -3.619759e+000 5.778378e+001 -3.193889e+000 -1.270306e-001 8.924948e-002 6.296687e-001 -8.853145e-002 5.449032e-001 4.469906e-002 1.190434e-001 3.508304e-001 -1.219461e-002 1.812020e-001 3.272294e-001 -1.593222e+000 -1.156733e-002 -2.599386e-001 -3.234935e-001 -3.291126e-001 -1.807583e-001 -2.405676e-001 2.453491e-002 1.403591e-002 -7.337128e-002 -5.943598e-002 -1.055906e-001 -9.894197e-002 3.171834e-001
<VARIANCE> 39
 3.800764e+001 1.676155e+001 2.157486e+001 2.036042e+001 2.171124e+001 2.008419e+001 2.540012e+001 2.712965e+001 2.746349e+001 2.152934e+001 1.993712e+001 1.739218e+001 3.412197e+001 1.667416e+000 2.840692e+000 2.448541e+000 1.878238e+000 2.637344e+000 2.279963e+000 2.014513e+000 2.370147e+000 2.279732e+000 2.291680e+000 1.486785e+000 1.762777e+000 2.553795e+000 2.780529e-001 2.087923e-001 1.822039e-001 1.608813e-001 2.019772e-001 2.406201e-001 2.384472e-001 1.698727e-001 2.385292e-001 2.468900e-001 1.886189e-001 1.964247e-001 1.740280e-001
<GCONST> 1.021034e+002
<MIXTURE> 5 1.622229e-001
<MEAN> 39
 -9.386351e+000 -2.000859e+000 2.812223e-001 -1.875385e+000 9.353697e-001 -1.648868e+000 1.405543e+000 -2.121855e+000 2.049913e+000 -1.721358e+000 1.927079e+000 -2.399965e+000 4.747620e+001 -8.874255e-002 -3.372027e-002 -4.359617e-002 -1.225157e-001 -1.169728e-001 -1.367757e-001 -6.726721e-002 -3.552846e-002 -2.070855e-001 -2.623659e-001 -1.747712e-001 -1.866514e-002 -6.711867e-002 1.875441e-003 -2.723430e-002 4.791608e-002 1.747871e-002 -5.156961e-002 -1.195323e-001 -5.806597e-002 -3.284532e-002 -9.502514e-002 -7.147800e-002 -4.925727e-002 3.919710e-003 6.969701e-002
<VARIANCE> 39
 1.155146e+001 7.100238e+000 7.608021e+000 9.701513e+000 1.167726e+001 1.640468e+001 2.064165e+001 2.349059e+001 2.373577e+001 2.400687e+001 2.048347e+001 1.882024e+001 7.689368e+001 1.406940e-001 2.782980e-001 2.610821e-001 3.875625e-001 4.520700e-001 5.628998e-001 7.824467e-001 8.118156e-001 6.889125e-001 7.830746e-001 7.871187e-001 7.192158e-001 1.139194e-001 3.101403e-002 4.699843e-002 4.520296e-002 7.959739e-002 8.671952e-002 8.784858e-002 1.515127e-001 1.920604e-001 1.363383e-001 1.506051e-001 1.476849e-001 1.077257e-001 1.503960e-002
<GCONST> 6.495905e+001
<MIXTURE> 6 1.581889e-001
<MEAN> 39
 -1.232664e+001 -3.440088e+000 -4.637664e-001 -3.229661e+000 -1.572031e+000 -5.216475e+000 -1.434439e+000 -3.554866e+000 2.189372e+000 -3.252631e+000 2.120765e+000 -2.590946e+000 4.821429e+001 -6.126665e-001 -5.624663e-001 -3.229512e-001 -3.091827e-001 -4.318671e-001 -4.061865e-001 -1.144683e-001 -1.650751e-001 -1.188348e-001 -2.212416e-001 -6.635750e-002 -7.466126e-002 -3.780608e-002 2.346668e-001 2.532884e-002 5.559233e-003 -2.233803e-002 -1.601809e-002 -3.150582e-002 -7.762498e-003 2.035830e-002 -4.023625e-002 -6.558365e-002 -1.029873e-001 -1.014863e-001 1.311681e-001
<VARIANCE> 39
 2.218715e+001 1.933941e+001 2.744727e+001 3.201622e+001 3.675075e+001 4.316238e+001 3.733032e+001 3.743888e+001 3.335116e+001 3.008767e+001 2.680586e+001 2.115813e+001 1.097842e+002 6.433671e-001 6.624177e-001 5.898840e-001 6.652687e-001 9.356060e-001 1.102439e+000 1.005466e+000 1.038717e+000 1.248093e+000 1.377609e+000 1.065261e+000 7.041285e-001 8.303944e-001 1.231144e-001 9.533123e-002 9.809880e-002 1.393520e-001 2.068702e-001 2.154123e-001 2.191397e-001 1.886640e-001 2.434500e-001 1.896147e-001 1.822161e-001 1.463027e-001 1.352674e-001
<GCONST> 9.169902e+001
<STATE> 3
<NUMMIXES> 6
<MIXTURE> 1 2.286879e-001
<MEAN> 39
 -1.594109e+001 -7.162799e+000 -1.751030e+000 -7.849226e+000 -3.324108e+000 -6.201131e+000 9.024392e-001 -1.738505e+000 1.405491e+000 -3.013892e+000 1.757547e+000 -2.748854e+000 5.314501e+001 8.139036e-001 -2.917282e-001 -1.434696e-001 1.315774e-001 -3.521136e-002 -2.607819e-001 9.819841e-002 3.274075e-001 5.041648e-001 1.991813e-002 -2.523883e-001 4.842987e-002 5.041941e-001 8.625141e-001 1.353116e-001 -1.232235e-001 1.045507e-001 8.678626e-002 -6.381019e-002 -2.433478e-001 -1.095578e-001 1.975941e-001 8.410121e-002 -1.813086e-001 -7.168204e-002 2.358803e-001
<VARIANCE> 39
 3.175294e+001 3.369844e+001 4.319863e+001 6.469832e+001 4.958825e+001 5.934756e+001 4.865098e+001 4.009575e+001 5.430976e+001 5.009349e+001 3.727877e+001 3.332241e+001 6.977605e+001 3.082973e+000 1.260654e+000 1.354600e+000 1.833842e+000 1.512574e+000 1.786242e+000 1.587785e+000 1.350726e+000 1.696753e+000 1.331573e+000 1.363740e+000 1.153522e+000 9.539537e-001 2.858106e-001 1.909278e-001 2.929496e-001 2.664197e-001 3.380713e-001 4.014093e-001 3.213570e-001 3.036714e-001 3.666400e-001 3.909094e-001 2.694882e-001 2.593542e-001 1.934608e-001
<GCONST> 1.106460e+002
<MIXTURE> 2 2.065503e-001
<MEAN> 39
 -1.914113e+001 -9.669469e+000 -6.367105e+000 -7.072785e+000 -2.250094e+000 -4.551073e+000 1.445114e+000 -4.470789e+000 1.009521e+000 -3.303388e+000 1.670607e+000 -3.341226e+000 5.677703e+001 1.186244e-001 4.671013e-002 1.806114e-001 1.214914e-001 1.450568e-001 1.050944e-001 1.687786e-001 1.154843e-001 6.131558e-003 3.006036e-002 5.893756e-002 6.673504e-002 1.378040e-001 5.460579e-001 1.714075e-001 8.789148e-002 6.590027e-002 2.551529e-002 2.403687e-003 -2.160113e-002 5.394015e-002 3.935048e-002 4.043993e-002 -4.824856e-004 -1.140807e-002 1.262831e-001
<VARIANCE> 39
 1.376608e+001 8.598958e+000 1.371668e+001 1.639352e+001 1.447172e+001 1.608895e+001 1.763653e+001 2.147552e+001 2.010018e+001 2.536097e+001 1.930894e+001 1.293404e+001 3.031050e+001 5.163957e-001 4.517893e-001 4.598770e-001 5.172718e-001 5.772715e-001 8.362419e-001 7.877476e-001 9.324844e-001 9.009755e-001 1.089977e+000 7.712359e-001 7.312760e-001 6.297386e-001 1.757914e-001 1.281236e-001 1.326395e-001 1.260141e-001 1.275694e-001 1.356856e-001 1.482850e-001 1.662289e-001 1.764695e-001 1.975495e-001 1.611913e-001 1.259335e-001 1.178746e-001
<GCONST> 7.840228e+001
<MIXTURE> 3 6.558686e-002
<MEAN> 39
 -1.460403e+001 -1.412878e+001 -1.173734e+001 -1.854860e+001 -1.265906e+001 -1.278513e+001 -4.175032e+000 -4.239184e+000 4.402557e+000 -2.704009e-001 3.933019e+000 -2.436746e+000 4.415433e+001 3.604415e-002 -5.632986e-003 -4.943693e-002 1.025811e-002 -5.025876e-003 4.096048e-002 1.214309e-002 -8.986381e-002 1.326209e-002 -7.063638e-002 6.513382e-003 -4.975300e-004 -6.728033e-002 6.157004e-004 -2.436539e-003 5.026085e-002 1.840153e-002 4.313049e-002 1.638573e-002 6.339922e-003 2.375028e-002 1.380037e-002 -2.897326e-002 -2.263954e-002 1.367885e-002 2.450028e-002
<VARIANCE> 39
 2.021146e+000 5.641159e+000 8.217609e+000 1.086900e+001 1.046943e+001 1.212597e+001 1.345439e+001 2.375219e+001 1.709533e+001 2.004851e+001 1.765946e+001 1.662045e+001 6.018746e+000 9.835672e-002 2.471609e-001 3.394767e-001 4.927902e-001 4.106770e-001 5.284656e-001 6.135539e-001 1.007558e+000 7.903117e-001 9.407762e-001 5.276908e-001 8.408305e-001 1.608650e-001 2.726891e-002 3.547463e-002 6.550030e-002 9.090632e-002 7.780845e-002 8.694243e-002 1.119552e-001 1.399224e-001 1.388378e-001 1.679117e-001 9.494106e-002 1.680794e-001 3.826043e-002
<GCONST> 5.970110e+001
<MIXTURE> 4 1.503597e-001
<MEAN> 39
 -1.847943e+001 -8.328634e+000 -4.885301e+000 -4.450993e+000 -1.125985e+000 -3.855311e+000 1.883298e+000 -3.129321e+000 1.977444e+000 -2.869202e+000 2.086576e+000 -2.751526e+000 5.464040e+001 -5.684406e-002 -1.820664e-001 -3.420173e-002 1.185843e-001 6.489875e-003 9.716705e-002 2.218144e-001 1.843806e-001 1.928086e-001 1.412224e-001 -3.894981e-002 6.880917e-002 1.956851e-001 9.769607e-001 2.460408e-002 -1.843366e-001 -1.835614e-001 -7.886864e-002 -1.164125e-001 -4.752235e-002 -4.703733e-002 4.527630e-002 -2.473904e-003 -5.086980e-002 -8.314780e-002 5.173609e-001
<VARIANCE> 39
 1.164080e+001 1.424610e+001 1.087619e+001 1.382093e+001 1.655530e+001 2.022499e+001 1.643594e+001 1.956294e+001 1.967935e+001 1.871471e+001 1.515829e+001 1.501822e+001 5.061248e+001 5.226889e+000 9.001343e-001 1.108330e+000 7.904624e-001 1.027286e+000 8.818440e-001 1.055792e+000 1.169230e+000 1.074650e+000 9.925046e-001 8.423446e-001 7.480015e-001 2.054332e+000 1.715925e-001 2.255458e-001 2.179146e-001 2.058537e-001 2.521148e-001 2.045679e-001 2.100695e-001 3.034046e-001 2.412824e-001 2.603476e-001 1.813358e-001 1.742708e-001 3.334569e-001
<GCONST> 9.110508e+001
<MIXTURE> 5 2.068335e-001
<MEAN> 39
 -2.021909e+001 -9.984451e+000 -6.729591e+000 -7.345129e+000 -2.471892e+000 -4.791529e+000 1.153026e+000 -3.073502e+000 2.844813e+000 -2.440214e+000 2.115182e+000 -4.461409e+000 5.656162e+001 -7.550469e-002 -3.390616e-001 -2.609695e-001 -1.641153e-001 -2.505815e-001 -3.352226e-001 -1.883510e-001 -8.429611e-002 4.175000e-002 -1.080583e-001 -1.626774e-002 1.134974e-001 6.921695e-002 5.919338e-001 1.408814e-001 1.496889e-001 7.247724e-002 -6.017314e-003 -1.029698e-002 -2.667315e-002 -1.270029e-001 -1.681242e-001 -7.092141e-002 -1.291935e-002 3.628972e-002 1.411253e-001
<VARIANCE> 39
 7.751037e+000 6.621178e+000 1.080824e+001 1.063168e+001 1.389164e+001 1.918054e+001 1.836368e+001 2.019177e+001 2.271420e+001 2.172500e+001 1.734904e+001 1.801889e+001 3.309019e+001 7.825395e-001 4.282277e-001 4.808129e-001 6.776717e-001 5.987315e-001 5.308657e-001 6.370999e-001 7.854891e-001 1.021854e+000 7.998449e-001 6.746366e-001 7.092140e-001 4.619493e-001 1.764439e-001 7.125112e-002 1.147729e-001 1.333105e-001 1.321487e-001 1.443178e-001 1.714431e-001 1.648868e-001 1.984421e-001 1.929329e-001 1.511891e-001 1.592695e-001 8.461376e-002
<GCONST> 7.600114e+001
<MIXTURE> 6 1.419826e-001
<MEAN> 39
 -1.892211e+001 -8.532120e+000 -5.602285e+000 -5.656901e+000 -2.195861e+000 -4.486894e+000 1.112415e+000 -3.739286e+000 1.480850e+000 -3.647330e+000 1.565333e+000 -3.416152e+000 5.421468e+001 -9.801210e-001 -5.002878e-001 -4.408021e-001 -5.696294e-002 -2.884457e-001 -1.743308e-001 -1.135743e-001 -1.098910e-001 -1.115514e-001 -2.355512e-001 -2.409488e-001 -1.227746e-001 -2.753061e-001 9.176825e-001 -6.044573e-003 -1.562861e-001 -2.526716e-001 -7.275662e-002 -1.870436e-001 -8.873796e-002 -1.247982e-001 -4.073452e-002 -4.743024e-002 -1.315302e-001 -1.645576e-001 4.827596e-001
<VARIANCE> 39
 1.026664e+001 1.222109e+001 1.107668e+001 1.336691e+001 1.821153e+001 1.964962e+001 1.448402e+001 1.776810e+001 2.204502e+001 1.862616e+001 1.544748e+001 1.507543e+001 5.181227e+001 5.185998e+000 8.906167e-001 1.198337e+000 8.516046e-001 9.993795e-001 1.034054e+000 1.084016e+000 1.300327e+000 1.034071e+000 1.241504e+000 9.167687e-001 8.450215e-001 1.989365e+000 1.663554e-001 2.316162e-001 2.175892e-001 2.330724e-001 2.559791e-001 2.181062e-001 2.126295e-001 2.920161e-001 2.447321e-001 2.747635e-001 1.757326e-001 1.841086e-001 3.677261e-001
<GCONST> 9.192886e+001
<STATE> 4
<NUMMIXES> 6
<MIXTURE> 1 1.442210e-001
<MEAN> 39
 -8.988770e+000 -4.370360e+000 6.251256e-001 -2.006430e+000 6.250872e-002 -5.189151e+000 7.135203e-001 7.936940e-001 4.110306e+000 -3.406311e+000 1.435129e+000 -1.863199e+000 5.335076e+001 3.954720e+000 -6.361048e-001 -5.914633e-001 4.241828e-001 -7.167466e-001 -4.653415e-001 -6.586275e-001 -1.906561e-001 1.476336e+000 1.285423e-001 -6.880953e-001 -1.944218e-001 2.154158e+000 3.949803e-001 -2.771949e-001 -1.821136e-001 -9.389772e-002 -3.490627e-001 1.290994e-001 -5.535834e-002 -1.745882e-001 2.429299e-001 -4.447605e-002 -3.580504e-002 -9.818353e-002 4.631166e-001
<VARIANCE> 39
 4.566555e+001 2.572181e+001 2.569296e+001 2.678100e+001 5.098808e+001 3.070295e+001 3.599705e+001 4.427716e+001 4.027168e+001 3.658163e+001 2.715942e+001 2.197585e+001 6.483204e+001 1.756206e+000 1.603877e+000 2.153044e+000 2.035880e+000 2.758553e+000 3.321281e+000 2.730488e+000 2.865913e+000 2.499155e+000 2.821737e+000 1.821397e+000 1.055599e+000 1.636106e+000 4.317561e-001 1.532834e-001 1.969401e-001 1.668887e-001 2.659283e-001 2.967200e-001 3.159516e-001 3.348386e-001 3.419852e-001 3.073399e-001 2.675093e-001 1.646923e-001 1.287469e-001
<GCONST> 1.094121e+002
<MIXTURE> 2 1.995855e-001
<MEAN> 39
 5.008644e+000 -5.618189e+000 -1.448796e+001 -1.095732e+001 5.093556e+000 -4.993970e+000 -7.308664e+000 -5.026335e-001 5.233790e+000 -2.199968e+000 -2.450388e-001 -9.206446e+000 6.163722e+001 1.137951e+000 -4.848230e-001 -4.700006e-001 -1.903015e-001 -3.686959e-001 9.476540e-002 -4.553913e-001 5.300423e-001 4.290977e-001 -3.089389e-001 -6.992657e-002 -2.782646e-001 9.490306e-001 -4.834872e-001 -1.093667e-001 3.573560e-001 2.138489e-001 -2.822136e-001 -4.655464e-002 3.395042e-001 -7.650149e-003 -1.763113e-001 -1.472211e-001 -5.564816e-002 1.827387e-001 -2.260865e-001
<VARIANCE> 39
 2.069020e+001 2.901275e+001 6.356849e+001 5.059369e+001 6.255273e+001 6.394439e+001 4.959596e+001 5.305978e+001 7.567158e+001 3.951459e+001 6.279188e+001 2.903851e+001 5.184149e+001 3.359843e+000 7.461621e-001 2.792135e+000 1.609954e+000 2.394702e+000 2.025639e+000 2.045621e+000 2.799309e+000 3.102926e+000 2.661041e+000 2.703678e+000 1.145660e+000 1.995023e+000 2.826564e-001 9.259995e-002 1.565526e-001 1.377317e-001 2.201920e-001 2.183177e-001 3.524501e-001 3.744335e-001 3.989373e-001 3.058777e-001 3.544106e-001 1.297813e-001 9.247114e-002
<GCONST> 1.113546e+002
<MIXTURE> 3 2.215844e-001
<MEAN> 39
 -1.287128e+001 -7.965721e+000 -5.827905e+000 -6.122896e+000 -1.662800e+000 -3.790941e+000 2.399970e+000 -3.655018e+000 1.006288e+000 -2.332471e+000 1.116503e+000 -4.596589e+000 5.805802e+001 3.441394e+000 5.828869e-001 -8.380006e-001 -9.168192e-001 1.514772e-001 -5.772309e-001 -2.620253e-001 7.994729e-002 3.168259e-001 3.854859e-001 -1.121285e-001 -4.959337e-001 1.843397e+000 2.964311e-001 3.090505e-002 -3.026362e-001 -3.378093e-001 -5.414287e-002 -2.639574e-001 -1.067356e-001 5.090455e-002 1.303440e-001 -3.330522e-002 -2.151209e-002 -2.385400e-002 3.637509e-001
<VARIANCE> 39
 3.664950e+001 1.900809e+001 2.144103e+001 1.778050e+001 1.804560e+001 2.344696e+001 1.644309e+001 1.885818e+001 1.944246e+001 2.226075e+001 2.283729e+001 1.640955e+001 2.884326e+001 1.111874e+000 1.961462e+000 3.940830e+000 1.907772e+000 3.198349e+000 1.580209e+000 1.807502e+000 1.831473e+000 1.663448e+000 2.301037e+000 1.836219e+000 1.166323e+000 1.695534e+000 3.060104e-001 1.595898e-001 2.838829e-001 1.780928e-001 2.622164e-001 1.834315e-001 1.874175e-001 1.928225e-001 2.033516e-001 1.906662e-001 2.341983e-001 1.993852e-001 1.543645e-001
<GCONST> 9.901451e+001
<MIXTURE> 4 1.235959e-001
<MEAN> 39
 2.441642e+000 -5.050000e+000 -1.467708e+001 -1.223782e+001 1.199765e+000 -1.137595e+001 -1.680691e+000 -3.110898e+000 1.831743e+000 -6.169809e+000 -5.285145e+000 -6.753559e+000 6.215242e+001 2.603581e+000 -5.473370e-001 -2.412571e+000 -8.516259e-001 8.535332e-001 -1.066740e+000 4.624022e-002 3.286237e-001 5.816011e-001 -4.468700e-001 -1.242315e+000 -7.389212e-001 2.413067e+000 -8.781661e-001 -2.509367e-001 4.603780e-001 3.924471e-001 -8.598986e-002 4.061512e-001 1.863941e-001 -1.052341e-002 1.096740e-002 9.265060e-002 2.667813e-001 1.292066e-001 -3.404246e-001
<VARIANCE> 39
 3.875545e+001 3.677132e+001 1.191509e+002 6.333520e+001 8.906740e+001 6.095761e+001 5.515037e+001 5.615255e+001 9.697423e+001 1.093934e+002 7.273582e+001 4.621396e+001 6.556794e+001 3.395215e+000 3.135033e+000 3.210242e+000 2.043126e+000 3.117895e+000 2.647896e+000 3.110143e+000 2.294864e+000 4.016500e+000 3.251155e+000 3.110444e+000 2.375083e+000 2.509918e+000 2.169611e-001 2.194328e-001 3.367316e-001 2.598580e-001 4.129678e-001 3.306947e-001 4.320506e-001 4.965197e-001 4.149915e-001 5.043213e-001 3.405210e-001 3.591369e-001 2.251638e-001
<GCONST> 1.257225e+002
<MIXTURE> 5 1.685015e-001
<MEAN> 39
 -1.583336e+001 -7.157811e+000 -5.939413e+000 -5.855983e+000 -2.086592e+000 -4.653692e+000 -2.934806e-001 -5.465256e+000 2.182092e+000 -4.333389e+000 1.544678e+000 -2.743880e+000 5.344948e+001 2.613762e+000 -3.704664e-001 -1.035072e+000 -7.066432e-001 1.402328e-001 -4.838864e-001 -1.474119e-001 -4.582787e-001 -4.129219e-001 -6.444234e-001 -8.334445e-001 -3.977808e-001 1.729452e+000 5.329760e-001 -2.450807e-001 -3.716215e-001 -1.985422e-001 2.103964e-001 -9.694995e-002 1.088703e-001 8.387375e-002 -1.098979e-002 -7.365823e-002 -1.568516e-001 -1.955748e-001 5.478846e-001
<VARIANCE> 39
 2.047218e+001 1.772280e+001 1.301719e+001 2.001894e+001 1.434180e+001 2.005567e+001 1.789392e+001 1.675416e+001 3.001499e+001 1.983591e+001 1.810532e+001 1.632563e+001 5.850769e+001 3.596076e+000 1.721393e+000 2.013361e+000 2.437554e+000 1.724667e+000 1.181927e+000 9.583980e-001 2.298319e+000 1.521184e+000 1.699905e+000 1.318140e+000 1.232661e+000 5.436048e+000 2.338664e-001 2.544098e-001 2.388248e-001 2.546840e-001 2.380170e-001 1.857858e-001 1.448059e-001 2.363221e-001 2.989500e-001 1.967166e-001 1.964226e-001 2.063661e-001 4.057119e-001
<GCONST> 9.963408e+001
<MIXTURE> 6 1.425113e-001
<MEAN> 39
 -1.076323e+001 -5.271395e+000 -6.668161e-001 -4.271273e+000 -7.942157e-001 -5.682301e+000 6.176820e-002 -1.775332e+000 2.085975e+000 -4.537672e+000 6.413367e-001 -3.056687e+000 5.344780e+001 3.837269e+000 -8.984852e-001 -9.848298e-001 -1.546971e-001 -1.165245e+000 -8.604990e-001 -1.022918e+000 -5.469306e-001 9.765982e-001 -6.707408e-001 -8.505693e-001 -4.683578e-001 1.976443e+000 3.807116e-001 -3.917249e-001 -3.611695e-001 -1.547310e-001 -4.208325e-001 2.682947e-002 -2.656294e-002 -1.245937e-001 2.284134e-001 -7.594192e-002 -7.866437e-002 -1.718133e-001 4.317949e-001
<VARIANCE> 39
 6.227690e+001 2.970095e+001 3.426859e+001 4.077134e+001 3.935329e+001 3.131970e+001 3.938158e+001 4.344351e+001 4.289917e+001 4.578751e+001 2.843129e+001 2.432381e+001 7.003271e+001 1.641248e+000 1.711149e+000 1.934288e+000 2.211753e+000 2.623347e+000 2.960791e+000 2.499693e+000 2.494772e+000 3.333471e+000 3.181468e+000 1.885426e+000 1.369183e+000 1.234699e+000 4.785497e-001 1.510223e-001 2.032153e-001 1.991394e-001 2.647108e-001 3.253544e-001 3.499014e-001 3.847589e-001 3.512630e-001 3.400004e-001 3.157457e-001 1.917815e-001 1.404820e-001
<GCONST> 1.120778e+002
<TRANSP> 5
 0.000000e+000 1.000000e+000 0.000000e+000 0.000000e+000 0.000000e+000
 0.000000e+000 7.927541e-001 2.072459e-001 0.000000e+000 0.000000e+000
 0.000000e+000 0.000000e+000 7.854082e-001 2.145918e-001 0.000000e+000
 0.000000e+000 0.000000e+000 0.000000e+000 6.775914e-001 3.224086e-001
 0.000000e+000 0.000000e+000 0.000000e+000 0.000000e+000 0.000000e+000
<ENDHMM>
~h "g"
<BEGINHMM>
<NUMSTATES> 5
<STATE> 2
<NUMMIXES> 6
<MIXTURE> 1 2.246659e-001
<MEAN> 39
 -6.795829e+000 -1.523235e+000 5.451604e+000 -3.080608e-001 -3.507265e+000 -4.393150e+000 -2.074799e+000 -7.844655e+000 -5.486501e+000 -4.170304e+000 -4.738578e-001 -4.238955e+000 4.662757e+001 -4.115951e-001 -2.454717e+000 -3.334715e+000 1.710752e+000 8.798509e-001 -1.941914e+000 1.983035e+000 1.406877e+000 1.312572e-001 6.404896e-001 2.866444e-001 2.261950e-001 1.398961e+000 3.327414e-001 -1.196304e-001 -6.218975e-001 -1.003085e+000 -1.769400e-001 8.860654e-002 -4.276101e-001 2.976505e-001 7.604257e-001 7.052222e-002 2.086640e-001 7.753203e-002 1.459804e+000
<VARIANCE> 39
 3.080244e+001 6.001370e+001 4.744708e+001 2.757354e+001 2.768588e+001 5.472258e+001 3.601950e+001 5.042385e+001 3.547065e+001 2.900671e+001 3.491444e+001 1.545031e+001 4.182849e+001 1.772244e+000 1.930462e+000 1.947089e+000 3.891808e+000 2.118058e+000 2.541647e+000 2.046991e+000 2.333031e+000 1.616897e+000 3.229030e+000 2.127605e+000 8.969928e-001 1.845138e+000 3.007857e-001 4.146910e-001 4.121644e-001 2.776902e-001 5.636353e-001 4.156290e-001 3.409908e-001 4.521245e-001 1.963155e-001 4.394772e-001 3.423230e-001 1.650099e-001 3.071016e-001
<GCONST> 1.135028e+002
<MIXTURE> 2 1.247484e-001
<MEAN> 39
 -5.379232e+000 -2.960347e+000 -1.148476e+000 -3.684221e+000 -1.694032e+000 -5.778822e+000 -4.035100e+000 -3.735783e+000 -4.361180e-001 -4.569148e+000 9.596251e-001 -2.002459e+000 4.948733e+001 -1.163450e+000 -2.028095e+000 -4.719113e-001 7.889502e-002 -1.617805e+000 8.067413e-001 1.084212e+000 1.081250e-001 6.973699e-001 8.346879e-002 1.523710e-001 2.536548e-001 2.224177e+000 2.216102e-001 -3.089041e-002 2.241433e-003 -6.294787e-001 -2.215698e-001 2.412535e-002 8.197776e-002 5.338676e-002 1.016560e-001 2.400711e-001 7.667915e-002 -8.854922e-002 1.018856e+000
<VARIANCE> 39
 5.103483e+001 5.651059e+001 4.122573e+001 5.039193e+001 2.656718e+001 2.091639e+001 3.661672e+001 2.177202e+001 4.650228e+001 2.579072e+001 1.989664e+001 2.546434e+001 4.717588e+001 1.337337e+000 2.658493e+000 3.222308e+000 2.299789e+000 1.765114e+000 2.406135e+000 2.091441e+000 2.716910e+000 2.516029e+000 2.470289e+000 1.970880e+000 1.460455e+000 2.440911e+000 1.656536e-001 4.256338e-001 4.097029e-001 3.110701e-001 3.586401e-001 2.124081e-001 3.790000e-001 1.090698e-001 3.403160e-001 1.524009e-001 2.864755e-001 2.312333e-001 3.476503e-001
<GCONST> 1.104843e+002
<MIXTURE> 3 1.796343e-001
<MEAN> 39
 -8.962283e+000 3.671964e+000 3.331014e+000 6.474060e-001 1.835608e+000 -2.147130e+000 -8.498620e-001 -4.226167e+000 -6.671220e-001 -3.283743e+000 4.538034e-001 -4.023210e+000 3.685430e+001 -2.221200e+000 -3.130860e+000 -1.512192e+000 -9.732696e-002 -2.116610e-001 2.677095e-001 6.552258e-001 -3.300479e-002 5.678183e-001 -1.522713e-001 1.541812e-001 2.578771e-001 1.757539e+000 3.170356e-001 -6.084722e-001 -3.190179e-001 -1.135789e+000 -5.779493e-001 -5.761989e-001 4.164099e-002 5.673262e-002 1.616262e-001 2.204098e-001 8.230378e-002 6.727569e-003 2.163722e+000
<VARIANCE> 39
 1.948706e+001 1.132976e+001 5.777155e+000 1.151320e+001 2.201296e+001 2.174068e+001 1.673037e+001 1.582271e+001 1.673658e+001 2.178444e+001 1.176090e+001 1.921379e+001 3.722210e+000 1.324280e+000 1.771657e+000 1.139583e+000 2.874905e+000 3.612386e+000 1.678749e+000 3.102602e+000 1.919068e+000 1.578189e+000 2.150956e+000 1.231650e+000 8.523063e-001 2.985345e+000 1.780654e-001 5.240273e-001 3.227104e-001 3.075808e-001 4.326793e-001 3.714818e-001 4.242162e-001 2.713598e-001 1.702424e-001 1.552767e-001 1.707668e-001 2.108041e-001 2.381487e-001
<GCONST> 9.658133e+001
<MIXTURE> 4 1.337549e-001
<MEAN> 39
 -1.716953e+000 1.856085e+000 5.613415e+000 -7.746993e+000 -3.810296e+000 -3.405854e+000 -1.086052e+001 -6.652445e+000 -5.393950e+000 -6.515844e+000 6.248209e+000 -3.498294e+000 4.778755e+001 -2.165930e+000 -3.081714e+000 -1.048897e+000 1.928384e+000 -1.667732e+000 2.281830e-001 3.398523e+000 -1.432160e+000 1.156550e+000 6.396681e-001 -1.069457e+000 7.381573e-001 1.255307e+000 -2.597260e-001 -3.679977e-001 -4.384984e-001 -2.837091e-002 -1.464755e-001 -3.846992e-001 5.513290e-001 4.742596e-001 2.147641e-001 3.452627e-001 -2.147667e-001 -8.535434e-002 1.067426e+000
<VARIANCE> 39
 6.985605e+000 2.051122e+001 2.025949e+001 5.427795e+001 2.224624e+001 4.282658e+001 3.900823e+001 3.535288e+001 2.743841e+001 5.054033e+001 7.095496e+001 4.264397e+001 3.045261e+001 4.554603e-001 1.388288e+000 1.441509e+000 3.238681e+000 2.192042e+000 5.031992e+000 2.049649e+000 1.852596e+000 2.032753e+000 2.233166e+000 2.849499e+000 2.378604e+000 9.031094e-001 1.993642e-001 2.615890e-001 4.231077e-001 4.399109e-001 2.402518e-001 2.820314e-001 3.458388e-001 1.713160e-001 2.074475e-001 2.910725e-001 4.172459e-001 3.528754e-001 3.394070e-001
<GCONST> 1.085849e+002
<MIXTURE> 5 2.110107e-001
<MEAN> 39
